3.0549586e-08,-1.09500995e-08,-5.7322833e-08,-2.1605523e-07,-1.6497491e-08,-0.5181735,0.11637473,-0.3848196,-0.59368247,-0.6899787,1.2193529e-08,-5.8661044e-08,0.8451401,3.8473004e-08,-0.45706692,0.37530825,-0.54812574,-5.229341e-08,1.0961787,1.10707454e-07,-1.2485735e-07,-0.11390373,-0.047963373,1.1571407e-08,-0.19801494,6.2118445e-08,-5.8607576e-08,-7.358878e-09,-1.3060831e-08,-0.51574326,-0.2887703,4.0745974e-08,1.4394393e-08,3.9281474e-08,0.6451282,3.4763147e-08,-3.9151978e-08,-4.2318433e-09,-1.1699329e-07,0.94507086,6.321067e-08,-1.2435205e-08,1.02828864e-07,5.7368283e-08,-1.0178061e-07,1.019722,1.0148206,0.5364145,-0.572287,0.74496615,-8.5796714e-08,8.397744e-09,-0.5976922,1.4240392e-08,-0.82254857,-0.9806257,0.65170777,-9.365188e-09,-0.6401906,-2.6826275e-08,1.4464793e-07,0.9242971,1.1361337,-1.1255323e-08,-0.06711136,1.1298861e-07,1.0523377e-09,2.9135727e-08,-9.7765486e-08,0.51151395,-0.5581471,4.394557e-08,-8.202068e-08,-1.5427e-07,0.5436307,1.825542e-08,1.3985414e-07,3.8678607e-08,6.602442e-08,0.71052194
-4.0018985e-08,9.628947e-08,-1.16516645e-08,4.986032e-08,1.7066899e-08,-0.60853916,-0.06399891,0.7801838,-0.4881999,-0.66206425,7.8841566e-08,6.982708e-08,0.7726779,1.3325159e-07,-0.36678514,0.35472,-0.49199012,-4.048625e-08,1.0376668,7.905435e-08,9.012433e-08,-0.082474574,-0.17613545,-1.3792079e-09,-0.39182937,-2.3695005e-08,-3.2310183e-08,1.1120314e-09,8.249196e-09,-0.59507203,-0.18430798,7.313987e-08,-1.2745664e-07,4.0044377e-09,0.5669641,-2.8115679e-09,-3.7231047e-08,1.949499e-07,-2.5181173e-09,0.8997989,-1.3187669e-07,-2.5260707e-08,-8.6210214e-08,2.0359835e-08,1.0689053e-08,0.8904708,0.94645226,0.7485824,-0.6252357,0.6655968,1.9376863e-08,-7.8930924e-08,-0.57881385,-1.4054233e-07,-0.8226501,-0.95602494,0.6270412,-1.2966149e-07,-0.5531687,3.271634e-08,-1.4624238e-08,0.8654702,1.0961293,1.4943318e-07,-1.038724,-4.603822e-09,1.5910501e-08,5.2632906e-08,-2.5840887e-08,0.4183109,-0.8753294,8.880686e-08,1.07437856e-07,-1.6107151e-08,0.57340056,-1.8324744e-08,-9.49104e-08,4.1893564e-09,4.0457017e-08,0.680119
-1.9004247e-09,1.4512774e-07,2.521945e-08,-1.8866135e-08,-3.8123662e-08,-0.142249,-0.016243514,0.14022146,-0.6014703,-0.48409447,-3.1906797e-08,7.560607e-08,0.7459978,-6.352241e-08,-0.550973,0.074857816,-0.5456138,8.095199e-08,0.9417026,-6.679291e-08,-1.5619678e-08,0.03520499,0.09884572,6.327019e-08,-0.7159777,9.957306e-09,-1.3751266e-07,2.5759736e-08,-1.962766e-08,-0.2157666,0.18977043,3.7206505e-09,5.7608947e-08,6.371717e-08,0.6506316,8.80803e-10,-3.511621e-08,5.71442e-08,-4.1698858e-08,0.8108579,-1.04675266e-07,1.0928319e-07,1.9776456e-07,4.7646797e-08,1.7917241e-08,0.9159073,0.88906056,0.9256034,-0.21099049,0.59620774,3.963691e-08,-4.3532626e-09,-0.31303775,-2.9602992e-08,-0.32488087,-0.8970508,0.41122812,-4.4978414e-08,-0.2676776,3.047593e-08,-5.041563e-08,0.82825744,0.99469495,6.495908e-09,-0.4662843,-5.2818805e-08,-4.3074227e-08,-1.4596024e-08,-3.0556834e-08,0.6075349,-0.9599813,1.858464e-08,-2.689401e-08,-1.0514298e-07,0.15314735,-4.7418434e-09,-9.4325316e-08,-7.965781e-09,5.2752917e-08,0.40490478
-1.0626705e-07,3.6750645e-08,-1.5634964e-08,-7.605788e-08,-7.409388e-08,-0.4579008,-0.16836853,-0.06855618,-0.82034445,-0.39377716,6.324102e-08,8.070712e-09,0.97478694,2.8665617e-08,-0.92362493,0.42734462,-0.6506137,1.3501295e-07,1.1604112,-4.2213607e-08,-1.3791254e-08,0.06238537,-0.5140132,1.07494635e-08,-0.8481409,7.6658594e-08,1.4297676e-08,-4.4758394e-08,-7.518618e-08,0.38346952,0.54891187,-6.342908e-08,-1.7454822e-07,-1.2949428e-08,0.8751951,3.4832667e-08,-2.0527287e-09,3.213721e-08,9.412044e-10,1.083752,-1.1743377e-07,9.93319e-09,-1.1137762e-07,6.878571e-08,-8.640432e-08,1.1206741,1.1132951,0.90619326,-0.15615381,0.9527467,-5.570339e-09,8.3675914e-08,-0.19085418,-9.21149e-09,0.05395279,-1.0953845,0.63867885,-2.7734991e-08,-0.033252906,6.599798e-08,2.9962948e-08,1.0321236,1.1299299,-8.607527e-08,0.1505979,-1.06825084e-07,4.7515066e-08,1.409299e-07,-4.0768143e-08,0.94097334,-0.84215397,-4.5318664e-09,5.4416482e-08,1.13717526e-07,-0.01877332,-2.3821016e-08,1.1969222e-08,-3.6540804e-08,2.1713909e-08,0.16957818
-2.4486532e-08,-1.0129049e-07,9.531254e-08,4.518526e-08,4.180147e-08,-0.3649233,0.54210335,0.7588203,-0.6145214,-0.42918643,7.380649e-08,2.0469399e-08,0.8443029,1.4967307e-08,-0.8047035,0.1718861,-0.6364963,2.9992773e-08,1.0564103,-5.965557e-10,3.8349306e-09,-0.58582515,-0.2398605,-9.6449476e-08,-0.8690529,-6.7562254e-08,-5.7842353e-08,9.224581e-08,-2.0600611e-08,0.8185922,1.5323044,-3.0568312e-08,-7.7839736e-08,6.7845725e-08,0.6846303,-8.1527276e-08,-6.0154095e-09,-2.3343995e-08,7.578535e-08,0.95566225,-6.111005e-08,6.515777e-08,-7.1112822e-09,1.8732538e-07,-8.893117e-09,0.95713073,0.9159077,0.78155327,-0.15352763,0.7643755,-3.393807e-09,-4.42047e-08,-0.3029432,-8.034471e-08,0.6327266,-0.8903015,0.38212714,-7.82842e-08,-0.1748715,2.95538e-08,9.756789e-09,0.8100697,0.9865579,1.09585415e-07,0.06635838,-9.758203e-08,-1.2165356e-07,2.0342794e-08,-9.5701225e-09,0.6707851,-0.7215809,5.091376e-09,1.30302755e-08,7.563338e-08,0.070915915,1.5520138e-07,6.2932244e-08,-6.3261894e-09,6.597455e-08,0.3655045
-6.945535e-08,7.922107e-09,9.345639e-08,-3.9662844e-08,-2.7148847e-08,-0.3596614,0.6859337,0.7794151,-0.58448124,-0.48861492,1.5851505e-08,8.860544e-09,0.80564183,-1.7479532e-08,-0.7592411,0.09055553,-0.62185955,1.0914139e-08,1.0161077,-1.8209434e-09,3.912511e-08,-0.7061454,-0.15251091,-7.176304e-10,-0.91958296,-7.109057e-08,-1.0087724e-07,4.771195e-08,6.982045e-08,0.6925665,1.6764286,-1.0504371e-07,-8.373131e-08,-5.4455455e-08,0.6454287,1.8370056e-07,-5.9658284e-08,-4.2036792e-08,-8.9586614e-08,0.9021904,7.438479e-08,1.1752036e-08,7.70529e-08,-9.037247e-09,2.1373836e-10,0.9416288,0.9425748,0.86808735,-0.2319213,0.6873268,8.3861764e-08,6.909232e-08,-0.37992355,-1.3739635e-08,0.54187715,-0.9294434,0.40137216,-8.8582105e-08,-0.2413772,-1.2710588e-07,-3.7843684e-09,0.8285791,0.9985869,2.0343428e-08,-0.2333198,-1.4050789e-08,-3.7799023e-08,7.336444e-08,-3.2397423e-08,0.6394441,-0.8705,-3.610859e-08,-1.2096217e-07,2.109454e-08,0.17473187,-1.11991646e-07,-3.461447e-08,2.912195e-08,-4.5499775e-08,0.4716094
8.7574215e-08,5.4225424e-09,1.4307214e-07,-4.846515e-08,-6.6090614e-08,-0.47126234,0.6644902,0.7388134,-0.58364767,-0.5780816,-9.358374e-08,-2.2795284e-08,0.8422703,9.879996e-08,-0.8317286,0.20376416,-0.6495597,-7.193968e-08,1.0342262,-9.691533e-08,5.220544e-08,-0.72336733,-0.15977027,2.5803786e-08,-1.069361,-7.698464e-08,3.2285623e-08,3.3177542e-08,-9.908228e-08,0.5615042,1.8834975,1.6131136e-07,-9.490803e-08,4.6573845e-08,0.6120808,2.7354227e-08,1.2687346e-07,-3.4677047e-08,-3.0652256e-08,0.9047301,-6.1684613e-09,3.3020417e-08,-6.539487e-09,1.10524265e-08,1.3374851e-07,0.97085416,0.99150586,1.0204176,-0.16544475,0.7028556,-9.089874e-08,-3.373254e-08,-0.42151296,3.9016708e-08,0.6064898,-0.9664164,0.43936163,-3.9409638e-08,-0.3131265,1.5308341e-08,1.9817087e-08,0.8400317,1.0385381,-8.915231e-09,-0.11678058,1.2933803e-08,-1.5464611e-08,-1.3906334e-08,-1.0890021e-07,0.6532445,-0.8744686,1.467238e-07,-8.745191e-08,-3.834002e-08,0.15702403,1.12167626e-07,-1.2535535e-08,-3.477189e-08,3.9485613e-08,0.54929954
-8.643683e-08,4.4152593e-09,7.724367e-08,9.9503254e-08,3.1306435e-08,-0.62984014,0.32053545,1.0085534,-0.62569946,-0.6231902,-3.4198135e-09,9.1962164e-08,0.9003411,1.6442634e-08,-0.84392047,0.4052641,-0.67376286,-1.1148695e-07,1.0922282,-1.26839925e-08,-1.0924839e-07,-0.4957475,-0.4182443,3.144622e-08,-0.9223229,-7.156838e-08,-5.103759e-08,1.5106695e-08,-3.63805e-08,0.30311355,1.3131588,2.6591426e-08,9.628842e-08,4.656252e-08,0.66283107,-1.090438e-07,1.5147563e-09,2.7097911e-08,5.6182326e-08,0.95656747,1.2404822e-08,-8.568581e-08,5.9163987e-08,5.5369412e-08,-4.4518167e-10,1.0045865,1.047691,0.89383113,-0.4034566,0.7774095,3.276852e-08,1.358633e-08,-0.5113081,-2.2472705e-08,0.29927766,-1.0014828,0.5626667,2.9191078e-08,-0.36091653,-1.4696572e-07,-9.684343e-08,0.9081038,1.0887485,9.7401305e-08,-0.43545255,-9.950712e-09,-1.3785852e-07,-3.025225e-08,1.5024824e-08,0.6857885,-0.88046277,1.698228e-07,9.759659e-08,4.4206292e-08,0.36202893,-1.1112216e-07,5.2066454e-08,1.0460031e-07,-1.3416493e-08,0.6554811
-1.4993809e-08,-4.283045e-10,-8.1850224e-08,1.3369517e-08,7.5532114e-10,-0.2862961,0.36916575,0.59024554,-0.5196487,-0.46494585,-4.645983e-08,-7.081454e-08,0.7940259,1.7044464e-09,-0.934107,0.14283635,-0.63381606,2.0609683e-08,1.0199819,-8.1745185e-08,-1.8901082e-08,-0.48239183,-0.26423207,-2.2873863e-09,-0.96669555,1.4065051e-08,5.7947283e-08,-6.213515e-09,-1.8362459e-07,0.94529164,1.382346,3.655508e-08,1.4957113e-08,-8.3695824e-08,0.5727556,1.5027027e-07,-7.596508e-08,1.3246311e-08,-1.0133783e-07,0.8560187,-1.2626984e-09,3.5920802e-08,8.377815e-08,1.2822889e-07,2.6183749e-08,0.9573817,0.92674404,0.86816555,-0.03770381,0.60461295,-6.377841e-08,-2.0364847e-07,-0.2395392,-3.025466e-08,0.98522407,-0.9022875,0.24693412,5.5580742e-08,-0.13805489,2.2436097e-09,-3.9286835e-08,0.75891894,0.9730949,-6.003944e-08,0.20087309,-5.200148e-08,7.423184e-08,-5.29284e-09,1.09041935e-07,0.7031618,-0.78214025,1.5386135e-08,-5.9083867e-08,-1.6260998e-07,-0.019618109,3.0292355e-08,-1.4293597e-08,-9.1843475e-09,-5.2645667e-08,0.3936648
7.3426953e-09,3.400866e-08,2.5233664e-08,-7.941681e-08,-9.689124e-08,-0.31446013,0.3875905,1.09688,-0.5037445,-0.30520836,2.6910534e-08,-9.120426e-08,0.8063028,-2.0009116e-08,-0.77823365,0.13635933,-0.521659,1.02302494e-07,1.0138522,6.49505e-08,3.009143e-08,-0.43850338,-0.25953618,7.584898e-08,-0.8908563,8.728427e-08,-1.2476268e-08,7.812123e-08,5.1942052e-08,0.85868305,1.3759387,-2.6012367e-08,-1.267916e-07,5.8970198e-08,0.5369038,3.2143106e-09,-3.040075e-08,4.2606082e-08,1.9806829e-07,0.92114174,2.315738e-07,1.9546373e-09,-1.8456866e-07,-1.4551723e-08,7.1767474e-08,0.8884212,0.8920862,0.86553407,-0.10743689,0.7524903,-5.8523543e-08,2.1820064e-08,-0.28308252,-6.200598e-08,0.7502304,-0.8708744,0.3393919,-3.9412168e-08,-0.21943042,-8.636003e-08,4.841901e-09,0.7588406,0.9681245,6.763581e-08,-0.45408142,-8.129017e-08,-1.9682588e-08,2.7373778e-08,1.7435479e-08,0.6070815,-0.86857605,5.9332357e-09,-5.3898795e-08,2.5395448e-08,0.106014766,9.115547e-08,-1.0341141e-07,2.747007e-09,8.703985e-09,0.3355027
3.328986e-09,-7.685241e-09,1.1088182e-07,1.444608e-08,-7.911965e-08,-0.011096491,0.37560216,0.08133298,-0.6015921,-0.29685903,8.202389e-08,4.0088466e-08,0.7587985,1.15991234e-07,-0.7969852,-0.14623825,-0.5834818,2.3828523e-08,0.9513008,-1.4755467e-07,-5.4144362e-08,-0.27380908,0.008369394,-1.37183935e-08,-0.8664317,-4.8939093e-08,-3.2698782e-08,2.397238e-08,-4.550976e-08,0.92005605,1.0705985,-4.6446313e-10,-2.3856813e-08,-3.3705092e-08,0.6273675,-4.6470173e-08,-5.8434637e-08,-4.1894126e-08,-2.652411e-08,0.8445447,2.1812756e-08,-6.39598e-08,-8.332604e-08,9.186892e-08,3.281123e-08,0.86467546,0.86225927,0.880505,0.3049207,0.5381401,-1.8313713e-08,-6.286024e-09,-0.119965546,-2.2203821e-08,1.0603557,-0.81648403,0.09684843,-8.992451e-10,-0.050488256,-3.769886e-08,-1.02131985e-07,0.7485365,0.87891054,-1.09416845e-07,0.55860364,-8.826042e-08,-1.8570937e-08,-7.2597715e-09,-2.9062534e-08,0.6127436,-0.8273119,2.271172e-08,-3.967717e-09,3.8610878e-08,-0.30475882,7.34888e-08,3.769325e-08,1.234879e-07,4.2875712e-08,0.16202126
8.238618e-08,-7.588863e-11,-1.9892312e-08,1.9856294e-10,7.1490724e-08,-0.12714915,0.2018499,0.2925618,-0.53594303,-0.35013935,-1.19067085e-08,-3.2241058e-08,0.740129,9.309659e-09,-0.7833893,-0.0036091001,-0.6077091,2.8544545e-10,1.0133932,-3.3516546e-08,-9.193049e-08,-0.079538345,-0.1134239,-3.6673995e-08,-0.6973045,1.1408997e-07,8.567877e-08,7.2239466e-08,1.9659158e-08,0.83310175,1.0344836,-1.0230131e-08,-2.186115e-08,-1.2238152e-07,0.5861883,7.0674e-08,2.1540753e-08,1.6688237e-08,-2.7870968e-09,0.84224504,1.5164025e-08,6.440001e-08,-3.668039e-08,-1.7208984e-08,-6.7285555e-08,0.88805616,0.8521228,0.64933753,0.15082885,0.5340037,-1.5766126e-09,-3.385576e-08,-0.072783776,3.5933624e-08,0.9024766,-0.8032634,0.10862802,-6.963268e-08,0.02482934,-7.427518e-08,1.7956898e-08,0.71740836,0.8609884,2.6824384e-08,0.35688403,8.594085e-09,6.443252e-08,3.8530477e-09,-3.4098708e-08,0.6105304,-0.59271425,7.022025e-08,-1.1990798e-07,3.910698e-08,-0.21497844,1.4816948e-08,1.5685622e-08,1.19105415e-07,-1.4453668e-07,0.14349887
4.0422414e-08,-3.6223472e-08,3.3911434e-09,-9.9698454e-08,9.350167e-08,-0.14473826,0.4166237,-0.22657375,-0.3613039,-0.62073797,-8.134258e-08,-9.685576e-08,0.5942476,1.2625178e-07,-0.5956245,-0.20708525,-0.4498206,1.0486096e-07,0.7812255,1.2842477e-07,-7.8222854e-08,-0.40977487,0.36996558,-5.8878296e-08,-0.9484361,-1.6155784e-08,-3.5740456e-08,1.38434e-07,8.9550376e-08,0.15619323,1.1757917,9.30243e-08,1.666632e-07,-4.7217522e-08,0.4139278,5.277117e-08,4.0805574e-08,-1.1379529e-08,2.7008298e-09,0.54153633,-6.80394e-08,-7.252551e-08,1.6642293e-08,-3.9109203e-08,-6.857991e-08,0.8771929,0.84270245,1.0374533,-0.29132402,0.28666303,-4.882871e-09,1.8156395e-08,-0.39443606,-1.261761e-08,0.22684214,-0.91698295,0.33689258,1.7994202e-07,-0.21593857,-6.833611e-08,1.7046094e-08,0.67723995,0.9697454,-7.128378e-08,0.21471347,1.0433837e-07,1.6394957e-08,1.7464193e-07,-1.0516009e-07,0.52268636,-0.8167203,-6.972698e-09,2.7157483e-08,-4.9017224e-08,0.20379183,6.7222416e-08,1.1188994e-07,4.8629257e-08,-7.134716e-08,0.5714212
4.5019814e-08,-9.791982e-08,2.892417e-08,2.0075959e-09,5.30749e-08,0.018634878,0.24073729,-0.39388725,-0.2347439,-0.50642526,-5.7072732e-08,-9.8112e-08,0.29675937,-6.618479e-08,-0.39144388,-0.22428331,-0.29630584,4.9226315e-08,0.32449025,9.4367635e-08,-2.4732309e-08,-0.19527762,0.43905723,-2.9464132e-08,-0.7481084,5.4709766e-09,4.0273235e-08,1.8976795e-08,-7.48455e-08,0.11754707,0.8408285,6.9166504e-08,-2.4230477e-08,-1.1892718e-08,0.25480288,4.227582e-08,-4.474704e-08,-3.1122617e-08,-3.980573e-09,0.12475624,2.030328e-08,3.841383e-08,-1.474737e-07,-8.424517e-08,1.14396904e-07,0.60217226,0.46939498,0.77202195,-0.060445763,0.05353168,2.2881487e-08,1.0696888e-07,-0.15695727,1.496083e-08,0.18889554,-0.6286466,0.14512216,3.9011823e-08,-0.1231997,9.0246914e-08,-1.1665962e-08,0.37336686,0.59159726,1.9895e-08,0.3652479,5.185709e-08,4.0205013e-08,4.537336e-08,-4.82329e-09,0.39083812,-0.43381092,-4.6609333e-08,-2.7131623e-08,-5.8360005e-08,0.016317505,-9.517031e-09,3.5470357e-08,4.3538904e-08,3.4154684e-08,0.34813115
-1.2821914e-07,4.504922e-08,-6.1266604e-08,-4.222088e-08,3.7406963e-08,0.105448425,0.5008485,-0.25976667,-0.47573486,-0.4664016,-2.5242947e-08,-2.4569582e-08,0.5730731,1.68606e-08,-0.5938706,-0.18552156,-0.5776391,1.00898035e-07,0.83844966,-1.6779455e-07,-1.7507064e-08,-0.4997944,0.39960343,2.447312e-08,-0.94772923,1.1809148e-08,-6.602262e-09,-3.520144e-08,-4.809715e-08,0.43858695,1.068792,-3.8511228e-08,1.6424553e-07,-1.3346261e-08,0.50456715,-8.502069e-08,-4.4177558e-08,-3.6203097e-08,9.4609135e-08,0.70270514,3.495071e-08,-1.3893373e-07,8.957163e-08,-3.529699e-08,3.761694e-08,0.8726081,0.76327616,1.0010314,-0.2723379,0.46535933,8.4681496e-08,-5.9717664e-08,-0.4989166,-2.071877e-08,0.2045815,-0.8262845,0.21412149,4.8621118e-08,-0.19431283,6.2437266e-08,7.818474e-08,0.6465645,0.8967908,-1.0345133e-08,0.24645376,3.4291187e-08,1.0286233e-07,-1.667692e-08,-4.5561556e-08,0.5965134,-0.8019199,4.6843965e-08,-2.7359302e-08,1.124757e-07,0.2886279,-6.694944e-08,-6.126724e-08,2.8544644e-08,1.7168834e-07,0.3614447
-4.1882302e-08,-5.033307e-10,6.691195e-08,-1.1074567e-07,6.622519e-08,-0.017723368,0.2473092,-0.09985609,-0.5382717,-0.46450227,-7.762142e-08,5.672148e-08,0.639958,1.7275973e-08,-0.5562648,-0.033081062,-0.54048246,1.5267087e-08,0.83650964,-4.9303424e-09,6.4684933e-09,-0.22512811,0.23443925,1.5494315e-08,-0.9927549,1.5975726e-08,-2.5491273e-08,1.0440796e-08,1.3876463e-08,0.0851295,0.58468556,2.7567333e-08,-6.2835376e-08,-5.609159e-08,0.55887586,6.329738e-08,-8.793364e-08,-3.9499035e-08,1.2762204e-07,0.74491847,-2.9734636e-08,5.6298305e-08,1.4642656e-07,3.7137031e-09,-3.9318746e-08,0.8927538,0.810775,1.1459035,-0.14266199,0.45297965,8.721984e-08,-2.0423872e-08,-0.31850275,5.598136e-08,-0.045308117,-0.88004386,0.23736311,2.1275989e-08,-0.09660834,-3.4638425e-08,3.7962753e-09,0.7270766,0.9748592,3.531676e-08,-0.18759164,-3.2261408e-08,-6.7034414e-08,4.2845883e-08,-1.6340869e-07,0.59081864,-1.0572335,8.736506e-08,1.6940484e-07,1.1526005e-08,0.14686272,-2.9521061e-08,1.295533e-07,2.5989529e-08,-3.2025913e-08,0.3070167
5.4520836e-08,-4.4852943e-08,-3.5096676e-08,-7.229238e-08,5.010395e-08,-0.29697075,0.35755023,0.6215656,-0.53788203,-0.521986,1.1720671e-07,6.5408645e-10,0.69566685,-6.292922e-08,-0.49319732,0.17730442,-0.6156918,1.3268183e-07,1.0121297,8.870137e-08,-9.182251e-08,-0.46824634,0.075286195,-1.6195267e-07,-0.8855209,9.157292e-08,2.8399999e-08,-1.0915309e-07,-1.3800893e-08,0.0062116357,0.93620837,-9.777512e-10,-3.015276e-08,1.1021924e-07,0.57229614,-3.412861e-08,-7.568039e-08,-2.9097613e-09,-5.4740603e-09,0.8951072,-1.0390947e-07,2.4378956e-08,-2.1762077e-07,2.024107e-08,-3.5821678e-08,0.84728014,0.8643459,1.0045252,-0.40123883,0.6158529,-6.5467944e-08,7.935769e-09,-0.57554615,2.9110825e-09,-0.18753569,-0.86182654,0.37708405,-2.5901858e-08,-0.37190163,5.6332386e-08,-9.422068e-08,0.7715153,1.0064521,4.574793e-08,-0.67491734,5.7493697e-08,3.666842e-08,-4.4713946e-08,-1.3296362e-08,0.4910117,-1.0998861,5.056235e-08,-1.5440853e-07,3.0523665e-08,0.4905414,-4.2952824e-08,3.7551594e-08,-5.429449e-08,1.7073564e-08,0.49398258
3.6675104e-08,-2.9861305e-08,-4.267891e-08,1.0922599e-07,-1.08527765e-08,-0.049068946,0.5849863,0.016580574,-0.40642363,-0.46965772,4.072615e-08,-1.1000597e-07,0.5487694,-1.2497955e-07,-0.52873945,-0.09342887,-0.5453353,-4.636262e-08,0.80157995,6.778023e-08,-5.6406908e-08,-0.6024758,0.34347725,-9.4134805e-08,-1.0483583,2.8702338e-08,-8.828433e-09,-2.4113833e-08,-1.0755018e-08,0.35523129,1.2078131,1.2686802e-07,8.989984e-08,5.34339e-08,0.4560872,1.9804965e-08,-2.8686937e-08,-1.6839488e-07,1.7526011e-07,0.69404393,-9.3101335e-08,6.615987e-08,1.0800516e-07,5.2916427e-08,-1.3706362e-07,0.8458042,0.7459139,1.1275264,-0.3728253,0.46823516,6.2567956e-08,7.298322e-08,-0.5243847,-1.2395578e-08,0.08821134,-0.8097631,0.22036947,-1.7061458e-07,-0.31715173,2.9926703e-08,1.3559786e-08,0.6450563,0.9090214,-8.2263206e-08,-0.013614605,3.426052e-08,-9.679879e-09,-4.969603e-08,5.9219122e-08,0.5197286,-0.97215754,-4.166205e-09,9.194321e-08,-1.7969171e-08,0.37725583,1.3556516e-08,3.647518e-08,6.8604095e-08,-7.0767626e-08,0.43979704
3.8664204e-08,-2.0891147e-08,2.4857632e-08,-5.6191936e-08,-1.05786945e-07,-0.08716776,0.7080476,-0.32225832,-0.4912339,-0.5756161,-8.411321e-08,3.2551988e-09,0.63885397,3.364245e-08,-0.68950504,-0.109001294,-0.60542226,-1.0010338e-07,0.86725175,7.8912066e-08,-1.2515368e-07,-0.71761507,0.38356674,-6.4052614e-08,-0.86442804,-3.3335894e-08,9.9784785e-08,-6.6653755e-08,-1.1639309e-07,0.49029484,1.489047,2.716951e-08,-1.1115199e-08,-6.9528234e-08,0.52476436,-2.7259226e-09,-3.599152e-08,-4.8093955e-08,-3.8249713e-08,0.70769423,-2.2265922e-09,-2.5622072e-08,-1.6912216e-07,6.728904e-08,1.3746711e-07,0.89870316,0.8163867,0.8913471,-0.42622238,0.50954545,-7.1730526e-08,-4.0300883e-09,-0.5886678,-1.8489241e-07,0.21760955,-0.8584575,0.35396475,-7.025967e-08,-0.3080157,9.660242e-08,1.5439483e-07,0.70059663,0.92359763,3.9340005e-08,0.33766702,3.3214974e-08,-4.9617455e-08,1.1980974e-08,2.1736419e-08,0.6526977,-0.6736055,7.24111e-08,8.720697e-08,1.05119796e-07,0.43475032,-8.419848e-08,-2.4796691e-08,-1.4648036e-07,1.269441e-07,0.54230154
-1.6178298e-08,3.656364e-08,-1.4423237e-07,-3.191306e-08,4.865164e-08,-0.28245774,0.33346087,-0.34673542,-0.26388213,-0.5633416,1.0668199e-08,6.026059e-08,0.38004196,5.092602e-08,-0.3471413,0.048622843,-0.36270118,-6.179632e-08,0.5434049,-4.7925628e-08,1.0536656e-07,-0.3981763,0.30643004,-1.856062e-09,-0.23741153,-8.327584e-08,-2.1851573e-08,6.160519e-08,7.361522e-08,-0.21154197,1.0608611,-5.3935644e-08,3.2705625e-08,-1.23979e-07,0.26797372,-2.3788694e-08,5.9458912e-08,-7.184028e-08,7.4775315e-08,0.34374836,3.6777692e-10,-3.4548542e-08,-1.3654258e-07,7.2507405e-09,-2.5712536e-08,0.6084785,0.5147101,0.25037068,-0.44309914,0.30126324,3.4062133e-08,-7.645584e-09,-0.5270457,4.1354117e-08,-0.33027098,-0.577656,0.3683038,-4.66354e-08,-0.4204227,-2.0618412e-08,-2.8341614e-08,0.41271603,0.60516065,-1.7260502e-08,0.12758276,1.2279742e-09,1.3269121e-07,1.6122196e-07,2.2541228e-08,0.3448926,0.15360689,-7.253918e-08,-2.8477729e-08,3.5527695e-08,0.44726595,-4.298993e-08,-5.663066e-08,1.1547833e-08,1.8843924e-08,0.6041892
-5.0660407e-08,-7.221031e-08,-3.561418e-11,-1.3030147e-07,1.77784e-07,-0.19013055,0.083073236,0.12872216,-0.4274431,-0.5805188,1.0414693e-07,-4.9783687e-08,0.5171616,-3.5542662e-09,-0.29667023,0.023700844,-0.4526192,4.5300748e-08,0.7649597,-2.3214731e-08,2.8433575e-08,-0.11755229,0.24499376,2.9908936e-08,-0.51574284,4.223154e-09,-8.0237996e-08,-3.328019e-08,-9.772846e-09,-0.5144174,0.5760509,7.341882e-08,3.4404795e-08,1.10285825e-07,0.4310394,-1.9434431e-08,7.740397e-08,2.937444e-08,8.48223e-08,0.557104,-5.5337928e-08,-3.8579046e-08,-3.6815408e-08,-7.526667e-09,-9.166393e-08,0.70295924,0.67237103,0.65941757,-0.33031312,0.33278668,-1.742518e-07,-8.582167e-08,-0.39306432,-1.1924746e-07,-0.5169661,-0.6925529,0.30165455,6.608431e-09,-0.34423965,-2.4409843e-09,9.712928e-08,0.59771425,0.7874314,8.417283e-08,-0.46850538,-6.457391e-08,1.8047183e-08,-1.861623e-08,-4.2337767e-08,0.38448715,-0.5886537,4.5778563e-08,7.7534835e-08,3.0134913e-08,0.36353788,-3.6345618e-08,-6.4960986e-08,5.708058e-08,-1.212652e-07,0.48848832
1.6937193e-07,-2.6938299e-08,-1.010459e-07,-4.1817696e-08,3.7599257e-09,-0.6979692,-0.18918523,1.0789176,-0.5075649,-0.72207254,6.701063e-08,4.8427122e-08,0.85036355,4.0222766e-08,-0.4662355,0.50300694,-0.6026738,-3.3526568e-08,1.1084218,-1.5245636e-08,8.814801e-08,0.07405125,-0.36299685,-1.0466923e-08,-0.42486033,3.5488334e-08,-2.3948106e-08,-1.00273825e-08,2.3893273e-08,-0.60811466,0.16855477,-8.019182e-08,1.0346609e-07,-1.2038068e-08,0.59861743,-1.298038e-07,-6.1209704e-10,2.490529e-08,-3.6130775e-08,0.98834246,2.8792804e-09,-2.6082645e-08,-1.5884406e-07,-3.7470752e-08,5.192347e-08,1.0262622,1.021188,0.7719201,-0.81861764,0.76812273,-9.1808666e-08,-7.3640095e-08,-0.63966084,2.2224043e-08,-0.8660631,-1.0010353,0.6941079,-5.9131132e-08,-0.42142004,-3.7462396e-08,4.8700628e-08,0.93525785,1.1491683,-1.830273e-08,-1.297351,6.256381e-08,2.7651954e-08,-1.2145929e-08,-1.15513046e-07,0.5118178,-0.8728971,-2.2991598e-08,-1.9562993e-08,1.2210446e-08,0.7894175,-1.4340008e-08,8.433072e-10,-5.388053e-08,1.7925288e-08,0.6242939
3.9398376e-08,-7.529641e-08,-7.94456e-08,-1.2257524e-07,1.5750489e-08,-0.35074696,0.03973835,0.43540752,-0.64376456,-0.54367894,-3.157879e-08,2.7853297e-09,0.7902227,1.3958111e-08,-0.64954895,0.23622212,-0.66824895,-1.0994847e-07,1.0492486,5.587551e-08,5.988032e-08,-0.1323124,-0.14175354,8.168358e-08,-0.86051136,4.3937856e-08,-1.05755795e-08,-1.11959544e-07,5.4383463e-08,-0.06552034,0.29898417,1.2754317e-08,2.4486663e-08,5.7371615e-08,0.6924319,-1.09859776e-07,7.8281026e-08,-1.526536e-08,-2.0863782e-08,0.88128775,-7.5428105e-08,3.531158e-08,4.0512937e-08,3.0677512e-08,7.238902e-08,0.94469374,0.9664668,1.0489098,-0.43043205,0.7251702,3.0392247e-08,2.6997267e-08,-0.5708959,-4.7236576e-08,-0.33415118,-0.97228205,0.486706,3.2382388e-09,-0.3708058,1.1005139e-07,-2.4628275e-08,0.8792614,1.0606072,1.2902653e-07,-0.527682,-1.8428654e-08,3.0456437e-08,6.58772e-08,-2.8022054e-08,0.6518066,-1.0413467,-5.731227e-08,2.9940107e-08,-7.695209e-08,0.44966334,-2.448761e-08,-3.305692e-08,1.8812901e-08,-3.6473423e-08,0.52291775
-3.6894537e-08,5.996073e-08,2.5611122e-08,-1.2021289e-07,4.8850435e-08,-0.30847248,0.1560167,0.033511706,-0.59624493,-0.45599493,-4.8639905e-08,-4.8335416e-08,0.7354809,1.6761143e-07,-0.56306815,0.2147413,-0.5803915,-6.482514e-09,1.0072275,-6.6285914e-08,1.6529319e-07,-0.26025566,-0.08063862,2.7752996e-08,-0.76355773,-4.5097437e-09,3.055578e-08,2.5755433e-09,7.61917e-08,-0.082765564,0.4856845,-1.2058007e-07,-9.7368485e-08,-2.0504302e-08,0.62277,3.4067405e-08,-1.7199267e-07,3.516329e-08,-3.0676556e-08,0.8635598,-2.9383365e-08,-6.6638414e-08,-2.4308704e-07,-1.3044229e-08,1.1973799e-07,0.8986611,0.8893108,0.88173056,-0.4270468,0.66083694,-1.6956733e-07,-1.4650713e-08,-0.5096365,-3.3653766e-08,-0.37627968,-0.8722957,0.42119873,1.7312168e-08,-0.22874004,-3.2287808e-09,-9.444326e-08,0.78866935,0.9737514,-7.922547e-08,-0.03308866,-4.0937728e-08,2.7658151e-08,-7.204006e-08,-6.124768e-08,0.6068123,-0.84338665,-8.635135e-08,8.1678984e-08,-1.13184846e-07,0.4942763,6.834702e-08,7.1271586e-08,-2.0066786e-08,-1.2281276e-07,0.4137576
-5.3611258e-09,-1.7831773e-07,-2.9195416e-08,-2.4242553e-08,2.9943628e-08,-0.42857513,-0.079639524,-0.35044798,-0.5211855,-0.6231991,8.4721044e-08,-3.6813925e-09,0.6746012,-1.468949e-08,-0.40924093,0.28348085,-0.4946493,5.7884925e-08,0.9536243,9.950866e-09,1.947129e-08,-0.034271352,-0.18208152,4.5707407e-09,-0.27544883,-5.647953e-09,2.8834043e-08,-9.0054336e-08,4.4009784e-08,-0.47579095,-0.40855214,-6.210346e-09,1.6176038e-07,1.04254596e-07,0.5489472,-2.8355872e-08,-1.06384626e-08,1.2610197e-07,6.422924e-08,0.77152145,-7.157096e-08,5.3904216e-08,-1.9115447e-08,-1.3653185e-07,3.542715e-08,0.7700883,0.79664564,0.52186763,-0.4944005,0.49922633,-3.768089e-08,1.376226e-07,-0.56416386,5.6288467e-08,-0.5995345,-0.7639433,0.50810146,-4.2519638e-08,-0.38879123,4.9977977e-08,-5.0905e-08,0.7144941,0.8595577,-2.9711416e-09,0.26967055,8.53051e-09,-2.4345265e-08,1.41652405e-08,7.305314e-08,0.38193655,-0.4687393,-2.7544889e-08,4.772266e-08,1.221791e-07,0.47606453,-2.6713483e-08,8.79597e-09,1.0070157e-07,3.472891e-08,0.5987175
-5.541612e-09,3.3494452e-09,-5.1332165e-09,2.1742014e-08,-3.2460594e-08,-0.41769502,0.6282149,0.20770925,-0.33688262,-0.5907706,1.5770887e-09,-1.8203192e-08,0.5265187,-5.000992e-08,-0.5835157,0.13931246,-0.5174961,1.6979447e-08,0.81500036,-3.264341e-08,-7.532205e-08,-0.84603703,0.08762874,1.4872398e-08,-0.5481446,6.049727e-08,3.661424e-08,1.0825406e-07,-1.6735445e-08,0.253957,1.6738039,4.6214037e-08,9.049672e-09,-9.3518775e-09,0.34957105,7.912452e-08,-1.5541112e-08,-4.961868e-08,-1.3843322e-07,0.6148135,-6.5385514e-08,-3.599035e-08,2.9124678e-08,3.0383283e-08,1.838904e-07,0.74816376,0.73335165,0.5419044,-0.7766935,0.50689006,-7.110089e-08,-7.038878e-08,-0.7920316,-3.9919417e-08,-0.061722588,-0.7466125,0.43645287,-7.3672046e-10,-0.4778198,-6.3968855e-08,-9.715183e-09,0.54118925,0.8635505,1.00596935e-08,0.015393348,-5.2597287e-08,-1.4509138e-08,1.4136063e-08,-1.5098423e-07,0.4859675,-0.28915,-2.0655656e-07,-4.5118618e-08,-7.2649804e-08,0.8481673,6.154378e-08,-1.2629467e-08,3.2362735e-09,-4.8157155e-08,0.7190367
-6.1120424e-09,1.9823437e-07,1.1508607e-07,-3.5004962e-08,-5.9679465e-08,-0.31861612,0.054222167,0.24858934,-0.60074943,-0.62859476,1.1131725e-07,-3.8077545e-08,0.77940917,3.6069874e-08,-0.62567127,0.1961168,-0.6288854,1.1642392e-07,0.98063225,-1.2802775e-07,-4.2941956e-08,-0.13841985,-0.052829433,-8.337743e-08,-0.78411055,2.3994577e-08,-1.5349126e-07,-4.404739e-08,-7.7061564e-08,0.07806065,0.38452822,-4.727198e-09,-8.14635e-08,1.5677708e-07,0.6309265,-6.084649e-08,7.684266e-09,-6.969926e-08,-8.6408765e-09,0.85912466,-5.0369913e-08,-5.7243184e-08,1.5577406e-09,-1.07705866e-07,7.602239e-08,0.9355007,0.91712666,0.9726575,-0.37695006,0.64879537,1.3796775e-07,-4.3249862e-08,-0.5295515,2.3000572e-08,-0.15640758,-0.92727154,0.46933764,2.127051e-07,-0.43749774,7.866753e-09,-9.0131934e-08,0.84289664,1.0157453,-4.006492e-08,-0.27521905,6.291369e-09,1.988809e-08,-2.6671408e-08,1.2656e-07,0.63254166,-0.9177547,-1.476145e-07,-2.1310765e-08,-5.5890197e-08,0.3656356,6.777586e-09,1.7928886e-07,4.1748063e-08,6.60425e-08,0.57590985
5.8486798e-08,6.887896e-08,3.703479e-08,3.845378e-08,1.4640821e-08,-0.17454517,0.4325209,0.380934,-0.5183998,-0.5372539,-1.3371793e-07,3.14986e-08,0.7423869,-3.3244206e-08,-0.5503158,0.029067608,-0.5650259,1.0936098e-07,1.010602,-1.545188e-08,-1.5550423e-09,-0.47740477,0.1793748,-8.533176e-09,-0.9676566,3.1626474e-08,8.1986165e-08,2.4701524e-08,7.218232e-08,0.10906936,1.1904352,-9.6153215e-08,6.092093e-08,-2.0550653e-08,0.5571751,-1.5719465e-07,-2.2321867e-08,8.562235e-08,3.3451727e-08,0.855648,4.5176716e-08,1.3697925e-08,1.2426591e-07,-9.0455785e-08,-6.009729e-08,0.9528992,0.9300726,1.1316568,-0.31353506,0.58462304,2.7422637e-08,-1.6468934e-07,-0.52112186,-1.2019105e-07,-0.09187432,-0.943131,0.39309672,-5.7190796e-08,-0.31670254,-1.0724648e-09,1.7199088e-08,0.82299775,1.0632116,-5.6392132e-08,-0.3960548,8.503877e-08,-8.355248e-08,-3.6753946e-08,-1.3831328e-08,0.49784684,-1.025538,3.2545476e-08,1.816677e-08,-4.644564e-08,0.33708066,1.2353689e-07,-4.177613e-08,-1.1768873e-07,-4.0699774e-08,0.5440167
-7.2605424e-08,1.00231844e-07,-3.1724576e-07,1.1514402e-07,3.6378186e-08,-0.5635312,0.26765063,1.430942,-0.5552766,-0.6103415,8.699504e-08,-1.0468767e-08,0.8662511,4.81899e-08,-0.66408277,0.4025621,-0.63740826,-1.9275044e-08,1.0866011,4.5614364e-08,-6.214394e-08,-0.4521252,-0.39030975,6.284428e-08,-0.9087916,2.414022e-08,-5.2792245e-08,-1.8858101e-07,5.317341e-08,0.21739547,1.4167974,-2.1251537e-08,3.1716972e-08,1.5342149e-08,0.58185196,6.2856124e-08,-5.0257885e-08,-1.045432e-07,1.0703959e-07,0.94689614,-3.0262527e-08,2.5722192e-08,-9.59745e-08,8.766297e-08,2.4873252e-08,0.9579906,0.98086005,0.98281497,-0.40321207,0.7828566,-6.3650596e-08,-2.052277e-07,-0.552088,5.3021008e-08,0.032873448,-0.98615736,0.52261686,-1.1909059e-07,-0.39030036,-3.0646923e-08,1.8487493e-07,0.8879496,1.0419149,-5.3852006e-08,-1.1094866,1.1261655e-07,7.148289e-08,9.042152e-08,6.401761e-08,0.5836522,-1.0302407,6.282266e-08,-5.741565e-08,6.15976e-08,0.41896638,2.5656277e-08,1.1912743e-08,1.4531384e-08,3.1483296e-09,0.63821983
-5.5379374e-08,2.0172257e-08,-2.4685066e-08,6.61734e-08,-4.0616914e-08,-0.35251468,0.21616356,0.73712826,-0.6177108,-0.61049753,-9.2318196e-08,-3.171035e-08,0.8306134,2.8658754e-08,-0.74119765,0.18950447,-0.67874527,9.835752e-09,1.0643187,-1.1367849e-08,1.3297381e-07,-0.3299262,-0.11845787,-9.131876e-09,-1.061843,2.5795973e-08,1.0091279e-08,5.674104e-08,-1.4484215e-07,0.21658419,1.0706561,-2.8906374e-08,-4.969184e-09,-9.589208e-09,0.6475238,7.628761e-08,1.2020379e-08,-8.5006945e-08,3.43283e-08,0.9369307,4.9913293e-08,-8.320603e-08,2.0568174e-07,-4.2706e-08,5.8552708e-08,0.9891728,1.001625,1.0980624,-0.31647223,0.6996302,1.1155002e-07,2.1213037e-08,-0.5018342,6.6468665e-08,0.12121245,-1.0160295,0.41531497,5.460663e-08,-0.34833455,-2.4418096e-08,1.8411216e-08,0.8679728,1.0983448,-4.8473936e-08,-0.5515646,-3.048261e-09,-3.699976e-08,-3.649723e-08,-2.6748744e-08,0.68894917,-1.1037929,-2.9649106e-08,3.9809308e-08,1.10783624e-07,0.31603885,-8.082509e-09,-2.948296e-08,3.311073e-08,-5.411091e-08,0.5260223
-6.472903e-08,3.8676138e-08,-2.6620345e-08,7.02939e-08,-1.323277e-07,-0.17459054,0.35292363,0.31266567,-0.54813904,-0.49725395,1.3723101e-07,2.547064e-08,0.70844066,-1.935722e-08,-0.6588035,0.05986951,-0.5962342,1.2400477e-07,0.93825,-5.0257995e-08,-5.023812e-08,-0.42233437,0.061797082,8.0118134e-08,-0.99916667,-1.6292354e-08,-2.6345923e-08,1.1123312e-08,1.7398719e-08,0.32133862,0.98894966,-5.287304e-08,5.874884e-08,-4.641447e-08,0.58322275,-6.292698e-08,-8.811358e-08,-4.7955492e-08,-7.118058e-08,0.81607246,3.67828e-08,-1.3579907e-07,1.7666426e-07,7.926613e-08,-1.386627e-08,0.9216336,0.8708441,1.0922922,-0.27322274,0.6039311,5.2204303e-08,-1.322247e-08,-0.4829849,9.9214624e-08,0.21939942,-0.90685517,0.35742915,4.5039226e-08,-0.38067496,1.8469241e-07,-1.15089605e-07,0.77337295,0.9760612,1.889107e-07,-0.24760461,1.7637504e-08,-3.6611674e-08,3.769067e-09,-3.7623085e-08,0.61003566,-1.0201478,-6.983585e-08,-2.3451708e-08,4.6076504e-08,0.2834758,-1.0914687e-07,-7.183565e-08,-4.145989e-08,-1.5404547e-08,0.47906825
1.5089208e-08,4.3319176e-08,2.804158e-08,4.188502e-08,1.3952084e-08,0.12184924,0.1715547,-0.039002948,-0.31336272,-0.39197835,3.7921325e-08,2.2562627e-08,0.3008845,-2.9391773e-08,-0.4441347,-0.13506536,-0.4090767,-4.1558085e-08,0.46696404,5.754627e-09,8.781825e-08,-0.1570989,0.33208716,-2.4808482e-08,-0.8249931,1.4991475e-08,1.6844268e-08,-7.780754e-09,-1.2185808e-07,0.18422422,0.5687292,3.181895e-08,2.6996318e-08,8.8693575e-08,0.33533242,5.123827e-08,6.709101e-08,1.7428746e-08,2.2366436e-08,0.31844997,-4.814906e-08,7.95845e-09,-2.7018737e-07,-1.1830245e-08,8.329397e-08,0.5943316,0.46724674,0.8208786,-0.084258735,0.12738381,7.784884e-08,8.67247e-08,-0.16544299,4.8677684e-08,0.19370607,-0.589893,0.006823011,1.4938037e-07,-0.03574622,-5.5735757e-08,5.3642466e-08,0.40628916,0.5987243,-1.3173301e-08,0.057389677,1.3939584e-08,6.8762674e-08,1.506258e-08,-1.5164527e-07,0.4579982,-0.6516617,-5.1149335e-08,-2.5076357e-08,-2.413449e-08,0.06818171,4.7598117e-08,1.4507877e-07,-1.1454903e-08,-5.545292e-09,0.18007942
-6.2414045e-08,8.410831e-08,2.579799e-07,-1.590752e-08,5.871186e-08,0.010804336,0.21639661,-0.15216096,-0.47457132,-0.447051,1.3666192e-07,-4.8090953e-10,0.54389936,-1.0080026e-08,-0.51544243,-0.014449076,-0.5075797,6.904119e-09,0.80106574,-6.8331694e-08,-7.862381e-09,-0.21296407,0.13311085,-3.009383e-08,-0.9621757,4.9637867e-09,3.49929e-08,-1.957125e-08,-3.2462165e-08,0.36085784,0.9848172,-7.233806e-08,3.571742e-09,-1.17176e-07,0.4920293,-1.267218e-07,1.683879e-07,1.7108785e-08,-2.2149134e-08,0.6810605,6.360947e-08,-2.2283611e-08,1.3529086e-07,9.7413874e-08,-5.821264e-08,0.8277145,0.7065143,0.9544868,-0.0701294,0.42486122,1.2337557e-08,9.677314e-08,-0.28452173,2.8377082e-08,0.2980932,-0.79117584,0.17364733,-6.6855435e-08,-0.001406919,3.7532125e-08,1.6270371e-07,0.5961987,0.8484102,-1.671689e-08,0.14282529,1.3375549e-07,5.8013867e-08,-1.12826875e-07,-1.8938115e-07,0.55045575,-0.8100609,-5.156231e-10,-1.2319788e-07,-1.9074324e-09,0.06108,-6.61357e-09,-5.4441585e-08,6.730614e-08,-5.755999e-08,0.20802097
-4.5166814e-08,3.870044e-08,-1.1348016e-08,3.9217234e-09,4.569789e-08,-0.0017011107,0.50438076,-0.28938565,-0.41466904,-0.5815494,-4.3175362e-08,1.7327618e-08,0.5686037,1.1085797e-07,-0.6911237,-0.1844455,-0.5453757,5.5755365e-08,0.7853062,-2.6940452e-08,4.2289116e-08,-0.53256243,0.314972,5.5986643e-08,-0.94803977,2.3039604e-08,6.5858345e-08,4.5149154e-08,3.618097e-08,0.52934724,1.0539428,-1.3820431e-07,8.27784e-08,-4.7584123e-09,0.42478243,8.7180425e-08,6.086772e-08,2.6605715e-08,1.5573517e-07,0.6159225,4.704622e-08,-5.6964247e-08,-1.2746386e-07,-2.2542501e-10,2.077416e-08,0.8643739,0.77925366,1.0148451,-0.22927542,0.3401785,-4.8745754e-08,-5.3453462e-08,-0.4838726,3.8227466e-08,0.56907356,-0.81220824,0.19373192,2.6848008e-09,-0.41208705,-1.6958542e-07,-4.0757822e-08,0.63355047,0.90464514,-8.335411e-08,0.58349156,2.6791415e-08,2.5677014e-08,-2.4802068e-08,-6.42896e-08,0.5731282,-0.79045784,2.5381093e-09,2.205801e-08,9.8077365e-08,0.24560985,-2.9940797e-08,-1.6237853e-07,-1.8898417e-07,3.3723502e-08,0.5169204
-1.1467962e-07,-7.8648235e-09,-1.6320456e-08,-2.4160023e-08,-7.672138e-09,-0.18645793,-0.13252221,0.08503012,-0.5323651,-0.46459433,-1.1822825e-08,2.830167e-08,0.63794297,8.501102e-09,-0.26568648,0.089878686,-0.4477729,5.536076e-08,0.80374765,-3.311356e-08,2.4786086e-08,0.1703091,0.19653633,7.912874e-08,-0.33985147,-9.3581995e-08,6.1703425e-08,-9.011142e-08,5.4875198e-08,-0.6825296,-0.51468503,-6.408559e-09,-9.9681856e-08,-3.1137215e-08,0.55429494,5.2678555e-08,-4.8285365e-08,-2.2669447e-08,-5.1091245e-08,0.7033776,-8.759253e-08,5.0524953e-08,-7.4542754e-08,-9.413654e-08,4.0156092e-08,0.78382725,0.80035824,0.7773184,-0.24465494,0.45351264,-3.8506467e-08,5.695985e-08,-0.329974,-3.2919093e-08,-0.7406045,-0.8111678,0.37234616,-5.7358097e-08,-0.42482,4.369714e-08,9.006481e-08,0.7861472,0.927653,-1.914318e-07,-0.70079225,1.4120527e-08,1.5326661e-07,-5.8292148e-08,-3.57357e-08,0.36861077,-0.93077075,2.7195426e-08,-3.5988332e-08,-1.7785192e-08,0.2603589,-5.60134e-08,2.2491257e-08,6.035812e-08,-4.126665e-08,0.4626155
1.9384846e-08,-1.3263431e-08,-4.712056e-08,-1.03086165e-07,-1.0253976e-08,-0.7253056,0.014972845,-0.16154534,-0.20445834,-0.6276491,5.2935363e-08,-1.8938185e-07,0.4298758,-5.703307e-08,-0.15816928,0.4561631,-0.2436062,-6.3629653e-09,0.4556088,7.129792e-08,-1.245353e-08,-0.18846811,-0.124261595,-2.1307869e-07,-0.1742727,-1.1658132e-09,-8.145514e-08,-1.5868324e-08,6.191843e-08,-0.67917985,0.49496,-3.6932754e-08,5.2750238e-08,-1.472216e-08,0.19838494,1.7034406e-08,7.532864e-08,8.043552e-08,6.157636e-08,0.41445187,-1.1073962e-07,3.6340477e-08,9.4249245e-08,-8.5335415e-08,-8.020496e-09,0.5743601,0.58652794,0.45931375,-0.3489428,0.36483493,6.372236e-08,-3.2390393e-09,-0.51966363,-8.973118e-08,-0.6540558,-0.6593253,0.52125645,1.4830636e-07,-0.6204023,-8.513374e-08,5.970032e-08,0.4362862,0.7565599,1.7611495e-07,-0.19878851,-3.0566238e-08,-5.838609e-08,2.819063e-08,1.7520234e-08,0.07204618,-0.28817213,-1.2014334e-08,1.4177289e-08,2.0251786e-08,0.3367849,1.262494e-07,7.801767e-08,1.0776937e-08,7.271154e-08,0.78300285
2.3533696e-08,4.712989e-08,-2.877218e-08,-2.640574e-08,6.149925e-09,-0.59734124,0.07360717,0.657326,-0.50522417,-0.72612536,-9.103688e-08,4.810752e-10,0.7743118,-1.9294637e-08,-0.41338086,0.33022243,-0.46888375,-9.304998e-09,0.9788717,-1.2363998e-07,-9.531966e-09,-0.16556124,-0.009485126,-6.269043e-08,-0.62313235,-1.045847e-07,-8.764795e-08,1.039815e-07,-3.0449254e-08,-0.65636504,0.7560868,-5.3906767e-08,-8.454545e-08,-1.5575733e-08,0.5616542,-6.0988796e-08,8.2838696e-08,8.4158813e-10,-5.422855e-09,0.81967485,6.2214255e-08,-7.783689e-08,2.2449292e-08,1.0572574e-08,8.173703e-08,0.92533493,0.9487948,0.8950633,-0.55325454,0.5461543,4.5207834e-08,-1.5870364e-07,-0.562447,-2.8270076e-08,-0.7986317,-0.96110266,0.63077116,-3.23286e-08,-0.4802152,2.1000792e-08,1.229586e-08,0.8607019,1.0732516,-9.793375e-08,-1.0926191,9.467051e-09,3.3265486e-08,5.0430366e-08,3.197995e-08,0.46909723,-0.89206463,-3.7168235e-08,1.2926228e-07,-1.238231e-07,0.53542393,-2.1350374e-08,1.14442095e-07,-1.2485214e-07,8.973147e-08,0.7043214
-4.7479872e-08,-8.589757e-08,1.9609372e-08,5.342607e-08,-4.6107044e-08,-0.35571927,-0.006163262,0.13559973,-0.33154947,-0.57753825,5.005255e-08,1.3414176e-07,0.5492623,-9.024646e-08,-0.35326424,0.1078675,-0.27580127,-5.7366734e-10,0.6733241,1.4202493e-07,-1.3913753e-07,-0.03183398,0.13379169,9.854523e-08,-0.6806776,-4.325151e-08,3.9167134e-08,-4.6093074e-08,-5.96002e-09,-0.2584476,0.35531092,-3.63704e-08,6.089558e-08,-1.5829077e-08,0.36522853,9.5363006e-08,1.3300058e-08,6.93123e-08,2.9399683e-09,0.49309742,-8.202461e-09,-2.5757895e-08,1.3001266e-08,-2.1719241e-07,-6.1215715e-08,0.7476191,0.7376138,0.9664005,-0.24445727,0.29391903,2.6216682e-08,-1.14485964e-07,-0.3038031,6.322497e-08,-0.28267926,-0.80960476,0.44241953,-4.4224638e-08,-0.30004314,-2.5016293e-08,-6.1249352e-09,0.62566584,0.86319274,-8.5665214e-08,-0.4295406,-8.140057e-08,2.7743107e-08,4.8917176e-08,8.716292e-08,0.3703232,-0.8337821,6.252684e-08,1.1572009e-08,3.2310325e-08,0.194751,1.883944e-08,8.6665175e-08,8.4665885e-08,1.04391816e-07,0.5170154
7.111616e-09,2.4652062e-08,-2.0329654e-08,-9.5575714e-08,-1.3846275e-08,-0.34103742,0.064422294,0.8549927,-0.448868,-0.59979385,5.247277e-08,3.1558447e-08,0.64868456,-6.129772e-08,-0.4248232,0.16394775,-0.5303583,-1.8382398e-08,0.85161537,7.220366e-08,-7.1841676e-08,-0.06429495,0.12059678,4.136401e-08,-0.57754236,1.1713152e-07,-1.5128693e-08,1.8506046e-08,-1.1602241e-07,-0.5390805,0.50782084,1.1398473e-07,8.71189e-09,2.8934517e-08,0.51848716,-3.1256317e-08,3.7864574e-09,6.9272845e-09,3.820464e-09,0.71716636,1.7720298e-08,2.12024e-08,-5.4925557e-08,6.994989e-08,8.4348756e-08,0.7876954,0.78021705,0.74783146,-0.43948406,0.4856572,-9.916166e-08,-1.5215011e-09,-0.47578454,2.7007303e-09,-0.60089886,-0.7998816,0.39127555,-9.147252e-09,-0.55265176,1.5600402e-07,1.3460321e-08,0.7239852,0.90578395,2.5714368e-08,-1.2602865,3.007911e-08,-7.664269e-10,-1.666011e-08,1.6092774e-07,0.42439917,-0.80884516,-1.31254e-07,4.7613078e-08,9.239689e-08,0.43864423,-2.9394045e-08,8.207456e-08,-2.1977202e-08,-9.4156505e-09,0.659052
9.788976e-08,-3.835835e-08,2.2366024e-08,-6.673674e-08,1.9323032e-10,-0.27831352,0.07009898,0.18967733,-0.20951852,-0.5399056,4.65491e-08,-6.043077e-09,0.34901255,1.6192278e-08,-0.21687847,0.09069952,-0.29563478,-5.0642498e-08,0.44337502,-1.0697128e-07,4.4108965e-09,-0.112210475,0.16736984,-1.3239782e-07,-0.28563088,5.1564253e-08,3.8720593e-08,-4.483738e-08,6.095976e-08,-0.2843753,0.430304,1.253092e-07,2.7515561e-08,-1.3187458e-08,0.23878776,-2.2391294e-08,1.9822515e-07,1.519783e-08,1.0582802e-07,0.31034657,1.271604e-08,-9.427347e-08,3.4078305e-09,-6.871003e-08,-5.397681e-08,0.56408006,0.44468686,0.33942214,-0.3126598,0.24981304,-2.8766738e-08,9.121505e-09,-0.3813637,-1.3234818e-09,-0.31989312,-0.5883731,0.24286023,-3.652201e-08,-0.50192326,-4.9494172e-08,-4.3933987e-08,0.40100753,0.59591615,4.0586464e-08,-0.45645234,-4.839938e-08,6.8067024e-08,-7.117951e-08,-1.06828246e-07,0.24451186,-0.12848394,-1.269424e-07,-6.0623336e-08,2.772851e-08,0.33181214,3.600619e-08,-4.1931038e-08,-2.1296604e-08,1.9316465e-08,0.5874685
-1.4074283e-08,-8.0452885e-08,7.165522e-08,-5.802613e-08,-1.4765085e-08,-0.69097865,-0.022068141,0.75901836,-0.47010523,-0.7038633,3.3854413e-08,-8.530338e-08,0.77202433,-2.0158609e-08,-0.47694623,0.40979725,-0.48650715,-1.19114105e-07,0.9763421,6.2607874e-08,-1.3946787e-07,-0.14126943,-0.24794215,5.7124808e-08,-0.3604363,8.460404e-08,3.094658e-10,6.031815e-08,3.0622783e-08,-0.67013687,0.3044517,-1.2277352e-09,4.4361045e-08,6.635446e-08,0.53432894,-5.2525227e-08,-1.42318655e-08,-1.1329334e-07,-1.39966545e-08,0.80429715,-1.3385014e-07,8.038567e-08,-1.7433746e-07,8.793302e-09,2.0459915e-08,0.8713678,0.93243766,0.5440621,-0.674744,0.60650206,-7.621236e-08,-6.911367e-08,-0.53309983,4.0514326e-08,-0.69236284,-0.9222952,0.6028868,-7.619091e-09,-0.5114806,-2.0415358e-10,4.4276167e-08,0.84108377,1.0241587,-8.67407e-08,-0.98505425,7.4772004e-08,-1.4704737e-07,-6.5198535e-08,1.7736408e-08,0.4670622,-0.72164875,4.9808268e-08,3.1898423e-08,9.400015e-08,0.62680656,4.2713804e-08,-2.1640968e-08,7.355278e-08,2.5602791e-08,0.7453629
-2.5551472e-08,1.8882357e-08,7.9700335e-09,4.0638767e-08,6.407658e-08,-0.2706232,0.03947268,0.6838136,-0.4324138,-0.57243854,1.9692255e-08,8.856725e-08,0.58246225,-4.6995922e-08,-0.35180116,0.049932595,-0.45032707,-1.304348e-07,0.7560557,2.5222514e-08,-2.0255429e-07,-0.02483568,0.12234393,8.459537e-08,-0.6577443,-1.5624168e-07,-3.9685943e-09,-8.531319e-08,7.3844504e-08,-0.5766959,0.35096303,-9.8866124e-08,8.851308e-08,-3.269931e-09,0.46592832,-1.5091166e-07,6.382359e-08,9.720216e-08,-4.413617e-08,0.61850417,-1.3072441e-08,-3.741896e-08,-4.646975e-08,-4.4126043e-08,-4.2038206e-08,0.7544814,0.758948,0.8822593,-0.3221665,0.34048995,3.7088554e-10,-5.7118456e-08,-0.37895337,-5.253891e-08,-0.5725626,-0.8147859,0.36423695,3.9703753e-08,-0.32220352,4.622927e-09,-3.0833306e-08,0.69398314,0.8784844,1.681349e-08,-1.0376146,-4.26803e-08,9.786003e-10,5.9206844e-09,-3.377188e-08,0.38529962,-1.0052109,6.721014e-08,-9.721408e-08,-1.8231066e-08,0.31306067,3.2639857e-08,-1.5096492e-07,-9.595981e-08,-5.752956e-08,0.4966046
1.1230728e-07,-3.0098068e-08,4.4071086e-08,-1.0719157e-07,1.0358786e-08,-0.64743614,0.136781,0.49873835,-0.45987752,-0.6844162,6.376331e-08,2.1149638e-08,0.69501555,-1.8007603e-08,-0.3191614,0.30348924,-0.37247184,9.763848e-09,0.8365004,4.8285116e-08,-3.9311598e-08,-0.19076243,-0.026352005,-2.9329431e-08,-0.54144704,4.9644683e-08,-5.2466543e-08,-1.6441462e-07,1.6987233e-08,-0.7287164,0.7746522,4.5230234e-08,1.2897902e-07,7.241023e-08,0.47810265,1.515939e-08,-9.131596e-09,-2.2934351e-08,-1.02381065e-07,0.7071889,-1.410239e-09,-3.339874e-08,-4.668e-08,2.8385381e-08,1.030635e-07,0.8195346,0.85288763,0.77885133,-0.45292726,0.50283533,1.8961083e-08,1.4085323e-08,-0.486745,2.770279e-08,-0.78629035,-0.87211144,0.6783996,-1.7616249e-07,-0.44877014,-8.868519e-08,2.9738333e-08,0.73811555,0.92742664,6.270446e-08,-0.8641068,1.359873e-07,-9.474823e-08,2.9537468e-08,2.2792594e-09,0.37095156,-0.76942986,-7.66626e-08,4.173169e-08,-2.4528852e-08,0.41841877,4.2382577e-08,2.7700953e-08,1.06418305e-08,9.053706e-08,0.6970006
-7.333943e-08,4.0562746e-08,-4.031431e-08,4.3468432e-08,-1.8086097e-07,-0.57834023,0.026186317,0.23495568,-0.35106024,-0.72889143,1.3924577e-08,4.2954255e-08,0.58269936,9.809996e-09,-0.119171076,0.27766937,-0.3041139,9.1964445e-08,0.7223054,-1.3619675e-07,3.392195e-08,-0.048868973,0.11883465,-2.053242e-09,-0.32091922,-3.928598e-09,8.4293475e-08,2.0931463e-08,-1.4058435e-07,-0.9645051,0.3789913,1.3004241e-07,6.0284098e-09,3.555215e-08,0.37270948,-3.341963e-08,-2.6906786e-08,-3.1725673e-08,3.6946428e-08,0.550149,-6.6098362e-09,6.5977204e-08,-1.7542602e-08,3.4276265e-08,8.173035e-08,0.7559945,0.73363084,0.7581651,-0.4413454,0.38500023,-3.0532668e-08,-1.7708253e-07,-0.5562427,3.9416406e-08,-1.0616162,-0.8386998,0.6345512,-1.0015622e-08,-0.6881418,-9.432391e-08,-6.225902e-08,0.65937644,0.8897052,-1.1650412e-08,-0.94924957,2.1420128e-09,-1.9572628e-08,7.095582e-08,8.181508e-10,0.21379253,-0.676728,2.985751e-08,5.3164566e-08,-6.09285e-08,0.41763356,2.06523e-08,-3.7038795e-08,1.3471773e-08,-7.283873e-09,0.82247216
-2.1166878e-08,1.2599108e-07,5.0048314e-08,2.6610984e-08,6.626512e-08,-0.4750508,0.35589907,0.3502176,-0.10156466,-0.6268677,9.062136e-09,-1.2177966e-07,0.32337815,-4.50476e-08,-0.13406268,0.10949742,-0.21278279,1.9895326e-08,0.4341503,2.0402733e-07,-5.9493885e-08,-0.45728308,0.22765768,-5.434619e-08,-0.47632554,-2.6312215e-09,-4.2384887e-08,-1.1541249e-07,-1.5263478e-08,-0.27265215,1.4153385,-1.7583393e-08,-2.387905e-09,-1.1016969e-08,0.11360878,2.6117895e-08,1.5354365e-07,-8.395098e-08,-4.5900954e-09,0.27140015,-6.280652e-08,1.7314024e-07,-1.1282166e-07,-5.2623488e-08,1.02924545e-07,0.56622297,0.5219308,0.66311777,-0.40510264,0.20826794,9.403308e-09,1.2364909e-08,-0.567723,-5.2899708e-08,-0.35001138,-0.6625703,0.38609782,-4.917024e-08,-0.51474935,5.8685682e-08,-9.6964385e-08,0.3807235,0.6809048,4.9152447e-08,-0.50323117,-5.7742508e-08,-3.754277e-08,-5.2982656e-08,5.277778e-08,0.12737839,-0.4607954,2.8643914e-08,-1.65211e-07,-6.0185855e-08,0.41056225,6.40691e-08,6.5345986e-08,-9.537095e-08,-1.1511793e-07,0.7055702
6.919778e-08,-8.521168e-08,-1.2600901e-07,1.5966202e-07,2.2442826e-08,-0.44939533,0.58943206,0.7273383,-0.4266335,-0.56016004,-4.265099e-08,1.6382927e-08,0.745555,9.96357e-08,-0.44994363,0.12806736,-0.4560014,-9.075043e-08,1.0498098,-2.7465932e-08,8.742491e-08,-0.67399126,0.117114425,-2.58711e-08,-0.9234935,-1.4694083e-07,-7.849849e-08,-9.4853e-09,-2.8650343e-08,0.034216996,1.6054482,-5.986092e-08,-2.1024825e-08,-1.8569159e-07,0.4998256,-1.2297933e-07,-5.6581083e-08,-4.388282e-08,2.5610968e-08,0.8778571,8.98547e-10,-7.923756e-08,-3.4893634e-07,-8.676759e-08,-1.2330564e-07,0.89997005,0.92231137,1.0179162,-0.6182947,0.6372669,-6.861531e-08,1.6357177e-07,-0.66274315,1.00893374e-07,-0.2594456,-0.92281693,0.54285824,-6.1019925e-08,-0.4350728,8.4122235e-08,6.442079e-08,0.8093517,1.04861,-7.6496825e-08,-0.7426939,1.2985369e-08,1.3106936e-07,3.440118e-08,-6.628348e-08,0.43278965,-1.0786157,8.246543e-08,-5.978844e-08,-1.6830458e-07,0.6551089,-4.6539068e-08,-6.3538174e-08,-8.4551985e-08,-5.0558413e-08,0.63731587
6.719436e-08,5.2525365e-08,3.193253e-08,5.373044e-08,4.0095447e-09,-0.17296918,0.3852782,0.48630548,-0.5660838,-0.461078,-4.0309978e-08,-4.4728665e-08,0.68888336,-1.0539261e-07,-0.5921011,-0.009061025,-0.5915429,-1.7308025e-08,0.8859491,1.0866146e-08,-3.3136246e-08,-0.33538616,0.10223201,3.3513306e-08,-0.8540063,-9.570602e-09,4.54162e-08,-7.7417175e-09,-1.2691103e-08,0.15092398,1.0106517,-2.1708104e-08,-1.4868789e-08,1.8427754e-07,0.6048052,3.6485126e-09,-1.8727121e-08,2.4033756e-08,-7.3977695e-08,0.77921706,-7.1670314e-10,3.1841914e-08,1.342533e-07,-6.135472e-08,-5.995931e-08,0.86092794,0.83758265,0.99266726,-0.16823772,0.5701837,-7.07586e-08,2.4788557e-08,-0.4223092,-9.534949e-08,0.022290504,-0.8593073,0.3748716,3.5093542e-08,-0.29978478,-8.655772e-08,1.8255437e-07,0.7462382,0.9208453,3.7558912e-08,-0.5722223,-2.9054906e-08,3.4584478e-09,-1.3564261e-07,-3.3574334e-08,0.53011745,-0.99181306,-6.944105e-08,-1.350231e-07,-8.858218e-08,0.17455715,8.3338364e-08,4.6738563e-08,-1.45089984e-08,1.8320806e-08,0.43529657
5.9477493e-08,-2.5590023e-08,3.054409e-08,-8.438724e-08,5.0178272e-08,-0.13652627,0.4353854,0.39056453,-0.49009126,-0.5694853,6.4488454e-08,3.261225e-08,0.65352446,-1.433275e-07,-0.5720577,-0.06342209,-0.5380329,9.4133824e-08,0.8864195,-1.6686379e-08,-4.3850292e-08,-0.3760005,0.16227292,8.49766e-08,-0.84499204,-6.485641e-08,5.5208808e-08,-5.4248332e-08,9.726812e-09,0.15216869,1.2058654,-5.043081e-08,5.6240065e-08,2.1413928e-09,0.5253216,1.4163248e-10,-7.7841975e-08,9.052263e-08,4.60403e-08,0.7286635,-5.5106934e-08,4.5379476e-08,1.17477114e-07,6.473428e-08,3.1453137e-08,0.8823608,0.83492404,0.9623325,-0.31203106,0.4810398,-3.2747558e-08,-8.5451205e-08,-0.48311564,-1.3442212e-08,0.010127529,-0.88752127,0.32034323,6.1892386e-08,-0.27068403,8.214829e-08,1.5151504e-07,0.73880136,0.9402296,-6.096144e-09,-0.48108372,-2.6903955e-08,1.193055e-07,7.4281115e-09,1.7069686e-08,0.5731671,-0.9122636,-1.2176345e-08,1.2095452e-07,-9.948171e-08,0.3222222,4.4687383e-08,-1.3333053e-07,4.293833e-09,-1.1319585e-09,0.4799724
3.3781212e-08,3.9067608e-08,-5.688902e-08,-6.842993e-08,-2.2347084e-08,-0.16495341,0.49521455,0.5658328,-0.39192262,-0.4482213,4.019214e-08,5.1475013e-08,0.60615605,3.33776e-08,-0.48037076,-0.05204083,-0.46346754,-5.6149005e-09,0.8799523,7.0631614e-08,-6.3447835e-08,-0.4480695,0.15354116,6.030602e-08,-0.62996167,-1.4352003e-07,1.3962058e-08,2.3493618e-08,5.5739385e-08,0.15978065,1.2576358,3.878853e-09,-3.0937777e-09,3.3142065e-08,0.4395181,1.2386238e-08,-3.987997e-08,-5.845287e-09,-7.384655e-08,0.72623223,1.5140209e-08,4.6026347e-08,-1.01753855e-07,3.904311e-08,5.4802705e-09,0.77770066,0.7576371,0.7665494,-0.36086136,0.46698752,-6.8853375e-08,-8.454672e-08,-0.5204728,-1.0009733e-07,0.046453137,-0.76187396,0.30571008,-1.13464445e-07,-0.25628465,3.9438333e-08,4.1399964e-08,0.64719665,0.8701256,-1.2955272e-08,-0.5977099,8.362499e-08,-3.840584e-08,3.070376e-08,1.9893639e-08,0.39738676,-0.86454666,3.2429348e-08,-9.965328e-09,-1.2507547e-07,0.361729,-1.5561011e-07,2.3295534e-09,1.0357694e-07,1.6462195e-08,0.46073657
1.1028182e-08,4.4840597e-08,2.5625175e-08,2.1622721e-09,-1.11988506e-07,-0.3112574,0.47988135,0.29124954,-0.38286868,-0.6283588,-1.0592825e-07,-1.7044947e-08,0.631527,-1.03478655e-07,-0.5196849,0.102434695,-0.46906585,7.412039e-09,0.8970064,6.840798e-08,1.3458593e-07,-0.49556318,0.005078274,-4.08373e-08,-0.80492395,1.3813766e-07,-7.233613e-09,1.9981858e-08,1.9192676e-07,0.027666165,1.3251195,-2.888759e-09,1.3099061e-07,-2.0604471e-08,0.43994585,1.565137e-07,-4.154135e-09,-4.314415e-08,7.662974e-08,0.72252446,4.4829555e-08,1.4764781e-07,-1.4793198e-07,6.5313536e-08,-8.4944745e-09,0.91771513,0.8764904,0.9789969,-0.48604068,0.47694948,-2.6828298e-08,6.080265e-10,-0.5332734,-1.0005465e-07,-0.100611284,-0.9037307,0.43212268,-1.370206e-07,-0.2489193,-6.641463e-08,1.5423147e-07,0.704232,0.9818366,-1.1222481e-07,-0.42999178,3.2068126e-09,1.287019e-07,1.9534546e-08,8.157776e-08,0.45482084,-0.8361176,1.053937e-07,5.995622e-08,-4.5453525e-09,0.4186293,7.0931144e-08,-7.8698164e-08,2.8803441e-08,6.540705e-08,0.5598655
-7.553851e-09,1.2381727e-07,5.1719415e-08,-3.573538e-08,9.595151e-09,-0.5292688,0.3187485,0.5280377,-0.5707982,-0.7344105,-3.8091144e-08,9.2444594e-08,0.84521586,-1.2399288e-07,-0.62623876,0.27755812,-0.646789,-1.1210407e-08,1.0699419,-1.1663147e-08,1.4577809e-08,-0.4306536,-0.064097665,-7.25411e-08,-0.7456016,5.349265e-08,1.6306776e-08,2.3375337e-08,-3.565699e-08,-0.2782149,0.95856225,2.448209e-08,-5.8743236e-08,1.4421155e-07,0.6532866,-2.8872343e-08,3.724243e-08,2.4623567e-08,-5.1549556e-08,0.9319581,4.333681e-08,2.8035172e-08,1.2654104e-07,-1.0115008e-07,6.377617e-08,1.0233192,1.0239289,0.9678049,-0.63416475,0.72446287,4.312054e-08,-2.0577716e-08,-0.7036716,1.9639153e-07,-0.48242474,-1.0292505,0.63306487,3.0675352e-08,-0.5641086,-1.555761e-07,-7.0159345e-09,0.9090591,1.1084284,5.2402008e-08,-0.52787155,5.6414116e-08,3.5782655e-08,1.5974434e-08,1.4487988e-08,0.590036,-0.8881399,-5.91635e-09,-6.2288905e-08,-4.4763723e-08,0.5728653,2.9878443e-08,-9.823663e-08,2.6502528e-08,4.9490296e-08,0.7602839
3.9988784e-08,-7.976923e-09,-1.4051999e-08,-1.2175944e-07,-5.257027e-08,-0.33910412,0.32261348,0.37054008,-0.041045707,-0.51757157,1.0309092e-07,4.1418392e-08,0.22249986,-4.5731983e-09,-0.21236636,0.0956511,-0.19352208,-1.7808418e-08,0.26719892,-4.550395e-08,4.6513748e-08,-0.42200825,0.22919713,2.9604779e-08,-0.2226128,-9.6198306e-08,1.5025707e-07,8.9968836e-08,-1.2423023e-09,-0.16508701,1.0862396,-4.2576414e-08,4.232305e-08,-6.534733e-08,0.060938854,-1.6479738e-07,1.6718546e-07,-3.884181e-08,-1.0141064e-07,0.16752306,-2.022685e-08,2.1400322e-09,-1.4924602e-08,2.4268516e-09,-6.5141826e-08,0.4895043,0.3640522,0.2163227,-0.36183384,0.20259717,1.1436765e-07,-1.0492283e-07,-0.45282102,7.5462694e-08,-0.3189759,-0.5124236,0.29014987,6.052743e-08,-0.49890223,-9.420104e-08,-1.0909165e-08,0.2748975,0.48995993,-8.638324e-08,-0.47175723,-4.536535e-08,-1.3954656e-08,-1.1880794e-07,8.977387e-08,0.2168746,-0.05525056,-8.9794845e-08,-9.3980425e-08,-1.530828e-08,0.35594544,-1.7753077e-07,-4.3705846e-08,3.6710155e-09,-4.971345e-08,0.5885458
8.010895e-08,2.1645665e-08,3.0106435e-08,5.2838175e-08,1.6429583e-07,-0.7408024,-0.07096818,1.1661493,-0.4464161,-0.6801531,6.8366046e-09,-4.500464e-09,0.772631,-1.5460958e-07,-0.2602601,0.40270245,-0.36410472,1.3133807e-08,0.969768,-3.0031362e-08,8.464302e-08,-0.07345904,-0.16003235,3.0490334e-08,-0.3029569,-1.03418465e-07,3.4808775e-08,3.9043787e-08,5.9718275e-08,-0.9405202,0.39338964,-6.614325e-08,-1.2550473e-08,-3.9398678e-08,0.4899838,-2.1288866e-08,-1.1566525e-07,-3.3127648e-08,3.269364e-08,0.814457,4.8288868e-08,7.27351e-08,-1.356538e-07,1.05715394e-07,-1.078552e-07,0.8851172,0.9460358,0.698307,-0.71901804,0.66866994,8.898303e-08,8.411039e-08,-0.59579194,-5.079528e-08,-1.18178,-0.9659415,0.7733401,1.1940379e-08,-0.5747935,-1.6271624e-09,-1.2162326e-07,0.8779289,1.0576138,-5.9660714e-08,-1.5789014,-6.6029564e-09,-1.01446396e-07,-2.0822068e-08,-1.398838e-08,0.38482234,-0.8781203,-6.460609e-08,5.3811526e-08,-1.171426e-08,0.6792578,-5.4744312e-08,-1.2884357e-07,1.0225885e-07,7.3818086e-08,0.71787286
-7.6314215e-08,9.1951186e-08,1.2745639e-07,-4.0876543e-08,1.8636293e-08,-0.42887518,0.28768528,0.8906439,-0.37536597,-0.58932847,3.654863e-08,-4.542133e-08,0.5546682,1.1833689e-07,-0.3870141,0.083295144,-0.35567638,8.0061895e-08,0.7814776,-9.978202e-09,2.6738524e-08,-0.3677528,0.123599544,-1.03670025e-07,-0.47866896,-4.0718675e-08,-2.187804e-08,-2.1234605e-08,1.9781218e-08,-0.41220278,1.2500725,-3.0480695e-08,-4.7875016e-08,4.2696033e-08,0.41828254,-9.527579e-09,7.144025e-08,-2.7185044e-08,3.8747302e-08,0.5968808,1.3075072e-07,9.822796e-09,1.9112771e-07,-8.5474596e-08,-6.810296e-09,0.7498325,0.7637457,0.6611107,-0.5743405,0.4389447,-8.1841264e-08,4.0832855e-08,-0.53212994,-1.847523e-08,-0.5470383,-0.8011123,0.5442759,-1.7978931e-07,-0.30949447,-3.325345e-08,1.5397662e-08,0.65108365,0.829176,2.3601224e-08,-1.0884696,-1.5201495e-08,-3.416413e-08,-3.3953512e-08,-2.5767179e-08,0.4356717,-0.63481754,-5.262627e-08,1.18333226e-07,-9.466742e-09,0.5512454,-1.6918676e-08,7.0264967e-09,3.4860676e-08,-1.4555246e-07,0.5215476
2.8162958e-08,-5.4995567e-08,-3.370389e-08,1.0161596e-07,5.9342018e-08,-0.18874344,0.2941452,0.24160615,-0.43876255,-0.4754127,-7.2319146e-08,9.926527e-08,0.5294703,5.6047703e-08,-0.44462392,0.027430821,-0.46457148,2.3452543e-08,0.73073494,5.5340813e-08,3.330093e-08,-0.34055704,0.16653822,-5.2036217e-08,-0.8500891,9.401511e-10,1.1229556e-08,8.510131e-09,1.8683316e-08,-0.14327021,0.8180729,-2.7196261e-08,-2.5137787e-08,7.2902964e-09,0.45169705,2.0844977e-08,-1.7797712e-08,7.718488e-08,-2.0336883e-07,0.6423529,-1.5757249e-07,5.0947843e-08,2.56032e-09,4.2835463e-08,9.0819555e-08,0.771558,0.7419201,1.0091497,-0.32630515,0.4391837,6.8586246e-08,-2.483079e-08,-0.4736082,6.3386835e-08,-0.20207578,-0.7915865,0.34545788,7.05614e-08,-0.31582484,7.624308e-08,7.7447964e-08,0.6359659,0.8634531,-4.4132335e-08,-0.46610722,5.514808e-08,-1.0078422e-07,3.5233814e-08,1.1846072e-07,0.45224008,-0.98104197,-5.9078275e-08,5.48377e-09,-9.5793894e-08,0.35599044,4.8331536e-08,-8.464674e-08,1.2017239e-08,4.7682704e-08,0.40485516
-2.0444158e-08,3.8609322e-08,-1.7211418e-08,1.2127498e-07,-1.7443824e-10,-0.6300342,0.40628493,0.7667923,-0.26497442,-0.6017546,4.4862247e-10,3.5688856e-09,0.6431195,4.1381103e-08,-0.4689095,0.21204881,-0.32317892,-7.786443e-08,0.8314324,9.106933e-08,-2.3127482e-08,-0.60822386,-0.10866564,5.35685e-08,-0.827966,4.7273637e-08,-6.3151404e-08,-2.7307983e-08,1.462683e-08,-0.008972507,1.5177174,1.3633294e-07,5.6363803e-11,-1.2965499e-08,0.29321754,-5.788184e-09,-7.1984154e-08,8.745867e-08,-1.596026e-07,0.65686387,5.6385748e-08,2.8494767e-08,-2.6814003e-08,1.19775e-07,6.924874e-08,0.7936541,0.879058,0.9628728,-0.4661389,0.45898208,4.0956795e-08,4.546949e-08,-0.5202401,-2.739576e-08,-0.007318462,-0.89201176,0.56325454,-1.959652e-09,-0.43475288,-3.2318685e-08,4.776247e-08,0.6652021,1.0260137,-3.7893834e-08,-0.7427449,1.4383845e-08,2.2770852e-09,-2.548615e-08,2.9955537e-08,0.35092506,-0.88751376,-3.189757e-08,-4.2710198e-08,-6.5320876e-08,0.43421724,3.0069657e-08,-1.001918e-08,8.266845e-08,-6.422468e-08,0.6941405
1.9154264e-08,3.4023774e-08,-3.0908431e-09,4.0294722e-08,9.322022e-08,-0.2353767,-0.007973237,0.01871592,-0.48133487,-0.6014187,3.6668126e-09,-3.4189668e-08,0.58229953,3.2723445e-08,-0.38087192,0.07917738,-0.5067772,-2.467236e-08,0.8478716,-2.4408635e-08,-6.860596e-08,-0.028664505,0.1612354,-3.731386e-08,-0.2782756,4.1798813e-08,-9.4818496e-08,1.839537e-08,-2.0248113e-08,-0.40117377,0.16189665,2.1857767e-08,2.607124e-08,-1.6386155e-09,0.5094602,-3.660563e-08,-3.4862357e-08,7.251975e-09,1.2041835e-08,0.7381081,-3.0489577e-08,-5.2335665e-09,1.2500253e-07,-9.5222745e-09,-9.068943e-08,0.8330958,0.7726477,0.46608308,-0.44389457,0.48219684,5.11345e-08,-4.5987086e-08,-0.5032417,-7.981965e-09,-0.6427442,-0.7966547,0.38782024,-4.8039766e-08,-0.27913928,4.0305523e-09,-2.1248592e-08,0.70374215,0.8664161,1.2882178e-07,-0.39766082,-4.0161765e-08,-3.6936104e-08,-2.6524864e-08,1.1880616e-07,0.49819654,-0.3111208,7.401475e-08,-8.556061e-09,-2.4309902e-08,0.46438918,1.50741e-08,-1.5888329e-08,1.13448024e-07,6.022819e-08,0.4075307
-1.1404105e-07,5.3809224e-08,3.160887e-08,1.6614098e-07,-1.3647191e-07,-0.842164,0.026908305,0.4585157,-0.5327422,-0.83848375,2.7593337e-08,-3.6756422e-08,0.75976735,-2.6079352e-08,-0.41907662,0.4921286,-0.5448548,3.746893e-08,0.9484085,4.102848e-08,-7.6904044e-08,-0.2781792,-0.26920116,-4.4353882e-08,-0.434366,9.737849e-09,-2.9992933e-09,5.4437553e-08,3.2454057e-08,-0.86802864,0.29966515,6.7571946e-08,3.8826713e-08,-8.5028535e-09,0.56972367,-3.3302115e-08,-5.603166e-08,1.0595053e-08,4.5707985e-08,0.8425645,-5.0547094e-08,1.0062752e-07,-1.8884562e-07,1.2683807e-08,-5.0190504e-08,0.8816153,0.9497149,0.6858679,-0.76918656,0.62310565,9.077396e-08,-5.923833e-08,-0.81412035,1.6267269e-07,-0.96502715,-0.9347851,0.7266283,-1.5988178e-08,-0.7159869,-1.1479568e-07,4.2623824e-08,0.82352704,1.0352671,-1.1027885e-07,-0.6811531,-6.450884e-08,-8.690996e-08,-2.692898e-08,7.793258e-09,0.38826063,-0.6871998,4.4666287e-08,9.51787e-08,5.012716e-08,0.7739481,1.0108738e-07,4.767163e-08,-3.4665817e-09,-5.65802e-09,0.9141063
1.5733592e-07,3.386492e-08,-4.118373e-09,-1.1536131e-07,-1.1656967e-07,-0.4655687,-0.10859071,-0.28838497,-0.2169148,-0.6284498,-1.3677335e-07,3.303086e-08,0.3016523,-4.9101196e-08,-0.24177061,0.2774666,-0.27324805,1.07815744e-07,0.26599953,-8.928432e-08,1.765822e-08,-0.07890977,-0.06124166,1.1467476e-07,-0.37312415,-2.1442489e-08,-5.855444e-09,-5.2830423e-08,1.2240681e-08,-0.5427541,0.26337758,1.4862432e-07,8.97803e-08,2.1340881e-08,0.22156033,5.933719e-08,-8.7077154e-08,2.4808713e-08,-7.099155e-08,0.13349034,4.0254914e-08,-3.0938114e-08,1.6534194e-07,4.337634e-08,5.30447e-08,0.5508421,0.50133747,0.4897874,-0.33314413,0.13991603,2.4080132e-08,3.6635562e-08,-0.46140957,3.4741362e-08,-0.5132196,-0.6187415,0.40128377,-1.2058338e-08,-0.588712,2.6605953e-08,3.6277953e-08,0.40320337,0.63290846,1.1320995e-07,-0.07838453,1.04637266e-07,1.8419809e-07,-1.670097e-07,7.27473e-08,0.19448376,-0.25579292,3.6876152e-08,3.7380893e-08,-3.181325e-08,0.29454195,9.4007326e-08,-4.12118e-08,-1.92598e-08,2.5666054e-08,0.76055986
1.0410375e-07,-1.8190867e-08,1.2819748e-07,8.1081076e-08,-3.7101227e-08,-0.16220768,0.073902,-0.4361012,-0.42738405,-0.6714106,3.2231434e-08,-2.1472129e-08,0.48796418,6.536226e-08,-0.49333727,0.07595368,-0.53363454,2.9642578e-08,0.6586841,-7.6901294e-08,5.0741182e-08,-0.08810181,0.22016768,-6.4528756e-09,-0.3657008,5.2028426e-09,-1.7589453e-07,-1.703021e-07,3.5007915e-08,-0.25430986,0.11779508,2.0542995e-08,-3.615539e-08,-3.41536e-08,0.4606794,2.093329e-08,-1.1752928e-07,6.214572e-09,-1.2983836e-08,0.54807484,-2.2307779e-08,5.088682e-08,-1.1856958e-08,3.7439417e-08,3.5690558e-08,0.7722615,0.62955207,0.40258828,-0.21406269,0.32563943,-6.368193e-09,-8.334929e-08,-0.4423884,-1.46834545e-08,-0.26566833,-0.69331884,0.2358738,-9.6566794e-08,-0.623664,-2.6492472e-08,-3.2666982e-08,0.5832257,0.7439392,-1.7465474e-08,0.24482897,1.5976408e-08,4.448779e-10,-4.1208914e-08,1.5256946e-07,0.4750472,-0.2196297,6.141106e-08,1.859131e-08,-1.3861683e-08,0.16952714,-4.412514e-08,-2.8517551e-08,2.001576e-08,-2.4463331e-08,0.5908793
-1.7250999e-08,5.0171e-08,-8.732928e-08,2.4260942e-08,-2.9425191e-08,-0.28647223,-0.29301268,0.65745693,-0.51797533,-0.6018811,6.24029e-08,2.994602e-08,0.7243533,6.455961e-09,-0.32761103,0.15152827,-0.42198896,-2.8549161e-08,0.891028,-9.285917e-08,9.0675535e-08,0.30190456,-0.028833685,-1.633141e-07,-0.3028005,1.0683469e-07,2.0298556e-08,-4.0037733e-09,-9.5181015e-08,-0.562718,-0.81986636,-6.32444e-08,-2.3256145e-08,9.054182e-08,0.5746528,-1.058249e-07,3.198402e-08,-7.588476e-08,5.6977115e-08,0.79309314,-2.1198048e-08,7.3266317e-09,-1.2877581e-07,6.264956e-08,1.9118715e-09,0.8629754,0.7885774,0.7403613,-0.28934646,0.544374,-1.1221346e-07,2.1297133e-08,-0.3867745,-2.5269168e-08,-0.71441126,-0.86076313,0.49913454,-3.4656395e-08,-0.62882227,2.4470062e-08,-2.785871e-08,0.7944718,0.9564942,1.2667874e-07,-1.18904,-8.624841e-08,7.1269234e-08,-1.8722845e-08,-6.4290994e-08,0.44403708,-0.8765605,6.738606e-08,4.7109904e-08,2.8800653e-08,0.2421819,-8.708073e-08,2.0201249e-08,-4.244569e-09,-6.543125e-08,0.578602
4.3924754e-08,-2.257616e-08,7.3990414e-08,9.212244e-08,6.307667e-08,-0.42587927,-0.2573823,0.53922313,-0.53161323,-0.6473604,3.9500687e-08,8.0626364e-08,0.74986136,-1.2374363e-08,-0.27306226,0.16662258,-0.40278012,1.1834083e-07,0.940311,-4.3766057e-09,-1.4979427e-08,0.2617477,-0.07770703,-1.9870043e-08,-0.43176737,-2.8881075e-08,-7.516771e-09,8.139911e-08,-6.9180413e-09,-0.6564162,-0.72923493,9.503481e-08,-6.887963e-08,2.1103542e-08,0.5891143,8.6208814e-08,1.481338e-07,1.5814429e-07,-6.681008e-08,0.80053824,1.04081494e-07,4.782195e-08,-1.1286756e-07,-6.583665e-08,-3.8716724e-08,0.84594345,0.8666211,0.8661548,-0.31052327,0.5173121,4.1818378e-08,-5.2281557e-08,-0.3805728,-1.2922072e-09,-0.7708768,-0.9244714,0.56649595,-5.033775e-08,-0.5169793,-6.943647e-08,9.918265e-08,0.8520148,1.0126818,8.845285e-08,-0.99185777,4.707401e-08,6.527539e-08,1.1066111e-07,-7.722379e-08,0.38097143,-1.0615541,5.592619e-08,8.275235e-08,-3.888691e-08,0.25267488,-7.347373e-09,3.7166068e-08,3.1537503e-08,5.639615e-08,0.6115537
-9.604293e-08,-3.8690878e-08,-1.4118804e-07,5.47377e-08,-1.0519024e-07,-0.124051176,-0.29343835,-0.0372087,-0.50704086,-0.64432985,4.922192e-08,1.3547752e-07,0.6668304,1.1038839e-08,-0.3810362,0.01763102,-0.45549786,-7.164017e-09,0.8496607,-7.097859e-09,-2.9276944e-08,0.39355025,0.12056217,-6.9135417e-09,-0.55281246,-8.138492e-08,1.1454029e-08,-1.4947439e-08,5.3820983e-09,-0.37905076,-0.65184516,9.9686034e-08,4.9252602e-08,3.028335e-08,0.543602,4.077179e-08,-5.319884e-08,-3.26492e-08,-8.3945494e-08,0.6938456,-6.017004e-08,-1.6728134e-07,-5.9516477e-08,4.5036202e-08,5.1704898e-08,0.8682528,0.7467399,0.87234217,-0.15683483,0.38848147,-1.5736562e-08,-5.2244182e-08,-0.321735,2.5964448e-08,-0.41098177,-0.8466758,0.40177166,1.3210796e-07,-0.4361742,1.1104264e-07,5.8359902e-08,0.71717703,0.9022202,3.1901504e-09,-0.5286968,-2.7114819e-08,3.290813e-08,8.6666496e-08,3.8315083e-08,0.43149328,-0.8541323,7.9250384e-11,1.6006642e-07,3.4195214e-08,0.063053265,-1.4470501e-08,-8.865603e-09,-6.8470065e-09,3.0329097e-08,0.5410649
1.1413816e-08,8.9580805e-09,-1.03961604e-07,8.415947e-08,-4.764815e-08,-0.34923065,-0.10055504,0.5885815,-0.65251744,-0.4964832,8.716524e-08,7.230511e-08,0.82224053,7.752255e-08,-0.62672967,0.29393464,-0.589976,-5.967573e-08,1.0555112,-1.2073679e-07,-8.182206e-08,0.061265845,-0.27728847,-2.3645066e-08,-0.8046245,4.045754e-09,5.424662e-08,-7.616133e-08,1.08708335e-07,0.09909314,0.33207914,-5.741126e-08,-5.414538e-09,3.4712137e-08,0.67817104,4.671853e-08,1.3974562e-08,-3.144674e-08,4.404689e-08,0.90298474,-1.287042e-07,8.124742e-08,-1.6002585e-07,-2.3147875e-08,-8.4990006e-08,0.96255755,0.9487377,0.96840227,-0.1817955,0.7317715,-2.533399e-08,4.8002082e-08,-0.36828306,4.938616e-08,-0.1301332,-0.9552259,0.5046501,2.9966213e-08,-0.22922127,3.108549e-08,3.2302495e-08,0.8674256,1.0336521,5.0758118e-08,-0.6942621,-8.3257284e-08,5.4501427e-08,1.6991897e-09,5.6156807e-08,0.61574066,-0.9332424,6.283469e-08,-5.8018742e-08,9.6844396e-08,0.1406467,-4.337411e-08,7.527423e-08,-3.0020928e-08,5.5170723e-08,0.44766125
-8.850001e-09,-3.1111647e-08,-5.525181e-08,-2.9740605e-08,-1.0878564e-07,-0.16380598,0.10006052,-0.34890595,-0.47725654,-0.6078722,-5.5384234e-08,9.790299e-08,0.5955513,6.211708e-08,-0.48167574,0.015289813,-0.44187492,6.6911596e-09,0.7592371,3.1614007e-08,-1.092035e-07,-0.14309363,0.24250415,-1.6555077e-08,-0.65955865,-1.0537157e-08,1.13955295e-07,2.3552724e-08,3.013249e-08,-0.11049816,0.4168209,-6.936785e-08,4.5895497e-08,8.899968e-09,0.48784783,-2.9898843e-08,-6.87979e-08,-8.894047e-08,-5.742627e-08,0.61729836,-9.878702e-09,2.325107e-08,-1.1789198e-08,-6.2509514e-08,5.5062667e-08,0.8160885,0.71865386,0.8288422,-0.13118748,0.3925118,4.5349587e-08,8.9658947e-10,-0.37865892,1.4036979e-07,-0.08701078,-0.82516974,0.39600524,-2.6247877e-08,-0.37782407,5.3382387e-08,-5.567991e-08,0.62543726,0.86740226,3.4805943e-08,0.15294082,4.330517e-08,1.05261876e-07,1.9045926e-08,1.0740711e-08,0.4474213,-0.61814433,-4.8699654e-08,-1.3602188e-07,-5.018741e-10,0.11557458,-1.9663325e-07,6.8936785e-08,1.0566552e-09,-1.630781e-08,0.5067624
-2.020569e-08,-3.3312066e-08,3.740235e-08,-1.1350188e-07,7.371663e-08,-0.14132188,0.45867366,0.10870056,-0.3818447,-0.4691988,-5.2191403e-08,1.5837596e-08,0.5751863,-9.806615e-08,-0.5005563,0.035484754,-0.4913241,-6.126184e-08,0.8154869,-1.4056312e-10,6.2255445e-08,-0.5588575,0.20974436,8.8887035e-08,-0.83408254,-1.4255725e-09,1.9102657e-09,1.9179839e-07,6.548738e-08,0.3283105,1.4782699,7.5701124e-08,-5.6753276e-08,-9.525499e-08,0.40920484,-5.8404076e-08,-8.154392e-08,4.7201825e-09,1.8224913e-08,0.6902447,-4.0827057e-08,3.9792432e-08,-5.7851204e-09,-5.5794796e-08,7.956125e-09,0.7990248,0.6863001,0.87953335,-0.12730797,0.46165833,5.3375867e-08,-9.4939026e-09,-0.39887026,2.6789063e-08,0.2894083,-0.7403024,0.242518,-6.467782e-08,-0.31804973,5.77265e-09,5.3915233e-08,0.5533791,0.8478085,-1.6104151e-08,-0.040026747,2.8920866e-08,2.0562165e-08,3.34492e-08,3.90203e-08,0.3958028,-0.5892312,2.4261881e-08,1.8875502e-08,1.2393542e-08,0.13622789,-1.021981e-07,2.3559243e-09,6.3782196e-08,-5.2552057e-08,0.4657104
-1.8140657e-08,-6.78145e-08,6.5818977e-09,-3.018295e-08,-6.0840186e-08,-0.042311292,0.39187634,0.52199477,-0.48648527,-0.2633424,-4.1593218e-08,-1.9136422e-08,0.6510127,1.7877852e-07,-0.60720474,-0.024439717,-0.4985017,5.4757052e-08,0.8626982,-3.6820765e-08,-2.611877e-08,-0.3669309,0.10833239,4.940503e-08,-0.85765254,1.2287742e-08,1.5778448e-07,-4.1399087e-08,4.691339e-08,0.58092916,1.2121651,-1.1798772e-07,1.4073927e-07,-1.2779695e-07,0.53117424,3.5243126e-08,1.0657093e-07,-9.3359745e-08,5.8923508e-08,0.7662374,-1.4239458e-08,3.7152494e-09,2.3907646e-08,4.9364168e-08,-1.0571007e-08,0.8093677,0.7810904,0.9006276,-0.056992933,0.5834859,-1.2571032e-07,-1.7821398e-08,-0.29647005,-4.7658435e-08,0.4252838,-0.7718739,0.2556101,5.3094396e-08,-0.20037062,9.686261e-08,9.480313e-08,0.67612356,0.86952835,3.121477e-08,-0.41046545,9.017965e-09,1.0234262e-07,-1.4744597e-07,-1.4679143e-08,0.51302195,-0.9662641,-4.304617e-08,-6.772214e-08,1.8111443e-08,0.0294166,1.7701238e-07,-7.0549525e-08,-3.493058e-08,7.033564e-08,0.32446307
-4.196087e-08,-1.9405256e-08,-1.8677433e-08,1.1873596e-07,-2.4313241e-08,-0.046730988,0.5117759,0.33451843,-0.55089027,-0.434783,4.639319e-08,1.1645346e-07,0.71926904,9.7887785e-08,-0.6872862,-0.050620236,-0.6247672,3.0424925e-08,0.9407222,1.0702836e-08,-1.98269e-08,-0.5379092,0.17605428,1.00583335e-07,-0.93144333,-2.0858465e-08,-7.9332764e-08,3.445951e-09,-7.4656036e-08,0.638818,1.3365678,2.7380272e-08,-1.4065317e-08,1.6571342e-07,0.5927504,-1.5916052e-08,-5.0858073e-08,-4.2504443e-08,-3.541144e-08,0.83820707,-1.2109592e-07,4.2131163e-08,1.8220503e-07,-7.658427e-08,1.8991361e-08,0.9178787,0.8335177,1.0128331,-0.17052093,0.6460534,5.0376247e-08,2.8059608e-08,-0.4593407,4.242562e-08,0.45400572,-0.8818263,0.28049412,-1.7975384e-07,-0.34235325,-1.5811919e-07,-2.3469525e-08,0.7517034,0.9721334,-7.9353576e-08,-0.16113827,6.541514e-08,-4.8926903e-08,8.163058e-08,-7.3111714e-08,0.6193865,-0.93890816,2.81219e-08,6.747482e-08,-1.3742722e-07,0.15571906,-4.799329e-08,-5.3274647e-08,2.3761196e-08,-4.5708067e-08,0.45782003
-7.2782115e-08,-3.4615603e-08,1.2058868e-07,-9.916649e-08,-5.0557915e-08,-0.03777613,0.32008818,0.19737822,-0.5737146,-0.39432237,-7.1936256e-08,1.46349395e-08,0.70644546,8.596436e-09,-0.7041434,-0.04504976,-0.5675413,1.2648061e-07,0.89266706,-4.5787058e-08,1.5819302e-07,-0.286961,0.15427123,1.2282587e-08,-0.8652682,-2.3655164e-07,-3.208923e-08,-6.163431e-08,1.528764e-08,0.54405886,0.9988743,2.6778736e-08,8.62001e-08,-3.9586304e-08,0.6046035,-7.888746e-09,-6.644766e-08,-1.1023374e-08,-3.7129233e-08,0.79190266,4.047731e-09,6.318845e-08,-3.3911135e-08,5.540874e-08,5.4862124e-09,0.89784855,0.8305074,0.91325736,0.019444788,0.5704519,6.5158794e-08,-5.6458532e-08,-0.243514,-1.2029304e-07,0.46810636,-0.8480732,0.24395938,4.0690864e-08,-0.15946682,8.99955e-08,2.8511284e-08,0.7502186,0.92249036,1.7148668e-08,-0.12806985,-4.6980816e-08,-2.816817e-08,-1.1034017e-07,-2.9153442e-08,0.6592823,-0.8492911,2.456829e-08,-2.9315224e-08,-1.0980855e-08,-0.028138874,-5.231817e-08,8.580022e-08,1.2807938e-08,-4.2356895e-08,0.27721342
-6.849927e-09,-6.2618135e-08,-4.9125894e-08,-7.720291e-08,1.908801e-08,-0.091422714,0.42694253,-0.08475342,-0.64706427,-0.45931765,1.0886567e-07,-2.3598114e-08,0.77136695,-3.3049943e-08,-0.7618714,0.01600702,-0.6655404,-3.9919104e-08,1.0486939,3.90018e-08,-1.0890125e-07,-0.39279497,-0.01473167,8.436718e-08,-0.86284536,-5.6576027e-08,-2.0630395e-09,-2.989666e-08,2.7182764e-08,0.8200887,0.9798339,-3.2128316e-08,-1.80842e-08,-5.1273133e-08,0.69344294,5.868781e-08,-5.7520374e-08,1.2241156e-07,3.709595e-08,0.92971,4.216927e-08,-6.06386e-08,-9.32752e-08,4.2850246e-08,-8.540773e-09,0.9704029,0.908299,0.92074716,-0.030652206,0.69216937,7.988736e-08,-4.287124e-08,-0.39215988,5.703854e-08,0.5637401,-0.90673834,0.31661505,-5.5351872e-08,-0.21258453,5.284207e-09,-1.9238121e-07,0.79430884,0.99677974,-5.2553247e-08,0.35530755,3.704195e-08,2.0282101e-08,1.3308605e-07,-7.1011115e-08,0.679284,-0.8061676,1.1301729e-08,5.683117e-08,6.520891e-08,-0.006121073,2.3368816e-08,5.4563934e-08,-6.153568e-08,-8.816823e-10,0.3480683
-7.6980825e-08,-1.423195e-07,-6.421768e-08,4.1148972e-08,-8.6208836e-08,0.05866148,0.5716653,0.08290379,-0.65194917,-0.38934028,-8.060512e-09,1.3075314e-07,0.7740797,-9.2842114e-08,-0.7801853,-0.15961947,-0.66573334,-5.3773217e-09,1.0265073,1.0489816e-07,-2.0963876e-08,-0.50713575,0.27994302,-1.9157751e-08,-1.0049193,-2.5985782e-08,1.42959635e-08,4.6270213e-08,8.3853664e-08,0.7301657,1.226165,5.94086e-08,6.6120265e-08,7.898271e-08,0.70152426,1.0045598e-07,-1.3755557e-07,1.241571e-07,5.0114473e-08,0.89820516,-3.4081484e-09,-4.110486e-08,1.9426605e-07,-9.2768545e-08,1.93149e-08,0.9697656,0.9181585,1.0888522,0.034061637,0.61472845,-4.2367102e-08,-2.0544842e-08,-0.330379,5.2326953e-08,0.5845626,-0.9259575,0.25089735,1.05436996e-07,-0.21408553,3.6303884e-08,-8.873341e-09,0.81107146,0.9974993,1.2293648e-07,0.10463418,-1.2165755e-07,-1.2233217e-07,-2.9108234e-08,3.4067327e-10,0.6887205,-1.0546781,-1.2090313e-08,6.2643295e-08,-1.0487327e-08,-0.021408828,1.0706354e-07,6.4972056e-08,1.8598479e-07,8.774411e-08,0.2792896
-3.635661e-08,4.812993e-08,-1.5857076e-07,-1.2343966e-07,-1.0256669e-07,-0.22332232,0.44416457,-0.20694403,-0.39928773,-0.43028316,8.114419e-09,7.1348936e-08,0.5906552,1.4137937e-07,-0.6103503,0.02919122,-0.4472482,-7.309808e-09,0.7906696,-1.01930354e-07,-4.6224642e-08,-0.55741453,0.103253864,1.2573778e-07,-0.865423,6.436895e-09,2.1350047e-08,-5.8766975e-08,-4.2707818e-08,0.59022164,1.353945,9.822415e-08,-5.8113795e-08,1.3656248e-08,0.40773028,-4.2812342e-08,6.3190456e-08,-5.983665e-09,8.679646e-08,0.67946386,-2.6721839e-08,6.8689246e-08,5.6251984e-08,-7.42045e-08,2.127074e-08,0.7810116,0.73746127,0.89597654,-0.1823293,0.44483718,-1.1333243e-07,-8.009496e-08,-0.45389292,-7.357651e-08,0.5724092,-0.7693412,0.32187098,9.678486e-09,-0.3160596,-9.267154e-09,-4.4275325e-08,0.58913887,0.8487855,3.0674887e-08,0.5211754,3.0957814e-08,1.743842e-08,-1.1634749e-07,-3.6451993e-08,0.45821902,-0.7636026,1.722226e-08,4.2339856e-09,-5.680277e-08,0.21179034,-1.7052612e-08,-2.22715e-09,1.4334821e-08,-2.1541767e-08,0.47434872
-2.4151026e-08,-1.373749e-07,5.386147e-08,-1.1534816e-08,1.0487083e-07,-0.1867175,0.3058587,-0.62502056,-0.3773941,-0.6095853,-4.8052215e-08,4.3205468e-08,0.53781176,-5.564704e-10,-0.51118374,-0.023491066,-0.45817178,2.4576757e-08,0.6951915,-1.0771536e-07,1.1613392e-07,-0.38712236,0.29556313,1.3417187e-07,-0.7246345,3.9468496e-08,7.448873e-08,1.525806e-08,1.8342368e-07,0.06999859,1.2144469,-8.374367e-08,4.6780265e-08,1.18282344e-07,0.40722916,9.5692485e-09,-1.1476476e-07,-8.527145e-08,-5.10783e-09,0.5032494,-1.1565319e-07,-1.330953e-08,2.3703716e-07,4.8073495e-08,-3.3565986e-09,0.8504819,0.73222554,0.77793914,-0.124071516,0.29576844,-9.016527e-08,-6.461252e-08,-0.36875334,-5.688956e-08,0.054194566,-0.833395,0.32134375,-7.178125e-08,-0.37091088,-1.0963781e-07,2.7688717e-08,0.6106201,0.869482,-9.225335e-09,0.475726,7.994197e-09,1.15185316e-07,1.7682645e-07,-4.9923347e-08,0.46606773,-0.44781736,-1.2726162e-08,-1.5466703e-07,4.5859867e-09,0.056553647,1.16329005e-07,-6.5973836e-08,6.9462644e-08,-3.902533e-08,0.6015376
-9.778286e-08,-5.813739e-09,1.4777879e-07,1.04588196e-07,-2.0289143e-08,-0.406318,-0.09514342,-0.95656735,-0.25176895,-0.70116556,2.0226471e-08,1.903811e-07,0.39585426,3.555458e-08,-0.27434108,0.12581314,-0.25642452,4.6354902e-08,0.4195302,1.550423e-07,6.47904e-08,0.018328357,0.14377564,7.248509e-08,-0.41524023,1.8432328e-08,-1.1394993e-07,9.311126e-09,-6.3835586e-08,-0.49380106,0.453582,-4.984861e-08,4.187264e-09,-1.0766426e-07,0.26310074,2.1029916e-08,5.953008e-08,2.831657e-08,-5.731637e-08,0.17416108,1.9450543e-07,3.4111352e-08,-1.2250901e-08,-9.575319e-09,6.22893e-08,0.6651814,0.58407444,0.61543703,-0.16259998,0.0971154,-1.46170365e-08,-7.624564e-09,-0.30155072,-2.8721452e-08,-0.37037706,-0.74648803,0.3914307,-1.1960616e-08,-0.41324925,3.1202198e-08,2.9947277e-08,0.49113828,0.7455026,4.9693964e-09,0.70885444,1.2201528e-07,6.808403e-08,-7.487031e-08,-4.6900926e-08,0.2590626,-0.12097103,1.264349e-08,-2.3263684e-08,2.2118805e-09,0.06518884,4.048285e-08,1.2947698e-08,-4.2601968e-08,-6.9051254e-08,0.67242664
4.9387786e-08,7.6805415e-09,-2.2960596e-07,8.891785e-09,-1.0464412e-08,-0.18339689,0.061009977,0.108712934,-0.55041236,-0.65014684,2.279151e-09,-1.01163495e-08,0.7883555,-2.1308669e-08,-0.5802135,0.034800787,-0.56129295,4.097361e-08,1.0467438,2.052452e-08,-1.7874463e-08,-0.05460218,0.13806437,6.769561e-08,-0.9428158,-2.4260286e-08,4.2271587e-08,7.059653e-08,-3.4014427e-09,-0.0025946035,0.72448045,2.2661492e-08,4.8328747e-08,-8.045235e-08,0.6017122,1.6005043e-08,-4.7447248e-08,5.4489906e-09,1.7313917e-08,0.8596251,-9.013498e-08,8.702672e-08,4.7869037e-08,8.9390504e-08,-1.2727581e-08,1.0449876,0.9655477,1.183154,-0.2522764,0.6066005,6.623378e-08,-2.321322e-08,-0.47376683,-1.2184094e-08,-0.1687482,-1.0088574,0.4888183,-3.937246e-08,-0.3616595,-7.3279374e-09,-6.234097e-08,0.87108856,1.1334823,-1.562191e-07,-0.63378644,3.8129826e-08,3.7242348e-08,-8.43018e-08,-8.288202e-08,0.5899064,-1.0520214,9.800264e-08,5.103699e-08,-2.0331363e-09,0.16773662,3.853433e-09,-5.271963e-08,1.247298e-07,-3.3883119e-09,0.6192344
1.0755306e-07,-7.7926536e-08,-2.6829511e-08,1.909457e-10,7.855399e-09,0.08892438,-0.019527845,-0.01605668,-0.6487306,-0.33587238,-7.3840816e-08,5.4748675e-08,0.7716995,7.491943e-08,-0.5086524,-0.043482542,-0.503476,-3.9167496e-08,0.98604864,-2.7667431e-08,1.265636e-07,0.15400198,0.18545473,-4.4246683e-08,-0.68601054,3.9146546e-08,8.0026915e-08,2.0594916e-08,2.8534059e-08,0.039040927,-0.1368475,-3.065363e-08,1.0603433e-07,-1.4697592e-07,0.70757985,1.5391649e-08,-3.987608e-08,1.5631521e-07,-1.0924593e-07,0.8688886,-1.6479424e-07,7.314216e-08,2.2442273e-07,-5.93255e-08,-4.384631e-08,0.9214556,0.84629273,1.0021747,-0.019848438,0.6586582,-2.6194186e-08,-1.04406936e-07,-0.19471732,-4.465267e-08,-0.1500236,-0.85218906,0.40149394,-5.197924e-08,-0.10128377,1.2485122e-08,-1.697577e-07,0.8271691,0.9582651,6.819326e-08,-0.45546693,3.319546e-08,3.2052796e-09,-3.3470787e-08,-4.6416325e-08,0.5447204,-0.9586748,2.0716442e-09,1.7546238e-08,4.036573e-08,-0.10264066,-1.06500046e-07,4.0886583e-08,-5.8587066e-08,6.780719e-08,0.28223616
2.940271e-08,-1.3746015e-07,3.2268524e-08,-1.7124464e-07,-2.819085e-08,0.052011225,0.53523076,0.23372371,-0.3890351,-0.419169,-5.3986096e-09,3.821148e-08,0.5825505,5.650934e-08,-0.5592011,-0.23796235,-0.47270954,2.7478825e-08,0.84084016,7.178366e-08,-4.9133746e-09,-0.48884007,0.37928814,1.8400678e-08,-0.90874946,-2.8002678e-08,-3.4029462e-08,4.0912116e-08,5.1903793e-08,0.56742686,1.2715839,1.8438216e-08,4.2889244e-08,-7.413219e-08,0.44057122,7.084887e-08,-1.0149592e-07,-6.589668e-08,-6.780477e-08,0.6968033,4.1113854e-08,-1.7048373e-08,4.6965603e-08,1.40897605e-08,-4.2675197e-08,0.8477934,0.75610834,1.0655426,-0.11772251,0.42811713,1.3735146e-09,2.0259212e-07,-0.36521304,-1.5015294e-07,0.4499571,-0.8038397,0.22084004,-3.8702865e-08,-0.30833763,6.751563e-08,-2.6682837e-08,0.63054365,0.91540474,-9.470629e-09,-0.30703562,2.1030612e-08,4.2418982e-08,-5.582906e-08,1.1647657e-08,0.47572297,-0.91322935,-4.673425e-08,4.4261537e-08,2.2272943e-08,0.08073327,-1.2017415e-07,-6.461679e-08,5.577335e-08,-1.4290487e-07,0.4307356
-1.5919086e-08,2.4443075e-08,-8.6020734e-08,-1.3329358e-07,5.6616006e-08,-0.041732367,0.28211492,0.08561166,-0.4902615,-0.5959519,-1.5295169e-07,2.0304448e-08,0.64841825,4.090283e-08,-0.59177065,-0.17268737,-0.5601595,2.7207435e-08,0.8391434,6.1445053e-09,3.7661678e-08,-0.22449543,0.34604332,-7.3548634e-08,-0.9440499,-5.5666305e-08,-7.358655e-08,5.7815743e-09,7.964701e-08,0.0863517,0.80479014,-6.3219314e-09,-6.183307e-08,-1.1657727e-07,0.5325042,6.298268e-08,-8.0250466e-08,4.992634e-08,2.9163314e-08,0.6885037,-1.1376564e-08,9.437707e-08,-1.5443835e-07,-5.8966023e-09,1.0582076e-07,0.9186406,0.83891,1.1618531,-0.12957919,0.3858414,-1.1324145e-07,-4.78567e-08,-0.36247635,-1.03286816e-07,0.118571624,-0.9039374,0.31256714,8.3847084e-08,-0.35751438,-2.6916918e-08,4.44963e-08,0.7468088,0.9664486,-1.5208357e-07,-0.41763693,-1.2960015e-07,-7.6414565e-08,-2.4414724e-08,7.3239264e-09,0.5313391,-1.0990287,-8.218292e-08,-8.967808e-08,-2.7859606e-08,0.05504181,1.0050154e-07,-8.3963776e-08,1.951932e-09,-6.046169e-08,0.5473048
4.6791833e-09,-8.5576675e-09,-4.7846935e-08,-2.3078789e-08,-3.7532963e-08,-0.10688929,0.17011227,0.20483474,-0.5400067,-0.51082295,2.6551225e-08,7.503197e-08,0.6874482,-1.5593361e-08,-0.597741,-0.054369565,-0.5476602,-1.6744437e-08,0.8884703,1.6758442e-08,-1.7617552e-09,-0.08991625,0.15939046,7.375386e-08,-0.8914784,5.4905133e-08,1.3914768e-08,-3.3133727e-08,-7.5803044e-08,0.1883533,0.6828291,4.048703e-09,-2.3291383e-08,3.1389323e-08,0.5855585,-7.870665e-08,1.03711585e-07,-3.371975e-08,-8.361128e-08,0.718784,4.806299e-09,-1.3981836e-08,9.293464e-08,-3.4674986e-08,-1.5697854e-08,0.89000285,0.8650176,1.12448,-0.05248566,0.46668932,-1.06091015e-07,7.571534e-08,-0.28656912,4.4685386e-08,0.1435166,-0.89230317,0.36614022,-4.8140805e-08,-0.27417693,2.389541e-08,-8.890504e-08,0.7654826,0.96918684,-3.536634e-08,-0.44792548,1.0312245e-08,1.595889e-07,-5.22951e-08,-6.122516e-08,0.5504173,-1.1064045,-4.561266e-08,1.3384225e-08,-6.164265e-09,-0.025759209,4.96222e-08,-5.289478e-08,1.0719741e-08,-1.2153238e-07,0.48767152
-2.0633176e-07,1.9991383e-08,-3.6343494e-08,-2.1844613e-08,9.342184e-09,-0.10876896,-0.061148003,-0.29697528,-0.5330155,-0.5067444,-7.180766e-09,2.340608e-08,0.6252499,-4.489734e-08,-0.41921893,0.0850015,-0.49547192,9.995834e-08,0.81985533,8.548528e-08,1.1566612e-07,0.11339904,0.13762325,2.1792552e-08,-0.6241467,3.2564163e-08,-6.0990786e-08,2.124833e-08,4.165954e-08,-0.22982964,-0.06327058,-3.9152653e-08,-2.8321143e-08,-3.412467e-08,0.542762,6.2080865e-08,1.4847515e-08,-1.0007612e-07,-4.6158345e-08,0.7546011,4.0463913e-08,2.429118e-08,6.2881696e-08,-3.7325808e-08,-1.5583632e-09,0.822518,0.7281475,0.8889986,-0.14269514,0.50894594,4.8284704e-08,-7.7247904e-08,-0.3535879,-1.7257669e-08,-0.31162742,-0.7738542,0.33492586,2.5386061e-08,-0.25333655,7.548705e-08,5.3648215e-09,0.6683782,0.8636885,6.23685e-08,-0.166295,1.5038236e-07,-1.8406932e-07,-2.02996e-08,-5.9122653e-09,0.47012243,-0.81003,-5.7550373e-09,-3.9301277e-08,4.6107335e-08,0.10660237,7.8290185e-08,4.693544e-08,2.041821e-08,1.9261803e-08,0.3291565
5.545106e-08,4.7787196e-08,7.80601e-08,2.8464207e-08,-9.526404e-08,0.40663558,0.2878245,-0.5429581,-0.53376627,-0.48968333,-9.089801e-08,1.0514885e-08,0.5593349,1.0297051e-08,-0.7090392,-0.37033072,-0.6432201,-4.2153516e-08,0.78472865,-3.9484757e-08,-2.041868e-08,-0.18049657,0.5131622,1.0385876e-07,-0.969971,-5.3367398e-08,7.4488156e-08,1.8801899e-08,7.1142296e-08,0.53843904,0.38035473,-4.3275765e-09,-5.8811985e-08,5.8838065e-08,0.56793356,-2.2583006e-08,5.8443238e-08,2.2840197e-08,-8.492467e-08,0.6488153,-4.9727785e-08,-1.1935781e-07,8.563047e-08,-3.1245694e-08,3.3813176e-08,0.90693516,0.6971663,1.0124949,0.0017598736,0.305598,3.172717e-08,-2.0251054e-08,-0.24416837,-1.1651361e-07,0.5823532,-0.8037753,-0.042401977,3.6200937e-08,-0.13096984,-7.045543e-08,4.9467904e-08,0.64449006,0.84512186,-3.4993988e-08,0.5093272,1.08387695e-07,-1.3850114e-07,2.1477621e-08,1.7477575e-11,0.69591045,-0.8110752,-1.10723075e-08,6.148992e-08,-1.6502236e-07,-0.039821662,5.7055548e-08,-8.341138e-08,-5.475716e-08,-2.9717727e-08,0.26239535
-3.47696e-08,-5.768041e-08,1.7119378e-07,-6.962058e-08,-4.188546e-08,0.046276543,0.29746714,-0.77224463,-0.5664053,-0.68260074,-5.52302e-08,-4.770171e-08,0.66757756,-9.6875326e-09,-0.71258616,-0.18868801,-0.6232286,7.925648e-09,0.9000806,-3.9783703e-08,-6.629894e-08,-0.24428949,0.4016406,-1.8836639e-07,-1.0182942,-1.5697506e-08,9.583752e-08,-6.828106e-09,8.793164e-08,0.17466043,0.74499035,-1.4650498e-08,4.140506e-08,8.142841e-08,0.58679795,6.3131736e-08,9.740249e-10,-5.1427307e-11,-1.484661e-07,0.7203797,1.1019878e-07,-2.7073279e-08,-1.5907547e-07,-2.8713512e-08,-6.759936e-08,0.9724104,0.85759956,1.0969117,-0.11249473,0.35962188,8.259814e-08,-1.563621e-08,-0.35219085,-5.8946828e-08,0.2664988,-0.9260676,0.2123304,-2.646063e-08,-0.2507963,7.699286e-09,-4.295847e-08,0.7280075,1.0000991,-6.0134596e-08,0.69701576,8.829293e-09,4.937771e-09,2.8751156e-08,-2.4588864e-09,0.66913325,-0.8147504,2.002283e-08,-1.2947494e-08,-1.1443127e-07,0.101369366,-7.954091e-08,8.591273e-08,-2.21912e-09,3.8729002e-08,0.48630902
-1.1463799e-08,-2.2665095e-08,-8.3612015e-09,-7.393794e-08,1.1111627e-09,0.08531386,0.2437114,-0.28533965,-0.4789449,-0.56023425,-6.9304704e-08,3.2800571e-09,0.5067164,-2.358344e-08,-0.49095973,-0.14435096,-0.5562677,2.9300644e-08,0.68957156,-7.911349e-08,7.499294e-08,-0.17817932,0.39122984,-6.79035e-08,-0.7312343,1.8745583e-08,-6.166323e-08,4.128438e-08,9.2405017e-10,-0.07747816,0.5679085,-5.111873e-08,-5.5901307e-08,5.2631343e-08,0.49467334,-9.62673e-09,1.6594139e-07,-1.03114225e-07,1.0545803e-08,0.5657887,-2.310743e-08,6.0290496e-08,-8.300085e-08,-7.348673e-08,-1.3732387e-07,0.77489847,0.66368484,0.856363,-0.15191516,0.3504579,-4.2735055e-09,-2.1050933e-08,-0.3673222,-1.1810441e-07,-0.020479694,-0.7377363,0.18898934,9.888364e-08,-0.33026233,-5.6892233e-09,3.2317566e-08,0.6103976,0.7692746,5.3874608e-08,0.04542237,1.48635735e-08,-1.41297125e-08,-2.2582142e-08,7.3073586e-08,0.5040365,-0.7657441,-2.1583414e-08,-6.5433134e-08,-7.4017535e-08,0.1373044,1.0576869e-07,5.831518e-08,5.6097484e-08,8.703784e-09,0.48146868
-6.4382185e-08,4.9263914e-08,-7.69561e-08,-1.816303e-07,-4.363296e-08,-0.0381565,0.48347697,-0.2451437,-0.41415322,-0.63907677,-6.0378426e-08,1.7679548e-08,0.6229678,-9.413622e-09,-0.5653305,-0.13588975,-0.5726032,-1.0476754e-07,0.89796704,-3.5209002e-08,-8.893087e-08,-0.45514113,0.40969515,7.8299415e-08,-0.73578346,-1.7618582e-07,-1.8933797e-08,-2.2365981e-08,-1.04969935e-08,0.37331206,1.3775488,1.15822786e-07,-1.7122291e-08,-1.7318504e-08,0.4418382,1.11406315e-07,-9.746742e-08,1.176538e-07,-3.584603e-08,0.7212349,9.891895e-08,-1.5513413e-07,-2.4353852e-07,-2.065244e-07,-1.9003856e-08,0.9347203,0.7877325,0.92679507,-0.2565311,0.445275,4.0293454e-08,-3.5038958e-09,-0.56331676,-1.5768542e-08,0.23642077,-0.86924833,0.27813712,2.2961803e-08,-0.42176095,-7.1962795e-08,-9.7191645e-08,0.6405161,0.95925593,2.4758656e-08,-0.080733076,-1.7047705e-07,2.4798048e-08,-4.6297814e-08,1.2616905e-08,0.5313933,-0.6639152,4.7470806e-08,3.8325318e-08,1.1528529e-07,0.21604466,1.04988835e-07,-1.5981346e-08,-4.2194443e-08,1.7224124e-09,0.6212359
-2.1755497e-08,7.502206e-08,-1.1216731e-07,5.4905634e-08,-1.6763178e-08,-0.3439511,0.3425967,0.28776473,-0.22046481,-0.5041632,2.271328e-08,3.6049325e-08,0.34572598,4.4100496e-08,-0.33285603,0.08983651,-0.3051563,-9.765376e-09,0.44516477,-6.981849e-08,3.7956184e-08,-0.45708308,0.17026456,-3.9519833e-08,-0.436936,-8.203147e-09,-5.736139e-08,1.16919026e-07,4.3970545e-08,-0.012189815,1.1606873,-5.9588483e-08,-3.873208e-08,-7.002387e-08,0.23043449,-5.930036e-08,-6.1807285e-08,2.319328e-08,-7.940527e-08,0.30303672,2.8586761e-08,-6.223191e-08,-1.7585482e-08,5.0010936e-08,4.2243034e-08,0.5361917,0.4718428,0.4564968,-0.36314783,0.30121353,-1.8043368e-08,-3.1149433e-08,-0.5003544,1.6106263e-08,-0.1025534,-0.55900013,0.36046007,1.332174e-07,-0.45998678,-4.5396803e-08,4.735062e-09,0.3653632,0.5832099,-7.3150517e-09,-0.27618754,3.341267e-08,2.7254345e-08,6.359946e-08,2.9363923e-08,0.29954702,-0.2730985,2.8784184e-08,3.1164625e-08,2.2764855e-08,0.35459352,-1.012477e-09,-4.1640206e-08,-1.2444751e-07,-4.9022937e-08,0.60637015
-9.739013e-08,9.167809e-08,3.3556127e-09,1.4401385e-07,2.744854e-08,-0.52442056,0.56812644,1.1746726,-0.6202897,-0.61199856,-1.0514501e-07,3.9485176e-08,0.8507439,5.6295413e-08,-0.7241679,0.19247556,-0.66866505,2.0313182e-09,1.0246054,-2.4708896e-08,-6.9976878e-09,-0.7128199,-0.08624283,3.817976e-08,-1.0066956,-3.0562866e-08,-1.4247904e-07,-1.6060042e-09,9.043138e-09,0.2669628,1.4738928,-1.0680563e-07,6.5789507e-10,-5.3900067e-09,0.6647379,1.8659744e-08,-3.5051375e-08,1.2329782e-07,4.10126e-08,0.9289082,5.890869e-08,-1.1737217e-08,5.46261e-07,1.519033e-08,4.2470504e-08,0.9374181,0.9743965,1.0545837,-0.3383485,0.7380249,2.8203928e-08,5.8220557e-09,-0.6117436,2.1609804e-08,0.18121925,-0.9809058,0.5283679,-6.364544e-08,-0.5615662,-4.7397116e-08,1.0091398e-07,0.8689993,1.0754225,3.2206234e-08,-0.9061701,1.1466025e-08,-7.242886e-08,3.2425035e-08,1.3970698e-08,0.60798043,-1.1603119,-7.8597324e-08,2.4774932e-08,3.675087e-08,0.34692702,4.9592913e-08,-1.02558076e-07,1.104215e-08,-1.2226272e-07,0.70103127
-1.2953457e-08,1.6246926e-07,-1.1640152e-08,-7.563932e-08,5.5370148e-08,-0.50208306,0.63918227,0.8536155,-0.50397915,-0.5943759,9.43885e-08,1.2688639e-07,0.8025552,8.843898e-09,-0.7607612,0.21378148,-0.60011786,1.6260806e-08,1.0210531,3.120162e-09,-3.2561246e-08,-0.84343255,-0.15594031,4.8631446e-08,-1.0075028,-1.048786e-07,-3.002657e-08,-2.7504168e-08,2.7319292e-08,0.5429198,1.4540367,-1.336889e-07,-5.216191e-08,4.6036707e-08,0.54385734,1.8467152e-07,9.3580155e-08,-7.494249e-08,1.8260579e-08,0.8910829,-2.2956706e-07,8.580071e-08,-1.2692354e-07,1.0511432e-08,-1.981925e-08,0.910487,0.9678379,1.0059432,-0.48633945,0.68613917,-1.2304203e-07,-5.6511908e-08,-0.5845439,-1.3683771e-08,0.31960526,-0.95733964,0.4932378,6.193456e-08,-0.418658,-6.41799e-08,2.9053815e-08,0.7903077,1.06708,6.169675e-08,-0.3403782,-1.356743e-07,-8.016112e-08,3.0578114e-08,4.148996e-08,0.66043836,-0.94987714,2.674308e-08,-2.1980783e-08,-2.0660454e-07,0.53068215,-9.11315e-08,4.372388e-08,-2.5335407e-08,4.8127973e-08,0.6187117
7.9893105e-08,-3.1593146e-08,7.631592e-08,-2.2055826e-08,6.8115796e-08,-0.35484555,0.46703577,0.49959803,-0.58408904,-0.6485462,9.0578794e-08,1.3778502e-07,0.77061373,6.910675e-08,-0.65120965,0.1282847,-0.6566415,-1.394476e-07,0.9731023,-2.2616819e-08,-1.6352201e-08,-0.5787023,0.047628008,7.857667e-08,-1.0262191,2.132399e-08,2.0179507e-07,-7.029381e-08,-6.5175676e-08,0.17539443,1.0821382,4.060695e-08,-1.0797866e-08,6.061745e-08,0.6195037,6.236977e-08,-9.293412e-08,1.5845245e-07,4.8403837e-08,0.8581426,4.448314e-08,-5.170537e-08,-3.2264573e-08,-6.5750694e-09,-3.7383323e-09,0.9670819,0.954588,1.1249679,-0.48716462,0.65956557,-4.325427e-08,-6.457178e-08,-0.60546046,4.8637013e-08,-0.05820887,-0.9908345,0.4971319,3.9770914e-08,-0.39197537,-8.536113e-08,-7.204707e-08,0.82814676,1.0765224,-4.722447e-08,-0.45451134,1.8181241e-07,-1.902624e-07,1.5073645e-08,-1.9006894e-08,0.6536953,-1.0637875,-9.483408e-09,-3.5532516e-08,7.39588e-08,0.47817358,7.740867e-08,-5.8279504e-08,-6.765877e-10,2.9155913e-09,0.657096
-7.427168e-09,-2.542765e-08,5.965594e-08,-2.5397584e-08,-3.7662005e-08,0.042669967,0.36332637,-0.3454243,-0.52570283,-0.37518394,8.467126e-09,7.054541e-08,0.63335514,-3.3391537e-08,-0.68323416,-0.078473896,-0.5569566,8.6149754e-10,0.8994696,1.5284124e-07,-1.0208751e-08,-0.36653885,0.18575057,4.801934e-08,-0.8812929,4.793586e-08,-4.016527e-08,3.9004934e-08,-4.7304848e-08,0.59327114,0.65036106,-7.2215576e-09,-6.284718e-08,4.6657153e-08,0.55472505,-6.45743e-08,-7.575122e-08,-4.1761098e-08,-1.18850565e-08,0.77242506,1.3398623e-08,1.6255595e-07,-1.7121822e-07,1.0451075e-07,-8.52621e-09,0.8472633,0.7892058,0.9237308,-0.040705316,0.53831774,1.7352354e-08,1.6198628e-08,-0.31887838,-6.959228e-08,0.48280716,-0.7819584,0.218014,1.1626582e-08,-0.097451,8.8178425e-08,-1.4080438e-08,0.6653624,0.8817189,-4.554117e-09,0.74982566,5.489501e-08,6.7517874e-08,-1.3373892e-07,1.0912777e-07,0.6131302,-0.7503935,-2.9809435e-08,7.425136e-08,-8.0434916e-08,0.03825875,2.3774591e-09,-9.840318e-08,1.2427189e-07,-5.451686e-08,0.27010015
-9.1484225e-09,1.6307425e-08,-2.4524738e-08,-1.673169e-08,1.2561252e-08,0.010112309,0.48747215,-0.26274034,-0.4393105,-0.3385269,-1.1681883e-08,-9.870999e-08,0.5049964,1.1181746e-07,-0.48311892,-0.12098248,-0.46617985,-1.0589396e-07,0.74303585,-2.5557583e-09,1.1961819e-07,-0.47446465,0.3649895,3.4610483e-08,-0.7513713,2.3484347e-08,-3.0400846e-09,-1.8503022e-07,1.7633565e-07,0.4275935,1.0660098,-2.9940473e-08,4.0815166e-08,-5.6374972e-08,0.43988493,-1.6714553e-08,-2.2578039e-08,-2.4933813e-08,-1.0022138e-07,0.65274155,-6.81485e-08,2.0594761e-09,8.23423e-08,-8.301222e-08,1.397183e-08,0.7102713,0.6135976,0.8275803,-0.041844927,0.45587105,-1.09585294e-07,-5.1575412e-08,-0.3460552,-2.230632e-07,0.31271327,-0.6606772,0.18888526,6.0657484e-08,-0.24537158,3.700805e-09,-1.35166935e-08,0.5141676,0.7302642,-1.2167408e-08,0.46386936,5.2140123e-08,-1.5592472e-07,-1.3548295e-07,-5.2248588e-08,0.43406487,-0.62984765,-5.0477816e-08,7.514838e-08,-3.766012e-08,0.07856569,-1.9356584e-07,1.2780845e-08,-2.9378905e-08,-1.0296062e-07,0.26766917
4.1995133e-08,-2.1508798e-08,-3.5157697e-08,-5.250183e-08,-1.2454565e-07,0.07845106,0.6903582,-0.43486378,-0.48142824,-0.474552,6.803504e-08,2.546777e-09,0.64277434,-4.6170737e-08,-0.7043314,-0.19714355,-0.6132103,1.4245214e-07,0.9358878,-1.3815878e-08,2.3031745e-08,-0.6862064,0.3471453,-1.298978e-07,-0.90343213,-4.2979625e-08,-4.790288e-08,2.0259583e-07,8.3442416e-08,0.7593625,1.4778663,1.9644692e-07,8.372519e-09,5.6933917e-08,0.511153,1.9999615e-07,1.1348402e-07,-1.01956115e-08,-4.590318e-08,0.82699716,-7.2539756e-08,2.8946001e-09,-9.414154e-08,5.0746554e-09,4.2078522e-08,0.9221274,0.8351876,0.97432,-0.16879384,0.5267244,-5.9580934e-08,4.5372595e-12,-0.49673977,-8.401558e-08,0.5936793,-0.854371,0.14047392,7.686203e-09,-0.3586104,4.323963e-08,5.903501e-08,0.69585216,0.9732514,-3.60658e-08,0.6704665,1.394147e-08,1.0175064e-08,-5.888591e-09,-6.91343e-08,0.605688,-0.7605267,-1.1686249e-07,3.6408807e-08,1.4745151e-08,0.20074393,2.7899915e-08,-1.3284485e-10,1.5118674e-07,-2.4667628e-09,0.4085402
5.2066575e-08,-1.4847215e-08,-4.364627e-08,-3.197107e-08,3.4553658e-08,0.13109343,0.3281258,-0.5031281,-0.42121053,-0.3358051,-3.88967e-08,-5.4056247e-08,0.41300857,-3.1288227e-08,-0.5830188,-0.15352596,-0.4655504,7.8121325e-08,0.5611086,-3.7642323e-08,-4.979604e-08,-0.27928728,0.22667117,1.4876467e-07,-0.5788908,-1.8738753e-09,2.0120885e-08,3.7406434e-08,-7.119814e-09,0.391418,0.71073765,5.4482314e-08,3.4055272e-08,1.3433694e-07,0.4428484,-4.6964566e-09,2.3212837e-07,-2.2216952e-08,-8.138332e-08,0.46694514,3.3985728e-08,-7.752776e-10,9.931299e-08,-5.6317354e-08,-5.4404525e-09,0.61283726,0.5165379,0.5497618,0.01754471,0.23306906,7.954172e-08,1.4260482e-07,-0.21031307,-9.375985e-08,0.43335995,-0.54528236,0.0260467,3.1105039e-09,-0.14521477,1.638873e-08,-7.9494825e-08,0.4525223,0.5982417,1.4014698e-07,0.7524682,4.904647e-08,-8.188519e-08,2.3568475e-08,-1.1457989e-07,0.48805904,-0.3341972,-3.3237367e-08,3.9614747e-08,-3.0823497e-08,-0.045109253,-2.9438244e-08,2.4219915e-10,7.274387e-08,-1.0679654e-08,0.2596258
1.387032e-08,8.8134875e-08,-5.4609536e-08,-3.6110503e-08,-3.1305085e-08,-0.32579643,0.5586999,0.33152968,-0.61232364,-0.4606368,2.1220306e-07,6.347251e-08,0.882107,-1.3007472e-08,-0.9152996,0.14186633,-0.6761785,2.9047018e-07,1.0958233,2.2526025e-08,1.1789402e-07,-0.6194083,-0.20628959,-6.104026e-08,-1.0629914,-7.1986165e-08,1.2451467e-07,1.5241344e-08,1.3346124e-08,1.0049435,1.6938387,8.6017415e-09,8.38709e-08,-3.2031547e-08,0.6399001,4.9217697e-08,-6.0943556e-08,1.1208741e-07,-4.505269e-08,0.99426705,9.144554e-08,-7.1204546e-08,-2.1078107e-07,-1.8252601e-07,3.2662744e-08,0.9652565,1.0115936,0.9700163,-0.099285424,0.74330187,1.4834092e-07,-1.4047128e-08,-0.3684914,-6.9743734e-08,0.8342316,-0.9760704,0.3427877,1.5300792e-07,-0.16174652,-6.165071e-08,-1.2352918e-07,0.8711534,1.0797127,-3.1851094e-08,0.55302054,-1.5213498e-08,-3.8120067e-08,5.624419e-08,-2.9706776e-08,0.7465281,-0.8364926,-8.7956884e-08,-8.665309e-08,-1.2431079e-08,0.102847666,-5.1002928e-08,-8.97948e-08,3.7075967e-08,1.0533221e-07,0.35164994
1.8266674e-07,-1.2110034e-08,5.241747e-08,1.5372092e-07,4.2513218e-08,-0.2533129,0.2659522,0.06918813,-0.4434442,-0.5505755,-7.809804e-08,-4.3913637e-08,0.5282133,8.981546e-08,-0.5429174,0.15014808,-0.5020997,-1.8064863e-08,0.7143854,3.4239335e-08,2.2869614e-08,-0.28317156,0.07341142,-8.593783e-08,-0.6763619,1.5391295e-08,-7.812203e-08,4.0278703e-08,3.9838497e-08,0.05650232,0.8416596,1.5503577e-08,1.7291867e-07,4.176997e-08,0.45015696,4.4738286e-08,5.230453e-08,6.1430406e-08,9.171558e-08,0.6018438,4.434908e-08,5.568467e-08,-1.2650118e-07,-1.2718068e-07,-5.1938105e-08,0.7082399,0.6412428,0.6561288,-0.24086083,0.39887473,1.9482307e-08,8.390888e-10,-0.42097032,5.1009792e-08,0.0716198,-0.67002434,0.29189226,-4.1255383e-08,-0.27732128,5.817519e-09,-5.4791446e-08,0.56592566,0.71465266,-5.1374215e-08,0.12420076,-5.3653995e-08,-3.8233203e-08,4.197129e-08,-5.0582695e-08,0.49245578,-0.4416651,1.3360108e-08,-2.6769921e-08,-5.5225513e-09,0.23549896,-1.4183861e-08,-7.564698e-08,-2.5319622e-09,2.0732157e-08,0.4153683
6.057277e-08,4.0526093e-08,-3.7115825e-08,4.9296755e-08,1.1860887e-07,-0.17838612,0.18850586,-0.38082072,-0.49852076,-0.62258613,-8.9146816e-08,-4.3824258e-08,0.6776074,3.3720497e-08,-0.6253586,0.03558275,-0.54109716,-2.8456046e-08,0.91826767,-1.09353905e-07,-1.0733241e-07,-0.18038411,0.17059776,8.380661e-08,-0.85611016,3.4102744e-08,-1.2951709e-08,-1.9415506e-08,2.8398738e-08,0.18706006,0.80123097,8.816756e-10,-2.616955e-08,7.4930185e-08,0.5292168,2.9094942e-08,2.169377e-08,-4.7013465e-08,-2.2149692e-08,0.7402042,-6.801123e-09,-3.421056e-08,2.828666e-07,-7.692383e-08,-1.4157116e-08,0.9537851,0.85745066,0.9998688,-0.17201504,0.44707808,-1.07679526e-07,6.090914e-08,-0.38702118,-3.11891e-08,0.12631072,-0.9400108,0.32797933,3.2174572e-08,-0.28283173,-1.02189276e-07,6.183469e-08,0.7460511,1.0270475,-9.32685e-08,0.16482124,-4.9086285e-08,1.7296184e-08,3.5237502e-08,5.5494912e-08,0.6081331,-0.8086658,2.8426225e-08,-4.025325e-08,7.545153e-08,0.17133279,-9.3036846e-08,-5.7139133e-08,-7.6820385e-08,-1.5604593e-08,0.49209148
9.5149105e-08,-6.0280616e-09,-9.205301e-09,1.6113214e-07,8.4584826e-08,-0.1629602,0.481227,0.46370602,-0.5222856,-0.5213578,-4.9699906e-08,-5.4033467e-09,0.70566654,3.88816e-08,-0.6670013,0.009519871,-0.615723,-8.7588845e-08,0.9348105,-8.953499e-08,-1.1047033e-08,-0.51784074,0.14971544,2.510372e-08,-1.0738211,-4.0164956e-08,1.5166684e-08,4.6026003e-08,2.2189113e-08,0.484794,1.4101207,-1.0194865e-07,-4.7577057e-08,7.83823e-09,0.570639,-6.2777175e-08,-5.2510718e-08,2.4625226e-08,5.6815463e-08,0.8278039,-5.3730034e-08,5.0584866e-08,1.7778868e-07,4.096875e-09,1.8285569e-07,0.9249245,0.86509883,1.1389145,-0.23255919,0.60541445,-1.5290203e-07,5.678933e-08,-0.47136933,4.6394483e-08,0.37064707,-0.90038836,0.32391652,-3.6714756e-08,-0.37598115,1.0925737e-07,-3.6488938e-08,0.7752699,1.0135975,-1.24208706e-08,-0.38327166,1.03350146e-07,-4.1429878e-08,9.2565344e-08,5.4640978e-08,0.5909383,-1.1053804,1.0905049e-07,1.9001895e-08,3.651428e-08,0.22523381,1.8204585e-07,-5.8841284e-08,-6.4514873e-09,-8.925291e-08,0.51044625
1.0031869e-07,7.5501944e-08,-5.1356963e-10,3.702043e-08,-2.3882453e-08,-0.58592826,0.3491303,1.0254319,-0.6392982,-0.61444545,-4.387937e-08,-2.836882e-08,0.9317666,-6.0258873e-09,-0.73968136,0.33798912,-0.6868522,1.0682621e-07,1.1458927,-2.0951195e-08,-1.3202511e-07,-0.5490419,-0.26930186,2.3854133e-08,-0.93132323,3.6758145e-08,3.863572e-08,-3.0148847e-08,-8.0104066e-08,0.24738343,1.0796337,3.260105e-09,-5.209678e-09,7.773122e-08,0.6960894,3.4164536e-08,-6.38084e-08,-1.8493303e-07,1.9797146e-07,1.0402312,1.2707941e-08,-2.288144e-08,-4.2775162e-07,3.620083e-08,-1.6318612e-08,1.0255874,1.0344642,1.0643054,-0.4880727,0.8546884,-5.0449804e-09,7.225137e-08,-0.60838896,-2.314189e-08,0.046642292,-1.0392327,0.5732395,2.7935755e-08,-0.4821834,1.4437416e-07,7.705995e-08,0.94381136,1.1601431,-4.4345068e-08,-0.7339343,1.3678326e-07,-1.4890611e-08,4.2494523e-08,3.7781007e-08,0.6413684,-1.1409166,-3.8802376e-08,-8.49384e-08,8.579388e-09,0.49198323,-1.3309819e-08,-6.9259123e-09,1.5924911e-08,-6.168449e-08,0.644375
