-1.4427022e-12,0.41540018,0.19943461,1.6731504e-07,1.9223045e-09,-1.1661298e-08,-0.011403123,0.08742815,0.11801124,0.19264702,0.20043637,-4.465644e-07,-0.17583247,1.0753533e-07,-2.2470734e-11,-2.5435742e-10,0.74793035,-1.8200584e-05,0.60854775,-1.0998968e-12,1.2031123e-06,-1.2395078e-07,5.8337484e-08,-5.084947e-13,-0.7422309,0.25378478,1.857155e-12,-3.5261966e-10,-1.6986358e-13,-0.5460963,0.07083091,2.2865932e-13,1.6122641e-09,-5.538092e-13,-0.076683156,1.6324552,-7.7909033e-13,5.7899646e-10,6.5417066e-10,0.16706584,1.2193163e-12,0.08329459,-0.49690163,-2.1803157e-07,2.0609532e-10,-2.3049083e-09,0.2164329,-1.1568649,-0.17088825,-0.3366585,-0.1528593,3.0493962e-07,1.7201309,9.561998e-07,-2.6164442e-11,-1.10131626e-10,-1.0068486,-1.2848906e-05,-1.1055852,3.0335643e-12,2.5316865e-07,-6.096492e-08,-5.7142877e-08,-6.1794184e-13,-0.015737582,-0.49403036,-4.4878492e-13,-8.970792e-09,-5.6628346e-13,-0.040527504,0.03179857,-8.5187006e-13,3.6756376e-11,-7.58696e-13,0.9927697,0.67224294,3.2712617e-12,5.198883e-10,7.5932116e-10,0.5133661
-3.8962404e-13,-0.08051186,0.19542056,2.5606962e-08,-6.9930856e-10,6.896822e-10,-0.30221596,0.78739005,-0.025233235,0.040485807,-0.1250327,1.997313e-07,0.8206534,2.9957846e-06,-1.3193932e-09,-2.8613487e-10,0.22214274,-4.8618685e-06,0.63927543,-1.3106416e-12,7.312472e-07,-1.10689e-08,3.9798165e-09,7.318139e-13,-0.43619972,0.12454751,5.674971e-13,-1.5651644e-09,5.813326e-13,-0.0793311,-0.69592756,-3.0919093e-13,-2.5766096e-09,-1.0647705e-12,0.14771508,0.45531106,-9.725974e-13,7.376779e-10,5.6321203e-10,0.13959114,-6.313547e-13,-0.30576813,-0.26400143,-2.0194194e-07,-1.1340916e-10,1.1089492e-08,0.019988399,-0.29429182,-0.21901192,-0.020072008,0.12528105,5.6189606e-07,1.7480981,3.5637424e-07,8.7606067e-10,2.8034058e-10,0.48359692,6.6943708e-06,-1.0220096,2.722906e-13,-4.4900634e-07,-1.588492e-08,-6.37844e-08,-7.1066384e-13,-0.54374963,0.0031985654,1.0471806e-12,5.6290532e-09,2.3902283e-13,0.19262297,0.4338806,-4.5116845e-13,-2.1822957e-09,-2.8656493e-13,-0.36340237,0.064878605,-2.7361201e-12,8.8944774e-10,-1.09583946e-10,0.5307656
-9.790889e-13,-0.03192006,0.1706802,-2.0348021e-07,-1.147591e-09,1.1634784e-08,0.06872777,0.060759258,-0.065976255,0.037714917,0.07658766,2.746442e-07,-0.038028035,-2.9809644e-06,-1.0343545e-09,3.1722508e-10,-0.1630629,1.4035824e-05,0.044821303,1.5752987e-12,8.11154e-07,-6.408064e-08,-6.562855e-09,5.0810544e-13,-0.21334192,0.060986217,3.130238e-14,4.357879e-09,-2.085771e-13,-0.22759418,-0.43998143,-5.597768e-13,1.6159872e-09,-4.3583905e-13,-0.19355364,0.22577168,-2.6925588e-12,-1.40865e-09,1.6904583e-10,0.26532382,1.1907582e-12,0.24010351,-0.08387843,-3.5505956e-08,2.4086422e-10,2.2226676e-10,0.16522436,-0.36660427,-0.008311719,-0.0012331088,-0.03480144,-8.784406e-08,1.5480317,1.3400705e-07,-2.0916466e-09,-9.029143e-11,-0.33251923,-2.6006735e-06,-1.3418816,2.916171e-12,1.0976728e-06,2.5051515e-08,1.507931e-08,8.758749e-14,-0.8764215,0.050726697,2.561807e-13,1.1135346e-08,1.04945e-12,-0.28115496,-0.046376653,-1.492803e-13,-9.506915e-09,8.056107e-13,-0.10634654,-0.1211973,4.183492e-12,1.5845354e-09,1.6038704e-10,0.1850678
-8.946812e-13,-0.5449567,0.65209347,-1.3167937e-07,-1.8370946e-09,8.946234e-09,-0.82491803,-0.73553604,0.16109608,0.040089194,-0.031052614,5.210701e-07,0.22587928,-3.318824e-06,-3.0119135e-10,4.4605575e-10,-0.1603418,-7.857712e-06,0.07483007,1.3926151e-12,1.646843e-06,9.072835e-08,3.4990006e-08,1.291505e-13,0.6664809,0.12724924,7.74948e-13,-3.853946e-09,-9.695825e-14,-0.4793456,0.05728209,3.962802e-13,4.541958e-09,-1.0270517e-13,0.7942208,0.50133926,-1.826215e-13,-1.5158256e-09,-7.082051e-10,0.9614651,2.0296902e-13,0.4489565,-0.35937017,9.330535e-08,1.4082704e-10,1.4018524e-09,0.03360919,-0.4376029,-0.017930837,-0.024471115,0.19833227,9.815734e-07,1.8658837,1.2721722e-06,7.4463385e-10,1.7260765e-10,0.3139153,-1.7375083e-07,-0.8920859,1.5956228e-12,-1.673007e-06,7.035935e-08,1.07933054e-07,5.1886696e-13,-0.94503224,0.06458289,1.3951082e-12,5.9400205e-09,9.195286e-13,-0.1709341,-0.39359513,-1.5669432e-14,-2.1856303e-09,1.6153174e-13,-0.43279818,-0.27911648,4.357677e-12,-7.50878e-11,-1.5237178e-09,-0.14167722
-1.1599706e-12,0.8634967,0.13156007,-3.057946e-08,-1.954572e-10,-1.626176e-09,0.44249815,0.14365342,-0.07642947,0.0558413,0.05980682,1.5101407e-06,0.37777442,9.550602e-07,1.7645306e-10,-3.5236164e-10,0.17753182,-6.7637666e-06,0.45143473,-1.8981748e-12,1.1793683e-06,3.6738285e-08,-5.184446e-08,-5.5550226e-13,1.0140988,-0.049138375,3.2711518e-13,7.2714146e-09,6.5180744e-13,-0.283866,0.034227155,6.776768e-14,3.2915786e-09,1.0290698e-12,0.33603108,-0.4598096,-4.45813e-12,-1.5403977e-09,-1.0506953e-09,-0.13479553,7.695749e-13,-0.057600766,0.2868024,6.459524e-08,-4.3933173e-11,2.919721e-09,0.3075305,0.0926756,0.13706239,-0.15040313,0.03107203,3.1797124e-06,1.6362501,-1.0972745e-06,-4.8706505e-10,3.546462e-10,0.08199576,-1.395386e-05,-0.5701951,3.0273618e-12,3.240321e-07,1.244612e-07,-3.9325062e-08,-6.8117907e-13,-0.22035334,0.4254091,1.7274702e-14,-4.020205e-09,7.6841864e-13,-0.10591307,-0.05369703,-2.3951208e-13,-5.6903576e-10,5.7652044e-13,0.34831396,-0.47881874,2.4278318e-12,-1.0738013e-09,2.0371468e-10,0.24535891
-1.338079e-12,0.55680144,0.1977474,-1.3073847e-07,8.901113e-11,2.2973323e-09,0.13130943,0.39403066,-0.006615463,0.022833018,0.060759135,2.3825955e-06,0.21592951,2.9791065e-07,1.9392736e-09,4.3903263e-11,0.0567359,-2.2700633e-06,0.46679452,-1.1269005e-12,-4.3740533e-07,-1.7872226e-08,-3.3375745e-08,-1.3180012e-13,1.2255973,0.0385342,-8.234745e-13,-7.98632e-09,-5.383337e-13,0.023572162,0.098101154,-7.723426e-13,5.8659744e-09,2.4219125e-14,-0.10653355,-0.60077614,-1.5972186e-12,-9.592319e-10,-3.3639141e-10,0.23659573,1.6435274e-13,0.090426385,0.12429045,1.2375561e-07,-3.0246067e-10,1.4537776e-08,0.17460392,0.6452555,0.056655377,-0.2778626,-0.14616963,2.7016968e-06,1.4751492,-1.0133496e-06,2.71266e-10,-3.093832e-10,0.1625049,2.9380071e-06,-0.8749194,1.2166804e-12,1.5644614e-06,3.1109273e-08,2.3979348e-08,-6.273554e-14,-0.45976624,0.13851866,-3.3381327e-13,1.2447654e-08,-5.0857636e-13,0.17403625,0.5607615,-4.916358e-13,1.7127155e-10,-6.252089e-13,-0.06769883,-0.029094964,1.004164e-12,9.335794e-10,-3.133213e-10,-0.11415323
-4.1183707e-13,0.71089184,-0.19406879,2.6543393e-07,2.4998453e-10,-5.271986e-09,0.037031334,-0.6298597,-0.104686424,0.023072377,-0.018990153,-8.3929825e-07,0.10044119,-5.7076494e-07,1.2786372e-09,1.9172364e-10,-0.66796166,7.495394e-06,0.49185106,-2.6205917e-12,2.3208969e-07,-1.2159535e-07,8.1431764e-08,-1.12178116e-13,1.2029297,-0.34358618,-6.812741e-13,1.5757844e-09,9.925245e-14,0.13319929,0.2747337,-2.8514406e-13,1.8320867e-10,-5.814478e-13,-0.29740858,0.09897413,2.0422828e-12,-4.1207218e-10,-1.442035e-10,0.274255,-5.212612e-13,0.2553457,0.45085746,7.512935e-08,-5.0558724e-11,-3.968123e-09,0.31381306,0.51958627,0.5144396,-0.08613743,0.16728115,-1.2056832e-06,1.6103897,-4.1689436e-08,9.705234e-10,1.5545985e-10,-0.07352415,-7.2134303e-06,-0.99131274,-2.2760951e-12,-6.128107e-08,-1.4078437e-07,-1.6442566e-08,-4.5115978e-13,0.19470367,-0.063621424,-6.898024e-13,7.832281e-09,-1.288876e-13,0.15736191,0.6363406,3.1108802e-13,3.2235642e-10,-1.4395774e-12,-0.07923728,0.021663819,1.9444286e-12,7.4900924e-10,-1.8623898e-11,0.20452528
-2.258909e-13,0.05699383,0.2953249,-6.3885935e-08,-1.2807244e-10,5.483696e-09,0.32215035,-1.1705028,-0.22010332,0.23161781,-0.16948648,3.4286754e-07,0.09084381,1.0654542e-06,-1.9729238e-10,1.4537495e-10,0.23714124,9.641722e-06,-0.08262121,1.9366529e-12,3.9978804e-06,-4.7335423e-08,-4.2599915e-08,-3.0478734e-13,1.0427984,-0.027737323,-2.2281038e-13,4.240559e-10,-7.7357836e-13,-0.039542317,-0.62083524,4.1083995e-13,-1.32102e-10,-5.417529e-13,0.135352,-0.23393098,3.7679794e-12,-1.4875436e-09,3.6246367e-10,0.3829093,-9.232479e-13,-0.6848778,-0.6465514,4.1188333e-08,5.135472e-10,9.424345e-09,-0.16359824,0.84955996,0.024010636,0.08366886,-0.041092344,-9.158698e-07,1.6681932,3.0201227e-07,3.201881e-10,1.9826059e-10,0.1346758,5.476726e-06,-1.0450563,3.7012164e-12,4.3699544e-07,4.4330566e-08,1.4016689e-08,-1.6425988e-13,-0.07312828,0.16455615,9.052073e-14,1.1212703e-08,-3.4352612e-13,0.4870293,0.19960201,2.410672e-13,-1.0400107e-08,-1.0716522e-12,-0.4503503,-0.5028344,3.7165626e-12,-2.7545083e-10,-5.618562e-11,-0.28756812
1.1124968e-12,0.36812833,0.26056728,6.652357e-09,-1.385871e-09,-7.941782e-09,-0.47284082,-1.1245756,0.037217136,0.14211202,-0.07743091,2.5576618e-08,0.11192427,9.044208e-07,2.1892552e-10,1.6228263e-10,0.39652225,-5.113823e-06,0.42132118,1.2876958e-12,9.386332e-07,4.5414907e-08,6.2753095e-08,-3.2954287e-13,1.1517076,-0.22401072,-1.8984417e-12,5.3943574e-09,1.4082543e-13,-0.20397638,-0.018804094,4.3176254e-13,2.1335669e-09,-5.0208015e-13,0.1611494,-0.17100945,3.6754914e-13,1.3941908e-09,3.631692e-11,-0.38412157,-1.7558605e-13,0.02077877,-0.56031376,6.3528695e-08,1.9712937e-10,-5.083664e-09,0.33733135,0.6670935,0.00077361055,-0.10421795,0.2225531,2.7375106e-06,1.5185939,-1.8264459e-06,-1.864705e-09,5.754006e-11,0.63007915,1.0758502e-05,-0.7819363,-8.20958e-13,4.106306e-07,-1.0986767e-12,-6.708519e-08,-2.5133088e-13,-0.37451008,0.02953322,-1.8416145e-12,-4.6170183e-09,5.215838e-13,-0.31512547,0.09149579,1.797385e-14,-3.3763332e-09,-1.9984432e-13,0.1529671,-0.33383724,2.7851785e-13,-1.5716753e-09,-2.4419483e-10,0.13487063
1.0855827e-12,-0.008809071,0.16797154,1.00756935e-07,-6.849392e-11,-4.312747e-09,0.20291081,-0.5568289,-0.15056698,0.047174163,0.039000746,-3.800708e-07,0.3977257,-8.336098e-07,-7.4847195e-10,4.0106946e-10,-0.5095928,-9.114415e-06,0.7505747,-1.7059567e-12,-2.6004338e-06,-9.8908856e-08,4.7899178e-08,-2.0529883e-13,1.2046381,0.14565122,7.685158e-13,9.343677e-10,1.2603949e-13,0.14676754,-0.1757356,-7.1291985e-15,9.541684e-11,6.4431696e-13,-0.24403167,-0.4129616,-5.850086e-13,1.3997012e-10,-4.2395998e-10,0.37883586,-3.0512214e-13,-0.16113581,-0.028756946,8.598237e-09,-4.1334638e-10,5.5020193e-09,-0.0067985575,1.3457007,0.045612067,-0.22002317,-0.18408406,1.8069285e-06,1.5574951,1.127113e-06,7.7263973e-10,-3.1986158e-10,0.38177258,-3.6852298e-06,-0.6540166,-4.8214324e-13,-1.2214364e-06,-9.220931e-08,2.6666305e-09,5.912536e-13,-0.5491722,-0.07292138,-1.0302847e-12,1.11650245e-08,5.7658576e-13,-0.24845499,-0.42285833,3.0813302e-13,1.6340995e-09,4.4548601e-13,0.1015634,-0.22809221,-2.9680702e-12,1.7899867e-09,-2.5672567e-10,-0.23466162
1.0666633e-12,-0.50521153,0.30818927,4.9933636e-08,1.4130636e-10,5.6948775e-09,-0.60591096,-1.4613549,0.064097926,-0.14892921,-0.114092,-9.1166277e-07,-0.41933092,-5.5186433e-07,-1.3791845e-10,2.5892644e-10,-0.39026937,-7.1706895e-06,0.7850919,-3.119762e-13,-1.7831362e-06,5.7207153e-08,1.197431e-08,-2.0270325e-13,1.5111578,-0.083117075,9.612805e-13,5.450174e-09,3.0305053e-13,-0.3734368,0.59146184,-1.3743328e-13,-2.7750993e-09,1.0058363e-12,0.27626878,-0.7506953,-3.65254e-12,7.980369e-10,-5.147835e-10,0.026374169,1.8833036e-13,-0.083702244,0.70502377,-8.967141e-08,4.731098e-10,-4.4588883e-10,0.24736913,1.015957,-0.07583459,0.015145738,-0.09367653,-2.6043926e-06,1.5176907,1.5663278e-06,1.689067e-10,1.1910958e-12,0.58341175,-8.985755e-06,-0.507616,3.0897878e-12,-2.014716e-06,3.304986e-08,-2.0898105e-08,2.1917613e-13,-0.39553943,-0.13542578,-4.5061597e-14,1.132705e-09,2.454458e-13,-0.0394744,0.03938993,4.0313336e-13,1.9764026e-09,1.9996564e-13,0.22999515,0.7285743,-2.6899492e-12,1.8150813e-09,6.315073e-11,0.12213282
1.1007033e-12,-0.21919599,0.4669521,1.02628775e-07,-1.3621592e-11,1.2694993e-09,-0.11461106,-0.55120283,0.09100369,-0.158876,0.08998594,1.7437189e-06,0.46836686,-1.0649982e-06,-4.0828332e-10,-6.1926186e-11,0.009936295,9.317388e-06,0.8801202,6.348021e-13,4.620693e-09,-5.5733032e-08,-4.815479e-08,4.8768227e-14,1.4322883,0.05486256,-2.1072646e-13,-1.1880921e-09,4.785225e-13,0.09704556,-0.11310477,-3.2294062e-13,-1.230121e-09,2.0550911e-13,-0.008372789,-0.47349975,-2.0489999e-12,1.6962983e-09,4.2712095e-10,-0.39928636,9.680594e-13,0.33531365,0.18940595,4.7508983e-08,-5.2217466e-11,-6.772649e-09,-0.28545198,0.26047343,-0.010039441,0.09856914,-0.14979775,1.7178063e-06,1.3627723,-5.5407884e-07,-2.7997762e-09,-2.0903365e-10,0.37402862,-1.7039692e-05,-1.0221815,1.8299349e-12,-1.2342495e-06,6.753503e-08,-6.8771238e-09,1.6700972e-13,-0.33145,0.13525082,2.4642135e-13,-3.332261e-09,-9.566317e-14,0.23825946,0.06529041,4.2627837e-13,-8.757367e-10,-7.828883e-13,0.6976059,0.46049786,-2.6218887e-13,1.9055285e-10,-4.1860573e-10,-0.10338963
8.279669e-13,0.061185315,-0.7927305,9.9790064e-08,-2.7957064e-11,2.2383855e-09,-0.05904194,-0.010391595,0.18594673,0.04963158,0.015679168,5.752774e-07,-0.066015296,-7.622989e-07,2.6413005e-10,3.860623e-10,0.09963967,-1.6338181e-05,0.9716691,-2.495872e-12,-1.5062682e-07,-1.3404217e-07,7.464385e-08,-2.514564e-13,1.370445,0.3058131,-1.4974376e-13,2.4016318e-09,3.6651365e-13,-0.31677,0.38397613,2.3411674e-13,-4.733159e-09,-1.0738652e-12,-0.22482744,0.1885408,2.75429e-12,-4.716774e-10,2.5757704e-10,-0.31104684,6.781495e-13,-0.1755412,-0.7979182,1.8587438e-07,7.4186707e-10,-4.836436e-09,-0.66232467,0.06879891,-0.043150302,-0.07855801,0.16936381,1.3877362e-06,1.4582319,9.751457e-07,3.206468e-10,-1.4124726e-10,-0.22222997,2.230738e-06,-0.96341795,-2.0848453e-12,1.423773e-06,3.154721e-11,-3.3469238e-08,3.775554e-13,0.50319076,-0.47614306,4.5473922e-13,9.696617e-09,1.4373659e-13,0.3573115,0.5038472,-2.675508e-13,-4.95355e-09,-2.5209584e-13,0.41020405,0.6298955,-2.0749212e-12,-6.223988e-10,8.612864e-12,0.3552916
-3.2209516e-13,0.33563414,0.044934507,-6.4598794e-08,1.4553951e-09,-8.094637e-09,-0.09814935,0.53280574,0.008912111,0.009794816,-0.104540125,1.0675949e-07,0.14596374,4.107144e-07,5.006653e-10,1.3237084e-10,0.31204414,1.7990582e-05,0.5828762,4.2506954e-13,2.9681414e-07,-7.6298946e-08,1.4966476e-07,3.0481675e-13,1.08001,-0.18454896,4.574615e-13,8.7617746e-11,3.640322e-13,0.4657886,-0.030841012,3.3857883e-13,1.538009e-09,-2.1905443e-13,0.1498639,-0.36785844,-1.0511763e-12,1.0580081e-09,-3.4907632e-12,-0.47341758,2.5486666e-13,0.23932387,0.0593209,5.7991077e-08,-9.295706e-12,4.5748045e-09,0.23968093,-0.14672273,0.15059814,-0.1710456,-0.10455942,1.0958832e-06,1.4255047,-3.832455e-08,-1.6810883e-09,7.8127255e-11,0.2917818,-5.1786983e-06,-0.86195934,-1.7284701e-12,1.3357493e-10,8.628391e-08,-7.3419535e-08,-5.695699e-13,0.56884265,0.324203,8.0695536e-13,6.5201906e-09,-1.1771836e-13,0.2803529,0.44878918,-4.5465148e-13,-4.595154e-09,-1.108296e-13,0.34765697,0.4612826,1.3396641e-12,-1.4188724e-09,-5.4465252e-11,0.36850247
-4.990396e-13,-0.12242996,-0.177159,2.8625822e-08,4.0519246e-10,-3.212327e-09,-0.08757904,0.40575564,0.011470731,0.11576495,-0.010311297,7.5848106e-07,0.36768156,-1.0451336e-06,-7.968236e-10,6.6579076e-11,-0.06318019,-1.1685169e-06,-0.13880289,1.024228e-12,5.0024255e-08,-1.1629636e-08,7.385364e-08,2.741279e-13,0.5381593,-0.0455356,-6.172745e-13,-1.1999498e-09,5.066943e-13,0.14842233,-0.5623332,8.571685e-14,1.9649501e-10,3.2023516e-13,0.39524528,0.15812494,-1.1810761e-12,-4.9351057e-10,-7.8252005e-10,0.16965988,-6.553411e-13,0.1665953,0.2342978,6.1368056e-08,-1.9316364e-10,1.0997412e-09,0.11170083,-0.2828038,0.044810083,-0.19976854,-0.010426957,7.748527e-07,1.529052,-7.7399517e-07,5.0458215e-10,3.1197805e-10,-0.024160579,1.289594e-05,-0.711738,-2.9185942e-12,1.4410048e-06,-4.1001744e-09,-6.351711e-08,-5.0895383e-13,-0.15646502,-0.01785059,1.3314881e-13,5.5981872e-09,4.7975512e-14,-0.026742633,0.2128855,-4.653557e-13,-1.2888351e-10,1.9414472e-13,-0.27284855,0.17997769,8.8595537e-13,2.3873642e-10,-8.982311e-10,0.12368422
-6.2604414e-13,0.1313543,-0.24385579,7.7059184e-08,-2.5641053e-10,5.8768763e-09,0.035021402,0.5797084,0.31260327,0.12595217,-0.082665384,3.2594457e-07,-0.051713064,-2.0793105e-07,2.3563351e-09,4.6825044e-11,-0.56463766,-6.3004145e-06,0.024273043,2.5080334e-13,-5.9956704e-07,1.5670365e-08,1.2989565e-07,-3.3020258e-13,0.7574956,-0.08936957,-4.5762114e-13,6.995255e-10,3.8371186e-13,-0.019293565,-0.4732502,4.6838672e-14,5.8986322e-09,-3.4287728e-13,0.17139074,0.2851296,3.2144665e-12,2.357217e-10,-7.915814e-12,-0.46876937,6.690352e-13,0.19784093,-0.026301576,1.1666055e-08,-2.7991354e-10,-6.9753305e-09,-0.44553217,-0.0007262917,0.26254702,-0.03851374,0.20546448,4.000471e-06,1.8531758,-9.3616165e-07,1.7521913e-09,1.355801e-10,-0.009309974,1.1067846e-07,-0.071072705,1.4251393e-12,1.7930314e-06,7.3185724e-09,-5.9924695e-08,-3.359262e-13,-0.22095618,-0.17812365,-4.3892144e-13,2.3668396e-09,4.3699902e-13,0.03068557,0.39078617,-8.035465e-14,1.9781745e-09,-2.0654648e-13,0.16274168,0.33641022,-1.0417391e-12,-1.4357326e-10,-2.3394997e-10,0.5021991
1.6520474e-12,-0.0819325,0.36811078,-1.2375469e-07,4.5588286e-10,7.0925665e-09,0.419858,1.6758064,-0.03860563,-0.090320654,0.13376094,5.543628e-07,0.37985578,-2.2457907e-06,-5.24524e-10,1.6547329e-10,-0.015139472,1.9018248e-06,0.20458351,-1.1821892e-12,-1.4137474e-07,1.8569208e-08,-1.5757562e-08,-5.496466e-14,0.3997501,-0.06425445,3.4632578e-13,-1.8097386e-09,4.490901e-13,0.04158532,-0.1953763,-1.4197253e-13,1.7440036e-09,-4.9796706e-13,-0.60591054,0.15205842,1.07622055e-13,-2.8992773e-09,3.385921e-10,-0.18754524,-1.3041307e-12,-0.9022959,-0.026380362,7.508544e-09,2.304964e-10,6.65448e-10,0.096348144,-0.13759245,0.24704239,0.16055356,0.01874429,-4.2574004e-07,1.7164034,2.129709e-07,-6.2069294e-10,-3.0458283e-10,-0.7936535,-4.780759e-06,-0.8375632,2.8690847e-12,-2.9821774e-07,-2.7437698e-08,1.5879213e-08,3.4117734e-13,-0.43042746,-0.007303987,7.303565e-14,8.500463e-09,-4.140695e-14,-0.6117676,-0.11639696,6.7942294e-13,-5.985112e-10,-7.607647e-13,-0.19272721,0.54806113,-1.1129929e-12,1.2460422e-10,-2.4834573e-10,-0.19180799
5.5149375e-13,-0.027041065,-0.11603227,-5.2833038e-08,9.019771e-12,8.5253515e-10,0.04963784,1.3114072,-0.0783619,0.027651431,-0.19874269,-3.3857788e-08,0.31784907,5.0333153e-07,3.3710273e-10,-2.9182292e-11,-0.11550887,3.0093702e-06,0.23007461,3.1977925e-13,-2.982094e-08,-8.6294065e-09,-5.0318167e-08,6.054678e-13,0.6696464,0.07997972,-5.920039e-13,1.2792759e-09,-9.702316e-13,-0.20686549,0.2243468,-3.30117e-13,-5.5739893e-09,2.0041994e-13,0.09786995,-0.06072282,2.4097165e-12,8.0118745e-11,-6.356903e-10,-0.10798741,1.4428352e-12,-0.056717046,-0.059070878,-6.257072e-08,1.9471449e-11,-1.3513362e-09,0.26411408,-0.51373684,-0.43029428,-0.043830037,-0.12676273,-1.9734948e-06,1.6818728,1.6983957e-06,1.9627013e-09,-3.4685396e-10,0.02588942,1.985783e-06,-1.0167636,5.959729e-13,2.5374612e-07,-2.4039196e-08,1.2509442e-09,1.5459463e-13,-0.4125921,-0.14918016,3.502764e-13,-3.998016e-09,8.832195e-13,0.13725202,-0.3518097,-1.6054175e-13,-2.5207783e-09,-8.515611e-14,0.23624064,0.18211402,2.865173e-12,-2.294058e-09,7.1340367e-10,-0.17961839
-9.372095e-13,-0.04962333,-0.116548836,9.960332e-08,2.7283556e-10,1.4646597e-09,-0.38589725,0.7282633,-0.010247144,-0.047228668,0.052447952,3.81465e-07,0.075152,-1.4665061e-06,-4.579134e-10,1.8838974e-11,0.057147708,-3.494747e-06,0.36204913,8.4513657e-13,-1.2998378e-06,5.4803674e-08,-1.384407e-08,2.1232286e-13,1.0466613,-0.035795763,2.8703277e-14,-4.265383e-09,3.9939018e-13,-0.03619209,0.083662316,-6.0317284e-14,-4.4936665e-11,1.2115414e-12,-0.39516968,0.65965587,-1.3005674e-12,3.7756423e-10,-7.26999e-12,0.25624558,9.974421e-13,-0.6154361,-0.08832561,2.3966957e-09,4.559179e-10,1.8077927e-09,-0.11057903,-0.030084252,0.067794904,0.12474668,0.14781685,1.3675097e-08,1.7042365,-7.856524e-07,1.9837874e-09,7.109885e-11,-0.2961474,-2.2387462e-06,-1.4911187,8.2018767e-13,3.0609892e-06,-1.188603e-07,-1.0919452e-07,-3.5789806e-13,0.16152728,0.06480959,-7.5232854e-13,-7.685914e-09,-5.2717525e-13,0.16106461,0.07326408,1.8952e-13,2.3203777e-09,-1.2773347e-12,0.59868056,-0.22137849,-2.7155396e-12,1.5658875e-09,-1.0636752e-11,-0.30411786
2.9434284e-13,-0.20198688,-0.0046847276,1.0554961e-07,3.495959e-10,-6.107724e-09,-0.42329907,0.8175626,0.01624513,-0.077292256,-0.012151679,-1.5760015e-06,0.25936982,-9.471736e-07,-6.74787e-10,-2.9500735e-11,-0.2356557,1.4536603e-05,0.31923085,-3.9670795e-13,-4.1993056e-07,3.6413496e-08,-6.3254305e-08,5.0242265e-13,0.5022769,0.18034892,-4.0209443e-13,-5.1732474e-10,-8.307829e-14,-0.13983113,-0.009807706,2.410317e-14,-3.2156853e-09,-6.898139e-14,-0.6816634,0.98035383,-4.032942e-12,8.5444063e-10,2.956295e-12,-0.031809602,-4.635557e-13,-0.0976558,0.06251838,-1.1370242e-07,1.14445974e-10,-1.4737646e-09,-0.14254874,-0.009737976,-0.19376238,-0.0017711148,-0.095497586,-9.825536e-07,1.164568,8.101684e-07,7.6967893e-10,-1.6551037e-10,-0.044903252,3.7820291e-06,-1.5282685,-4.0675362e-14,5.1316755e-07,-1.196045e-08,5.848219e-08,4.4618942e-13,-0.07655422,-0.095245086,-4.2022484e-13,-9.646286e-10,-5.4020845e-13,0.27189407,-0.17832781,1.6423923e-13,-3.2548684e-09,4.5277736e-13,0.30884814,0.20070353,-3.2705392e-14,1.0657943e-09,-1.8276612e-10,0.42142975
-2.3718917e-13,-0.02109968,0.14600813,6.0242215e-08,-1.699647e-10,2.8386833e-09,-0.01194166,1.0337692,0.15092684,-0.17642966,-0.0032687315,-1.407234e-06,0.69238555,1.387597e-06,-1.3177323e-09,2.4660235e-10,0.10008317,9.820318e-06,0.08234747,1.1657143e-12,5.653462e-07,6.6455975e-08,-1.2048912e-07,-3.538577e-13,0.13325812,-0.1782199,-2.0845652e-13,8.4390717e-10,-1.0937521e-13,-0.2935011,-0.3505161,-1.6495041e-13,1.6815621e-09,5.1641322e-14,-0.14712308,-0.029380063,-1.0871104e-12,1.2563219e-09,5.9106625e-10,-0.82949317,-7.254852e-14,0.6105707,-0.6487518,-4.238845e-08,-3.1557137e-10,6.5588024e-10,-0.11913979,0.17396997,-0.21326128,-0.12253692,0.08834855,-1.620052e-06,1.3583274,1.1972197e-07,1.9461573e-10,4.1266747e-11,0.4768674,-6.5712375e-06,-0.86780465,-1.6017355e-12,7.741258e-08,1.2464638e-07,1.4703285e-08,-4.4122838e-13,-0.00062137865,0.084034435,4.7623055e-13,1.0256269e-08,-4.828134e-14,-0.7434346,0.19964965,3.1146927e-13,-5.138017e-09,-2.8073784e-13,0.36142987,0.19403763,1.3221323e-12,-2.5884878e-11,1.5287349e-10,-0.050796334
4.2002784e-13,0.87821686,-0.30105424,-2.3711827e-08,9.068697e-10,9.1024965e-12,-0.23102655,0.5356754,0.35245538,0.28058186,-0.00060674665,9.21825e-07,0.4842565,-1.0453649e-06,3.0566616e-09,-5.654448e-10,-0.48790467,4.1880007e-06,0.39600825,-1.2415208e-12,8.4552164e-07,-1.714385e-08,3.1261223e-08,7.923328e-14,0.08220093,-0.005214203,-4.1664012e-14,2.8858e-09,-9.916778e-13,0.32646134,-0.10086387,-2.0964838e-14,-5.3189617e-09,-5.7301505e-13,-0.24049109,-0.081172705,1.3094911e-12,-7.8503676e-10,2.3078625e-10,0.67506135,1.2042364e-12,-0.02628049,0.3861985,1.0325624e-07,-2.3185444e-10,-1.14917e-09,-0.49583444,0.71503836,-0.21824975,-0.015760759,0.046518084,-1.0118861e-06,1.7657156,6.02407e-07,1.0976013e-09,-2.920959e-10,-0.20577206,5.7944926e-06,-1.3939357,4.2472558e-12,-1.5001194e-07,-1.5391228e-07,-4.8933448e-08,2.3393226e-13,0.45156273,-0.062328476,-1.4207765e-13,8.386212e-09,2.2555303e-13,-0.20689814,0.107336834,6.746151e-13,-1.3298779e-08,8.2633813e-13,-0.16650265,-0.44257537,-8.179486e-13,2.1694013e-09,-3.6004677e-10,0.23373103
2.7310836e-14,0.27681878,0.29035756,-1.3635413e-07,3.0994055e-11,4.116771e-09,-0.23697814,0.22866665,-0.31281888,-0.15993246,-0.36324874,-3.588094e-07,-0.5210623,-5.538466e-07,9.279335e-10,5.7435577e-11,-0.34584206,2.435389e-05,-0.12697302,1.3466997e-12,-1.212147e-06,1.776301e-08,-2.1054812e-07,-3.0416706e-13,0.0025780979,0.6126975,1.4296354e-12,9.006873e-10,5.6143057e-13,0.19403411,-0.44062,4.1769274e-13,2.6957447e-10,-1.1729137e-12,-0.24090487,0.644382,3.6802926e-12,-6.595112e-11,-2.1612735e-10,0.1888042,1.3017916e-12,0.04106552,0.45183873,1.6912571e-07,4.14497e-10,3.615551e-09,-0.27052557,0.24073225,-0.37987965,-0.07655551,-0.19619757,-3.00412e-06,2.0437043,1.672767e-06,-1.5432935e-10,-1.9639887e-11,0.27628466,-5.8366722e-06,-0.9628614,2.4741355e-12,1.2503354e-07,6.3620426e-08,2.5367207e-08,-3.1258462e-13,0.91246283,-0.15612516,-2.576118e-13,-9.376291e-10,6.8189107e-13,-0.16795883,0.29639956,-7.753106e-13,3.0804186e-09,-6.155031e-13,-0.16353925,-0.69527155,1.8365795e-12,-1.5242753e-10,3.272616e-10,-0.6290548
1.6586508e-12,0.1403571,-0.2269556,-5.2825072e-08,-4.129849e-11,-1.6881128e-09,-0.42282444,0.9928744,-0.30793568,0.07810987,0.040337328,-2.1840106e-07,0.07951754,-9.054936e-08,2.0930135e-09,3.3430703e-11,-0.17161825,-1.3826106e-05,-0.17993058,2.9037653e-12,-5.416073e-07,8.908386e-09,-6.820286e-08,-8.372036e-14,-0.3397384,-0.026070166,-3.5989094e-13,-8.9615865e-10,-1.5883944e-13,0.1671587,0.3682141,4.563705e-14,2.0305992e-09,2.5603095e-13,0.025687449,0.43652287,-1.249172e-12,-1.4031499e-09,-4.807012e-10,0.1476066,3.829509e-13,-0.22860597,0.1496671,-5.664278e-08,2.991628e-10,-4.0107646e-09,-0.30972046,-0.37902394,0.16912991,-0.45921382,0.049975198,-1.1333345e-06,1.7757907,1.5013401e-06,2.8874403e-12,-2.2902441e-10,0.019767147,-1.5316242e-05,-0.8101646,1.081754e-12,-1.6089173e-06,2.393716e-08,2.8931474e-08,-3.3384774e-14,0.2745933,0.41084573,8.215681e-13,-6.526652e-09,1.0304177e-12,0.10257971,-0.039350815,6.1767635e-14,2.0080573e-09,2.95008e-13,0.39885926,0.4281636,-4.258082e-13,-1.6221949e-09,-1.061946e-10,-0.24759376
1.7443612e-13,-0.043254305,-0.15745659,7.772233e-09,7.7837153e-10,5.6329026e-09,-0.0047476804,1.0969651,-0.00046496466,0.31906885,0.13202158,7.315314e-07,0.6127947,-2.1996043e-06,9.314097e-10,-4.778318e-10,0.081247635,-3.0657393e-06,-0.39327815,-1.3991319e-12,-1.0605065e-06,6.610159e-08,-9.506887e-08,-7.1019633e-13,-0.0574081,-0.010400781,-9.126868e-13,-2.8630205e-09,4.7739e-13,0.14400733,-0.08638547,-3.4362815e-13,1.1198111e-09,-1.4980847e-13,-0.20077482,0.6797574,1.8574964e-12,-3.5410086e-10,7.58037e-10,-0.115169436,6.1471444e-14,0.6790845,0.14746839,8.8272145e-08,-5.5177246e-10,1.4047421e-09,-0.43645418,-0.3863777,0.046970453,-0.04849342,0.0626122,1.4005486e-06,1.6100873,2.2264494e-07,-1.2147361e-09,-2.7394614e-12,-0.008172645,-1.3808711e-05,-0.77035064,7.9101504e-13,-1.2685604e-07,-1.740095e-08,1.9492864e-08,-5.3924215e-13,0.42156532,-0.14082426,-1.4687326e-12,1.1602377e-08,1.1874561e-12,-0.15543047,0.19817972,4.9242175e-13,-1.8444647e-09,-1.2276046e-12,-0.041653894,0.042683676,4.1468244e-12,5.0941446e-11,-2.8331362e-10,0.07553026
-7.785476e-13,-0.3160126,-0.1172103,1.3339516e-07,-3.309648e-10,1.4871138e-09,-0.08492824,0.7491816,0.034046315,-0.014025377,-0.10599452,-9.8489124e-08,0.8968478,1.2812856e-06,7.2504436e-10,2.1044251e-10,0.012625345,-3.0089031e-06,-0.49380663,-4.837594e-13,-1.4740887e-06,-1.5800627e-08,-6.8810394e-08,-3.71572e-13,0.77551335,-0.06593909,5.301883e-13,-6.778268e-10,9.190025e-13,0.1563532,0.07269683,-2.646069e-13,2.094857e-09,6.7194514e-15,0.29343033,1.0234935,-8.6221796e-13,4.1383597e-10,5.078468e-10,0.1295045,-3.6594274e-13,0.3526888,0.2446197,6.8216586e-08,-2.3022041e-10,-2.1681825e-09,-0.25880215,-0.23982707,-0.1602337,0.18548499,0.016074687,-1.5658638e-06,1.3534044,-1.0477298e-06,-9.517448e-11,3.5389074e-11,-0.24068177,2.442996e-06,-1.5012398,-1.4610806e-12,6.528402e-07,-4.116427e-08,-4.1854387e-09,-1.7373215e-13,0.34143746,0.15395238,9.1082686e-14,5.2828724e-09,3.3383688e-13,0.11177732,0.011735408,4.619188e-13,4.302054e-09,-1.3257315e-13,-0.39088997,0.36593577,-8.658769e-14,1.3159839e-09,-6.418054e-11,-0.033365246
-3.841944e-13,-0.26194334,-0.30517912,-1.7637798e-07,-8.048705e-10,4.5167567e-09,0.2951135,-0.31173113,0.042101495,-0.36231637,-0.005404419,-6.1876017e-07,0.31852782,-7.1929924e-07,5.2260696e-10,2.8928498e-11,-0.050099477,2.54186e-06,-0.5791653,1.4807554e-12,-1.0118802e-06,-8.156226e-08,-7.936197e-08,-2.045336e-13,0.40708372,-0.036187958,5.735229e-13,8.353206e-09,-1.06822185e-13,-0.6573648,-0.6072336,-8.174418e-14,-1.6536728e-09,-1.1103787e-12,-0.86090493,1.2738448,1.0997483e-12,-4.911571e-10,-5.454247e-10,0.45179147,2.0049012e-14,0.9422868,0.22422752,-8.74445e-08,3.679957e-10,3.3897933e-09,-0.8379098,0.2240549,-0.0035794212,-0.41356397,-0.080372766,1.9687523e-06,1.602851,-8.3635086e-07,5.2258226e-10,4.5604603e-10,-0.74437565,3.1068164e-06,-1.114291,4.3640738e-12,4.570618e-07,-4.347281e-08,-2.5839302e-08,5.115654e-13,-0.44719085,-0.0889319,5.700133e-13,-1.1326895e-09,1.773797e-13,-0.16400422,-0.28818417,-2.1481027e-13,6.778653e-09,1.7016095e-13,-0.6378609,0.28608084,-1.4486808e-12,-4.1368298e-10,-1.5548546e-10,0.08954295
-6.8517533e-13,0.008031707,-0.11302893,9.405302e-08,-9.6967934e-11,-6.366441e-09,0.40539294,0.16573559,0.06254693,-0.048488893,-0.25337392,-7.4073193e-07,0.31180924,-1.7065352e-07,6.6396777e-10,-6.497389e-11,-0.54199535,7.393918e-06,0.15201305,2.947706e-12,-9.419971e-07,-1.1239502e-07,1.5823277e-07,-2.5346774e-13,0.66132474,0.18121652,1.1838395e-12,-9.723738e-09,4.637565e-13,-0.3967838,0.15576641,4.5184538e-13,2.6671365e-10,-1.7711266e-13,-0.34079188,0.47811773,3.0590148e-12,-5.871471e-10,1.7587373e-11,-0.21193534,5.4154126e-13,0.15723148,-0.5379483,-1.7966033e-07,4.9663232e-11,1.378871e-09,-0.11303428,0.18164304,0.022237785,-0.034573093,-0.0405709,1.9054997e-06,1.625581,7.65987e-07,1.0918002e-09,-1.407475e-10,0.36737576,1.605943e-05,-0.79749656,-9.78317e-13,-1.6592356e-06,3.494184e-08,-4.6253977e-08,-3.2625142e-13,-0.4598048,-0.5393203,-7.196522e-13,3.9670924e-09,-9.734872e-13,-0.04629193,-0.33492532,-4.8225844e-13,3.9982955e-09,-9.054056e-13,-0.5052025,0.7458895,3.0086406e-12,3.571294e-09,1.2096302e-09,-0.1718938
9.26246e-13,0.1888848,0.2632063,1.1232052e-07,-8.435196e-10,-3.514715e-09,0.4842516,-0.02417278,0.31181067,0.10846361,-0.033314962,-2.277007e-06,0.5072946,-1.2208743e-07,1.7969675e-09,-1.3081423e-10,0.13443512,-9.185003e-07,0.019090923,-6.451725e-13,-9.66096e-07,-4.480323e-08,-1.2025464e-07,4.83272e-14,1.0425655,-0.25187865,-8.5089336e-13,-6.099092e-10,-1.9385004e-13,-0.2939806,0.10673771,-7.003305e-13,5.146406e-09,1.0782369e-13,-0.65070707,0.89083374,-1.5312252e-13,-9.6154e-10,8.756632e-10,0.028732058,-5.8104265e-13,0.4167353,0.041389734,-6.8961334e-08,-1.5692976e-10,-2.4972304e-09,0.06651604,0.5713836,0.18103074,-0.13790154,-0.1289494,-1.392912e-06,1.6803205,1.4563109e-06,2.7489835e-09,3.682042e-11,0.09165101,-5.641142e-06,-1.1491748,1.9636285e-12,1.3844323e-06,9.8915514e-08,9.675167e-08,3.9644422e-13,-1.5371609,0.3313376,-3.205255e-13,1.6564238e-08,1.1703866e-12,-0.0054705944,0.4116208,-3.3933023e-13,-2.218082e-09,-1.2155912e-14,0.29251492,0.3274695,-2.0827125e-12,-1.3923922e-09,4.9785887e-10,-0.056647047
1.2688481e-12,-0.10316122,-0.08361776,-2.2888969e-07,-7.8203205e-10,4.386154e-09,-0.0063556377,0.0012721987,0.07942609,0.22883467,0.07274974,9.011154e-07,0.33046818,-5.7619354e-07,7.5020856e-10,3.0147582e-10,0.3715207,1.1884073e-05,0.042057205,-9.804999e-13,-1.4528607e-06,5.949893e-08,1.1436803e-07,-2.4419383e-13,0.642814,-0.10184071,-1.0990557e-14,4.514863e-09,-8.840819e-13,0.23879403,-0.039589237,-2.966533e-13,6.95822e-09,2.1572718e-13,0.11778516,0.6454525,-1.3401942e-12,1.378039e-09,-8.387384e-10,-0.08093346,-1.1180055e-12,-0.037685495,-0.23997192,-5.280051e-09,3.560277e-10,-6.0876073e-09,-0.11087149,0.28026155,0.13329692,0.027676016,0.033414446,-4.1852437e-07,1.5200773,7.831369e-07,-1.5090617e-09,3.3888078e-10,0.2116328,-1.9882262e-05,-1.116985,-1.8552538e-12,-1.4508645e-06,9.288067e-08,-2.4061496e-08,4.4912766e-13,-1.006539,0.15599523,1.5693002e-13,-1.3176672e-08,-5.0761573e-14,-0.20420578,-0.29732674,-4.554782e-13,-2.2670277e-09,-4.3184442e-13,-0.07132105,0.077910006,2.8061136e-12,1.8926494e-10,-1.0736664e-09,-0.23313764
-5.476532e-13,0.12326183,-0.08493298,8.624973e-08,5.123642e-10,-5.4358336e-09,0.07433868,0.5037493,-0.18234831,-0.019703945,0.015421687,-1.7836043e-06,0.18444544,-1.0032234e-06,8.6990404e-10,1.7291943e-10,-0.34348625,3.384407e-06,0.16334563,1.9326814e-12,-8.219661e-07,-1.04177005e-07,6.1471596e-08,-5.6140466e-13,0.5832267,-0.2760338,-4.7564817e-14,6.3684635e-09,1.8145555e-13,0.29344222,0.028225731,4.639243e-13,3.876465e-09,3.6944102e-13,0.17251056,0.25443733,1.571628e-12,3.0476164e-09,-1.1575814e-10,0.09964904,-1.8535596e-13,0.5436931,-0.18183966,2.4519355e-07,-2.503731e-11,-1.711092e-09,0.15248807,0.36826858,0.19905594,-0.3034367,0.1062692,7.331621e-07,1.7129378,-3.6414423e-07,1.1666458e-09,-2.9068684e-10,-0.07454045,-4.5108038e-07,-1.3530773,-1.590672e-13,-1.4898578e-06,-2.121497e-08,-1.517372e-08,3.5371554e-13,-0.536074,0.056251727,1.2989192e-13,1.48961e-09,8.3158036e-13,0.1908734,0.09509966,9.898653e-13,3.4502747e-09,-1.1654631e-13,-0.099539846,0.2533351,3.5270502e-12,2.9138323e-09,-5.3123245e-10,0.6280662
-6.9049324e-13,0.19611983,0.07350233,7.058069e-09,-1.0242556e-09,2.3263362e-09,-0.19049446,0.03526227,-0.089442514,-0.21794674,-0.081764445,4.7732806e-07,-0.4378637,-1.2596662e-06,-5.554463e-10,1.0848615e-10,-0.17547423,-2.0699621e-05,-0.24666046,4.598142e-13,-2.6807226e-07,-1.09659934e-08,7.8000376e-08,1.6370783e-13,0.6479892,-0.052082915,-1.1332669e-12,-6.3779844e-09,-1.0146575e-13,-0.07560759,0.41798505,-9.232686e-15,-6.979628e-11,2.7440712e-13,0.17163011,0.18480942,1.8323095e-12,-5.416008e-10,2.2000123e-10,-0.6187823,-3.9336557e-13,0.02109836,-0.34891772,-2.1003483e-08,2.6282143e-11,1.6976957e-09,-0.0129422415,-0.6405203,-0.23662218,-0.073856935,-0.18321532,-1.0877676e-07,1.4312764,6.0550013e-07,1.3087098e-10,-1.3872563e-11,0.2818681,2.7190968e-06,-0.77072775,1.6193054e-12,4.699663e-07,-7.9601946e-08,5.850445e-08,-1.3739181e-13,-0.33447555,0.31575665,3.8767798e-13,2.0730472e-08,-7.1303884e-13,0.071676485,-0.3186069,-2.121531e-13,3.0975469e-09,9.74698e-13,0.0088020265,0.039746724,1.4372682e-12,-1.5340951e-09,-2.5840757e-10,-0.27502155
1.1331465e-12,0.10851493,0.09716892,-1.0584671e-09,2.981288e-10,-1.349654e-08,-0.24434036,0.9244544,0.022662794,0.048510976,-0.042789694,3.3519234e-07,0.32572532,8.7591786e-08,3.308165e-10,2.6615726e-10,-0.106870584,-7.888568e-06,-0.3943724,6.2762057e-13,-2.53318e-07,1.4008567e-07,-2.57206e-08,-3.9097333e-13,0.90358114,-0.11359192,5.0983366e-13,-1.2808417e-09,-2.3004295e-13,0.34216556,-0.12056859,2.439042e-13,3.1507936e-09,1.4979226e-12,-0.07255496,0.14706409,2.6769808e-12,-2.415181e-09,-1.2702403e-10,-0.5686599,-3.3171502e-13,0.15291609,-0.2768991,1.2094407e-07,4.674023e-11,4.11909e-09,0.24366465,0.056729656,0.05997023,-0.027359486,-0.10366498,2.324766e-06,1.565666,2.655645e-07,-3.9240383e-10,-7.81754e-11,0.3806791,1.225601e-09,-1.015634,-3.7875118e-13,-8.884966e-08,1.0802173e-07,-1.6600685e-08,-2.792445e-13,-0.21966104,0.026998295,2.641407e-13,-6.760908e-09,5.6629836e-13,-0.018731883,-0.39889398,5.602672e-13,3.9027737e-10,6.5892626e-13,-0.31061468,-0.0013947586,-3.0939413e-12,-8.4677904e-10,-3.7587508e-10,0.21595703
-5.3625236e-13,-0.57830364,-0.14006782,-5.395889e-08,-1.4416702e-09,-2.4170757e-09,-0.27216557,-0.8440127,0.1413589,0.07657616,-0.064481415,1.8347673e-07,0.06658574,-1.4308368e-06,1.3060752e-10,-1.4927465e-10,0.06751427,-5.566454e-06,0.89228284,-1.7864894e-12,1.4162772e-08,7.879374e-08,2.498383e-08,2.0418106e-13,0.6977644,-0.023592934,7.2501364e-13,-1.1593944e-08,4.1823462e-13,0.09658304,0.22483796,3.747046e-13,1.1847693e-09,-2.5285956e-13,0.55354923,1.2314653,-2.3291597e-12,1.3185633e-09,-4.1776235e-10,-0.08397531,2.502221e-13,-0.10687052,0.4497065,-8.319771e-09,-1.0154847e-10,7.635715e-09,-0.13865794,0.71159714,0.14890823,-0.07388307,-0.06318529,-7.484567e-08,1.5423124,-7.595908e-07,5.5513507e-11,5.6053332e-11,0.36676094,-1.660703e-06,-1.1261668,2.3805307e-12,-1.8251795e-06,-2.1162906e-08,-3.1006163e-08,2.4767552e-13,0.26244757,0.17586964,-3.111562e-13,3.4139145e-09,1.8157324e-13,0.30303732,0.15215167,-2.0846295e-13,2.4597782e-09,4.4573313e-13,0.32221344,0.27962732,1.5009552e-12,9.40978e-10,1.04456e-10,0.17499784
4.667664e-13,0.21836084,-0.38796106,-9.903917e-08,-6.7457157e-10,-3.4058147e-09,-0.023825925,-0.6953202,0.17990372,-0.15447633,0.40338212,-1.6932292e-07,-0.5294485,7.742229e-07,-2.415085e-10,8.3665554e-11,-0.57213956,-4.014341e-06,0.29409784,-6.805964e-13,-8.8511774e-07,3.6567425e-08,-3.3340683e-08,-1.5834076e-13,-0.55323136,0.16787662,8.1484266e-13,2.6948062e-09,-2.4170222e-13,-0.109275855,-0.5517283,3.443915e-13,-7.9814655e-10,2.5285693e-13,-0.7383681,0.8714869,-3.8857828e-12,-1.2650109e-10,1.3767875e-09,0.109675325,-2.035942e-13,-0.5736313,-0.1468917,-1.0981613e-07,1.4329174e-10,-1.1407752e-08,-0.28079173,0.69494873,-0.04924732,0.15000181,0.037235804,2.9677577e-07,1.6654512,7.2190016e-07,-1.1108654e-09,1.6146948e-10,-0.33156243,1.8933572e-06,-0.9072275,-2.9594979e-12,3.492859e-06,1.7363794e-07,-1.0083427e-08,-2.4610378e-13,-0.06851457,-0.18456265,-8.3471695e-13,1.1815951e-08,3.3187702e-13,-0.6357358,-0.05747012,4.365043e-13,9.023128e-09,-2.834494e-13,0.5876067,-0.61527437,2.6286335e-13,4.1275494e-10,-3.686643e-10,-0.41483882
-1.1105211e-12,0.2800236,-0.15667018,9.2294684e-08,9.96206e-11,-1.3966772e-10,-0.12756547,-0.35678646,0.11605906,-0.002756279,-0.026220154,5.8361024e-07,0.37488165,5.718673e-07,3.0587327e-10,9.408305e-11,0.019241022,9.045029e-06,0.13315785,-4.4970646e-14,1.36577e-07,-5.9323927e-08,-3.315673e-08,-4.0424145e-13,-0.40173405,-0.038358796,-5.4718654e-13,6.72813e-10,7.5762313e-13,0.004839401,-1.4470063,1.7265532e-13,-4.8282045e-10,-4.553676e-13,-0.26049688,0.7061724,-8.3060555e-13,-1.2267989e-09,-2.9273312e-10,0.02448194,-6.4409724e-13,-0.065450065,-0.307415,5.486293e-09,1.3288627e-10,2.2294504e-09,0.085401446,1.3222578,-0.112186335,-0.031145018,0.073825404,1.3668048e-06,1.3368808,-4.4890774e-07,-5.90695e-11,9.5229484e-11,-0.071471825,-4.6151226e-06,-0.94730806,1.2785132e-13,4.6751495e-07,3.3959303e-08,-8.1073503e-10,-3.5450584e-13,0.49846423,-0.056108262,1.5116164e-13,3.6203902e-09,8.700781e-13,0.05366233,0.6476285,-1.9110137e-13,-1.0667828e-09,-3.1654074e-13,-0.06933524,-0.21417634,-1.9750345e-12,-4.3022236e-10,-2.0469451e-10,0.09592737
-6.7380867e-13,0.40738258,-0.39671794,1.2003369e-07,-2.3854807e-11,-4.737881e-09,0.2939688,0.45261618,0.4532164,0.16536674,-0.1373754,1.1303754e-06,0.09476002,-1.1824873e-06,-4.2462442e-10,-2.7654345e-10,0.08473327,-1.3517809e-05,0.12799124,3.2745746e-13,6.8368266e-08,2.656302e-09,-8.632871e-08,-7.512554e-13,-0.43746674,-0.15528879,-6.6688864e-13,-1.730698e-09,-4.553893e-13,-0.08468059,-0.43223518,3.812796e-13,-4.871415e-10,-4.6599555e-14,0.12923637,-0.13034756,-1.4400163e-12,1.370887e-09,1.1432337e-09,-0.1547815,2.1381291e-13,-0.19015984,-0.015597099,-1.0180731e-08,-3.3344112e-11,9.883154e-10,0.2356446,1.5217558,0.021373503,0.08195315,0.0794822,-3.328705e-07,1.6747478,2.6129536e-07,-2.0436015e-10,-4.4071022e-10,-0.37215024,1.0232642e-05,-1.0569084,-2.5293777e-12,-1.1009668e-06,4.2575344e-08,1.2021528e-08,-2.207513e-13,0.42435429,-0.25534764,-2.0565141e-13,8.41239e-09,7.2296775e-13,0.074189894,0.30570218,1.3617512e-13,4.3692494e-10,-3.1927922e-13,-0.3324327,-0.3854882,-2.5385809e-12,-2.8452518e-11,5.767434e-10,-0.01870017
2.0983386e-12,0.3563171,0.023433734,1.8297854e-08,1.2709049e-09,-1.2948406e-08,0.42536974,0.29851636,0.07110506,0.0163153,0.081412286,-3.7299526e-07,0.42943245,-8.9137944e-07,1.4761775e-09,-1.749838e-10,0.2666856,-4.669151e-06,0.070063844,-3.817599e-13,7.8193756e-07,3.051406e-08,-6.375113e-08,-5.0278954e-13,0.031870525,-0.13202767,1.1832939e-13,-5.7179492e-09,2.0905719e-13,-0.14710258,0.11358133,4.08711e-13,6.4329087e-10,-6.313604e-13,-0.20157018,-0.46393847,8.582333e-13,5.702817e-10,-1.0409872e-09,0.12757584,5.5802216e-13,0.26026246,0.26284477,9.0196515e-08,-1.4974921e-10,-1.288201e-09,-0.38847083,1.0807767,0.2585244,0.044065308,0.13090947,1.6019744e-06,1.5606009,-1.4317818e-06,-2.2971025e-10,2.4273772e-10,-0.6597327,-3.573345e-06,-0.6610347,6.766394e-13,-1.9343534e-07,-7.980452e-10,5.299048e-08,-2.1775564e-13,-0.27460036,0.1759892,-8.453329e-14,1.2054523e-08,1.6185989e-13,-0.22038159,0.6809484,-1.4082226e-13,3.383579e-10,-1.9851178e-13,-0.100957565,-0.52323663,4.0753045e-13,2.2354263e-09,3.2422137e-10,-0.09975329
-2.2091964e-13,0.29815304,-0.3833363,-3.737542e-08,3.8254697e-10,9.1567515e-10,-0.12516999,0.3254821,-0.049303107,-0.08287362,-0.0486364,5.213562e-07,0.4534002,1.3459248e-06,1.3086976e-09,1.577595e-10,-0.024796069,-1.53085e-05,-0.32003355,-8.470185e-13,3.7144895e-07,-1.1607172e-08,1.01079614e-07,4.1928998e-14,-0.8355904,-0.10041203,4.752407e-13,-6.616437e-09,-6.385374e-13,-0.07935074,0.63171756,1.6728558e-13,4.5369877e-09,5.427693e-13,0.34579173,0.2430955,-5.081663e-13,2.0246484e-09,-1.154455e-09,-0.051724754,3.2697993e-14,-0.17898022,-0.113603905,4.671648e-08,3.9537695e-10,7.949521e-09,-0.1334219,1.0596802,0.12861116,-0.21631016,0.12462219,5.25339e-07,1.544479,-2.332162e-06,9.2073416e-10,1.445091e-10,-0.017712664,-1.3118324e-05,-1.1482271,-4.5961943e-13,5.4040825e-08,4.7683823e-08,-3.889816e-08,5.8957207e-13,-0.84675545,0.18768167,3.413937e-13,4.1172963e-09,-1.2323871e-13,-0.18688504,0.35359377,-4.168177e-13,7.3658757e-10,-5.584714e-13,-0.3344026,0.31484136,1.5349612e-12,7.347508e-10,5.2622223e-10,-0.1875589
-3.849519e-13,-0.1483311,-0.08465074,4.1813802e-08,-3.1637953e-10,1.9847939e-09,0.22130944,1.0499959,0.059235997,-0.104066074,0.16683424,-2.1567581e-07,0.39792162,1.1487591e-06,5.249722e-10,4.7576436e-11,-0.065747075,-9.690951e-06,-0.51114756,1.1173267e-13,3.8049514e-08,-5.3685625e-09,5.444071e-08,5.9859214e-13,-0.30934545,0.011528596,-6.2729856e-13,9.90849e-10,1.4789041e-13,-0.059947684,-0.56630415,7.712841e-14,-1.5952095e-10,1.0371337e-13,-0.078762926,-0.012348909,-8.3346307e-13,-7.371799e-10,-5.718226e-11,-0.0028041136,-7.034281e-13,-0.33724612,0.01872724,-4.9908824e-08,7.9207405e-12,8.206111e-10,0.023274831,0.28385276,-0.041198764,-0.02072424,0.0327674,1.533558e-06,1.1962831,-1.257749e-06,-6.8034284e-10,-2.9568188e-11,-0.06065788,-2.0788063e-06,-1.5449232,-1.8503575e-12,-3.5684357e-07,2.7877494e-08,-2.2324453e-08,1.7583694e-13,-0.7546896,-0.051532473,1.4739853e-13,2.6607818e-09,1.11784226e-13,-0.21783908,0.33774045,2.16834e-13,1.3975296e-10,5.085026e-14,-0.13596906,0.049807902,1.3230467e-12,-6.5786676e-10,2.2838959e-10,0.06488264
-1.3771e-12,0.40527156,-0.15806268,-9.822051e-09,-1.2937159e-09,3.6969734e-09,0.10274323,0.46682203,-0.040904313,0.087404065,0.0066985004,5.9682316e-07,0.4885104,2.7325132e-07,-4.6292956e-10,1.6801946e-10,-0.36917752,-1.2735508e-05,-0.52621514,1.0952295e-12,1.4643122e-06,2.0662483e-08,4.9587022e-08,-3.2204393e-13,-0.35395873,0.096093096,9.5845424e-14,-6.576903e-09,1.1606304e-12,-0.088721536,-0.26847333,-1.6719915e-13,4.5665502e-09,3.127739e-14,0.048834395,0.29307407,3.7162287e-13,-8.931619e-10,-5.7167715e-10,-0.07256484,-7.393017e-13,-0.34597862,-0.10891762,6.028629e-08,4.6210452e-10,1.979838e-09,0.21596716,1.0775949,-0.22724973,0.13788149,-0.09688321,-6.294164e-08,1.740391,-5.9243837e-07,1.2528587e-09,9.410452e-11,-0.19222923,8.754556e-06,-0.4981531,-2.8694993e-12,-5.4279013e-07,-1.01579644e-07,-3.7876486e-08,-4.170152e-13,-1.1107532,-0.121856324,1.2189373e-12,2.0600897e-08,2.8440406e-13,0.10613538,0.47801292,-4.9121395e-13,6.344634e-09,5.290247e-13,-0.20028779,-0.109079756,-9.265341e-13,-4.1311293e-10,9.096045e-11,-0.2553986
2.4561608e-13,-0.16673559,0.29233852,1.5632345e-07,-1.0858857e-09,3.9217607e-09,-0.20147778,0.6609299,-0.07151631,-0.13437891,-0.06876485,3.3628962e-07,0.1378503,-1.4457582e-06,1.7576619e-09,5.741374e-11,-0.29441905,-1.2872579e-07,0.09307675,6.0898335e-14,7.156751e-07,6.8781915e-08,-4.4293014e-08,6.5410855e-13,-0.25582138,0.20004468,-4.1087871e-13,6.1324226e-09,1.2648674e-13,-0.009920213,0.01984393,-9.9982475e-14,2.0688766e-09,1.0291296e-13,0.23090918,0.49104643,3.2620146e-12,6.1160854e-10,9.415928e-10,-0.7239913,4.640605e-13,-0.18561715,0.5065,-1.4730654e-07,-4.9900938e-11,4.7996065e-09,0.34715953,0.65090376,-0.09709584,0.24646671,-0.21146695,-2.1465598e-06,1.5020536,1.4843719e-06,1.060073e-09,-9.005524e-11,-0.047102887,-3.6594834e-06,-0.7871134,-5.8062843e-13,-2.1941908e-06,1.254594e-07,5.235474e-08,-2.2134299e-14,-1.1821717,-0.08321766,1.0639409e-13,6.7594756e-09,4.8748657e-14,0.2521112,0.17315774,-4.8782473e-13,3.774959e-09,-8.766523e-15,0.29239613,0.17266247,-2.7015547e-12,-7.5924034e-10,6.437127e-11,0.2506059
-7.893409e-13,0.17217202,-0.12842965,-1.130057e-07,-5.980446e-10,1.7665337e-09,0.09192393,0.5081139,-0.24259466,0.3773126,0.098474145,5.6121127e-07,0.68775415,-9.400653e-07,1.8296609e-10,-2.4387735e-11,-0.34323448,-1.0260599e-05,-0.55596507,2.8324362e-13,6.7931865e-07,1.3907608e-08,3.4269448e-08,2.2666005e-13,-0.2717701,0.0010821068,2.959189e-13,-3.6596268e-09,-7.341726e-13,0.025189362,0.8378617,-1.2416365e-13,-1.0048962e-09,9.0863444e-13,-0.028652634,-0.34353697,1.374298e-12,-3.7790862e-10,-8.133976e-10,0.36641958,6.4234235e-14,0.16213143,-0.20692533,-3.6975358e-08,2.092081e-10,-6.838387e-09,-0.49163604,1.6667055,0.14339387,0.00093020964,0.21125624,-3.3851737e-07,1.5306997,1.0227124e-06,-8.341168e-10,-1.1077048e-10,-0.046358313,-4.454639e-06,-1.1233069,-1.2190413e-12,6.7378596e-07,-5.7108426e-08,-8.743241e-08,-8.1062674e-13,-1.1787404,0.27823707,-2.3135346e-13,2.8844342e-09,6.3766467e-13,-0.42994368,0.07330526,-5.710048e-14,4.0737653e-09,-1.7364261e-12,0.162544,-0.6100766,1.151596e-12,-2.1258711e-10,6.887803e-10,-0.14450546
-1.3053133e-13,0.17491943,-0.305631,-1.1746475e-07,9.3411445e-11,5.861552e-09,0.32969344,0.020984031,-0.30013767,-0.46788076,0.069949366,-7.321567e-07,0.6604069,-1.255177e-07,5.6345184e-10,-1.6969161e-10,0.24361086,3.132342e-06,0.1191801,7.9338803e-13,-1.8193847e-06,-2.188799e-08,5.7132205e-08,-2.7367824e-13,-0.7773631,0.17086385,-5.918128e-13,-5.08385e-09,-3.2381893e-13,0.17090261,-0.07758423,-2.8751234e-13,1.1957907e-09,-3.2871785e-13,-0.61480546,0.1924455,6.165707e-13,-4.3911766e-10,-1.376862e-10,0.07558313,2.9701784e-13,0.12415343,0.27159542,-4.7341434e-08,5.377702e-10,-9.570572e-11,-0.018915895,1.4406247,-0.20174415,0.09559658,0.09859098,-6.2769914e-07,1.6232255,1.9468781e-07,9.598214e-11,1.978342e-10,-0.5495578,-6.3268776e-06,-1.3799889,-7.554251e-13,-4.0860834e-07,-9.861966e-08,-3.0232176e-08,1.0114466e-13,-0.69281936,-0.011272085,3.8879224e-13,2.5679272e-09,-1.4739501e-13,-0.23653877,-0.41516656,-3.2275506e-14,4.33689e-09,1.4661979e-13,-0.7272046,0.28515294,-1.2351847e-12,-2.3037752e-10,4.2052994e-10,-0.0132275615
4.950224e-13,-0.53789777,0.22647807,1.4755818e-07,-7.338063e-11,-6.259798e-10,-0.0030837166,0.22048368,0.05414489,-0.01846901,0.01941396,6.095347e-07,0.6535502,-9.712253e-07,-4.827512e-11,-4.9039436e-11,-0.39695027,1.457576e-06,-0.07428549,4.1600973e-13,1.3022789e-07,-9.232777e-08,1.4767435e-08,-4.1336528e-13,0.6663493,0.08388227,1.1698099e-12,4.587182e-09,5.364946e-13,-0.31114677,-0.13250269,4.5347244e-13,1.11504535e-10,6.0559874e-13,0.05487667,-0.33059958,-1.0092952e-12,-1.2931259e-10,-4.3389063e-11,0.098451704,1.5890804e-13,-0.25225058,0.1669822,1.8759643e-08,6.140732e-12,-4.724862e-09,0.18204603,1.4033551,-0.118323565,0.042265583,0.031857323,-1.5595721e-06,1.2450883,1.8768517e-06,-1.2941928e-09,-5.6384595e-11,-0.09301874,3.1327215e-06,-1.0256912,-7.768842e-13,1.539253e-08,-8.544775e-08,-7.4899475e-08,-5.926975e-13,-0.6946039,-0.1864186,4.924992e-13,3.094779e-09,8.1156804e-13,-0.03613446,-0.10053374,4.5169928e-13,-3.4482712e-09,-8.294379e-13,-0.29177377,0.24275124,-1.6228355e-12,-1.5329632e-09,1.2461401e-10,0.43685222
-6.7652947e-13,0.5009899,-1.0577924,1.8592914e-07,-3.1231231e-10,-2.8146227e-08,-0.06655466,0.24430232,0.20953766,-0.19190603,0.03844795,8.44503e-07,0.8397391,8.281229e-07,5.272619e-10,1.7926419e-10,-0.10721947,1.4405879e-06,-0.659945,6.639436e-13,5.576059e-07,-5.2528653e-09,-3.4170203e-08,4.323231e-13,0.23539498,0.031821627,-1.0634707e-12,-8.369454e-09,-4.4885954e-13,0.0873251,-0.09617842,-4.726243e-13,2.5432179e-09,-7.026024e-13,0.45788503,-0.33929998,-7.898975e-12,-9.920722e-10,1.3435552e-09,0.42418408,-4.01653e-14,-0.2602785,-0.11878591,1.02558104e-07,-2.9078925e-10,-7.0387907e-10,0.05589445,0.8931508,0.17517571,-0.32642725,0.034708455,7.2365737e-07,1.6399767,-2.5458448e-07,9.108949e-10,-1.3488086e-10,-0.3564971,-1.4158242e-05,-0.70631427,-4.3277673e-12,-3.0529318e-07,8.3041535e-08,-5.1858837e-08,9.3124835e-14,-0.68846893,-0.09154676,7.4053757e-13,1.2346497e-08,2.4368355e-13,-0.65692604,-0.39291927,-5.450488e-13,-3.3853533e-09,-6.679672e-14,-0.17084935,0.24856997,2.6168644e-12,-4.507425e-10,1.3886652e-10,0.116192415
-8.06909e-13,-0.45741236,-0.15798284,-5.267251e-08,3.5361777e-10,-3.9875356e-09,-0.012572493,0.23489165,0.12783921,-0.045641877,0.05761232,4.677999e-07,0.42716625,-1.3451184e-06,1.3956876e-09,1.4251638e-11,0.023157487,-4.701642e-06,-0.512753,1.5903839e-12,1.4905949e-06,2.4788696e-09,8.6995854e-08,8.559505e-14,0.123231485,-0.1485716,-8.435532e-13,-3.0229725e-09,7.2879056e-13,-0.44661704,0.17958759,6.1969917e-13,6.80683e-10,5.895232e-13,-0.32384175,-0.72639495,4.2882195e-12,3.9687978e-10,-3.1844954e-10,0.14443408,-6.9889016e-13,0.2693904,0.0024791658,-5.664465e-08,2.4669772e-10,-2.5003466e-10,0.27252042,0.82242566,0.45717496,0.07406641,-0.21370202,-6.710767e-07,1.6518687,5.041052e-09,1.776716e-09,7.08195e-11,0.28205612,2.0926582e-05,-0.41587096,-1.1111473e-12,2.1679921e-07,-3.4671164e-08,-3.6597623e-08,6.660602e-13,-0.03091387,0.07724443,-1.1256989e-13,9.490945e-09,1.2022458e-12,-0.18372113,-0.39561045,3.217485e-13,1.6243626e-09,7.539851e-13,-0.23626505,0.19094923,5.309013e-13,6.2910815e-11,-2.9716594e-11,-0.29756382
1.1254573e-12,0.36623105,-0.00460005,6.8779556e-08,4.931762e-11,5.415527e-09,-0.36578205,0.33664218,-0.17725532,-0.033885375,-0.009654729,5.8249077e-07,0.1708896,-4.703808e-07,1.2151452e-09,8.251757e-12,0.1814704,-1.0988656e-05,-0.3829436,-1.230094e-12,1.16943724e-07,1.3696926e-07,9.4796455e-08,-2.533041e-13,0.07593348,-0.11773664,-1.7160118e-13,3.81282e-09,-6.175697e-14,0.03452707,0.193523,-4.1053922e-13,9.316438e-10,-4.949129e-13,0.30739394,-0.68591565,3.6960487e-12,2.8485395e-10,-6.487482e-10,-0.081975095,-6.5050764e-13,-0.16554584,0.061577544,-1.2420669e-08,-2.2249591e-11,-7.946732e-09,0.19358699,1.3226832,0.11949871,-0.14193414,0.17457487,8.3998964e-07,1.6375457,-3.5049516e-07,-9.744756e-10,1.6176774e-10,-0.35031933,-1.0137999e-06,-1.1408637,2.4516593e-12,6.5971767e-07,-1.1575662e-07,-3.029171e-08,-5.6011196e-13,-0.23849359,0.09841802,-9.213277e-13,8.682129e-09,1.3853035e-13,0.036366083,0.04155537,-2.7266026e-13,3.8733491e-10,-4.6227226e-13,0.29346317,0.23232403,-3.219754e-13,-9.1068814e-10,-3.5047545e-10,0.06355433
-1.0287401e-12,0.018516779,0.41381407,6.5196026e-08,-6.072946e-10,-5.1337223e-10,-0.11983829,0.48781708,-0.17452307,-0.12780312,0.16630332,6.779174e-07,0.22597735,1.2370582e-06,1.650233e-09,1.6396172e-10,0.2935628,8.151382e-06,-0.2601518,1.1409925e-12,-4.0599096e-07,1.1125461e-07,2.500322e-08,4.2449757e-13,-0.007285418,-0.09595163,9.597312e-13,-9.000743e-09,5.0030623e-13,0.25340468,-0.016832765,5.20713e-13,2.7074512e-09,-1.0310134e-12,0.484445,-0.7631953,-2.3288137e-13,1.4084907e-09,2.678624e-11,-0.1504254,3.060677e-13,-0.1842568,0.34783083,2.0231175e-07,-5.6770116e-11,3.2305665e-09,0.091991894,1.5704324,0.31644186,0.027541852,0.23205678,-1.5602714e-07,1.61739,-8.4455456e-07,-1.2771365e-10,-3.6420056e-10,-0.09472431,-4.7450058e-06,-0.7012358,9.430331e-13,3.786326e-06,-3.9043663e-08,-5.7751556e-08,5.5215733e-14,-0.07065217,0.22697742,3.2815946e-13,-2.1648066e-09,3.159766e-13,-0.22918159,-0.33784184,-5.6969035e-13,2.0141009e-09,4.9093623e-13,-0.03276908,0.07339425,-2.2156831e-12,-4.3647774e-10,2.4767974e-10,-0.29278418
1.6633504e-13,0.17732365,-0.008144105,1.8984423e-08,1.3893894e-09,1.7612692e-08,-0.09066858,0.7210744,-0.22038311,-0.26741505,0.10578911,-8.8383683e-07,0.40200984,1.3268797e-06,-1.5337815e-09,9.967534e-11,1.112548,-2.05558e-05,-0.16339433,2.6838679e-12,-1.2665513e-06,-5.5030625e-08,-1.1101737e-07,-7.105975e-14,0.08400415,0.0348861,-7.2658665e-13,2.9857486e-10,-4.014174e-13,-0.06516065,0.2678468,3.5570724e-13,4.8374704e-09,2.4301663e-13,0.88724536,-0.5883301,-2.0803407e-12,-1.6837177e-09,2.57093e-10,-0.7436673,6.82463e-13,0.10651551,-0.35967302,-7.8344115e-08,-1.0517204e-10,1.2251092e-09,-0.17745245,0.8261518,-0.016809773,0.030661728,0.071712464,1.9990437e-06,1.5871398,1.7423482e-06,4.1104609e-10,-3.5156547e-10,0.11327193,-1.9436206e-05,-1.0863062,-1.5790758e-12,1.7443059e-06,-1.5512667e-07,5.018769e-08,-4.004419e-13,-0.3271669,-0.4138034,-9.727029e-13,1.2804431e-09,-8.3579526e-14,-0.10231994,-0.29343122,1.4985729e-13,-2.7310594e-09,-1.3389062e-12,0.34762287,-0.21696663,-2.0265326e-12,-1.6657244e-09,9.180255e-11,-0.27110198
7.842893e-13,0.78254724,-0.23524417,-2.033199e-07,-4.110719e-10,4.674024e-10,-0.099492334,0.9784592,0.1620768,0.2813968,-0.00569139,-4.3489962e-07,0.5941861,-1.5025822e-07,2.0735573e-09,3.7478648e-10,0.4661171,1.2529046e-05,0.6682927,-1.3335698e-13,-1.3912684e-06,2.8814487e-08,3.715603e-08,-1.6109623e-13,-0.1428771,0.0018632847,-1.4821206e-14,8.148384e-09,-3.2884082e-13,-0.31760564,-0.45655078,-1.2163634e-13,-3.750706e-09,5.2063822e-14,-0.294287,-0.3852869,-2.9429026e-12,-2.851208e-09,2.9175698e-10,0.21891597,5.720386e-13,-0.044763096,-0.21457672,-2.3330267e-07,-4.012417e-10,9.228201e-09,0.0364747,1.5171881,-0.0021731765,-0.34042528,-0.030969508,-3.5518774e-06,1.666789,4.2489697e-07,2.4416238e-09,3.258626e-11,-0.22217228,-1.3301867e-05,-1.1299065,5.5255995e-13,3.1083593e-07,-9.109847e-08,1.0362383e-09,6.9445036e-13,0.21245907,-0.0864906,6.4410814e-13,-4.032315e-09,2.4148056e-13,0.36140862,0.3992779,-7.698731e-13,-2.5658147e-09,-1.4927644e-12,-0.43755952,0.18514003,2.4732644e-13,-9.809211e-10,-1.4986814e-11,0.002503811
-7.6078976e-13,0.12626216,-0.07344163,-6.0908974e-08,1.3311457e-10,-9.2614605e-10,0.021128215,1.2359084,0.045406308,0.055358343,-0.047015525,-3.678047e-07,0.12524159,7.003988e-07,-2.0268137e-10,-1.6331246e-10,-0.011346012,1.7838495e-06,0.5573025,-2.9126045e-13,6.631789e-08,1.4196852e-08,-1.5404328e-08,-2.9366903e-13,0.103370376,0.01200714,-3.0916564e-13,-1.1417589e-09,6.0377674e-13,0.07456928,-0.46074572,3.439661e-13,2.0140972e-11,-8.114261e-14,-0.022868356,0.021364123,-1.4619182e-12,7.128088e-11,6.6621535e-11,0.0041396585,6.0384933e-13,-0.029274307,-0.1212126,8.801796e-09,-6.8822517e-12,4.1011976e-09,-0.03620118,1.1674179,-0.10808462,-0.11115721,0.09797256,-2.529303e-07,0.71557117,-8.241002e-08,3.156318e-10,1.13466334e-10,-0.017557772,4.4566073e-06,-1.3236272,8.044338e-13,1.425581e-07,2.3969857e-08,1.2728643e-08,-6.264485e-14,-0.11025925,0.059648085,-3.684137e-13,-3.272321e-09,-6.7795303e-13,0.06475621,0.6095688,1.5088552e-13,-1.5630996e-10,3.2549506e-13,-0.12140812,0.22089896,1.3063107e-12,-3.7473324e-10,-1.4048553e-10,0.121448964
6.581914e-13,0.13928047,0.10588556,7.639365e-09,-1.3853951e-09,3.7806253e-10,-0.14027682,0.9040962,0.07262876,0.093608186,-0.093371846,-1.502915e-06,0.33706018,1.0327734e-06,-1.6516913e-10,-1.929741e-10,-0.22633772,-1.9180945e-06,0.6616145,3.6376447e-14,8.2348737e-07,-3.4910737e-08,-1.0687539e-07,-6.6163763e-13,-0.24150774,-0.08262754,-4.241586e-14,-8.414693e-09,1.8506979e-13,-0.39333203,0.089517325,-4.708856e-13,2.0816424e-09,1.0060922e-13,0.39909735,0.4717491,2.8958277e-12,3.0815872e-10,-2.6672398e-10,-0.1438192,-1.0659809e-12,-0.29027274,-0.08612364,2.648067e-07,-1.8514891e-10,8.459645e-09,0.2391262,1.2924556,-0.16568041,-0.093753606,-0.17036302,-1.8657763e-06,1.5537935,6.276784e-07,-1.8642755e-10,-1.0688452e-10,0.17750826,3.3447277e-06,-1.0128125,6.7548094e-13,5.039457e-07,-1.3795503e-08,-1.6368652e-08,-3.2054857e-14,-0.07235723,-0.21213426,1.456541e-13,-7.40722e-10,-5.642136e-13,-0.0658321,0.18198286,1.0459808e-13,4.9366182e-09,-3.950636e-13,0.13379896,0.4806753,-2.2978247e-12,8.876784e-10,-4.6351234e-10,-0.07562068
-3.9963876e-13,0.24106765,0.21021321,-7.290812e-08,6.488242e-10,-6.201439e-10,0.059641335,0.67558944,-0.01569389,0.13009334,-0.08757113,6.224551e-07,0.15881073,-9.684874e-07,-6.621646e-10,2.2017337e-10,0.092728674,1.4626058e-05,0.52857614,-1.26879e-12,1.1824854e-06,3.4706278e-09,4.0270113e-08,7.549907e-13,0.38213184,-0.06467495,4.566367e-13,4.611645e-09,1.293403e-13,0.3792606,-0.2148446,-3.8683187e-13,6.0186727e-09,-8.690983e-13,0.10140188,-0.17026731,-6.8084026e-13,9.403243e-10,4.3111978e-10,0.1232379,2.2711325e-13,-0.42523536,0.17310034,4.2972644e-08,9.757922e-11,8.0430995e-11,0.12753484,1.3426267,-0.105248034,-0.13015224,-0.042959124,2.0177363e-06,1.6385757,2.237632e-08,7.119157e-10,-6.393261e-11,0.18882242,3.5328628e-07,-0.88013345,-7.18954e-14,-2.1156023e-07,4.986881e-08,-4.9235787e-08,-1.250921e-13,-0.115264945,0.03317975,8.129699e-13,3.7456043e-09,-8.6709464e-13,-0.073028296,0.11926676,-5.714368e-13,4.773026e-09,1.8262711e-13,0.179403,0.19962919,1.4242552e-12,4.5941112e-10,5.3616375e-11,0.2283445
1.0567206e-12,-0.06365217,-0.10283228,-8.293642e-08,-6.7454414e-10,-4.2661363e-09,0.09637049,-0.034925494,-0.249953,-0.10524194,-0.010228489,1.4824734e-07,0.526322,-2.6707173e-07,1.1088161e-10,1.5263045e-10,-0.10734026,3.213773e-06,0.2240884,2.7668772e-12,-8.705346e-07,3.954534e-08,-2.7185527e-08,5.66338e-13,0.44084945,0.1336883,4.653796e-13,-1.8571227e-09,-4.96552e-13,0.047147986,-0.42246372,1.01378805e-13,1.954561e-09,2.4720352e-14,0.16936292,0.010762384,-1.7545247e-12,-2.9480912e-10,-8.114599e-11,0.035362702,-6.5977703e-13,-0.27837226,0.036840696,2.0216577e-07,2.4841812e-10,-4.7546667e-10,0.5626009,0.7160419,-0.09704645,0.10759445,0.122267745,-1.6998075e-06,1.5438858,3.908663e-07,-2.057158e-09,-1.3404235e-10,-0.10332133,-9.310896e-06,-1.0775622,2.36696e-12,7.238445e-07,1.0129481e-07,-5.8126158e-08,8.031687e-14,-0.010239625,-0.16934857,3.5130172e-13,1.4733458e-08,-6.139382e-13,0.09409375,0.111552045,-2.929425e-13,4.1790265e-09,4.2439316e-13,0.13398418,0.087205835,4.5533672e-12,-2.0685826e-09,2.7990393e-10,0.06585294
-9.15676e-13,0.28795663,-0.10453732,2.0957287e-08,4.7522736e-10,1.0685986e-08,-0.060089853,0.65529794,0.67121196,0.19996867,-0.12514633,-1.5896375e-06,0.47410095,9.425542e-08,-3.1080002e-10,9.405683e-11,0.353398,2.3738558e-06,0.002948819,-8.2504533e-13,-2.4461127e-07,-3.506876e-08,4.59824e-09,-2.8567562e-13,0.64004403,-0.27964252,-2.1728152e-13,-4.7861586e-09,-2.703968e-13,0.32274443,0.9746436,-1.9437146e-13,3.0454222e-10,-9.0311916e-13,0.28634867,-0.88315725,-2.1085922e-13,-1.9304278e-10,9.934659e-10,0.11756757,2.3102803e-13,-0.035184976,-0.30467102,-1.12004756e-07,-1.6171148e-11,2.3418907e-09,-0.04707338,1.0845237,-0.24540429,0.004343739,0.22508179,-1.2843002e-06,1.6338109,-7.2460927e-07,3.0080932e-10,1.6617138e-11,0.14876162,2.6488876e-06,-0.61497545,-3.8908416e-12,-3.0770443e-07,4.968049e-08,4.840616e-09,-1.6936542e-13,-0.5941747,-0.20093817,1.7336545e-13,7.529275e-10,-4.1062867e-13,0.33483237,-0.3334401,-2.389671e-13,-8.7705815e-10,-1.7994883e-14,-0.12720111,-0.14556628,1.4645312e-12,1.1058017e-09,-4.2865095e-10,0.22353698
-1.0614205e-12,-0.09870746,-0.530758,1.6491038e-08,3.448492e-10,-4.767318e-09,0.36160803,1.0452075,0.07886618,-0.21510702,0.27745262,2.87071e-07,0.2623015,-4.4979103e-07,-5.307629e-10,2.2135897e-11,-0.6594077,-6.854364e-06,0.10157838,-2.7432579e-12,-2.93541e-07,3.877815e-08,-1.4574519e-08,-2.6959283e-14,0.054255847,-0.13294336,7.460896e-13,-5.6596896e-09,-3.993279e-13,-0.02900967,-0.02326752,1.8685684e-13,2.8655804e-09,-9.99307e-14,-0.30026948,-0.052814584,-2.9186642e-12,7.185493e-10,-1.2624762e-10,0.08183296,-1.1660769e-12,-0.2609278,0.47802898,-7.734565e-08,3.2474387e-10,1.2710466e-10,-0.14814152,0.32364193,0.011097756,-0.003986609,0.21317868,9.2348495e-07,1.5801551,-6.1134915e-07,-2.2389288e-09,-1.8539018e-11,-0.15962222,-1.4612513e-05,-1.3090994,-4.8909175e-12,1.6836782e-06,-5.6947812e-08,-9.945526e-08,3.2292468e-13,0.50678205,-0.17219365,1.1532398e-12,3.3002562e-10,-4.605563e-13,0.08324405,0.2534363,-1.9386787e-13,4.3885146e-10,-2.1173926e-15,0.061367445,-0.3134615,-2.478982e-12,6.468083e-10,-3.567504e-11,0.45138147
1.1801825e-12,-0.19245337,0.27983737,9.938125e-08,-4.700886e-10,6.7849204e-10,0.26825747,1.0169,0.28423774,0.09252194,0.010148417,-3.367432e-07,0.51995504,-2.0465388e-06,2.9035047e-10,-2.8820943e-10,-0.19663236,-3.5293792e-06,-0.06801004,-1.4524832e-13,-3.6769381e-07,-5.8847483e-08,-1.2820276e-07,4.7647964e-13,-0.40301853,0.115896374,-3.5256948e-13,-7.554041e-09,4.2628553e-14,-0.15638696,-0.23355459,4.1803762e-13,-4.4019943e-10,1.7172232e-12,-0.028762743,-0.27083305,4.849018e-12,1.3662037e-09,6.1875693e-10,0.29854006,-1.4865726e-12,0.7359695,-0.21438913,1.2453106e-07,-2.610286e-10,4.702559e-09,-0.28210452,1.3505778,0.08528552,-0.07816512,-0.065891124,-1.4426703e-06,1.5281714,1.2711996e-06,-1.4179327e-09,1.8261945e-10,0.19517663,-8.69266e-07,-0.9616228,3.2193744e-12,8.6650226e-07,-4.8350465e-08,-7.962894e-08,-4.376447e-14,0.61260945,-0.042470388,-4.0941328e-13,-1.1348437e-09,5.158563e-13,0.06481546,-0.068837285,1.7076626e-13,-2.408464e-09,5.367153e-13,0.26733872,-0.22549233,-8.18554e-12,4.70512e-10,-1.9919821e-11,-0.29325503
2.772245e-13,0.15782265,0.08895707,-1.186736e-09,3.4547135e-10,6.3745014e-09,0.29650912,0.0022657327,-0.20882073,-0.20477834,0.031091252,-1.1570787e-06,0.6915591,-1.7364988e-07,2.8573602e-10,-7.963241e-12,0.22786102,7.671534e-06,0.40480238,1.1440955e-12,-6.707289e-08,2.4300267e-08,-2.8126124e-08,-4.735098e-13,-0.4669531,0.18457864,1.6031256e-13,-1.1584853e-09,4.246575e-13,0.068228155,0.40626702,-3.561369e-13,1.0391976e-10,5.845706e-13,-0.26515645,0.08276582,-1.7210528e-13,5.8447025e-11,4.3908255e-10,-0.12214572,-2.1007204e-13,0.07606915,0.052369043,-1.506743e-07,6.127616e-11,4.4573686e-10,0.22940595,0.8669854,-0.097735055,0.26328194,-0.012180528,-5.948992e-08,0.8744099,-8.09751e-07,-9.867418e-10,-1.2332592e-10,-0.19080704,7.957431e-06,-1.406634,-1.1381027e-13,-4.0631375e-07,-1.4836214e-08,4.2812143e-08,5.3786457e-15,0.13521385,-0.095330544,-6.8018963e-13,5.015933e-09,1.0374771e-13,0.06335353,-0.54855263,-1.4450317e-13,1.185587e-10,-3.427685e-13,-0.25505492,0.30176216,-8.8525124e-13,-8.18172e-10,-2.5151999e-11,0.16452013
5.578396e-13,-0.14774661,0.21352312,4.1212793e-08,1.0825685e-09,-8.185739e-09,0.0597613,-0.2943647,0.13868026,-0.082965165,-0.04625646,-2.2810937e-08,0.29072413,6.7930864e-07,-9.358848e-10,1.762673e-11,0.50250775,6.749656e-06,0.5995577,-5.311086e-13,1.4524308e-06,9.266318e-08,-1.4105421e-08,3.7326712e-13,-0.56069547,-0.1268015,3.844191e-13,-1.4936006e-09,-1.2637e-14,0.008727711,-0.2361727,-3.1191223e-14,3.1175267e-09,-2.0831091e-13,-0.10684237,0.6361575,-6.827038e-13,1.445978e-09,1.5565851e-10,-0.41444707,1.7228344e-12,-0.40044615,-0.30407685,-7.450145e-08,-1.7394236e-10,-5.708009e-09,0.16629687,0.14377768,-0.06475829,-0.011461579,-0.08933306,-2.1773744e-06,1.6264179,4.4143775e-07,3.3876335e-10,1.9712551e-10,0.0943777,-1.0993636e-05,-1.4046685,3.0979763e-12,7.695322e-07,6.238655e-08,5.038668e-08,4.6984335e-14,0.21577898,0.14539127,9.770803e-13,1.3776327e-08,-3.1120362e-13,0.2729251,-0.13312888,-2.0951128e-13,3.036826e-09,-7.663773e-13,-0.9136759,0.4943669,-2.1335277e-13,-5.818319e-10,-8.986864e-11,-0.26306796
-3.2415943e-13,-0.30782515,-0.3267976,1.9747006e-07,1.1686333e-09,5.1477036e-09,0.035510488,-0.48468706,-0.21871379,-0.12553565,0.02016326,9.1031666e-07,-0.46450344,-4.5318933e-07,-2.9756873e-09,-4.0566838e-11,-0.80749047,-5.5045134e-06,0.8351638,2.2890786e-12,-1.6105733e-06,4.8408346e-08,-1.1795722e-07,7.7985063e-13,-0.7097126,-0.021949828,7.0813456e-13,-4.10345e-09,3.8307946e-14,0.0215776,-0.95577383,-1.8043742e-13,-5.0713194e-09,-6.4354945e-13,0.10566218,0.26632684,-2.9981094e-12,1.0465501e-09,1.1228152e-10,-0.39442915,-1.5078006e-12,-0.16788141,-0.10435886,6.034248e-09,-1.210875e-10,5.6683493e-09,-0.47556588,0.50504416,0.35242113,0.24372223,0.17796658,-2.411495e-06,1.6109271,2.7154597e-06,-8.582604e-10,-1.5537165e-10,-0.4728128,-1.0350299e-05,-0.9813856,-1.993145e-12,1.5265769e-06,7.6609204e-08,-1.6949398e-08,2.6029659e-13,-0.9173291,0.12308406,1.2186533e-12,1.5821065e-08,-4.0285134e-13,0.3569786,-0.050503016,-7.3590515e-13,5.710634e-09,-7.042412e-13,0.1355859,1.2764256,1.1499005e-12,-1.0383433e-09,-2.720803e-10,-0.2648399
1.8674152e-13,-0.19168946,-0.18276761,-5.2058986e-08,-9.105124e-10,-6.654105e-09,0.33406502,-0.3658343,-0.053969383,-0.025954336,0.004067843,-5.6520832e-08,0.9272523,-2.4384794e-06,1.2178644e-10,2.472423e-10,0.22641177,-1.0076649e-06,0.49116978,-2.1163698e-12,5.9046806e-07,-1.2682646e-07,-3.5869725e-08,-2.5989513e-13,-1.040286,0.19474092,-4.807852e-13,-1.6539008e-09,-3.424851e-14,-0.1640148,0.69829506,-2.998745e-13,4.9500217e-09,9.47375e-13,-0.2424525,0.6068823,-2.034567e-12,-1.1957032e-09,8.128941e-10,-0.11597707,8.700636e-13,-0.30235213,0.397536,-9.671396e-08,-7.286033e-11,-2.3787345e-09,0.25094408,0.4691687,-0.17164278,0.22264232,-0.051426098,-2.594112e-06,1.5571625,-1.8716571e-07,1.5689235e-10,1.6103303e-10,-0.1427353,-1.9982301e-06,-0.9521251,2.4702866e-12,-2.1989008e-06,4.736051e-08,-8.837649e-08,2.7700528e-13,-0.80055386,-0.08528057,1.3006561e-13,-3.06161e-09,1.0260727e-14,0.14657773,0.40684843,-5.790184e-13,-5.765236e-09,1.1269992e-12,0.13021575,0.5679178,3.2276384e-12,-4.5379756e-10,2.6802988e-10,0.047658265
-1.5269687e-13,-0.64483,0.24254934,-1.6641121e-07,9.540417e-10,3.0279731e-10,-0.28179014,-0.4485897,-0.20960732,-0.3201481,0.13120846,2.3003035e-06,0.7661082,-2.3420614e-07,-1.253322e-09,-6.3100636e-11,0.33600795,-3.4686411e-06,0.438578,-7.388112e-13,1.677318e-06,-6.599321e-10,-3.6804906e-08,2.9741357e-13,-0.5951381,0.04280871,-1.3627408e-13,4.5709536e-10,1.3183357e-12,0.2782583,0.51467943,2.529169e-13,-1.5467506e-09,7.702817e-14,0.86403686,-0.023185436,-2.1645704e-12,1.0096842e-09,-8.418884e-10,0.088428326,-6.569771e-13,0.20177917,0.32002,-1.1176595e-08,-2.0623253e-11,2.2921651e-09,-0.43028337,0.115806065,0.025537368,0.13921888,-0.30617213,1.9053817e-06,1.7410659,-1.9034248e-06,-6.437348e-11,-5.4253685e-11,0.6458838,2.5195707e-06,-1.1239946,1.7195823e-12,-3.2133532e-06,-9.2751954e-08,4.6140425e-09,-7.8432204e-13,-0.5671886,-0.20300505,-1.1990888e-12,-1.4403154e-08,-3.4480868e-13,-0.11921696,0.24020408,3.249304e-13,7.1243667e-10,-6.607208e-13,0.13938656,0.5145257,-1.7926719e-12,-6.505328e-10,2.9459296e-10,-0.10456137
6.199432e-13,-0.47808063,-0.17120397,6.662915e-08,-8.2885077e-10,-2.1077773e-09,0.4837745,-0.31859437,-0.33166724,-0.15397607,-0.09859298,-1.3091583e-06,-0.19674388,-2.096479e-08,-2.7159391e-10,-1.9122723e-11,-0.17710774,-1.4152989e-05,-0.2582478,-1.9089903e-12,-8.3491153e-07,1.3649563e-08,-6.0227805e-08,-6.6084383e-13,0.023677934,0.23237409,1.3141045e-13,-8.642769e-10,7.922212e-13,0.016624236,0.07885971,4.9185184e-13,-3.951752e-09,-5.8991456e-13,-0.33011526,-0.24652682,1.3866602e-12,-8.224101e-10,-9.242247e-10,-0.090248026,-1.0067126e-12,0.5355604,0.1444751,3.9701995e-08,-1.166885e-10,3.6917054e-09,-0.048496,0.062354956,-0.11723463,-0.04076623,0.13410352,1.4481793e-06,1.5678711,-2.0971072e-06,1.0278001e-09,-4.4907897e-11,0.33024228,-1.7260852e-06,-0.90718734,2.9822297e-12,-4.744489e-07,-1.5044107e-07,9.704554e-08,6.1202877e-13,-1.1698046,-0.16822906,-9.562641e-13,8.690033e-09,-4.0477875e-13,0.2647585,-0.0106742475,3.2723737e-13,3.0047358e-09,1.8461128e-13,-0.29787785,-0.13468836,-2.4643248e-12,-3.509529e-10,4.029607e-10,-0.15791686
6.2959447e-13,-0.19233483,-0.15905079,3.9713655e-08,9.560663e-10,-3.4795916e-10,0.04834602,-0.73980254,-0.027430119,-0.14749877,0.13702814,1.3939215e-06,0.56618804,-1.1783628e-06,5.009647e-11,-1.3176528e-10,0.1405955,3.780823e-07,0.24525021,9.409008e-13,-5.4747045e-07,-3.0877978e-08,6.680442e-08,-5.85586e-13,0.27979317,-0.12120211,2.7842377e-13,3.6633374e-09,-6.802358e-13,0.047859192,0.7199474,2.900235e-13,-1.5208298e-09,2.717699e-13,0.13766809,0.13814065,-1.5814974e-12,-2.1652682e-10,-3.3150294e-10,0.08922355,1.3996089e-13,0.40612215,0.20434952,7.7269426e-08,-3.6527403e-10,1.9258624e-09,0.12006488,0.28128597,0.17479385,-0.058766503,0.10405967,2.1182157e-06,1.4026463,-5.12929e-07,-2.7095576e-10,-4.9256637e-11,-0.15401445,-6.9009195e-07,-0.6109223,-3.5055361e-12,-6.638382e-07,7.450987e-08,-7.145513e-08,5.9374435e-15,-1.0766903,0.07754133,-6.280803e-13,6.671337e-09,-9.605374e-13,0.062374845,-1.1940848,4.5876253e-14,2.5232452e-09,3.079906e-13,-0.35641277,-0.26929885,3.6219465e-13,9.6329104e-11,8.113911e-11,0.021708062
9.674681e-13,0.13113078,0.07628826,-2.1458641e-08,-5.8191446e-10,-6.9818684e-09,0.2349757,-0.4399668,-0.088674635,0.21203727,-0.0070956685,-3.7771446e-07,0.08698255,-1.8224556e-06,9.784936e-10,1.5127197e-10,-0.044783965,9.873487e-06,0.06251422,2.0219655e-12,-8.277068e-08,5.3162573e-08,1.3224076e-07,-1.4839397e-13,0.4181103,-0.007671117,1.0357112e-13,2.0952062e-09,3.391732e-13,-0.005268881,0.46028912,5.80344e-14,3.1554777e-09,1.8167664e-12,-0.015504342,-0.09864885,1.945246e-12,-2.972707e-10,-2.8383368e-10,0.0032886267,6.149935e-13,0.21855067,-0.29357585,-4.4333746e-08,-3.19463e-10,-5.4584215e-10,0.20521855,-0.3709353,0.054180212,-0.019538647,0.07792106,2.130272e-06,1.4305139,2.6159282e-07,6.3170813e-10,1.3633475e-10,-0.15399598,-4.2286883e-06,-1.1415433,-3.1131243e-12,-7.0206863e-07,1.683511e-07,-1.3248973e-07,3.5624162e-13,-0.86440086,0.012923065,4.7434387e-13,8.5054594e-09,-1.1320396e-12,-0.062259197,-0.08723083,-9.864185e-14,1.71873e-09,-1.8150943e-13,-0.5343399,-0.62005866,1.210579e-12,-8.669534e-10,-4.0120668e-10,-0.13628751
-8.312293e-13,0.31081504,-0.06332019,9.933444e-08,7.6343065e-10,7.0555806e-10,0.19861846,-0.2979024,0.26332328,0.085990496,-0.12222328,-5.7772628e-08,0.14297248,1.0350652e-06,-3.9648573e-10,-2.1445574e-11,-0.1296729,9.852413e-06,-0.2431685,-1.2474423e-12,-1.2961112e-07,1.8290613e-07,-3.2043125e-08,2.784453e-13,1.1244015,0.07375629,-1.3469228e-13,4.117025e-09,-4.6663614e-14,0.16123481,0.21124363,5.8631767e-13,1.928529e-09,1.363382e-12,0.030524982,-0.08471259,1.3742318e-12,-1.7612539e-09,7.859409e-10,0.5159034,-1.3627933e-12,0.46793237,-0.12600258,6.06794e-08,6.848424e-11,-7.122678e-09,-0.17979093,-0.3565148,0.043723755,0.123554334,0.10485004,-1.0493352e-06,1.5965497,-4.9086185e-07,-4.487951e-10,3.1172578e-10,0.103236265,3.6518325e-06,-0.7285733,1.7246017e-12,1.0588994e-06,1.1985163e-08,-3.1641388e-08,2.8286623e-13,-1.342657,-0.031314578,6.3130724e-13,1.0374345e-08,4.651501e-13,-0.3866551,-0.061073624,2.5532121e-14,3.5428427e-10,-6.071527e-13,-0.3737536,-0.47764248,1.3656286e-12,1.1004243e-09,2.5440927e-10,-0.1843162
-1.337935e-12,-0.36756164,-0.36325336,5.950136e-08,4.938742e-10,2.0676083e-09,0.18842143,-1.0472654,-0.026745154,-0.05948665,0.07759718,-3.8492757e-08,-0.13744204,1.1117453e-06,-1.2213721e-09,2.8900138e-10,-0.12877484,-2.3410437e-05,0.10981788,3.2556863e-12,1.1694474e-06,5.3710192e-08,6.404842e-08,-2.2786785e-14,0.71638405,-0.08971172,-8.7600494e-13,2.8647623e-10,2.1912691e-13,0.17103039,0.034671847,3.894413e-13,2.0086945e-09,-5.944165e-13,0.20142859,0.269182,-2.5928088e-12,-1.0833675e-09,-3.5039951e-10,0.5143302,-5.6620247e-13,-0.4988247,-0.1166795,-1.4306988e-07,3.287815e-10,-3.1172571e-09,0.15955767,-0.3834958,0.15644512,0.15293889,-0.010445305,-2.7547633e-06,1.55034,8.951568e-07,8.634975e-11,-5.6537202e-11,-0.35276142,-4.5135057e-06,-1.5419699,2.4213997e-12,-2.2247996e-06,-1.727975e-08,-1.1440706e-08,4.5524977e-13,-1.362202,-0.0797582,-2.452282e-13,2.7702987e-09,9.540916e-13,-0.028250653,-0.049258716,-5.0146925e-13,4.6948445e-09,-5.6100014e-13,-0.7696222,0.05736159,-3.4246221e-12,-2.6762653e-10,-4.3825513e-10,-0.16052012
5.044575e-13,-0.23739977,0.0042865644,-1.7066665e-08,6.062241e-10,2.1098954e-09,0.013812696,-1.1539229,0.64022434,-0.03355027,0.011229384,-1.8678033e-06,-0.309412,2.310183e-06,-6.2078315e-11,-1.8782574e-10,-0.12081388,-2.1987285e-05,0.23269074,-9.905802e-14,8.137829e-08,3.559224e-08,-2.634902e-09,4.3944508e-13,1.0821807,-0.38581657,-1.0279993e-13,2.5989406e-09,7.0000944e-14,-0.053535223,-0.03189117,-4.2935019e-13,-7.3674498e-09,4.9940835e-13,-0.09869803,0.090882085,1.6643725e-12,-8.0092877e-10,-1.5356115e-10,0.08436632,2.574529e-13,0.33164206,0.3369557,9.7897555e-08,-7.3217155e-11,2.574159e-09,0.14662008,-0.45075917,-0.04902001,0.008790277,0.06897127,-2.5560444e-06,1.5739827,1.4505913e-07,-1.0872862e-09,2.6073022e-10,0.10562416,3.3363542e-06,-0.7920552,-7.658609e-13,1.5234332e-06,1.3518542e-07,-2.8353188e-08,2.2488254e-13,-0.91404015,-0.21227825,-5.6838984e-13,-5.2261884e-10,-1.90122e-13,-0.3501544,-0.21258742,-1.3119452e-13,-3.0401257e-09,8.435027e-13,0.052117016,-0.044942543,5.077307e-12,6.0789607e-10,7.992663e-10,0.18990938
1.952716e-12,-0.39337483,-0.04541841,4.4994692e-08,-1.0431629e-09,2.9451104e-09,-0.1622465,-0.44813862,-0.05178124,-0.19551499,0.038621716,-1.2988916e-06,0.033391494,1.0605143e-06,7.954831e-12,-5.5398997e-10,0.6238541,2.0502144e-05,0.07485444,3.6535526e-13,2.6315348e-08,-4.2453433e-08,1.08725615e-07,-2.4471899e-13,0.45227835,0.1433893,-1.0996593e-12,8.685852e-11,-3.9528625e-14,0.2433817,-0.19552276,5.8585255e-13,2.5896107e-09,-1.126601e-13,-0.079729475,-0.7150506,-3.520671e-12,6.2881444e-10,1.0318001e-09,-0.07502894,-1.1922383e-12,0.48069966,0.2505409,7.3052824e-08,-6.428553e-10,5.0038174e-10,0.04953334,0.016232997,0.08684521,0.20933315,-0.09054177,1.53459e-06,1.454745,-5.88125e-07,1.5003054e-09,-1.0236818e-10,-0.08785656,-1.1320054e-07,-0.91092724,-5.048903e-13,-2.9289174e-07,-4.1784556e-08,-2.7055506e-08,-5.7804916e-15,-0.2234283,0.009997078,1.1957204e-12,-1.4402373e-08,-2.6040276e-13,0.3061038,0.08794621,7.2032034e-13,6.0455854e-09,-4.5687195e-13,-0.05116421,-0.39786932,2.5877668e-12,-3.5561235e-11,-3.5332987e-10,-0.17390184
-7.096302e-13,0.15765487,-0.011445647,2.9171893e-08,3.5160205e-10,-6.666848e-09,-0.1687522,-0.69168556,-0.024127353,-0.10913399,-0.028847855,1.5904199e-08,0.04626324,-1.0132611e-06,-1.0004383e-09,1.5685643e-10,0.028270517,-4.1475623e-06,0.47137687,1.8741061e-12,-1.3966482e-07,4.931549e-08,2.0528713e-08,-1.611409e-13,0.95705676,-0.04951165,-9.818174e-13,3.7114145e-09,-1.3158202e-12,0.10707644,0.07727586,2.346678e-13,-3.9785727e-10,1.4564619e-12,0.16247094,0.0466642,2.99432e-12,-3.1591485e-10,9.2358865e-10,0.067964576,2.675811e-13,0.05489174,0.15854979,1.8667036e-08,-1.2421161e-10,-2.4520592e-09,0.3473666,0.40076667,0.025686437,0.041258745,-0.103380255,1.811751e-06,1.6084942,2.9147043e-07,1.4509344e-09,-1.262737e-10,-0.12690644,1.3085122e-05,-0.5798153,-5.493635e-13,-2.7778793e-07,-5.0253686e-08,3.030466e-08,5.285323e-15,-0.3234979,0.17835815,-5.708561e-13,-8.183408e-09,3.0298092e-13,0.18916492,-0.36358002,-3.672061e-13,-3.0299594e-09,1.0326614e-12,-0.49569032,-0.33347479,2.9325537e-12,-2.452604e-10,-1.3763921e-11,0.14397095
5.4931233e-13,-0.20163865,0.07867101,-3.2491396e-09,-7.2545914e-11,-9.092599e-09,-0.023534993,-1.1827143,-0.33250508,-0.04858873,0.024124138,-1.157553e-06,0.88597995,1.1543216e-06,-3.692669e-11,9.5961614e-11,0.20484956,-3.915433e-06,0.66381997,3.83086e-12,-1.8435443e-06,2.7120114e-08,2.368072e-08,-1.6576042e-14,1.0272816,0.103773326,-4.077495e-13,5.9105436e-09,-1.366929e-13,0.07038271,-0.46052402,-4.4629372e-13,6.4150387e-09,-2.709498e-13,0.20877439,0.38960868,1.3999349e-12,1.36549e-09,2.5112662e-10,-0.5200811,-6.426047e-13,0.035194926,-0.27692577,-1.4343141e-07,-2.0791666e-10,1.7921875e-09,-0.06379747,0.14423904,-0.051587604,-0.14796227,-0.04311798,-2.7772292e-06,1.4270532,1.4776825e-06,-8.435029e-10,3.671879e-11,0.0453275,1.2919425e-05,-0.81958765,2.8681614e-13,-4.882472e-07,5.2895622e-08,-1.8400335e-08,-4.4283978e-13,0.0009460356,-0.031168714,-9.423005e-13,7.911858e-09,5.378477e-13,0.021273734,-0.96149147,2.40455e-13,-6.7480965e-10,1.2590397e-12,0.35045627,-0.49278396,-1.4490238e-12,4.5908694e-10,5.7043058e-11,0.045512147
-1.6449797e-13,-0.06796334,0.23084232,-1.8476568e-07,-3.086275e-10,6.3667667e-09,0.020355484,-1.1691058,0.012595567,-0.006001711,-0.05029617,3.7267395e-07,0.115162,2.7123328e-06,3.5611167e-10,-4.244071e-11,0.53360754,-4.4756084e-06,0.41032082,-2.028735e-13,-2.0773444e-07,-3.9187377e-08,-3.8885826e-08,-1.1671754e-13,0.18871492,-0.001968273,2.2348627e-13,1.0062053e-09,-1.7245672e-13,-0.23206611,0.7873773,-5.21626e-13,-2.3518185e-09,5.014509e-13,-0.11923324,0.19275899,-7.702944e-13,-1.0010482e-09,-2.6489624e-10,0.036276307,-1.0309767e-12,0.066777214,-0.09816328,1.4154477e-07,-1.8575216e-10,-7.2120967e-09,0.33861044,-0.45285377,-0.073543556,0.17433077,0.10857728,-1.9371504e-07,1.3735853,-9.258053e-07,-2.204518e-09,8.3429874e-11,-0.054312374,1.27777785e-05,-1.2970347,-3.41965e-12,4.672271e-07,-1.5756702e-07,-1.9601648e-08,-3.943592e-13,-0.3371277,-0.060890567,-4.3782198e-14,-1.2544707e-09,-1.175984e-12,0.25815973,-0.42542806,-6.42371e-13,2.5113245e-13,-1.00966036e-13,-0.19828723,-0.4630983,-2.131264e-12,1.2696462e-09,2.2229954e-10,0.015078427
-1.0252255e-12,-0.2524426,-0.23023506,-1.1843555e-07,-2.913373e-10,5.2787055e-09,0.13239212,-0.97870255,0.19321588,0.063951686,0.114662364,1.07892966e-07,0.59986126,2.2420832e-07,-7.613078e-10,3.826953e-10,-0.061935846,3.581087e-06,0.5578489,-1.4800925e-12,3.3519854e-07,1.9681561e-08,7.4363015e-08,1.1565237e-13,-0.46645686,-0.108102046,-4.6155733e-14,-4.3144344e-10,2.7583356e-13,-0.0072702784,0.9869046,-4.1944535e-13,5.029184e-09,1.4851732e-13,-0.34877414,-0.010887811,2.7936234e-12,3.6856268e-10,-5.9300703e-10,-0.15471864,-1.0147791e-12,0.18180256,-0.23066634,8.49827e-08,-2.0336498e-10,-2.997154e-09,0.22035912,-0.19667494,0.007266343,-0.17625655,-0.055542435,-1.7199852e-06,1.3241104,5.0023766e-07,-6.352214e-10,6.157791e-11,-0.3863363,1.1184472e-05,-1.0809894,1.6827202e-12,4.3749974e-08,1.14126735e-08,1.0743379e-08,5.3396306e-13,-0.6422162,0.04678107,5.0207977e-13,5.421723e-10,2.8197795e-13,0.38726512,-0.32711267,3.1527293e-13,9.733399e-10,-3.6936104e-13,-0.11319962,0.020800618,-6.811625e-13,-1.2487519e-09,-1.9167035e-10,0.14722268
3.3237248e-14,-0.148688,0.043090288,1.3025854e-07,4.3936838e-10,-1.20183445e-08,0.23897901,-0.28229317,-0.3805917,-0.31507006,0.10307099,2.870519e-07,0.15702215,-2.3492507e-06,-1.7877388e-09,-1.1615786e-10,0.41132295,1.4545541e-05,0.75786835,9.787439e-13,2.2056865e-06,4.4636018e-08,-9.1716316e-08,-2.0808366e-13,-0.17778838,0.021107554,5.6283136e-13,-1.0023946e-08,6.1715916e-13,0.36769557,0.1297941,-5.0814995e-13,3.5215413e-09,-9.426574e-13,0.12524192,-0.47127026,-1.3426194e-12,-3.5574688e-10,-7.4951345e-10,-0.22781302,1.8638572e-12,0.40255135,0.5090301,-2.2619545e-07,-9.0206086e-11,2.6022147e-09,0.546095,0.22963148,0.046043694,0.5202714,0.21242206,-3.3742563e-06,1.857736,3.3033937e-06,-1.9653865e-09,8.9696084e-11,-0.49899244,1.6358634e-05,-1.2062542,-1.0925885e-12,1.3872608e-06,2.4609431e-08,-1.3518084e-07,4.1465938e-13,-0.51438785,0.027145874,1.0994539e-12,7.970864e-09,-1.5910103e-13,0.08776372,0.08288544,-3.243239e-14,-1.0348037e-09,5.801438e-13,-0.29210067,-0.41254228,5.6575513e-14,1.512087e-10,1.5533061e-12,0.20847826
-4.9856744e-13,0.13041082,-0.04374285,-7.873385e-08,-1.2457241e-10,4.2728088e-09,-0.0139927305,0.13529424,0.25550792,-0.15519077,0.026375094,-2.6536796e-07,-0.7292717,7.1711617e-07,-4.4522205e-11,-3.645357e-11,-0.22745278,8.856717e-06,0.068507604,8.377322e-13,1.1546605e-07,-5.793847e-09,8.519257e-08,-5.686435e-14,0.2145005,0.101730354,-6.416094e-13,4.811056e-09,7.9241046e-13,0.22952905,-0.2531966,6.579733e-13,9.910027e-10,4.664261e-13,-0.76603866,-0.32556328,2.313177e-12,7.3971673e-10,-3.4251285e-10,0.41341323,-1.2670572e-12,0.20719808,-0.15162347,-9.462115e-09,1.5259143e-10,-3.2343173e-09,0.31982234,0.34940657,-0.2128635,0.050181508,-0.16392346,-9.465823e-07,1.4863987,-4.861114e-07,1.2055804e-09,8.435269e-11,-0.040516432,1.1718928e-05,-0.158394,1.0716688e-13,-1.0617967e-08,1.11992335e-07,6.590552e-08,-1.363288e-13,-0.21162517,0.07352751,1.2824623e-12,2.1365093e-08,-1.0382483e-14,0.64214104,0.4174932,-4.937098e-13,3.5429173e-09,-4.871775e-13,0.07284576,0.18768127,2.1979233e-12,2.0926165e-10,2.6027638e-10,-0.17306048
2.762469e-13,0.24118564,-0.18021102,5.5559443e-08,-4.4832593e-10,-2.097891e-09,-0.173628,-0.01685021,0.09951619,-0.09208958,0.042898487,-3.17617e-07,0.003688172,3.140691e-06,2.1256557e-09,4.3060877e-10,-0.010209663,7.0376445e-06,0.666376,-2.3941144e-12,4.2172883e-07,-1.5526234e-07,6.316469e-08,-6.848565e-14,1.1763685,0.05730705,-1.1900759e-13,4.015361e-09,-2.6851573e-13,-0.42924178,-0.14902076,-1.3711244e-14,2.3260605e-09,-2.7461258e-13,-0.16080113,-0.20476824,-3.8816294e-12,-1.7251698e-09,-4.232481e-10,0.029864904,-1.8879618e-13,0.03411233,0.12887739,-1.7318918e-08,6.5495653e-10,2.6235065e-09,0.410425,0.5748489,0.0860561,0.02223902,-0.118643165,5.592076e-07,1.575819,8.6896125e-07,-2.2577575e-09,-1.791684e-10,0.0729241,1.2723199e-05,-0.5219953,1.151388e-12,1.7809317e-06,5.1460542e-09,-1.0022814e-07,-2.5798976e-13,-0.30641344,-0.066941954,-1.0516691e-12,6.00781e-09,-1.3331143e-13,-0.011874378,-0.31979454,-6.255471e-13,-3.6687647e-10,-8.5500064e-13,-0.41125014,-0.05708606,1.6575825e-13,3.1345665e-10,5.936635e-11,0.22160073
4.5711075e-13,0.24443428,0.026008293,-5.2499487e-08,-1.2370742e-09,2.1313775e-09,0.070533216,-0.58332515,0.23127711,0.017071012,-0.026577758,-3.0892818e-07,0.32280767,1.5222658e-06,2.955461e-10,1.5088766e-10,-0.1383905,1.540613e-05,0.39457428,-1.7702033e-12,-5.142009e-07,-3.2171897e-08,-6.848137e-08,-3.499788e-13,0.71414137,-0.22238083,6.0756494e-13,6.136744e-09,-1.1644017e-13,-0.21853599,0.114718385,-4.4734079e-13,-6.9684667e-09,-6.048922e-13,0.14554845,-0.24317743,4.873963e-12,-7.1353207e-10,-7.824463e-10,-0.14146967,-8.260933e-13,0.66286224,0.23295823,-1.499024e-07,2.7090064e-10,-6.3945595e-09,0.09176898,0.07115102,-0.05584144,0.08473466,0.14280519,-1.5041461e-06,1.7703173,1.7852116e-06,9.403028e-10,-1.140453e-10,0.2773718,-8.328164e-06,-0.95328367,1.1161919e-12,-2.1162984e-06,-3.1301816e-08,1.1541385e-07,8.424725e-13,-0.89577013,-0.1306984,3.7194808e-13,1.0096198e-08,2.9212342e-13,-0.3544952,-0.8152664,-1.6868042e-13,5.312721e-09,2.866945e-14,-0.2671039,-0.24070235,2.7584684e-12,1.5610847e-09,1.5647206e-10,0.1600097
-2.6634174e-13,-0.33665732,-0.5209063,4.492532e-08,2.0893326e-10,-4.9330415e-09,0.31482187,-0.8448253,0.29683957,0.046807688,0.55866104,1.7959719e-06,-0.12898576,-1.5424542e-06,5.7216254e-10,-2.6761085e-10,-0.75832534,2.5247086e-06,0.51884824,-8.1219666e-13,-9.994077e-07,-1.0378914e-07,2.1889478e-07,-7.555702e-14,0.65872663,0.254592,1.000242e-12,5.477758e-09,1.9855829e-13,0.13089436,0.5937187,-2.993289e-13,2.601954e-09,-6.1748236e-13,-0.71849215,-0.64939535,-3.2974775e-12,1.1678569e-09,-3.7987802e-10,0.3344511,-1.1194309e-12,-0.0498257,-0.08595221,5.716422e-08,-4.550032e-10,-2.6556142e-09,-0.19951312,-0.07282238,-0.1106665,0.11233808,-0.17428465,1.7514435e-06,1.50221,5.642641e-07,-8.347555e-10,2.358856e-10,-0.36008635,-2.8856555e-06,-0.9940701,1.893071e-12,7.1669615e-07,-1.8301361e-07,-7.433743e-08,4.5873635e-13,-0.91183454,-0.4873692,7.9853886e-13,-3.6419243e-09,9.391606e-13,-0.94613224,0.5124513,3.556327e-13,-3.0526897e-09,7.1687816e-13,0.30497423,-0.18564457,-4.32013e-12,2.2782795e-10,5.08846e-10,0.21268378
1.3355915e-12,0.4026694,0.05355823,2.0744521e-07,-6.049385e-10,-7.1499353e-09,-0.11746633,-0.08147963,-0.10345169,-0.1135875,-0.09801909,-6.970052e-08,0.012164224,1.5929953e-06,-1.6382191e-09,-1.1233715e-11,0.52177477,1.0404163e-05,0.13882034,-1.6588346e-12,-1.0115735e-06,1.6254948e-07,-3.889242e-08,-7.270712e-13,0.28178373,0.18769395,-5.761594e-13,-3.2188667e-09,-7.7804446e-13,-0.098695576,-0.5049234,5.361354e-13,-1.7583754e-09,-6.247693e-14,0.16854297,-0.046808444,-1.4317484e-12,2.7933107e-11,-4.13806e-10,0.047981586,3.294602e-13,0.23337027,0.053885225,-6.553837e-08,6.884433e-11,-1.1029877e-09,-0.29581028,0.22692068,-0.17129554,0.118517846,-0.0032403516,-1.1142185e-06,1.7291133,-1.740534e-06,1.2495333e-09,1.4849273e-10,-0.04709207,-1.0676377e-05,-0.95224863,-3.7827415e-12,-2.7429115e-07,-8.2898005e-08,5.658477e-09,-1.9378634e-13,0.40558857,-0.055907723,5.897582e-13,1.8909077e-09,-4.040918e-13,-0.2079103,-0.27426448,-2.9830766e-13,-1.4885796e-09,-6.663066e-13,-0.53083575,-0.20305319,-9.844417e-13,-8.4906926e-10,2.3348093e-10,-0.0068809735
1.0329688e-12,0.060518987,-0.23223796,-2.3387626e-08,3.5120176e-10,8.299184e-09,-0.10634545,0.31467363,-0.034344517,-0.06259392,-0.024838824,-7.165804e-07,-0.121263705,-1.4177675e-07,2.1825572e-09,-1.2467281e-10,-0.02069076,-2.3589942e-06,0.52152205,-1.5808229e-12,6.7659994e-07,4.9173767e-09,1.1303423e-07,2.0887242e-13,0.47621942,-0.11956972,-1.8342185e-13,-1.1504318e-08,-2.7806506e-14,-0.36103648,0.23736954,-2.601451e-14,-6.755282e-10,-9.278834e-13,-0.030320363,-0.07542791,4.6690126e-13,-1.4713815e-09,8.518786e-10,0.39111185,7.0181e-13,-0.2225994,0.3842907,1.4298025e-08,-2.0681534e-10,-3.175777e-09,0.079474576,-0.14416759,-0.010064333,0.08720758,0.10021645,-4.811134e-07,1.6456802,-3.603916e-07,8.356849e-10,-2.340586e-10,0.044911426,1.3609871e-05,-1.3921576,1.6547015e-12,-7.8577943e-07,-8.9828134e-08,4.2306647e-09,4.5656285e-13,-0.06585575,0.018672805,-3.3913993e-13,-3.8965284e-09,3.4071856e-13,0.16010089,-0.001966198,4.9433385e-13,-2.621044e-10,4.6198375e-13,0.062064588,-0.14439984,-5.4472308e-12,6.5266836e-10,3.4019235e-11,0.2124328
-9.780463e-13,0.058120023,-0.07805662,-2.2991826e-07,2.8549375e-11,6.5349093e-10,-0.08489377,0.24709944,-0.30801633,-0.07719964,0.049737595,-1.8392063e-07,0.25370488,4.346689e-07,-1.3581641e-09,2.1031499e-10,0.10860313,5.066965e-06,0.30095768,-2.9400625e-13,2.2676628e-07,7.820929e-08,1.0968931e-07,-4.4941237e-13,0.68743974,-0.067875005,6.4106495e-13,2.2208027e-09,-6.908531e-13,0.04440429,0.57825494,-1.295093e-13,-5.0690807e-10,4.3926657e-13,0.47307962,-0.2676518,2.5998273e-12,-2.0363752e-10,1.0195926e-09,-0.18900003,1.5924683e-12,0.33271378,0.25626194,-8.492654e-08,1.6519368e-10,2.7346638e-09,0.09920667,-0.008473868,0.25028834,0.25039265,-0.041862957,-1.2066068e-06,1.5160811,8.7747327e-07,-4.1738213e-10,4.3656422e-11,-0.21499956,4.573084e-06,-1.6577811,-1.2427114e-12,2.2301467e-07,1.4228553e-07,-4.0140748e-08,3.0137988e-13,0.18075383,0.25125355,-1.1473765e-12,5.1656963e-09,7.5031474e-13,-0.13250192,0.8793572,1.5869456e-13,1.1568064e-09,6.6690083e-13,-0.18937115,-0.09871437,8.3975426e-13,9.92469e-10,-3.438388e-10,-0.21698588
6.1193807e-13,0.4119889,-0.0061928537,1.2579764e-07,-5.6638855e-10,5.620492e-09,-0.0014933171,0.044978928,-0.035240117,-0.03658703,0.07384529,-9.11038e-07,0.09164788,7.692968e-07,-4.010204e-11,-2.150434e-10,0.2364787,9.78798e-06,0.21038409,5.6718535e-13,-1.7951943e-06,6.7636527e-09,-7.4710655e-09,-3.8142455e-13,0.4618164,-0.13189946,-3.7321318e-13,-1.69719e-09,7.654991e-13,-0.11583218,0.023230905,2.2108064e-13,-8.3669793e-10,-6.663423e-13,-0.38448662,-0.19705096,9.03919e-13,3.878595e-10,-9.715165e-10,-0.24180134,-2.67033e-13,0.22958651,-0.28392512,-1.0771629e-07,-2.056997e-11,-1.5679673e-09,0.21558565,-0.22680514,0.396373,0.05342772,-0.15490489,-1.6114807e-06,1.5652736,1.2069196e-06,-4.5068435e-11,5.8039393e-11,0.37271297,-6.30807e-07,-1.6926826,-9.0476693e-13,2.5091373e-07,6.330755e-08,3.1821564e-08,9.6149054e-14,0.0049943733,-0.008480209,5.097591e-13,2.0731827e-09,-1.0077565e-12,-0.19806957,-0.2220862,4.9181514e-13,2.4015323e-09,1.3043608e-13,-0.44640797,0.3002453,-2.1731657e-12,-6.0224004e-10,3.489971e-10,-0.25994083
-8.807241e-13,0.14209206,-0.06042005,-4.5139053e-08,1.0323559e-09,3.5225014e-09,0.0062179784,0.08334059,0.016106838,0.16007195,-0.088241324,9.0261005e-07,-0.2639051,5.141316e-07,-1.427837e-10,-3.1584746e-10,0.22794592,-5.251487e-06,-0.08473753,7.456261e-13,4.4830392e-07,-4.73092e-08,-2.1281032e-08,-7.0574113e-13,1.1290518,-0.0014535319,-1.295491e-13,-2.6335822e-09,-1.005073e-12,0.11537215,0.45859474,-4.5188175e-13,2.6393128e-09,4.5937006e-13,-0.103967875,-0.32033303,-1.491036e-13,1.171335e-10,2.916231e-10,0.47435373,5.231314e-13,0.2680081,0.030354504,-1.3530244e-07,-1.5859716e-10,-2.8652716e-09,-0.42321348,-0.023873799,-0.2527121,-0.06600041,0.1267083,2.9260607e-07,1.6217146,-4.571898e-07,-4.4208454e-10,-1.5668913e-10,0.33945712,-1.13788465e-05,-1.5963695,-1.4510875e-13,-8.936574e-07,-1.0148819e-07,2.0088233e-09,1.9283349e-15,-0.21125604,0.11184156,-9.261099e-13,-7.2668396e-09,-1.6570792e-13,-0.45735234,0.4205362,5.7030037e-13,4.3397077e-09,-2.1469344e-13,-0.13294369,0.13847345,1.055321e-12,-1.7592186e-10,-4.788883e-10,0.02129463
-6.289832e-13,-0.28294995,-0.032047007,-4.6176982e-08,3.7018966e-10,6.6791567e-10,0.06920831,0.24120535,0.049566563,-0.036113415,-0.0021828506,-1.3260459e-06,0.7749681,6.78447e-08,-4.8915993e-10,-9.1296096e-11,0.1360496,-7.478741e-06,-0.17531957,4.7823616e-14,-3.306971e-07,-6.427664e-08,-5.5140195e-08,1.38906085e-14,1.8887613,0.062236685,-6.829909e-13,2.9778726e-09,2.234779e-13,0.02068287,-0.07343218,9.958883e-14,-1.9990072e-09,4.3554586e-13,-0.4332085,-0.05026507,3.0269047e-12,4.3850082e-10,3.3606723e-10,0.23781492,-5.0505493e-13,0.4173502,-0.33229446,8.066139e-08,5.587731e-11,-1.7109172e-09,-0.35206798,0.26489517,-0.18814652,-0.13155392,0.0017745281,-7.576752e-08,1.0919067,1.1599397e-08,4.698132e-10,-1.0327475e-10,0.23196065,8.136455e-06,-1.0616267,-2.0074053e-12,-7.728964e-08,6.2693966e-09,4.4942958e-08,3.012492e-13,-0.2619579,-0.05937742,7.293108e-13,-3.6789936e-09,-7.4828707e-13,-0.21935381,0.27879086,6.9736914e-14,2.0226747e-09,-6.9969405e-13,0.24642773,-0.10266675,1.0511626e-12,-6.5649153e-10,-4.6638922e-11,-0.076645255
-1.915628e-13,-0.38770297,0.28129792,-1.2179824e-07,2.7436653e-10,-2.7869327e-09,0.46696174,0.4770724,0.09742733,0.15926746,0.05545138,-3.9562804e-07,0.18179753,9.948723e-07,-1.0258379e-09,1.201743e-10,0.0091876015,5.4375346e-07,-0.65793514,2.045026e-12,-1.6059646e-06,-5.925262e-09,1.0841728e-07,4.375063e-13,1.7228317,0.053804744,-4.7368706e-13,-1.2600994e-08,3.3253315e-13,0.085155874,0.12892129,-6.976288e-14,3.4483718e-09,-1.2569763e-12,-0.21309237,-0.0055933967,1.5950795e-12,2.0441222e-09,-1.979571e-10,-0.22307362,5.8153395e-13,-0.5456253,-0.15786052,1.23777975e-08,-2.4334146e-10,-5.5376943e-09,-0.39244065,0.20219861,-0.057644665,0.14973249,-0.13586643,-9.390714e-07,1.6522099,-5.188579e-07,1.4979381e-09,3.1754765e-11,-0.029434932,-1.730455e-05,-0.25585565,3.6952464e-12,-2.4181115e-06,4.3637365e-09,-5.906223e-08,-6.836575e-14,-0.5506399,0.17167287,-1.0257459e-12,-1.335931e-08,3.621741e-13,-0.094548896,0.8773678,-7.4505994e-14,-3.1278993e-09,8.9773794e-13,0.3353551,0.45021078,-1.749439e-12,1.1226037e-10,-1.6287213e-10,-0.24686535
8.462973e-14,-0.05810907,0.22693227,-3.5088966e-08,-7.320794e-10,-1.0401006e-08,0.1769579,0.42214113,0.019024698,-0.033766486,-0.05659352,5.494582e-07,0.84067845,8.50574e-07,-1.2857284e-09,2.7420347e-10,-0.22341867,-1.5288224e-05,0.028125484,1.2528617e-13,1.1950438e-06,-5.955146e-08,9.589949e-08,-8.30176e-13,1.6142198,0.14361379,-8.0190927e-13,-2.3499291e-09,-6.727301e-14,-0.1622442,-0.10960927,-7.924576e-13,-2.2655007e-09,5.6603024e-13,0.19129743,0.18193568,5.9366973e-12,7.28554e-10,4.5200586e-11,0.20516059,-8.906477e-14,-0.28038728,-0.10819025,-2.7444187e-07,1.3224553e-10,-3.2482614e-09,-0.19758421,-0.23850462,-0.067655176,0.20831634,-0.006776121,-1.7621426e-06,1.7047125,2.6196605e-07,-1.1065211e-09,-4.9322914e-11,-0.14876819,1.1254245e-06,-0.6304806,-2.1115713e-12,-2.8128437e-07,-6.771645e-08,1.828252e-08,-7.9806116e-14,-0.16486883,0.11675429,1.1755086e-12,1.4223484e-08,8.6942806e-13,0.43764636,0.09532173,3.459982e-14,-3.0270113e-09,-7.2165846e-13,0.4578294,0.34545016,-2.0964363e-12,2.5324073e-10,2.9991912e-10,-0.011968091
6.4963876e-14,0.19192699,0.045864344,1.983989e-07,7.0445405e-10,6.9671446e-09,0.21929964,0.31661084,-0.17171057,-0.028292911,0.22556247,2.7119034e-07,0.31724125,1.9408135e-07,1.4276895e-09,-2.428056e-11,0.16436988,-6.9122693e-06,-0.4635082,3.0775738e-12,-1.385273e-06,-2.440018e-08,-1.0172769e-07,6.620045e-13,0.9550518,0.15830877,2.2793724e-13,-4.893397e-09,2.0988555e-14,0.062351283,-0.1819231,4.832061e-13,-2.9417389e-09,5.7764595e-13,0.0372477,0.010626901,-2.282638e-12,2.3519011e-09,6.187565e-10,0.07007267,-5.442155e-13,-0.03721401,-0.032397613,1.2702293e-07,-6.1703774e-11,-5.838732e-09,-0.059048854,-0.16035831,-0.15095049,0.30874506,-0.020795979,-7.5318917e-07,1.6305914,1.7306996e-07,-5.7083865e-10,-8.289565e-11,-0.058478028,-6.263254e-06,-0.47517678,1.2945025e-12,-8.8662205e-07,1.5670557e-07,3.4382248e-09,-5.5122505e-14,-0.33016407,-0.07355971,-7.011514e-14,5.449459e-09,7.382064e-13,-0.35654286,0.21759385,-7.9955915e-13,9.368233e-09,1.0359597e-12,0.33100578,-0.13462625,-2.0612953e-13,2.5992288e-09,2.2311589e-10,-0.29220048
2.7079814e-13,-0.33230284,0.67299664,8.01101e-08,1.9009372e-09,-4.543934e-10,-0.16835226,-0.09149644,-0.31338823,-0.036789846,-0.061426338,1.7429002e-06,0.53309876,-9.078541e-07,-1.6338999e-09,-2.7624378e-11,0.3236219,5.197572e-06,0.12817612,-9.2162606e-14,1.1378238e-07,-4.8704358e-08,-9.594651e-08,4.71678e-13,0.622366,0.005056505,6.890784e-13,4.864038e-09,-2.726311e-13,0.04337561,0.052406956,9.622875e-13,6.340698e-09,4.6975835e-13,0.64012873,-0.8375789,-6.291046e-13,-1.679378e-09,-6.706086e-10,-0.28096876,-5.161748e-13,0.12041046,0.28326476,2.3197995e-07,-1.4645994e-10,8.318063e-09,0.055626757,-0.8056702,-0.37732273,0.14723042,0.15973777,-9.4811895e-08,1.7141731,-1.3923636e-06,-1.9741409e-09,1.13625755e-10,-0.29238006,1.200484e-06,-0.49212533,-2.355456e-12,-2.2754656e-07,7.022783e-08,5.3497022e-08,2.816413e-13,-0.027145028,0.088326,-4.8799116e-13,3.972267e-11,-2.0522818e-13,0.006476144,-0.13754635,8.222004e-13,-1.4785584e-09,1.4062915e-12,0.028633405,-0.032398894,3.6622064e-12,-2.054574e-09,1.2137358e-10,0.16154426
-4.707592e-13,-0.26541656,0.23647726,4.691833e-08,7.931419e-10,-3.1183773e-09,0.072089285,-0.38610774,0.12524997,0.22716743,-0.03971488,3.7512888e-07,0.032888737,-6.075403e-07,-1.0147387e-09,1.1561022e-10,0.0379072,4.3154487e-06,0.5244822,1.767977e-13,3.387998e-07,-1.3775239e-09,-1.520726e-08,-5.823396e-14,1.1307267,-0.026822424,-1.9386677e-13,2.224873e-09,7.203746e-13,-0.07571817,0.116408564,-2.6480418e-13,-1.3044739e-09,2.5354014e-13,-0.07392831,-0.29196513,1.680079e-12,4.0877857e-12,1.0071063e-10,0.22616966,-1.332403e-12,0.18181188,-0.30783105,-4.7203468e-08,2.1840334e-10,-5.2858935e-09,0.29799652,-0.28191265,0.059234504,0.07363618,-0.008585572,3.4568637e-07,1.3750967,-2.5856823e-06,-6.9593104e-10,1.3102044e-10,-0.22664659,-6.232945e-06,-0.68268406,5.0493626e-13,1.1726537e-06,5.278593e-08,-7.276002e-08,-1.843572e-14,-0.20820086,-0.020361524,8.472362e-13,5.22444e-10,-7.307293e-13,0.11153218,-0.0060076434,2.3205038e-13,4.037496e-09,6.768875e-14,-0.022488885,0.15094492,-1.9132315e-12,-5.243391e-10,5.47858e-11,-0.00010556169
-1.4374613e-13,0.14583509,-0.09489567,1.43626115e-08,6.275183e-11,6.12886e-09,-0.037980374,-0.5887159,0.09164025,-0.018719623,-0.14712149,-1.314578e-07,-0.07637929,3.292881e-07,-4.90727e-10,1.8338989e-10,0.17665233,-8.110995e-06,0.59630036,-3.792316e-13,-3.3104104e-07,-1.4454574e-08,-3.647949e-08,-6.932471e-13,1.263295,0.19458656,-1.4470445e-13,-4.331383e-09,6.5904904e-13,-0.10101512,-0.47702232,-2.7999955e-13,5.903822e-10,1.7910213e-12,0.08322519,-0.14216757,-2.068803e-12,-1.0345368e-09,2.4717073e-10,0.34188938,4.3639476e-13,-0.04505683,-0.14129514,-8.733808e-08,-1.3205265e-10,7.1919776e-11,-0.03695002,-0.58403987,-0.16517924,0.11369757,-0.05266598,-2.7278677e-06,1.4461219,-2.3983938e-07,6.525191e-10,-4.162922e-11,-0.23096682,2.54927e-06,-0.6252822,3.485222e-13,1.3362765e-06,-3.5456672e-08,-1.3811024e-08,-6.140378e-13,0.09437102,-0.0034981626,-5.7394123e-13,5.914395e-09,-9.9874e-13,0.13701111,-0.09428665,5.9760194e-13,4.1205346e-09,-5.947216e-13,0.071508735,-0.036702562,-2.0070217e-12,-1.2656753e-09,-9.254729e-11,0.09072855
-1.5318131e-12,0.10787931,-0.006189178,4.668938e-08,-5.4742955e-10,-7.3411295e-09,-0.13420525,-0.27009,0.024806935,-0.0667393,0.014777545,-5.029734e-07,0.12456861,-5.37352e-07,-2.7293814e-10,2.7143482e-10,0.064448036,1.6168694e-06,0.24483632,1.3016467e-12,-4.0235562e-08,3.192331e-08,-2.3008369e-08,-4.168744e-13,1.1882002,0.012936582,1.1138099e-12,7.403948e-10,7.1706427e-13,0.032410678,0.06523562,4.206086e-13,1.6591755e-09,-1.3064154e-13,0.0628565,0.029113894,-9.591787e-13,1.0026244e-09,1.964586e-10,-0.0034081284,9.601246e-13,-0.15998472,-0.097417824,1.2556632e-08,-1.6586064e-10,1.3477415e-09,0.055110034,-0.6774019,-0.16671291,0.049640886,-0.014470735,-7.638493e-07,1.2749307,9.3579496e-07,5.1165412e-11,1.5019186e-10,0.035752803,-2.2348408e-06,-0.64282537,2.6510304e-13,5.694947e-07,-4.691191e-10,2.6108484e-09,-3.7596635e-13,-0.28629294,0.024529459,-9.919882e-13,-4.5017194e-09,1.1650511e-13,0.13575768,-0.04715713,-3.9022008e-13,2.2741726e-09,1.3873073e-13,0.022587532,-0.14794756,-1.1640494e-12,-5.917103e-10,-1.2781959e-10,-0.15453148
2.7671843e-13,-0.16854881,-0.034587625,-4.5903697e-08,-2.3267084e-10,-1.22038e-09,0.13801594,-0.63008845,0.10169989,0.19468689,0.1604753,8.9008023e-07,0.04220172,1.9246838e-07,-2.6333615e-09,-3.4912212e-10,-0.8460922,-1.4159794e-05,0.39799124,2.3027385e-12,3.3975135e-07,9.1214e-08,-8.153295e-08,-1.9449581e-13,2.0809846,0.2254497,-5.1599935e-13,2.4617102e-09,1.5840205e-13,0.2761038,-0.0034665829,-1.1772988e-13,4.188846e-09,3.926095e-13,0.28308642,0.010336029,-1.1455027e-12,2.009429e-09,6.118253e-10,-0.3478207,1.4854065e-12,-0.33757538,0.4318623,4.932228e-08,2.3451227e-10,3.935668e-09,-0.621641,-0.6776627,-0.17112832,0.21083517,-0.20490813,1.2282654e-06,1.4700257,7.112547e-09,9.843693e-10,-5.6756405e-11,0.5760291,8.802331e-06,-0.8873536,4.5037346e-12,6.312824e-07,1.149717e-07,3.11046e-08,-1.8136997e-13,-0.46718696,-0.3397622,-8.588421e-14,-9.376336e-09,4.192663e-13,0.46598443,-0.00045745354,2.80837e-13,5.5459233e-09,2.6749864e-13,0.37080243,-0.15538701,-6.429575e-13,-1.4823873e-09,7.714554e-11,-0.05095368
1.382657e-13,0.40081722,0.054141417,-1.245082e-07,-1.6953611e-10,1.068968e-08,0.25012943,0.021235157,-0.060127616,0.11555628,0.030612526,2.3908376e-07,0.9656568,-4.1773464e-07,9.796117e-10,3.259178e-10,0.03812246,-7.2164976e-06,0.026831314,-5.81434e-13,-6.190305e-07,-1.8367151e-08,1.0032173e-07,-2.648764e-13,0.7845709,-0.09963864,-1.2768547e-12,-4.1967194e-09,-2.9060906e-13,-0.027437482,-0.59639066,-1.8420419e-13,4.6573945e-10,6.706669e-13,-0.44132867,0.039699927,7.8227355e-13,-1.8356192e-10,-2.7464508e-10,0.33947638,1.0475719e-12,0.08988731,-0.2554219,2.150485e-08,-8.140945e-11,2.8642062e-09,-0.05662644,-1.0002716,0.26965076,0.0029279906,0.16021912,-7.0758995e-07,1.356496,1.2293439e-06,-2.194099e-10,-1.1969498e-10,-0.4639737,6.652405e-07,-1.0883511,9.010981e-13,-1.2603089e-06,1.174806e-08,8.246519e-08,-6.613281e-13,-0.21705021,0.054339174,-2.9718415e-14,-6.2797803e-09,2.6097684e-13,-0.32394448,0.6957738,-2.5716733e-15,-3.8461428e-10,-3.846609e-13,-0.31795835,0.4880865,1.618644e-12,-1.2271282e-09,4.0612494e-10,0.055928744
9.929542e-13,-0.02128088,0.05758777,-8.384722e-09,-8.860028e-10,5.884918e-10,-0.25482616,-0.24199691,0.43626037,0.14323966,-0.20574367,6.2885283e-07,0.09243884,-8.0350935e-07,6.4720207e-10,-3.6007455e-10,-0.21826443,9.2894215e-06,0.031992897,-1.7089625e-12,-8.475607e-07,4.6583175e-08,9.0746575e-09,5.559007e-13,0.6080269,-0.180096,-1.0572077e-13,-2.8861362e-09,9.322323e-15,0.27085704,0.20649508,-3.4490748e-13,-3.45349e-10,-5.245717e-13,0.02009456,0.5744263,-2.6477995e-12,6.8717926e-10,-2.1439045e-10,-0.20532905,-1.8357877e-13,0.37144774,0.06828335,3.4530657e-08,-3.164843e-10,-1.18165975e-08,0.53065294,-0.6586952,-0.011740238,-0.014579086,-0.04783606,3.3597001e-07,1.4963028,9.13295e-07,-5.737528e-10,5.986793e-11,0.09740912,1.8468911e-06,-1.1067003,-1.8263084e-12,1.0377087e-06,4.1007787e-08,-6.277124e-08,-4.4188836e-13,-0.65161645,-0.2499145,-5.1369645e-13,-5.3880997e-09,-1.1615744e-12,-0.2989361,-0.79338354,1.5738962e-13,4.4164046e-09,-3.2098998e-14,0.45678598,0.6848039,-2.8653458e-12,-1.639411e-09,1.1604169e-10,0.3362503
-3.7894357e-15,0.0044319653,0.1308834,8.40328e-09,1.190411e-09,-2.4619862e-09,-0.11112692,0.16037758,0.20227513,-0.08698537,0.021236505,9.965333e-07,0.15413247,4.1631466e-07,-7.48344e-10,-2.5200614e-10,-0.00857502,1.0487499e-05,0.037092682,2.1514188e-12,-7.8881584e-07,-7.5970476e-08,-7.244451e-08,2.124999e-13,0.7369028,-0.20143151,6.8419543e-13,3.9205976e-09,-6.693317e-13,0.077706456,0.22648452,-3.7385606e-13,1.0691414e-09,4.664099e-13,0.13787049,0.42192608,-1.6896622e-12,2.5542987e-10,-8.88375e-10,-0.10558193,-2.9819718e-13,0.20875758,-0.07099724,2.45278e-07,2.5522004e-10,-1.1454314e-09,0.045592662,0.05012866,0.098829,0.099108495,0.18998775,1.632664e-06,1.4739017,-9.565543e-07,1.0780803e-09,-3.749676e-10,-0.07064916,-1.5455898e-05,-0.7594246,-3.7495627e-12,-3.1587913e-07,7.0183646e-09,7.3417176e-08,3.267307e-14,-1.217038,0.18180357,-7.956883e-13,-1.12391945e-08,-1.1038974e-12,0.028785303,-0.16197161,6.724959e-14,9.758213e-10,-2.916256e-13,-0.07083693,0.16626792,3.8459166e-12,-2.7037733e-10,-3.347326e-10,-0.050774876
