-5.1807885e-13,-0.8015564,-4.960653,8.408125e-09,-1.9258705e-12,-0.01616859,4.6000988e-11,-3.9649239,-1.1314988e-12,2.3287177e-12,-2.508603,-10.139263,-5.544438,-4.405711,-7.2163884e-13,-0.0002837621,1.2616065e-12,-2.9458463,-12.110202,5.7129254,-5.7631445,-2.6106488e-11,-2.8108543e-13,-4.493548,-2.8667898,-0.13515605,2.096017e-12,8.739944,4.8557727e-11,3.2300573e-12,-0.005485396,-4.9419837,-6.206992e-11,-0.00017847,-4.7920513,-0.21080984,-6.9761224,-2.3404521e-08,1.848171e-12,2.470198e-12,2.1012389e-12,-0.56922674,5.9379574e-13,-2.124221e-11,1.45905e-12,-0.14915797,-0.085150406,6.79314e-13,-0.88282543,1.2025117e-12,-3.8902562e-13,0.0013728649,-3.035369,-1.0104916e-10,-5.7976844e-14,3.6851314e-10,2.3751834e-12,-3.4166367,-1.1874434e-12,-1.2377924e-12,2.352578,-4.357567,17.95339,-6.136105,-1.8030967e-12,-3.4071763e-06,2.3175277e-13,2.226993,7.0337334,-8.79568,6.1969085,-9.721183e-11,-1.3000582e-12,-3.369442,-4.205454,-0.13055743,-1.0628177e-12,7.834768,1.00928215e-11,1.2599233e-11,-0.22817379,11.844113,-9.316579e-11,1.5045383e-09,-3.081662,1.49746165e-05,-4.1368003,1.9957395e-10,-2.1094541e-13,3.6208885e-12,1.9833621e-13,-3.3980255e-06,3.0943579e-12,2.800115e-12,-5.7019645e-13,-1.0858165e-09,-0.00012293481,-2.1472928e-12,0.415156,-7.3498716e-14
-1.1572215e-12,2.2348407e-07,0.003477393,2.1636516e-12,4.5128007e-13,4.4268506e-11,-8.1587775e-12,-0.027063064,5.1652877e-13,-1.4633325e-13,-0.0008188527,-0.13209558,0.60174215,0.0062930128,3.9653377e-13,1.5424847e-09,-5.843209e-13,-0.0010514245,-7.41781,-1.8829235,-0.013131617,7.526471e-12,9.483328e-13,-0.020737585,-3.6073005e-05,-7.102776e-10,9.666089e-15,-0.043190897,6.494192e-12,1.892588e-12,-5.6107e-11,-0.2805333,-3.5520389e-12,2.3000712e-11,-0.002668419,-2.6108454e-10,-1.3005776,9.314443e-12,2.6598808e-13,2.5470522e-13,-3.2822567e-13,-1.0434779e-10,3.208294e-13,4.0491976e-12,-1.0413246e-12,-4.4088483e-11,2.920061e-11,-7.915387e-13,-8.7432944e-10,3.6065224e-13,-6.96778e-13,-2.7001151e-11,-0.0080662,2.1989063e-11,-6.2600587e-13,-5.04154e-11,2.3178816e-12,0.005352431,-1.6577653e-13,2.444789e-13,-0.001226046,0.065041915,-6.440093,0.01776534,-2.0787479e-13,-4.003618e-10,-2.6713172e-13,0.003913553,-5.11022,5.795298,-0.03378248,-1.5576941e-12,8.189752e-13,-0.0037885818,0.02252502,-2.8119157e-10,-3.3546337e-13,-0.08587996,-1.0313501e-12,2.3063326e-12,1.075601e-09,-0.9368252,-5.072752e-12,1.6924259e-11,-0.0067999917,1.2045165e-11,-4.234324,1.715065e-11,8.5373386e-13,-8.22403e-13,3.441385e-13,3.7228156e-09,1.0916124e-13,2.0058748e-12,-5.1441794e-13,-1.7125328e-10,1.3919463e-10,3.2803653e-13,5.507395e-07,-7.47004e-13
-2.8024433e-13,2.1184348e-12,-0.01018266,-1.5650384e-11,-2.8466435e-13,4.4644496e-12,-8.289782e-12,-0.0050372276,-2.3273554e-13,3.448685e-13,-0.0018186131,-0.1420965,-2.8919683,0.018936109,-1.5659625e-13,-6.73928e-10,6.22879e-14,0.0011111412,0.5407145,-2.2220953,0.09319375,2.360217e-12,3.0755953e-13,0.0055901306,-0.005382721,4.561228e-10,3.8328778e-13,0.051499285,2.6121082e-12,-8.8767036e-13,4.2188827e-10,-0.78115493,2.980967e-12,-2.1133699e-11,0.022306351,-4.8194514e-11,-2.6367695,-1.3988224e-11,3.8232796e-13,-7.8802904e-13,-2.5944668e-13,-8.337417e-11,-1.7317126e-13,9.036832e-13,1.097738e-12,2.8019078e-11,-2.1131083e-12,3.2596782e-13,6.2083876e-09,-7.6198455e-13,-6.1313476e-14,-1.8559154e-10,-0.012394611,9.451393e-12,2.1678406e-14,-7.578625e-12,-9.365939e-13,-0.001313335,-2.2031982e-13,-9.201397e-13,0.0011027483,0.054543857,-2.393175,-0.0076484177,-4.039759e-14,-1.1137362e-09,9.1216483e-14,-0.0050644716,-2.577714,4.801098,0.002736764,-6.263119e-12,2.2860438e-13,-0.0026515664,-0.0023293863,1.8372438e-10,-2.2497022e-13,-0.048286512,7.618826e-12,-1.6664362e-12,5.6999308e-11,-1.2512425,-3.6494115e-12,1.5132721e-12,-0.0014509305,4.56798e-12,4.6864843,7.1025304e-13,1.2409308e-12,-3.4290715e-13,2.812176e-13,2.7893908e-11,2.6532539e-13,-4.3951028e-12,5.9282033e-13,2.31897e-11,-2.409471e-11,3.7452674e-13,5.529828e-09,1.1256689e-12
-2.9724183e-13,-1.0338421e-09,0.06764753,-1.487285e-11,9.568117e-14,-8.997868e-12,-6.0738866e-12,-0.036821827,9.35627e-13,-4.73851e-13,0.000864359,1.6993176,3.0589504,0.13949773,-1.9094524e-13,-3.0305893e-09,-7.2445327e-13,-0.041267384,4.5102367,10.264747,0.3770706,-3.5230174e-12,-1.8216848e-13,0.009220559,-0.054244637,5.8815184e-09,2.0751467e-13,5.0360417,-8.716725e-12,-2.353482e-13,7.972326e-10,1.6883333,1.4059212e-11,9.420092e-12,0.057889804,1.0451082e-10,8.674209,-1.3244638e-11,1.6646832e-13,2.6285235e-14,3.1471416e-13,-2.9504713e-10,1.7370626e-13,5.809154e-12,-7.392787e-13,-8.192497e-11,-4.3114533e-11,-5.86033e-13,-2.2067379e-08,-5.580473e-13,7.7869417e-13,7.049549e-10,-0.1636501,-4.6370786e-11,-7.52632e-14,-4.1063823e-12,9.681722e-13,0.026802925,-3.1378302e-13,-3.4210707e-13,-0.0001480286,-0.026901789,0.026221698,0.318445,3.4542933e-13,-2.6216807e-09,-5.5573525e-13,0.0052510737,0.12169226,0.3338891,0.28506407,3.4908717e-12,-2.1635607e-13,-0.053496968,-0.054012798,-1.349371e-08,-7.1994597e-13,0.11840754,-5.677764e-13,6.166905e-13,-1.4399582e-09,0.19965279,4.667218e-12,-3.137574e-11,0.03634175,1.6250716e-13,-0.44165495,-1.3452488e-11,-4.860411e-13,-3.6322063e-13,-2.7723434e-13,-1.0779544e-11,-1.0404394e-12,3.9879797e-13,1.666534e-13,-1.2196495e-11,-3.3566747e-11,-5.367401e-13,9.1975394e-08,-3.358327e-13
