8.215362e-14,1.1622498e-13,-2.1745065e-13,2.6179848e-13,-1.1034927e-14,1.0277823e-14,5.176642e-14,1.5712796e-13,9.291198e-14,6.226519e-15,-1.2240736e-13,-0.66039556,-1.7538383,-1.7150658e-13,-1.535976e-13,-5.700366e-14,1.9361661e-13,-1.5288503e-13,-1.6646097,0.38304132,-2.9493126e-13,-2.036291e-15,3.341463e-14,1.7131709e-13,-1.5241158e-13,-7.634606e-14,-1.7087379e-14,-4.0021968e-14,7.974249e-14,1.7966742e-13,-1.8131552e-13,-1.2092626,1.6545173e-13,1.7996013e-13,-4.8190483e-15,-7.95936e-14,-7.39554e-14,-8.679111e-14,-2.5388085e-13,4.327925e-14,-8.198415e-16,-2.9540474e-14,1.372224e-13,2.7512525e-13,6.55027e-14,1.0615372e-13,-9.96428e-14,1.4064155e-13,3.306789e-14,-4.8336257e-14,2.0349655e-14,-9.059354e-14,-1.7231495e-13,-1.3885982e-13,-1.986269e-13,-2.9954896e-13,-2.2681535e-14,1.3524583e-13,1.3281906e-13,5.3979614e-14,1.1409806e-13,-1.4094633,0.46397427,-1.05947836e-13,-5.883832e-14,-5.604512e-16,1.0065406e-13,-7.4220205e-14,-0.6423072,-1.3428013,1.1239484e-13,4.4593344e-14,-1.3195224e-13,-3.0729873e-13,-9.1428906e-14,-7.44167e-14,-9.034665e-14,2.3378692e-13,4.3472506e-13,-7.78002e-14,-2.8645194e-14,0.9755794,-3.4269432e-13,1.4881377e-13,8.819063e-15,1.844317e-13,2.367615e-13,-3.678176e-15,-8.172377e-15,-5.41469e-14,9.205837e-14,-4.892368e-14,6.545085e-14,-3.156747e-13,-5.0741945e-15,-2.9020232e-13,1.2964647e-13,1.6328878e-13,-2.3417227e-13,4.131923e-14
1.1821895e-13,2.3382164e-13,3.5628584e-14,-2.828958e-15,-6.14796e-14,6.951835e-14,2.6161338e-13,-1.8437105e-13,1.251256e-13,1.7906419e-13,2.3463666e-13,-0.41130424,-1.6539971,-1.0884299e-13,5.226515e-14,1.5716584e-13,4.9942973e-14,-5.3878844e-14,-1.3726897,0.5093333,2.6843962e-13,-1.4460369e-14,-2.7885024e-13,3.942855e-14,1.1387659e-13,-1.2485272e-13,3.550071e-15,-1.8855802e-13,4.1535257e-14,-1.590841e-14,-1.5148115e-13,-1.0589203,6.186897e-14,1.6352398e-14,-1.4221118e-13,-2.0038715e-13,-2.2322975e-13,-2.7739177e-14,1.3892323e-13,-2.4233369e-14,-7.354089e-14,5.102181e-14,1.1685257e-13,-3.709311e-13,-2.4338542e-13,-4.7274806e-14,3.1474653e-14,-1.0405675e-13,-1.6641704e-14,2.871909e-14,-3.8058342e-14,6.2410174e-14,-5.91649e-14,-2.9256728e-14,4.3051852e-14,8.549416e-14,3.8019e-14,1.3977315e-13,4.882196e-16,-1.5241085e-13,8.5969894e-14,-1.2984296,0.15972617,-1.007913e-14,1.510412e-13,2.3237746e-13,3.2307e-13,2.9884068e-15,-1.1787628,-1.2861826,-6.8658194e-14,1.1607004e-13,1.435424e-13,1.4046213e-13,-3.5210636e-13,1.0563395e-13,2.3321942e-13,3.3895345e-14,-9.370604e-14,-2.003025e-13,2.395373e-13,1.724813,-1.6648664e-13,-1.4392296e-14,9.840715e-14,-7.608657e-14,2.273187e-14,-5.2955707e-14,-7.279069e-15,1.4918256e-13,-3.071324e-14,-1.1829974e-14,7.388734e-14,4.3734473e-14,-4.150895e-14,8.86789e-14,1.6594901e-13,-9.837378e-14,4.1748865e-14,1.044236e-13
8.803586e-14,-2.2135822e-13,2.0261124e-13,-1.014303e-14,1.3695903e-13,-4.115739e-14,9.010194e-14,2.3692563e-13,8.22672e-14,-2.4503872e-13,2.3119684e-13,0.15289684,-1.5142004,-6.634777e-14,-1.0930093e-13,2.60641e-13,1.07704325e-13,4.4227747e-14,-1.4293836,-0.13552171,1.6769633e-14,2.8623967e-13,1.5918674e-13,8.256674e-16,-1.7256639e-13,-1.2932388e-13,-6.105677e-14,3.0390905e-14,1.0789468e-13,6.690551e-14,-2.7869428e-13,-1.1148528,3.947266e-14,-1.4778702e-13,-1.3235946e-13,-2.9182508e-15,8.2424234e-14,4.301814e-14,7.442125e-14,3.7160433e-14,-6.771424e-14,-1.7601238e-13,5.803463e-15,7.399649e-14,-1.1602898e-14,-2.3598023e-13,7.601958e-14,3.5554465e-14,6.126366e-14,1.4487714e-13,-1.6672145e-13,-3.6347315e-14,9.852583e-14,-1.339004e-13,1.1604902e-13,-8.4492634e-14,1.5141908e-13,3.644278e-14,2.4679857e-13,2.0886083e-13,-1.8674694e-13,-1.3435342,0.2859562,-1.4513546e-13,-1.1152592e-13,-1.6078608e-13,5.5734473e-14,-1.2028e-14,-0.26757795,-1.33794,-2.8013494e-14,-4.2076812e-14,3.2041343e-13,1.0332681e-13,-2.1882616e-13,-4.9913165e-14,1.1511109e-13,1.2126876e-14,8.0574646e-14,-3.1332406e-14,-3.4265342e-13,0.79609084,-2.844777e-16,1.456837e-14,-5.066638e-14,3.7489238e-14,3.7846896e-14,-9.745375e-14,-5.114847e-14,-5.1575785e-14,1.2332278e-14,-1.0301242e-14,-2.1187224e-13,1.0739237e-13,-1.7908228e-13,2.3091975e-13,-1.2176864e-13,-2.32482e-13,-1.494435e-13,-1.0254788e-13
1.2640118e-13,-2.1216812e-13,-6.427032e-16,2.0337963e-13,-1.286275e-13,8.8986354e-14,3.3402314e-14,-4.5690914e-13,-3.8708057e-14,1.2034114e-13,-8.403666e-14,0.5517026,-1.6823611,-1.9642323e-13,3.2943163e-13,-1.7796081e-13,-4.453994e-15,-1.2200771e-13,-1.6357116,-0.35804495,4.8370765e-14,6.227183e-16,6.267781e-14,-1.9298418e-13,-5.0136707e-14,3.668055e-13,5.656344e-14,-8.222753e-14,-1.146164e-13,3.860932e-15,4.332511e-13,-1.3836914,2.8056195e-13,-3.0590957e-14,1.9995285e-13,3.8257307e-13,-8.5583186e-14,-4.494244e-14,4.9628304e-14,-7.264901e-14,4.1986525e-14,-8.938411e-14,4.5983454e-14,1.6300094e-14,-2.927404e-14,-1.1578759e-13,4.272258e-15,1.1604673e-13,1.3240445e-13,-3.3754661e-13,1.6160707e-13,-7.295587e-14,4.5318424e-14,3.275433e-14,5.5273284e-14,-3.081195e-14,-1.5736784e-13,5.5356707e-14,6.638978e-14,-1.08260094e-13,1.5609981e-13,-1.5415002,-0.51425236,-3.5551726e-13,-2.440483e-14,1.7926626e-14,3.7437596e-13,-8.8492554e-14,-0.41181648,-1.5515378,-1.2203925e-13,-1.1180985e-13,1.0470238e-13,1.5911506e-13,1.6670676e-13,3.8209483e-13,3.72707e-14,8.773039e-14,-8.567984e-14,-6.9300915e-14,1.5144079e-13,-0.42843544,-1.0070198e-13,1.054414e-13,-3.219131e-14,1.6060907e-13,-3.2069134e-13,-2.3643739e-14,-7.60055e-14,-1.780988e-13,1.3607401e-13,-7.803571e-14,-3.7636283e-15,1.1665111e-13,-2.370037e-13,1.9161277e-13,2.6066853e-14,2.8602073e-14,-1.3507515e-13,-1.6394212e-13
7.4489094e-14,-4.1071903e-14,2.4928223e-13,-9.190345e-14,1.7750594e-14,-1.3819149e-13,-2.8137158e-13,1.5260494e-13,-1.6301812e-13,-5.5815854e-15,-2.3180985e-13,1.0457913,-1.5122128,-2.4622326e-13,2.0131805e-13,-4.5254937e-14,5.8002336e-14,1.9729634e-13,-1.489002,-0.9212146,-7.595092e-14,-3.8997024e-14,4.561374e-14,-2.0635777e-13,-6.3588356e-14,1.5445663e-13,1.9304289e-13,1.1689328e-13,-1.5818461e-13,8.7130695e-14,-1.8782933e-13,-1.3906934,2.423467e-14,-1.8539674e-14,-1.0605739e-13,-1.72561e-13,-1.2701164e-14,-5.232185e-14,1.9409179e-13,-4.47983e-14,-1.13959e-13,7.809131e-14,4.0936696e-15,1.2645246e-13,2.1776432e-13,-1.3612916e-13,2.8723307e-13,-2.6104683e-13,6.5603054e-14,1.5009661e-14,-2.547623e-13,-1.5636494e-13,1.8427337e-13,1.0286702e-13,5.2400304e-15,1.07694784e-13,1.064387e-13,1.01012236e-13,-1.1975467e-14,-2.238596e-13,8.799961e-15,-1.3351907,0.35940105,-2.6594934e-13,1.804626e-14,2.4824906e-14,-7.489475e-14,-2.5490813e-15,-0.34172073,-1.2922144,8.9996756e-14,-4.1453874e-14,-1.7590793e-13,-3.3189048e-14,-9.4034196e-14,-1.8814572e-13,-2.1035888e-13,4.1433896e-15,-7.439155e-15,2.282335e-13,1.10597465e-13,-0.12180909,-4.8323915e-13,-1.057447e-13,7.721026e-14,-4.8240315e-14,-3.3226663e-15,-2.3239616e-14,-4.616743e-14,7.826281e-14,7.865842e-14,-3.0877753e-14,-9.8125176e-14,2.1331352e-13,2.1628199e-13,-1.1857437e-13,-4.9382048e-14,-8.444119e-14,-2.1232267e-13,-9.322169e-14
-8.1049533e-16,9.428563e-14,1.2464057e-13,1.5151244e-14,6.351663e-15,-2.6577454e-14,2.2354389e-14,-1.2810114e-13,1.886884e-13,-4.643936e-14,1.1458813e-13,1.3619382,-1.5342793,-3.3377394e-13,2.0698799e-13,-3.728439e-14,-8.1412335e-14,1.0010318e-13,-1.5146873,-1.1047516,3.9115602e-14,1.6406341e-13,8.1254454e-14,1.3639182e-13,3.924774e-13,3.663824e-15,1.9010668e-13,1.6170367e-14,7.4973664e-15,1.0771507e-13,-9.161785e-14,-1.2517555,3.655346e-13,3.6494686e-15,1.5242701e-13,-9.138284e-14,2.6936315e-13,-2.0449674e-13,-1.2911224e-13,-4.3808333e-13,1.7562403e-13,-1.1742121e-13,1.2377981e-13,2.7585288e-14,-2.0997082e-13,9.201591e-14,-1.183658e-13,-1.1025269e-15,-6.7179484e-14,5.6399228e-14,-9.673264e-14,-4.8307292e-14,-1.8827053e-13,-8.282049e-14,2.884308e-13,-2.192881e-13,-3.3849724e-13,1.1377997e-13,-1.5321289e-13,1.7009877e-13,3.256436e-13,-1.3588345,0.645857,-1.7039659e-13,1.753768e-13,1.967112e-14,-2.0925124e-13,-1.5350755e-13,-0.5407648,-1.32096,-9.458735e-15,-1.0493114e-13,1.6542486e-13,6.448576e-14,-3.3400233e-13,-7.073703e-14,-1.05988785e-13,2.7458905e-13,-5.5725213e-14,5.920413e-14,1.2171026e-13,0.17135948,1.0023232e-14,2.5886936e-14,1.6529963e-13,9.416891e-14,-9.485299e-14,9.635359e-14,-1.2907e-14,5.8594e-14,1.7931238e-13,-1.0754406e-13,2.5154033e-13,-5.899946e-14,-3.843807e-14,1.6830172e-14,-4.9157455e-14,-1.5873975e-13,-1.2949819e-13,1.666689e-13
-2.6119547e-13,-4.2127963e-15,-2.456452e-13,4.6976176e-14,-3.7682748e-14,5.6391967e-14,7.587705e-14,-3.984138e-14,-7.58128e-14,1.197965e-13,2.9061218e-13,1.1342747,-1.5468366,8.47818e-14,2.0672708e-13,5.2068047e-14,6.569338e-14,-1.1593019e-13,-1.5336583,-0.9842007,2.4484145e-14,8.1943045e-14,7.080205e-14,1.0987196e-14,-1.2651291e-14,1.0241245e-14,-2.9898458e-13,7.7507336e-14,-1.2110216e-14,1.7323769e-13,7.82252e-14,-1.2133662,-1.777704e-13,-1.1306348e-13,-2.2861585e-13,-1.01684476e-13,2.1311654e-15,-1.7767465e-13,5.0809265e-14,-5.7272804e-14,1.0795131e-13,-8.09363e-15,4.7080612e-14,-4.5796178e-14,-4.6618024e-14,-3.073581e-13,-4.0733035e-15,-2.2926753e-13,-4.13294e-14,2.1710914e-13,2.0697127e-13,5.968317e-14,-1.0849727e-13,6.087796e-14,6.624734e-14,2.5590654e-13,1.06484164e-13,2.421705e-13,1.6509191e-13,-7.21044e-14,-1.6087754e-14,-1.3345004,0.62806696,1.9761472e-13,-1.0215831e-14,-7.4306765e-14,1.1875093e-13,-2.6114657e-13,-0.7134104,-1.3469025,1.7685902e-13,5.8087175e-14,-5.8072836e-14,1.0806488e-13,-8.116891e-14,-3.7019197e-13,5.6729388e-14,-1.1166231e-13,-1.5279078e-13,-1.8477857e-13,-2.4663556e-14,0.2509308,-6.652727e-14,1.1518478e-13,-2.2045647e-13,-2.1138073e-14,1.8126004e-14,8.863106e-14,-1.1938355e-13,-9.1524485e-14,1.5038992e-14,4.228623e-13,5.027732e-13,5.298769e-14,1.1473128e-13,1.8732071e-13,-1.0865933e-13,-2.6305286e-15,-2.4611352e-14,4.519902e-14
1.5669578e-13,-9.22374e-14,9.152376e-14,1.1997998e-14,7.909187e-15,1.12085356e-13,-2.0798914e-14,2.4871633e-14,-2.2948337e-13,-1.0068077e-13,1.8015369e-13,0.8939462,-1.6296202,-4.96e-14,2.927738e-14,8.083907e-14,-5.1547904e-14,3.800938e-13,-1.4226962,-0.7968241,1.595167e-14,-5.856654e-14,-1.546213e-13,-1.5218405e-13,-1.9154372e-13,-2.8337023e-14,-1.5054567e-14,1.4924887e-13,-2.1188204e-13,-2.8220828e-13,1.5950185e-13,-1.3055738,2.5574286e-14,-4.530927e-14,-3.014898e-14,6.16901e-14,2.457076e-13,-3.4461844e-14,2.9866772e-13,1.4050805e-13,-1.4617124e-13,-8.249328e-15,1.7813569e-13,-3.368972e-15,1.6635175e-13,1.565422e-13,8.797244e-14,-7.169863e-14,-1.6558003e-15,1.38975e-14,1.2171508e-13,-7.585179e-14,-2.4955176e-13,2.689041e-14,-1.8992362e-13,-4.5269947e-14,-8.550369e-14,-2.376454e-13,3.7370733e-13,6.732753e-14,3.661979e-13,-1.4172841,0.22286882,-2.081015e-14,-3.2161497e-13,-5.070974e-14,-2.4962243e-13,-1.1186513e-14,-1.2082156,-1.4794649,-1.0212458e-13,1.48744e-14,5.6838526e-14,1.6030569e-13,-7.02308e-14,2.7411626e-13,2.2713255e-13,-1.6600382e-14,1.4987864e-13,-3.512622e-15,2.6567485e-13,0.42063302,1.5129575e-13,-2.0157376e-13,-1.9715847e-13,2.7487208e-14,-1.7493528e-13,-6.1860876e-14,-2.655062e-14,-7.615341e-14,-6.8794274e-14,-5.571332e-14,1.7633684e-13,-9.229955e-15,-2.218695e-13,-1.3959821e-13,7.439866e-14,5.7920392e-15,-1.383216e-14,-5.0781048e-14
-1.0906498e-14,3.6953168e-15,3.5604196e-14,8.438156e-14,-6.8219153e-15,-1.4219001e-13,2.3036267e-14,-4.884992e-14,1.3891651e-13,7.909519e-15,4.2506885e-14,1.1309676,-1.5031639,-1.2343681e-13,3.2842026e-13,-9.3637595e-15,-6.703517e-14,-7.0772564e-14,-1.5984,-1.1298201,6.345412e-14,-2.868605e-13,-1.7177614e-13,-6.2406196e-14,-7.53326e-15,8.203232e-14,2.6321271e-14,6.684616e-14,-9.505272e-14,-2.99796e-14,-1.5372218e-14,-1.3133667,5.2102725e-14,-6.9090695e-14,-7.3368164e-14,3.1463e-14,-1.2461284e-13,-2.7311107e-14,-2.3141702e-14,7.465034e-14,-4.363111e-14,1.10629665e-13,-2.8665877e-13,1.587765e-13,-4.1736478e-14,-1.8097501e-13,-2.4073012e-14,-2.3022965e-14,6.8702165e-14,2.8344048e-13,-5.6745448e-14,7.531495e-14,-6.47736e-14,1.4135692e-14,2.248981e-15,-1.0097485e-13,-1.8957145e-13,-2.1935461e-14,1.138955e-13,-3.0965356e-15,-1.4746239e-13,-1.3529675,0.1824614,-3.4857105e-13,2.965871e-14,-3.8570956e-14,-2.457883e-15,-1.7850371e-13,0.041056793,-1.3786263,5.2681113e-14,-9.5687076e-14,5.626212e-14,-2.3089678e-14,-2.669492e-13,-1.3175424e-13,-1.2649011e-13,-2.5882554e-13,2.739825e-13,-6.03265e-14,-4.062104e-14,-0.3496903,4.7898832e-15,-4.4102424e-14,-2.9281075e-14,-6.4195204e-14,4.882549e-14,1.4907048e-14,1.3358101e-13,-1.8012545e-13,4.8626603e-14,3.33667e-14,-1.3377839e-13,1.0893687e-13,1.1551572e-13,-2.7497937e-13,-1.142494e-14,-2.2549874e-13,1.2674005e-14,-2.8271786e-13
-1.1744929e-13,1.0918608e-13,1.9366336e-13,-1.7108904e-13,-5.109982e-15,-2.2683488e-13,4.4122353e-14,-2.509918e-13,9.0604736e-14,-2.2327458e-13,4.133011e-13,1.1911752,-1.5083215,2.2920562e-14,-1.7769575e-13,-1.278506e-13,7.314449e-14,5.4571155e-14,-1.4900697,-1.0134299,2.1135896e-14,1.4912106e-13,-2.814436e-14,8.764712e-14,-1.9038091e-13,7.398792e-15,-1.02966416e-13,8.1180214e-14,-6.0359314e-15,-1.984902e-13,-4.700217e-14,-1.340219,-6.5233734e-14,-3.4450958e-14,-1.03462046e-13,-3.0212657e-13,-3.0453496e-13,-4.1953068e-15,-1.9850454e-15,1.3871291e-13,1.1571965e-13,3.8946353e-13,1.4526419e-14,-1.0364177e-13,4.0001714e-14,8.070325e-14,7.6696516e-14,2.4602421e-14,-3.1638188e-13,1.990688e-14,5.3711282e-15,-2.2946692e-14,-6.2735936e-15,1.2931691e-13,9.539292e-14,1.8978409e-13,2.1412668e-13,5.4944073e-14,2.8775092e-13,1.7940876e-14,-9.069893e-14,-1.3310566,0.15759824,4.10554e-13,-3.3437046e-14,1.9790341e-13,4.7701372e-14,1.9309828e-13,-0.65172833,-1.3527263,-1.0232524e-13,-1.4607331e-13,8.72327e-14,2.7965721e-14,1.6869655e-13,1.9523032e-14,3.832513e-13,1.5400131e-13,2.667836e-13,1.7248408e-13,-1.8905636e-13,-0.016205173,8.1862224e-14,-4.1396492e-14,-1.2264758e-13,1.1570497e-13,-1.1643773e-13,-2.8530485e-13,-2.6815106e-13,8.1464586e-14,-1.3899751e-13,-1.7902604e-13,-3.2859924e-13,-1.100997e-13,-5.888905e-14,-3.8599623e-14,-2.8895503e-13,3.8788654e-15,8.964021e-15,-5.4345376e-14
1.5806178e-13,1.570961e-13,2.2251976e-13,1.8167159e-13,-3.8507904e-13,3.289083e-13,-9.68728e-14,4.6884334e-14,-1.4605511e-13,2.3747806e-13,-1.1785557e-13,0.8853855,-1.5065647,-3.575473e-14,1.07893735e-13,8.758897e-14,1.8915394e-13,4.959783e-14,-1.4912237,-0.8664618,-1.1411839e-13,1.4383227e-13,-1.812346e-14,-7.020719e-14,2.1151534e-14,2.477561e-13,1.1566437e-13,2.3047395e-13,1.0605524e-13,-1.667274e-13,-3.3174628e-14,-1.4810866,-1.2164833e-14,-3.7329643e-14,4.2059593e-13,-6.7936264e-14,-1.5880045e-13,4.5285736e-14,-1.2432037e-13,4.5805665e-14,2.9997183e-13,-1.5824454e-13,-5.222125e-14,-4.026556e-14,-8.956319e-14,-1.6478348e-14,1.5226373e-14,-9.668467e-14,-1.2135085e-13,1.1059081e-13,-2.1586055e-14,-2.0379145e-14,8.911683e-14,2.9419463e-14,2.726861e-14,-6.685975e-14,-3.9826696e-14,7.4712616e-14,-1.2468e-14,1.6847323e-13,1.798087e-14,-1.3285276,0.17413768,-1.650283e-13,3.930287e-14,6.671579e-14,-1.220295e-13,-3.0095653e-13,0.2727411,-1.3070072,7.578595e-15,-1.3518142e-13,7.32125e-14,4.545107e-14,1.4805541e-14,2.8203151e-14,8.644037e-14,-3.3325986e-14,6.1112275e-15,5.4509708e-14,2.6688143e-13,-0.8328222,-1.5388027e-14,-1.2599551e-13,1.6846146e-13,7.161926e-14,1.8266183e-13,-1.4004785e-14,1.6478508e-13,-6.156382e-14,-2.7431741e-14,-2.3192326e-13,8.9241214e-15,-5.6215754e-14,-5.1988016e-14,-1.2885091e-13,4.5673372e-14,-6.6675445e-14,-1.1461891e-13,2.4759695e-14
-5.2498214e-14,-1.5464152e-14,1.2476101e-13,9.206354e-14,-7.2444695e-14,-2.3688863e-13,-1.6170039e-13,-4.8614318e-14,4.0719788e-14,-8.888025e-14,-2.0761652e-13,1.0662131,-1.4117815,-4.229626e-14,5.2018462e-14,6.8330134e-14,5.920757e-14,1.4109026e-13,-1.5431308,-0.96296597,-3.345911e-13,1.5882787e-13,1.7360706e-14,4.883235e-13,1.4007603e-13,1.2712276e-13,-2.9123627e-13,3.6369738e-14,7.852412e-14,-1.4985303e-13,-2.1629734e-13,-1.3231894,-2.4285688e-15,-6.1989686e-14,-1.015603e-13,7.371321e-14,-1.0960547e-13,-2.9771406e-13,7.713075e-14,3.116914e-13,-4.009713e-14,6.91454e-14,3.3126984e-14,-3.1931922e-15,2.1867402e-14,-2.3176006e-13,-1.809651e-13,-3.8391253e-14,4.4959337e-14,1.3520038e-13,-4.9201013e-14,-1.1074295e-14,-3.651173e-13,-4.7345794e-14,1.4911786e-13,-1.628585e-13,3.290807e-14,-6.992159e-14,3.7762138e-14,-1.40457316e-14,1.1565374e-14,-1.2156849,0.09284694,-1.0158011e-13,1.6724587e-13,1.0207772e-14,-7.347676e-14,1.1380386e-13,0.3089618,-1.1963303,-1.3307245e-13,-1.461905e-14,-5.3675038e-14,1.0569945e-13,-1.4891476e-13,2.2769703e-14,2.4181862e-14,-4.4864625e-15,-1.3750278e-13,1.5526335e-13,-3.2713816e-13,-0.66058135,4.0103869e-13,-8.4614505e-14,1.2995033e-13,-6.271188e-15,2.5489943e-13,4.3890046e-14,-4.3609688e-13,2.1721323e-14,-5.9829556e-14,-1.0430484e-13,-3.400453e-14,2.8881688e-13,-6.788537e-14,-8.7299125e-14,9.081146e-14,-2.1963151e-14,-4.2741147e-13,5.4925824e-14
-1.064815e-13,1.9230433e-13,-2.7917339e-13,5.8099847e-14,-5.2332494e-14,-2.0050221e-13,-2.056132e-13,-2.287362e-13,5.040264e-14,-5.907262e-14,1.7128486e-13,0.65689486,-1.5359814,4.228774e-14,5.201027e-14,8.650219e-14,-2.8149157e-13,-2.5059785e-14,-1.6932842,-0.6199284,-1.4253308e-13,-1.1466273e-13,-3.6391537e-14,2.5021093e-13,-6.228396e-15,-7.035442e-14,-1.11605766e-13,-7.0406226e-14,-1.5965031e-13,8.8312414e-14,-4.512003e-14,-1.2009618,-7.0267244e-14,1.4983273e-13,9.6688127e-14,-4.5016095e-14,-1.4708161e-14,1.2913139e-14,1.7863692e-13,8.33354e-14,1.2674537e-14,3.4569597e-14,3.1884726e-14,5.6668686e-14,1.1328659e-13,-7.3327846e-14,4.7242368e-14,1.0741245e-13,-2.2617968e-13,-3.93342e-13,-3.0698046e-14,-1.8824601e-13,-5.049848e-15,2.4621935e-15,-5.800498e-14,1.891171e-13,-1.8184347e-14,9.5038425e-14,9.0531545e-14,-1.746985e-13,-8.553969e-14,-1.3873938,0.5586646,9.5340484e-14,-1.5762516e-13,7.0228904e-14,-2.580703e-14,-2.3544288e-13,0.30854303,-1.4091266,3.9764816e-14,1.4068855e-13,3.7794786e-13,-1.986963e-13,-2.4419184e-14,2.646374e-13,-2.1033257e-13,1.1496594e-13,9.208035e-14,-2.911708e-14,-5.290986e-14,0.18790075,-1.9604018e-13,-1.1677379e-14,-4.7712295e-14,2.0757476e-13,1.9945612e-13,-9.6873816e-14,-7.83739e-14,-2.6653658e-13,2.6741657e-13,-6.7233525e-14,8.926048e-14,-1.4741943e-13,-1.6425002e-13,-4.3109586e-14,1.263208e-13,-4.1710824e-13,1.6089696e-15,1.36744525e-14
1.09705214e-13,9.826142e-14,3.8896437e-14,-2.8449912e-13,-1.4857982e-13,-1.8534946e-13,4.6052185e-14,3.4766e-14,-4.5005595e-14,9.875213e-14,-3.9746505e-13,0.49817976,-0.9505693,-1.1956794e-13,-5.980419e-14,-2.307085e-14,2.323454e-13,-6.3920264e-14,-1.4379603,-0.42885917,-1.1678778e-13,-2.862937e-13,-3.2849296e-13,2.3706955e-14,-2.1600723e-14,1.6030109e-14,-7.419954e-15,2.6342416e-13,-7.404861e-14,1.7380615e-14,1.9947127e-13,-0.8085949,6.2772744e-14,1.4811116e-14,-1.6075627e-13,1.04826954e-13,8.1334e-14,1.7226787e-13,-2.585028e-14,4.8350335e-14,5.6427336e-14,4.0435703e-14,8.2573495e-14,-1.643243e-13,-2.8402309e-14,-2.4014666e-13,2.0955643e-13,2.659558e-13,-7.062168e-14,9.61502e-14,5.1827195e-14,5.1092296e-14,1.3018136e-13,-5.8947516e-14,2.920384e-14,1.03360754e-13,-1.771272e-14,-7.6449386e-14,-4.325084e-14,2.2623718e-14,-1.4499942e-13,-0.9235546,0.5165279,-1.4961017e-13,-1.2146422e-14,-3.9580955e-14,2.107876e-13,-1.6044342e-14,0.38705742,-0.9985882,-1.4138831e-13,-3.9058234e-14,9.074963e-14,2.3428574e-13,-1.0020528e-13,1.0292321e-14,-7.178962e-14,6.1794035e-14,1.3564741e-13,-4.314615e-14,9.9153196e-14,0.18730594,9.807991e-15,-1.7369117e-13,1.11834234e-14,-5.781383e-14,-1.4663754e-13,-7.815177e-14,2.6377612e-14,6.7901956e-14,-1.62151e-13,-2.2289732e-13,2.5184973e-14,-1.06612e-13,-4.354503e-14,-1.3794816e-14,-3.6261785e-14,2.8580643e-13,-1.424088e-13,-1.7553998e-13
-3.3357952e-13,2.5049908e-14,-1.6130646e-13,-9.7260294e-14,-1.8920461e-13,2.0885312e-13,1.4994467e-13,-6.829629e-14,-7.74345e-14,-5.2207384e-15,6.8803626e-14,0.8107991,-1.4196348,1.1563236e-14,2.954024e-13,9.2580864e-14,-5.763833e-14,-1.8318272e-13,-1.5190569,-0.6503794,2.2192595e-14,1.6154375e-14,5.7637936e-14,-1.4325654e-13,-1.3136137e-13,9.276408e-14,2.2002487e-14,6.773271e-14,2.8346715e-13,2.1893444e-14,-7.233587e-14,-1.2450565,-2.5890199e-14,2.1194374e-14,1.4494216e-13,-1.9617888e-13,1.3902478e-13,-2.907374e-13,6.5460034e-14,7.495698e-14,-2.3405694e-13,-1.1790705e-13,1.4126458e-13,1.2474803e-13,2.0164556e-13,3.212073e-13,-1.1126007e-13,1.37906925e-14,3.161411e-13,-1.2970878e-13,-1.1918257e-14,-2.045152e-13,-6.070556e-14,-5.1127417e-15,2.1485194e-15,-4.4260277e-14,-1.5221585e-13,3.014528e-14,-3.8956035e-14,-7.732468e-14,3.9552752e-14,-1.3426703,0.55658376,4.2099367e-15,-2.3095661e-14,-4.109674e-14,1.6158742e-13,5.4293982e-14,0.35768506,-1.3162305,1.5487112e-13,2.1003097e-15,-1.8741705e-14,8.059247e-14,-2.7860835e-13,1.631296e-13,4.284292e-14,2.9713272e-15,2.5984217e-13,2.8111785e-13,1.1699864e-13,0.28775153,2.6178834e-14,-5.7521974e-15,-3.7750247e-13,-1.9240021e-13,-6.19706e-14,5.1694993e-14,-8.254955e-14,-4.6245268e-14,-1.06468274e-13,2.9364353e-13,1.4337845e-13,2.8180138e-13,-3.1151886e-14,-9.7184535e-14,-1.6333174e-13,3.78289e-15,-1.5395613e-14,1.6697201e-13
-1.794444e-14,-2.156609e-13,3.0825653e-14,4.6932923e-14,-2.3824496e-15,-2.2425631e-14,-2.2459477e-13,-5.1599733e-14,1.9424843e-13,8.405638e-14,-9.4041115e-14,0.42746195,-1.531476,-2.8131474e-13,3.131822e-13,2.3462677e-15,-3.6280018e-13,-2.2739086e-13,-1.519649,-0.2992202,3.5875105e-14,-1.033193e-13,1.2650966e-13,-3.4078607e-13,-4.304711e-14,-2.467856e-13,-6.341394e-14,-8.644135e-14,7.658084e-14,-7.670258e-14,-9.160053e-14,-1.2550173,-2.0582304e-14,-1.7154991e-13,-1.3112967e-13,4.1304956e-15,-9.9953486e-14,5.898031e-14,1.1111035e-13,-1.8986545e-14,2.4010243e-13,1.9536441e-13,-1.8851365e-13,2.9589944e-15,1.5622052e-13,-2.1660871e-13,3.523515e-13,-1.47281e-13,-1.5938658e-13,-1.9068689e-13,-5.045576e-14,2.316336e-14,2.9452046e-13,-7.7257496e-14,4.705485e-15,4.3551026e-14,1.973746e-14,-4.601499e-14,-2.0582093e-13,-7.840852e-14,-2.2580874e-13,-1.3819623,0.562262,-1.081145e-13,4.9606173e-14,-1.8754213e-13,3.9474453e-14,-2.9372384e-15,-0.07856132,-1.4126718,1.2421853e-13,8.8843544e-14,1.2064248e-13,1.1828659e-13,9.152e-14,3.960733e-14,-1.5209595e-14,-9.265638e-14,3.2081732e-13,-1.181552e-14,1.2707535e-13,0.46136746,-7.232984e-16,7.510252e-14,1.7643713e-14,3.9146027e-14,-3.0102244e-13,-3.1713523e-13,-2.7516916e-14,-5.6044226e-14,-9.4144825e-14,-1.5267434e-13,5.2172158e-14,1.11242294e-13,9.410839e-14,-2.6374535e-13,-2.882817e-14,5.545223e-14,-2.0915412e-14,4.8281332e-14
2.5957434e-13,2.9914873e-14,1.5077242e-13,2.6226403e-13,7.275562e-14,1.0459794e-13,-2.0419552e-13,1.4610271e-13,9.52061e-14,3.251056e-13,2.2648136e-14,0.35775667,-1.5833888,-1.1631848e-13,-1.8452227e-13,1.9105502e-13,-6.97085e-14,-2.4354347e-13,-1.2311589,-0.22730438,-1.9919431e-13,-2.25106e-13,1.3041095e-13,-3.616956e-15,2.7111318e-13,-3.9840225e-14,2.7530755e-13,1.4472105e-13,-4.051562e-15,-9.028027e-14,-6.761398e-15,-1.2350371,3.784998e-14,2.0584619e-13,1.4151595e-13,1.4823226e-13,-5.3149654e-14,6.257009e-14,-1.9258927e-13,1.5151568e-13,3.0687085e-14,4.8818913e-14,-6.7592755e-14,-1.00818605e-14,-1.4375143e-13,6.9570624e-14,1.3189737e-13,-1.7972277e-15,-1.2713203e-13,-3.9274932e-14,-1.7651841e-13,-1.1158573e-13,6.605736e-14,-1.1234242e-13,-4.5136692e-17,-5.4844364e-14,-5.716819e-14,4.8504644e-14,-7.650405e-15,-3.7537294e-13,5.4672968e-14,-1.3548932,0.52514094,-1.3555696e-13,1.4689557e-14,1.7012826e-14,5.8509404e-14,1.7298814e-13,-0.86017716,-1.3756685,1.3202834e-13,-1.202329e-13,-1.7963991e-13,7.85406e-14,-1.5955752e-13,8.914316e-14,-1.0180835e-14,-1.9150724e-14,-8.2096385e-14,3.235344e-15,-1.9958751e-13,1.3953668,-3.8985796e-14,-1.4897868e-13,-2.3734487e-13,-5.7592453e-14,-2.5726892e-13,-1.0854185e-13,-2.0932912e-13,2.180028e-13,2.3487844e-14,4.1886294e-14,1.5419033e-13,-3.214662e-13,3.949517e-13,1.894064e-13,-8.275417e-15,-9.285578e-14,9.65132e-14,-4.6247274e-14
8.003312e-14,2.4575215e-13,9.559896e-14,-4.431961e-15,1.5457054e-13,2.2854597e-13,5.4207474e-15,-7.550317e-14,-7.471879e-14,1.4094585e-13,-4.025038e-14,0.61047935,-1.499135,-5.6621517e-14,9.93014e-16,-1.9777119e-13,6.965912e-14,-1.5260633e-13,-1.5375181,-0.41519868,-1.9669867e-14,-9.784247e-14,-1.0779152e-13,-1.8251266e-14,9.6147415e-14,7.4974545e-15,-1.5017149e-14,3.3316638e-14,3.871013e-14,5.358188e-14,-1.2922558e-14,-1.2620779,-9.01115e-15,2.1365796e-13,-5.216312e-14,3.369309e-13,-1.1766295e-13,-3.943362e-15,1.7883042e-13,-8.2672665e-14,-8.3061155e-14,2.581123e-13,2.3222913e-14,-6.658523e-14,-8.119224e-14,-5.5027116e-14,-1.6732844e-14,-3.2068034e-14,2.888435e-13,7.1377556e-14,8.267279e-15,1.886147e-13,1.4309845e-13,-1.4416139e-13,1.9975436e-14,7.540448e-14,4.9809684e-14,-6.774018e-14,8.181097e-14,-1.1899059e-13,4.702571e-14,-1.3373755,0.73908377,3.5412884e-13,-5.2152533e-14,2.4716354e-15,-2.2272806e-13,-5.040849e-14,-0.12923872,-1.3517989,-1.1547977e-13,-1.2761398e-15,1.0112896e-13,9.722739e-15,-8.2869936e-14,-5.347622e-14,1.08803605e-13,1.9800969e-13,-4.222928e-14,-2.9718795e-14,-7.5929605e-14,0.72437143,-3.2985242e-14,-2.0184172e-14,1.603268e-13,-1.782545e-14,1.430911e-13,-1.0226821e-13,3.3763492e-14,-1.4226568e-13,9.882759e-14,1.4852797e-14,2.9422076e-14,2.9203365e-13,-1.4105541e-13,3.7875055e-13,-5.914556e-14,8.542026e-15,-1.0397092e-15,3.2359022e-13
2.5295478e-13,2.2355866e-14,1.8225731e-13,-2.35264e-13,-1.8275671e-13,-2.466208e-13,-4.8609188e-14,-1.8460646e-14,-7.698797e-14,-1.7965638e-13,1.2501075e-14,0.9404156,-1.4299014,-3.8037197e-14,-6.074305e-14,-9.862706e-14,-2.142406e-13,-4.2599604e-14,-1.4125644,-0.76479685,5.308066e-14,-3.1593003e-13,6.130054e-14,3.7010014e-14,1.3440312e-13,-2.1947864e-14,-6.335077e-14,1.1042227e-13,-1.8787106e-14,-1.16452665e-14,1.06952594e-13,-1.14954,1.8072034e-14,-3.67132e-14,6.1173e-14,-8.8465585e-14,1.9635972e-14,-2.6495606e-14,7.718865e-14,-4.009288e-14,1.7318232e-14,4.7333143e-14,-8.005017e-15,-1.916845e-13,-8.815919e-18,3.3700127e-14,8.80006e-14,-5.3681062e-14,4.442088e-14,1.2898532e-13,-4.3059604e-14,-4.1128064e-14,8.89613e-14,3.618764e-13,-1.3278633e-13,-1.4054101e-13,-4.1012766e-14,3.6628076e-15,-2.4741626e-13,-4.5475047e-14,3.6606124e-13,-1.3628268,0.8771124,-1.9992302e-14,-2.337793e-13,-4.1233702e-13,-2.7272488e-13,-1.0345355e-13,0.071818866,-1.3337685,-1.1913215e-13,3.7472618e-13,2.1041938e-13,-1.1817878e-14,2.6481218e-13,2.7902615e-13,3.7897295e-13,6.820126e-14,2.2389931e-13,2.8841523e-13,2.9337389e-13,0.8144301,1.6357933e-13,-1.5941994e-13,8.73168e-15,8.4451204e-14,-1.08410595e-13,-7.766045e-14,-1.8797453e-13,5.1106553e-14,-7.379598e-14,-1.8474744e-14,-1.3272322e-13,5.6347735e-14,-8.175045e-14,-5.9102944e-15,-7.967405e-14,-2.4351018e-14,-5.2299592e-14,-9.408842e-15
4.885819e-14,-1.1906749e-14,2.1882191e-13,-1.7307156e-13,-3.4639812e-14,1.4431247e-13,2.990364e-14,2.1607657e-13,-1.9509164e-13,-5.640245e-14,5.091703e-14,0.46464276,-0.98184454,2.6445767e-13,-6.962655e-14,4.7677824e-14,-7.7796554e-14,-1.2844039e-13,-1.3066111,-0.41703278,-4.996518e-14,3.7017842e-13,1.5051423e-13,-1.359442e-13,8.2775604e-14,-3.757184e-14,-1.0617287e-13,1.0671321e-13,-7.8830355e-14,-8.74819e-15,-5.345961e-14,-0.68969685,-1.177462e-13,-5.4357787e-14,1.2556037e-13,6.519925e-14,-2.107092e-13,-1.1800652e-13,8.03891e-14,-6.424923e-14,5.419703e-14,-8.5584426e-14,-6.510014e-14,-1.0951144e-14,3.0984292e-14,1.3877507e-13,-3.6359818e-14,-2.536716e-14,-3.359003e-13,1.6368187e-14,-5.0471468e-14,1.8550699e-16,1.2278538e-13,-1.3159424e-13,1.7069236e-13,6.3816025e-14,-5.5180215e-14,2.9869203e-13,1.689761e-13,-2.8229345e-14,5.9725553e-14,-0.91278815,0.76954114,3.880346e-15,7.5894464e-14,-1.2216946e-14,3.246182e-14,-8.3250525e-14,0.060729943,-0.9033805,-2.161159e-13,3.332641e-13,-7.3619076e-14,-1.3597406e-13,-9.942465e-14,2.5549905e-14,1.8046049e-13,-4.8239238e-14,-6.692472e-14,-2.0253577e-13,1.1513127e-13,1.0371236,-1.1067346e-14,-9.619286e-14,2.4127496e-13,-3.2004266e-14,-4.6933507e-15,2.1147323e-14,-1.5095339e-13,5.985969e-14,3.4803204e-13,6.543493e-14,4.5020956e-14,-1.1103949e-13,8.846736e-14,1.7247217e-15,5.029092e-15,2.3106514e-13,-8.6162265e-14,1.4442546e-13
-2.1248752e-14,5.879469e-14,1.0343789e-13,-6.589544e-14,3.1478804e-14,-2.1171773e-13,-4.2107607e-13,-2.1837516e-13,-4.1893545e-14,-6.802569e-15,-3.1550798e-13,-0.034134187,-1.3913529,-6.546075e-14,1.5956333e-13,1.4895478e-13,-1.3043215e-13,2.0679124e-15,-1.3585004,0.1374124,2.8765814e-13,-1.228108e-14,-6.783603e-14,-2.050263e-13,-9.2819675e-15,-3.2105693e-14,7.438687e-14,1.8115915e-13,-6.821939e-14,5.312733e-14,6.4061e-14,-0.9850573,-5.808795e-14,-1.9338558e-14,1.0077825e-14,1.13109026e-13,-3.5185505e-14,3.6373418e-14,-1.3812622e-13,-6.3239304e-14,8.021848e-14,-6.061297e-14,7.472011e-14,-6.971996e-14,-1.9590528e-13,-2.652121e-13,2.8796122e-13,5.2445515e-14,1.5844737e-13,7.923878e-15,-3.67091e-14,7.6826654e-14,6.686029e-15,1.745175e-13,-2.4315912e-13,-7.2821056e-14,-6.27565e-15,9.161039e-14,7.5971584e-14,-2.643865e-13,7.791468e-14,-1.2530652,0.60084367,-1.4724921e-13,1.3351547e-13,2.5154175e-14,-3.470775e-15,6.730426e-14,-0.3056518,-1.2214887,7.215345e-14,-1.7474707e-13,-3.1049815e-14,3.0675054e-14,6.145714e-14,-3.2533997e-14,-8.6173907e-14,1.3409807e-13,3.4393305e-14,-8.977515e-14,6.022533e-14,1.3314328,6.625081e-14,-1.226623e-14,2.6265977e-14,3.7908892e-14,-3.144032e-13,-9.639651e-14,1.2731573e-14,-8.531828e-14,7.334858e-14,1.7764964e-14,2.7983434e-14,-2.0660329e-13,-2.5211406e-13,8.199046e-14,3.856148e-14,-4.6537332e-14,9.060855e-14,-2.941645e-13
-3.6202134e-14,2.0781144e-13,-9.596172e-14,2.4161632e-13,-2.2309222e-15,5.2153645e-14,-8.086229e-14,2.9337405e-15,-1.10532745e-13,-1.0077551e-14,1.7712177e-13,-0.02587676,-1.6050248,3.752381e-13,-1.9330918e-14,-1.6852497e-13,-1.7303358e-14,-2.189839e-14,-1.5063767,0.28738996,-1.11837744e-13,-4.8554744e-14,-2.5786518e-13,-9.15645e-14,7.237452e-14,1.446974e-13,-7.0861455e-15,-4.7948834e-14,-3.773815e-14,-9.8250726e-14,1.6462682e-13,-0.95745546,3.580907e-14,8.619403e-15,6.099607e-14,-7.2106275e-14,-1.2448563e-13,1.8531994e-13,-9.80346e-14,-7.569384e-14,-2.5092551e-14,-2.7995032e-14,-1.6530261e-14,6.724614e-14,1.9348996e-13,-9.7090765e-14,-2.6402149e-14,8.0862915e-14,2.9060253e-13,-2.3271112e-13,-4.7884683e-14,-3.390024e-13,2.8316359e-14,1.3983386e-13,7.009687e-14,3.0218756e-13,6.799575e-14,-4.5686958e-14,3.874378e-14,-1.2951097e-13,-2.2360358e-13,-1.3647339,-0.21376544,1.908992e-14,-1.2480658e-13,-1.3646613e-13,7.844345e-14,3.1247774e-14,-1.141846,-1.365773,-1.3080665e-13,2.584143e-14,3.3256178e-13,5.6279634e-14,8.62161e-14,1.371941e-14,2.3598823e-13,1.9923826e-13,-1.1845668e-14,1.3327571e-13,-7.204077e-14,1.8988776,1.1939642e-13,-1.3006724e-13,1.411615e-14,-2.762781e-13,1.3605969e-13,-7.67317e-16,-1.8538746e-13,5.6763405e-16,1.861916e-14,-5.2088406e-14,-1.8472826e-13,4.9022892e-14,6.483714e-14,3.5304255e-13,-4.8442976e-14,-1.0505503e-13,2.7269059e-14,8.933287e-15
5.7424524e-14,-9.3465586e-14,-3.9663355e-14,-6.723539e-14,-1.6267716e-13,-4.413477e-14,1.516812e-14,1.828743e-13,2.9961134e-14,2.3289308e-13,-6.229113e-14,0.027726963,-1.6277475,-2.4347326e-13,-2.0538377e-13,1.1369436e-13,2.5072412e-14,4.0488077e-14,-1.4474399,0.1369391,-7.7014065e-14,-2.249689e-13,-2.8120047e-14,-1.853508e-15,2.2321625e-13,-8.5260724e-14,-7.082516e-14,-1.6393879e-14,-1.1895235e-13,-3.7133618e-13,-3.913635e-14,-1.2992176,3.815977e-14,1.0751352e-13,-1.9930826e-13,-2.812846e-13,1.3094899e-13,-2.1144973e-13,2.4390025e-13,-1.8101787e-13,3.874024e-14,7.620039e-14,-1.7763544e-13,1.5158218e-13,1.9376154e-13,2.721417e-13,-4.8861516e-14,1.06593215e-13,-7.9473646e-15,-1.79749e-14,-7.681099e-14,-1.2067756e-13,-1.2243982e-13,3.9393578e-14,1.3760404e-13,1.7793781e-13,4.946624e-14,-1.3903532e-13,5.70991e-14,-6.369517e-14,3.332284e-13,-1.4543642,0.086961925,-7.6770763e-14,-1.0524065e-13,9.416651e-14,5.569428e-14,-1.1164748e-14,-0.53436404,-1.4187138,-7.55371e-14,2.903786e-13,5.813081e-14,1.7368163e-13,-4.175178e-13,-3.538926e-14,-9.118818e-14,2.5045843e-13,1.301044e-13,-1.6243918e-14,-9.3506095e-14,1.0227294,8.269564e-14,7.6897364e-14,1.7085705e-13,-1.3476729e-13,1.4933765e-13,-4.4174984e-14,1.4118143e-13,4.8153762e-14,-1.3550746e-13,2.5828807e-13,-3.054983e-14,-1.5032798e-13,-9.767031e-14,-2.0871146e-14,1.5581147e-13,-2.0012796e-13,4.130726e-13,1.37042e-13
2.1740762e-13,-3.4989847e-13,2.1230061e-13,-7.666756e-14,1.9910618e-13,-1.5800078e-13,8.660532e-14,-5.1592997e-14,6.666732e-15,6.7574445e-14,1.370307e-14,0.20876424,-1.5396804,1.2274396e-13,1.6615878e-13,-3.4173245e-13,-1.7400086e-14,-1.4977277e-14,-1.4094818,-0.061434023,-3.611859e-14,-1.3591741e-14,1.3475264e-13,9.415717e-14,2.929828e-14,6.683188e-14,-9.146188e-14,-2.4948262e-13,3.305964e-14,-8.4210105e-14,2.1753517e-14,-1.1497428,1.5191169e-13,-6.2966044e-14,-9.086556e-14,1.4393554e-13,-1.2566826e-13,-1.1311408e-13,-1.12276074e-13,-5.0641644e-15,2.625759e-13,1.055797e-13,-1.6971342e-14,-2.9519254e-14,2.2979966e-13,6.223689e-14,-6.0060924e-14,8.846911e-14,-2.358566e-13,7.0120586e-14,-3.4183295e-14,-1.81394e-14,2.363287e-14,-1.197913e-13,-1.8965659e-13,-1.5306434e-14,-1.9976628e-14,5.893666e-14,1.705341e-13,-1.7845381e-13,6.6158017e-14,-1.3574172,0.38676536,1.2522074e-13,-1.272336e-13,-1.5987354e-14,6.704462e-14,4.465811e-14,-0.4774425,-1.3126744,-1.6782176e-13,-1.9212183e-14,-2.6263937e-14,1.7211685e-13,-2.2940485e-13,3.634038e-14,-6.549049e-14,-6.146725e-14,1.6172548e-13,-7.2477736e-14,-2.9508615e-14,1.0885631,4.962244e-14,9.09204e-14,1.0355144e-14,-2.9384013e-14,1.6262199e-14,-1.6421024e-13,2.1048304e-13,-3.1187845e-13,3.0022547e-14,-4.5312028e-14,4.96017e-14,-3.5350493e-14,-3.2744125e-14,1.2856163e-13,-4.9713905e-14,8.6269425e-14,-1.9080806e-14,-4.564511e-14
3.5065216e-14,-1.2434899e-13,-5.3942467e-14,2.5363673e-15,6.6625694e-14,7.576152e-14,-1.6094951e-13,-1.7938526e-13,4.2095142e-14,-6.262627e-14,-2.0102843e-14,-0.26504302,-1.6283826,4.413143e-14,6.7267386e-14,-4.523242e-14,1.3611875e-13,-1.4927404e-14,-1.4131836,0.3412233,-1.4369368e-13,4.6636858e-14,1.5644783e-13,-6.1600424e-14,6.631949e-14,9.3476754e-14,-1.1398808e-13,-7.042936e-14,7.887008e-15,1.5493375e-13,-4.36803e-14,-1.314594,3.957686e-14,-2.7160281e-14,-2.7253192e-13,-1.5273325e-15,5.011962e-14,1.5033419e-13,2.1086534e-13,1.4730803e-13,1.8332815e-14,-2.5847063e-13,2.4793908e-15,-6.3648854e-14,-4.100985e-14,-1.0375453e-13,6.648786e-14,8.5680086e-14,4.2103277e-14,-1.6918121e-13,-7.578928e-14,-9.6762984e-14,5.757624e-14,-3.0471787e-14,1.3974602e-13,-6.328373e-14,5.938189e-14,-1.01276e-15,1.5593131e-15,2.5291962e-13,-2.794758e-13,-1.3339137,0.19018953,-3.6187226e-13,1.1662442e-13,1.7510331e-13,-6.6213e-14,1.6714061e-15,-0.41187048,-1.27031,6.543075e-14,-1.9329708e-13,-1.9310905e-13,7.75344e-15,7.1245717e-14,1.4896851e-13,-5.6218217e-14,6.178253e-14,-2.807012e-14,7.760612e-14,4.3588207e-14,0.8190638,1.4580394e-13,-1.0874692e-15,-3.0963195e-14,-1.1217287e-13,4.1133546e-14,5.4477913e-14,9.583522e-14,1.2307588e-13,1.5815292e-13,1.4558995e-13,7.7611494e-15,1.0049086e-13,-5.478782e-14,2.7621507e-14,-1.1441133e-13,-7.4311434e-14,-7.985091e-14,-1.3669894e-14
2.1689024e-13,1.0673302e-13,2.2956317e-13,-1.2913845e-13,-6.9306133e-15,-1.9979266e-13,1.3962795e-14,-5.210187e-14,2.32062e-13,-1.7281275e-13,5.71403e-14,0.9438671,-1.3875803,1.0572775e-13,1.9055626e-14,7.6900095e-14,7.892914e-15,1.3903571e-15,-1.3218424,-0.7455376,2.770602e-14,-8.2239174e-15,-3.5060575e-13,-8.9457345e-14,9.7802436e-14,4.4663478e-14,4.078822e-13,8.858055e-14,-1.2197879e-13,-3.4920346e-14,2.945266e-13,-1.0152378,-4.8201436e-14,-2.386413e-14,-3.679707e-14,-2.980573e-13,4.1692656e-15,-6.814734e-14,2.7381948e-14,1.4542786e-13,8.5522965e-14,-6.533811e-14,6.311382e-14,5.5902596e-14,8.463404e-14,-4.6287098e-14,1.2767788e-13,1.3792839e-13,2.808337e-13,1.1966242e-13,-1.2054698e-13,4.512909e-14,2.0448338e-13,-2.8523126e-14,-1.5756195e-13,3.1068654e-14,-2.9362748e-13,4.3144053e-14,-5.932172e-14,-2.9911376e-14,1.5830662e-13,-1.275013,0.8083228,5.014374e-15,1.5115995e-13,1.6148075e-14,-5.315247e-14,-6.4854e-14,-0.43278912,-1.2510947,3.7060627e-13,-1.5889728e-14,2.2417475e-13,1.6932568e-14,-1.4760629e-13,1.2450529e-13,1.6577554e-13,-5.929972e-14,1.1516951e-13,1.01642334e-13,-5.1271263e-14,1.1886028,1.5742987e-13,1.306946e-13,-3.7142977e-14,-7.710175e-14,-5.5695472e-14,9.311203e-15,-2.7456099e-14,-6.0100396e-14,-1.1147199e-13,-3.3051632e-13,-6.7553656e-14,-2.0325385e-13,2.1570786e-13,2.1584863e-13,-2.6531137e-13,1.4510086e-13,-1.1978007e-13,2.0336126e-14
1.087233e-13,9.9822975e-14,2.029177e-14,1.5348233e-13,-4.9731486e-14,-5.5375914e-14,-2.0119877e-13,-7.9322365e-14,5.6215747e-14,-1.6669882e-13,-2.5567737e-13,0.21227236,-1.5622851,-1.5777527e-14,-2.0824737e-13,4.6724912e-15,-1.3599422e-13,-4.3214838e-13,-1.5615541,-0.015333634,8.84122e-14,1.1922026e-14,-1.4187908e-13,-6.305473e-14,2.4102072e-14,-3.033152e-13,1.5933385e-13,-2.4703544e-13,4.2138702e-13,1.8728449e-14,-7.588613e-14,-1.1753722,9.4485834e-14,2.5643615e-13,-7.2369336e-14,-4.941072e-14,2.1503215e-13,2.6276797e-13,5.5427945e-14,-3.5043444e-13,1.2926333e-14,-6.021255e-14,6.485797e-14,-1.7875618e-13,-2.3179446e-13,-1.8275899e-13,-1.1745104e-13,-1.0080593e-14,5.058249e-14,4.1040776e-14,-2.1241431e-14,-2.5887376e-13,-3.0601888e-13,-3.1475744e-16,-3.8707075e-14,-3.1792784e-13,8.693932e-14,-1.6590371e-13,1.0842836e-13,8.436052e-15,1.5294648e-13,-1.3476211,0.11723854,-6.496641e-15,-1.1112206e-13,-4.6869376e-14,-1.820041e-14,-1.2522042e-13,-0.44410264,-1.3376688,-1.7427792e-13,-3.8513585e-14,-3.5034215e-13,-2.7227352e-14,2.592173e-13,1.4866873e-13,-1.067187e-15,-1.2367535e-13,5.8462214e-15,1.5455675e-13,1.5693278e-13,0.8966305,-4.7486056e-14,-1.2978941e-13,1.8941454e-13,-1.1966128e-13,-5.3417665e-14,-7.4391095e-14,-1.1881315e-13,-6.1999735e-14,-5.2854192e-14,3.3684982e-14,9.874064e-14,-2.5443542e-13,-1.4442504e-13,-4.5739982e-14,3.6863443e-14,-9.587039e-14,-5.1381147e-14,-4.0558957e-13
3.3314097e-14,-1.8567016e-14,-3.5967126e-14,-6.770426e-14,-6.6476684e-14,-1.7890714e-13,-3.971675e-14,1.7134558e-13,7.261158e-14,-2.7328454e-14,9.0486266e-14,0.6131317,-1.6271852,1.033741e-13,-2.2367973e-13,1.2140939e-13,-1.0279951e-13,-3.294163e-13,-1.4828153,-0.5201859,3.375839e-14,-6.4799504e-14,-1.624916e-13,-1.3058624e-13,-2.7299008e-14,-1.12781495e-13,-1.2948556e-13,-5.1835326e-14,1.0503656e-14,-1.3439677e-13,-1.424431e-13,-1.1438853,-1.5639551e-13,-1.0491347e-13,-8.390019e-14,-5.7525734e-15,3.235822e-13,-4.9263097e-14,-1.3616122e-14,3.6507598e-14,-1.2880288e-14,-9.1904525e-14,1.2695804e-13,-9.988145e-16,1.4812622e-13,-5.9319344e-15,-2.1045156e-13,-2.5929817e-13,-2.0342919e-13,-2.6104154e-13,-3.5173728e-14,1.1359747e-13,-1.7028647e-13,-1.3877067e-13,2.2823095e-13,-1.836431e-13,1.811817e-13,1.1207679e-14,-3.5480614e-13,-2.674324e-13,1.0537091e-13,-1.3876463,0.6551204,2.1212817e-13,1.1522996e-13,4.159144e-14,-4.8571993e-14,-2.0534361e-13,-0.26355112,-1.3916879,2.924714e-14,-1.7993524e-14,-3.7229063e-13,2.6049906e-13,-1.5481998e-13,-4.673205e-14,1.59657e-13,2.057432e-14,-6.1278836e-15,1.10943305e-13,-1.9883967e-13,1.0896409,2.7495105e-14,-3.6322188e-13,-4.5817144e-14,3.0188532e-14,-1.2720978e-13,8.2432e-14,1.4236633e-13,-1.4401991e-13,9.7440766e-14,-1.9677897e-14,-2.1211041e-13,-2.2166737e-14,2.3365974e-13,-1.1459118e-13,2.4827368e-13,-8.353681e-14,-3.519656e-14,-1.8251508e-13
-6.4632764e-15,-2.7612766e-15,1.8109761e-14,-1.9967318e-13,1.2523131e-13,-1.9671103e-13,1.14092085e-14,2.761098e-13,-1.4882152e-13,1.0383311e-13,8.454395e-14,1.028679,-1.5887175,1.7541391e-13,1.623607e-13,-1.4312686e-13,-1.9427081e-13,-2.1282771e-13,-1.4614441,-0.7577676,1.6183325e-13,-2.608482e-13,-1.2157702e-13,2.3154436e-13,-3.6289534e-15,6.004482e-14,-1.5711431e-13,-2.5630051e-14,-2.0155027e-14,-4.1746912e-13,-1.2011944e-15,-1.2119509,4.037045e-14,-3.8121897e-14,1.528116e-13,1.9653391e-13,-3.144429e-14,1.5019104e-13,-1.2911593e-13,8.688795e-14,-1.3074649e-13,-5.851379e-14,2.095058e-15,-3.8512996e-14,2.9370058e-14,9.0005375e-14,2.5824498e-13,5.701027e-14,1.4784037e-13,-3.41104e-14,-9.105903e-14,6.3243695e-14,-6.5714923e-14,-2.3602488e-13,-5.2623416e-14,7.9472975e-14,1.2396507e-14,-2.998914e-13,-2.6355572e-13,1.1239142e-13,-2.7895871e-13,-1.3472,0.30041882,-3.382997e-13,9.639172e-14,5.6721677e-14,-5.3038642e-14,3.494644e-13,-1.1402456,-1.3714052,-3.4649353e-14,-3.5411717e-14,7.256542e-14,-9.451492e-14,6.4940695e-14,-7.855233e-14,-1.316156e-13,-1.6503658e-15,-3.6569502e-14,-2.7397832e-13,-2.9141357e-13,1.0641298,3.3777508e-13,1.3170991e-13,2.6964002e-13,-2.5025422e-13,-1.5733579e-13,3.2060511e-13,5.799671e-14,-3.3159124e-14,3.379303e-14,-1.0430291e-13,9.833235e-14,-6.6125545e-14,-1.369695e-13,-1.7469144e-13,-3.4356348e-14,-4.5133544e-14,-2.719487e-13,2.2614095e-13
-3.424488e-13,-6.9140725e-15,1.6535503e-13,2.5446743e-13,-3.9905866e-13,1.9760894e-13,5.406803e-14,1.2189616e-13,-7.601256e-14,1.4057741e-13,2.5512069e-13,0.76957506,-1.5815252,-1.0450119e-13,1.4148608e-14,2.1730678e-13,-2.5228937e-13,-1.05196186e-13,-1.5884389,-0.52707654,-1.2052313e-13,1.2721097e-13,2.3768926e-13,-1.231472e-13,-2.0515555e-13,1.08781094e-13,1.3825819e-13,-1.4515876e-13,-3.0785576e-13,4.1632313e-14,-3.1599208e-15,-1.1623957,-3.3753247e-16,-7.08184e-14,-2.8085124e-14,-3.756336e-14,-1.4328634e-13,-6.911434e-14,-3.1748852e-13,-2.4783547e-14,1.3035417e-14,-1.1290178e-13,-7.1082795e-14,-1.3029966e-13,-6.1188224e-14,7.058135e-14,9.9166904e-14,-1.007802e-14,3.0032162e-13,-1.2742132e-13,-1.8088902e-14,3.453436e-14,2.7242843e-13,1.558627e-13,3.736088e-13,-2.78589e-13,4.447039e-14,3.3568558e-13,-1.028313e-13,2.682486e-13,9.292839e-14,-1.3419284,0.19553024,2.217649e-13,-3.067728e-14,6.970539e-15,8.774506e-14,-2.504033e-14,-0.70851725,-1.4076837,3.1723945e-14,-1.7246346e-13,-3.359431e-15,1.9049787e-13,1.1068804e-13,-1.0705261e-13,-1.8540346e-13,8.863207e-14,-1.12346046e-14,1.7917924e-13,-4.2912145e-13,0.8723277,-6.904013e-14,-1.213389e-13,5.1428097e-14,-1.7501517e-14,-2.7216368e-14,2.2418069e-14,-3.1455724e-14,5.7740244e-14,-8.9347177e-14,-5.3115227e-14,2.548204e-13,1.6518212e-13,-7.827616e-14,2.0225218e-13,8.9871944e-14,-1.5193738e-13,-3.5099351e-15,-2.4238837e-14
2.5814806e-14,-8.112875e-14,-1.2908918e-15,2.6783578e-13,-3.824045e-14,1.4728105e-13,1.8573841e-13,-3.5642184e-14,3.573032e-14,-4.769925e-14,1.6221909e-13,0.8028837,-1.50357,2.3589616e-13,3.1377346e-14,-1.3456121e-14,6.7251367e-15,-1.277719e-13,-1.4384307,-0.602019,1.751048e-13,2.2554972e-13,9.298697e-14,1.3622157e-13,5.181241e-14,-2.7611664e-13,-9.250609e-14,7.949919e-14,2.8585703e-13,-3.7461126e-14,1.7944102e-14,-1.1573462,-1.7915538e-13,1.060286e-14,2.7944108e-13,-1.10672607e-13,3.1716715e-14,2.9331336e-13,-3.0427817e-13,7.6176383e-14,-3.0544398e-13,1.2938095e-13,-2.0484402e-13,-2.0874128e-13,-1.3799888e-14,1.8620286e-13,4.1758958e-14,1.7082142e-13,3.4788372e-13,-5.779584e-14,-9.132987e-15,-6.933897e-14,-1.2197148e-13,-1.0514778e-13,-3.5520577e-14,2.304708e-13,7.296486e-14,-6.319126e-14,-1.0454673e-13,9.523838e-14,-6.2885285e-15,-1.3795328,0.55276203,1.9317901e-13,7.120111e-14,-1.3727753e-13,2.193942e-14,-3.1587553e-17,-0.33299318,-1.3387171,-2.3892184e-13,-9.4911383e-14,-2.9832917e-14,1.163742e-13,1.7495692e-13,-1.2614286e-13,6.178892e-14,7.857301e-15,2.0242147e-13,9.021619e-15,-8.696439e-14,0.94469184,-1.6795538e-14,-2.7242477e-15,-1.9814684e-13,-4.0779297e-14,9.3342136e-14,1.286314e-13,3.7708328e-14,2.6545755e-14,-1.7054199e-13,-1.17641e-13,9.779629e-14,-1.1530435e-13,-1.4364878e-13,1.8493582e-13,2.0484813e-14,-9.731071e-14,3.4174385e-14,3.3493287e-13
-4.35841e-14,-2.468724e-13,2.589195e-13,3.637636e-14,1.6251945e-13,3.007518e-14,-1.229442e-13,6.829991e-14,-2.5819004e-13,7.6745325e-14,7.661219e-14,0.36313975,-1.1550066,-1.554113e-13,-9.780673e-14,1.6099122e-14,-7.643673e-15,-2.6533639e-14,-1.4920622,-0.3213194,2.2340327e-13,-1.244007e-13,4.720122e-14,-2.166163e-13,9.890701e-14,-1.7695207e-13,2.39645e-13,1.6339523e-14,4.659093e-14,-1.249541e-14,-1.548387e-14,-1.0169928,-3.283768e-14,-1.4913828e-13,2.2365971e-13,-1.9914654e-13,-6.8636245e-14,1.5855522e-13,1.01017346e-13,-1.7806918e-13,2.7119806e-14,-2.4361294e-14,-3.0149787e-13,-3.6446524e-13,2.0734979e-13,7.841827e-14,9.198092e-14,-1.0122016e-13,-1.1503499e-13,2.4918677e-13,2.6825138e-13,-1.2567676e-13,2.9864556e-14,-4.4432096e-14,-4.3570138e-14,1.8738917e-14,3.7375552e-13,9.701556e-14,-2.2617193e-13,-1.6121548e-13,4.407632e-14,-1.179167,0.33736375,1.2406639e-13,-2.7336388e-13,-9.89681e-14,5.347525e-14,1.0942018e-13,0.33368862,-1.2061821,1.3167866e-14,3.0726635e-14,3.5309964e-14,9.5882795e-14,-1.10528625e-13,3.6186294e-14,1.8933002e-14,-2.0358315e-14,-1.640425e-14,1.4773976e-14,2.4314855e-13,0.52100366,7.026213e-14,-1.0613202e-13,1.0006365e-13,-2.2431091e-13,-1.8677865e-13,-2.9779277e-13,1.549719e-13,-8.730952e-14,3.5042434e-14,1.4664547e-13,1.8019917e-13,-7.236183e-14,-1.5555706e-14,2.5277594e-14,9.7614686e-14,3.7428895e-15,-5.553537e-14,-3.1546946e-14
-6.001601e-15,-3.321317e-14,-1.4640074e-13,-2.431995e-13,5.956375e-14,1.8504904e-13,-3.5837557e-14,3.9508456e-14,-2.1764886e-13,-1.643335e-13,-2.1853073e-13,0.77528006,-1.372285,3.5886286e-14,-2.4043053e-13,1.5814612e-13,2.4413836e-14,1.492771e-13,-1.5745678,-0.5349141,-1.7248911e-14,1.931798e-13,4.3151406e-14,4.507503e-16,1.0022072e-13,1.8642046e-13,-4.3087746e-14,-4.3045553e-13,1.355002e-14,1.1534217e-15,9.786499e-14,-1.1965133,-6.6905635e-14,-7.1558976e-14,2.0564121e-13,2.0189866e-13,-9.3533796e-14,2.276678e-13,-1.1464289e-14,1.3984057e-15,-3.0230161e-13,-6.3924804e-14,-2.667977e-14,4.791646e-14,-9.255807e-14,1.8237348e-14,-6.9308844e-14,-1.5359304e-13,1.9576715e-13,1.1122899e-13,9.2319774e-14,6.5434955e-14,6.076301e-14,-1.674483e-13,1.0328117e-13,1.6543348e-13,2.2651877e-14,9.675053e-14,6.93566e-14,1.6726346e-13,7.0142216e-14,-1.3059268,0.37512872,-1.7744692e-13,-3.93059e-13,-6.129574e-14,-4.3540223e-13,1.0057577e-13,0.14796211,-1.2991586,-3.2724718e-14,1.3064319e-13,-1.4029048e-13,1.1658622e-13,3.5546046e-14,-1.5868813e-14,2.8255574e-14,7.737187e-14,-5.226729e-14,-5.1366694e-14,8.878312e-14,0.52088994,-2.3951742e-13,1.4250885e-13,-1.4158019e-13,-1.09510315e-13,2.4152938e-14,-2.549391e-13,-4.9909417e-15,4.5469264e-14,1.2354755e-13,-1.7755484e-13,5.3616562e-14,-1.2182624e-13,-6.415673e-14,1.240545e-13,8.421341e-14,1.7602125e-13,1.4096433e-13,-1.1452265e-14
5.1562528e-14,3.434753e-14,7.361392e-14,-8.953344e-14,1.0570117e-14,-2.0224897e-14,-9.75755e-14,3.682608e-15,-8.045035e-14,-5.4880227e-14,-3.3912318e-13,0.72793657,-1.4875387,-9.396324e-14,-3.497776e-13,1.6557011e-13,5.0753387e-14,1.2993504e-13,-1.6944809,-0.7210592,-1.0303748e-13,1.8500796e-13,-1.4065851e-13,-7.53291e-14,-9.939846e-14,-1.6748349e-14,3.4858948e-13,1.505868e-13,1.3612218e-13,-2.1201912e-15,6.2395564e-15,-1.2551957,-3.8779418e-14,-1.8399812e-14,2.256572e-13,-1.7296833e-13,-1.8690148e-13,2.165549e-13,-5.3467078e-14,9.172903e-15,-8.6545314e-14,-1.8191752e-13,-1.7485259e-13,-1.0600695e-13,-7.5850364e-14,2.5493239e-14,6.358272e-14,-1.13326523e-13,9.746587e-14,4.6501516e-14,-1.2279869e-13,1.972731e-13,2.1186411e-13,2.8538302e-14,5.713592e-14,-2.566337e-13,-1.9785015e-13,9.263071e-14,6.6537487e-16,4.126447e-14,-2.2867683e-13,-1.355323,0.5484787,-2.0192032e-14,-1.9686679e-13,-7.1621305e-14,2.1217564e-13,-3.0996947e-14,0.4640065,-1.3459587,4.1963652e-14,2.4799675e-14,-5.392253e-14,-8.8487547e-14,3.0801066e-14,-1.0432312e-13,8.6230204e-14,-3.096613e-14,-4.0129033e-17,7.519433e-14,1.3312138e-13,0.21089269,2.9412897e-14,-1.7795398e-13,-1.5217691e-13,-3.9440334e-14,-5.753418e-14,-2.9363778e-13,1.1624291e-13,1.5697516e-14,-2.034193e-13,-1.3760858e-13,2.2813432e-13,7.870627e-15,-1.5550351e-13,-6.0794604e-16,-1.797658e-15,6.627605e-14,-3.8272751e-13,-3.7284127e-14
2.7370453e-13,-2.4457126e-13,1.6770273e-14,2.4966672e-14,-1.486452e-14,-1.6985572e-14,-1.4435413e-14,1.7729007e-13,2.620863e-14,-4.5251814e-14,-1.7681318e-13,-0.5618078,-1.5516808,3.9319608e-14,-7.62108e-14,2.5776093e-15,2.8853615e-14,1.8680374e-13,-1.2100794,0.49849334,-4.705677e-15,-8.144703e-14,1.2758608e-13,9.83701e-14,1.6176145e-13,3.201875e-13,-1.3673578e-13,7.9991454e-14,6.481671e-14,1.8908095e-14,-4.7853567e-14,-1.1151694,-9.903426e-14,-6.409544e-14,-5.788301e-14,1.0690877e-15,-2.347562e-14,-5.6069847e-14,-2.530364e-13,7.6280114e-14,-1.1430418e-13,3.1777593e-14,7.308825e-14,-7.364169e-14,-3.9607315e-13,-1.3864306e-13,5.4232043e-14,-1.6475814e-13,1.3721218e-13,-2.1979262e-13,-1.1385817e-16,-2.8469794e-16,-1.1595182e-13,-1.2893359e-14,-1.5837983e-13,-1.4134539e-13,-1.7315575e-13,2.9335936e-15,-4.438713e-14,2.5333872e-13,-2.6497393e-14,-1.2929926,0.32153445,-1.11769386e-14,-9.859161e-14,-3.9600923e-13,1.4142265e-13,5.014397e-14,-0.4739955,-1.2843199,2.943952e-13,2.1739097e-13,-2.3486096e-14,-1.3757092e-13,-1.7696288e-13,1.01112295e-13,6.742824e-14,6.063973e-14,9.0536235e-15,2.1298585e-13,1.4439203e-13,0.8819869,3.4940563e-14,5.367221e-14,-9.304881e-14,-6.414819e-14,2.5351097e-13,-1.7751597e-13,-5.14697e-14,-3.3468965e-14,3.83169e-14,3.886163e-13,1.5950782e-15,-8.822222e-14,9.576768e-14,2.1248736e-14,9.4625954e-14,4.7603638e-14,-1.9641843e-13,-3.0679826e-13
9.0158987e-14,-7.3227245e-14,6.3604294e-14,3.6068838e-14,5.923097e-14,-2.1587026e-13,8.5857665e-14,-8.765454e-14,-1.3965635e-14,-3.7885683e-13,4.2022084e-14,-0.36380035,-1.1996206,9.311586e-15,-2.2447281e-13,-7.02556e-14,7.463085e-14,4.178991e-14,-1.1833464,0.35177472,4.3033777e-14,-2.4751962e-13,-8.355303e-14,6.468136e-14,1.9211693e-13,1.5984317e-13,-1.9762488e-14,7.996088e-14,2.5933474e-13,-1.117208e-14,1.6950201e-13,-0.73287976,-4.454841e-14,2.1035521e-13,3.1950188e-14,-2.6555e-13,7.621795e-14,1.4912824e-13,-8.6756e-14,4.2551273e-13,1.4441573e-14,2.226636e-13,5.9023824e-14,1.998602e-14,-6.118846e-14,7.7679666e-16,1.6525484e-14,1.0425952e-13,-6.013218e-14,-8.139482e-14,-3.1944662e-13,1.2735266e-13,-9.662925e-14,-8.0268474e-14,3.0207973e-13,4.311479e-14,-1.03165306e-13,-7.7421935e-14,-2.4353905e-13,1.0951e-13,1.6528177e-13,-0.8980077,0.6358246,3.8511945e-15,-5.3090467e-14,1.02631425e-13,-1.6484342e-14,-6.231834e-14,-1.1244454,-1.0113267,-2.4895933e-13,-2.645325e-14,-3.0702312e-14,6.611976e-14,2.392895e-13,-1.471389e-14,9.605477e-14,-1.147899e-13,-3.4275293e-13,9.834055e-14,1.7198515e-13,1.125017,-4.605203e-15,2.4949877e-14,2.6856382e-14,1.07051974e-13,4.5148618e-14,1.9897296e-13,6.381849e-14,-5.9870444e-14,-3.585749e-15,-8.683433e-15,-2.1858917e-13,1.994321e-13,3.3075403e-14,-2.1098263e-14,-1.615223e-13,-1.8026669e-13,-2.2439544e-13,-2.2628904e-13
4.62184e-14,-1.2224325e-13,-1.5636608e-14,3.1985772e-13,2.1154946e-14,-7.935035e-14,-2.1477784e-14,-2.4230084e-13,-8.258962e-14,4.85638e-14,-8.430388e-14,-0.016367188,-1.5628246,3.2896299e-13,6.006069e-14,-1.3663085e-14,1.6847949e-13,-1.125229e-13,-1.2883927,0.29910567,1.3181344e-13,1.9157046e-13,-4.5345465e-14,2.121156e-13,-5.1773737e-14,-1.06949565e-13,-9.324022e-14,-2.553216e-14,-6.998825e-14,8.5332755e-14,3.7509812e-15,-0.8616926,-3.3321097e-14,-3.826015e-13,-1.5709024e-13,4.9497234e-13,-1.6217027e-13,-5.2786328e-14,-1.1725653e-13,1.7698247e-13,7.158942e-14,1.8997053e-13,-2.6625105e-14,-1.7326951e-13,1.9005845e-13,3.5343832e-14,-3.6205406e-13,-1.4068437e-13,1.0164547e-13,1.09372716e-13,-1.5441264e-13,-3.388087e-13,1.1090898e-13,1.3101087e-13,7.480065e-15,-3.6313313e-13,9.020901e-16,-1.0126719e-14,2.4906136e-14,-2.2781213e-13,-4.9486958e-14,-1.3241382,0.7375184,-1.7838175e-13,-1.9260944e-13,-5.101035e-14,-1.12342725e-13,-2.1060217e-13,-1.4042064,-1.357815,2.3740629e-13,1.798372e-13,6.660529e-14,-2.441071e-13,2.2590772e-14,9.0355105e-14,-6.405535e-14,1.5174374e-13,9.9442115e-14,8.048614e-14,-1.10145955e-13,1.7611053,2.99458e-15,2.1893919e-13,4.4050436e-14,-2.3803458e-13,2.6778251e-13,5.1880514e-14,-1.5683063e-13,6.0393754e-15,5.8868715e-14,4.7039087e-14,4.623648e-14,2.4762275e-13,6.116995e-14,3.9503967e-14,-1.0930059e-13,9.536787e-14,1.2107223e-13,-7.7603587e-14
5.0041344e-14,-6.430213e-14,-4.754808e-14,-2.5046585e-14,5.9642626e-14,-2.9675067e-14,6.656199e-14,-4.837866e-14,-3.8808624e-14,-8.7750526e-14,-2.8769776e-13,0.10230422,-1.4294968,-4.4826035e-13,-1.4172889e-13,1.1509928e-13,-2.0296515e-14,8.588444e-14,-1.5816885,0.013162823,-9.9787644e-14,4.9993877e-14,4.93873e-14,-1.6739667e-13,-6.222475e-14,-7.378663e-14,1.1665925e-13,8.909493e-14,2.7217066e-13,-1.4029874e-14,9.832276e-14,-1.0191482,2.8354777e-14,-1.3816151e-13,-1.1934487e-13,-1.4145477e-13,1.7751574e-14,1.2662006e-13,4.446999e-14,1.2490586e-13,2.5174863e-13,-1.5476275e-14,-3.5511253e-14,-3.7089946e-15,-1.971599e-13,4.238536e-14,-8.610971e-14,-2.821691e-13,-1.6968943e-14,-2.0183814e-13,2.1739799e-14,-8.990258e-14,-2.4792e-13,1.7151162e-13,-8.0488276e-14,-2.4789987e-13,-1.0151582e-13,9.196961e-14,-5.827797e-14,3.3106352e-13,2.2032838e-13,-1.2389232,0.34911957,1.0338408e-13,-9.2307414e-14,-3.1734577e-14,1.8189687e-13,-1.10840834e-13,-0.4615866,-1.3118794,9.7143356e-14,9.4715604e-14,3.723548e-13,-8.232382e-14,-3.505747e-14,-7.535421e-14,-4.1502202e-14,-2.6484728e-14,-1.2553985e-13,4.6792763e-14,2.0323703e-13,0.77678853,7.075761e-15,-6.6987086e-14,4.362026e-14,3.1475436e-14,1.238615e-13,9.483322e-14,2.3456961e-14,1.4150015e-13,-1.2424884e-13,3.2533878e-14,-1.959903e-13,6.3246934e-16,-4.746755e-14,-1.01754305e-13,2.29867e-13,1.8529395e-14,7.8618833e-14,-2.8114845e-13
-2.6051549e-14,3.4454746e-14,-2.7472396e-15,7.209878e-14,7.470641e-14,-1.3604837e-13,1.6730023e-13,-1.4537407e-13,2.44084e-14,9.635892e-14,-4.3825173e-14,-0.07215381,-1.5192797,3.710526e-14,1.220561e-13,2.3589658e-14,2.553146e-13,3.2543892e-13,-1.2513145,0.1198807,1.883275e-13,-1.5981162e-13,-8.148699e-14,-1.4344891e-14,-1.5581818e-13,-5.0246635e-14,3.2841975e-14,1.0264549e-14,7.220342e-14,-9.232473e-14,3.5697823e-13,-1.0459851,-3.8232145e-13,-6.178199e-14,-2.5309778e-13,4.972099e-14,2.73554e-13,-3.192528e-14,2.3523742e-13,-1.8966163e-13,7.384292e-14,-6.37604e-14,-8.289577e-14,-1.9426169e-14,-1.1431706e-13,2.5678956e-14,1.2196764e-13,-3.635674e-14,2.0767805e-14,-1.6145375e-13,4.1760913e-14,1.8153322e-14,-5.914697e-14,-1.1999265e-14,4.925517e-15,7.7559554e-15,-8.283902e-14,-2.4729763e-13,-5.1267957e-15,2.13737e-13,1.7993724e-13,-1.3226036,0.6510289,1.6780938e-13,-7.5323035e-14,3.0256906e-13,8.785194e-14,8.306691e-14,-1.07101,-1.303222,-5.2179256e-14,3.3462697e-14,2.415982e-13,6.672358e-14,-1.0107625e-13,-7.347424e-15,-5.2015192e-14,-5.1504008e-14,1.5606456e-13,-8.4726476e-14,-2.1464594e-14,1.816502,-4.88114e-14,6.298393e-14,-7.755988e-14,-1.8979371e-13,8.2743294e-14,6.085533e-14,-1.4418456e-14,6.875425e-14,-2.1605007e-15,1.4713385e-13,-9.819248e-14,1.2513811e-13,3.2259724e-15,-2.4761124e-14,1.13470675e-13,-1.2400535e-13,-7.74181e-14,3.3737387e-14
-6.1345704e-14,-8.05778e-15,-9.4757494e-14,1.9196287e-14,-2.4574093e-14,-2.4245463e-13,-2.3153308e-13,1.071665e-13,2.99906e-15,1.4141618e-13,1.5288145e-14,0.018640691,-0.88803345,-7.606082e-14,-7.712685e-14,1.0720641e-13,-9.558199e-14,-2.130197e-14,-1.0130286,-0.058911785,2.5090508e-14,-3.3974863e-13,-1.1166737e-13,-1.37920435e-14,1.9904186e-13,1.0974572e-14,-1.5787217e-14,-2.9237577e-13,1.3686171e-13,2.8335647e-14,-7.316369e-14,-0.47810215,7.4359396e-14,2.896889e-13,5.831144e-14,4.3741296e-14,3.8576828e-14,-5.0200865e-14,-2.2885017e-13,-9.19781e-14,3.276743e-13,9.560709e-14,4.0824606e-14,2.093611e-14,2.4067358e-13,-2.4160353e-13,2.3286078e-14,-8.9412696e-14,1.0854436e-13,-1.6164184e-14,-1.1102854e-13,2.3854047e-14,-1.385267e-13,-1.2431198e-14,-1.4047342e-13,2.359805e-13,8.451463e-14,-1.2826693e-13,1.5130212e-13,-4.0809543e-13,-9.3842916e-14,-0.7625931,0.61580956,-2.2044771e-14,3.2289797e-14,3.136563e-14,5.0041778e-14,2.9094893e-13,-0.26011375,-0.78079355,6.714307e-14,-3.920711e-14,6.1543286e-14,4.3645595e-14,-5.086072e-14,1.9142755e-13,2.7474381e-14,-6.617225e-14,5.7199146e-14,-3.70474e-14,-9.876081e-14,1.1968936,2.1123796e-14,3.0476183e-13,-6.940527e-15,-8.422008e-15,-2.7003088e-13,-5.553365e-15,-1.4588247e-13,2.5677984e-13,-8.71542e-14,1.9732382e-13,-5.530589e-14,4.020774e-14,3.3194672e-14,9.364163e-14,-3.6987496e-14,2.3325673e-14,-1.1998521e-13,-1.9704763e-13
-7.7576116e-14,-3.363398e-13,-7.7543874e-14,-9.090413e-14,-1.3317697e-13,9.375906e-14,1.2710685e-13,2.6447648e-13,3.8476028e-13,1.4047254e-13,1.9671381e-14,-0.33032796,-1.5474819,-2.626585e-13,-6.644529e-14,-2.669205e-13,9.0598556e-14,5.2065062e-14,-1.3395298,0.27579847,-6.123665e-14,-4.793852e-14,1.895399e-13,-1.8624682e-13,2.918053e-14,1.9767621e-13,5.1734367e-14,1.00554276e-13,-7.5169526e-14,-1.11193606e-13,1.604223e-13,-0.9363215,1.0694376e-13,1.3418943e-13,1.2362426e-13,-2.5932788e-14,-2.1841323e-13,5.9303114e-14,5.004203e-16,-2.3741103e-13,-5.9617005e-14,-1.2567436e-13,1.7010216e-13,3.2948728e-13,-3.7478667e-14,9.6973434e-14,1.4566592e-14,9.5091264e-15,-3.2838546e-14,-1.00082384e-13,3.1749776e-14,-3.095027e-14,-1.9763854e-15,2.3423795e-14,1.2305924e-13,2.8838648e-13,1.3993299e-13,7.712863e-14,-1.0745455e-13,7.796162e-14,1.4354938e-13,-1.3119327,0.18007003,4.6262216e-14,-9.699747e-15,6.723053e-14,-2.9651025e-14,-6.710942e-14,-1.3968349,-1.3537245,1.1560964e-13,-3.036292e-14,2.5356487e-14,1.3703565e-13,-1.0089626e-14,1.4138682e-13,2.3530203e-14,-1.2275872e-13,-7.695491e-15,2.8177635e-15,2.273939e-13,1.7130628,1.9111444e-13,7.71214e-15,-1.3655499e-14,1.939325e-13,-1.22757165e-14,-5.402305e-15,-1.2992338e-13,3.5775087e-14,-2.1461497e-13,8.226161e-14,-5.7243164e-14,-7.337995e-14,2.6700398e-13,-9.106989e-14,4.4978866e-14,1.1420669e-13,7.17911e-14,-1.9401483e-13
-1.2368824e-13,2.0284515e-13,-6.4529985e-14,2.4177708e-15,2.9181144e-13,-2.6351962e-13,2.6789164e-13,1.5361047e-13,-8.6106185e-14,1.401415e-13,1.4383168e-14,-0.010046307,-1.4613225,-1.3414836e-13,9.3733106e-14,-3.2647672e-13,-3.9602113e-13,-1.3562168e-13,-1.3379349,0.17654106,2.5969556e-14,1.5273966e-14,6.8568123e-14,-1.4387985e-13,7.909312e-14,3.250104e-13,-3.1365446e-13,1.8117907e-13,1.5882766e-13,-1.3647457e-13,5.957458e-14,-0.90663016,4.5470416e-14,-3.52998e-14,1.2934342e-13,-2.27184e-13,-5.910861e-14,3.936606e-15,9.2109534e-14,2.4041487e-13,5.755862e-14,-9.528755e-15,3.4014912e-14,3.722064e-14,9.208147e-14,-1.10678095e-13,4.569601e-14,-2.2098072e-13,1.3234663e-13,-3.114327e-14,-3.270256e-13,2.345307e-13,-3.802394e-14,-3.9057265e-14,-6.168701e-14,-4.0932484e-13,-1.00033913e-13,-2.1042111e-14,1.6870153e-13,1.08620795e-13,9.4417665e-14,-1.33044,0.5637807,-1.4442074e-14,-3.4425978e-13,-1.711872e-13,1.3629022e-13,1.7079624e-13,-0.7179007,-1.3296667,-1.8234912e-14,-2.2973472e-14,-4.8573863e-14,1.5277948e-13,1.9431173e-14,-2.4352742e-13,3.247612e-13,-1.01731e-14,1.706619e-13,-1.1477553e-13,2.4459685e-13,1.4835374,-7.209833e-15,-5.2837515e-14,-2.9097316e-14,-1.473602e-13,-1.6963842e-13,7.6629234e-14,-1.634433e-14,-3.0724278e-13,-3.1195207e-15,-1.3127853e-13,1.7740244e-14,-1.07101583e-13,2.899177e-14,2.0082547e-13,1.6959809e-13,1.3496313e-13,1.12935885e-13,5.4656797e-14
9.296217e-14,-7.171374e-15,-1.5940737e-13,-5.555342e-14,-2.3822326e-13,1.2266128e-13,4.0758744e-14,-4.5759444e-14,1.7796908e-14,-2.248513e-14,-2.1742558e-13,0.052290414,-1.5137465,-6.6070725e-14,-1.8026963e-13,1.3802106e-13,1.8860208e-13,1.2890703e-14,-1.3327343,0.044035707,-3.317056e-13,8.531117e-14,6.9464664e-14,-1.6502834e-13,-3.1161667e-13,6.768064e-14,-2.0120873e-13,9.5660133e-14,-4.1061443e-14,-5.2437147e-14,-3.7460494e-13,-1.0524594,-1.03997214e-13,-2.2150921e-13,6.0416963e-15,2.3441817e-13,-9.7098944e-14,-4.25141e-13,-1.0213305e-14,-2.2056105e-13,2.8125627e-14,2.659004e-13,-7.189954e-14,-1.5389772e-14,3.6631464e-14,-2.1450765e-13,2.2495142e-14,-4.4517206e-15,2.476555e-15,1.2147015e-13,-6.338477e-14,4.7590217e-14,3.6911484e-13,-2.416892e-13,-2.5956483e-13,6.3723854e-14,-7.77569e-14,-1.7872887e-13,1.5650858e-14,8.364594e-14,2.234791e-14,-1.2958351,0.74923897,6.578144e-14,5.974123e-14,-8.503962e-14,-2.6158846e-14,-3.7360333e-14,-1.431411,-1.3219923,-1.9956598e-13,-1.2446827e-13,7.451681e-14,2.0002354e-13,-1.358363e-13,3.02442e-14,4.705812e-14,-5.4653385e-14,1.38848e-13,-9.024457e-14,1.2175425e-13,1.3788817,-1.9906335e-13,-1.8794772e-13,-1.9913406e-13,4.6302202e-14,1.2866905e-13,-9.578228e-14,-7.130833e-14,-8.448326e-14,-1.6341395e-13,2.2604999e-14,1.2612676e-14,2.2137694e-14,4.8109296e-14,1.5910552e-14,2.4650006e-13,1.2132136e-13,6.0163287e-14,-1.9345343e-14
-3.1320974e-14,6.1982185e-14,2.0738881e-13,-1.04920575e-13,-7.5337075e-14,-2.7510072e-15,-1.06445695e-13,1.919031e-14,-3.6394017e-14,6.014231e-14,-1.728021e-13,-0.27329853,-1.5201815,-1.6489807e-14,6.833054e-14,7.090208e-16,-1.3322575e-13,-4.003916e-14,-1.4780011,0.2556033,-6.9075833e-16,-1.37101e-13,7.950387e-16,-4.3794964e-14,9.165348e-14,1.6569068e-13,-3.198108e-13,-4.0609774e-13,1.612968e-13,-3.662829e-13,-9.788992e-14,-0.96185404,-1.1176166e-14,-8.0851273e-14,-6.547947e-14,8.5503626e-14,-2.1690488e-14,-6.62749e-14,3.943793e-14,2.9277524e-16,9.389398e-14,-3.6283915e-13,-3.34618e-14,1.2622238e-13,9.9854004e-14,-4.5013946e-14,-7.349233e-14,-1.1670879e-14,-4.526357e-14,6.77139e-14,-4.343603e-14,-2.085635e-14,-8.419787e-14,1.4120711e-13,2.4013956e-13,-1.2941281e-13,-1.0065273e-13,4.4163966e-14,1.124702e-13,2.1103995e-14,-3.060468e-13,-1.2117049,0.7825598,1.267283e-13,-9.231963e-14,-9.4155105e-14,2.4504731e-14,6.330533e-14,-1.0219444,-1.2565578,-1.22736e-13,6.597304e-14,-3.1618215e-15,-2.641233e-14,1.6580751e-14,-1.07063765e-13,-9.5686385e-14,1.4697488e-13,3.1509795e-15,-7.8976065e-15,-3.7429754e-13,1.5952284,4.144161e-14,-1.5938246e-14,4.438145e-14,5.02402e-14,6.688044e-14,-5.664094e-14,-2.36638e-13,3.4806576e-14,-1.6024432e-13,5.783367e-14,8.026798e-15,-2.898766e-13,6.3093255e-14,-5.480302e-14,-6.2362455e-14,1.160617e-13,-8.8112053e-14,1.6542704e-14
-2.1457665e-13,5.710885e-14,9.0768274e-14,1.3280735e-13,1.945037e-13,1.2567688e-13,4.93346e-14,-1.2540321e-13,-1.3133533e-13,1.04882e-13,1.7277464e-13,0.5155223,-1.1954021,5.6945544e-14,-9.7458e-14,-2.7103902e-13,-6.3116186e-15,1.478437e-13,-1.4056463,-0.34802097,1.6818234e-13,1.4573866e-14,2.0933578e-13,-1.0856401e-13,7.371098e-14,-5.881722e-14,-2.4516047e-15,-1.6694647e-14,4.790046e-14,1.0394544e-13,2.5525076e-13,-0.69503903,-6.795709e-14,2.8157943e-14,-5.6623902e-14,-9.2156365e-14,-4.754234e-14,-1.1983443e-13,-2.3156927e-13,1.6519361e-13,-9.4901504e-14,-2.2593106e-13,1.662475e-13,-2.1915255e-13,-1.2678554e-13,3.6755053e-13,5.4330255e-14,-2.577077e-13,-3.0678002e-14,1.2665858e-13,2.2201587e-13,-1.1826309e-13,-8.098633e-14,-2.559184e-13,2.3407597e-13,1.720302e-13,1.460648e-13,-1.04190514e-13,-8.2459186e-14,-2.5974367e-15,1.8380456e-13,-1.0336785,1.061219,1.9229654e-14,-2.7637364e-14,-6.565372e-14,1.3777922e-13,2.945973e-14,-0.8214508,-1.11346,-2.1404245e-14,-1.3790962e-13,-4.5762968e-14,3.494189e-14,2.801289e-14,5.8877314e-14,8.086846e-14,8.682373e-14,-1.9336396e-13,2.5122824e-13,9.8698054e-14,1.2997017,7.727936e-15,-2.2683363e-13,-1.992604e-13,-1.4543367e-13,4.8999463e-14,1.0507939e-13,-1.11557715e-13,7.1924644e-14,-1.3055673e-13,2.7101263e-14,3.435926e-14,2.3442335e-14,5.8977955e-15,6.353633e-14,-6.1615094e-14,8.6295425e-14,3.2875944e-14,-4.0739608e-14
1.1438001e-13,-1.105017e-13,1.990517e-13,-5.6308697e-14,-8.192935e-14,-1.4811289e-13,3.9952945e-14,-1.4099278e-13,9.609607e-14,8.230005e-14,-2.2165548e-13,0.6663564,-1.6092936,6.6429e-15,-1.1446553e-13,-6.7343714e-14,-6.2747896e-14,2.272044e-13,-1.2916062,-0.50495374,2.1558989e-13,-1.3294121e-13,9.352572e-15,3.0454084e-13,-3.215751e-13,1.0336899e-13,-6.9199095e-14,1.1659895e-13,-9.7690404e-14,-2.4322585e-14,-1.4545128e-14,-1.0462564,-4.0397312e-14,-2.991002e-14,-2.4252066e-13,-2.2385198e-13,1.3140015e-13,-1.7176368e-14,-7.182446e-15,1.9104161e-13,-2.3189756e-14,-4.027384e-14,-9.17861e-14,8.551002e-14,-2.0063493e-14,3.707634e-14,-7.5373064e-14,3.6728053e-14,-1.9166548e-13,-3.6324906e-14,2.5961568e-13,1.2385587e-14,2.3621208e-14,3.982244e-14,-1.0662748e-13,-5.3257468e-14,1.604339e-13,-3.8881685e-13,2.7956624e-14,-2.7423224e-13,-1.8121554e-13,-1.3757495,0.77837956,-1.4484125e-13,-1.3511749e-13,5.9883054e-14,-3.442359e-13,-1.2033597e-13,-0.7627703,-1.338273,-3.953355e-14,7.028437e-14,2.8706658e-14,1.7186811e-13,6.1882486e-14,5.582177e-14,-1.8430006e-13,-3.1704738e-14,-9.075756e-14,-2.9178003e-13,4.5134882e-14,1.5143126,-2.3888316e-13,-2.7730007e-14,3.2224605e-13,-9.320785e-14,-6.719538e-14,-3.0925124e-13,-1.4037809e-13,1.9977816e-13,4.2948087e-14,1.1998521e-13,-8.5054434e-14,-6.1741858e-15,-4.6563935e-14,1.8315654e-13,-6.925602e-14,-1.12883945e-14,-1.3826826e-13,-9.769815e-14
-6.726482e-14,1.5928113e-13,2.8901377e-13,-9.076547e-14,1.5597728e-13,-7.5990944e-14,1.2768757e-13,3.6341024e-14,-6.8973134e-14,4.2866738e-14,-6.866968e-14,0.6342974,-1.5212859,-3.919072e-13,1.90305e-14,9.521306e-14,-4.11223e-14,-2.5642146e-13,-1.3601197,-0.3677365,-7.04235e-14,-4.2323285e-14,6.777715e-14,1.8005019e-13,6.679456e-14,-1.1510049e-13,1.414774e-13,-2.4861925e-14,1.1437173e-13,1.8186693e-13,6.3736864e-14,-1.2763431,-1.6631081e-13,-2.1257938e-13,1.5034485e-13,-1.9949808e-13,5.905158e-14,1.3783354e-13,-1.10206176e-13,8.339297e-15,-3.1693878e-13,3.8273055e-14,-4.7065772e-14,1.2140396e-13,4.045222e-13,-1.2172015e-13,-1.608019e-13,-1.8275773e-13,6.4681896e-14,-9.906686e-14,-2.6493467e-13,-4.1082163e-13,-1.9638967e-15,-1.3788914e-13,5.095263e-14,-2.7853567e-14,2.6466486e-14,2.7205142e-13,-2.2590794e-13,-2.0391477e-13,-1.5064029e-14,-1.3861353,0.519655,2.3699326e-13,-4.8414126e-14,-1.1440801e-13,-1.05773815e-14,2.0193378e-13,-0.6723391,-1.3777864,6.448403e-14,-2.5748465e-13,2.123966e-13,5.9425765e-14,-3.4191776e-14,1.7070381e-13,-1.2088666e-13,4.9826035e-14,8.822033e-14,1.4252549e-13,2.1329013e-13,0.9081355,-3.340429e-13,-6.1633844e-15,-2.5457227e-13,-2.7425389e-14,-1.1127334e-13,-2.6610664e-13,5.509617e-14,-2.087041e-13,-1.297861e-13,3.8866737e-14,4.8665634e-14,1.3808553e-13,-1.2352123e-13,-1.8653269e-13,1.8122636e-13,-1.0394412e-13,-9.0369335e-14,-2.9496297e-13
-1.1773541e-14,9.8075716e-14,1.815397e-13,1.290107e-13,2.6524627e-13,-3.6458653e-13,1.5341875e-13,2.2738368e-13,-2.0245925e-13,1.4126653e-13,1.9097615e-14,0.6832537,-1.5070364,1.0559054e-13,3.3973245e-14,2.8948813e-13,-9.3421405e-14,3.7861868e-14,-1.4653518,-0.3348903,3.4853576e-14,-3.7881292e-14,1.7449692e-14,-1.5991272e-13,8.877034e-14,-5.4969355e-14,-7.166972e-14,2.7192333e-15,-1.0787553e-13,7.1113444e-14,1.4594107e-14,-1.1755117,-6.67404e-14,1.07541946e-13,1.1776664e-13,6.87733e-14,-6.203341e-14,-7.051125e-14,-3.8200088e-14,2.2834593e-13,4.897948e-14,-2.7906795e-13,-5.5307843e-14,-1.9688861e-13,-3.2901224e-13,-1.9409147e-14,-2.751163e-13,3.5673369e-13,-1.06393044e-13,2.0380819e-14,-4.3289612e-13,1.5016046e-13,-3.4827005e-13,-3.1767723e-14,-1.961523e-14,2.2771477e-13,1.1197506e-13,1.1719873e-13,1.02129405e-14,1.9748356e-14,-1.36043385e-14,-1.3808174,0.7717529,1.4572347e-13,7.313837e-14,-3.3449453e-14,-2.3904015e-15,1.8556303e-14,-0.43531522,-1.3506649,-4.4054685e-14,-4.5542773e-14,1.7377468e-13,-1.875263e-13,8.9751076e-14,2.1325239e-13,5.618133e-14,5.6985266e-14,6.252509e-14,-9.188737e-14,-3.0906077e-14,1.052798,-6.810178e-14,9.1496906e-14,1.1958755e-13,-2.290994e-14,8.3367856e-14,7.262318e-15,-3.621303e-13,-7.6427884e-14,-5.9996225e-14,1.9679992e-13,1.9979211e-13,2.2119025e-14,-6.58117e-14,8.216663e-14,-1.1620644e-13,-1.3064804e-13,-1.0949577e-13,1.016856e-13
-5.735155e-14,1.9172589e-14,1.1280262e-13,-1.5802423e-13,1.4936376e-14,-3.0600746e-14,9.2283325e-15,2.8508205e-14,-9.8384164e-15,-5.0672652e-14,3.2536804e-13,0.7767752,-1.5526233,-9.180909e-14,1.6741579e-14,8.4472244e-14,1.7779951e-13,-1.0417115e-13,-1.1932198,-0.39015526,-6.807655e-14,-7.6976565e-14,8.394773e-14,2.6357486e-13,2.5387e-13,-8.605337e-14,-7.6966604e-14,6.4439393e-14,-2.3973777e-14,1.4251855e-13,8.827308e-14,-1.122481,-8.372912e-14,-4.293965e-14,2.3615276e-13,-2.9333368e-14,2.8828428e-14,1.2034091e-13,6.2665856e-14,-1.9539576e-13,4.4895965e-14,-3.6228656e-14,-1.972437e-13,-6.8437145e-14,9.674042e-14,-1.1018915e-13,1.5506785e-13,1.5888303e-13,1.6947998e-14,-3.2886366e-14,-6.089056e-14,-3.6896105e-13,2.5518853e-13,9.5385424e-14,-2.8606002e-13,1.6964105e-14,-4.4881227e-14,-2.480018e-13,9.2434605e-14,-5.9393815e-15,1.3731397e-14,-1.3984938,0.8340698,2.712889e-13,-8.451552e-14,-1.515707e-13,5.687605e-14,-1.02647674e-13,-0.7466616,-1.3244785,-1.8456948e-13,3.448627e-14,1.4323521e-13,-1.3271486e-13,5.0027223e-14,-1.3291674e-13,5.0693736e-14,3.6067481e-13,9.272398e-14,1.6725887e-13,2.9394405e-14,1.2912055,1.1796967e-14,1.8700455e-14,-3.2475765e-14,8.970706e-14,-7.998536e-14,1.6971171e-13,3.1208814e-13,-4.9840706e-14,-4.9943482e-14,-7.2357756e-15,-4.6874817e-14,-4.115557e-15,2.5887707e-13,1.01768576e-13,-9.6596945e-14,1.2902071e-13,-2.2324368e-13,9.081501e-15
2.596204e-13,4.853229e-14,-1.4858384e-13,-1.6205624e-14,3.3028658e-13,1.3375121e-14,-2.5772004e-14,4.340659e-14,1.3301812e-14,3.1004707e-13,3.5246887e-13,0.80349255,-1.4952247,-9.6349733e-14,-1.7810173e-13,-3.369298e-14,-2.1797157e-13,8.17885e-14,-1.4407682,-0.3968558,4.434792e-14,7.101702e-14,1.05221465e-14,6.155978e-15,1.7168355e-13,2.4817252e-13,5.788115e-16,1.1024e-13,-8.355771e-14,5.9113196e-14,1.05571625e-13,-0.9884793,-2.2880986e-13,5.814229e-14,-9.3503425e-14,1.8015377e-13,1.3192722e-13,6.6063827e-15,3.854706e-14,8.45587e-14,1.9871285e-14,2.994588e-14,3.053133e-14,8.410968e-14,-9.1441306e-14,3.1014714e-14,3.047563e-13,3.2135842e-13,-1.2963681e-13,-1.182462e-13,1.5988418e-13,4.7699353e-14,-2.094008e-13,-7.620547e-14,1.6628832e-13,2.8831904e-13,-1.4425128e-13,1.3308309e-13,-1.503092e-14,-4.2299707e-14,-2.8837214e-13,-1.3389539,0.8809855,1.0124246e-13,-1.935603e-13,-1.9235507e-13,-2.910813e-14,-6.570461e-14,-0.7715189,-1.3215742,-1.2673773e-13,2.5968005e-13,1.3762159e-13,-9.21524e-14,4.8435085e-14,-9.215164e-14,8.185855e-15,7.7779065e-14,-7.4043636e-14,-4.3026733e-15,-1.5872285e-13,1.1842123,-4.157483e-14,-9.196067e-16,-9.082809e-14,4.2241533e-15,3.73312e-14,-1.7383206e-13,-5.025084e-14,5.6423802e-14,-4.0029185e-14,3.3063092e-13,-2.6887597e-14,-7.261665e-14,-4.819791e-14,-1.1684302e-13,-1.29831245e-14,8.5115685e-14,1.5143922e-13,-3.524494e-14
1.6315061e-13,-3.043162e-13,6.513415e-14,-2.8709087e-14,7.2580586e-14,1.6147543e-13,1.7981886e-14,5.936682e-14,-2.1070605e-13,-2.3692909e-14,2.8642174e-13,0.2951914,-1.6294754,9.3459786e-14,3.8600084e-14,6.425184e-14,8.540746e-14,-9.323553e-14,-1.432811,-0.104848966,9.865922e-14,-2.6361883e-13,3.4512188e-15,-5.69258e-14,-2.0466459e-13,8.9549977e-14,1.1083293e-13,-5.2784715e-14,9.3484357e-14,-4.6213772e-14,-1.2328704e-13,-1.0630287,2.5258279e-14,-2.4391093e-13,1.8736374e-13,1.5444143e-13,3.2432156e-14,7.520128e-14,-1.4407555e-13,3.42008e-13,-7.9597434e-14,3.9227024e-14,-2.420429e-13,1.6101419e-15,6.2997953e-14,7.204167e-14,3.1979e-13,-4.0386883e-14,-1.8208484e-13,-3.9333032e-14,1.8672531e-13,7.073031e-14,-1.8130084e-13,6.143284e-14,-1.0344935e-14,1.3770117e-13,-3.109857e-14,7.75516e-14,6.095949e-14,-2.3580953e-13,4.863752e-15,-1.3527355,0.93325806,-8.882934e-14,5.4880146e-14,-2.2398736e-14,-1.5392811e-14,-3.2446764e-13,-1.1652199,-1.357132,7.8776056e-14,7.315116e-14,-1.0131624e-13,-3.3075203e-14,1.1961076e-13,1.41140185e-14,4.162165e-14,3.7557597e-14,6.73904e-14,7.147947e-14,2.8966293e-13,1.5347475,9.715395e-14,6.455089e-15,-1.6172144e-13,8.310728e-14,2.828068e-13,-8.478671e-15,-5.0583114e-15,5.6678363e-14,2.5628349e-14,-1.3171734e-15,-1.6790244e-13,1.3733738e-14,7.9552386e-15,1.8781371e-13,1.5680245e-13,5.0452203e-14,7.6260314e-14,-3.766171e-14
1.0895974e-14,-6.504663e-14,7.5916703e-14,1.9647817e-13,-7.3110544e-14,-7.825759e-14,-1.0849756e-13,-7.943693e-14,3.1230752e-14,7.5424706e-14,-2.814328e-13,0.52450985,-0.6361367,-1.9301294e-13,-1.7448822e-13,7.761293e-14,2.7367795e-15,-6.089191e-14,-0.87770855,-0.28755084,5.786118e-14,5.0045878e-14,1.8219746e-14,-1.3129868e-14,-6.7049475e-14,-8.4248174e-14,1.1406562e-13,-4.545652e-14,1.7799083e-13,-1.057423e-13,-1.6987697e-13,-0.27344328,-1.488068e-13,7.9951535e-14,-5.904216e-14,6.442302e-14,5.4479296e-14,1.4596806e-13,-2.5395017e-14,2.5874647e-14,1.5270893e-13,4.5443074e-14,-1.3289947e-14,-2.900783e-15,-5.5611623e-14,-2.5272014e-14,2.2960632e-13,8.9270246e-14,-4.0116476e-14,-5.5412414e-14,8.817936e-14,7.592417e-14,-2.1721164e-14,-8.903498e-14,2.0859521e-14,-1.2020159e-13,1.5149909e-13,-1.1448114e-13,-5.6795182e-14,-7.763666e-14,4.083863e-14,-0.596901,0.8631594,2.7735179e-14,1.6303528e-14,-3.3445184e-13,-3.2472652e-13,1.9167278e-13,-0.57897645,-0.63417697,-1.3295279e-13,-4.7957938e-14,-2.2562685e-13,3.428691e-13,3.8412548e-14,-5.505036e-14,-5.8305066e-14,3.2572954e-14,-4.6737032e-14,-1.2536025e-13,-1.6981761e-13,1.2130414,-9.479775e-14,5.3538107e-14,1.09867966e-13,1.8801787e-13,-2.0114989e-13,-2.2549972e-14,1.7188585e-14,3.2036429e-13,-2.0819429e-13,1.3013244e-13,2.0243528e-13,8.2749664e-14,-9.7319776e-14,-2.9982616e-13,-9.8890175e-14,7.15718e-14,-5.176083e-15,1.0686191e-14
3.5487164e-14,-8.4493976e-14,4.0241607e-14,2.8346466e-13,5.5302283e-14,8.5742096e-14,1.9851667e-13,-7.830175e-14,-6.016857e-14,1.221657e-13,1.09280816e-13,-0.28969353,-1.6168711,-2.0085856e-13,1.3978612e-14,-4.934137e-14,1.621376e-13,3.6832814e-14,-1.3943474,0.528201,2.1885414e-14,3.6247067e-14,-7.787446e-14,-1.7090066e-13,2.1834998e-14,1.0043327e-14,-3.6241206e-14,-1.3549456e-13,-4.6937497e-14,1.6268695e-13,2.6884606e-13,-0.913571,-6.653002e-14,1.2424008e-14,1.2515646e-13,3.0191758e-14,-8.005689e-14,4.2616477e-14,8.610538e-14,2.2469743e-13,-2.643968e-14,1.7859888e-13,2.8946335e-14,-6.128825e-14,-6.670034e-14,-5.0628216e-14,-4.188883e-15,-1.4568587e-14,1.1411213e-13,-9.020813e-15,-1.9155921e-13,-5.803771e-14,1.0386083e-13,-6.0690446e-14,3.9523132e-13,-3.7694152e-14,-3.177748e-14,7.6066994e-14,4.0274682e-14,9.685205e-15,-9.7510135e-14,-1.3521684,0.40523273,-1.194942e-13,8.683958e-14,-6.741825e-14,7.4940196e-14,5.9873886e-14,-1.2281948,-1.3622074,-1.2520251e-13,1.2081681e-13,-1.7258943e-13,-1.3454242e-13,-1.2308301e-13,2.1050297e-14,5.1874778e-14,1.1763524e-13,-9.259962e-14,1.5310034e-14,-1.1414039e-13,1.7718165,3.9620332e-14,-1.2946214e-14,-1.9112309e-14,-4.8172078e-14,-3.9006716e-13,-6.262227e-14,-5.3321815e-14,-6.789736e-14,3.6156747e-14,-8.775741e-14,7.8822325e-14,8.2291175e-14,1.1649689e-13,-4.9680366e-14,3.5563742e-14,3.051913e-13,3.2302467e-13,-5.8600585e-14
-8.913102e-14,9.112121e-14,-1.484962e-13,-1.6872173e-13,1.06514285e-13,-1.1581739e-14,-3.45985e-13,-7.070733e-14,-1.04827334e-13,9.9220755e-14,-2.7945026e-14,0.4824198,-1.413275,2.2646045e-13,1.0812014e-13,-2.2060747e-13,1.3446598e-13,4.352497e-14,-1.3642588,-0.09567157,-4.7706468e-14,-1.385752e-14,1.6152939e-13,-1.2000919e-13,-1.086663e-13,-9.190644e-14,-1.3033383e-13,3.2356545e-13,-4.9429763e-14,-3.0544852e-14,-1.72564e-13,-0.9318057,-1.1350794e-13,1.674332e-13,-4.4121804e-14,1.5328022e-13,-1.2245272e-13,6.6716482e-15,4.9648135e-14,1.0152385e-13,-3.3093694e-13,-3.9943472e-13,5.3238813e-14,2.1114007e-13,-3.1804577e-13,-1.5251147e-14,1.5172932e-13,3.2742044e-13,-1.482994e-13,1.4711875e-13,1.0322045e-14,-7.454196e-14,-1.380963e-13,-9.1257365e-15,2.0734635e-13,2.2106848e-13,3.7027578e-14,1.8735282e-13,1.3963708e-13,1.3695753e-13,-1.579678e-13,-1.3309699,0.6496316,4.606325e-14,2.8103266e-15,1.2357533e-14,6.383609e-14,1.2094773e-13,-0.8722503,-1.327995,7.2530306e-14,-7.44589e-14,-4.679412e-14,1.0405491e-13,-4.4196895e-14,-1.8260702e-14,2.4257668e-16,-1.1870817e-13,2.6733756e-14,8.0652695e-14,-1.3135407e-13,1.3393574,6.85882e-14,4.3266707e-14,-1.703241e-15,-1.0773124e-13,-1.2530504e-13,-2.2391401e-13,1.9402209e-13,4.1820402e-14,5.0053874e-14,-1.0589054e-13,1.6515489e-13,3.7632644e-14,-1.3234875e-13,7.533095e-14,2.2821702e-13,4.3032147e-14,-1.5830113e-13,2.2438937e-13
2.4391453e-13,6.590643e-14,-1.1871194e-14,9.520674e-14,-1.3889084e-13,-3.45583e-14,2.9425992e-13,-1.9331989e-13,-7.056363e-14,-1.2297131e-13,-1.8666889e-13,0.4379771,-1.4190563,-1.7550456e-13,-2.2711589e-13,-1.4394878e-14,2.410362e-13,3.5668636e-13,-1.4310807,-0.24263595,1.7892953e-13,5.995456e-14,-2.7336185e-13,1.0689069e-13,2.3328084e-14,-5.246138e-14,-2.2605287e-13,-8.7546994e-14,8.071601e-14,1.820221e-13,-1.5008699e-14,-1.1396694,2.6963437e-14,3.325795e-13,2.4373288e-13,8.2069005e-15,-6.6187934e-14,6.887558e-14,2.853594e-13,-4.699004e-14,-1.1983866e-13,2.5292743e-14,-6.4896215e-14,1.3656493e-13,1.6866367e-13,1.0875475e-13,5.7952354e-14,9.638518e-14,-2.2603799e-13,-2.809011e-13,2.7730844e-14,-1.2897791e-14,2.7448746e-14,-1.533273e-13,-1.6960516e-13,4.28664e-14,-2.6177481e-13,-1.772214e-13,2.4928315e-14,9.173894e-15,-9.708378e-14,-1.3132508,0.40947664,1.3612466e-13,3.3664727e-13,4.129075e-13,-1.6684035e-14,1.1520391e-13,-0.5215328,-1.31868,1.0316473e-13,-1.1062878e-13,-2.537912e-13,2.1034205e-13,4.2001067e-14,-9.446442e-14,-3.0742856e-13,-2.0583409e-14,-1.4485673e-13,-1.1827809e-14,-7.191921e-15,0.670897,5.9939534e-14,2.783227e-13,1.03607444e-13,-5.0432077e-14,-4.9637727e-14,-3.9973833e-14,4.1321994e-14,-2.2056812e-13,2.3697963e-13,-1.6415073e-13,-3.4102554e-15,1.111635e-13,3.648596e-13,-1.181262e-14,1.8057065e-13,-1.3215313e-13,-2.4098568e-14,-1.144433e-14
-4.762359e-14,1.7536161e-13,-6.6050586e-14,-4.7212803e-14,2.151229e-13,2.0535521e-13,-7.678205e-14,1.6138101e-13,-1.5066264e-13,-8.7514116e-14,5.239399e-14,0.68097854,-1.5272502,8.284834e-14,-1.9781739e-13,-3.1040837e-14,2.840003e-13,1.2596814e-13,-1.5397552,-0.24629603,-1.4949962e-14,1.7230308e-13,1.0784018e-13,-5.2163616e-14,6.849666e-14,1.01509906e-13,5.058653e-14,3.899532e-14,1.8063532e-13,-3.104663e-14,-1.932205e-13,-0.97701776,5.241555e-15,-3.5154524e-14,-9.853706e-14,-6.3150304e-14,7.210589e-14,-5.276649e-14,-7.5115044e-14,-7.6676106e-14,-1.6748492e-13,-1.10480235e-13,3.060967e-14,1.9567141e-13,2.5142338e-14,2.0825218e-13,2.2657349e-14,-1.5747977e-14,2.7167518e-14,1.320256e-14,-3.3465052e-15,-5.1178002e-14,1.5027661e-13,1.442646e-13,-1.8852582e-15,-2.2145487e-14,9.075886e-14,2.4387468e-14,4.1378125e-14,7.4703495e-14,-2.260201e-14,-1.2955625,0.77223176,1.350284e-14,-2.0386842e-13,3.9801394e-14,2.229527e-14,9.292722e-14,-1.1967653,-1.3692034,6.0397725e-14,1.098491e-13,-7.7301135e-14,-5.781025e-14,2.6495386e-13,4.1084344e-14,5.2768438e-14,-6.1690656e-14,1.1862608e-13,7.1790176e-14,1.3161846e-13,1.091014,-1.0245639e-13,8.690897e-14,9.093929e-14,5.470872e-14,1.3168649e-13,1.8193453e-13,-6.283977e-14,-2.4418293e-13,5.188907e-14,-7.5488986e-14,7.2924726e-15,-3.8675694e-14,6.582147e-14,8.034421e-14,4.547599e-14,-1.5392822e-13,-1.1953343e-13,2.2978428e-14
-1.076376e-13,2.5357033e-13,-1.8224998e-13,-1.7432567e-13,5.879906e-15,3.9660027e-14,2.9829202e-13,3.5447102e-14,-5.743411e-14,-3.498234e-14,-9.151937e-15,-0.103388526,-1.4980783,3.0873774e-13,-2.9013277e-13,1.914308e-15,1.0410035e-14,3.937087e-14,-1.4551874,0.23595394,-3.9688376e-14,1.1232406e-13,-1.2987644e-13,9.473511e-14,3.494248e-16,8.246952e-14,7.4067746e-15,1.214645e-13,2.6422627e-14,-3.2552276e-14,2.9277722e-13,-1.0334786,-1.2547732e-13,6.3371536e-14,7.9108486e-14,1.3056609e-13,3.704453e-13,-4.5776534e-14,-1.6490776e-14,1.4922106e-13,-4.070452e-14,2.7724405e-16,-4.6650018e-14,-1.4575555e-13,-6.368666e-14,5.2183823e-14,-1.4316312e-13,1.7316632e-13,-2.666275e-13,-2.6703257e-13,6.34096e-14,-4.325646e-14,4.7809995e-15,-1.3706832e-13,1.9180881e-13,5.92753e-14,-1.926271e-14,1.0694973e-13,-1.674759e-14,-1.5662066e-14,1.1397059e-14,-1.3707076,0.25427717,-1.1394889e-13,-4.547177e-14,1.6905677e-13,-4.4906285e-14,6.436351e-14,-0.49615034,-1.3001487,2.9724706e-13,-7.380058e-14,-9.283618e-14,-1.4105069e-13,-2.352285e-15,-5.3622878e-14,2.2980953e-13,3.699391e-13,-2.3567734e-13,-6.0819886e-14,1.4767702e-13,1.3364787,7.184071e-14,2.675896e-13,1.0762359e-13,5.408692e-14,-1.9813953e-13,-9.532051e-14,-6.9064444e-14,5.1977126e-14,6.6489965e-14,-6.182921e-14,-6.2170626e-14,-2.4375418e-13,-2.0567017e-14,1.07724715e-13,-2.7269005e-13,-7.374943e-14,-8.0184604e-14,-1.623736e-13
-1.2031691e-13,-1.8238122e-13,-3.0231124e-13,-2.2968243e-13,-2.3481672e-13,1.10459974e-13,6.761306e-14,4.3949843e-14,2.8908272e-14,3.0372074e-14,1.7019799e-13,-0.08493176,-1.5710881,3.4596078e-15,2.9634257e-13,-9.610329e-14,1.2966093e-13,1.95962e-13,-1.2872288,0.24816568,9.402616e-15,1.6192306e-13,-2.2898526e-14,4.6675805e-14,-9.659675e-14,6.079108e-15,-2.1168227e-14,3.4132373e-13,9.539532e-14,1.276726e-13,5.9080284e-14,-1.1097689,-1.723699e-13,7.610347e-14,-6.014998e-14,-2.642962e-13,-7.6319634e-14,-9.4347476e-14,-1.3648953e-13,-2.4218992e-13,2.1071239e-14,1.0718261e-13,-2.2220209e-13,2.7156676e-14,-1.4165279e-13,-1.01876386e-13,3.9019864e-14,-3.015451e-13,9.481227e-14,4.9158723e-14,-3.105711e-14,-9.580999e-14,-1.3177263e-13,1.175625e-13,4.3240517e-14,-1.2735733e-14,-2.2752653e-14,1.7738628e-14,2.7587253e-15,-9.01487e-15,6.0314004e-14,-1.312143,0.49258217,-6.064671e-14,-3.7252746e-14,6.14444e-14,-9.596402e-14,3.833848e-14,-1.4737508,-1.3101065,-1.970373e-13,8.758759e-14,7.003219e-14,1.7771972e-13,1.9711083e-13,-2.7977444e-13,6.5916185e-14,-2.5180235e-13,-1.6193176e-14,2.6796696e-13,3.2449567e-13,1.3256575,-2.3290153e-15,8.240637e-14,-6.624359e-14,9.888455e-14,-1.4083385e-13,1.6625932e-14,-3.5310657e-13,1.064208e-13,-2.5644255e-13,4.4073706e-14,4.0989022e-14,2.3277444e-13,-1.437863e-13,4.168398e-13,-1.05027423e-13,-1.9773385e-13,1.22031325e-14,-3.711844e-14
-3.862024e-13,6.163439e-14,2.62948e-13,6.6073544e-14,4.4513018e-14,-4.1859887e-14,8.468859e-15,9.7374264e-14,2.4205647e-14,-4.7008404e-14,-3.7608554e-14,-0.065782264,-0.7966906,8.886128e-14,4.6487174e-14,-8.314072e-14,9.1449675e-14,5.1373666e-14,-0.9503125,0.053176265,9.156233e-14,-1.1493959e-13,-6.524555e-14,6.0984204e-14,-2.4162055e-15,6.2082175e-14,3.9585048e-14,5.2280852e-14,-2.1263475e-14,2.1216485e-13,-3.5785855e-15,-0.37656093,2.7654043e-13,2.0228871e-14,2.2797584e-13,2.6720423e-13,-1.1297185e-13,-2.345112e-13,1.2374197e-13,6.5797045e-14,-7.917473e-14,3.63681e-14,1.3915133e-13,2.2414576e-13,-8.8289876e-14,-1.0789679e-13,8.454443e-14,-4.6649113e-14,1.1307961e-14,-1.1957845e-13,1.5810077e-13,-1.2390864e-13,-1.9531658e-14,-1.004535e-13,1.9299151e-13,7.373748e-14,6.046088e-14,3.083772e-14,-5.790792e-14,-2.4474438e-13,9.609983e-14,-0.6549476,0.6039919,-1.1486314e-13,-1.7941754e-13,-2.5426245e-14,2.0406786e-14,-2.29744e-13,-0.56656045,-0.76069075,2.3659595e-14,1.3121381e-14,1.8936675e-15,3.0342696e-13,3.1942686e-13,5.551842e-14,-4.3443795e-14,-8.099637e-14,4.690039e-14,-1.5235998e-13,2.540833e-13,0.81424725,-3.3908504e-14,3.2110802e-14,2.8785513e-14,-6.415805e-14,3.3566103e-14,-1.1530172e-13,-2.2533001e-13,5.91763e-14,3.0073722e-14,1.2244733e-13,1.0533756e-14,6.2080766e-14,4.5815094e-14,1.7996517e-13,-9.721478e-14,2.8911982e-14,1.2476001e-13,-1.5559559e-13
-2.0616104e-16,-4.2765203e-15,-1.9227069e-14,-8.096616e-14,-6.501321e-14,-2.7108619e-13,2.3862482e-13,1.5707494e-14,1.7893717e-13,9.48583e-14,1.10247416e-13,-0.25573063,-1.3472681,8.215774e-14,2.4032602e-13,-1.2684149e-14,-1.2664091e-13,5.743234e-14,-1.5304664,0.08614794,1.70816e-13,6.011355e-14,-1.2490868e-13,-6.8309555e-14,-1.8038121e-13,-3.0402506e-14,9.018434e-14,-3.9046937e-13,4.5184356e-14,1.3937541e-13,1.163327e-13,-1.073667,-4.6447208e-14,-3.1446493e-13,4.0602572e-14,-3.611298e-13,-2.3628211e-14,-7.589706e-14,-1.5879588e-13,-7.3775906e-14,9.513968e-14,1.8540199e-13,9.572398e-14,8.6991774e-15,1.0704674e-14,1.2074959e-14,2.8235762e-14,-1.5112286e-13,-2.2264226e-13,-3.1490303e-14,3.3299037e-14,-1.9527718e-13,7.825436e-14,1.0213948e-13,9.763809e-14,1.21436e-13,-1.1675716e-13,-1.4458812e-13,-5.5329547e-14,-1.3647955e-13,-5.3705623e-14,-1.2222497,0.49025917,-1.6552973e-13,3.549982e-14,5.6073005e-14,2.523895e-13,4.8075723e-14,-0.03951931,-1.2288507,-1.5234586e-14,8.4660164e-14,-4.4083884e-14,-8.7124196e-14,-1.9861437e-14,2.1805244e-13,-1.3328829e-14,-3.3618843e-14,8.134996e-14,5.1202234e-14,-4.923236e-14,0.79908365,-7.457865e-14,-3.5690382e-13,-2.4546955e-13,1.4341921e-14,1.4663695e-13,-2.9985882e-13,-4.618885e-14,-1.5791055e-13,1.4689815e-13,-4.128816e-13,-4.29645e-14,-3.1592198e-14,-1.2633929e-13,-3.2550612e-13,-1.0975473e-13,2.9456944e-13,-2.0601752e-14,-2.1241232e-13
3.7521394e-13,-1.9426484e-14,1.3008641e-13,4.429972e-15,7.9042404e-16,8.749505e-14,4.6562628e-14,-4.3776126e-14,-3.8183757e-13,-3.029519e-13,1.41856e-13,-0.83723515,-1.5217192,-2.7105792e-13,-3.8067328e-14,-2.325699e-14,7.8981486e-14,-7.674287e-14,-1.3363024,0.8301084,4.132572e-14,3.5964165e-14,-7.334972e-14,2.2434254e-14,3.0865745e-15,1.1820601e-13,-1.2506566e-13,1.8912334e-15,5.3200852e-14,1.2345854e-13,3.5318597e-14,-1.1694372,9.211821e-14,1.1119916e-14,1.7019715e-13,-1.6682284e-13,5.744645e-14,-1.2330481e-13,1.9618985e-13,-3.3546668e-13,3.2453096e-13,3.7123413e-13,-7.5622654e-14,2.2448455e-13,1.83673e-14,-4.9388675e-14,4.665179e-14,-1.3663146e-13,-4.956374e-14,3.7522245e-13,-1.1362168e-15,2.2355902e-13,-2.6765786e-13,-5.3074597e-14,1.2084694e-13,-4.4416263e-14,-2.5639972e-14,-7.229318e-14,-1.9118859e-13,1.7008206e-13,-3.0078343e-13,-1.2464073,-0.09437187,2.703476e-13,2.0268952e-13,-1.3095899e-13,-2.08331e-14,8.0723466e-14,-0.6370632,-1.2424256,-2.207225e-13,2.6082631e-14,-4.3565595e-14,1.6032244e-13,-1.7705612e-13,9.101145e-14,1.06033793e-13,4.4681496e-14,-6.7825384e-14,1.7101394e-14,1.9631042e-14,1.2212143,1.6646114e-13,-3.5591996e-13,3.7239627e-14,1.3122411e-14,4.876868e-14,-1.4919923e-14,1.7659282e-16,1.1706921e-14,3.8866974e-14,1.6457538e-13,-1.8549849e-14,1.3229095e-13,-1.6861926e-13,-1.0511821e-13,-4.0799525e-13,5.3040146e-14,3.7759414e-14,2.4936238e-14
1.756739e-13,-8.72453e-14,-1.597757e-13,1.7160394e-13,-9.865081e-15,6.0535554e-14,-1.2658506e-13,-1.6813828e-13,-6.633238e-14,-1.1434782e-14,1.266732e-13,-0.72036755,-1.6110096,2.147509e-13,2.0855423e-13,4.247745e-13,5.9214955e-14,1.207548e-13,-1.4017332,0.8086817,1.07129895e-13,-3.9930285e-15,-9.4311006e-14,-2.918501e-14,-2.4167009e-14,-1.762591e-13,-1.1716761e-13,-1.1246201e-13,2.336969e-13,2.0370292e-14,2.0613e-13,-1.1565856,-3.7918897e-14,-2.545769e-13,-8.4323655e-15,-1.9149602e-13,1.6350444e-13,-1.0023792e-13,2.6180653e-13,7.362775e-14,3.2936104e-14,-2.2228567e-14,7.7537816e-14,1.2143398e-13,6.9866625e-14,8.2326215e-14,-1.4731414e-13,1.1171963e-13,-2.4760128e-15,-2.8408387e-14,-1.07789205e-13,4.7223456e-14,-1.4641253e-13,-9.55636e-14,-4.6784e-16,2.0128509e-13,5.962404e-14,2.8787376e-13,3.1111268e-13,-2.6045477e-14,-1.2058797e-13,-1.2971236,0.1020544,-3.25894e-13,-6.9681877e-15,1.06965584e-13,-5.0536195e-14,9.101204e-14,-0.8781339,-1.284509,-3.9226077e-13,2.2648878e-14,-3.773687e-14,-1.5492501e-13,-9.597368e-14,-1.08057436e-13,-1.1198303e-13,-2.3861238e-13,4.0851163e-13,-2.8650164e-14,8.297086e-14,1.2400708,-3.3432046e-13,4.9525942e-14,1.2799503e-13,1.8838106e-13,7.612418e-14,-4.04026e-14,1.3821222e-13,4.336999e-14,-9.932845e-14,-1.5512571e-13,-7.8745556e-14,-7.078048e-14,-1.5167379e-13,9.8344205e-14,1.8908644e-13,1.382342e-13,3.214272e-14,-1.1431641e-13
3.266136e-13,-1.10696676e-13,2.2250596e-13,1.1641228e-13,9.493642e-14,7.292181e-14,-9.9382945e-14,7.13755e-14,8.016694e-14,7.506038e-14,-1.3802944e-13,-0.54057276,-1.5645127,1.1199252e-13,-1.5547822e-13,3.9772054e-13,2.2215626e-13,4.310151e-15,-1.56532,0.5294688,1.5608821e-13,-3.4829175e-14,-9.3230274e-14,-1.0635221e-13,2.951898e-13,-9.812423e-15,-1.9870165e-13,-1.8497607e-15,-9.730006e-14,-1.6419174e-13,1.6983995e-13,-1.3249532,3.3558762e-13,7.517786e-14,1.2526242e-13,-7.1073945e-14,-6.403307e-14,9.622667e-15,3.3005388e-14,-3.2216086e-13,5.231815e-14,-1.6141546e-14,-1.0356085e-13,3.4272024e-14,3.436372e-14,1.3107096e-14,-1.338562e-13,1.2689201e-13,-5.5458825e-14,1.8118479e-14,-1.5907807e-14,1.13543615e-13,1.2379377e-13,-1.2975813e-13,-1.2535735e-14,-4.2641492e-14,-7.917438e-14,-4.0922127e-14,-3.3999255e-14,-1.465384e-14,1.5180153e-13,-1.3339522,-0.06406423,-1.1021545e-13,-1.1497609e-13,6.587043e-14,-1.0522521e-14,-3.4230214e-14,-0.09529166,-1.3021435,-1.7487665e-13,-1.5817629e-14,-9.836495e-14,-3.1285636e-14,-6.688846e-14,-6.031584e-14,1.1617388e-13,-6.2575894e-14,-6.368569e-14,1.111903e-14,-1.06740456e-13,0.7708041,-9.337316e-14,-1.07955955e-13,-5.4180158e-14,-2.6234057e-14,-2.2284332e-14,-6.4506546e-14,8.631743e-14,6.501625e-14,-2.703195e-13,1.764139e-13,-2.039937e-13,-5.27488e-14,-9.1171435e-14,-3.4871455e-14,-1.632538e-13,9.010621e-14,-4.815932e-14,-3.9710866e-14
3.5409287e-14,1.3478635e-13,-4.094506e-14,1.1062376e-13,-3.0480498e-14,-4.291474e-14,-5.0403936e-14,-2.0364453e-13,-1.5155219e-13,-1.9078435e-13,-1.7726174e-13,0.30942848,-1.5691658,1.4424766e-13,3.1509392e-14,2.3081766e-15,9.074953e-15,-8.1373486e-14,-1.548018,-0.15609492,2.90269e-13,-7.698212e-14,1.2235162e-13,-4.1924187e-14,-2.7143836e-13,-3.295013e-13,-2.2288845e-14,1.6780029e-13,2.3302562e-13,3.1023215e-14,9.959233e-14,-1.2443663,-8.472186e-15,9.3698514e-14,-8.818184e-14,4.8637574e-14,1.0907739e-13,1.8583182e-13,-1.117969e-14,-2.9894628e-13,-1.9630464e-13,1.3909094e-13,-1.979596e-14,1.7374294e-14,-1.2804373e-13,1.13336695e-13,1.6164138e-13,-8.248302e-15,3.6996003e-13,-1.8743233e-14,1.5602388e-13,-1.8569114e-14,-2.8816847e-14,6.767063e-14,3.696617e-14,-8.381887e-14,2.3443517e-13,-2.2690324e-13,-9.0567866e-14,6.590893e-14,3.4467732e-14,-1.3708458,-0.40336615,-2.0968616e-13,-3.1786538e-15,-9.55909e-14,-1.0290509e-13,2.0196739e-13,-0.5297012,-1.3551245,1.3051704e-13,1.041641e-13,1.04741885e-13,-2.714344e-13,7.301319e-14,-1.5423242e-13,-2.9819158e-14,-1.7055388e-14,3.2584994e-13,-8.768756e-14,2.0724833e-14,0.56087744,1.9662548e-13,2.682405e-13,-2.244073e-14,-1.8862026e-13,-1.7281096e-13,1.4440343e-14,8.320266e-14,-2.0374114e-14,-4.5434976e-14,-2.9928818e-14,-1.12024336e-13,7.776801e-14,-1.5731622e-13,2.587276e-13,1.5846272e-14,-2.1190637e-13,-6.0988486e-14,-2.6970754e-13
-2.4506647e-13,-1.1949153e-14,2.2216333e-13,-1.9334378e-13,3.362743e-14,-2.990486e-13,-2.4304518e-14,-1.1573315e-13,4.702296e-14,-7.5044544e-14,-2.1011338e-13,-0.016283844,-1.4533441,-2.856821e-14,-9.272797e-14,1.0529987e-13,7.590734e-14,1.2021769e-16,-1.608871,-0.011334143,8.106302e-14,1.8191023e-13,2.6151157e-13,3.9585004e-14,1.5679889e-13,2.4695327e-14,-7.709504e-15,8.3926945e-14,1.1158648e-13,1.1725155e-13,1.4987108e-13,-1.230931,1.850496e-13,-8.8574256e-14,-2.5726434e-13,-1.8950298e-13,7.0744456e-14,1.02725716e-13,-1.5322609e-13,7.620174e-14,2.230892e-13,-3.170451e-14,1.7823636e-13,1.2156512e-14,-1.1430826e-13,-7.4812484e-14,-3.4367333e-13,1.2626173e-13,-4.0562375e-15,1.7485186e-13,-1.8730919e-13,2.9322322e-14,6.915082e-14,-2.741734e-13,1.1509855e-13,2.426142e-13,1.3731336e-16,3.7721508e-14,-1.1807905e-13,-2.9596762e-13,1.3588731e-13,-1.2820679,0.12056472,2.0663853e-14,1.6417958e-13,-1.5243593e-13,-2.403352e-13,1.9512183e-14,0.010757974,-1.283325,2.9922535e-13,-3.735103e-14,2.564473e-13,1.5561294e-13,1.0817008e-13,-4.245052e-14,3.8151794e-14,-8.1430536e-14,2.6539724e-14,3.0629159e-13,8.311101e-14,0.23264217,-2.2526494e-13,-1.830588e-14,2.4699018e-14,7.3329384e-14,-8.3978235e-16,8.983702e-14,9.059869e-14,-5.753411e-14,3.3032442e-14,-2.3825875e-14,2.0186896e-13,6.049837e-14,-9.193689e-14,3.7717068e-13,-3.7352313e-13,1.814289e-13,-1.01412e-14,-2.5505788e-14
4.044938e-14,5.0549097e-15,-6.053384e-14,2.8460998e-14,-1.5236486e-13,-2.1862785e-13,-1.7971135e-13,-1.877876e-13,7.1299446e-14,-5.1244484e-14,1.3912081e-13,0.8045174,-1.4261203,-2.4402843e-14,2.4532814e-13,2.5371174e-13,-2.978096e-14,-3.989676e-14,-1.5346162,-0.7497675,1.2419468e-13,-5.6339197e-14,-1.5516244e-13,2.6778287e-13,1.3511482e-13,-1.8773995e-13,-2.0025145e-13,-3.5630282e-13,1.3683783e-14,2.7229795e-14,-7.441297e-14,-1.1915674,-1.2127789e-13,8.6860024e-14,1.9787565e-13,-3.024575e-13,-4.693684e-14,3.6527764e-14,2.4940272e-14,-5.5935467e-14,2.8640484e-14,-3.974382e-13,1.2793718e-13,-9.0600826e-14,2.0333399e-13,-9.917076e-14,-4.062488e-14,1.5011168e-13,-4.0223518e-14,-1.3908281e-13,-3.0853954e-14,3.573415e-14,1.5533756e-13,-2.3903945e-13,3.9768042e-13,-6.621784e-14,-8.412772e-15,2.7559532e-14,9.231347e-14,7.8301914e-14,6.986958e-14,-1.2844993,0.61173445,1.26973e-13,-2.6649015e-14,5.9572437e-15,-2.1446408e-13,-2.4784328e-13,-0.17635667,-1.267412,-3.1422364e-13,-1.056423e-13,-3.474302e-13,4.16966e-14,2.2723793e-13,-1.1976799e-13,8.631533e-14,3.107952e-14,3.6013083e-14,2.1187824e-14,-2.1517649e-14,0.6654538,1.1355979e-13,9.706917e-14,1.0465467e-13,6.428607e-14,4.7940256e-14,4.0009124e-14,-5.1361818e-14,-5.982775e-14,-2.5111979e-14,-2.772644e-13,1.839053e-13,2.6297974e-13,1.1444425e-13,-1.20521e-13,-4.5593713e-14,-7.049399e-14,4.6571972e-14,5.2480945e-14
-4.9421005e-14,1.1515639e-13,-1.0444578e-13,7.679514e-14,-3.4913348e-13,-1.9699554e-13,-1.2734158e-14,1.0659931e-13,-1.1005187e-14,2.6589972e-13,-9.081177e-14,0.9022523,-1.4867483,-2.405978e-13,5.398553e-14,1.261093e-13,5.8437955e-14,-2.5878445e-13,-1.296156,-0.66185075,-8.898352e-14,2.4627224e-13,-1.4173382e-14,9.8514235e-14,-1.7178086e-13,3.4797238e-13,-1.9998555e-14,3.3116562e-14,-4.62887e-14,-9.262216e-14,9.442638e-14,-1.32291,-3.5435346e-14,1.3974501e-13,-1.5236666e-13,8.2882635e-14,6.602542e-14,-2.4549e-14,2.985871e-14,5.764522e-14,-1.8974212e-14,4.960723e-14,-6.452346e-14,-1.8986321e-13,-2.353731e-13,-2.4873753e-13,-1.5104554e-13,2.5251489e-14,-4.407736e-14,1.4084384e-13,1.5761365e-14,-5.3067678e-14,7.310161e-14,5.871676e-14,1.3086074e-13,5.5756723e-14,2.123061e-14,-4.4164332e-14,9.0349156e-14,7.0408767e-16,-1.9661329e-16,-1.3648307,0.20988244,-3.399152e-14,-9.359118e-14,-1.9302886e-13,-7.009374e-14,2.9508005e-14,-0.2955059,-1.3321556,-4.512469e-14,1.7455064e-13,-1.3092083e-13,6.556202e-14,2.3519893e-13,-3.0598657e-13,1.1161024e-13,2.8452148e-13,1.2569625e-13,-2.3053116e-14,5.3383892e-14,0.117234625,3.0514323e-13,-1.561513e-13,-1.3462197e-13,-2.0703976e-13,6.722189e-16,1.6141138e-13,-2.0246066e-13,-3.8653227e-14,9.0265984e-14,-5.3587506e-15,2.5312388e-13,1.232449e-13,-1.8210879e-13,1.4357427e-13,3.8752275e-13,1.1685017e-13,-1.5657004e-13,-1.6532842e-13
3.8062918e-13,1.0344109e-13,1.4565904e-13,-4.2000772e-14,1.7697039e-13,-1.751613e-13,-1.12803227e-13,-1.00962126e-13,-2.2339613e-13,-1.3743484e-13,-2.928491e-14,1.0520734,-1.49787,-2.6626447e-13,5.674876e-14,-2.6189073e-14,-2.510932e-13,-8.1724205e-14,-1.453618,-0.94272494,5.0357667e-15,1.0466779e-13,1.462808e-13,-1.00834854e-13,-1.3557601e-13,5.0362336e-14,6.6248073e-15,1.1945214e-13,-1.6677252e-14,7.759048e-14,-7.4178985e-14,-1.264655,-8.196958e-14,-6.064508e-16,-1.394192e-13,9.1929373e-14,-2.516587e-14,2.0033235e-13,-7.193746e-14,-3.0388313e-14,1.1768558e-13,8.0995743e-14,-1.5715383e-14,-1.7060596e-13,-6.849582e-14,-3.030967e-14,5.1441236e-14,-1.7886125e-13,5.866906e-14,-2.360899e-13,1.4986003e-14,-4.9578587e-14,4.166828e-13,-9.7004476e-14,-3.0254052e-14,1.07715716e-13,-3.7931206e-14,-1.1913064e-13,-1.3659912e-13,-7.6737777e-14,-2.1624968e-14,-1.3768588,0.6272992,1.2936971e-15,-1.5903929e-13,-1.801893e-13,-8.848952e-14,1.9532833e-13,-0.043024614,-1.3239104,6.411977e-14,-1.1472141e-13,-3.018269e-14,1.4860552e-13,-6.7634246e-14,7.699849e-14,6.846962e-14,-1.6786092e-13,-1.9167256e-13,-2.3362283e-13,-4.7733247e-14,0.49999115,4.4685494e-14,-1.2625822e-15,-8.457479e-14,2.1226014e-13,-1.7345915e-13,1.6522649e-13,8.454891e-14,2.8070059e-14,3.9183893e-14,-3.8796792e-14,3.358727e-14,1.6106647e-14,-1.7805439e-14,1.4464593e-13,3.8214728e-14,1.00135896e-13,1.3086388e-13,-4.1545394e-14
2.2556089e-13,-2.5125247e-14,7.916814e-14,-3.892813e-14,2.428665e-14,-4.2725955e-14,-8.944528e-14,2.5720683e-13,3.2908606e-14,-2.0929811e-13,-3.8171004e-13,0.85060894,-1.4342549,-3.0133197e-14,-9.332467e-14,9.0036424e-14,-5.743488e-14,2.8408963e-14,-1.5260887,-0.7373949,9.0452724e-14,-1.2194267e-13,5.0207658e-14,2.047728e-13,1.8662724e-14,9.228058e-15,-2.4619434e-13,2.8554517e-14,-5.4867413e-14,-2.2313347e-13,-2.9803018e-13,-1.2027612,-1.2110037e-13,1.113189e-13,-5.3066573e-14,7.497514e-14,-2.15945e-14,1.1498578e-13,-3.6722165e-15,-1.537257e-13,-2.2531257e-13,-4.1032394e-14,2.793231e-13,-1.7162873e-14,-1.3984166e-13,1.1654835e-13,-8.4609416e-14,5.414734e-14,-2.305954e-13,2.0129514e-14,-1.1451532e-13,2.3353898e-14,5.9542865e-14,-5.708931e-15,-1.904893e-14,-7.911449e-14,-5.4612483e-15,2.451914e-14,-5.200318e-14,5.99227e-14,-3.05233e-13,-1.3453047,0.3170053,3.8943817e-14,-3.5885642e-13,-3.1377983e-14,4.092803e-14,-1.4737637e-13,0.24721892,-1.3220692,1.350291e-13,-1.2670541e-13,-4.0665937e-14,1.3962449e-13,-1.3112128e-13,-9.153824e-14,-6.008386e-14,-7.7274585e-14,-1.1511251e-13,-4.8431067e-14,-7.24499e-14,0.156644,-2.8375092e-14,-2.515906e-14,1.0874669e-13,1.2877392e-13,-2.6165617e-14,-1.1644508e-13,2.8933404e-13,-6.8426865e-14,1.4869867e-13,1.9235048e-13,-1.7951511e-13,1.13356956e-13,6.92912e-14,1.8436911e-13,3.7082154e-14,2.5385282e-13,1.4387058e-14,-1.1666507e-14
-6.1870376e-14,-4.847436e-14,-1.5101142e-13,-9.0388715e-15,-7.63022e-14,1.4397462e-13,5.840433e-14,-3.4864987e-13,-8.953241e-14,-1.1385657e-13,-2.235654e-13,1.0204796,-1.5058894,-1.5062623e-13,3.9209334e-13,-3.3556057e-13,-2.1233208e-13,-2.3187073e-14,-1.5168501,-0.806656,2.7450468e-13,1.7028962e-13,-3.2310667e-13,4.1823363e-14,1.04959485e-13,-2.5268703e-13,-9.510777e-14,8.5339796e-14,1.9722262e-13,-3.7884745e-13,7.66756e-15,-1.3796687,-2.835116e-13,-1.166094e-14,-3.963772e-14,1.2106016e-13,-1.928338e-13,2.573089e-13,1.03857915e-13,-1.7332852e-14,-1.4087909e-13,-7.5080316e-14,9.90146e-14,-1.1888193e-13,-3.511262e-14,-1.3562412e-13,1.7314409e-13,-2.0017156e-13,-4.92114e-14,4.4954732e-14,2.140091e-14,3.8529787e-14,-1.9488714e-14,4.1264122e-13,1.7845193e-13,-1.2984397e-13,1.7013507e-14,-1.2379315e-14,1.5627121e-14,-1.2032164e-14,1.296113e-13,-1.3818367,0.27310166,6.9463566e-14,1.09916016e-13,6.4166866e-14,-9.5073424e-14,5.1990804e-14,0.20235002,-1.2658215,-9.677118e-14,3.0204284e-13,4.739488e-14,-1.3394288e-13,-1.2645286e-13,1.2991387e-13,1.3088909e-13,6.4833176e-14,-3.1857256e-13,-3.540864e-14,2.2186929e-13,-0.08590955,5.873734e-14,3.837818e-15,-4.0781438e-14,1.2321639e-14,1.2111706e-13,-3.025065e-14,4.6575184e-14,-2.707836e-14,-7.530439e-14,-1.1297292e-14,-1.08224736e-13,-1.2540663e-13,2.1407772e-13,9.008032e-14,1.0054281e-15,-1.4814552e-14,-1.5963329e-14,1.1761573e-13
-2.617532e-14,3.5448424e-13,1.2999758e-13,-1.04709075e-13,-2.3395045e-13,8.930928e-14,-1.3513705e-13,-5.909783e-14,4.9757185e-14,-8.217587e-14,-3.269358e-14,0.988046,-1.4955981,1.001364e-13,-4.0439982e-14,1.9839254e-13,2.8621463e-13,7.394424e-14,-1.4155322,-0.8760853,8.2589114e-14,2.4105276e-13,-9.7442345e-14,2.8312947e-14,-5.0132963e-14,3.6200312e-13,-2.6795834e-13,1.7010812e-13,-5.9609605e-14,-8.3609226e-14,1.108592e-13,-1.3106015,-8.1679116e-14,5.6928014e-14,1.3416425e-13,-2.2257268e-14,7.667939e-14,4.013965e-14,-7.995145e-14,-2.984939e-14,8.123478e-14,-8.40193e-15,2.0738003e-13,3.6170435e-14,3.6099324e-14,-1.8184147e-13,4.3303472e-14,-6.425908e-14,-4.6531247e-15,2.2670017e-14,1.2218616e-14,-4.6892987e-14,-1.4815047e-13,-7.1642684e-14,2.8269806e-14,-3.6396023e-14,1.4805313e-13,-4.2547746e-14,-3.2997727e-14,-2.7642106e-13,5.107439e-14,-1.3611788,0.4793506,1.9531702e-13,1.5358174e-13,2.324166e-15,-1.2496056e-13,-5.373116e-14,0.27456558,-1.3170909,3.5983904e-14,-4.6324046e-14,1.8134146e-13,1.4967879e-14,3.0012065e-14,-7.0639803e-14,2.505729e-13,2.940554e-14,4.98736e-14,-1.698728e-15,4.3306403e-14,0.11625155,3.8168175e-14,-3.6214526e-13,2.899417e-14,-6.0215586e-14,3.3531266e-14,2.8542587e-13,-1.5610363e-14,-7.536166e-14,2.8639946e-15,-7.224023e-14,-1.12624686e-13,5.1225276e-14,-2.0048236e-13,-1.1191506e-13,1.9551576e-13,-1.2977455e-15,4.194605e-14,1.3846232e-13
4.902258e-14,-4.5156024e-14,-6.75175e-14,8.1629236e-14,1.6278428e-14,6.206883e-14,-3.1509876e-14,3.7196814e-13,1.0187468e-13,-8.329353e-14,-1.530195e-13,0.95909685,-1.4571542,-9.615579e-14,4.1629765e-14,-5.7257184e-14,-3.5277068e-13,2.4546326e-13,-1.499099,-0.8913174,1.4123601e-13,-1.3368524e-13,-1.7681798e-14,1.0547985e-13,4.9465518e-14,2.3620088e-14,-1.7040541e-14,2.0873865e-13,-3.3942176e-14,-2.9508088e-13,-6.7100195e-14,-1.2337973,-1.7331758e-13,2.0098266e-13,-7.290742e-14,2.3307753e-13,1.5453188e-14,2.1519582e-13,1.6514462e-13,2.0663877e-14,3.2068816e-13,2.514976e-13,3.3938628e-14,1.4831609e-13,1.13157415e-13,3.1779304e-14,1.2103135e-15,1.06379396e-13,-9.052897e-14,9.734169e-14,2.2880298e-14,-1.2325423e-13,-1.5262048e-13,2.2465069e-13,-1.30832e-13,-9.507869e-14,1.7675637e-13,-4.0198578e-14,1.2323097e-13,1.06172165e-13,-3.39852e-14,-1.2910153,0.641443,1.9798648e-13,2.2386776e-14,-1.0618526e-13,-3.8649498e-13,1.9127309e-13,-0.037579857,-1.2918532,7.1829925e-14,-2.357625e-14,6.477721e-14,-3.312941e-14,-2.0784695e-13,-1.1911884e-13,2.097739e-13,4.4039737e-14,-1.1333914e-14,9.2624354e-14,-3.0658134e-14,0.27421895,1.4486635e-16,-3.9562354e-14,1.09261206e-13,1.1491833e-13,-2.3635613e-13,-3.3020448e-14,-1.6002218e-13,2.431206e-13,1.7397128e-13,1.4859822e-13,-4.9924095e-14,-5.934334e-14,-2.0195322e-14,4.123228e-13,6.9653866e-15,4.9750663e-14,1.9677347e-13,1.8616037e-13
