-3.7586806e-13,-3.2336865e-14,4.167021e-13,2.9486843e-13,-2.077372e-13,1.3165154e-13,-2.5779755e-13,-7.095476e-13,-9.152512e-14,5.2917864e-13,-1.0482559e-12,-3.716658,-3.2395551,1.0542541e-13,-2.702271e-13,5.19468e-13,-2.4126165e-13,-1.343478e-13,-3.6759644,-3.794915,1.4278302e-13,-3.2646216e-13,1.4372173e-13,-1.1479473e-13,6.1802695e-13,5.6354796e-13,3.691958e-14,-6.28964e-14,-2.0412848e-13,4.1358412e-13,-7.3810776e-13,-2.7279239,-9.615165e-14,-2.882375e-13,-7.310303e-13,5.9375665e-13,-5.244964e-13,-1.7442108e-13,2.2236011e-13,5.379536e-13,-2.6440859e-13,1.7912124e-13,1.0590474e-12,2.1952844e-13,-3.9357818e-13,-9.213095e-13,-4.2184458e-13,-6.5046e-13,-5.738135e-14,-1.11339994e-13,1.3520692e-13,-3.6806574e-13,5.748583e-13,-3.5104257e-13,5.482722e-13,-1.6021661e-12,-3.0943363e-13,6.394504e-14,2.7753072e-14,1.2668264e-13,-5.4077007e-13,-3.3948796,3.3627865,-4.2402494e-13,3.9352533e-13,-5.556613e-13,-1.342498e-13,-2.2473118e-13,3.0078514,3.416977,-3.5750946e-13,-3.196871e-13,-3.619647e-13,5.7812576e-13,1.2016432e-13,6.7810646e-14,-6.9398934e-14,5.3365454e-14,-9.5679974e-14,1.6285725e-13,-3.3066675e-13,5.0223913,1.1351291e-13,-1.663954e-13,2.121329e-13,1.0091248e-13,-4.513031e-14,-1.05548166e-13,1.385378e-13,1.1297704e-13,3.8211697e-13,2.6380525e-13,5.992197e-14,8.088073e-13,1.8226588e-13,9.878357e-13,-2.1552209e-13,2.0730332e-13,1.6080853e-13,-2.552507e-13
2.4927787e-13,-1.8943079e-13,3.062371e-13,2.241292e-14,3.7916716e-13,-1.0592525e-13,-5.5162204e-14,-3.0109395e-13,-1.7169903e-13,-7.0625194e-14,-1.7678603e-12,-2.1617353,-1.5705701,3.9262826e-13,7.015519e-14,-4.987287e-13,5.883354e-14,-3.6398404e-13,-2.4031456,-1.9934317,1.1606383e-12,1.4860991e-13,1.4080055e-12,-3.1010345e-13,3.5555817e-13,5.960132e-14,3.6197214e-14,-1.5939836e-13,8.3042026e-14,3.9293574e-14,5.9420425e-14,-0.71449506,2.266945e-13,-1.3371957e-13,-1.4393652e-12,1.7568144e-14,6.564187e-15,2.4086158e-13,1.7155835e-13,1.7084718e-13,9.729324e-14,8.5047156e-14,3.2897215e-13,-1.6063126e-13,2.0118977e-13,-3.4899845e-13,1.8852407e-13,-8.170077e-14,5.2290214e-13,1.8384738e-13,-2.4182178e-13,-7.262297e-13,-6.337805e-13,8.8864205e-14,-5.2092765e-13,-7.046092e-13,-5.042131e-13,1.3579388e-13,-5.3003785e-14,-3.7463684e-14,-1.1485401e-13,2.9683657,-2.8311372,1.2150642e-13,-2.2276573e-13,4.2680226e-13,7.199253e-13,8.116839e-14,-3.6160614,-3.1981173,-1.1294048e-13,-4.944351e-13,1.8865453e-13,5.66503e-13,-1.2698649e-12,1.2431873e-13,-1.5472359e-13,-5.1018976e-14,2.2802027e-13,-7.7392276e-13,-2.6695058e-13,-2.9306839,1.7787474e-13,-4.73077e-13,-2.0449273e-13,1.2737332e-13,-5.201354e-13,5.870977e-14,-1.7927002e-13,-1.6952635e-13,-5.76651e-13,3.415015e-13,1.404861e-13,-3.3513784e-13,1.2664899e-13,3.4359565e-13,1.567473e-13,-6.5829194e-13,-1.6172339e-14,3.822895e-14
9.7209153e-14,-3.5957196e-13,-1.0725997e-13,1.9833053e-14,-3.7974983e-13,-8.5897286e-14,-1.1884285e-12,-1.1235538e-13,-3.562144e-13,-7.4617103e-13,5.203809e-13,-2.3018668,-1.793992,-2.4579343e-13,3.7510067e-13,-7.126814e-14,-6.4446793e-13,2.061404e-13,3.1744413,-1.9815471,-9.193011e-14,2.6890484e-14,-3.8330222e-13,7.558397e-13,-3.4796135e-13,3.7407364e-15,-6.188432e-14,-6.569647e-14,-1.5541324e-13,1.3979205e-13,-4.6421374e-13,-2.1154466,-2.3994728e-13,3.226732e-13,1.149697e-13,4.8075156e-13,2.3795384e-13,6.9792625e-13,6.1018036e-13,8.594789e-13,-2.8661833e-13,-1.1402324e-14,-5.1676393e-13,-1.3320124e-13,-5.476239e-13,2.0592148e-13,-1.1991894e-12,4.0045568e-13,-3.4650023e-13,-5.5355324e-13,8.000128e-14,1.7387797e-13,1.5829639e-13,1.8804234e-13,-3.0896743e-14,2.5170754e-13,1.7511723e-12,4.0555792e-14,-6.2539905e-14,1.1738917e-12,-1.8908844e-13,1.8772064,-1.7208098,-1.101462e-14,2.6476553e-13,-1.5162052e-13,-8.436166e-14,-2.8756343e-13,-2.144642,-1.9044701,-3.2473356e-14,7.854561e-14,1.847333e-13,-3.6318648e-13,3.2332026e-13,3.4501796e-13,2.9497086e-13,3.147712e-13,8.617676e-13,1.7401006e-13,-1.3796973e-13,-1.8971223,-7.626194e-13,6.6970165e-14,-3.9414327e-14,-7.334821e-13,4.874161e-13,1.2626765e-13,-1.2201628e-12,-8.251507e-13,-2.1065357e-14,-1.4719601e-12,1.8190798e-13,3.1280442e-13,-3.7721318e-13,-1.3443206e-14,-6.8003803e-15,-4.6647793e-13,-3.5493982e-13,1.8429396e-13
-2.366497e-13,-4.0715052e-13,-6.9259507e-13,-2.165352e-13,1.4148567e-14,-7.617683e-14,4.769081e-13,3.9401913e-13,7.6443387e-13,1.2186753e-14,-7.725063e-13,2.454872,2.7104993,3.1891747e-13,-6.2552405e-13,5.455246e-14,-6.1713124e-13,2.012793e-13,2.1815996,2.2315736,-1.913737e-13,3.1116204e-13,2.795303e-13,2.3556265e-13,-1.1481752e-12,-8.930653e-13,-4.4162526e-14,-4.0796774e-13,1.4296432e-14,3.523275e-13,1.1452412e-12,2.2073922,3.071105e-13,-2.5993753e-13,-1.2008527e-13,-4.0695537e-13,3.5715506e-13,-3.004459e-13,4.4140817e-13,-2.8142245e-13,9.241613e-14,1.538531e-13,-4.1292948e-13,1.3897211e-13,-8.3833797e-13,4.0414373e-13,-4.953663e-13,-1.1963117e-12,-7.911597e-13,-6.202644e-14,5.437974e-13,-1.0490551e-13,1.9355203e-13,-2.0113895e-14,1.02623124e-16,2.1612323e-14,8.046155e-14,3.867444e-14,-1.8800692e-13,3.12421e-14,4.4104393e-13,-0.0040816544,-0.16950358,1.6385027e-13,-8.5430523e-13,2.5856399e-14,2.1224206e-15,5.3269346e-13,-0.02382508,0.06886437,2.561185e-13,-9.385037e-14,2.7941028e-14,-9.749187e-13,-4.5045293e-14,-3.3110675e-13,4.8172393e-13,1.9669474e-13,-1.4397897e-12,-8.640728e-13,-1.4174957e-13,-0.06443759,-1.12303945e-13,-1.2062495e-13,4.7749948e-14,-3.6371912e-13,1.3404996e-13,-2.5038186e-13,-6.7841197e-13,-4.0183327e-13,-1.9430284e-13,3.1208082e-15,-1.3648605e-12,-6.6097355e-13,1.755548e-13,-1.2791592e-13,-5.4742242e-14,-9.78031e-13,-3.5937643e-15,9.2597174e-14
