-1.6271861e-06,-1.9011184,-6.513958,-1.1640011,1.7626594e-06,-0.48754144,2.5207203e-07,-6.7339115,4.8360675e-07,5.660433e-07,-3.2154803,-8.958721,-4.02965,-4.759996,2.1306909e-07,-6.1032734,6.882109e-07,-6.393801,-8.297592,4.7619934,-6.687019,-3.2187552e-05,5.492975e-08,-5.5333943,-3.4768608,-3.55616,-1.0655065e-06,7.8544626,1.9981887e-06,-3.221098e-06,-1.7967198,-4.641429,-4.8481874,-0.21789742,-7.2867084,-0.95050454,-6.8380003,-0.03542834,-7.238044e-07,-4.920306e-07,6.499538e-07,-1.4634659,-2.4600809e-08,6.0090842e-06,7.390589e-07,-0.89446056,-0.96330154,2.9851676e-06,-2.2259638,4.1716783e-07,-1.4328879e-06,0.99359983,-3.6598766,0.032858815,-8.2069903e-07,0.00012752457,3.0622828e-06,-5.814646,-6.977917e-07,1.0933704e-07,6.190072,-3.7519743,7.0073686,-6.654419,-5.344294e-07,6.105492,9.418401e-08,3.7695951,4.6121683,-8.157164,6.832193,9.268501e-05,-1.4311959e-07,-4.256739,-5.9260917,-2.8263628,-7.065214e-07,7.025559,-6.559418e-06,-5.661576e-06,-1.72952,8.047488,4.1707883,0.0007857106,-4.3894434,0.06833382,-3.8949432,-9.3564406e-05,-8.626154e-07,-1.1627353e-06,-7.7341056e-08,-0.100973316,-4.3041268e-07,3.4965958e-06,-9.4819995e-08,-0.00017071926,-0.1893776,-9.883385e-07,1.9739827,3.9743588e-07
-6.9703884e-07,-0.033808462,-0.10091356,7.789421e-06,-8.313407e-09,-1.9487748e-05,-3.2468772e-06,0.008098166,2.538767e-07,-5.8103694e-08,0.20695685,-1.6164217,4.5446362,-1.6185421,1.294132e-07,0.47268474,-2.4654935e-07,-0.23480073,-5.237679,-2.160044,-0.4422168,3.9824286e-06,-4.4432025e-07,-1.5227276,-0.49378458,0.023300035,5.49179e-09,-0.27321726,2.4148023e-06,-2.4223298e-06,-0.0018358838,-0.10737473,0.057256874,5.7070474e-06,-0.04342466,1.4601281e-05,-3.6673424,5.9862377e-06,-6.161244e-09,7.060918e-08,1.0177788e-07,-1.3019636e-05,3.536511e-07,2.1692986e-06,-2.3722268e-07,-6.0578393e-05,1.578122e-05,-5.4517926e-07,-0.0037318703,-2.5127463e-07,-1.542322e-07,0.00010947924,0.42824692,-1.5203556e-05,-3.1320474e-07,2.15931e-06,-7.1029817e-06,0.04824139,-1.310254e-07,-5.5928595e-08,0.26749483,-1.3095365,-4.759055,1.5910792,1.3942412e-08,0.061062522,3.6018378e-07,-0.060551737,-5.9484367,5.0691047,-0.105141334,5.995038e-07,3.9636842e-07,1.8300898,1.4931483,0.044370886,3.690759e-07,-1.3802546,6.2041096e-07,1.1655752e-06,0.0037627365,-2.6017318,-0.15250161,1.5580661e-05,-0.028248776,1.2330696e-05,-4.0833497,-4.0850873e-06,4.7609376e-07,-2.5370363e-07,-3.5306567e-07,-0.0044981046,1.819312e-07,9.4590234e-07,-2.3299721e-07,7.978908e-05,0.00013572391,4.7251638e-07,-0.04326029,3.007804e-07
-1.2680698e-07,-0.00022210821,0.00050014723,-1.1849513e-05,1.5798628e-07,8.371284e-06,-3.5585542e-06,-0.11873254,-1.1004255e-07,1.2441973e-08,0.0253738,-1.6286838,-2.6244,-0.034415618,1.0809788e-07,-0.03708384,-1.9736729e-07,-0.07579345,1.7451975,-2.5179713,0.008076073,-1.388981e-06,-4.2413032e-07,0.17454724,-0.11188216,-0.03202972,-2.067556e-07,-0.13518757,1.8166752e-06,-6.559927e-07,-0.0015891725,-2.3682578,-0.0783575,1.2123788e-05,-0.17768635,-9.189661e-06,-2.98989,4.8010634e-06,-2.4873702e-07,3.2589543e-07,1.4816382e-07,-6.343961e-05,-1.00845824e-07,-2.8946533e-07,3.3497e-07,2.1597478e-05,8.6595946e-07,6.5228534e-09,0.0015382007,-1.7316114e-07,1.6607376e-07,-1.7076178e-05,0.044837996,1.2260479e-05,-2.7840102e-08,2.6819348e-06,1.160997e-06,0.1324874,-2.7727893e-08,3.8801974e-07,-0.025627851,1.434473,1.073394,-0.0033311993,7.480204e-08,-0.26840785,2.3040839e-08,-0.037679546,-3.4202652,4.37363,-0.091950946,3.73687e-06,-1.2508166e-07,0.086324304,-0.060564663,-0.012212455,-1.7832683e-07,-0.24380913,4.0327386e-06,3.9185505e-07,-0.0014046701,-2.5624142,-0.13833414,-7.919626e-06,-0.153642,4.2145416e-06,3.5297682,-3.579847e-06,-6.299416e-07,1.9154858e-07,6.677392e-08,-9.058195e-06,3.859462e-08,1.6820202e-06,-3.3041994e-07,-3.3532838e-06,1.144256e-05,-2.3250543e-07,-0.00034298195,-4.071807e-07
-8.6073044e-08,-0.005315857,1.193573,-4.4776298e-05,-4.79206e-08,-2.7697253e-05,4.10726e-06,0.13976832,4.3980472e-07,-1.4003021e-07,0.4753552,3.9986324,4.899859,2.6012185,2.0904196e-07,0.98079973,-3.0716078e-07,0.40965155,4.8767037,7.6448436,1.5550239,3.4970828e-06,-1.05922574e-07,2.5936127,0.16443151,0.033196457,-3.0818626e-07,4.7260814,-2.3969578e-06,-6.490977e-07,0.0007502306,3.799209,-0.11479666,3.3581468e-06,1.0679933,-5.472354e-05,6.261988,-4.469289e-06,5.6051633e-08,3.60441e-08,2.6564692e-08,0.00015650337,-1.1546264e-07,-1.8705966e-06,3.8685764e-07,-7.944641e-07,5.1621966e-05,4.973763e-07,-0.004417564,7.439324e-08,4.1096126e-07,0.00020469746,0.35095394,-8.719747e-06,-7.644053e-08,1.2836108e-06,1.0110416e-06,0.17885488,-1.6352439e-07,2.4799223e-07,-0.3349433,0.10362267,-0.48552117,0.7490306,-2.0885594e-07,0.83467203,2.6934703e-07,-0.5137211,-0.30154935,0.86304724,0.3490123,1.2412374e-06,-9.701496e-08,-0.3106316,-0.051421665,0.00012429897,1.6195776e-07,0.2950072,-5.538775e-07,2.7613655e-07,0.015571114,0.2958157,-0.20808926,-2.9233852e-05,0.46708417,-3.5954004e-06,-0.07197756,1.7654138e-06,2.6355093e-07,-1.0448013e-07,-8.899427e-08,-1.1093636e-05,-5.4345725e-07,-5.025098e-07,-1.144372e-07,1.3035029e-05,4.6610203e-05,2.5443092e-07,0.0025360442,-2.1285904e-07
