-2.6329126e-09,5.829117e-08,9.1584454e-08,2.1794082e-07,-4.9313913e-09,-7.684568e-09,1.4680133e-09,-7.310148e-08,4.051289e-08,1.0342145e-08,-8.4937064e-08,0.07740444,-1.6887326,-4.8608236e-08,-7.2874585e-08,5.126312e-08,9.4940624e-08,-1.3161003e-08,-1.6277543,0.0012956797,-4.9339356e-08,1.878073e-08,7.0234893e-09,6.980643e-08,-6.588588e-08,3.3900886e-08,1.1450236e-08,2.260294e-08,3.494374e-08,3.765012e-08,4.6338428e-08,-1.2455083,-7.607771e-08,-6.569525e-08,1.2685277e-07,5.5512302e-08,-5.2250655e-08,1.4150235e-08,1.5898785e-09,1.599974e-07,-7.246107e-09,-1.6188936e-08,5.920929e-08,1.3912052e-07,5.4781943e-08,-6.3676204e-08,7.4043626e-08,-5.53247e-08,2.638134e-08,2.211208e-08,2.2931568e-08,-2.4625848e-08,-1.3827989e-08,6.9054835e-08,1.370897e-07,1.1272103e-07,-1.4137536e-09,9.522783e-09,-6.251738e-08,-7.124382e-08,-4.5785143e-08,-1.4050038,0.50963306,-6.880711e-08,3.0819503e-08,2.288173e-08,4.205656e-08,-3.4011478e-08,-0.8630727,-1.3362575,-9.2643376e-08,2.9677476e-08,-2.739288e-09,1.4578767e-07,-3.987695e-08,-2.5886607e-08,7.282271e-08,-6.595964e-08,2.0139201e-07,-3.5573986e-08,-2.0399025e-08,0.8041653,-1.4990552e-07,-1.10305585e-07,-1.1444309e-08,-7.31964e-08,6.654179e-08,-1.7765213e-08,-6.689808e-08,-7.809438e-08,-3.229382e-08,2.4418625e-08,4.366411e-08,-1.3815978e-07,1.4587093e-09,1.619866e-07,-5.6971636e-08,8.4848836e-08,1.115414e-07,3.891588e-08
-7.0065724e-08,1.7667329e-08,1.3081021e-08,-3.9978394e-09,-6.99681e-08,5.0228188e-08,-1.0344876e-07,1.8738433e-09,5.8966503e-08,-9.078431e-08,-1.5389561e-07,-0.29894593,-1.7789565,2.9017393e-09,-3.2501447e-08,-1.4500361e-07,3.771215e-08,1.4113448e-07,-1.6636038,0.39462036,-1.5777303e-07,5.248028e-09,-1.11722926e-07,2.7286239e-08,-2.0606862e-08,1.6189343e-08,2.320455e-11,-1.3150445e-07,-2.0205983e-08,4.5573284e-08,-8.393852e-08,-1.3406155,1.385537e-08,1.2065892e-07,7.2937624e-08,-6.4799025e-08,1.0135207e-07,1.1237306e-07,-2.4184882e-08,2.5430904e-08,9.467902e-09,-1.0808954e-08,-2.5628767e-08,-6.4578344e-08,7.265656e-08,-5.6648393e-08,6.110176e-08,2.746055e-08,-9.402347e-08,7.753583e-09,3.3638386e-08,8.815276e-08,-4.3214847e-08,4.2751083e-08,-2.5204441e-08,4.0479243e-08,4.2584137e-08,-3.4870986e-08,2.4717552e-09,6.920456e-08,-4.611157e-08,-1.4423673,0.36400932,3.9043286e-08,6.0482094e-08,-1.04667635e-07,1.3783759e-07,-2.1147573e-08,-1.0837045,-1.425945,6.528472e-09,6.787369e-08,-2.5877618e-08,-5.8385645e-08,-9.039668e-08,8.0690555e-08,-1.0293665e-07,-1.6542675e-08,9.297157e-08,4.073158e-09,-1.0904071e-07,1.0322812,1.5285781e-07,-8.5862574e-08,-8.986936e-08,5.0960224e-08,4.8743917e-08,1.6139952e-08,-2.2670944e-08,-8.7016645e-08,-5.7580387e-08,-4.924397e-08,-9.124886e-08,3.5576292e-08,6.415138e-08,-7.020504e-08,-1.4539896e-08,-3.9058328e-08,-2.0051353e-08,3.636018e-08
-1.4888964e-07,-4.859106e-08,2.2292383e-08,5.3399432e-08,-4.2189825e-08,3.0182978e-08,4.017381e-08,-1.2933948e-07,-7.1104598e-09,-1.9356003e-07,9.9264625e-08,0.3066778,-1.5021182,-1.6325991e-08,3.5988357e-08,6.896466e-08,1.0851089e-08,-2.1725402e-08,-1.4916213,-0.1955641,-2.4015721e-08,-9.595283e-08,-5.6257896e-09,5.0588675e-08,7.986168e-08,7.525368e-08,5.8464074e-08,1.2546933e-08,-4.2476472e-08,6.5129235e-08,3.7150706e-08,-1.1672295,-2.4988147e-08,-7.6275825e-08,4.792085e-08,-5.051446e-10,-9.7620244e-08,4.4578034e-08,7.021764e-08,2.2080691e-08,-2.4142203e-08,-8.20844e-08,-1.1350067e-07,1.3954715e-08,9.630215e-09,1.0604665e-07,3.5681836e-08,-1.4685123e-08,-2.3915966e-08,7.5351416e-08,-5.8726663e-08,2.7815483e-08,2.0021378e-08,-6.4985926e-08,3.3923456e-08,5.6451647e-08,1.9929155e-07,-4.6707182e-08,-2.0011198e-07,8.9765706e-08,1.527323e-08,-1.3220942,0.5424228,7.014831e-08,-1.3674878e-08,-1.1304266e-07,-1.5198314e-08,3.1959825e-08,-0.19176883,-1.2960894,6.790862e-08,-7.834869e-09,-8.1385764e-08,1.5585417e-08,1.1953216e-07,-3.239116e-08,-4.4923183e-08,4.125358e-09,-7.039361e-09,-6.1242524e-08,1.9157773e-07,0.6479151,9.489158e-09,-3.8621184e-08,9.1869005e-08,4.9072984e-08,1.3837588e-07,3.79521e-08,-3.0180434e-08,-2.5100206e-09,4.743033e-08,8.952454e-08,5.2591474e-08,-5.984539e-08,-7.851561e-08,7.833185e-08,-6.3491456e-08,-8.053357e-08,7.0144566e-08,2.631943e-08
1.232263e-08,8.402e-08,-1.3835159e-08,6.139719e-08,-7.494152e-08,2.4881004e-09,1.5915179e-08,-2.1762055e-08,8.305498e-08,5.890456e-08,-8.705725e-08,-0.0044788127,-1.8759211,-1.06465954e-07,6.624822e-08,1.9819748e-08,-7.002659e-09,4.622732e-08,-1.8389168,0.2337417,2.798986e-08,8.569478e-09,-6.0179843e-09,6.0639067e-09,1.1687953e-08,-1.750627e-07,-6.3900583e-09,-3.6887975e-08,1.0288986e-07,8.721923e-08,-1.67922e-08,-1.5909659,-1.0675269e-07,6.959416e-09,-9.610952e-08,-1.0456459e-07,4.4630703e-08,4.5863757e-11,2.9295503e-08,-1.7397005e-08,3.8141152e-08,-4.4745352e-08,4.671914e-08,6.8530914e-09,-5.38987e-09,5.0082505e-08,-5.0467513e-08,5.6612134e-08,4.607589e-09,-1.05194005e-07,-9.751916e-08,6.343452e-08,6.8938526e-08,3.5651695e-08,2.6387486e-08,8.289574e-08,3.55098e-09,-1.4219066e-08,6.9687225e-09,3.7583423e-08,-6.803471e-08,-1.717824,-0.19271849,-1.9201339e-07,5.4011764e-09,-1.0429554e-08,1.8389983e-07,-1.7107027e-08,-0.7855949,-1.6991588,-7.392806e-08,5.3532105e-08,-7.254977e-08,-6.5034314e-08,6.787221e-08,1.8843647e-07,-1.9789079e-08,7.057336e-09,1.3076999e-08,1.6789198e-08,-1.7053386e-08,0.37246102,-7.2037e-08,1.60755e-07,1.7842247e-08,4.7164406e-10,-1.4125398e-07,2.8658334e-08,-3.575579e-08,6.9026086e-08,3.2127847e-08,-6.801538e-08,-1.8993868e-08,-1.1128627e-09,1.059611e-07,1.2945063e-07,2.2914115e-08,-2.2880275e-08,-9.073335e-08,-7.699411e-08
1.2883248e-07,4.9535668e-08,-9.305202e-08,-5.1780162e-09,-4.583196e-09,2.215451e-08,-1.2648599e-07,1.6546349e-07,-6.152345e-08,-4.151901e-10,-7.501145e-08,0.6587564,-1.561248,1.213119e-07,-1.696723e-07,-1.5877575e-09,-1.0849845e-07,-1.4525303e-07,-1.5199846,-0.4964177,2.8729616e-08,3.8293273e-08,-1.6218518e-08,-1.09948814e-07,6.010373e-08,8.2543394e-08,-6.9574675e-08,-4.4012772e-08,5.9440836e-08,7.1722646e-08,1.8397618e-08,-1.2345884,-1.7431006e-08,-1.314346e-08,-1.2779321e-08,8.422428e-08,-2.860749e-08,5.488937e-08,2.449897e-08,-5.3159965e-09,9.260197e-08,3.7565968e-08,-1.6614688e-08,6.9476556e-08,1.07201e-07,5.8401138e-08,-1.3712489e-07,1.2964797e-07,-1.12127076e-07,2.7993849e-08,-1.2092416e-07,5.792274e-08,1.7212109e-07,-3.277816e-08,4.1518163e-08,1.2561072e-08,1.3113063e-08,-4.5449323e-08,5.1062607e-08,-8.234418e-08,3.3145927e-08,-1.3345279,0.71480584,-1.2535948e-07,3.9930196e-08,-2.7096418e-08,1.264603e-08,-7.9896836e-08,-0.41691646,-1.2706999,4.1155392e-08,1.5680797e-08,-6.864334e-08,2.9230298e-08,5.1364054e-08,8.4693404e-08,1.328641e-07,-1.9284148e-09,-1.9740398e-08,1.2997788e-07,1.0760676e-07,0.5230106,2.1692993e-07,-5.1756224e-08,1.5534143e-08,-7.437535e-09,-9.0689145e-09,1.1564996e-08,3.947985e-08,1.551721e-07,6.2391244e-08,1.8142261e-08,9.0213234e-08,1.4092091e-08,-1.0447269e-07,-1.5052106e-07,5.944169e-08,-3.9018996e-08,8.308061e-08,3.5479676e-08
7.9408636e-08,-4.8458926e-08,-9.8133754e-08,-3.595868e-08,7.384301e-09,1.04056355e-08,-9.3958885e-09,5.9586384e-08,-8.174254e-08,4.370731e-08,-5.0993634e-08,0.67406905,-1.6494849,-1.0065732e-07,-1.3776278e-07,1.6526252e-08,-1.5267766e-08,4.7311197e-08,-1.6286163,-0.5049188,-4.867413e-08,-6.163601e-08,2.9843864e-08,1.9752388e-08,-1.3848769e-07,7.01945e-08,1.5141433e-07,-9.149024e-08,1.948813e-08,1.08581894e-07,-5.85096e-08,-1.3188416,-1.770251e-07,5.9112004e-09,5.9591216e-08,-4.952264e-08,-1.4198595e-07,-1.2191704e-07,4.8818624e-08,2.0329938e-07,-7.506419e-08,-7.662384e-08,3.3060036e-08,-1.1055232e-08,-4.0925915e-08,9.996825e-08,-6.369686e-08,1.2209509e-08,-7.905095e-08,9.880818e-08,-4.672022e-08,4.756256e-08,1.14957984e-07,3.148998e-08,-1.5667922e-07,7.294037e-08,1.7541589e-07,-1.1609766e-07,4.0777458e-08,-1.3649253e-07,5.509152e-08,-1.450366,0.81206,-1.2150502e-07,-3.2860115e-08,6.5375076e-08,6.2295975e-08,4.404335e-08,-0.5302309,-1.3835875,1.5261943e-09,-4.9347516e-08,-3.3126813e-08,2.5434613e-08,-1.486429e-07,-2.7240903e-08,-7.3689094e-08,-1.3462707e-07,-9.420823e-08,5.924353e-08,5.0229836e-08,0.68605566,-7.1424573e-09,3.0661813e-08,8.561947e-08,-4.172783e-08,8.792048e-09,-4.593009e-08,1.6899326e-10,-3.0410206e-08,8.6537646e-08,2.77182e-08,1.1937834e-07,-3.294105e-08,1.6182966e-09,-2.8255176e-09,1.1994308e-08,7.7374644e-08,-4.7247887e-08,7.827291e-08
-3.599101e-08,1.1530639e-09,1.16215524e-07,-6.315321e-08,9.856672e-09,-2.209287e-08,-4.1558337e-08,-2.4407381e-08,4.6573323e-08,5.596579e-08,1.2641614e-08,0.8652437,-1.8297753,8.822714e-08,-4.7697984e-08,-3.528821e-08,6.916065e-08,1.817427e-08,-1.8325089,-0.62664676,7.720324e-08,-4.0529947e-08,-2.4811719e-08,-1.3450439e-07,-4.213217e-08,-6.123963e-08,-1.3292536e-07,3.9218875e-08,4.4004707e-08,-8.4541156e-08,-8.153306e-09,-1.5133761,2.7063756e-08,-1.5174642e-08,7.292532e-08,-7.8501024e-08,3.6114443e-08,7.5313395e-08,2.3607567e-08,6.467905e-08,-4.9283507e-08,-4.1257255e-09,-4.7723063e-08,-2.1428196e-08,-8.92185e-09,-1.6743698e-07,2.1262817e-08,1.1517387e-07,4.374145e-08,-9.29581e-08,-9.691799e-08,6.4884667e-09,-2.7931538e-08,-4.2596675e-08,-1.02635624e-07,-1.2051804e-07,-2.589078e-08,3.8368473e-08,-3.759716e-08,-1.760537e-08,-2.3246281e-08,-1.684698,0.99125445,3.7619152e-09,-1.5402797e-08,5.4094272e-08,2.7621105e-08,2.4877629e-08,-0.67179036,-1.6591123,1.1411655e-07,7.0310033e-09,7.528015e-09,-1.18697386e-07,-4.181317e-08,1.7297242e-07,3.8348695e-08,-8.479679e-08,1.8820856e-08,7.731905e-08,1.9064014e-08,0.9408418,3.8909764e-08,-1.5655127e-07,5.0066944e-08,-9.988663e-08,1.5026279e-07,-8.512776e-09,-5.9079127e-08,-4.2139547e-08,-2.9363225e-08,-1.4570381e-07,1.2246458e-07,-1.0705789e-07,4.328414e-08,-6.864029e-08,-6.7479434e-08,-2.5014874e-08,-1.4464977e-08,-7.33325e-08
3.5486707e-08,3.1382086e-08,-3.669946e-08,1.4382016e-07,-8.661385e-08,-1.4431407e-09,-1.04269056e-07,-7.3912787e-09,-1.1485973e-07,-4.4272433e-08,-1.3051566e-07,0.20810464,-1.8993654,1.2616646e-07,-1.0997633e-08,3.759159e-08,1.1565442e-08,2.702129e-08,-1.8273693,-0.015617751,-4.08747e-08,-5.93187e-08,-3.1392275e-09,-1.5694962e-07,-7.054978e-08,-2.7899771e-08,-1.078374e-08,-5.8832143e-08,1.10154176e-07,-2.020554e-07,-9.487096e-08,-1.5824037,1.0488773e-08,-2.1792655e-08,2.8067419e-08,7.111005e-08,-1.2656182e-07,-3.1170178e-09,2.1729618e-07,4.3044935e-08,1.0575334e-07,1.15875345e-07,3.6039204e-08,-1.8486334e-08,-2.3968823e-08,-5.276896e-08,-4.0614836e-09,6.277189e-08,-1.3626719e-08,-2.8599379e-08,-4.6135284e-08,-4.62339e-08,1.1281871e-07,2.6154135e-08,-1.3420375e-07,1.6348277e-08,-3.350276e-08,5.6109677e-09,-1.7706256e-07,1.064601e-07,-2.5849434e-07,-1.7309867,0.5207683,5.3749204e-08,-1.6466231e-07,2.9836233e-08,-1.3536333e-08,5.5833524e-08,-1.0901017,-1.7292789,2.5023702e-08,-2.2593497e-08,1.5104655e-07,8.591359e-08,9.052223e-08,-8.587602e-08,4.598658e-08,-7.925404e-09,4.9335615e-08,-1.1928094e-08,1.5848084e-07,1.0160887,-6.957568e-08,-1.3513203e-07,-1.12659045e-07,4.8506184e-08,-3.1841243e-08,-2.2947615e-08,-4.295815e-08,-6.853884e-08,-5.5616336e-08,-2.8633758e-08,5.5993365e-08,4.5676153e-08,9.701518e-08,-1.9423172e-08,8.8370395e-09,-5.740073e-09,-6.5146177e-09,-7.889829e-09
-3.0113823e-10,2.1076918e-09,-7.29188e-08,5.114268e-08,-2.3049056e-08,-8.77974e-09,1.9574323e-08,1.3742655e-08,-5.380489e-08,-4.3462745e-09,3.386627e-08,0.4881694,-1.608867,4.0531607e-08,-1.2294886e-07,-5.5486144e-08,6.9096693e-09,1.1853168e-08,-1.5962692,-0.42202175,-6.9318205e-09,7.108798e-08,-4.7113023e-08,-1.294093e-08,-6.9582356e-08,2.537656e-08,7.702722e-09,1.16884245e-08,4.6591396e-08,1.00990746e-07,-5.023989e-08,-1.2128277,-2.9285998e-08,-3.0797374e-08,3.3212704e-08,-1.446621e-08,-4.845758e-08,-1.1199404e-08,7.3096027e-09,2.9020129e-09,8.69192e-09,2.7635458e-08,-4.4852104e-08,-7.164371e-08,-3.996142e-09,9.0498986e-08,-2.3802698e-08,6.0798815e-09,-1.1872326e-07,1.1019378e-07,-2.0901458e-09,-4.2591637e-09,-3.2846696e-08,4.675549e-08,3.7411972e-08,-6.9724805e-08,1.0561074e-08,6.81733e-09,4.7934797e-08,4.7247003e-08,2.5569335e-08,-1.3321556,0.4093398,1.3808388e-07,-1.4913837e-08,2.5389697e-08,-2.2747802e-08,1.0140327e-07,-0.37738997,-1.3262957,-2.0221993e-08,3.819672e-08,6.2191754e-09,-4.568897e-08,-1.635292e-07,6.3167214e-09,1.1613047e-07,1.3260138e-08,-5.751897e-08,-1.5251702e-07,1.4062081e-08,0.43878242,-9.458158e-09,-1.6523579e-08,-1.241727e-07,-1.9617955e-08,2.0361206e-09,7.7857834e-08,9.094798e-09,9.814106e-08,-4.4099973e-08,7.85024e-08,-8.342992e-08,1.7020945e-08,-4.7425164e-08,1.0048793e-07,2.1531958e-08,-3.6846814e-08,7.1209794e-09,-1.1236186e-07
2.4177215e-08,-9.848337e-08,-7.532614e-08,1.3639338e-07,-4.6777546e-09,3.6765325e-08,7.152022e-08,-2.6534526e-08,-4.356632e-08,7.703048e-08,1.6329338e-07,0.5584469,-1.6758553,1.057858e-07,8.473373e-08,5.8636004e-08,8.3146176e-08,3.2817688e-08,-1.6310831,-0.3670296,-1.0825598e-08,-6.790684e-08,-2.5547592e-08,5.0616137e-08,-8.9245844e-08,2.9474952e-08,2.1913403e-08,-3.5579497e-08,9.41946e-09,1.1297821e-07,-2.545028e-08,-1.382839,1.7729012e-07,-2.2466436e-08,-1.1949428e-08,4.8599706e-08,-2.2823297e-08,-5.018671e-08,-2.9663994e-08,-5.2142358e-08,-5.3261658e-08,1.9989486e-07,1.4468711e-09,4.991517e-08,1.773308e-08,2.719617e-08,3.692743e-08,-3.0942644e-08,-2.3736309e-08,-2.936762e-09,-2.6727043e-09,-1.9592736e-09,6.2642755e-08,7.9445e-09,-3.343018e-08,6.865801e-08,6.856308e-08,2.5447992e-08,-6.007905e-08,2.5982908e-08,-1.9529885e-08,-1.4375297,0.51247305,1.3430757e-08,6.001119e-08,9.1230426e-08,-6.2474736e-10,8.445722e-08,-0.5625341,-1.3987559,6.9175243e-09,-7.551941e-08,2.3301105e-08,-7.3384726e-08,-1.1804691e-08,-7.266501e-08,-1.3638432e-07,1.7514072e-08,-4.8287255e-08,-6.069804e-08,-1.0975938e-08,0.45536196,1.155275e-08,3.1605808e-08,-8.7212065e-08,9.089809e-08,7.0131534e-08,-1.3537402e-07,9.3332666e-08,-4.120969e-08,-7.397493e-08,-2.2438037e-08,-1.7601707e-07,-3.932975e-08,2.6860198e-08,4.882645e-08,7.327766e-08,1.142934e-08,-7.3703546e-08,-2.4908292e-08
-3.0209097e-08,5.7266114e-08,-5.3765305e-08,2.6792584e-08,-2.8040482e-08,5.0733718e-08,1.1008302e-08,-8.4580876e-10,7.7509384e-08,-1.0008136e-07,3.488591e-08,0.6433169,-1.4226062,1.5956303e-09,-6.7423024e-08,6.643255e-09,1.1848294e-07,-1.4894443e-08,-1.4401187,-0.5498737,-6.909574e-08,1.4104745e-07,-1.9023998e-08,-1.2405593e-07,-1.8803963e-08,7.824558e-08,1.3256164e-07,1.8372779e-07,2.3911696e-08,-3.418393e-08,-3.685259e-08,-1.121894,-2.6937952e-08,-5.5391713e-08,1.4815396e-07,1.5271834e-08,-2.0138467e-07,4.5076582e-08,-2.9361267e-08,-3.5275505e-08,-7.306771e-08,6.053135e-08,-1.5764314e-09,1.3136328e-08,5.13902e-09,5.3763014e-08,6.47283e-08,-7.0133037e-09,4.1245087e-08,-4.7497984e-08,-3.3077974e-08,1.0589055e-08,3.288048e-08,-5.671727e-09,3.7734285e-08,-3.5907988e-08,3.0861322e-09,-7.5206525e-09,-2.4614081e-08,9.300827e-08,3.371479e-09,-1.1883557,0.57246786,1.8404922e-08,9.397655e-08,3.1791522e-08,1.1660606e-07,-1.3129248e-07,0.09443313,-1.1308635,-9.185143e-09,-1.9474703e-07,-3.5717527e-08,1.0212135e-08,-3.2547085e-09,1.3177243e-08,1.21621255e-08,-1.5989844e-08,7.3532114e-09,6.242651e-09,1.39363e-07,0.28812158,-7.350074e-08,1.6636005e-08,5.424979e-08,-2.519604e-09,1.04531146e-07,-1.6425398e-08,1.5025824e-07,4.1199907e-08,-1.5188661e-08,1.08222224e-07,1.1735728e-09,-3.2385593e-08,-5.034527e-08,1.6171409e-08,3.363632e-08,-6.0354495e-08,1.409925e-07,-1.161429e-07
-5.1253803e-08,-2.8141075e-08,2.9332924e-08,4.734122e-08,1.2999155e-07,-4.2051745e-08,8.92036e-09,1.5383113e-08,2.3117334e-08,4.0530004e-08,2.1596783e-08,0.39847937,-1.3251066,-1.492867e-08,-4.7615185e-08,-3.8515267e-08,-2.5863981e-08,5.1263406e-08,-1.349055,-0.32877117,1.5357331e-07,1.18419905e-08,-1.1103364e-07,1.0433972e-08,4.769867e-08,7.454527e-08,7.679584e-08,6.091365e-08,-5.0915006e-08,-3.6498477e-08,6.766406e-08,-0.9626115,4.629019e-09,-1.810494e-09,1.3293189e-09,3.6162692e-08,-9.128356e-08,1.1771402e-07,-1.31572335e-08,-1.0722381e-07,-2.5395773e-08,-2.9491556e-09,1.7524332e-08,3.081919e-08,6.614334e-08,7.1098164e-08,1.8516335e-08,-4.3634948e-08,8.2706244e-08,4.5848637e-08,2.1878636e-08,-2.6892522e-08,-9.0172094e-08,2.4080467e-08,-5.7316164e-08,-9.099552e-08,-2.1563267e-08,2.1254083e-08,-7.096551e-08,3.6858414e-09,-8.085967e-08,-1.0025331,0.22593981,-2.2958801e-08,5.6036654e-08,-2.2924258e-09,-3.46101e-08,2.011344e-08,-0.12119195,-0.9332879,8.743545e-08,2.3642421e-09,3.083775e-08,-4.3134172e-08,-1.15471735e-07,1.166099e-08,3.162401e-08,-3.3138278e-08,-2.0132667e-08,-7.216612e-08,-1.5743115e-07,0.08254168,-1.2787709e-07,7.3859443e-09,5.722505e-08,9.410321e-09,1.18158034e-07,4.2647272e-09,9.3971195e-08,-2.4169001e-08,-6.3057e-08,8.2396184e-08,5.2135455e-08,-1.4468479e-07,-3.0315995e-08,-7.320748e-08,-4.2238746e-10,2.9570696e-08,1.4742726e-07,-3.123053e-08
3.807338e-08,-6.567542e-08,-6.416833e-08,1.15640326e-07,-4.4460947e-08,5.3477837e-08,1.9384647e-08,-8.8261004e-08,-2.5352904e-08,4.775868e-08,-9.592044e-08,0.63055044,-1.3118234,-1.071893e-08,3.386821e-08,2.369402e-08,3.4939927e-08,-3.4379212e-08,-1.3953397,-0.6231897,-1.7446066e-08,-8.1613074e-08,-5.0884355e-09,3.249197e-08,9.697104e-08,-2.3539302e-08,5.0913567e-08,1.9984789e-08,5.8960193e-08,-1.4162829e-08,4.4099913e-08,-0.872923,8.821376e-08,7.37701e-08,-2.995121e-08,5.967758e-09,-9.14012e-09,-3.489476e-08,-9.310623e-08,-3.68408e-08,1.0463831e-08,-1.6504568e-08,3.3584858e-08,6.82184e-08,-5.2695686e-08,7.2006294e-09,-1.322422e-08,7.508079e-08,-7.2795444e-08,-7.927723e-08,2.3815417e-08,7.37553e-08,7.037769e-08,-1.3526791e-09,-1.86805e-08,8.829099e-08,-1.5633033e-09,1.0918608e-08,1.2779266e-08,-1.1100081e-08,2.7890264e-08,-1.1015655,0.77083015,-2.9030097e-08,-5.983502e-08,4.5335945e-08,-1.7508768e-08,-5.4128332e-08,0.1900778,-1.0864747,-5.974886e-08,-3.8474703e-08,-1.7727125e-07,7.6417635e-08,-1.2838817e-08,-6.660507e-08,4.785237e-08,3.5139127e-08,1.1200335e-08,2.0605157e-08,1.0003932e-07,0.498112,-6.191601e-08,-6.7465514e-08,4.640793e-08,9.271542e-08,6.592268e-08,-3.3635256e-08,3.493524e-08,1.2650231e-07,-1.6281973e-07,-2.7933165e-08,-3.7544105e-08,-4.2442277e-08,1.2847217e-07,-1.2728844e-08,1.581109e-08,2.009954e-07,-3.7328203e-09,-3.037444e-08
-3.3827824e-08,-2.933474e-09,-7.47508e-08,1.8887566e-07,2.4797593e-08,-2.5147433e-08,-1.4859806e-08,5.6939093e-08,4.064697e-09,-4.9194405e-08,-1.8722788e-07,0.38391212,-0.5779729,9.1755396e-08,-1.7850127e-08,-9.6989075e-09,1.3565465e-08,2.3447383e-08,-0.99456096,-0.41427183,-4.4324302e-08,1.11086464e-07,-9.027589e-08,2.9706841e-08,-1.1070465e-07,-3.34456e-08,-1.07750495e-07,-1.0854484e-07,-2.6183447e-09,3.4681246e-08,-3.835736e-08,-0.2765666,9.06845e-08,2.1589067e-08,-4.4429484e-08,3.0158382e-08,2.958905e-08,5.127427e-08,1.144426e-07,2.983692e-08,1.5771942e-08,-2.7539485e-08,4.271529e-08,-7.6407034e-08,-6.7656636e-09,1.1110578e-07,-1.03406634e-07,-7.962768e-09,1.9809695e-08,8.625319e-08,3.6871576e-08,-2.3918602e-08,-3.7860055e-08,-2.9829064e-08,1.3539628e-08,1.9856598e-08,5.0499565e-09,1.7076227e-08,-2.4500299e-08,1.1819537e-08,1.8155355e-08,-0.60795623,0.7025414,-5.7252265e-08,-1.7223886e-08,-4.889433e-08,1.0697963e-07,-6.2828164e-08,0.34430933,-0.6545685,-3.4445367e-08,4.8180382e-08,2.9142663e-08,-1.17024335e-07,-1.38009835e-08,1.9451846e-08,-3.3912787e-08,9.400412e-08,-3.3558887e-08,-1.11902025e-07,-6.5411285e-09,0.4751219,3.5663184e-08,-1.0143998e-07,-6.677684e-08,-2.5133904e-08,-7.8913736e-08,3.8465426e-08,2.137e-08,3.8779e-08,3.6990965e-08,9.134286e-09,-4.1524657e-08,-1.2440589e-08,-2.0596364e-08,-1.037229e-08,-2.8121043e-08,6.8733357e-09,-1.6188484e-07,1.6063883e-08
7.957492e-08,-9.149742e-09,4.26651e-08,5.7132688e-08,1.2263442e-07,-2.5550602e-08,-6.960933e-08,7.0249726e-09,3.2786396e-08,-4.9589943e-08,3.119274e-08,0.8588831,-1.237416,-1.3716739e-08,-8.8595144e-08,1.6140717e-08,1.9617165e-08,-1.6138621e-07,-1.3226455,-0.7535564,-5.130133e-08,7.0346013e-09,4.118944e-08,3.8318746e-08,-8.40523e-09,-1.8207746e-08,1.2834098e-08,2.8005845e-08,-1.2041237e-07,-9.932861e-08,4.113969e-08,-0.8905882,-6.41438e-08,-1.2942122e-08,-7.130803e-08,8.478255e-08,7.3170767e-09,-1.4309715e-07,4.4912255e-08,6.653167e-10,-1.1736834e-08,-5.4962577e-08,-8.353057e-08,-7.944169e-08,-8.794201e-08,1.365027e-07,-8.6218904e-08,-5.8030913e-11,1.6413553e-07,7.079211e-08,-2.738843e-09,-1.109568e-07,-5.7048542e-08,-1.5647517e-08,1.3980905e-09,1.323111e-07,-6.929948e-08,1.9478929e-08,2.9293865e-08,-3.2431323e-08,5.5718807e-09,-1.0835973,0.8465658,4.0940883e-08,-1.4733358e-07,2.8115046e-08,9.0177245e-08,3.12201e-08,0.3628745,-1.048329,-6.017028e-08,3.885102e-09,4.8373314e-09,-2.6940814e-08,-1.7560353e-07,-1.3142564e-07,5.796986e-09,3.4142582e-09,1.0394433e-07,1.1688808e-08,-5.662558e-08,0.49854708,-4.3887106e-08,-1.5748398e-09,1.8261335e-07,-5.0232693e-08,-2.7793536e-08,2.5228456e-08,-3.744713e-09,1.8442972e-09,-3.675886e-08,-1.4057876e-07,7.492521e-08,1.0112443e-07,-2.8059077e-08,-2.5357753e-08,2.218476e-08,2.985069e-08,-1.976752e-08,6.000309e-08
-3.4393999e-09,7.836416e-09,8.25355e-09,-1.9897186e-09,4.4731605e-09,-1.947734e-08,-9.631705e-08,2.380231e-08,9.6436395e-08,-3.2484508e-08,6.8315906e-08,0.44138393,-1.5422413,8.3083506e-08,1.6205212e-07,5.674035e-09,-2.2689907e-08,-9.790058e-08,-1.5479143,-0.29170534,-9.158704e-08,-1.5457328e-08,8.010915e-08,8.512906e-08,2.2699245e-08,-1.12543205e-07,8.674795e-08,3.915313e-08,-4.304483e-08,-7.551507e-08,-6.656509e-08,-1.2273544,-4.7287692e-08,-8.064563e-08,1.1088289e-08,3.6395145e-09,5.0547815e-08,-8.207007e-09,6.845979e-08,-9.195212e-09,-6.754357e-08,2.7202265e-08,-9.1202565e-08,7.465521e-09,-5.6257733e-08,-7.214728e-08,5.0411142e-08,-7.13565e-08,8.220871e-08,1.0432642e-07,6.5407384e-08,-3.3258353e-08,-1.17805655e-07,-6.1945414e-08,5.5844964e-09,-2.5428632e-08,-4.028528e-08,1.9362957e-08,3.53195e-08,8.81883e-09,1.0542907e-07,-1.3897078,0.65493065,-5.141134e-08,7.629108e-09,4.806947e-08,-2.9327438e-09,-1.4909163e-09,-0.02073781,-1.3738116,-7.442086e-09,6.6391266e-08,3.9556454e-08,-4.806548e-08,4.560068e-08,2.1234857e-08,-1.2930155e-08,-1.6057811e-08,-1.13908605e-07,-2.0174358e-08,5.6813956e-08,0.528948,-2.0613051e-07,-2.580508e-08,-2.9141997e-08,1.7461652e-08,1.0473849e-07,1.819214e-07,-5.0962957e-08,5.4822685e-08,-5.8665027e-08,-5.1234856e-08,-2.4299032e-08,4.843762e-08,-3.656539e-08,8.924577e-09,3.0249986e-08,-5.214749e-08,-3.203327e-08,2.5272955e-08
1.2565458e-07,-1.5386428e-07,-8.8935124e-08,-9.03919e-08,9.111851e-08,-2.3049784e-08,-6.1847885e-08,-4.4450406e-08,1.6691008e-08,1.274479e-07,7.5695056e-08,0.48540536,-1.6155472,4.115554e-09,-5.95603e-08,7.298841e-08,-1.3163692e-09,-7.3453016e-08,-1.4879124,-0.35717678,-7.4000646e-08,-7.809872e-08,-3.489451e-08,-2.8702907e-09,-9.7406215e-08,-1.8420907e-08,1.143437e-07,-5.566983e-08,2.6944884e-08,-3.6882362e-08,2.31997e-09,-1.2210073,-4.5853774e-08,-1.8419814e-07,7.4645776e-08,-1.6067108e-07,4.3702816e-08,8.902941e-09,2.8810376e-10,-3.8021074e-08,1.0997869e-08,1.9943807e-08,1.1492425e-08,3.1382363e-08,-6.4518275e-08,-3.2773702e-08,6.307067e-08,3.1966007e-08,-1.6786746e-08,-1.0376713e-07,-1.3293504e-07,5.3937995e-08,-6.6977126e-09,2.9133638e-08,1.47761945e-08,3.3522877e-08,-1.7096246e-08,-2.6876654e-08,2.5470472e-08,-1.4016e-07,-2.013777e-07,-1.3529013,0.92865926,2.0236662e-08,2.431426e-08,2.2581965e-08,-1.5509809e-08,-9.603334e-08,-0.56463873,-1.3315912,3.8784528e-08,6.9003534e-08,5.7091754e-10,2.168301e-09,-5.895921e-08,-1.039416e-08,-5.386939e-09,-3.284197e-08,-9.9901094e-08,-1.8819458e-08,8.372789e-08,0.9050417,2.7408834e-08,4.033675e-08,1.2800267e-07,4.2537636e-09,3.3563605e-08,-3.1138505e-08,-6.0263986e-08,9.99409e-08,-7.3530344e-08,3.9889308e-08,-1.0634122e-07,-8.343207e-08,1.8519731e-07,-8.0485336e-08,-4.7552888e-08,-1.9728702e-08,6.7684795e-08,-3.1508044e-08
4.9875258e-08,3.8338783e-08,1.8403746e-08,1.5016733e-08,-6.945105e-08,9.294183e-08,-2.0665347e-09,4.3611635e-08,1.1200232e-08,7.9515424e-08,7.486757e-09,0.8424101,-1.3287243,2.8573199e-08,7.343563e-08,-9.369477e-08,-7.637438e-08,3.4705703e-08,-1.3964365,-0.6993176,1.1127433e-08,-1.6256237e-08,5.7940213e-09,-8.938876e-09,-2.2784462e-08,3.6496736e-08,1.0956097e-07,2.8194727e-08,3.7531812e-08,3.3695365e-08,5.2897065e-09,-0.9739914,-3.132999e-08,-9.62883e-08,-2.7506044e-08,-1.5418877e-07,5.90858e-08,-2.1511088e-08,5.234125e-08,-9.6498766e-08,-7.2918894e-08,-8.000987e-08,-4.3826816e-08,-3.172749e-08,-4.00498e-08,-9.155841e-08,5.0148294e-09,4.248473e-08,-8.175627e-08,1.1341737e-07,1.324576e-09,-3.7768935e-09,-1.4940973e-09,6.768756e-08,-4.88211e-08,6.778958e-08,3.2607335e-08,-2.0756227e-08,2.7606017e-08,-7.034431e-08,-3.9183643e-08,-1.1160735,1.1404325,-1.8708253e-07,1.3043493e-08,-5.789354e-08,1.2831944e-07,-1.347691e-08,-0.04260948,-1.1041087,-4.472212e-08,-2.3199515e-08,1.9926564e-08,4.5453778e-08,3.510916e-10,3.123253e-08,7.2157086e-08,-6.225303e-09,3.732744e-08,6.3912813e-09,-3.9965443e-08,0.7301918,-5.8640417e-09,-2.5512248e-08,8.215309e-08,-6.548976e-08,-3.5925627e-08,3.5589025e-09,3.940058e-08,7.0741883e-09,6.834665e-08,-1.0919773e-07,-4.1689454e-08,2.1089907e-08,-1.09764244e-07,-9.043312e-08,1.1968481e-07,-3.2103088e-08,1.6109134e-08,1.7116639e-07
1.1667164e-07,-1.3614617e-08,-6.2504874e-08,6.811318e-08,-7.2130106e-08,8.2451095e-08,2.2509134e-08,3.2302594e-08,-3.3759388e-08,-3.0539454e-08,-7.127679e-08,1.0857365,-1.3668023,4.524412e-09,1.215732e-07,-4.898606e-09,-1.5205406e-07,-1.1132162e-07,-1.4421881,-0.88298976,-3.8595825e-08,9.758918e-08,-4.8461914e-08,-9.480024e-08,2.866597e-08,-6.791114e-08,1.4556822e-07,-5.092884e-08,6.945913e-09,4.2961364e-08,2.2910307e-08,-1.0780156,-1.8077793e-08,-5.737302e-09,-3.7450445e-08,-2.6711135e-08,-1.0065372e-07,-1.4369185e-08,2.2229981e-08,-2.273876e-08,-2.9602468e-08,8.473643e-09,-2.176533e-08,-1.114065e-07,2.247631e-08,-1.1219768e-08,5.1390657e-08,-1.6666737e-08,-3.472441e-08,1.7972546e-08,-1.742514e-08,5.1287373e-08,8.838779e-09,1.283105e-07,1.1418623e-07,6.3787404e-08,-4.2482945e-08,1.1022474e-08,4.3810942e-08,1.01210595e-10,-1.1449073e-07,-1.2638017,1.1845767,-1.3377484e-08,1.7089019e-07,7.236218e-08,-1.10378835e-07,-2.5431081e-08,0.01349825,-1.2156334,5.879e-08,-1.6492277e-07,2.0307706e-07,5.7926044e-08,2.7437498e-08,1.5902888e-08,-6.391122e-08,2.5191074e-08,1.2162964e-07,1.6486918e-07,-1.03486855e-07,0.77400196,-1.4229329e-08,1.8316896e-08,-3.719667e-08,-2.6210591e-08,8.588029e-08,3.4350457e-08,2.1061364e-08,-1.401366e-08,1.1792807e-07,2.3686264e-08,6.096722e-08,1.0198211e-08,4.9533995e-09,-2.4059943e-08,-6.065351e-08,-1.8749978e-08,2.9308502e-08,-1.9310054e-08
-1.8756285e-08,-1.1282619e-08,7.0042894e-08,7.132215e-08,-1.2804148e-08,5.9766926e-08,2.957853e-08,-2.3901311e-08,7.931199e-08,2.63381e-08,1.9174008e-08,0.3326605,-0.692612,1.0393431e-07,-1.7063638e-08,4.7442352e-08,-7.9297536e-08,-4.522613e-08,-0.87683284,-0.2839731,-3.7830993e-08,-1.7333656e-07,-1.5963877e-08,3.280464e-08,-3.4478283e-08,-3.265354e-08,7.306781e-08,4.8267573e-08,3.0621617e-08,4.865402e-08,1.716391e-08,-0.36562604,-1.435135e-07,-2.5732552e-08,8.910787e-08,6.6411445e-09,1.0400805e-07,-2.201838e-08,2.2170337e-08,-5.51235e-08,-2.2612221e-08,-6.924407e-08,5.853525e-08,4.1632835e-09,7.1662427e-09,6.0128684e-08,-1.9948338e-08,1.43470515e-08,-2.1518176e-07,8.420077e-09,-7.2235977e-09,3.6726593e-08,1.3003994e-07,-2.8110286e-08,6.4680194e-08,3.78429e-08,3.1481992e-08,-1.4919307e-07,8.7834735e-08,-1.561764e-09,1.0393256e-08,-0.63794565,0.94640714,-1.3792602e-07,-1.2705694e-08,3.6386194e-08,-3.6145735e-08,1.7600875e-08,-0.40057647,-0.5927908,-1.2930806e-07,-1.0037044e-07,-2.411522e-08,1.0185122e-07,-2.2389528e-08,1.6312732e-08,-2.8529637e-08,-2.4550399e-08,-7.779519e-10,-1.598662e-07,-3.810048e-08,0.8754602,3.2147433e-08,-3.203602e-08,9.542155e-08,6.0374497e-09,2.8246119e-09,2.6475035e-08,-5.1942465e-08,-1.6288649e-08,2.1649115e-08,-2.5922208e-08,-1.6081724e-08,5.5915695e-08,-1.6054628e-07,4.5866955e-08,7.969426e-08,1.08847225e-07,8.90594e-08,-5.4321678e-08
-9.292797e-09,2.614368e-08,-2.0664785e-08,-3.2150602e-08,1.9230107e-08,6.0221986e-08,1.0408305e-07,-3.2160887e-08,-2.5871287e-09,-3.7186158e-08,-1.520271e-07,0.08588219,-1.0676526,1.4337513e-07,-3.5721893e-08,7.1549124e-08,-6.022452e-08,-3.2274947e-08,-1.0854168,-0.06520512,-7.658076e-08,-2.7624858e-09,-4.4323034e-09,-4.7321638e-08,-7.478116e-09,-2.2015925e-08,1.3842671e-08,6.011059e-08,-5.0487376e-08,-6.3134294e-08,1.17237136e-08,-0.632979,2.7857896e-08,-9.2165395e-09,-1.48539145e-08,8.454048e-09,1.6406172e-08,-3.6450608e-08,2.0800691e-08,-3.072888e-08,-3.7848142e-08,2.4579645e-08,-1.9802936e-08,-6.1938096e-08,1.8929565e-07,-1.5720846e-07,3.9765805e-08,-2.4074875e-08,9.017971e-08,-2.445212e-08,-1.7840396e-08,5.7880865e-08,2.426166e-10,-7.3405005e-08,4.521356e-08,8.196572e-09,1.1769156e-08,-8.1979266e-08,3.4219777e-08,4.0406146e-08,3.6179443e-08,-0.82511264,0.6412652,3.0663784e-08,-7.169272e-08,3.0361647e-08,-4.28611e-08,4.6232884e-09,-0.2940049,-0.7675332,-2.9380384e-08,-8.0366895e-09,6.9260118e-09,5.1321862e-08,2.1319476e-08,2.7095535e-09,1.4610077e-07,-6.9849065e-08,-2.4029557e-08,-6.817221e-08,-7.545087e-08,0.6468344,3.6956784e-08,4.3223324e-08,1.12909255e-07,-4.107976e-09,8.0332846e-08,2.8967822e-08,2.599195e-08,5.0472256e-08,-3.888071e-08,5.8031205e-08,1.3356399e-07,1.1388207e-07,1.389667e-07,4.981456e-08,-5.81003e-08,-4.7422738e-08,1.1623109e-07,1.4113961e-07
-9.032447e-09,9.1417064e-08,-2.241104e-08,6.7607246e-08,1.2549833e-07,2.0034193e-08,9.904674e-09,-4.2977413e-09,-6.525914e-08,-5.44887e-08,3.6147977e-08,-0.31805083,-1.8826395,-1.7919994e-07,-2.0802947e-08,-2.7648742e-08,8.029296e-09,7.235187e-08,-1.8818502,0.48828316,6.6813612e-09,2.6531414e-08,1.2737928e-07,7.2888717e-09,2.483798e-09,-5.6120122e-08,1.830696e-08,-3.2129343e-08,2.0655186e-08,3.5846544e-08,-1.13920755e-07,-1.5262645,1.8999232e-08,-6.234134e-09,-2.6901985e-08,1.4724584e-07,-3.6693343e-08,-2.3850827e-08,5.3637955e-08,1.6452498e-08,6.8715904e-09,2.2701991e-09,3.400683e-08,-9.499853e-08,9.722183e-08,-6.4458916e-08,2.937752e-08,2.3851232e-09,1.3477208e-07,3.8266062e-08,-2.9476897e-08,1.60871e-07,-9.6375764e-08,-4.7987882e-08,-5.9234875e-09,1.4391075e-07,9.455866e-08,-7.803569e-09,-5.2231353e-08,5.2605614e-08,9.9550455e-08,-1.688466,0.023118392,-6.713443e-08,-5.2550412e-08,1.666312e-07,6.24251e-08,2.1196715e-08,-1.146914,-1.6798308,3.2008895e-08,5.802921e-09,6.219638e-08,3.428367e-08,6.803681e-09,-7.935635e-09,1.0551782e-07,9.0873094e-08,-4.568715e-09,5.6447597e-08,-3.8230755e-08,1.1187904,-6.2486755e-08,4.7743228e-08,2.1949644e-08,1.3478088e-07,-3.265709e-08,3.7189057e-08,7.7584076e-08,-2.2890415e-08,3.4234148e-08,6.939143e-08,-9.1811955e-08,3.0047705e-08,1.9419803e-08,-1.0733428e-07,-1.6234058e-08,-7.33217e-08,1.2957485e-08,1.722065e-08
3.4992574e-08,-4.3715183e-08,-5.4995766e-08,3.1987586e-08,5.850626e-08,2.1698042e-08,1.277367e-08,-6.935103e-08,1.3635644e-08,7.923088e-08,-1.9503887e-08,0.20438129,-1.7565088,4.282759e-08,-8.0150826e-08,4.6833534e-08,3.6012484e-08,-1.8032537e-08,-1.7325014,0.037640832,3.4323953e-08,-2.3927367e-08,1.927954e-08,-1.5280454e-08,-1.5011511e-07,7.2462036e-10,-5.972548e-08,-8.422676e-09,-2.6947617e-09,7.179166e-08,-5.613714e-09,-1.4487698,-1.953206e-08,-4.3107597e-09,4.972014e-08,-1.19675e-07,4.0702176e-08,9.577087e-08,-6.61832e-08,-9.6854805e-08,1.17096395e-08,7.7664e-08,-9.094879e-08,9.119177e-08,-7.032058e-08,4.9909733e-08,2.7246077e-08,-5.8981815e-08,-5.566105e-08,6.095908e-08,4.893298e-08,-5.687346e-08,-6.093938e-08,4.4028052e-08,3.1061624e-09,6.642715e-08,-2.4437357e-08,-8.59673e-08,-6.334858e-09,-1.830918e-08,1.0263729e-07,-1.6209677,0.5903814,-5.696012e-08,2.948354e-08,8.353675e-08,-2.1355266e-08,-1.4815764e-07,-0.58706194,-1.5954113,-8.077571e-09,4.5147534e-08,-1.6387247e-10,5.315724e-08,1.1395831e-07,2.131529e-08,-3.4021852e-08,1.1501826e-07,-1.020279e-07,-1.4369307e-08,5.8806165e-08,1.0470321,3.155896e-08,1.7300103e-08,-2.6304782e-08,3.790072e-08,-9.51024e-08,4.6980006e-08,-1.5653725e-07,-1.2021399e-08,4.5390873e-08,-9.3033286e-08,-3.0823372e-08,-2.9924152e-08,4.4563684e-08,1.707829e-08,-7.434698e-08,-1.2028817e-08,-1.4320209e-07,2.1310974e-08
-1.7528052e-07,-1.6242225e-07,6.3972934e-09,3.7671104e-08,1.790314e-07,-1.9128496e-08,9.522972e-08,1.7766752e-08,1.2775686e-08,1.05231734e-07,8.825056e-10,0.4258257,-1.7057396,5.5172084e-08,1.03622085e-07,1.7113176e-07,3.0360205e-08,4.383837e-08,-1.6685251,-0.21642478,4.6934282e-08,3.9192592e-08,-1.6558566e-08,4.736033e-08,3.0722e-08,-2.7078038e-08,-1.9496666e-08,-1.0747259e-07,1.9462352e-09,-2.637666e-09,-1.7026826e-08,-1.405804,6.155797e-08,-2.9558521e-08,5.2373924e-08,-7.035852e-08,4.685999e-08,4.8116846e-08,1.0915073e-09,-6.792451e-10,5.2316302e-09,-5.150973e-10,-4.486364e-08,4.452957e-08,-7.8718564e-08,1.6734525e-10,2.073356e-08,-7.137308e-08,-1.07122844e-07,7.323545e-08,-7.78467e-08,-6.7109447e-09,1.2014089e-08,-4.3167702e-08,-9.769887e-08,-3.7311125e-08,-5.8864007e-08,8.757162e-08,-1.0673552e-07,3.7706812e-08,-2.845637e-08,-1.5313731,0.632924,-2.6545166e-08,-6.042411e-08,1.022763e-07,-5.001155e-08,-2.1454829e-08,-0.41296366,-1.4899473,7.6848075e-09,-1.537537e-08,5.908767e-10,-8.1257426e-08,1.4229977e-07,2.6418578e-08,1.03249e-08,1.796624e-08,9.4275265e-08,2.3356229e-08,-1.741482e-08,0.76362425,-3.8107125e-08,-1.0582164e-07,9.343383e-09,-5.428761e-08,-1.0236398e-08,-7.8062676e-08,-2.8880176e-08,9.432342e-08,-1.8239646e-08,2.198364e-08,3.8968384e-08,-1.0585663e-07,1.3903085e-07,7.883326e-08,-4.9002153e-09,3.0394073e-08,1.9027409e-08,1.1748064e-08
-1.0420797e-08,2.4088912e-08,2.6454863e-08,-2.5494193e-09,-2.8864992e-08,3.0586556e-10,2.5506079e-08,3.940789e-08,-1.4299982e-08,-2.8214444e-09,-5.3808833e-08,0.003948813,-1.2611095,-3.8073566e-08,-2.9927612e-08,-1.2622438e-08,1.5898092e-07,1.0468291e-08,-1.1351372,0.08144886,-7.6465476e-08,-2.1840602e-08,-1.07068416e-07,-2.3848953e-08,-6.2040506e-08,5.9576536e-08,5.081324e-08,1.9544107e-08,4.4435097e-08,-5.8771167e-08,-2.5935142e-08,-0.8229846,-1.2221726e-08,1.9613871e-08,1.28168e-07,-1.796276e-08,-5.604795e-09,-5.13349e-08,-8.959662e-08,-9.683494e-08,-3.9301753e-09,-1.6267957e-07,-2.7376473e-08,5.414458e-09,-2.9933842e-09,7.0133765e-08,-5.0155677e-08,4.8391406e-08,3.511767e-08,1.515486e-08,-3.6260925e-08,6.27211e-09,1.0179962e-07,6.3438904e-08,-6.399233e-08,-2.2979435e-08,-1.9978021e-08,5.562078e-08,1.06139e-07,-2.010733e-09,1.5899047e-07,-0.91354454,0.5345423,-3.3613695e-08,-1.4384582e-10,4.8163656e-08,-2.7583553e-09,4.553215e-08,-0.56853586,-0.8155483,1.1301335e-08,-9.0794785e-08,-7.680983e-08,2.970939e-10,-2.2157444e-08,6.4959735e-08,2.4504073e-08,-3.7202163e-08,1.4829743e-08,-1.0735339e-07,1.0306819e-08,0.64807564,3.2861465e-08,3.016098e-09,-1.6209704e-08,-5.1287824e-08,9.9411706e-09,2.5852787e-08,-2.825817e-08,-7.3219255e-08,-4.160702e-08,5.2744117e-08,-1.0156619e-08,4.2757588e-08,5.7787155e-08,-6.4934575e-08,5.05314e-08,-8.137032e-09,4.232435e-08,7.9057685e-09
1.4514492e-07,-1.0627425e-07,-8.914071e-09,4.0875186e-08,-2.0386043e-08,6.486914e-08,-9.3151815e-09,2.0087672e-08,1.2870629e-07,8.875209e-08,-1.7565576e-09,0.5675945,-1.1692684,-2.7183585e-08,3.350213e-08,1.7882801e-08,-3.361162e-09,-1.7051224e-08,-1.1794206,-0.44634658,-1.1263628e-08,3.5341593e-08,1.1190568e-07,3.9326245e-08,-7.421856e-08,-8.904199e-08,1.684214e-07,-4.536566e-08,7.969614e-08,1.9054884e-08,5.779108e-08,-0.74516445,-1.0881051e-08,-1.1148234e-08,-3.0534572e-08,1.4180624e-07,8.758487e-10,-1.5511655e-07,2.2774316e-10,-2.5528923e-08,-3.0017738e-08,-9.881187e-09,-2.8866499e-08,-2.1137822e-08,1.4151505e-07,-1.3904791e-08,1.3133281e-08,3.9334434e-08,-1.2640608e-07,-5.6621236e-08,-5.5905883e-08,-1.37503235e-08,1.8639685e-08,-1.11713305e-08,-7.571501e-08,2.9967318e-09,1.04187805e-07,1.0730043e-08,-2.6514261e-08,-3.674437e-08,3.2349632e-08,-0.9554433,0.9241923,-4.4128353e-08,7.2377865e-08,2.5647235e-09,-2.4309017e-09,1.979001e-09,-0.57407254,-0.894458,-1.2429842e-07,2.0688304e-08,-7.6169144e-08,8.685937e-09,1.2025714e-07,2.285941e-08,8.050249e-08,1.991308e-08,-7.2209026e-08,-2.782295e-08,1.8593251e-08,0.84057575,-2.4600059e-08,4.247226e-08,2.0002107e-08,1.2856265e-08,2.8235476e-08,-2.0576413e-08,-1.1518798e-08,-8.6244256e-10,3.1013023e-08,-1.5227917e-07,-1.6914994e-08,4.6229733e-08,-1.1604609e-07,-3.1467867e-08,-1.13234734e-07,-1.1231791e-08,-2.673141e-08,2.053804e-08
-6.458909e-08,7.7803804e-08,1.568167e-08,-2.9337297e-08,-1.7573567e-08,2.1315776e-08,-7.3273405e-08,3.7973635e-08,5.334945e-09,-5.8082446e-08,-2.699407e-08,0.28410217,-1.6405457,6.682595e-08,1.3914844e-07,1.1598303e-08,-5.0630042e-09,1.7263206e-07,-1.6447735,-0.11049615,-2.1941315e-08,7.684342e-10,6.6278375e-08,2.5876119e-08,3.132422e-08,-1.3435749e-07,6.47514e-08,-7.7576345e-09,-7.707494e-08,5.913071e-09,9.111665e-08,-1.2813786,8.8531024e-08,-5.8577175e-08,-7.497049e-08,1.6061739e-08,-9.895233e-08,1.1983066e-07,-1.7907428e-08,7.309115e-09,-4.5307694e-08,-2.5243066e-08,3.0826836e-08,-6.1454074e-08,6.139176e-08,-7.1395725e-08,-1.1750801e-07,8.99961e-09,-2.5089305e-08,3.855716e-08,-3.162521e-08,-1.1716213e-07,-1.2214574e-07,-9.2113055e-08,5.5222014e-08,-1.4187866e-07,-2.4749436e-08,-8.846726e-09,1.0728771e-07,3.0920653e-08,-1.2713343e-07,-1.4569244,0.6612646,-4.1668507e-08,5.1158658e-08,1.9855921e-08,1.665623e-08,3.6969485e-08,-0.61022455,-1.4254194,-5.244224e-08,5.5526453e-08,-4.096563e-08,-1.06685984e-08,1.3540266e-07,-9.6752345e-08,8.921599e-08,1.04617904e-07,-4.0346606e-09,5.2590593e-08,-4.91019e-08,0.9538258,-1.523852e-08,3.614792e-08,2.991144e-08,6.3951056e-08,-1.1752732e-09,-4.1824478e-08,-1.6576788e-08,5.774398e-09,-2.1393749e-08,7.3565374e-08,-4.6310674e-08,-8.0503085e-08,9.791274e-08,2.7866466e-08,-1.537612e-08,7.966809e-08,-2.7111264e-08,1.4695945e-07
2.3580954e-08,-1.1506657e-08,-4.2533642e-08,-3.4828904e-08,-6.605643e-08,5.023479e-08,-3.286663e-08,-8.681464e-08,2.5570886e-08,-1.0076923e-07,-4.514089e-08,0.85803425,-1.878335,1.8938824e-08,2.0808354e-08,-9.507403e-09,-1.3748702e-07,-1.5939916e-07,-1.849609,-0.62636423,-5.5416905e-08,1.8454006e-08,-9.900933e-09,3.8706187e-08,-1.6271837e-08,2.4785273e-08,6.2564304e-08,5.5070622e-08,3.1251922e-08,-1.8294529e-08,-1.6088396e-08,-1.5353823,-3.330914e-08,-4.2763823e-08,9.294686e-09,3.2773304e-08,1.4172211e-07,-1.233702e-08,-7.302899e-08,-2.3358774e-08,2.0757573e-08,3.2762948e-08,5.6041273e-08,8.946657e-08,4.3129944e-12,3.623417e-08,1.5714537e-07,-1.7920776e-08,5.7450702e-08,-1.1268291e-07,3.3987362e-08,-1.515103e-08,-1.4878489e-07,-4.7497437e-08,6.281874e-08,8.743026e-08,-7.685928e-08,-1.908198e-09,2.2799554e-08,1.5134346e-07,-4.6319744e-08,-1.7037969,0.9836436,1.6416762e-07,-7.051378e-08,-3.3300548e-08,-1.8822316e-08,2.381515e-07,-0.34289876,-1.6845661,-7.3594135e-09,-1.8101964e-09,-1.3181067e-07,1.1315885e-07,-7.3237764e-08,2.0401327e-08,2.0498415e-07,-1.7625634e-10,1.7032448e-08,2.3419108e-08,-9.698604e-08,0.9873947,-5.8670873e-09,4.0086373e-08,2.862193e-08,6.116571e-08,-1.390706e-07,-2.1780437e-08,6.93138e-08,-1.04049185e-07,4.719616e-08,3.6379575e-08,-1.0026769e-07,-1.2747584e-08,-5.882015e-09,4.6043525e-10,3.8417767e-08,1.3864874e-08,2.5669182e-08,8.992614e-08
5.832356e-09,-1.1997617e-08,-6.07761e-08,1.07635344e-07,-2.0925185e-08,-8.581971e-08,5.778267e-08,-1.3266289e-07,6.014905e-08,8.8464546e-08,-8.330821e-08,0.2939034,-1.9909575,1.0168617e-07,-3.2384229e-09,-7.506687e-08,-6.109755e-08,-1.07155486e-07,-1.9398009,0.0051033446,9.904424e-08,-1.0007727e-07,5.0511108e-08,1.9240552e-08,3.8787327e-08,3.9909054e-08,-2.9856253e-08,1.0213261e-08,-7.1302724e-09,1.630379e-07,-9.7888865e-08,-1.7165446,1.16096714e-08,-5.0177427e-09,-2.3048312e-08,8.7536954e-08,9.90495e-08,-2.6475409e-08,-5.8936433e-08,-9.709845e-08,-7.6033864e-08,-5.938201e-08,-7.892318e-08,2.0801517e-08,-1.06210525e-08,-5.0204427e-08,-1.5978162e-07,-6.402178e-08,4.0067228e-08,-2.0558133e-08,3.9812953e-09,-2.0503936e-08,-3.139828e-08,4.426739e-08,-2.4408656e-08,-4.3908486e-08,-1.0541081e-08,-4.6295238e-08,5.7638005e-08,1.5113237e-07,1.18372085e-08,-1.8474293,0.637628,-8.4979e-08,4.9480725e-08,5.3276985e-08,5.4073055e-08,-1.1047955e-07,-1.200988,-1.8341156,2.4740348e-08,1.4392507e-08,3.0333833e-08,-9.659613e-08,-3.2285815e-08,5.214378e-08,-3.2499305e-08,8.817565e-09,-6.2731715e-08,-1.4795168e-07,4.6028887e-09,1.2233745,-1.6779346e-07,-3.4000667e-08,-9.954637e-08,1.18981475e-07,-7.1271714e-08,-2.8024537e-08,-2.254761e-08,4.8307463e-08,1.3054141e-08,4.002232e-08,-6.14739e-08,9.6800854e-08,6.2854326e-09,8.285173e-08,-1.6033558e-08,-2.4019506e-09,1.3104085e-07,-6.027915e-08
1.3010819e-08,-4.607716e-08,-1.8901918e-08,-1.3007508e-07,1.3664287e-07,-1.0278708e-07,2.8728504e-08,1.0556004e-07,-7.4134316e-09,-2.0110912e-08,9.525515e-09,0.3422559,-1.895821,-9.175764e-08,-1.3268465e-08,-3.3262346e-08,1.2479599e-07,-7.3929584e-08,-1.8792754,-0.097998306,5.1091025e-08,-4.7023374e-08,-8.231607e-08,-5.0652226e-08,3.510027e-08,-4.9820805e-08,-1.6840785e-07,-6.883326e-08,1.4556552e-07,-1.1073604e-07,8.639426e-08,-1.5309862,-4.888543e-09,1.0735603e-08,-1.4158031e-08,-1.1857196e-08,-4.8371497e-08,-2.4169807e-08,6.925243e-08,9.2626173e-10,5.5355645e-08,-2.1086958e-08,-6.235137e-08,9.3293586e-08,-4.630479e-08,-1.8248397e-08,-3.9357253e-08,1.4069068e-08,-1.4195899e-07,5.9964584e-08,-1.8990237e-08,1.18038646e-08,-1.2903614e-07,5.9408706e-08,1.8539029e-07,-1.7345496e-07,9.2042534e-08,1.9271575e-08,5.369936e-08,-6.54065e-08,2.5793408e-08,-1.6986829,0.67481816,-4.963168e-08,-1.0546751e-08,1.2624417e-08,-6.9093815e-08,1.0441502e-08,-0.6773158,-1.7125647,-1.2714784e-08,4.3617373e-08,1.7148164e-08,-1.1198865e-07,6.427291e-08,4.7024184e-08,-8.794497e-08,-6.022674e-08,5.6140195e-08,1.1799901e-07,-1.706855e-07,0.95219827,3.870662e-08,2.628741e-08,-3.997825e-08,-4.570679e-08,-4.0139085e-08,2.1464833e-08,4.258821e-09,-2.1665112e-08,2.4336142e-08,4.1430805e-09,4.7515318e-08,-9.155457e-09,7.8243065e-09,-9.274423e-09,-4.7686726e-08,-7.2558706e-08,-4.763823e-09,3.633648e-08
3.84888e-08,3.0864449e-09,-1.3874892e-08,2.0824663e-07,-2.935651e-08,-9.7083415e-08,-2.9405705e-09,-7.174311e-08,2.508326e-08,6.84358e-08,4.889123e-08,0.7068104,-1.5570554,2.5981908e-08,5.613672e-08,3.0731194e-08,2.7383242e-08,-2.7249202e-08,-1.5593228,-0.5045725,3.420867e-08,-3.848708e-09,-5.664306e-08,-7.398671e-08,-1.9696053e-08,-5.7828228e-08,-2.6881388e-08,1.695217e-08,-1.3819992e-07,1.0849333e-08,-4.7889706e-08,-1.2192625,5.216237e-08,1.5700719e-08,-1.3331817e-07,-3.5860477e-08,2.0451456e-08,1.441321e-08,8.010878e-08,-4.866886e-08,-2.2452522e-08,-5.096951e-08,-1.15194695e-07,-1.9381236e-08,5.746459e-08,-9.75249e-08,-2.2396394e-08,8.0479666e-08,-2.0325785e-09,-2.4584363e-08,1.146568e-08,4.8999787e-08,5.7720776e-08,6.191044e-08,9.655365e-08,-1.0948018e-07,-2.739438e-08,1.318602e-07,-4.9763024e-08,-5.637798e-09,-3.9923904e-09,-1.4084684,0.9119777,-4.178124e-08,6.7120375e-08,-6.489758e-08,-1.2105804e-08,1.9472282e-08,-0.30233613,-1.3660941,3.0299624e-08,-6.2797255e-08,-2.124993e-08,-2.7435235e-08,-2.2129687e-08,2.9088334e-08,2.6049124e-08,2.7066775e-08,-1.1561475e-07,1.3983251e-07,6.2602055e-08,0.87916374,5.1176563e-08,-9.1309126e-08,2.6953487e-08,3.9425036e-08,2.5490893e-08,-6.585471e-08,-6.182614e-08,-1.1472843e-07,-1.1636079e-08,4.3728487e-08,1.1128035e-08,-5.6107382e-08,-8.919055e-08,-5.765175e-08,-1.4331878e-08,-4.448989e-08,-1.1887698e-08,-1.02898e-07
-3.8611763e-08,1.5507203e-07,-4.9205827e-08,-2.151277e-08,-2.569466e-08,-2.2472538e-08,1.9107045e-08,3.069013e-08,4.8670437e-08,3.9360067e-08,4.6902368e-08,0.3926359,-0.8016719,8.058663e-08,5.7069975e-08,-1.1065609e-08,2.2406024e-08,4.0428823e-08,-1.1106849,-0.36326694,-1.2414323e-07,-6.374658e-08,2.1307926e-08,4.4716902e-08,8.791256e-09,1.37207e-07,1.1310967e-07,-2.8390778e-08,1.1536995e-08,9.291176e-09,5.88901e-08,-0.47005457,-2.6294307e-08,-6.4765153e-09,-5.578317e-08,-1.3359781e-08,2.7807337e-08,-4.6928005e-08,-4.8460443e-08,-1.11867905e-07,-2.1185587e-08,4.9168687e-09,1.6537335e-07,4.660246e-08,-9.435547e-08,6.763435e-08,7.498319e-08,1.013766e-07,-5.6438147e-08,1.0270731e-07,1.03714754e-07,-4.8211838e-08,-1.4283977e-08,2.1343391e-08,2.6331684e-09,3.585231e-08,-5.482863e-08,9.049689e-09,-7.251768e-08,3.8788194e-08,4.468119e-08,-0.74781674,0.7186123,-3.044839e-08,1.685438e-07,3.164593e-08,2.0857247e-08,-9.179939e-09,0.40929648,-0.7417677,-4.2890624e-09,1.537701e-08,-2.5216984e-09,7.287628e-08,9.163532e-09,2.1724706e-08,-1.9380782e-07,-5.974444e-09,1.4625908e-08,6.651581e-08,2.2930447e-08,0.4586498,-1.973284e-08,7.714199e-08,1.8561641e-08,2.5398574e-08,1.0696218e-07,1.4119273e-07,-4.8039215e-08,9.2584695e-09,-1.4628974e-09,-1.162667e-07,7.77266e-08,-1.2269577e-08,-1.7864906e-08,-1.9830324e-08,2.7491232e-08,-5.699487e-09,4.9976627e-08,1.4345005e-08
-1.6001959e-08,1.0513723e-09,-6.234481e-08,7.570151e-08,-3.2827163e-09,-8.888176e-08,-9.9486044e-08,-3.0425365e-08,1.6127072e-07,9.892847e-08,-1.1859132e-08,0.4844623,-1.1611787,-1.4664894e-08,1.0636947e-07,9.826005e-08,1.0292776e-08,6.3069066e-08,-1.2759873,-0.35099065,2.7648934e-08,7.330772e-08,1.5597239e-08,-1.1426337e-07,-5.9344522e-08,-5.3076658e-08,-1.451728e-08,-2.0239146e-07,-3.290171e-08,-5.472666e-08,1.1400641e-07,-0.80844235,-6.994674e-08,-6.658935e-08,1.0608515e-07,-1.6656098e-07,-8.321715e-08,-1.262009e-07,-2.6717782e-08,2.489863e-09,1.432288e-07,-2.2195314e-08,1.0375327e-09,-2.3108111e-08,-3.2136484e-08,-1.5433923e-08,1.5463566e-08,7.7373045e-08,-1.2819042e-07,3.7588837e-08,1.41590935e-08,-9.469272e-08,6.671439e-08,5.011506e-08,8.1394845e-08,2.0442808e-08,-2.1554284e-08,-5.195814e-08,4.1215085e-08,-7.939396e-08,-1.3159784e-08,-0.98556066,0.52665925,-1.4049917e-10,-1.4927306e-07,2.0056213e-08,-2.0098771e-07,1.9220533e-08,-0.0041829036,-0.94809335,-4.084799e-08,-2.2142412e-08,-7.1982015e-08,4.789771e-08,2.2249264e-08,-3.283157e-08,-3.099089e-09,-4.955789e-08,-1.6451189e-08,-2.94722e-08,3.398489e-08,0.3333404,-1.2058631e-07,6.247147e-08,5.227733e-09,7.616679e-08,-2.5559737e-08,8.154401e-08,4.21421e-08,6.0139014e-09,-5.6287945e-08,-6.838495e-08,-1.5935598e-08,-1.5542263e-08,-2.592951e-08,-1.6615608e-08,8.414301e-08,6.565323e-08,6.5756964e-08,-3.376673e-08
1.9692864e-07,-1.3803398e-08,6.6916364e-08,1.1034599e-08,-3.397724e-08,3.9480184e-08,4.402007e-08,-7.195535e-09,-4.77175e-08,3.3373283e-08,1.3711987e-07,0.70889604,-1.2801929,6.636506e-08,-1.9172386e-07,-1.6569408e-07,-5.7448293e-08,4.47051e-08,-1.3899428,-0.64282805,-5.817275e-08,-3.265258e-08,-5.7456834e-08,1.02576525e-08,4.4125073e-08,2.4638798e-08,1.5657832e-07,1.3831325e-08,-9.601869e-08,-9.665014e-09,-6.6225887e-09,-0.87745255,2.8437437e-08,-7.3128046e-09,-1.0539393e-07,3.2025277e-08,-1.5799632e-08,-1.03045366e-07,4.8738652e-08,2.9738223e-08,-1.293345e-08,-8.790633e-08,-8.233481e-08,-5.2141388e-08,-1.2663426e-07,-3.6429768e-08,-2.769309e-08,2.8421397e-08,1.7839898e-08,1.2528121e-08,-2.694821e-08,6.8363974e-08,-9.920398e-08,1.1199e-08,-2.857748e-08,8.240359e-08,-7.280639e-08,5.400311e-08,-6.6914216e-09,1.4823977e-08,-3.803887e-09,-1.0807623,0.9720673,-4.5061974e-08,3.4803964e-08,-4.4878536e-09,2.2759753e-08,3.3538718e-09,0.1767957,-1.0519933,7.936392e-09,-1.0588934e-09,9.936945e-08,4.6882416e-08,3.775664e-08,-5.1182724e-08,-2.8835055e-08,5.7830514e-09,1.491695e-08,-5.4585104e-08,-3.3196702e-08,0.65164214,3.8820563e-08,-9.078833e-08,1.591431e-08,-4.5450335e-08,-2.9209446e-08,-1.3813982e-07,4.565652e-08,5.5046296e-09,3.3516834e-09,4.8343775e-08,-1.2440596e-07,-3.3955747e-08,-4.982768e-08,-5.0995403e-09,9.122557e-09,1.2561472e-07,-1.7088533e-07,-8.947359e-09
4.2597375e-08,-1.1770878e-07,-9.588895e-09,1.2557911e-08,4.8103825e-08,1.4746443e-08,2.2628976e-08,7.712308e-08,7.376144e-08,3.665648e-08,5.1723703e-08,-0.099812254,-1.3496838,-2.6921146e-08,2.8490128e-08,5.3152327e-08,-1.8687842e-08,-1.18661546e-07,-1.2843335,0.09671009,9.39069e-10,-1.3213572e-07,2.985523e-08,9.318327e-09,1.431591e-07,1.6581696e-07,7.0762766e-08,-2.3220359e-10,4.9293707e-09,-7.3788518e-09,-3.575742e-08,-0.9376462,-6.551574e-08,-2.7905445e-08,-3.38832e-08,4.2132875e-10,-1.6821636e-08,-1.0663891e-08,-1.0098378e-07,3.3673118e-08,-3.7148205e-08,-6.293551e-08,-6.824802e-08,3.5124295e-08,1.8933203e-07,-3.405969e-08,-4.657906e-08,-1.3961586e-08,-1.0716764e-07,1.2829456e-07,2.0318573e-09,1.5371484e-08,-1.8504924e-08,1.7668711e-08,-7.42848e-08,-3.5768103e-08,-4.1171816e-08,5.9249192e-08,6.830493e-08,-1.08416614e-07,1.2200919e-08,-1.1149993,0.65193325,6.9633472e-09,-4.502017e-08,1.7089639e-07,1.1046388e-07,1.4140403e-08,-0.37490895,-1.0916088,9.334652e-09,6.6094444e-08,-5.619352e-09,-6.468954e-08,-5.4633954e-08,-1.5566908e-09,2.4863677e-08,-4.770274e-08,-2.1684752e-08,6.830454e-08,-1.2927488e-07,0.73231626,-3.5681275e-08,-4.5540183e-08,4.144478e-08,-2.3132978e-08,-9.649983e-08,2.8794634e-08,4.2194497e-09,2.125159e-08,3.054322e-08,7.3400685e-08,-5.128862e-08,-3.697754e-08,5.5861356e-08,-5.0605273e-08,1.5356525e-08,7.725157e-08,-4.8077098e-08,-1.7887993e-07
7.640863e-08,5.5616567e-08,-1.667849e-08,2.1231731e-08,-6.045184e-09,8.2324235e-08,-4.0637442e-08,7.713935e-08,2.8618402e-08,4.7567468e-08,1.1276487e-08,-0.15896517,-0.76657045,5.1614117e-09,8.633126e-09,1.5386432e-08,3.0874755e-08,1.2503005e-08,-0.84184647,0.15225121,-1.5942017e-08,1.2234403e-07,4.451936e-08,1.2138637e-08,5.0001933e-08,-5.615378e-08,-3.1698733e-09,-9.046224e-08,3.5253507e-09,8.4970914e-08,5.1511044e-08,-0.36550656,-3.4019248e-08,9.93264e-08,3.0960386e-08,1.3201654e-07,-3.8563982e-08,-6.321166e-10,1.3359607e-07,-8.5866944e-08,7.9207936e-08,5.3140482e-08,5.5542856e-08,-4.5047365e-08,4.1867064e-08,-8.786738e-10,-6.302372e-10,-6.654387e-08,-4.8573142e-08,5.558307e-08,8.6670056e-08,2.6717117e-08,-3.220176e-08,3.6282216e-08,-1.4599651e-07,7.0741386e-09,-1.4669992e-07,4.805215e-08,-1.17998496e-07,-1.02792136e-07,6.833632e-08,-0.5625972,0.96420085,-9.163543e-08,1.1132342e-07,5.3446634e-09,-7.840669e-09,-5.745581e-08,-0.93360513,-0.658052,-1.0166734e-07,6.2489676e-09,1.8906773e-08,3.0621052e-09,-1.07996534e-07,-1.7805208e-08,2.4153763e-09,8.427812e-08,1.7516165e-07,-5.0755524e-08,6.22685e-08,1.0429269,1.1537809e-08,-1.8715557e-08,-2.2998554e-09,6.786891e-08,2.7094451e-09,-4.9565585e-08,-2.2923887e-08,-1.00990626e-07,-2.216662e-09,1.7873628e-08,3.7391075e-08,3.0075462e-08,-6.194565e-09,-3.731844e-08,-8.8443414e-08,1.5795113e-08,1.7180162e-07,8.4493685e-08
-4.2119627e-08,6.959136e-08,6.749335e-08,-2.2825823e-08,-6.764385e-08,-6.990839e-08,-1.1576405e-08,-5.8896113e-08,-3.6609528e-08,-3.097555e-08,7.8187774e-08,0.07836649,-1.6496851,6.167063e-08,2.5293163e-08,9.572356e-09,7.82192e-08,6.768676e-08,-1.5917965,0.10135693,-9.3919525e-08,8.90062e-08,2.17325e-08,-4.9328857e-08,2.7458281e-08,3.2074386e-08,-7.5853016e-08,1.0281866e-08,-2.6697718e-08,3.3970338e-08,-8.965183e-09,-1.2596642,8.954394e-09,3.1220807e-08,8.551929e-09,-1.1960311e-07,3.242767e-08,-2.3144665e-08,-1.8908576e-08,-1.0149653e-07,3.3167417e-08,8.994935e-08,1.9768464e-08,9.4661786e-08,4.6746884e-08,-2.2602222e-08,-1.4936222e-07,8.335604e-08,-2.7024463e-09,6.7163796e-08,4.1987747e-10,-1.466335e-07,5.8707535e-08,-5.4986288e-08,1.666125e-10,-1.4191413e-07,-2.7035675e-08,3.391949e-08,-6.5705336e-08,7.13059e-08,-4.0093443e-08,-1.4228157,0.68920034,3.2803815e-08,2.4457417e-08,2.8217329e-08,-9.5821534e-08,3.787372e-08,-0.9283864,-1.4162765,7.85074e-08,-3.9051788e-08,-4.0564807e-08,4.683309e-08,3.3523484e-08,-5.6682143e-09,3.648735e-08,3.4303046e-08,-3.0095947e-08,-2.7237263e-08,-5.7409398e-08,0.9081138,1.8417534e-08,-1.0561289e-07,-1.42685925e-08,1.2817522e-07,5.472764e-08,-1.4665567e-09,2.2136579e-08,3.6627639e-09,-1.6039166e-08,-5.0512263e-08,-2.0053157e-08,-2.0556694e-08,-3.312323e-08,4.930545e-08,-7.63922e-08,4.74628e-08,-1.4466455e-08,9.9937285e-09
-4.5744265e-08,4.9344937e-08,3.650185e-08,-1.5920532e-08,-2.7493494e-08,1.6028405e-08,4.0836365e-09,5.087024e-08,1.3713661e-08,-7.1274194e-08,8.5216385e-08,0.18257135,-1.1611468,9.0221796e-08,-7.9030215e-08,-6.406522e-08,-4.254732e-08,4.6297213e-08,-1.2561959,-0.16775529,-4.5173966e-08,3.174693e-08,-6.062457e-08,1.0820763e-07,-1.9228926e-07,1.2524904e-08,-6.464982e-08,-6.681346e-08,-8.798857e-08,2.1032132e-08,-7.3072375e-09,-0.68512344,-5.9915806e-09,8.270277e-08,-1.8496742e-08,1.01923945e-08,3.3924703e-09,-3.8498985e-08,1.9774933e-07,7.119439e-08,-1.7062369e-09,-6.805677e-08,-3.190039e-08,2.4850872e-08,4.0186006e-08,4.2346095e-08,-3.7188514e-08,1.4589318e-08,-6.9017204e-08,1.16690664e-07,-3.980348e-08,6.08758e-08,-1.196624e-07,5.6968616e-09,2.1902887e-08,-9.856132e-08,3.6328714e-08,5.7868867e-08,1.0912592e-08,-4.1011727e-08,-6.306022e-08,-0.93281317,0.6005298,-4.0014363e-08,-4.3770342e-08,2.3830234e-08,1.6040494e-07,2.7470811e-08,-0.24209368,-0.9704407,5.9156235e-10,4.8027022e-08,1.5379223e-07,5.6116104e-08,2.2464622e-08,3.0179116e-08,1.12424516e-07,1.1323865e-07,-5.1004417e-08,3.348572e-08,-1.10647605e-07,0.5943898,-1.3031202e-07,-4.9739818e-08,-2.0634879e-08,3.066123e-08,1.8807164e-08,2.6567529e-08,-9.190837e-09,-7.699195e-08,-2.2889637e-09,1.5083227e-08,4.3308347e-08,-1.03490876e-07,-7.936732e-08,-3.639247e-08,-6.6301624e-08,-9.81578e-08,-1.2666661e-08,-1.62075e-07
-7.81894e-08,3.0724504e-08,-8.391839e-08,-1.2901212e-07,-4.0152532e-08,9.6714146e-08,5.2455565e-08,-1.2312455e-08,2.1842968e-08,5.6756672e-08,-8.856961e-09,0.1898072,-1.4031211,2.2338995e-08,3.2424417e-08,6.130592e-08,-1.3190224e-08,-1.5620542e-07,-1.3200727,-0.11307714,-1.7734347e-07,-7.301903e-09,1.3952997e-08,-7.779745e-09,-1.2415605e-07,1.34376545e-08,1.1395251e-07,5.4459943e-09,-2.2227013e-08,2.971194e-08,1.9669332e-07,-1.0410095,-1.4159347e-07,3.9971997e-08,-1.4063968e-07,4.4413113e-09,1.14103e-07,-1.2674307e-08,4.1253173e-08,8.291382e-08,6.610353e-09,-6.410145e-08,-5.1296222e-08,-1.7499556e-08,-6.0933985e-08,-1.29581e-08,2.8053616e-08,-7.4489755e-08,-6.951119e-08,4.1212758e-08,-1.2593819e-09,1.5555301e-08,-5.0589254e-08,7.672491e-08,5.244188e-08,-6.1054806e-08,1.14919985e-08,5.1879e-08,-2.2815518e-08,-1.07516996e-07,1.0498591e-07,-1.1897221,0.85441744,-3.8246405e-08,-3.0973268e-09,2.3468541e-08,-1.1925903e-07,-4.3803905e-08,-0.77122647,-1.1386664,5.7592555e-08,1.16177645e-08,7.317129e-08,4.6005006e-08,9.524671e-08,1.1533174e-09,2.6223196e-08,1.9905624e-08,6.321483e-08,3.311533e-08,-3.4986797e-08,0.9465991,1.734273e-08,2.7831895e-08,-3.598051e-08,7.808281e-08,4.2712387e-08,4.2686047e-08,-3.4072322e-08,3.6241694e-08,1.3275221e-09,-1.07801206e-07,-4.5401897e-08,1.5072331e-08,-1.5092455e-08,1.2310414e-08,-3.282593e-08,-7.734382e-08,2.2133587e-08,5.4224305e-09
2.5841764e-08,-1.207173e-09,1.674396e-08,-1.221401e-08,8.5598995e-09,-2.271635e-08,1.0561706e-08,-5.189741e-08,3.2772365e-09,4.2777884e-08,-1.713726e-08,0.08071285,-0.51113933,1.180153e-07,-9.056471e-09,1.4425643e-07,-1.2257262e-08,6.314277e-08,-0.83905107,-0.12766197,3.843878e-08,-2.91665e-09,-3.7194976e-09,5.1993747e-09,-9.154562e-08,2.6228697e-08,1.8993973e-08,-2.0466082e-08,9.328775e-08,-1.9051944e-08,3.4630816e-08,-0.19163585,2.4191575e-08,-1.3782692e-07,2.7233533e-08,3.1704154e-08,-5.255013e-08,-5.4783698e-09,-4.107546e-08,6.0746984e-08,1.3919264e-07,-1.2443839e-07,-1.9626597e-08,-3.1792887e-08,1.0785242e-07,1.1978157e-07,-2.0921094e-08,-2.7919867e-08,1.420131e-07,-9.996173e-09,-7.7108155e-08,-4.866358e-09,-7.3777684e-08,-2.0985157e-08,-3.2388e-08,-1.242294e-07,5.4723444e-08,-5.5529554e-08,6.455497e-08,1.4152204e-07,4.1460027e-08,-0.53739274,0.81774837,5.5464096e-08,9.936992e-09,-9.3676125e-09,4.5033946e-08,1.722972e-08,-0.24671663,-0.56649023,-3.8796124e-08,2.0433129e-08,-8.542564e-09,-1.0758608e-08,2.1790896e-08,-6.1683494e-09,-1.6232233e-08,2.6425663e-08,-5.7132254e-10,2.9274224e-08,1.1689776e-07,0.849418,-9.968112e-09,-5.7418166e-08,-1.1700074e-08,7.533188e-09,8.246016e-08,-1.525343e-08,-2.4067152e-08,1.1816125e-07,4.959241e-08,3.2029856e-08,-3.4423948e-08,2.4474627e-08,-3.394515e-09,8.496308e-08,-7.8277566e-08,-7.501767e-09,-6.6513614e-08,1.3148305e-07
2.8960782e-08,-1.4770559e-07,3.8134964e-08,4.121719e-08,7.1111316e-08,-3.6217447e-08,-9.530184e-08,-2.0972735e-09,5.2119326e-08,-1.0516448e-08,-8.5422185e-09,-0.3876642,-1.5780252,1.7631565e-07,3.8003865e-08,-3.1174697e-08,7.352783e-08,4.04264e-08,-1.5253049,0.34737468,-8.8092506e-08,2.5215003e-08,5.987469e-08,-8.893887e-08,1.8302192e-08,1.02086396e-07,2.7716467e-08,-1.8347983e-08,-1.3386183e-08,2.7914405e-08,7.618775e-08,-1.1716316,5.9427368e-08,9.8943815e-08,6.254865e-08,-1.1114209e-08,7.850802e-08,2.720953e-08,1.9759387e-08,-3.2894697e-08,5.8680364e-08,-5.6181392e-08,-3.960825e-08,4.7060276e-09,3.3176093e-08,-5.301154e-08,1.2969893e-08,4.129859e-09,1.1982536e-07,-4.63475e-08,-1.9222009e-08,6.759457e-09,-1.4290424e-08,4.4229584e-08,1.5385226e-08,9.5969924e-08,-3.1752688e-08,-4.4739657e-08,5.54488e-09,7.354231e-08,9.191648e-09,-1.3200654,0.16233236,1.1033219e-09,-2.2848733e-08,-3.115525e-08,-4.6750607e-08,-2.1910417e-08,-0.9999128,-1.2992778,-3.3877267e-08,-2.1122466e-08,-2.9776192e-08,7.602037e-08,5.9304064e-09,-3.9372694e-08,-2.7257386e-08,-1.547443e-08,9.730989e-08,-3.1101532e-08,-1.8097369e-07,0.8488081,7.7843865e-08,6.427738e-08,-5.5133448e-08,9.0589474e-08,-3.6341973e-08,-5.302743e-09,-1.279361e-08,-4.5709815e-08,1.01985634e-07,-7.456081e-08,-1.0084517e-07,2.2008102e-09,1.8969975e-07,4.015102e-08,2.0984793e-08,2.0057296e-08,-2.5494966e-08,-9.048466e-08
-2.1868379e-08,8.222308e-08,-3.871957e-08,-7.462868e-09,1.232097e-07,-7.76223e-08,-1.625213e-07,1.632802e-08,-4.380663e-08,-4.608226e-08,-1.0757752e-08,0.054254524,-1.2942239,1.3602776e-08,2.0354022e-08,-1.1700652e-07,-7.3576615e-08,-2.3819112e-08,-1.2695342,0.0035987573,6.449018e-08,1.0566403e-08,-6.4842176e-08,2.52972e-08,-4.0433115e-09,-1.1145653e-07,-1.4164151e-07,-2.8025195e-08,-2.1708821e-09,-6.374355e-08,1.0829867e-07,-0.89826936,-3.1677047e-08,6.624209e-08,-3.714789e-08,-1.0917744e-07,-8.733816e-08,-5.227858e-09,-2.3118037e-08,-6.098026e-08,7.206967e-08,7.225501e-08,4.5786976e-08,1.9954886e-08,4.279336e-08,-1.3238039e-07,2.7092462e-10,1.0799768e-07,9.16788e-08,3.205335e-08,1.0064831e-07,1.307642e-08,1.1637798e-08,-7.3281816e-09,-4.900673e-08,-1.9932885e-07,-5.2711894e-08,5.3309863e-09,9.3403486e-08,-1.3762978e-07,4.7721088e-08,-1.1146781,0.6171747,-1.2453675e-07,1.7770937e-07,4.7328054e-08,5.709423e-08,3.099224e-09,-0.3389357,-1.0963756,-1.6328944e-08,-4.7065683e-08,4.304396e-08,1.5667518e-07,-1.0214698e-07,1.8630205e-07,1.3624148e-07,3.4228629e-09,1.1585023e-07,-4.0298165e-09,-8.45114e-08,0.7077613,4.511728e-09,8.163347e-09,-6.815268e-08,-4.821073e-08,-1.213445e-08,3.1516755e-08,-2.2102945e-08,2.0917941e-08,5.5950352e-08,7.6508e-08,-5.8263517e-08,5.3157443e-09,1.2681183e-07,3.748936e-08,-7.6151636e-08,-7.832936e-08,7.0092334e-08,-2.9416421e-08
4.532035e-08,6.436018e-08,1.1659108e-07,-4.4658627e-08,6.3252536e-08,1.2740989e-08,4.3017394e-08,-2.1379275e-08,-1.2720456e-09,3.603346e-09,-4.279622e-08,0.064131625,-1.3759972,-4.032194e-08,-8.4552006e-08,7.102914e-08,8.833921e-08,2.3275177e-09,-1.3332757,-0.021988705,1.8196233e-07,-9.7127554e-08,-4.6951698e-08,-5.6104845e-08,-1.7251183e-07,-1.8733122e-09,2.2115408e-08,2.0272424e-08,3.2376985e-08,2.7385536e-08,1.7181296e-07,-1.0181136,-3.6084543e-08,1.05946725e-07,3.576497e-08,1.4605089e-08,1.1946923e-07,7.3075825e-08,5.7208593e-10,-1.4162983e-07,-3.5438806e-08,-6.871295e-08,2.1620751e-08,-2.284088e-09,-6.007073e-08,-5.8893857e-08,3.2545934e-08,6.9240578e-09,-3.0101347e-08,-6.9005324e-08,-2.8471192e-08,3.6576868e-08,1.7715797e-07,-1.9373606e-07,-1.5366649e-07,-4.2735802e-08,2.7056949e-08,1.6014976e-08,-1.5950754e-08,-7.43138e-08,1.6925473e-08,-1.1692718,0.6425066,3.8965226e-08,-3.9125815e-08,-4.023816e-08,-1.0980947e-08,-3.486963e-08,-0.932638,-1.1548572,-6.76877e-08,1.36092595e-08,-3.0210302e-08,-4.6889177e-08,-2.981243e-08,1.1012913e-07,1.6295402e-08,-1.107793e-09,6.039766e-08,7.805399e-08,-1.1186973e-08,0.7564354,-8.313296e-08,-9.655405e-08,-6.7941485e-08,-2.4096273e-08,-9.190973e-09,3.6748e-08,3.3569478e-08,1.5254898e-08,7.236989e-08,2.6203615e-08,-2.4299654e-08,-7.239904e-08,3.2472673e-08,6.7388655e-09,-1.182254e-07,8.91617e-08,-2.484481e-08,3.7379344e-09
-7.536318e-10,6.5690074e-08,-9.13197e-09,3.3363634e-08,1.2969252e-09,8.268216e-09,7.9838905e-08,1.2762172e-08,2.8791629e-08,-1.6909462e-08,-1.9764077e-08,-0.065658405,-1.1882204,-3.775316e-09,-1.518855e-08,1.1048886e-09,-2.7959967e-08,2.8629211e-08,-1.1679771,0.018908616,2.638645e-09,6.5060455e-08,4.66832e-08,-1.2905433e-07,-4.6068816e-08,-3.7583327e-08,9.866885e-08,-1.5951197e-07,-2.651996e-08,1.7763486e-07,5.006136e-09,-0.71497697,5.163609e-08,-1.5043142e-08,5.251391e-08,5.5989354e-08,1.9912855e-08,6.213443e-08,-2.7084841e-08,-1.8540952e-08,4.173107e-08,-2.601282e-08,-3.875745e-08,5.960474e-08,-5.7487973e-08,-3.2614075e-08,3.9140676e-08,-1.5256994e-08,5.31778e-09,1.00331235e-07,3.3218e-08,-2.5187749e-08,-3.0239363e-08,7.3021795e-08,1.3209923e-07,-3.448927e-08,5.1967316e-08,2.4052166e-08,6.411298e-09,8.662616e-08,1.6352914e-07,-0.91352016,0.86622703,7.90577e-08,1.08104686e-07,3.590704e-08,1.5440943e-08,3.684151e-08,-0.88131255,-0.9245705,1.7227622e-08,1.4284078e-08,4.8698423e-10,3.785649e-08,3.1551412e-08,5.0648133e-08,-3.19888e-08,8.068671e-08,1.3613716e-08,-1.8509178e-08,6.853635e-08,0.9621092,8.771787e-09,-2.218216e-08,1.646528e-08,1.0110366e-08,6.8357494e-08,1.7281971e-08,4.590035e-10,-3.1651606e-08,1.871875e-09,-1.3209144e-08,8.705854e-09,6.506604e-08,-4.4932396e-08,-4.8958313e-09,-2.6507234e-08,-5.2241198e-08,1.41212855e-08,-2.324395e-09
4.222289e-08,1.561629e-08,-4.270792e-08,-3.9917666e-08,1.0287315e-07,1.9999053e-08,-4.5418496e-09,-5.2156512e-08,-7.093838e-08,-1.3695107e-08,-8.913389e-08,0.2761067,-0.826154,-1.1981632e-08,-2.1453559e-08,-6.269241e-08,-1.6686524e-08,4.75629e-08,-1.0319949,-0.2597057,-1.809764e-08,3.9197197e-08,8.454207e-08,3.0115046e-08,-5.981965e-08,-1.762832e-08,6.054949e-08,3.8041122e-08,-3.043496e-08,-5.79167e-08,-4.3834728e-08,-0.34967726,3.0375688e-08,-3.4500527e-09,-8.301346e-08,2.247235e-08,-3.581194e-08,-7.1433206e-08,-1.616944e-07,-1.4877024e-08,-5.24443e-08,-8.559185e-08,-6.888225e-09,2.7096391e-08,-9.269101e-10,1.8947132e-07,-1.5147666e-08,-1.11905365e-08,8.225792e-08,-6.6259474e-08,-5.2482925e-08,-1.0263747e-08,3.685914e-08,-6.563698e-08,1.0453593e-07,-6.748053e-08,-6.8524486e-08,4.9874274e-08,-4.4699235e-08,-3.735514e-08,5.2124005e-08,-0.65057874,1.1279167,-5.488511e-09,2.8875053e-08,3.0196453e-08,-5.964661e-08,9.528963e-09,-0.674374,-0.7056559,6.459002e-09,2.3698856e-08,-4.4296243e-08,2.3973948e-08,5.4085007e-08,2.247273e-08,-2.000056e-08,-3.212042e-08,7.5955796e-08,1.04830775e-07,7.717896e-08,0.9901905,-1.201122e-08,1.1944663e-07,7.577003e-08,6.483643e-08,1.9160705e-08,-4.7035645e-08,-7.736773e-08,-2.7779413e-08,4.5470934e-09,1.4636099e-08,7.404962e-08,-1.772575e-09,-8.959359e-09,1.0791162e-08,-3.100011e-09,-5.8035948e-08,-1.6269006e-08,-6.550215e-08
4.5623914e-09,1.42769e-09,5.3975516e-08,-8.697006e-08,-6.114215e-08,8.0961506e-08,-6.3105354e-08,-3.315487e-08,4.67953e-08,-2.2592339e-08,5.190889e-08,0.7287419,-1.7827313,2.6508157e-08,-2.9378405e-08,6.129455e-08,4.186937e-09,-9.28742e-08,-1.6890802,-0.540282,-6.116221e-08,7.238966e-08,-1.1119284e-07,1.5346112e-07,1.573185e-07,1.3659527e-08,2.8311948e-08,-8.65361e-08,-3.4417486e-08,-9.9186845e-09,-1.5501323e-08,-1.3380952,4.6973323e-09,-5.4136606e-09,7.12523e-08,-9.914868e-08,-1.9296778e-08,1.6057001e-08,-1.4786617e-07,3.6920927e-08,-4.1235328e-08,-1.1053061e-08,-3.2389007e-08,-7.14539e-08,3.292023e-08,-4.9391033e-08,1.725049e-08,7.2663653e-10,-9.060207e-08,-3.826767e-08,-8.521057e-08,6.386385e-08,-4.052493e-08,4.628834e-09,4.8278864e-08,9.861959e-09,-5.766241e-08,1.8879257e-07,7.532282e-09,-1.2927349e-07,1.7633336e-07,-1.5368222,1.0284057,1.4694199e-07,-3.2484387e-08,-4.3209774e-08,-1.97184e-08,8.3990415e-10,-0.78943366,-1.4931636,4.5004995e-08,4.408211e-08,-1.5247373e-08,-5.8378305e-08,5.3208655e-08,7.4879665e-08,-5.055563e-08,-1.912218e-08,-1.0538628e-07,8.2210384e-08,1.49106e-08,1.0044806,-1.2659909e-07,9.760747e-09,7.8735575e-08,9.356235e-08,2.1465997e-08,8.4367166e-08,-6.9723505e-08,7.905388e-09,-1.7124892e-08,2.4273987e-09,3.983962e-08,3.005492e-08,7.483678e-08,-1.0238752e-07,-2.5017064e-08,6.0056465e-08,4.031531e-08,-1.9317962e-08
3.2453034e-08,6.792536e-08,1.3024558e-07,-2.4636048e-08,-4.7105562e-08,5.4245465e-08,-5.048029e-08,-4.2417597e-08,-5.60667e-08,-6.389788e-08,4.8938617e-08,0.71235526,-1.4222434,1.2353416e-07,2.3151989e-08,1.2195464e-08,-2.6083793e-08,1.1717121e-07,-1.4342221,-0.45226297,-5.0675723e-08,2.5254725e-08,-3.3362436e-08,-1.1938914e-07,-6.42121e-10,1.2829028e-07,-4.402859e-08,-1.734937e-08,-5.3495043e-08,-7.918007e-08,-2.3654998e-09,-1.1387671,3.171352e-08,-6.5618785e-08,6.11063e-08,1.5082385e-07,4.464641e-08,-3.8206267e-08,-5.932666e-08,-2.2216314e-08,9.413952e-08,-2.7072328e-08,-6.880243e-08,8.349447e-08,1.9366205e-07,5.319596e-08,-1.01801255e-07,-1.8279498e-07,-7.666175e-08,-3.972911e-09,1.3343796e-07,1.2135776e-07,-3.1965104e-08,6.014475e-08,6.1131516e-08,3.729772e-10,4.511162e-08,-1.4071979e-08,1.1160155e-07,9.886254e-08,-5.892184e-09,-1.2786165,0.9062577,-6.579236e-08,-7.939089e-08,7.1235256e-08,-2.6329975e-08,2.2855208e-08,-0.35480374,-1.2580795,3.046935e-08,-5.51692e-08,6.4611065e-08,4.4057476e-08,3.4861888e-08,3.056923e-08,-6.953078e-08,4.5325727e-08,-2.5467735e-09,-5.603372e-09,1.08884045e-07,0.7520817,-1.25454e-07,-1.5654217e-08,-5.83298e-08,1.3624005e-08,-9.646285e-08,-6.162328e-08,-7.404381e-09,-9.263343e-08,-4.2284775e-08,-2.4738103e-08,-7.540314e-08,2.8173474e-08,-6.8455215e-09,-4.0159744e-08,4.521327e-08,-7.123636e-08,4.0924206e-09,1.2503764e-07
-2.675349e-08,-5.0905868e-08,-9.8362946e-08,-1.2164755e-07,-7.822065e-08,1.2204347e-07,1.11773275e-07,7.510577e-08,-9.4490765e-08,3.732931e-08,2.3565967e-09,0.7213323,-1.4825062,-3.945507e-08,-2.9814007e-08,1.18322625e-07,-6.737574e-08,-2.8050719e-08,-1.5127177,-0.48632014,-6.05304e-08,-1.7697186e-08,1.0908161e-07,6.2554726e-08,-9.893257e-08,-6.421031e-08,-4.1152678e-08,1.03117046e-07,2.5381262e-09,-1.3652583e-08,-5.343786e-08,-1.1563172,1.945972e-08,2.4262794e-08,-4.8249667e-08,1.2372114e-07,1.8454404e-07,3.3895137e-08,5.7302515e-08,-2.6667582e-08,3.9484327e-10,-4.4813632e-08,-2.394079e-08,-3.8798092e-08,1.6492004e-07,-8.793316e-09,3.0315547e-08,-4.8715734e-09,3.6482035e-08,-1.7162336e-08,1.1307698e-07,-1.8364172e-08,7.528653e-08,-6.784874e-09,5.333188e-08,4.323168e-08,1.1568717e-07,-5.3455796e-08,5.520895e-08,-6.63791e-08,3.5029196e-08,-1.3246127,0.9295741,-1.11312026e-07,-9.991268e-09,-5.7662355e-09,5.1643422e-08,2.8915213e-08,-0.18774217,-1.2963623,-4.9411497e-09,1.41435414e-08,-8.088374e-08,-4.3584528e-08,5.0640065e-08,-9.9775775e-08,3.1445456e-08,-3.1918546e-08,-1.3389327e-08,-2.5814122e-08,5.0847387e-08,0.73036337,4.608934e-08,-2.3846418e-08,-8.861772e-09,1.9310542e-08,-3.4446973e-08,-8.7359815e-08,-1.03444506e-07,-1.1414933e-08,-3.5014867e-08,-8.005517e-08,-6.53761e-08,4.9064994e-08,-3.835914e-08,6.060914e-08,-7.8297276e-08,6.1335484e-08,2.7604237e-08,-5.5772695e-08
-1.7251551e-09,8.648107e-09,-8.753068e-08,2.6926127e-08,-4.8114682e-08,6.7168635e-09,1.4483025e-08,-3.776831e-08,-4.5866656e-08,-1.4337546e-08,8.774869e-08,0.6281372,-1.332118,-3.3487478e-08,4.7081073e-08,-5.2115762e-08,-2.6647768e-08,-2.2527118e-09,-1.2433956,-0.41059306,-1.435847e-09,5.2310085e-09,-5.6052247e-08,1.1078502e-07,-1.875225e-08,-9.613888e-08,3.9028613e-08,1.2910242e-08,-6.4163395e-08,-1.9112356e-08,-7.476285e-08,-0.93524575,1.7787354e-08,-5.4205366e-08,8.34476e-08,1.43276555e-08,-4.2565485e-08,-5.4298415e-08,3.8192994e-08,9.847662e-08,-3.856677e-08,1.0652537e-08,-9.5770446e-08,-5.5232597e-08,-4.310352e-08,-1.4771092e-07,-1.2593142e-07,4.321337e-08,-3.9576637e-08,-1.9210017e-08,-2.7331268e-08,1.2530812e-07,1.2504577e-07,3.618672e-08,8.157445e-08,8.098109e-10,-6.625742e-08,1.4631924e-07,-1.8400192e-07,-6.1361256e-08,-1.7291288e-09,-1.0830173,0.832732,5.295284e-08,3.5098118e-08,-8.853962e-08,2.1515964e-08,1.5142637e-08,-0.35497347,-1.006882,-1.00709144e-07,9.814417e-08,7.760608e-08,-6.353308e-08,1.5065975e-09,-1.4579933e-07,-5.0041464e-08,4.5105626e-08,3.183738e-08,-2.8505816e-08,-3.9347952e-08,0.6033675,4.287116e-08,-3.407001e-08,5.0655153e-08,-4.226564e-08,-2.0575447e-08,6.862027e-08,1.081211e-07,-2.3608294e-08,-8.7800466e-08,-2.9677663e-08,8.780757e-09,-2.0268807e-08,1.7379314e-08,-1.0237786e-08,3.5263685e-09,-5.0502102e-08,-6.840129e-08,2.3636842e-08
-1.17785554e-07,2.8646841e-08,1.3812937e-08,-3.6154386e-09,3.893167e-08,-1.9980972e-08,6.862102e-09,-1.8358045e-07,3.352279e-08,-1.2624453e-07,1.4735929e-07,0.52451277,-1.5186808,1.9273637e-08,8.2467366e-08,-8.547985e-08,-3.0877462e-08,-1.794987e-08,-1.5691459,-0.29982957,-8.713761e-08,3.1614604e-08,1.1799253e-08,-4.340992e-08,1.5045927e-07,1.12472826e-07,-7.2328943e-09,-5.6071663e-08,-1.0041289e-08,-2.2487598e-08,3.644511e-08,-1.1018206,-1.6388631e-07,1.2570725e-07,3.4799488e-08,5.454281e-08,-4.2302375e-08,-7.040321e-09,4.0811408e-08,2.1039783e-08,-5.0282544e-08,1.2778088e-08,-5.684179e-08,-4.8481066e-08,4.2910617e-08,-9.676586e-09,1.4036864e-07,-1.4350296e-07,-3.0380672e-08,-7.569346e-08,2.023793e-08,-5.219055e-08,8.8766186e-08,-1.11491065e-08,-5.2632593e-08,1.4282253e-07,-7.214538e-08,-5.0522083e-08,7.049653e-09,-2.8607495e-08,-1.2051643e-07,-1.3135546,0.66510016,1.971818e-08,-8.381045e-08,-6.498623e-08,1.9327349e-08,-2.4035705e-08,-0.40501294,-1.2804387,-2.044117e-08,2.4097865e-08,-5.925056e-08,2.2456144e-08,6.2521543e-09,8.728218e-09,1.1863211e-08,-3.9249827e-08,4.9194924e-09,-3.897226e-09,-8.7905704e-08,0.5951488,-8.916048e-09,9.9215185e-08,7.415058e-08,-4.495253e-08,-2.2267415e-09,-1.1399749e-08,2.2162604e-08,-1.0554357e-08,4.0159982e-08,-9.8908586e-08,-5.048478e-08,-3.3384975e-08,2.4484994e-08,-2.648691e-08,9.524588e-08,1.2985883e-07,-7.10442e-08,4.4199453e-09
7.507339e-08,2.237568e-08,7.865671e-08,7.829275e-10,-2.796094e-09,-4.5377153e-08,1.2321854e-07,5.4012162e-08,-3.7379806e-08,-7.31088e-09,1.3436694e-07,0.37044814,-1.8444647,3.2519154e-08,-4.945153e-08,8.675059e-09,3.253482e-08,4.4438757e-08,-1.8034031,-0.10955515,8.738949e-08,8.819287e-08,-3.654153e-08,-2.5812685e-08,1.16514975e-08,2.8792751e-08,-5.268887e-08,9.444761e-09,-1.0900511e-08,-3.6741152e-09,1.07820846e-07,-1.4906132,-3.8864236e-08,1.2188305e-07,-4.809661e-08,-2.8528637e-08,1.6938422e-08,-1.645008e-08,5.7215466e-08,1.5679703e-07,-4.542157e-09,5.825126e-08,-6.20861e-08,3.0015485e-08,3.4875178e-09,8.9181835e-09,3.4343422e-08,-1.08899634e-07,-8.369865e-08,-1.5798989e-09,8.436264e-08,-8.011636e-08,-1.12231895e-08,2.3066278e-08,-2.3196401e-08,-1.0395051e-07,-1.0313714e-08,-3.1613204e-08,2.7311671e-08,1.1174699e-07,5.702895e-10,-1.6722633,1.0567186,-1.1324928e-07,1.1373416e-08,6.574983e-08,1.4117468e-08,-1.2229162e-07,-0.9026894,-1.655718,3.3733105e-08,-7.1914066e-08,-2.6160217e-08,-2.8284548e-08,1.712798e-07,-1.5130857e-08,1.0149991e-08,9.781221e-09,6.3803682e-09,8.56267e-08,-1.3662033e-07,1.3485215,1.6901561e-08,-8.229355e-10,1.1002848e-07,-1.07895755e-08,-1.7250768e-07,3.195219e-08,-5.467206e-08,6.371699e-08,-8.956407e-09,-8.5445256e-10,9.0477975e-08,1.4977957e-08,-5.8350974e-08,9.011988e-09,8.912832e-08,2.1842892e-09,1.06063354e-07,1.780041e-08
-1.01704735e-07,2.7783823e-08,5.053188e-08,9.2328506e-08,-8.838285e-08,1.6530407e-07,-2.0777438e-08,-4.2565198e-08,-1.1836498e-08,3.9237328e-08,1.3668424e-07,0.39787602,-0.34033248,-6.492155e-08,-1.228565e-07,-1.0245071e-08,-8.655895e-10,2.7958743e-08,-0.78495854,-0.29394895,-5.6498372e-08,2.4518528e-08,4.5312177e-08,-2.5353867e-08,-2.7684983e-09,1.2673136e-07,2.231836e-08,-2.4336657e-08,-8.048543e-08,-2.849129e-08,-4.433166e-08,-0.020477256,2.2639309e-08,-2.450649e-08,7.58838e-08,4.312924e-08,1.8484162e-08,3.9646075e-08,-1.39289265e-08,1.9883828e-09,8.670667e-08,-5.6368e-08,-1.7393427e-07,2.8462896e-08,6.6566326e-09,5.089624e-08,1.503818e-07,-3.722173e-08,1.2443608e-08,3.10677e-08,-4.0859675e-08,7.775907e-08,-4.9879096e-09,-3.8599868e-08,9.160013e-08,5.972321e-08,-3.7795942e-08,6.838016e-08,-3.213575e-08,-1.2079646e-07,-6.542264e-08,-0.45231536,1.1113737,-5.510437e-08,-2.0792669e-08,-1.6938046e-07,1.00537775e-07,2.3845494e-09,-0.2550022,-0.4951199,-4.7584336e-10,1.6430493e-08,1.2762347e-07,2.1039816e-07,2.855489e-08,-2.9074137e-08,1.6939056e-08,2.9509197e-08,-2.3831284e-08,-7.4093215e-08,-6.413739e-09,1.0357652,7.432822e-08,4.9182745e-08,-2.8952343e-08,-1.3618092e-07,9.952082e-09,-1.6180726e-08,-2.767608e-08,-9.69652e-08,8.485021e-09,-5.500859e-08,-5.9864504e-08,-5.6186487e-09,-1.6807046e-08,1.0166879e-07,-5.4814286e-09,-3.637289e-08,3.4733354e-08,6.2947e-09
-1.9160343e-08,1.8324503e-08,-3.809074e-08,1.1738679e-07,-3.047465e-08,-8.085975e-08,3.9818676e-08,-6.531508e-08,-7.1260416e-08,-1.4383296e-08,5.1775938e-08,-0.25587204,-1.7384484,-9.884978e-09,-7.352162e-08,-3.4685158e-08,7.294207e-08,5.181694e-08,-1.5930519,0.4243706,-3.481012e-08,6.4795174e-08,-4.222398e-08,-6.0776586e-08,6.4633223e-09,-3.7830127e-08,-3.3937493e-08,1.8512084e-07,1.0375658e-07,3.9510862e-08,1.5576356e-07,-1.3219097,3.321229e-08,-1.109033e-07,1.47218095e-08,3.839522e-08,-2.340823e-08,2.1043375e-08,4.98109e-08,-5.4735946e-08,1.7810535e-08,6.0255815e-08,-1.7846716e-08,-8.784498e-08,2.1285173e-08,5.2169625e-08,-2.4612175e-08,-1.0312431e-07,3.33358e-08,1.2500849e-08,5.8218426e-08,-1.8637975e-08,-7.560981e-09,1.2072428e-08,-1.8408687e-07,-3.690796e-08,-1.5998122e-08,-4.281962e-08,-7.785546e-08,2.4654678e-08,-1.8402691e-08,-1.4931712,0.64580667,-3.0537223e-08,-6.0273734e-08,9.417114e-09,-6.6357174e-08,2.9226914e-09,-1.3488362,-1.488723,-4.3951722e-08,-6.318217e-10,8.564295e-08,5.4837436e-08,-4.1166004e-08,-1.2807108e-08,1.8384245e-08,-5.9359536e-08,-6.5492245e-08,-1.7329196e-08,3.778026e-08,1.2554014,5.080814e-08,1.5464204e-07,-6.975478e-08,2.1913104e-08,7.361367e-08,4.129734e-08,-1.1408428e-08,5.847234e-09,-2.9083843e-08,-8.05605e-08,-3.4860772e-08,1.16349256e-07,8.6950294e-08,4.977827e-08,1.882921e-08,1.2712174e-07,-1.01349215e-07,-3.9729997e-11
-3.2387284e-09,-4.2706176e-08,3.363445e-08,4.587155e-08,1.3628288e-07,-1.5550696e-09,-1.6069683e-07,2.8330222e-08,3.6995527e-09,4.0444256e-08,-6.1795666e-09,0.21738246,-1.1494251,1.2782324e-07,5.256178e-08,-1.1306817e-08,3.524476e-08,-1.4094368e-07,-1.1328084,-0.06479682,-6.857087e-08,-5.7828927e-08,9.245417e-08,3.9300346e-08,5.034521e-08,-4.403916e-08,-1.7998467e-08,-8.857786e-08,-3.2607378e-08,-1.8508182e-08,5.847436e-08,-0.74861777,1.0175576e-07,-1.9847558e-08,6.2685857e-10,-1.15651424e-07,-5.836291e-08,2.3837439e-08,1.1012608e-08,-4.671184e-08,1.6525482e-07,1.6760859e-07,9.740068e-08,9.6460745e-08,2.066308e-09,-6.104979e-08,8.5350926e-08,1.3433912e-07,-2.3709923e-09,-5.563963e-08,-2.0425432e-08,3.1653986e-08,5.7606776e-08,-1.0658569e-08,1.0342921e-07,1.2941732e-07,-2.812353e-09,-9.60958e-08,6.53405e-08,-5.3329476e-08,-1.0653938e-08,-0.9702962,0.60900134,-6.9014646e-08,7.751241e-09,1.6145036e-08,-2.999264e-08,5.6284886e-08,-0.5614317,-0.9372373,3.896927e-08,-1.9057774e-07,2.0001526e-08,-1.198033e-07,1.3853882e-08,-1.7926578e-08,4.1151814e-08,1.1716317e-07,-8.743193e-08,-2.1955145e-08,-3.0595388e-08,0.67313826,-4.909566e-09,5.5581772e-08,4.0708347e-08,4.8510707e-10,-2.5845715e-08,-2.9555359e-08,8.9223974e-08,1.2990128e-08,-1.5484794e-07,-4.6239805e-08,8.276625e-08,-8.106034e-08,-8.1947924e-08,-3.6402056e-08,-6.484561e-08,-7.3536256e-08,-4.9556153e-08,7.278333e-08
1.6994593e-07,4.3955506e-08,4.593403e-09,-9.931083e-08,-6.501866e-08,1.5995248e-08,7.491958e-08,-9.803951e-08,1.3028676e-07,8.287111e-08,9.599081e-08,0.38999876,-1.228724,-9.362248e-08,1.18992986e-07,-4.663818e-08,5.5402154e-09,1.2903155e-07,-1.257206,-0.2671912,4.1810736e-08,-3.5075978e-08,-1.5126567e-08,-1.14492245e-07,-1.9088384e-08,-3.6913235e-08,-2.2538778e-08,7.80061e-08,8.095137e-08,9.2817196e-08,-6.627681e-08,-0.87460685,7.1283157e-09,1.5335735e-07,-1.4954203e-08,4.9377835e-11,3.5306225e-08,-3.585926e-08,-1.3608403e-07,1.655796e-08,-5.758647e-08,-2.7409651e-08,8.572817e-09,-1.3112995e-07,-8.7005816e-08,-2.0001986e-08,3.8685382e-08,-4.6176545e-08,4.2978968e-08,1.2350827e-07,-1.5705883e-08,2.1647143e-08,-3.89037e-08,-4.4158387e-08,-9.621087e-08,-3.5470716e-08,1.2155459e-07,1.7632313e-08,9.352675e-08,-1.720688e-08,1.1763733e-07,-1.0872838,0.765565,1.00577026e-07,1.7787319e-07,2.0459393e-07,-3.63106e-10,-3.0990144e-08,-0.17599303,-1.0699157,6.765468e-08,-4.49884e-08,7.906257e-08,1.7256947e-07,-2.7299032e-08,-4.0153456e-08,-1.2466982e-07,2.1030163e-08,5.4451938e-08,-1.7313839e-10,-7.355833e-09,0.7004255,-3.4311782e-08,1.3143001e-07,6.8103425e-08,-5.640851e-08,-1.057687e-08,1.5411654e-08,-6.9629856e-08,-8.6685496e-08,1.5621456e-08,-1.2989286e-08,8.932537e-09,9.856039e-08,1.6860496e-07,1.6493725e-08,-8.640059e-08,-7.317022e-08,-1.3070113e-08,6.8935066e-08
3.159999e-08,-8.3028134e-08,1.3118718e-07,-1.5361781e-08,-6.138684e-08,-4.480794e-08,-1.0567547e-10,-1.3725995e-07,-1.1874846e-08,5.374085e-08,-1.2466149e-08,0.43530405,-1.5667977,5.094663e-08,-4.045575e-08,-1.7260172e-08,6.219777e-08,3.792463e-08,-1.5465182,-0.250057,1.1221355e-08,-7.407361e-08,-4.3670298e-08,2.8296624e-08,-7.6062506e-08,-1.4111892e-07,-6.5841114e-08,-2.8639173e-08,-6.711123e-08,-2.5869188e-08,8.633912e-08,-1.1171012,-2.0842847e-08,4.4093348e-08,3.164726e-08,1.8607853e-08,2.6018807e-08,-2.403374e-08,3.780546e-08,-2.4239917e-09,-8.833546e-08,4.8842843e-08,1.1155179e-09,1.1948654e-08,-1.17183445e-08,-7.0696125e-08,1.6443764e-08,-6.152108e-09,-2.0500806e-08,1.2437117e-07,-2.8710824e-08,-4.438573e-08,7.5013716e-08,-6.209163e-08,-4.9258887e-08,9.7565795e-09,5.7465535e-08,1.02169444e-07,-5.7010237e-09,4.1910305e-08,-1.1100269e-08,-1.2950892,0.88021606,9.199118e-09,1.4039404e-07,-1.3796431e-09,7.340618e-08,-6.495391e-10,-0.72969717,-1.2924062,7.042216e-08,2.4741514e-08,2.7212335e-08,-1.6894793e-08,-5.2557148e-08,3.8207908e-08,2.3395721e-08,-8.351298e-09,-1.0405824e-08,-2.9317277e-08,-1.0848161e-07,0.7445031,-7.075359e-08,5.9042346e-08,2.8965443e-08,2.2823581e-08,1.1465918e-08,1.6493765e-07,1.6800357e-09,3.5629505e-08,6.5725885e-08,7.492567e-08,3.4020527e-08,4.5996522e-08,-1.2714807e-08,6.7931175e-08,1.1108137e-08,-7.3080486e-08,-3.633775e-08,1.9001662e-08
1.015766e-07,-1.8740987e-07,-6.2437756e-08,-4.192369e-08,-6.3303766e-08,-9.309539e-09,1.2075368e-07,-2.2754504e-08,4.5389754e-08,-1.5730949e-07,-1.6332429e-08,0.07628958,-1.1550035,-1.8542569e-07,-1.0960275e-07,-2.3058742e-08,-1.8729764e-08,-3.8425238e-08,-1.154719,0.018759053,1.5396688e-08,5.6070224e-08,3.2588538e-08,4.0818083e-08,-4.966622e-08,4.853e-08,-6.5294046e-09,1.9595745e-08,-8.619351e-09,1.7864501e-08,1.1859845e-07,-0.77430683,6.105828e-08,3.582223e-08,-4.0114614e-08,8.213732e-09,1.3866533e-07,4.6556554e-08,5.9409697e-08,5.9514917e-08,-5.63314e-08,3.1649108e-08,-1.02009565e-08,-1.7241213e-09,2.1331001e-08,-3.8438383e-08,1.0348607e-07,-2.8792577e-08,7.0486e-08,-1.7500192e-08,-3.6790993e-08,-3.8829064e-08,-3.5701504e-08,-7.195243e-08,3.528814e-08,-2.6919626e-08,-5.0998814e-09,-4.933398e-08,1.0386013e-07,-3.8941252e-08,-9.14037e-08,-0.8874101,0.42733645,1.4331577e-07,-1.5262327e-08,-1.6096566e-07,3.1570057e-08,4.0843915e-09,-0.40216213,-0.8074218,-2.6306076e-08,4.2120256e-08,1.5605469e-08,1.6026885e-08,4.2329603e-08,9.633492e-08,5.893888e-08,-1.7705418e-07,-1.17125765e-07,-2.9283758e-09,1.0745043e-07,0.5531387,5.74189e-08,1.7096899e-07,-1.0768572e-08,-1.7077598e-08,5.020466e-08,-1.1025845e-07,-3.805527e-08,-1.2050367e-07,4.2436806e-08,-8.054348e-08,1.4481849e-08,-9.968481e-08,9.352375e-09,3.5134867e-08,-4.0856374e-08,3.181505e-08,-3.3881285e-08,1.356403e-07
5.6041543e-08,6.761647e-08,-1.8209508e-07,1.3239995e-07,-8.783711e-08,1.4697896e-08,-1.8675472e-08,-1.7070523e-09,-7.490097e-09,-1.1878081e-09,-8.788015e-08,-0.02191142,-1.5486579,4.707939e-09,1.2196287e-07,2.0603995e-08,5.8941403e-08,-7.241724e-08,-1.4420973,0.113520764,2.4123025e-08,-4.280704e-09,1.9463409e-09,-1.5476758e-09,9.5777395e-08,4.9935803e-08,-2.155862e-08,-9.9084126e-08,-1.9946398e-08,6.419449e-08,-1.8822359e-08,-1.1554219,1.0701224e-07,3.2317956e-08,3.246486e-08,-1.07939485e-07,-1.2095708e-07,-4.1150354e-09,-8.7854986e-08,5.0149627e-08,-6.3992154e-09,-2.9064381e-08,-1.1310081e-07,1.8033482e-08,1.6088126e-08,1.1342337e-08,-4.1669402e-08,-1.4390189e-07,-7.904134e-08,4.094394e-08,8.958358e-09,4.533244e-08,-5.06333e-08,3.4466296e-10,-6.3130443e-09,4.185825e-10,-4.7958256e-08,-8.56453e-09,-3.2018182e-08,3.287571e-08,3.440847e-08,-1.2942448,0.8403009,6.506038e-08,-6.873e-08,-6.400749e-08,-1.1269037e-07,-6.16406e-08,-1.1748874,-1.2697258,-9.2430085e-08,5.3738614e-09,3.91445e-08,-1.5417122e-08,9.93251e-09,-1.4457675e-07,-2.9467758e-08,3.9892107e-09,-5.4499992e-08,1.07743986e-07,-1.7290286e-07,1.1614808,-2.1639632e-08,6.7467454e-08,7.915373e-09,8.241847e-08,-1.3005527e-07,1.0760958e-08,1.7806293e-07,-4.78542e-08,4.4339636e-08,-1.2772908e-08,-2.5501636e-09,1.5737672e-07,-7.952573e-08,8.652593e-08,4.4178897e-08,-8.3494726e-08,-1.2513595e-08,1.6523824e-08
-7.618863e-08,-3.7209922e-08,-1.3007657e-07,-1.2487483e-08,2.7771822e-08,4.291918e-09,-5.2577512e-08,-3.7858758e-08,2.0888276e-08,-9.634799e-08,2.5252348e-08,0.033546843,-0.47705373,-5.123095e-08,-1.4448769e-07,3.8302904e-08,4.7524527e-08,-9.965339e-09,-0.84008,-0.06508373,-4.039255e-08,5.9733374e-08,-4.1004114e-08,-9.786209e-09,-4.648627e-08,5.665809e-09,3.7321115e-09,1.4227682e-07,-6.4109855e-08,-6.352248e-08,1.8974434e-08,-0.13359801,1.2652585e-08,8.913013e-09,1.6252517e-07,-1.5985742e-07,5.4843994e-08,-1.0151028e-07,-9.228968e-08,1.6684218e-09,4.6787566e-08,2.3599924e-08,1.1358468e-07,-3.8435903e-08,5.5302685e-08,-3.23396e-08,9.874446e-09,1.3310148e-07,1.1740431e-08,-4.9652108e-08,-7.4575745e-08,2.7788683e-08,-9.266357e-09,4.344546e-08,-3.8057323e-08,3.2114247e-08,3.1097883e-08,2.133936e-08,-5.6454112e-08,-1.6097465e-07,-7.741274e-09,-0.54217446,0.99179107,7.865479e-08,1.303455e-07,-5.349335e-09,1.01904206e-07,-1.092008e-07,-0.40004838,-0.6250084,-5.944647e-08,2.9040574e-08,5.1213927e-08,1.2293611e-07,9.6022646e-08,-1.6198241e-08,1.7667082e-08,2.7260139e-08,-8.165001e-09,3.1526376e-08,-1.6911378e-07,1.0177048,5.036835e-09,8.875691e-09,-5.783063e-08,-4.9129945e-09,2.1233102e-08,7.0947124e-09,-7.442798e-08,2.7570522e-08,-1.4416948e-08,6.204468e-08,1.6447267e-08,1.0580443e-09,-3.3077562e-08,-8.501724e-08,-4.4783622e-08,1.2883987e-08,5.099666e-08,7.203781e-08
-5.5992224e-09,-1.4854278e-08,1.2225676e-08,-2.7847609e-08,2.0917408e-08,1.2820047e-07,7.499598e-08,5.7499346e-08,-3.1681374e-08,8.1615255e-08,-6.17127e-08,0.08421448,-0.8719995,-1.4108755e-08,-1.2940539e-08,-8.707742e-09,2.7409829e-08,2.403708e-08,-1.0364376,-0.0949663,-2.7252927e-08,2.7039999e-08,6.449632e-08,5.880274e-08,6.970745e-08,-6.322761e-08,-3.7646767e-08,-6.10119e-08,-6.020336e-08,-5.1632494e-08,2.174054e-08,-0.50723064,-3.687929e-08,7.634108e-08,-1.439226e-07,1.7257108e-07,-2.4611175e-08,4.9276636e-09,-6.7795305e-08,-1.9649654e-08,-3.889285e-08,-2.052257e-09,-9.055383e-08,2.1150205e-08,8.4612246e-08,1.4216393e-09,5.5630288e-08,-9.257955e-08,8.434326e-08,-8.055059e-09,3.5170594e-08,8.521521e-08,-1.8433532e-08,5.5021808e-08,-2.3974653e-08,2.0773491e-08,-2.8944775e-09,2.959753e-08,3.659029e-08,5.3705534e-08,2.5292394e-08,-0.7310073,0.864691,-1.5200524e-07,2.0056499e-09,-4.6194323e-08,-7.727798e-08,2.1394742e-08,-0.32193542,-0.69037074,-3.2932608e-09,-3.845321e-08,1.5289e-08,2.2735824e-08,-6.2393934e-09,7.5625834e-08,5.9786146e-08,1.7062582e-09,7.501157e-08,2.212375e-08,1.7719053e-08,0.85389525,1.9561003e-08,1.1684295e-07,-2.017101e-07,5.1072423e-08,7.534788e-08,-3.8408093e-08,-1.094093e-08,-7.068638e-08,-9.41662e-08,7.1933414e-08,-1.4777857e-08,3.0195446e-09,4.8608797e-09,1.6026868e-07,5.1225094e-08,5.072487e-08,-7.92992e-09,-1.6409486e-07
1.8963935e-07,-6.982094e-08,-3.9138335e-08,-2.2407907e-08,-4.0223686e-08,2.3962798e-08,1.6893722e-08,3.0271565e-08,1.16005225e-07,1.976776e-09,3.638067e-08,-0.43413758,-1.3929677,-1.0549318e-07,-2.2623459e-09,5.0721955e-08,-1.1231052e-08,8.817231e-09,-1.2730047,0.45306906,1.2109757e-07,-7.999046e-08,2.7051568e-08,-2.5998563e-09,3.7923645e-08,7.4654494e-08,1.4479262e-07,7.637529e-10,2.0782988e-08,-5.3219644e-08,2.0485924e-08,-1.0138383,1.06823116e-07,1.5172543e-07,-2.6298967e-08,-6.0568354e-08,5.144173e-09,-8.834863e-08,-2.2867635e-08,1.4538642e-08,8.928139e-08,1.3678346e-07,6.8066775e-08,1.04059644e-07,1.8441689e-08,-5.3270487e-08,1.5877191e-08,-5.3842683e-08,2.3362443e-08,1.6801802e-07,-3.47059e-09,-1.3084323e-07,1.0445855e-07,2.0916648e-08,1.2192814e-07,-7.916812e-09,-2.9821667e-08,-2.3260398e-09,3.0724433e-08,-6.32388e-09,-2.0098337e-07,-1.0824682,0.35933504,1.3035154e-07,-1.4519102e-07,-6.470347e-08,5.0144607e-08,1.7087146e-08,-0.83348966,-1.0494387,5.6738536e-08,1.0958203e-08,3.557588e-09,4.264791e-09,-2.9262463e-08,1.2121271e-07,2.0245816e-08,-3.7675548e-08,4.781112e-08,3.1194016e-09,4.8629126e-08,0.8848387,-6.0453544e-08,1.1173849e-07,-2.2184373e-08,-5.9016074e-08,1.6008242e-08,-4.7941786e-08,1.4399536e-08,-6.2642442e-09,-1.7827862e-08,-1.0730901e-09,-3.838609e-08,1.6769757e-08,1.9813996e-08,-5.1781658e-08,2.0390789e-07,-8.739468e-09,-3.3584104e-09,1.1388917e-08
-6.912609e-08,1.54713e-07,6.129448e-08,7.638986e-08,1.6928205e-08,4.1558188e-08,-7.510478e-08,-5.979338e-08,3.2678642e-08,4.85036e-09,7.633181e-08,-0.36443517,-1.5749161,-7.369832e-08,5.998247e-08,-7.3620114e-08,-6.745709e-08,-1.4726288e-08,-1.4316471,0.4163071,-7.007096e-08,-9.20816e-09,-3.0668566e-08,2.377021e-08,-2.8417806e-09,-5.4964598e-08,-7.6166316e-08,1.03455925e-07,9.785256e-08,-3.0107454e-09,-9.469046e-08,-1.1374613,-3.5337067e-09,-1.1175496e-07,-3.707126e-08,-1.0059324e-07,6.9052923e-09,-3.6500044e-08,-1.5544101e-07,9.249493e-08,-5.134604e-09,-1.04036335e-08,-2.981142e-08,-1.0483295e-07,-2.3747068e-08,6.132141e-08,-8.5754245e-08,6.3116907e-09,3.9905185e-08,-1.5649324e-07,-1.5885817e-08,7.240647e-08,-7.524495e-09,-5.885539e-08,-6.3680076e-08,-1.2942962e-08,5.810011e-08,-1.2985176e-07,-6.954204e-08,3.5534125e-08,5.941319e-08,-1.2675909,0.38431695,9.362591e-08,1.1229903e-08,6.7722354e-08,-9.05127e-09,5.3953908e-08,-0.8219227,-1.2381567,2.0547897e-07,-2.0699357e-08,-6.239558e-08,2.3519597e-08,-1.10782015e-08,-3.292427e-08,5.109305e-08,-1.0361073e-07,1.520917e-07,-2.1592156e-08,-4.5409593e-08,0.869076,1.8181007e-07,1.0900178e-07,-1.6919202e-08,-6.958963e-08,9.776417e-08,2.1217584e-08,-3.122583e-09,5.225162e-08,7.96678e-08,-5.3477955e-08,-2.8010572e-09,-6.117813e-08,1.02063915e-07,1.241988e-07,-1.5404862e-07,-4.496253e-08,4.815889e-09,4.1743483e-08
1.3505573e-07,-6.724483e-08,1.0616526e-07,-3.9836316e-08,1.09789795e-07,-1.4915645e-07,-9.863562e-09,4.159896e-08,3.4762564e-08,-3.4370693e-08,-1.2292165e-07,-0.062068593,-1.28591,9.315068e-08,4.6955805e-08,4.238388e-08,1.2318345e-07,-9.579349e-08,-1.2526436,0.079509966,8.721885e-08,-5.420615e-08,-4.2207525e-08,1.3727275e-07,1.380821e-07,1.3271718e-07,1.9980021e-08,-2.0187269e-08,2.2952749e-08,-4.126003e-08,9.0449845e-08,-0.9086533,-7.674737e-08,-2.2898382e-08,-6.798673e-08,-1.8952036e-08,-3.5081733e-08,3.8603552e-08,-5.350521e-09,9.846689e-08,3.0599512e-08,1.7602321e-08,-2.2282133e-08,5.7065286e-10,1.7626814e-08,-6.551645e-08,2.9309952e-08,-1.9707898e-09,-6.7646816e-08,-7.8303435e-09,2.8258953e-08,9.629615e-08,1.848926e-07,-6.672615e-08,-1.844885e-07,-4.3993992e-08,-3.3963836e-08,1.4147564e-07,-1.7589382e-08,-5.1510305e-08,6.29112e-08,-1.036013,0.45043206,5.8426803e-08,6.211779e-08,-2.3729111e-08,-9.904312e-09,5.3022973e-09,-0.33088008,-0.9812655,1.0933683e-07,1.1815345e-08,2.9098736e-08,-3.3288092e-08,-1.6274647e-08,-6.9724955e-09,4.3521624e-08,5.0229964e-08,8.592936e-08,1.8418568e-08,5.9148377e-08,0.6391197,2.0214383e-08,-1.0181768e-08,-6.772991e-08,3.967786e-08,4.5885677e-08,3.7087823e-08,-6.164374e-08,-2.6610486e-08,-2.3196659e-08,8.485555e-08,1.2598488e-07,2.571694e-09,-4.4897355e-08,2.8804527e-08,-4.950813e-08,-4.602407e-08,5.0368993e-08,-1.6858793e-08
-3.506024e-08,-8.52965e-08,-4.4819707e-08,-1.5642463e-08,-3.1001434e-08,-2.6195966e-08,1.9570221e-07,-9.611638e-08,2.1814103e-08,-9.0334936e-08,4.8980148e-08,0.103407644,-1.7125148,1.08477586e-07,1.40531125e-08,-3.9374548e-10,-4.1407033e-09,-3.4151192e-08,-1.6507894,0.058164146,-1.5285381e-07,-3.4901824e-08,4.2969006e-08,8.282296e-09,-5.2394796e-08,9.947232e-08,-6.514769e-08,6.512092e-08,-3.9769077e-10,2.603188e-08,-1.5212645e-08,-1.3581846,2.039447e-08,5.5986213e-08,-1.8520925e-08,3.8371457e-08,5.478175e-08,-2.3725548e-08,-2.4586566e-08,-3.9297625e-08,5.7481262e-08,8.563256e-08,-1.3849052e-07,-9.339191e-09,-6.588642e-08,5.376682e-08,-6.994366e-09,-1.0343262e-08,3.6746368e-08,-4.266132e-08,7.319932e-08,4.824731e-09,-4.3562256e-09,-3.802526e-08,-3.1008064e-08,-4.2366775e-08,-6.731544e-08,6.25935e-08,1.8314701e-09,-3.4398287e-08,-2.2512898e-08,-1.4883225,0.24979573,3.8759005e-08,-1.3153253e-08,5.1759816e-08,6.529341e-08,6.9575734e-08,-0.6434858,-1.4415042,7.4521566e-08,-4.0628755e-08,4.403848e-08,-1.5125084e-07,-6.9206166e-08,4.716507e-08,-1.3255265e-08,4.3037263e-09,-1.7858505e-07,1.4980213e-08,-4.772217e-08,0.70375484,4.5580617e-08,-8.768136e-08,1.874502e-08,1.3907929e-07,1.5557855e-07,1.4562099e-08,3.921417e-08,3.4190144e-09,3.763132e-08,-7.3386026e-09,-3.1290238e-08,5.1104312e-08,-1.4342686e-07,-1.0536472e-07,-7.836389e-09,1.3460975e-07,7.208598e-10,-1.3122438e-08
7.8662865e-08,2.0750006e-09,1.0253105e-07,3.659527e-08,6.00898e-08,1.2824083e-07,1.9631894e-08,-7.34003e-08,-2.4115769e-08,3.5051162e-08,2.1097435e-10,0.37157062,-1.1167762,-2.6098629e-08,-1.1807156e-08,-6.5119764e-08,6.47951e-10,-5.1354217e-08,-1.2260547,-0.33752126,2.0988239e-08,-1.5594381e-08,-1.5042649e-07,-1.708921e-08,-7.074438e-08,6.8742715e-08,6.824521e-08,-4.2142368e-08,-3.230891e-08,-1.4217778e-07,-1.164053e-07,-0.7556796,-2.4302924e-08,7.062736e-08,9.685506e-08,-6.62761e-08,-6.379354e-08,7.491586e-08,8.734925e-08,-1.4622849e-07,-1.2574404e-09,1.8701904e-08,6.517763e-08,-3.3203396e-09,5.680049e-08,-6.2116975e-08,1.8458415e-07,1.0515299e-07,5.211941e-09,9.27182e-08,-1.7048922e-08,-1.4111565e-08,4.3016875e-08,-1.0906812e-07,-4.8892513e-08,-9.07916e-08,1.450716e-09,-2.0299094e-08,-8.310078e-09,5.9081273e-09,-2.4949145e-09,-0.9388127,0.7542075,5.451658e-09,-3.5631565e-08,-1.2161046e-07,-1.0267827e-07,-2.878394e-08,-0.08818265,-0.90588766,-9.195117e-08,3.0788986e-08,-4.4724747e-08,9.899921e-08,-1.496365e-08,-3.0927108e-08,1.1282941e-08,-4.0235623e-08,1.3865893e-08,1.3937681e-07,3.3959815e-08,0.6241827,1.816624e-07,-5.247719e-08,-1.5327014e-08,1.0240971e-08,-3.6132777e-09,-2.824311e-08,4.548849e-08,2.5021146e-08,-1.5446794e-08,3.0100296e-08,-1.1958676e-07,3.866699e-09,-4.3794756e-08,1.8756039e-07,-1.8828418e-07,3.370988e-08,-2.298648e-08,-2.240639e-08
5.8276587e-08,-3.3423657e-08,-5.807068e-08,1.4884526e-07,-6.542208e-08,-1.1463342e-07,9.168603e-08,8.6385825e-08,7.0454696e-08,-6.167057e-08,-6.817907e-08,0.8138878,-1.2219698,-2.7746825e-08,-5.5309496e-08,-1.16589774e-07,1.078368e-08,-2.8674553e-08,-1.2266364,-0.7163552,-5.5888133e-08,5.1228106e-09,-3.403855e-08,1.0480599e-07,-1.1586593e-07,-7.888446e-08,5.4846097e-08,1.7660643e-07,-1.0703097e-08,2.2846283e-08,5.1803873e-08,-0.8529868,-1.6350967e-07,4.9912693e-08,-7.47049e-09,-1.3296378e-07,5.461228e-09,-1.837866e-08,-9.142093e-09,4.4166715e-08,1.4250553e-08,1.1290958e-07,-3.925825e-08,-3.5016736e-08,-1.0661736e-08,4.081169e-08,1.0879666e-08,-4.5229875e-08,-1.5944622e-08,-1.9505777e-08,-2.8044054e-08,-4.6832447e-08,-1.014466e-08,-5.2020965e-09,1.4056906e-07,-3.8408487e-08,1.3343312e-07,3.494604e-08,3.7091024e-09,4.551024e-08,1.6994342e-08,-0.9649428,0.9502092,-3.6954958e-08,-2.7758855e-08,8.1109604e-08,-1.0011484e-07,1.14210664e-07,-0.247979,-0.89363235,1.4989484e-07,-1.3293099e-07,1.7352477e-07,5.144677e-08,-7.7876585e-09,1.03299456e-07,-2.4992767e-08,1.8941643e-08,-3.4065046e-08,-4.596788e-08,2.1290123e-08,0.52829856,-6.490513e-08,-1.113159e-07,-3.2212277e-09,2.9751764e-08,-5.0464763e-08,-2.222702e-08,1.6935713e-08,8.893214e-08,1.08006915e-07,9.929542e-08,3.0277683e-09,8.7801055e-08,-5.3437294e-08,-7.497672e-09,3.1341674e-08,-6.784461e-08,-4.1324544e-09,-2.9341756e-08
1.4729774e-08,3.376564e-08,9.974741e-10,3.459286e-08,9.567839e-08,8.4404824e-08,5.942703e-08,4.0330903e-08,8.454188e-08,5.674897e-08,-7.574394e-08,0.8521034,-1.44535,-1.0738472e-07,-7.3633764e-08,-4.9091497e-08,2.1899657e-08,8.8431975e-08,-1.3906213,-0.62072575,-1.2489615e-08,-1.7295862e-07,-1.2793721e-07,1.7248913e-08,-7.2649087e-10,-9.5534425e-08,-1.2365716e-08,6.066568e-08,1.0286016e-08,-2.0408535e-08,2.1293207e-08,-1.1225951,-9.342507e-08,6.470897e-08,-2.9464218e-08,-3.393268e-08,-2.5971456e-08,-4.198406e-08,3.2290316e-08,1.7200463e-08,-2.3112573e-08,4.1071356e-08,-1.1605346e-07,3.567692e-09,1.1314397e-07,2.5985614e-09,5.3120992e-08,-1.2344923e-07,-2.0790814e-08,-1.3167278e-07,-6.169967e-08,4.5489966e-08,2.751758e-09,4.726856e-08,1.3793856e-07,1.1512603e-07,4.5743782e-08,-1.0463357e-07,-1.18862545e-07,7.681449e-08,-3.284294e-08,-1.2254592,0.7612887,4.2578122e-08,1.889897e-08,-9.537199e-08,-1.709296e-08,7.326859e-09,-0.1821252,-1.1707543,1.0682315e-07,-9.0554096e-08,4.9353016e-08,2.4786626e-08,-9.663839e-08,1.3053656e-07,9.3709644e-08,-1.3473189e-07,-6.965763e-08,-9.256343e-09,8.191086e-08,0.5414204,1.2482944e-07,5.5831162e-08,-6.168359e-08,4.7040093e-08,-4.901505e-08,9.4593176e-08,-1.2238603e-07,-1.0142971e-09,7.853444e-09,-7.6448565e-08,3.9128032e-08,3.952858e-08,1.0351703e-07,-4.188697e-08,2.0461755e-07,-1.0254628e-07,6.310209e-08,-8.590415e-08
1.3679839e-07,5.735985e-08,7.342581e-08,-6.6145507e-09,-8.944079e-08,-1.709475e-07,-3.105152e-08,1.6722769e-08,1.0149837e-07,-6.350796e-08,1.154562e-07,1.0440205,-1.5679,9.823836e-08,-9.3384465e-08,-1.2492514e-09,-1.6567176e-07,4.03172e-08,-1.5780779,-0.809888,3.6622886e-08,-7.425694e-09,6.5159455e-08,-6.405363e-08,-1.08097574e-07,1.1927497e-08,-8.6262375e-09,-6.857055e-08,9.996903e-08,-5.6828068e-08,3.31634e-08,-1.2640823,4.8878334e-08,-2.7833275e-10,6.217339e-08,5.8784504e-08,1.1673359e-08,-8.6198824e-08,3.2832254e-08,9.379384e-09,7.4046085e-08,-3.6274635e-08,1.1619796e-08,8.365335e-08,1.9386079e-08,3.6646714e-08,-4.124663e-08,1.8204211e-07,-3.0822495e-08,-2.1122872e-07,6.362292e-09,-1.5453561e-07,1.8064512e-07,-2.0636335e-08,2.6988047e-08,3.8293727e-08,6.656103e-08,5.795112e-08,6.9216256e-08,8.1870354e-08,-4.9817693e-08,-1.4206048,1.0807958,-9.6908146e-08,1.1150423e-07,7.316622e-09,-5.1477684e-09,-4.4644537e-08,-0.17900766,-1.3694134,3.4723172e-08,-6.9917014e-09,1.965864e-08,-6.650164e-08,2.6451321e-08,-4.286606e-08,-5.073497e-08,1.3012819e-07,-9.637459e-08,-1.0798271e-07,4.556792e-08,0.84541994,5.0497032e-08,1.4474969e-08,-2.411063e-08,4.200397e-08,1.42891885e-08,-8.709513e-08,6.7885146e-09,3.7774743e-09,-5.0823754e-08,2.911802e-08,1.2226036e-08,2.9868144e-08,-4.253333e-08,7.643437e-08,2.1860664e-08,6.691275e-08,6.56551e-08,3.260293e-08
1.01956864e-07,4.8877162e-08,6.2793234e-08,-1.4604711e-07,-4.424288e-08,3.2746627e-08,2.7099997e-08,1.3818516e-07,-1.5788046e-09,-1.07306285e-07,-1.2913668e-07,0.62378615,-1.3663352,-1.5978561e-09,4.4627733e-08,-6.187061e-08,9.8025055e-09,-5.1453608e-08,-1.3865168,-0.47043908,3.957259e-08,1.8446563e-08,2.6434186e-08,-4.0205407e-08,-1.1208751e-07,-3.304868e-08,1.7621718e-07,3.8212576e-08,-1.0671142e-08,8.627079e-08,1.0594549e-07,-1.0727164,-4.8901523e-08,-4.137497e-08,-1.1107199e-08,1.2859415e-07,4.2507824e-09,9.62272e-08,-1.676279e-08,2.6371563e-08,1.3532588e-08,-2.0667356e-08,2.6788072e-08,-2.7866518e-08,1.6870885e-08,-6.168801e-08,7.633625e-08,5.959967e-08,-6.4995845e-08,-2.7525141e-08,4.4668564e-08,-3.528682e-08,8.4525364e-09,-1.5757871e-08,1.2253757e-08,2.4248493e-08,1.5558063e-08,-2.3454106e-08,-7.775275e-08,2.9571297e-09,-4.4418368e-08,-1.1712192,0.58036727,2.5702995e-08,1.6877347e-07,-6.4861325e-08,6.0821485e-08,-4.574721e-08,-0.087005205,-1.1197789,-9.920164e-09,-8.702441e-08,1.9459149e-08,3.947875e-09,-6.473706e-08,5.2880257e-08,6.128539e-08,-3.210883e-08,-9.2801685e-08,4.5462443e-08,2.0352249e-07,0.34270906,-2.7275355e-09,-1.2729851e-08,-4.0090107e-08,-4.3099355e-08,3.067482e-08,-1.5527719e-07,3.6486608e-08,9.066831e-08,-6.261874e-08,1.2446183e-07,-8.352312e-08,-2.866294e-10,-2.5216337e-08,-3.6866485e-08,-5.24501e-08,1.16900964e-07,-1.4618418e-09,4.6642263e-09
5.352757e-08,-1.8577275e-08,-2.1069734e-08,-1.2072508e-07,-1.9883899e-08,-1.1218292e-07,3.097241e-08,-1.4712829e-07,-3.4817308e-08,-2.7662217e-08,-1.0174099e-07,0.8245515,-1.4703298,-2.4963075e-08,-1.482556e-07,-1.12028076e-07,1.2590272e-07,7.717871e-10,-1.4698781,-0.6114616,1.7181108e-07,1.1838989e-07,1.08052944e-07,-3.666601e-08,2.6679771e-08,1.7864285e-07,1.4492484e-08,-3.2188616e-08,-6.2105485e-09,-7.061236e-08,6.9632717e-09,-1.1432456,1.2282082e-07,4.5330076e-08,1.0012907e-07,-7.695313e-09,-9.5948565e-08,-5.908363e-08,4.8603233e-08,1.9512796e-09,1.6407416e-08,3.5443087e-08,1.3168602e-08,2.7826037e-08,-1.2620582e-08,-5.124401e-08,5.9885075e-09,8.476409e-08,-1.1630714e-08,1.9525094e-08,-9.780082e-09,2.2114877e-08,3.2928146e-08,-1.4718236e-07,-8.096794e-08,-4.6503605e-08,-1.0826941e-08,-7.207231e-09,6.491683e-08,-1.0935306e-07,-6.596321e-08,-1.2619541,0.59833777,3.752215e-08,2.8927936e-08,-1.745865e-08,-2.9904076e-08,1.5175926e-08,-0.14827725,-1.1350094,1.0572044e-07,-1.2868122e-07,-5.5215622e-08,-5.325992e-08,-1.0321528e-07,-1.8464335e-07,8.7770246e-08,1.9882754e-07,6.8980064e-08,-5.006403e-08,1.00073535e-07,0.40069044,6.750905e-08,4.8331316e-08,2.0512542e-07,-4.6527106e-08,-1.8196056e-07,-2.8503537e-08,2.396769e-08,-2.0917625e-08,1.5119618e-08,6.8168646e-08,3.708927e-08,-4.3482263e-08,1.0417192e-08,2.5868182e-08,7.1218665e-08,-1.0690077e-07,1.881086e-08,-6.156647e-08
-3.0718041e-09,-7.0464765e-08,-1.3206929e-07,4.5548084e-08,-4.2702624e-08,6.2682574e-08,1.8562794e-08,7.6738694e-08,-1.6991386e-10,5.3471155e-08,-1.39076395e-08,1.062692,-1.6326993,-4.7162246e-08,-1.5585965e-07,7.4898935e-08,1.4441849e-08,-1.4895495e-08,-1.6455635,-0.8540776,-2.4378338e-08,1.4362268e-08,-4.5914014e-08,-1.5841948e-08,-6.2227823e-09,-1.7084093e-07,-1.8933112e-07,-3.773363e-08,2.3376518e-09,-6.6938796e-08,1.0078365e-07,-1.3054117,4.841817e-08,3.1584477e-08,-4.8424965e-08,4.152556e-08,-4.7777977e-08,5.0962342e-08,-5.2232096e-08,4.3200014e-08,2.4846234e-08,1.4988402e-08,1.0313995e-07,1.0937561e-08,-2.7590332e-08,6.361276e-08,-8.61176e-09,2.4781453e-08,9.881679e-10,-2.5833502e-08,-2.0274936e-08,2.1546194e-08,8.675272e-09,3.8983753e-08,7.731647e-09,-8.987416e-08,4.2992923e-08,-3.4671242e-08,1.0452343e-08,-1.6470703e-07,2.0250377e-08,-1.4419029,1.0643756,-4.209234e-08,-4.8883777e-09,6.0063434e-09,-7.262982e-08,3.715442e-08,0.057738326,-1.3995376,-5.635758e-08,3.2915374e-08,1.2492727e-09,-2.893265e-08,8.6925365e-09,1.2461122e-08,-1.3528494e-07,-3.8741476e-08,2.5649012e-09,-4.4596007e-09,1.3427165e-08,0.69137084,-2.3702949e-08,1.8902709e-07,-1.4281769e-08,-6.7342762e-09,-1.025357e-08,-7.557219e-08,-3.8950546e-08,-1.03821385e-07,3.060817e-08,2.4997014e-08,6.6775314e-08,-2.5650744e-08,6.9885836e-08,5.159206e-08,4.573625e-09,-9.811151e-10,-1.3619752e-08,7.458925e-08
7.139084e-08,5.1934606e-08,1.8009588e-08,-8.6327816e-08,4.7068077e-08,-4.3180926e-08,-6.104017e-08,7.0487722e-09,-1.4807853e-09,-8.523236e-08,9.73867e-08,0.69085896,-1.2581995,-5.9185563e-08,-2.2343782e-08,1.2538058e-08,-2.0247036e-08,2.3292987e-08,-1.2788607,-0.6262379,-6.826554e-08,7.5782836e-08,1.0271771e-08,-1.2210013e-07,2.639634e-08,5.682587e-09,6.604375e-08,7.110785e-08,2.02519e-08,1.4081651e-07,4.0760234e-08,-0.90025437,1.0145315e-07,6.483385e-08,6.7520176e-08,-1.1293645e-07,3.2476688e-08,2.4902622e-08,-9.656032e-08,7.799437e-08,-6.651868e-08,1.2158453e-07,1.13250955e-08,-3.086912e-08,-4.602861e-08,-1.9779419e-08,1.8280377e-09,1.3499361e-07,3.118538e-08,5.9116566e-08,-1.9303452e-07,3.230221e-08,-3.6727123e-08,8.8762825e-08,-6.897248e-08,4.9658524e-08,2.0573809e-07,8.6715616e-08,8.692037e-08,4.395737e-08,-5.5678875e-09,-1.0427487,0.98178315,-6.627712e-08,1.1461669e-08,-4.9466326e-08,1.239273e-07,-1.4890347e-09,-0.18626934,-1.010499,-8.768789e-08,2.093102e-08,3.299389e-08,-2.001942e-07,1.2081945e-07,-6.1452546e-08,-7.895197e-08,-6.42122e-08,-2.280611e-08,2.936871e-08,1.5351896e-08,0.6621213,7.75161e-09,2.7732455e-08,-1.1193681e-07,6.286588e-08,-1.3936284e-07,-1.02177125e-07,-4.3082576e-08,3.87858e-08,1.2472107e-08,-4.229444e-08,-8.317614e-08,3.0673633e-09,8.731001e-09,-4.3564906e-08,5.1045657e-09,-2.8301056e-08,-1.1092839e-07,-5.6999998e-08
