-6.091605e-08,-1.722297e-08,1.786986e-07,6.864404e-08,-1.2181309e-07,-1.4639227e-08,1.06417986e-10,-4.69692e-07,-2.0311737e-07,-3.4309465e-07,-5.4653884e-07,-2.336193,-2.3440568,-7.265767e-08,-1.5344695e-07,-2.515654e-07,3.3265394e-08,-2.403928e-07,-2.3457417,-2.221016,1.03326414e-07,1.2437187e-07,-2.2084956e-08,-5.1065896e-08,-5.0017952e-08,-1.0062358e-07,1.48452415e-08,-2.4990364e-08,9.6465776e-08,1.2984793e-07,-4.485885e-07,-2.1132686,6.6456764e-08,-9.63804e-09,-8.983772e-08,-3.0337466e-07,-3.8625038e-07,9.243645e-08,1.1417105e-07,2.1397065e-07,5.5271954e-08,3.194743e-08,4.3158198e-07,-1.4520805e-07,-3.0183088e-07,3.8713324e-07,-3.7531083e-07,1.2336952e-07,1.0630002e-07,2.6082287e-08,4.3611124e-08,-1.1038391e-07,1.2352123e-07,8.3023295e-08,1.1180157e-07,-2.3009187e-07,1.645298e-07,5.1919542e-08,1.2767922e-08,2.3654982e-08,-1.18938324e-07,-2.1828566,2.3693202,-6.3321366e-08,2.131916e-07,-2.6139986e-07,8.764979e-08,-6.9834485e-09,2.2372591,2.2925098,1.3199086e-07,-1.4612615e-07,2.0661278e-07,7.309729e-08,1.0969096e-08,-8.4965635e-10,-1.3410435e-08,3.8057877e-08,-1.710735e-08,7.9460776e-08,-5.0856872e-08,2.4282682,1.7413015e-07,4.5465265e-07,1.3018492e-07,1.178887e-08,-2.0175692e-08,3.163528e-09,6.358942e-08,5.6299463e-08,-8.542162e-08,-1.2139458e-07,-2.0071957e-07,-4.0265445e-07,-8.496813e-08,3.5272228e-07,8.07639e-08,-1.6572645e-09,-8.514844e-08,-1.2053472e-07
2.1439573e-07,1.3462383e-07,2.5439853e-08,1.1598201e-08,1.8281887e-07,-4.7042747e-08,-4.5740162e-08,-7.014485e-09,-9.954862e-08,-6.052959e-08,8.48127e-07,-1.5875218,-1.2428967,-1.5978786e-07,-1.054647e-08,-1.6218503e-07,3.256658e-09,6.434338e-08,-1.9965463,-1.6036184,-5.360306e-07,-1.3973725e-07,1.7508789e-07,1.275246e-07,-1.7877385e-07,-2.6285626e-08,-1.255105e-07,-3.1994728e-07,9.387832e-08,7.171358e-08,-6.617722e-08,-0.54335314,1.0991131e-07,9.774073e-08,-6.9121063e-07,2.1909724e-08,-2.5680196e-08,-1.2511147e-07,-1.291248e-07,7.6644085e-08,-6.108828e-08,-3.825736e-09,1.9412758e-07,-9.286604e-08,-1.9661391e-07,-1.0321399e-07,2.4399378e-07,3.5743916e-08,-7.931847e-08,6.363792e-08,2.443057e-07,-2.372038e-07,2.863874e-07,-3.971522e-08,2.5145545e-07,2.6857992e-07,5.537125e-07,4.851004e-08,7.746247e-08,-5.7497452e-08,1.4974344e-07,2.0713062,-2.2644928,4.8964573e-08,3.6029581e-07,-2.9362639e-08,4.0651446e-07,-4.2510007e-07,-2.507616,-2.212101,5.0442573e-08,-3.635826e-07,-2.9375865e-08,-1.0343392e-07,-6.82006e-07,-1.492835e-08,8.5741796e-08,-6.235818e-08,-1.1595859e-07,-2.8630205e-07,-1.7407599e-07,-2.103647,-1.1846042e-07,-2.714556e-07,-1.6138839e-07,-3.2923305e-07,-4.11362e-07,1.74651e-08,9.037852e-08,7.9330604e-08,-1.3046599e-07,-2.5903915e-07,-1.8178783e-07,-1.6004659e-08,9.18164e-09,-6.4504526e-08,1.8285839e-08,5.6611157e-07,1.0123099e-07,-1.7925174e-08
-4.0903018e-08,4.0632145e-08,1.5827246e-07,5.9395045e-08,1.2961078e-07,-1.4013719e-07,4.4340194e-07,-1.577441e-07,1.7814236e-07,-2.3725829e-07,-7.799845e-08,-1.5310206,-1.5048594,-1.2701913e-07,4.1818677e-08,-1.8382192e-08,-1.8642746e-07,-7.414201e-08,2.416054,-1.5186479,1.509348e-07,-8.814182e-08,-5.428079e-07,5.0714164e-07,-6.4550704e-08,6.297885e-09,-3.3261447e-09,1.8101598e-08,-5.0856453e-08,6.278391e-08,-2.0856731e-08,-1.1732332,8.670757e-08,-8.217438e-08,-1.0272288e-07,1.2075978e-07,-5.6419526e-07,4.037306e-07,-1.3074086e-07,-1.665597e-07,-1.1227596e-07,4.428594e-08,-2.7167168e-08,1.6670438e-07,5.181994e-07,1.1180902e-07,5.2881853e-07,1.5237639e-07,1.652311e-07,2.6897993e-07,2.1366276e-08,-1.8127409e-08,6.5999274e-08,-1.0438884e-07,-3.943386e-08,-1.2282683e-07,-8.241436e-07,1.5812098e-09,-8.948033e-09,-3.7367647e-07,-8.419569e-08,1.8334403,-1.9340123,-1.3154583e-08,-1.2949498e-07,4.95711e-08,4.9099405e-08,-2.494044e-07,-2.0430322,-1.7950695,7.734311e-10,5.4216667e-09,6.897475e-08,-3.357981e-08,-8.936949e-08,-3.9320785e-08,1.7046418e-08,-3.02951e-07,-3.9641114e-07,4.9512394e-08,-7.0312666e-08,-1.6859317,-2.3261215e-08,2.0089905e-07,-1.4210548e-07,-1.6113201e-07,-1.7302149e-08,7.497653e-08,2.1255482e-07,3.955866e-07,-4.4716806e-08,-1.28696e-07,7.760966e-08,3.783526e-07,2.9782439e-07,5.716688e-08,6.8510184e-09,3.5596764e-07,-1.14698224e-07,9.81745e-08
1.284359e-07,-2.1321618e-07,3.4742075e-07,1.07954214e-07,-1.4975207e-07,-3.718349e-08,-2.1568808e-07,-1.2587097e-07,-5.473056e-07,5.039477e-09,-2.4724415e-07,2.3196998,2.683315,1.1220029e-07,-2.944262e-07,-7.595139e-08,-2.91561e-07,-1.6318634e-07,2.4869967,2.388214,9.188752e-08,4.8620656e-08,-5.720478e-08,-4.381503e-08,-3.810173e-07,-2.6122984e-07,-1.4831514e-08,1.9154716e-07,-7.0128046e-09,1.1929338e-07,-4.2106228e-07,2.2439506,5.9483142e-08,1.2598204e-07,5.105747e-08,1.4262224e-07,2.5191227e-09,-1.2522469e-07,2.1333483e-07,-1.0331267e-07,3.8148194e-08,-7.0563274e-08,-4.5537448e-08,-1.9382895e-10,1.3327684e-07,5.4187886e-08,-1.252215e-07,4.581953e-07,1.5895617e-07,1.3995008e-08,5.268333e-07,2.187127e-08,1.3761407e-07,-1.3491793e-08,7.550155e-09,-4.7664102e-08,5.459279e-08,7.581382e-07,8.014324e-08,-1.863421e-08,2.0345229e-07,0.32619473,-0.32923296,9.844359e-08,-4.545325e-08,-3.090699e-08,-1.3134161e-07,2.2397413e-07,-0.24855505,-0.25643063,1.4527082e-09,-3.1140203e-08,-5.396527e-08,2.8135142e-07,-1.3620124e-07,-3.830288e-07,2.694628e-07,1.0707261e-07,-6.781323e-07,-4.1428007e-07,-1.6251132e-08,-0.14905196,5.550921e-08,1.862717e-08,-1.7505496e-08,-2.2238474e-08,1.0260004e-07,-8.009237e-08,-1.6019641e-07,1.6311526e-07,1.8294686e-07,1.9045181e-08,1.6687315e-07,-1.9703928e-07,-1.5981808e-08,1.9048642e-08,-9.010451e-08,4.3334515e-07,1.2150095e-08,2.9344323e-08
