-3.123081e-06,-6.5585423,3.5310113e-05,-4.210688,-1.0132456,-1.6463094,-3.4849927,4.2633038,-3.559503,-6.3715525,-4.955166,-3.3161519,-5.2333293,-2.2571628,-1.281459,-0.059268553,-7.8654327,-4.908243,-7.1635513,-5.1395546e-06,-6.3393064,-2.0271316,-2.045546,-8.759974e-07,5.886706,-6.004684,-3.258182e-06,-1.1867435,1.6005548e-06,-7.1549463,-4.3815737,7.5857645e-07,-3.6870542,2.8744573e-06,-5.629981,4.631805,8.933619e-06,-0.87284243,-0.81891453,-5.2439823,-1.694676e-06,-5.36011,-5.303726e-06,5.65599,-0.018485216,-0.59985,6.295635,7.1245027,-5.3609176,-3.0849588,-4.3690715,3.9831426,7.834553,3.8019195,0.0005251966,0.00014538155,-3.4944193,3.8427637,3.4784656,1.6578549e-06,-2.4889193,-2.0991485,2.737748,-1.2636815e-06,-7.168113,3.3653388,-1.1931668e-06,0.57837385,-1.543857e-06,-3.933631,-2.9141698,5.8154967e-08,3.7059104,8.381404e-07,5.935006,6.6018333,-1.3136746e-06,1.0595576,-0.14606519,-4.288468
1.902428e-08,0.0058632586,5.3940803e-06,0.07133132,3.197159e-05,-0.0002662621,3.067392,-2.3783658,-2.7660806,-1.6393497,0.04711742,0.021182006,-5.27489,-0.017228633,-0.050419208,-7.1100026e-06,0.07653481,0.064124584,4.212742,1.5114776e-06,-0.20674215,0.3932059,-0.0096575795,5.046661e-08,-3.155604,-0.18465567,1.536716e-07,-6.431412e-05,-5.483557e-07,-0.10850382,5.3201876,4.306184e-08,0.14326848,-1.8972813e-08,0.08315856,-0.7702051,1.7765736e-06,-0.00075424643,8.469797e-06,-1.3120685,-1.6394631e-07,0.035970453,6.2904815e-06,-0.09396097,-7.137818e-06,0.12552616,-3.2802732,-3.1890888,2.4702113,1.9373412,0.055321544,-0.05845258,-4.4396915,-0.13795136,-0.00031657427,5.543816e-07,0.1311535,-0.09646967,3.063845,-1.2068656e-07,-0.077775225,-0.0021421432,-0.037674066,7.110795e-08,3.6374178,-0.016326923,6.275029e-08,-3.297844e-05,-7.2544424e-07,-0.065780945,3.7851288,-1.2168104e-07,-0.033721875,-2.6620006e-07,-0.22595894,-1.9760157,2.3392897e-07,0.00038203498,-3.9244507e-05,0.09471016
8.1175165e-07,0.09833705,-3.899686e-09,0.01847578,-1.1738435e-05,-2.6286274e-05,1.4790263,-0.15789807,-0.062697284,-0.0748325,-0.023958752,0.005275847,0.83800817,0.0063636494,-9.438128e-06,-4.033869e-05,0.15744707,-0.024749313,-5.437433,1.1735801e-06,-0.116518326,0.004752802,-0.0040482422,-8.6604445e-08,-2.1623678,0.008126799,-2.3689455e-07,4.9287337e-05,-1.314306e-07,-0.0461823,-0.2791266,2.4462022e-07,-0.027903046,2.6419325e-08,-0.14510572,-0.10295176,-7.205199e-07,0.0038308036,-1.492595e-07,-0.7356722,-2.8517817e-08,0.003937325,-1.0427425e-06,0.12043604,-3.0053423e-07,-0.0017549241,-1.2287542,-0.003670672,-0.040821966,0.23684603,0.009566821,-0.018478854,-2.6981452,0.011135882,6.8324516e-06,-2.780001e-06,-0.11178412,-0.11555926,2.9112375,4.131391e-08,0.17847711,0.00053321,-0.0017970625,-3.7906727e-07,2.6554701,-0.046173923,-8.34639e-08,9.09244e-06,-1.0929076e-06,0.012006333,0.7737331,1.4714419e-07,-0.0141057065,-6.259873e-08,0.026072036,0.22115019,-2.0632115e-07,-0.003400111,-3.048728e-06,1.2922822
6.300311e-07,0.6773085,-7.905588e-07,0.3807451,-3.930878e-05,-0.000950709,4.0008984,5.017181,1.6000876,1.8181448,1.7567227,0.11879881,3.3001633,0.20242977,0.00021113166,8.590414e-05,1.5491924,-0.3593929,6.6226025,1.1603775e-06,-0.7457157,-0.019663047,-0.05396986,1.6875674e-08,6.4118776,1.7247759,3.970696e-08,4.5309716e-06,1.0329645e-06,1.5150967,1.6458416,1.3918923e-07,0.21425754,2.697479e-07,0.74005145,5.6033573,-2.074526e-06,0.0037356438,5.4637894e-08,2.316282,-3.685371e-07,-0.6724883,-5.517364e-07,0.5837688,2.6104482e-05,0.0001026868,-0.38589376,-0.064105675,-0.5732809,-0.33297563,0.71464247,0.20283636,-0.26823965,-0.1418837,7.384475e-06,-7.271439e-05,-0.41674775,-0.16302581,0.418806,3.7289007e-07,1.1991198,-0.029314892,0.022074934,-9.959531e-08,-0.29266194,-0.28689528,1.0513671e-07,-8.3119514e-05,-5.711688e-07,-0.68135977,-0.34397238,-6.4038454e-07,0.0102729425,8.1065764e-08,0.027257085,-0.09193612,2.8087118e-07,0.0036380233,-2.320653e-05,-0.23032887
