-3.0813383e-06,-6.6081805,-4.848751,-0.9078527,-1.0223877,-1.6552005,-3.411623,4.649511,-3.3869216,-6.037532,-4.6910167,-2.1470258,-5.4000177,-2.0304217,-1.3122224,-0.037263975,-8.290457,-3.6914895,-7.199623,-2.915371e-06,-3.2374218,-1.8807371,-1.5209821,-7.206093e-07,6.503989,-5.6905723,-3.2716894e-06,-1.407504,9.942144e-07,-7.3633795,-3.9156294,1.0029058e-06,-0.4571032,2.8581994e-06,-5.958196,4.739521,7.2284165e-06,-0.21371529,-0.74952585,-5.019719,-1.1534205e-06,-5.9678426,-6.5204945,0.8665646,-0.015512046,-0.5871168,6.7434125,7.809677,-5.064214,-3.0373728,-4.1734853,2.694002,11.543245,2.4892938,-0.0026918093,-1.661132e-06,-3.374176,2.6639214,4.608055,2.1980024e-06,-1.6628621,-1.5706749,1.9241191,-1.3007118e-06,-8.139131,3.311011,-1.5034695e-06,0.7550698,1.2038461e-06,-3.856489,-2.713964,3.059373e-07,0.13586605,1.5477281e-06,6.142855,6.9137774,1.2567559e-06,0.26993477,-0.15870845,-4.4206414
1.330072e-09,-0.16250168,-0.059661053,0.00044111803,3.0752944e-05,-0.0003236603,3.0492454,-2.3692882,-1.9542373,-1.3723798,-0.011583595,-0.0006308337,-5.2128415,0.004161286,-0.047635894,-8.982886e-08,-0.019838154,0.0062359525,4.168023,-1.8182839e-06,-0.03829976,0.31149754,-0.00032827575,5.9130834e-08,-3.2184186,-0.17924872,1.5103404e-07,0.00013258803,1.9226599e-07,-0.01089499,5.146005,6.188792e-08,-0.00012278052,-3.1201353e-08,-0.22255267,-0.45802903,7.040809e-07,-4.4031487e-05,1.3818522e-05,-1.2988925,-2.41811e-07,-0.02219121,-0.19221294,0.0016520461,-1.4067158e-05,0.120022625,-2.8793998,-3.9638028,2.195321,1.7265171,0.008893196,-0.013554836,-4.5868254,-0.09537649,-0.00021246514,8.020964e-06,0.07759065,-0.017050872,3.1775267,5.604194e-07,0.019637125,-0.00014109557,-0.027685616,8.534816e-08,3.6032495,0.0390302,1.5918691e-07,5.1302493e-07,-1.3588203e-07,-0.015361175,3.6077442,-1.171273e-07,-4.034641e-05,-2.7157867e-07,-0.055768006,-0.8339099,4.866508e-07,1.2110944e-05,-1.962293e-05,-0.05180214
8.1302886e-07,-0.10192445,0.16130441,0.018168394,-1.3642515e-05,-2.8317048e-05,0.39029846,0.11870932,-0.07529929,-0.012964342,-0.03229529,0.0028776948,1.4577311,-0.0035606455,1.3846041e-05,-6.089451e-06,0.17259336,0.03191619,-5.499597,-1.9099332e-08,0.007797125,0.00012808164,-0.0004280532,-1.9119133e-07,-2.4490924,-0.019458534,9.166331e-08,-2.034934e-05,3.6525392e-07,-0.04606501,0.058089748,2.5579342e-07,7.477975e-05,-1.2256606e-08,-0.14755185,-0.1793698,-8.0531913e-07,-7.1316485e-05,4.800616e-06,-0.47406897,1.4323837e-07,-0.03852949,-0.048474535,0.0018262089,-7.060795e-06,-0.0007160721,-0.18317649,-0.15768433,0.012878225,0.0630873,-0.021922264,-0.0036782958,-1.7093849,-0.0001206303,1.3443185e-05,-3.2043154e-06,-0.012146413,-0.0069286283,2.3205588,-6.6642e-07,-0.016240047,0.00036367838,-0.00017895224,-3.8361483e-07,3.33248,-0.06605739,-3.2692745e-07,9.735577e-07,-4.910649e-08,-0.14658724,0.055050876,1.16698516e-07,-0.0001892696,-7.445391e-08,-0.028406724,-0.025505114,1.3106859e-07,1.9866984e-05,9.37932e-07,0.56391996
3.1275528e-07,1.2958657,0.84501,-0.0044950396,-2.816329e-05,-0.0007884273,2.5379982,6.433048,1.2656192,1.151968,1.3847562,-0.031737942,2.6230671,-0.00019004173,0.00020686164,2.601958e-06,1.5817587,-0.14464429,6.506673,8.187102e-07,-0.05213541,-0.0036803018,-7.320296e-05,-6.7407086e-08,7.1183314,0.6874712,1.5617054e-07,-0.00031210674,1.4896675e-07,0.29871723,0.34778857,-8.659235e-08,5.6901736e-06,2.14029e-07,0.92592293,5.96422,1.173649e-06,3.7665257e-05,-1.4474332e-05,1.671651,-3.186255e-07,-0.5144007,0.5047788,0.008328876,4.8778684e-06,-7.1793274e-06,-0.32117075,-0.15031706,-0.34749475,0.5284414,0.30617324,0.0022255837,-0.3514138,-0.015517569,-4.7337203e-06,-2.162813e-05,0.05156023,-0.3777733,0.41973558,3.827013e-07,0.0039829942,0.0024436752,9.596181e-05,-7.544439e-08,-0.11893757,-0.37409988,2.636194e-07,0.00019108392,3.488087e-07,-0.3328484,-0.1342924,-6.3425625e-07,7.404835e-05,9.290655e-08,-0.07168626,0.36637497,-7.5763694e-07,5.9455466e-05,-5.0918065e-05,-0.4955489
