-1.9143196e-12,0.28362072,8.212582e-12,-0.11511149,-7.8028245e-10,2.6680869e-08,1.371857,0.3824131,0.09735115,0.8216059,-0.044305544,0.07144427,-0.26182994,-0.0045873094,-4.260075e-09,-2.8748566e-11,1.0873892,0.05850491,1.0731772,1.9459707e-12,0.6454631,3.692063e-06,-8.5693455e-07,-3.8941124e-13,-0.7613563,0.21357006,1.4479579e-12,-6.144797e-10,-3.725985e-12,-0.13565993,0.24103451,2.3164007e-13,0.13267376,-2.8845172e-13,0.36756346,1.3495569,-4.3802965e-12,1.290568e-08,1.2868172e-09,0.65307796,1.1212843e-12,-0.49005106,-5.432502e-12,0.21889165,3.089431e-10,-9.234311e-10,-0.051051836,-0.64708376,-0.34184843,-0.4692163,-0.30673516,-0.25768235,0.8226314,0.0032907133,2.888436e-09,-3.4398012e-11,-1.5875826,-0.3207052,-0.7984236,-3.276175e-12,-0.25685063,4.48509e-06,3.5709263e-08,-9.035827e-13,-0.10287114,0.008512331,-2.4715662e-14,-8.264132e-09,2.2663366e-12,-0.26793048,-0.29474428,-7.041235e-13,0.10136449,3.253141e-13,0.45241177,0.80298346,3.6574233e-12,2.492413e-08,8.6098945e-10,1.1452669
-1.2015638e-13,-0.40593717,2.3114466e-12,0.7025378,-1.6221164e-09,-5.3055903e-08,0.4169195,0.32185096,-0.0004896363,-0.6471614,-0.6028025,0.14340511,0.139738,0.00017787813,-1.5437097e-09,1.6381992e-10,0.24477422,-0.43434995,1.5688642,1.1047417e-12,0.27252036,6.9534343e-07,-1.4502463e-05,7.4467667e-13,-0.37006277,-0.049408525,1.1345916e-12,-1.3578987e-09,4.3218088e-13,-0.25901708,-0.9180973,2.8048e-13,0.0054686097,6.5280897e-15,-0.07295939,0.29655546,-1.2272637e-12,-1.7227899e-08,-2.0798693e-10,0.15576963,9.25959e-13,-0.5248722,4.0923744e-12,-0.77652395,3.5512893e-10,-2.274842e-09,0.46808606,-0.009363088,-0.7535443,0.22633193,-0.28931373,-0.15821233,0.9493149,0.0045796107,5.091877e-09,9.347191e-10,1.1833388,-0.2661934,-0.9019986,-9.508789e-13,0.22387889,7.675362e-07,-2.022833e-05,-1.5350796e-13,-0.11284924,-0.6322973,9.380358e-13,7.863738e-09,1.5031038e-12,0.13929899,0.16070974,6.987593e-13,0.093742214,-4.3106195e-13,-0.5077534,0.14019419,-3.8805103e-13,-1.9593369e-08,-5.849769e-10,0.78495157
-1.178195e-12,0.1498265,-3.0511568e-12,-0.30006668,-3.384764e-09,2.7692236e-08,0.24622263,0.14215805,-0.17437595,0.5172886,-0.52417994,-0.51197815,-0.11036806,-0.009214799,-4.8005233e-10,-8.128002e-10,-0.02712338,-0.0755551,1.0801446,8.7169096e-13,-0.0047791973,-2.214865e-06,-1.917853e-05,-6.971202e-13,-0.48718765,0.19568029,4.3988283e-13,7.9605206e-10,-1.3492262e-12,-0.36710414,-0.14092383,-3.4093401e-13,0.03862218,2.8061147e-13,0.07763268,-0.5184515,-1.7130481e-13,-5.512262e-08,7.9475937e-10,0.46521482,-1.0600115e-12,0.4254499,3.6162167e-12,-0.19025165,3.682436e-10,7.2329144e-08,0.7141061,-0.5586275,-1.0063183,-0.3803656,-0.44419485,0.0012427331,1.2534686,-0.0022341968,-4.9000546e-09,2.290941e-10,-0.9948642,0.22388062,-1.3018625,-2.3879137e-12,-0.6195291,-2.2379665e-07,8.879754e-06,-2.3415392e-13,-0.7680753,-0.036089703,-1.6064624e-13,-1.11039125e-08,2.0406877e-12,-0.26035228,-0.46649092,-1.9357484e-13,-0.028319174,8.07397e-13,-0.21322806,-0.030776052,2.9212073e-12,-4.191235e-08,1.6293612e-10,0.23552118
-8.3023914e-13,-0.016980905,-2.6967933e-12,-0.1227483,-2.6646962e-09,-5.6504206e-08,-0.4969565,-0.35732955,0.6753537,0.5341452,0.2720329,0.06756654,0.8333321,-0.006122277,-4.822549e-09,4.5562704e-10,0.27795458,0.3613364,1.5187943,-1.1932988e-12,-0.0095977,4.7433514e-07,1.2554175e-05,2.1591196e-13,0.4110486,0.65337384,7.7662193e-13,-3.8454515e-09,-1.0144356e-12,-0.57425135,-0.0013203635,5.7271906e-13,-0.12010638,-2.191281e-15,0.8459399,-0.97268856,-3.3687402e-12,5.0245646e-08,6.3246003e-10,1.1242554,-3.68149e-13,0.18274866,1.8985239e-12,-0.36115247,2.1266994e-10,-1.7778632e-09,0.05265806,-0.929733,-0.99797297,0.3012907,0.50846434,0.15915452,1.0478644,0.008502395,3.119491e-09,-6.4129424e-11,0.16093504,-0.36694247,-1.0168543,-1.9279845e-12,-0.7561171,-3.3659278e-06,-4.1385945e-05,3.1873687e-13,-0.61844337,0.228543,1.2529823e-12,3.1070786e-09,-1.7215644e-12,0.21185383,-0.7747747,3.246806e-14,0.1555046,2.1073829e-13,-0.55829877,-0.2069328,-4.851091e-12,-3.5667696e-08,-1.7136049e-09,0.4076749
-1.0915649e-12,0.81912714,-6.014213e-12,0.1828485,4.827022e-10,-1.909102e-08,0.75691956,-0.40515366,-0.4188195,-0.43205053,0.63579005,0.35264736,-0.66288596,0.0007550086,-4.4748374e-09,1.8570234e-10,-0.55256736,-0.63601625,1.4565272,-7.2892734e-13,-0.6486765,-4.464168e-06,-4.24004e-06,-5.111114e-13,1.4585847,-0.2507876,-2.1624266e-13,2.6598719e-09,-2.1803106e-12,-0.7452879,0.3627788,-5.331708e-13,-0.24071024,1.1779646e-12,-0.21507218,0.2081761,1.2996678e-13,1.8001714e-08,1.8808919e-09,0.26725972,-2.8277988e-13,0.49718383,-8.4875405e-12,-0.32283312,-1.6168786e-09,-2.5205598e-08,0.94446987,0.27057293,0.77653533,0.0035843765,-0.5255946,0.37888607,1.1951725,-0.007977487,2.0333322e-09,-2.5304414e-10,-0.09167427,-0.51175845,-0.5672646,1.7454532e-12,0.19516674,1.5726504e-06,2.7783715e-05,-7.8860854e-13,0.27732337,0.05580717,-2.2104004e-13,1.2521954e-08,-8.544526e-13,-0.102660716,-0.7904173,-2.3880133e-13,-0.033340678,4.4277646e-13,0.24453877,-0.1272021,-1.8826349e-12,1.2195807e-07,-3.182395e-10,0.38675413
-1.3552859e-12,0.4643095,5.6780644e-12,0.28231588,7.017805e-10,1.2211147e-08,0.52469796,0.39578125,-0.07670243,0.2696482,0.90773475,0.029457655,0.043328166,0.00508422,5.022211e-09,2.42729e-10,-0.8264345,0.4736365,0.9792334,-1.9078777e-12,-0.04972565,-3.5641842e-06,-1.4192022e-06,3.8933803e-13,1.1526858,-0.0034813248,3.8458218e-13,-2.4734554e-09,-4.1301476e-12,0.28732252,0.24837515,-6.7033645e-13,-0.054082118,-4.3047006e-13,0.014755613,-0.85267097,-2.1011864e-12,-1.7121511e-08,-5.386406e-10,0.13855113,-9.709951e-13,0.49400485,1.2203813e-11,-0.32307726,1.9605703e-10,1.3094592e-09,0.8672405,0.40125626,0.41857356,-0.8180346,-0.8892059,0.011166884,0.91081554,-0.0046557835,4.1240718e-09,-2.0557721e-10,0.7203811,0.25082895,-0.5219025,-1.2907982e-12,0.6355301,5.9564883e-08,3.315539e-05,-3.376509e-14,-0.5331522,-0.5631145,-1.3788073e-13,-3.3717773e-10,-1.5954742e-12,-0.25932583,0.1634014,-5.9320745e-13,-0.006049094,2.1563182e-13,0.23558605,0.22192965,-2.409937e-12,5.333554e-08,-3.4622588e-10,0.21037433
4.9043696e-13,0.5169947,-3.965543e-12,-0.0700338,1.9470905e-09,-9.441125e-09,0.30427393,-1.1238325,-0.28801334,0.37119415,0.021807779,-0.00515002,0.17790814,-0.0011683665,3.0248148e-09,2.6794328e-10,-0.8538585,0.19001707,0.97691226,1.5298485e-12,1.3065456,1.0789483e-06,-2.5802086e-05,2.5761809e-14,1.3838342,-0.3079854,-6.64587e-13,-8.4771645e-10,1.4372806e-12,-0.21996881,-0.2191518,-1.6703566e-13,-0.060673993,5.05474e-13,-0.91558504,-0.45087457,1.4291736e-14,-7.328424e-08,1.6431753e-09,0.1793089,-1.6228579e-12,-0.081849515,9.182077e-13,0.023971118,1.311136e-10,-7.756706e-08,0.7106705,0.3454366,0.838789,-0.7007622,-0.5218472,-0.44106078,1.4561727,0.008830971,2.7361684e-09,-1.00439115e-10,-0.3215851,0.45772424,-0.58944005,-2.8825282e-12,0.28699777,4.0447194e-06,-2.5300344e-07,-4.604067e-13,-0.26830584,-0.07213265,1.4042307e-12,2.7789626e-09,-1.2398632e-13,-0.6461785,0.3956031,3.587526e-13,0.1654936,1.881518e-13,-0.44492495,0.16944471,-1.0666665e-12,-2.4094168e-08,-1.1789836e-09,-0.19172719
-2.3035046e-13,0.67027164,-4.1352954e-12,-0.58923453,5.937426e-10,-6.7303866e-08,0.14327224,-0.53812736,0.54340315,1.8990476,-0.41619834,0.22436975,0.040782865,-0.00926289,5.1744884e-09,5.1004256e-10,0.26968896,0.875278,0.75505674,1.8044024e-12,-0.6036783,3.570868e-06,-7.0184797e-07,-4.2341602e-13,1.4975111,0.22857322,1.1128904e-12,9.543e-09,-1.4894276e-12,0.14729217,-0.97894996,4.3898525e-13,-0.11852495,-5.389494e-13,-0.7551149,-0.6306645,2.6634612e-12,-2.7297432e-08,2.651069e-10,0.6432928,-1.1822084e-12,-0.15239073,-4.695153e-12,-0.3696146,6.63314e-11,1.0118985e-07,0.45300093,-0.10955898,0.15456325,-0.2933951,0.50570136,-0.074525945,1.6073077,0.0031170477,3.9821524e-09,2.7027408e-12,0.08021417,-0.13049492,-0.7206418,3.5174728e-12,0.4436537,9.856272e-06,-2.7097716e-05,-1.219065e-13,-0.09244634,-0.5020201,7.3921704e-14,1.4801804e-09,-1.1615522e-12,-0.9476826,-0.07091527,6.7361443e-13,0.28308037,-1.3514368e-12,-0.45650598,0.4247392,4.811479e-12,-4.5490516e-08,1.9347988e-10,0.076423846
8.909948e-13,0.05924234,4.1927455e-12,-0.5193208,8.637797e-10,-4.2023757e-08,-0.11643247,-0.822283,0.14383745,0.3188315,0.13047554,-0.027687704,0.33241525,0.00041950366,9.261466e-10,-6.7780004e-10,-0.14452372,-0.45638752,0.5258148,2.4102684e-12,0.6214679,-2.376617e-06,-3.4123066e-06,-4.487014e-14,1.040278,0.4853873,1.4842599e-12,-4.5881987e-09,2.4632943e-13,-0.59679747,0.06755449,-1.4171623e-13,0.036763016,7.40671e-13,0.92083454,-0.6181465,1.3850217e-13,-2.4949443e-09,-8.902026e-10,-0.54224133,2.3157913e-13,0.110501096,2.997226e-12,-0.62815166,-8.224545e-10,6.8591746e-08,-0.1321736,0.5174025,0.29260427,-0.24854939,-0.42587057,-0.7941831,0.79265076,0.010818661,-5.130447e-09,-1.0746903e-10,0.5343537,-0.6183157,-0.6421323,2.3268068e-13,-0.18012622,1.1177846e-07,-2.4949926e-05,-4.6158335e-13,-0.15533017,-0.35055235,-1.8846274e-12,2.0858531e-08,1.418504e-12,-1.2371182,0.38514027,-4.6761244e-13,0.08071798,-1.3909032e-13,-0.37232715,-0.10256296,2.6914235e-13,9.420286e-08,2.8786143e-10,-0.19761832
-1.2174567e-12,-0.23273629,-4.443919e-12,-0.69353217,-1.2394931e-10,7.516861e-08,-0.81392884,-0.9118111,0.30843088,0.048625097,0.09011708,0.3680814,-0.0978662,-0.005097999,-6.822529e-10,1.1780641e-09,-0.45172983,-0.32011393,0.28965455,1.6877464e-12,0.48599422,7.707984e-06,1.4371731e-05,-3.4161465e-13,0.95795673,-0.29311132,3.6477613e-13,-4.102487e-09,1.6979438e-12,-0.20121963,-0.21299922,1.8043408e-13,0.016953189,5.9090363e-13,-0.6004405,-0.33382004,1.698162e-12,1.7967695e-08,5.3375154e-10,0.4174402,8.207656e-13,-0.7957555,2.5341667e-12,0.47433615,-1.2515879e-09,-4.085772e-08,0.25381452,1.0016309,-0.43537703,0.17619872,0.12875809,-0.013995681,1.3130045,0.004601809,-1.1880745e-09,-1.918459e-10,0.6783868,-0.35118005,-0.6456009,-9.128511e-13,-0.1560942,1.7860334e-06,3.17862e-05,6.075472e-13,-0.46878207,-0.05785294,2.2453784e-13,8.3387866e-09,-1.1015637e-12,-1.0697387,-0.72965604,2.71276e-13,0.13370356,6.8949767e-13,0.29143468,0.16554882,1.900897e-13,2.4306697e-08,1.0790995e-09,0.046543606
-6.690501e-13,0.42947003,8.275306e-12,0.47321817,3.4708352e-09,-2.7364974e-08,-0.6352981,-1.1312803,0.81286126,-0.7525303,0.061353523,-0.3046468,0.6951848,-0.012352946,-5.801785e-09,-1.3505842e-10,0.3883452,0.65848553,0.63602984,-1.2272873e-13,0.0045886785,-5.479965e-06,-1.5229266e-05,-2.1383566e-13,0.89373726,0.040362157,9.356053e-13,-3.2166714e-09,-9.345539e-13,-0.24641143,0.4038522,-2.9337066e-13,-0.082292676,-7.9879685e-13,0.25889567,-0.8234099,4.9317386e-13,6.160937e-08,-4.5964124e-10,-1.1112012,1.3012051e-12,-0.74833524,2.020543e-13,0.04468899,2.8760544e-10,-3.0560612e-09,-0.22702928,0.4104093,-0.004580591,0.0004917346,-0.054603864,-0.3230711,1.3300697,-0.00162639,1.1518136e-09,-1.9696333e-10,0.877043,0.37545153,-0.3818301,2.3452672e-12,-0.26823327,-2.0577104e-06,2.8702421e-05,5.1902536e-13,-0.03170723,0.3273881,-5.737124e-14,-8.200975e-09,-3.7172576e-13,-0.22113723,0.0674856,2.3199747e-13,0.114123136,7.388634e-13,0.6055682,0.28560913,-1.7597536e-12,-1.732873e-09,2.4549873e-10,0.11711462
5.998332e-13,0.031006338,-3.2435888e-12,-0.19295248,-2.491193e-09,-1.944625e-08,-0.55386,-0.56702846,0.023137264,-0.10157688,0.6403374,0.38589448,0.15251453,-0.0041457587,4.9751954e-09,3.9633952e-10,0.23065783,0.38869563,1.2743446,-3.8761442e-13,0.43082562,-1.2221257e-06,7.814509e-06,3.436794e-13,0.7720009,-0.018222315,-4.372693e-13,5.6907363e-09,-1.1415309e-12,-0.46729794,0.098233305,-5.4397193e-13,0.13120656,2.483586e-13,-0.11820612,-0.59494555,-6.2685924e-13,-4.1223096e-09,7.0779504e-10,-0.2403309,5.0666177e-14,0.197796,-5.6043273e-12,0.024947947,1.4380702e-10,1.1011096e-08,-0.6407577,0.5837388,0.1128841,0.6501634,-0.32630223,-0.09970338,0.56093365,0.0018750718,2.2017022e-10,2.9762603e-10,0.95520294,0.56251085,-0.9604352,2.5619003e-13,-0.41625106,-1.895675e-06,-1.128791e-05,4.8304026e-14,-0.0043408046,0.38420114,-4.2248697e-13,3.9290865e-10,-1.2340853e-12,-0.017873801,-0.39966315,4.438849e-13,0.10755885,-6.487011e-13,0.42711288,0.53133637,-2.8092941e-13,-5.6120573e-08,-2.5420072e-10,0.05292816
4.398586e-13,0.19492036,-1.5864389e-12,0.15225703,3.0182887e-10,-5.507468e-10,0.3095475,-0.0048933434,-0.4320237,0.7484976,0.42320007,0.25023124,0.76350486,0.004372497,2.0800555e-09,-7.815732e-10,-0.3596548,-0.7796143,0.8273357,-2.7157408e-12,-0.026867434,-1.1524966e-06,1.6607964e-05,-2.0782378e-13,0.6346185,0.35645738,-5.5022366e-14,-1.711266e-09,2.2578215e-12,0.1244625,0.022269547,-1.6638454e-13,-0.17045261,-3.9600192e-13,-0.12187557,-0.6001344,-2.5662322e-12,-4.6119556e-08,-4.733456e-10,-0.23692596,3.8974021e-13,-0.26400328,-3.4114551e-13,0.29915607,8.888083e-10,7.710106e-08,-0.33062142,-0.042602494,0.3768067,-0.49268246,-0.0060093403,0.12185068,1.0539466,-0.00954343,-2.614353e-09,1.2704979e-10,0.068462834,0.5592507,-1.1274422,7.817952e-13,-0.38498792,1.1013475e-06,-5.160355e-06,-4.0115974e-13,-0.3543659,-0.5316476,1.1329257e-13,1.6125172e-08,7.6069966e-13,0.90510833,0.44095987,7.9705746e-13,0.0027428714,2.1372715e-13,1.0884355,0.62045956,-4.775867e-13,-9.360514e-09,7.888987e-10,0.42173988
-1.0086903e-12,0.19557348,-1.1006651e-12,-0.24099766,2.3563235e-10,-5.0982866e-08,0.5215435,0.221266,-0.25141743,-0.06424102,0.034637243,0.0013124049,0.70439845,-0.010395881,3.017644e-09,-3.5089254e-10,-0.15027626,0.686101,0.6154464,6.490992e-13,-0.23281598,1.7095439e-06,1.2015743e-05,2.939829e-13,0.5078009,-0.22440523,3.6349287e-13,-8.6085783e-10,-8.325366e-13,0.4739195,-0.40110856,4.4306795e-13,0.1415832,-2.2893493e-13,-0.5433456,-0.6472242,1.4092792e-12,3.077147e-08,-2.5297442e-10,-0.070074454,1.5892366e-13,-0.34693465,9.963294e-12,0.12971915,7.14532e-10,-3.9509242e-08,-0.21335836,0.2353928,0.27678436,-0.6589535,-0.44552377,-0.15816912,0.6364389,0.011744877,-2.1977509e-09,1.0788398e-11,0.19362195,0.34053692,-0.9406911,1.6544058e-13,-0.20691448,1.0730212e-06,4.56239e-06,-5.47982e-13,-0.07860568,0.59542173,7.3465577e-13,-1.2424809e-08,8.905953e-13,0.29501018,0.20366853,-3.8541043e-13,0.12462674,1.5961787e-13,0.11214579,0.5297397,2.5467766e-12,1.1698101e-08,5.6620086e-10,0.01330003
2.4591071e-13,-0.1106878,3.7317528e-12,-0.26251927,-9.748373e-10,3.8673242e-09,-0.6083252,0.64869946,0.3305216,0.09263075,0.60669744,-0.35842535,0.41081482,-0.010891395,-2.953992e-09,-7.8030177e-10,0.057974614,-0.3176366,0.5681676,9.411249e-13,0.43503094,-2.8793008e-06,-4.4982033e-05,5.878057e-13,1.0554581,-0.2080634,-3.204341e-13,-3.5880088e-10,-1.1150062e-12,1.2518146,-0.7360123,1.4746594e-13,-0.021828134,-8.288935e-13,-0.47188976,0.4999922,5.8777907e-13,-4.8929707e-08,3.1646227e-10,-0.1509111,-8.609527e-13,-0.09760603,-1.3634842e-12,-0.030331556,-4.6296586e-10,-2.105293e-08,0.40686136,-0.1555123,-0.10979712,0.11241636,-0.38305226,0.310371,0.96174896,0.0030167315,6.5237544e-09,-5.318924e-10,-0.10407106,-0.093224764,-0.61747795,-2.3567216e-12,0.9710107,5.9074578e-06,2.9070097e-06,-2.7954895e-13,-0.036117554,-0.116863675,-7.3883483e-13,-6.938574e-09,2.3994657e-13,0.6952028,0.38827145,2.1094289e-13,-0.107145,-4.3963032e-13,-0.4504979,-0.3538666,-1.1159988e-12,1.9933951e-08,-5.7732e-10,0.33825418
-5.8570737e-13,-0.52767193,-5.825935e-12,0.05148957,2.1680293e-09,4.909892e-09,-0.15058208,0.3456839,0.6352277,0.09859551,-0.18048875,-0.43940672,0.8638361,-0.0133169135,-1.7622659e-09,6.309002e-10,0.35815066,0.023492325,0.54130334,-1.0357724e-12,-0.75838387,4.0523473e-06,1.1241307e-05,-3.329452e-13,0.0048661754,-0.15950732,-2.7199694e-13,-3.6133803e-09,3.2339604e-13,-0.0053766835,0.23497088,-3.7956755e-13,-0.13382503,-4.225677e-13,0.2600306,0.5335055,2.323612e-12,-3.8010448e-08,1.6981784e-11,-0.1366044,-2.4630688e-14,0.031487014,-1.606825e-12,-0.41488436,6.0603755e-10,1.8981249e-08,0.041008614,-0.6636882,0.662198,0.26842085,-0.15126142,-0.29783994,1.6480597,0.0022334699,1.9846261e-10,1.319653e-09,-1.0153041,0.18318306,-0.44390303,-8.7975753e-13,0.14911962,-2.4633423e-06,1.515276e-05,-7.768574e-14,-0.31844768,-0.190666,5.444154e-13,-6.121635e-09,2.3539027e-12,0.45333967,0.6161916,-1.254006e-13,-0.08440343,-7.5857555e-13,0.27126437,-0.07969465,-6.8323174e-13,-4.2849386e-08,-6.4063793e-10,0.07943225
-1.2642867e-12,0.4077584,-1.0707638e-12,-0.089688234,3.235624e-10,1.9013312e-08,-0.5168172,1.015703,-0.40971914,-0.010847785,0.01669224,0.4274624,0.28044394,0.019986875,-4.4226844e-09,-1.0000117e-09,-0.8194362,-0.6636051,0.8744326,-9.803696e-13,0.16635102,-1.1969357e-07,1.0834131e-05,-2.414161e-13,0.7585669,-0.28548682,2.8224726e-13,2.715806e-09,-2.1096764e-12,0.24854158,0.17957847,1.639193e-13,-0.0971419,1.3273399e-14,-0.5237948,0.45789877,-3.4653975e-14,-1.3902387e-07,4.1068454e-11,-0.6191626,6.931044e-13,-0.964271,-7.721907e-13,-0.1360358,3.1343833e-10,3.91836e-09,0.16475858,-0.3080067,0.12100307,0.46033013,-0.13923842,-0.17273106,1.6709613,0.0020829544,-1.7430011e-09,1.2147279e-10,-1.2205863,0.07961662,-0.9564264,2.6473498e-12,0.12481611,-1.9044028e-06,-2.259229e-05,1.9164211e-13,-0.10313792,0.49037147,1.2945486e-12,1.1827151e-08,2.8710632e-12,-0.14494254,0.81577647,6.296307e-13,-0.21454684,7.7793306e-13,-0.54784405,0.95860565,4.0247726e-14,-1.5913688e-08,4.67161e-10,-0.98036176
4.0879583e-13,0.35962206,6.617462e-12,0.60977256,-4.816877e-10,5.0377373e-08,-0.39804956,0.9378065,0.3105969,-0.33500808,-0.8230605,-0.08401029,0.0002196068,0.009598356,-2.668376e-09,-5.1200322e-11,0.05677988,0.17739977,0.8520558,-9.467753e-13,0.443537,2.8110296e-06,-2.0083957e-05,4.173384e-13,0.79835397,-0.2571804,-7.5190147e-13,3.522413e-09,-4.3539925e-13,-0.14168899,0.54315984,-5.024864e-13,-0.063894555,-1.16056795e-14,0.08157448,0.43327373,-4.605924e-12,1.9749764e-08,-5.7648125e-10,-0.23869327,1.4942041e-12,0.27617538,-1.0069492e-11,0.35229725,3.286905e-10,1.8719604e-08,0.16939394,-0.32665026,-0.5911756,-0.6287294,-0.2309131,-0.2685051,1.0910687,-0.00017389425,1.787045e-09,4.9666313e-11,-0.7663442,0.18232085,-1.1114839,2.1107992e-12,0.13724184,-8.4279367e-07,1.949005e-05,-3.3384263e-13,-0.35454312,-0.25054163,1.2617593e-13,5.0806834e-09,-8.5841447e-13,1.2322617,0.34104863,-5.4670683e-13,-0.019704068,1.5533256e-13,0.19793871,0.01813578,1.7983374e-12,4.337583e-09,1.4422323e-09,-0.26571772
-5.771078e-14,-0.09291288,-2.5972714e-14,-0.64391035,3.0761858e-09,6.6748896e-08,-0.5029341,0.03395807,0.7816157,-0.68345,0.18609373,-0.22399257,0.07239359,0.018759668,-3.2505707e-09,1.2798741e-10,-0.076203704,-0.5204804,0.81675935,-1.9550377e-13,0.21926208,6.6645994e-06,-1.2805318e-06,5.3811925e-13,0.68838817,-0.014763068,1.6260683e-13,-6.3647736e-09,1.606171e-12,0.2718447,-0.7020813,-3.915989e-15,0.14843982,3.0333602e-13,-0.43702984,0.7165294,1.4689946e-12,1.9770443e-08,-8.111143e-10,0.58108705,6.1559454e-13,-0.277003,1.361339e-11,0.99354625,3.3899333e-10,5.4966673e-08,0.028224312,0.3023448,-0.35574687,0.1933167,0.291374,0.12143673,1.025699,-0.009300895,-1.5734039e-09,4.2412973e-10,-1.2415974,-1.1265264,-1.2106426,3.858997e-13,-0.100775525,1.7106902e-05,5.435537e-06,-3.8137882e-13,0.089170456,-0.22034587,-5.9576405e-13,-2.3994953e-09,2.2009217e-12,0.6615583,-0.22759666,-9.1038396e-14,0.3278142,-8.854047e-13,0.47335458,0.3729828,1.3174037e-12,5.8546412e-08,6.582384e-10,-0.41761428
-8.6796385e-13,-0.00090282783,-1.1487187e-11,0.08420204,6.693708e-10,-2.393754e-08,-0.72477555,0.7993696,-0.16859931,0.19595121,0.16492483,0.004853337,0.33438554,0.0078451,6.9782674e-10,7.062962e-10,-0.25350004,-0.022637745,0.6585566,1.8793132e-13,-0.12065462,-1.0980924e-06,-2.3142375e-05,2.9844326e-13,-0.039805174,-0.05130537,3.8026385e-13,-3.2876057e-09,-1.3769643e-12,-0.30002344,-0.49695072,-3.0326298e-13,0.041815646,8.796054e-13,-0.9437189,0.63816345,-2.3374813e-12,1.9223895e-08,-1.7141312e-10,0.008905532,-6.4819965e-13,-0.050763518,-3.0948774e-12,0.17045856,-8.207562e-11,2.0731266e-09,-0.13902995,-0.20352669,-0.6836843,0.0034614494,-0.30083326,0.06748101,0.29035607,-0.00078293326,3.3381453e-09,-3.1004052e-10,-0.6319734,0.30895206,-1.3479525,1.7043964e-12,0.16249356,7.8313354e-07,3.5966013e-06,4.4916517e-13,0.41214785,-0.04485362,-1.6372892e-13,5.023162e-09,1.4839967e-12,0.3735908,0.0917721,3.2671896e-13,0.0057738684,-3.1889392e-13,0.1435881,0.36117786,-2.698165e-12,-1.0053254e-08,2.383186e-11,0.6279809
1.2252959e-13,0.42642078,-8.4015486e-12,0.32404402,4.3112386e-10,3.789968e-08,-0.6958628,1.0789747,0.08399944,-0.20602937,-0.47032756,-0.35235056,0.70623267,-0.005188564,-3.5481524e-09,-8.5416424e-10,-0.35566935,-0.37173092,0.36324424,2.5462462e-12,-0.009247055,-7.1887207e-06,8.582023e-06,-3.1756607e-13,-0.62070954,-0.46125326,-2.3104923e-13,4.4846296e-09,-1.1679951e-12,-0.31812656,-0.1971483,-2.0069913e-13,0.0038649174,-6.783051e-14,-0.11771726,0.28128585,-2.1428592e-12,-1.6083982e-08,-5.5813637e-10,-0.59998137,4.5825106e-13,0.7462618,-8.523067e-12,-0.48119238,6.6220074e-10,-4.3862755e-08,-0.100334056,-0.4680135,0.13029721,0.18752572,0.027440555,-0.040811315,0.7903879,0.005967136,1.7968156e-09,-7.7149e-10,0.29529563,0.07468027,-0.7714961,-2.7004289e-13,0.08707615,-7.967428e-06,5.654051e-06,-4.0480087e-13,-0.0541695,0.33079606,4.8872766e-13,-8.185668e-09,1.9106136e-12,-1.0924712,0.53934467,-2.1790477e-13,-0.1439853,2.765802e-13,-0.4835167,-0.04649195,-1.1739652e-12,8.498784e-10,-4.674745e-10,0.20497121
-9.634703e-14,1.7511033,-1.9953258e-12,0.42905563,3.260818e-09,2.9129435e-08,-0.8054907,0.2564548,-0.17639415,-0.07531642,-0.6641673,-0.27140936,0.40472165,0.008621557,4.6975273e-09,-3.0841335e-10,-0.43855995,0.17021573,1.077698,2.7176495e-12,0.0062713735,2.792481e-06,-2.524077e-05,-1.2764533e-12,-0.46881524,0.20531216,6.658725e-14,-3.240163e-10,-3.124984e-12,0.28107953,-0.2740201,-5.0094165e-14,-0.047098126,-5.9294914e-13,0.50253713,0.21026143,4.0025956e-12,-2.471651e-08,-1.3220817e-10,0.10313596,-5.863725e-13,-0.32891315,4.7833287e-12,0.07065335,-4.384429e-10,-3.56561e-08,-0.50979614,0.31086412,-0.007881358,0.58677804,-0.80161697,-0.15862484,1.4148922,-0.010902178,-3.8508747e-09,-1.5594129e-10,-0.31632784,0.6139923,-0.9224506,2.7611266e-12,0.73544514,1.0004377e-05,9.207177e-06,6.232304e-13,0.38316035,-0.10463909,-2.100557e-13,1.1724141e-08,-6.918643e-13,-0.35947,0.4209825,9.277862e-13,-0.04904874,7.3502245e-13,-0.7019311,-1.2449998,-5.2478126e-12,-1.18378125e-08,8.3776375e-11,1.0949631
-4.215726e-13,-0.095114924,-7.407878e-12,-0.57689625,-1.7043751e-09,-7.9138864e-08,-0.85422915,0.25503173,0.6414906,0.21762799,-0.48607334,0.46924672,-0.36981648,0.031436782,-3.1046504e-10,6.442574e-11,-0.13632144,0.49741575,0.6852944,3.3085288e-12,0.37596506,-1.7199591e-07,4.9963823e-05,-3.5350008e-13,0.078320615,0.6786943,1.0122043e-12,4.923021e-09,-1.640639e-12,0.3023618,-0.6867895,4.4052056e-13,-0.35305887,-2.1676768e-13,-0.8242342,1.1044567,-1.6523443e-12,4.4097316e-08,9.614158e-10,-0.36883664,1.553826e-12,0.6810516,-1.083567e-11,-0.39349052,1.2015103e-09,2.2546491e-08,-0.44765353,-0.46914148,-0.12204802,0.17613745,0.13455173,0.47927517,2.180553,-0.015766954,3.546286e-09,-5.665883e-10,0.040044513,-0.68290794,-0.648841,1.0601835e-12,0.33839974,-1.1282566e-05,7.9725705e-06,-3.5202844e-13,0.655357,-0.20669179,-3.8981513e-13,1.1683124e-08,-5.800538e-13,-0.15932946,0.027111925,-7.2790797e-13,-0.36065745,9.894795e-13,0.29052573,-0.2041134,5.933452e-12,-4.8785687e-08,6.62499e-10,0.3220597
1.6803519e-12,-0.00095600216,-1.0894764e-11,-0.45258686,-2.2053964e-10,3.0758742e-09,-0.3390222,0.47881827,0.21006805,0.37683463,0.12720212,0.44611043,-0.054917954,-0.0034582287,-2.7265281e-09,-5.603137e-10,-0.4678792,-0.21878901,-0.055768587,-2.7112806e-12,-0.3965913,-1.774369e-07,7.023975e-06,3.3841536e-13,-0.02214271,0.2976951,-3.2487698e-13,-2.8242495e-09,-7.836719e-14,0.7726209,-0.19359052,-2.615004e-13,0.05671823,2.1813703e-13,-0.2971803,1.1457179,-3.4259227e-13,7.3476576e-09,9.756325e-10,-0.2732671,6.746463e-13,0.09564006,-1.0090892e-11,0.32780406,1.0545813e-10,-2.1267473e-08,-0.30134875,0.11202183,0.44975576,0.27501115,0.31030068,0.1765095,1.8595853,0.004400692,-1.3055337e-10,3.915253e-10,-0.5886435,-0.022663407,-0.6434405,1.409207e-13,0.09892857,-1.108478e-05,1.2901111e-06,6.2607986e-14,0.774213,-0.10036136,-9.191354e-13,-1.7497943e-08,1.1032988e-12,0.85757244,-0.3292988,1.2885038e-13,-0.008592668,7.526385e-14,0.731166,0.31305617,-5.9158516e-14,-3.715254e-08,5.0528487e-10,0.08761406
3.41605e-16,-0.13593537,4.2940787e-13,0.08340569,5.5300986e-11,-2.8039445e-08,-0.42352286,1.0041953,-0.35521767,0.9846949,0.87313235,0.11426598,0.13864228,0.0054576173,4.401767e-09,5.020916e-10,0.09146821,-0.37865108,0.6582187,1.2497418e-12,0.023970589,2.0792638e-06,-1.1078996e-06,-6.1616646e-13,-0.41294196,0.21589723,-8.086048e-13,-4.850129e-09,-9.916669e-13,0.12693301,-0.9318718,-2.4661723e-13,-0.041271906,-2.0830428e-13,-0.15627445,1.161833,2.613773e-12,-6.0088354e-08,-1.0927584e-09,-0.07748337,8.716736e-13,0.7605075,-1.24704205e-11,-0.16390122,-3.568708e-10,-3.889688e-08,-0.76907927,0.17622271,-0.4641606,0.36835685,-0.09414753,0.12677103,0.9025728,0.0043633934,-2.4459934e-09,5.635874e-10,-0.42440456,0.037749562,-0.08792634,5.803388e-13,0.121355645,1.076367e-06,2.4278621e-05,-1.4353324e-13,1.221661,-0.17969953,-1.1937452e-12,-3.504371e-09,1.1106567e-12,-0.35211885,0.05176454,5.416404e-13,-0.11751389,7.3386485e-13,-0.4210211,-0.25175986,-2.3827195e-12,1.9066206e-09,9.018089e-10,0.134788
-1.0580978e-12,0.20667124,-4.0986303e-12,0.30493,-3.1683605e-09,7.665433e-08,-0.69595975,0.718945,0.39114857,0.40385514,0.0009275498,0.14200841,0.110203885,0.0016776905,-6.262836e-10,2.930911e-11,-0.50181484,0.09776744,0.15752152,-5.1573736e-14,0.28031635,1.9665904e-06,-9.5269604e-07,-3.557757e-13,0.6860189,-0.3856904,-2.177884e-13,1.3508346e-09,1.0305754e-12,0.25337037,-0.7461688,-4.9856186e-13,0.04669261,4.020921e-13,0.20745079,1.1274778,-1.8929875e-12,-6.852797e-08,8.5083435e-10,0.06275077,-8.4598626e-13,0.25850105,-2.895417e-12,-0.501835,-2.2940025e-11,5.155974e-08,-0.6445454,0.7275168,-0.23370598,0.34467348,-0.21246439,-0.3623009,0.70683587,-0.0026408567,3.843453e-09,-1.1786095e-09,-0.40647447,-0.1399937,-0.7037966,-1.9397817e-12,0.064009085,-3.5858186e-06,-1.4466363e-05,-4.0319655e-13,1.0139477,0.44424865,3.8242358e-13,-1.6268274e-08,-2.0076275e-13,0.34838948,-0.4105415,2.774827e-13,0.3246538,-2.0187411e-13,-0.013008002,-0.089361705,1.2706378e-12,-7.762555e-09,1.2705753e-09,0.05373269
-4.0306804e-13,-0.65021545,-8.1538856e-13,0.2699575,-5.721452e-10,-3.608449e-08,-0.4778947,0.23596098,0.65071267,-0.02599506,-0.35983497,0.6287728,0.7255616,0.02080614,2.638051e-09,-1.5780568e-09,-0.0020971783,-0.19084989,0.8416577,1.1487596e-12,-0.3941821,-1.3945594e-06,1.6429789e-05,2.7805912e-13,0.13581152,0.0021923783,6.2300203e-13,4.8833084e-09,-3.642747e-12,-0.8457941,-0.5600334,-4.6249007e-13,-0.22697699,-1.0234541e-12,-0.44502378,0.6383069,-2.8593772e-12,1.7470926e-08,-6.7588396e-10,0.15914854,8.5877453e-13,1.0125194,-6.4427487e-12,0.08544976,1.8997742e-10,5.722107e-08,-1.2252961,-0.21550801,0.33133602,-0.5599488,-0.4156615,-0.057773538,1.187492,-0.00912295,-3.0408447e-09,8.149712e-10,-1.1354618,-0.23024477,-0.94279766,2.6329637e-12,0.51304895,-4.455133e-06,-2.5724742e-06,4.4323995e-13,0.20758787,-0.58166325,4.551833e-13,-5.797042e-09,1.0020976e-12,0.1735212,-0.6655916,-1.7078682e-13,-0.19716164,-2.0631917e-13,-0.052681465,-0.37454736,-2.3875416e-12,-2.646484e-08,1.736511e-10,0.28395012
-1.0817264e-13,-0.7945522,1.2758024e-14,0.86366993,1.5552052e-09,8.468423e-08,-0.35541728,0.437301,0.21383417,0.38481972,-0.037854247,-0.44459945,0.1909659,0.004445145,1.6292632e-09,-2.777334e-10,-0.20995519,-0.114617825,0.4965201,-3.097448e-12,0.54448295,1.1742312e-06,-4.4367356e-05,1.645062e-13,0.71376896,-0.104111366,-8.421683e-13,1.5239598e-09,3.9741127e-12,-0.40270868,0.27198055,2.7253427e-14,-0.2180453,-2.073635e-13,-0.28080055,0.9206253,-3.1801983e-12,-2.035576e-08,2.2402843e-10,-0.1963365,-1.0790739e-13,0.03908198,-1.469109e-12,-0.5640534,-1.7206131e-10,-9.7834786e-08,0.88783056,-0.17805928,0.25321165,-0.6170672,0.013426935,-0.042583518,1.569965,2.8448005e-05,7.5220996e-10,-6.8042974e-11,-0.99898607,0.4857397,-0.78602546,-2.6365054e-12,0.7325081,7.468019e-07,-2.6571102e-05,1.5625988e-13,-0.23253497,-0.12743147,-6.5979785e-13,-4.462941e-09,1.5685762e-12,-0.0020829495,-0.48180684,-3.7669726e-13,0.18537481,4.5378783e-13,0.24994168,0.21453156,1.2520822e-13,-1.2151008e-07,1.0342113e-09,0.07004163
-1.7695955e-12,0.26530683,7.286425e-12,0.33578348,1.7276667e-09,-5.1882996e-08,-0.13222755,-0.029108029,0.6633133,0.15004736,-0.33467546,-0.42399418,0.083599016,-0.0028521547,-4.2675394e-10,-4.8968035e-10,-0.59952366,0.084528275,1.0024854,-2.1652302e-12,-0.49911457,-3.5043133e-06,-3.3997414e-05,-2.3199932e-13,0.62540233,-0.5587524,-1.0222474e-12,-1.13759775e-08,-2.544731e-14,-0.45880726,-0.47719833,-6.7191874e-13,0.18190369,1.1324138e-12,-0.92430407,1.0633286,2.866047e-12,-1.1318347e-07,-1.2887217e-09,-0.18646583,-2.808687e-13,0.33431527,-4.2640978e-12,-0.39179605,-1.4421738e-09,-1.05296955e-07,0.84565896,0.6065587,0.71463495,0.15153548,0.0025033485,-0.51313525,1.6750274,-0.0011043424,9.039844e-10,-4.261485e-10,0.60302776,0.017974757,-0.96846527,2.3248645e-13,-0.038410954,-7.813858e-06,2.2998624e-05,9.939298e-13,-1.41062,-0.32621783,-5.704585e-13,9.731478e-09,1.5561511e-12,-0.31128925,0.26434934,-1.392791e-13,-0.019812547,-1.8513511e-14,0.17329684,0.34440705,8.7813545e-14,5.290759e-08,8.728858e-10,-0.42024666
-1.7037222e-12,0.10574645,3.496388e-12,-0.5577807,-1.2301133e-09,1.5389457e-08,-0.81806356,-0.22444627,0.32891384,0.35035312,-0.49578166,0.23872896,0.30348238,0.020516153,-7.4977247e-10,-7.6474543e-10,-0.6309893,0.6608506,0.81140804,-2.211229e-12,-0.120288745,1.3579102e-06,3.2977765e-05,-2.2480058e-13,0.8482975,0.4112065,-1.4168402e-12,1.44639705e-08,9.158566e-13,0.272043,0.037268464,-6.0170537e-13,-0.19592614,-3.9762258e-13,0.7120908,0.5504607,1.1129596e-12,9.615118e-08,-9.814572e-10,0.26670235,1.1095739e-12,-0.47205463,-1.4268427e-11,-0.7259662,6.701411e-10,5.971692e-10,-0.0969613,0.30123898,0.17034027,0.77094465,0.72578186,0.34436947,1.4425272,-0.014480687,2.0190536e-09,2.7929277e-11,0.7077518,0.3931886,-0.5851368,-9.275507e-13,0.23357196,-2.4558121e-06,1.7060805e-05,8.753073e-14,-0.6341377,-0.7414625,1.2516987e-12,-8.481377e-09,1.1481207e-12,-0.658805,-0.34878388,-2.1542626e-13,-0.45628768,2.7894383e-13,0.9303034,-0.44928777,-2.657271e-12,-7.254444e-08,-2.8602665e-10,0.44379514
-1.3553142e-12,-0.47829038,-3.3605388e-12,-0.23988277,2.052717e-09,-2.8430427e-09,-0.26211977,0.046201568,0.2861808,0.5602139,-0.11711316,0.66384125,0.29621562,-0.028391693,9.270429e-10,4.3879064e-10,-0.5642166,-0.7581006,0.8340571,1.3289989e-12,-0.44975358,-3.86425e-06,-4.554565e-05,-5.599698e-13,0.50315166,-0.8753147,-3.6519182e-14,5.1924984e-09,-1.5911816e-13,0.17210066,0.059675716,4.823952e-13,-0.07822255,9.43695e-14,0.5952051,0.3751686,-1.1632886e-12,2.7190609e-08,4.961522e-10,-0.11281159,-2.592689e-13,0.7331144,-1.958459e-11,0.5506683,-4.3025326e-11,6.798303e-08,0.5024461,0.25778636,-0.21692349,-0.25982893,0.21024024,-0.050938662,1.6458147,0.007658339,2.944297e-09,-4.3053489e-10,0.3511259,0.2402078,-1.1314712,-1.3747718e-12,-0.78822917,4.0454224e-06,1.614803e-05,1.9594e-13,-0.4968489,0.23098424,3.546601e-13,-8.464712e-09,1.756354e-12,-0.20781647,0.06503865,1.2482374e-12,0.3517217,-9.706761e-13,-0.24659912,0.26693964,-2.9387846e-12,-5.6940635e-08,-5.9860855e-10,0.82365537
4.861669e-13,0.10213175,-2.7444596e-12,-0.5631912,5.6435556e-10,3.5923343e-08,-0.23230848,0.2272875,-0.47564718,-0.6175422,0.006868206,0.25109956,0.28804135,0.002240758,-9.1817176e-10,4.3598436e-10,-0.31036985,0.24574012,0.14629753,-3.5110277e-13,-0.40780878,1.9876443e-06,6.158519e-06,1.4227874e-13,0.5261901,0.31739298,-8.284235e-13,2.01485e-09,-1.4081075e-12,-0.74935085,0.17919749,3.8735272e-13,0.056996163,6.1132273e-13,0.077310994,0.4012514,-4.4325839e-13,2.7132746e-08,-1.3382016e-10,-0.29614565,-5.2829247e-13,-0.34071496,1.2796681e-11,-0.18953788,-1.1963103e-09,-6.924366e-08,-0.02643591,-0.40949675,0.256276,0.02897383,0.10829563,0.020872377,0.7771466,-0.0015023309,-2.5980922e-09,-1.1681417e-10,-0.14339942,0.09977094,-0.58480227,-8.6394043e-13,0.11870849,2.6117182e-06,2.4833409e-05,-2.1544309e-13,-0.013499032,0.12716547,-2.2510108e-13,1.6212394e-09,-1.1363746e-12,0.45538446,-0.3201543,-4.3028103e-13,-0.031269073,8.492788e-13,0.20831092,-0.08224536,3.8585357e-13,4.1812783e-08,-5.847885e-11,-0.47207943
7.467756e-13,-0.4992165,3.730496e-12,0.084479325,8.7780505e-10,4.2761236e-08,-0.65287346,0.61002564,-1.0467628,-0.39743504,0.075332694,-0.12613942,0.5513162,-0.0030721505,-1.4397936e-09,3.1050607e-10,-0.20030041,-0.48630086,-0.18362729,1.837064e-12,-0.08688697,3.7188424e-06,4.2636824e-05,7.285722e-14,1.0383246,-0.16900973,-5.319187e-13,1.8633473e-10,7.2423426e-13,0.40299833,0.14237526,1.717212e-13,0.13106683,-1.3552043e-12,0.13582987,0.07016296,3.1330004e-12,4.492433e-08,-5.975827e-10,-0.6223681,4.0832732e-13,0.7517763,1.8705133e-13,0.13121367,-2.3388064e-10,-3.2881378e-08,0.6433724,-0.2499019,0.46067435,-0.015030336,-0.34993485,0.22712238,1.3156931,8.2339875e-06,-3.077089e-09,-3.9092246e-10,0.113332875,-0.18788627,-0.6459741,-4.2847198e-13,-0.51107144,2.8772834e-06,-8.715972e-06,-3.868537e-13,-0.5890663,-0.77240247,2.3535164e-13,-4.7056927e-09,7.204515e-13,0.063976176,-0.5008672,2.44332e-14,0.008028069,2.5586705e-13,-0.31294274,-0.21662427,-3.3992566e-12,2.921757e-08,2.7565933e-10,0.68588656
-5.27363e-13,-0.9293707,-1.0121204e-12,0.1243104,-1.4124149e-09,-2.5494932e-08,-0.12562199,-0.94796795,0.89171433,-0.19163142,-0.12498428,-0.1828367,0.6034018,0.0065600285,-3.233823e-10,-1.0490471e-10,0.013254374,-0.1286576,0.9604652,5.338638e-13,-0.74892336,-1.4044385e-06,-4.4830267e-06,1.9297849e-13,0.7153435,0.27818924,-3.5418944e-13,8.716824e-10,-1.1614171e-12,0.7533908,0.29486188,2.3451038e-13,0.027501673,3.215728e-13,0.5074683,0.79387677,-6.434573e-13,-2.8404434e-08,-3.7006753e-10,-0.5455029,-9.672634e-13,-0.12576666,-1.1790345e-11,0.13129583,-1.7323433e-10,-3.4813162e-08,-1.2413597,0.63705665,0.26937944,-0.13245326,0.015926784,-0.24062152,0.98305684,-0.008131173,4.717935e-10,-3.473649e-10,0.22018108,-0.3078485,-0.89283633,2.8204622e-12,0.15967506,1.6869742e-06,2.1812e-05,2.0823902e-13,0.5452954,0.1938174,3.4332446e-13,7.860464e-09,9.0568395e-13,0.49960637,0.13215251,-8.461534e-14,0.11442758,8.599753e-13,0.22860491,-0.17838302,-1.4361827e-12,-2.7899862e-08,-6.651911e-10,-0.24719171
3.1429668e-13,0.2541569,-1.1073069e-11,0.044981435,-2.7993903e-09,4.5679464e-08,0.071211025,-0.59312034,-0.17224033,-0.17172913,-0.4676038,-0.48700574,0.13868561,-0.013906355,3.905102e-09,-2.4592345e-10,-0.113243654,-0.07669397,0.9050873,-3.8384432e-13,0.23560937,8.320928e-06,-9.0262965e-06,-2.0666552e-13,-0.8518921,0.9788317,1.3464378e-12,-7.129488e-09,-2.4386296e-12,-0.31341693,-0.34678432,-2.80622e-13,0.17119361,-4.1090975e-13,-0.18044122,0.68988013,-2.8587748e-12,1.2980166e-08,-7.4616296e-10,-0.39416835,-7.677271e-13,-0.40589496,-8.767511e-12,-0.009201646,1.7532165e-10,-5.4257555e-08,-0.45084992,0.31255832,-0.39244276,-0.7104422,0.31755304,-0.1202337,1.1829371,0.006556135,-2.912026e-09,-4.59808e-10,-0.42450413,-0.11773932,-1.023891,-3.0100963e-12,-0.11641,-8.805807e-07,-4.324538e-05,1.0777821e-13,-0.09736569,0.0039780093,-3.5574072e-13,-1.3712565e-08,-1.2256903e-12,-0.51172227,0.06488417,9.55832e-13,-0.025392946,1.6010766e-13,0.02323822,-0.9964604,3.4085817e-13,-3.1083694e-08,4.830837e-10,-0.18729141
8.3191955e-13,0.5161713,-4.6498955e-12,0.29486117,9.327983e-12,-5.6211082e-08,0.8910741,-0.2702831,0.13103446,0.48338208,-0.556459,0.12715384,0.94773597,0.000115238654,3.1683246e-11,-3.0641606e-10,0.24453495,-0.3475946,0.40918174,2.4154398e-14,0.09206187,-1.1809923e-06,-1.5454203e-05,-5.109855e-13,-0.23204878,0.07778935,-9.638743e-13,2.2964382e-09,1.1752847e-12,-0.38396424,-0.99519783,4.5187001e-13,0.023384433,-3.670045e-13,-0.3309743,0.3731112,-3.5574228e-12,-2.1105878e-08,2.0809873e-10,0.3459013,-3.2580134e-13,-0.21472411,2.2462266e-12,0.40495583,8.120774e-10,3.229483e-09,0.75808823,0.42694873,-0.30535346,-0.045306362,-0.24751343,-0.19918399,0.5431572,0.0023372842,-3.7465675e-09,4.737722e-11,0.122915946,-0.002372114,-1.0831493,3.7353318e-13,-0.5549729,5.3009165e-07,1.15984676e-07,-3.805223e-13,0.58865196,0.18701358,1.562839e-13,-1.6703413e-09,1.1499991e-12,0.03566026,0.8411904,-3.5671571e-13,-0.03949769,5.7950655e-13,-0.50102735,-0.84402585,-6.6412045e-13,4.1818105e-11,-1.869721e-10,0.32402918
-1.3790325e-12,-0.13075131,5.0189497e-12,1.124632,-3.4502685e-09,-4.161921e-08,0.97618437,-0.18379718,1.1308987,-0.29053771,-0.7203869,-0.022696916,-0.011614084,0.005088071,-4.6125903e-09,-4.4854237e-10,-0.3150593,-0.17833546,0.9347038,1.846071e-14,-0.80410814,3.4079708e-06,-7.450481e-06,-7.388984e-13,-0.77892417,0.113540635,7.1738074e-13,-8.35639e-09,-1.6952063e-12,0.26485714,-0.8949871,4.6941964e-13,0.08610082,-5.293329e-14,-0.27122736,-0.10245558,-2.9443644e-12,-4.0285997e-11,1.7847337e-10,-0.24494022,-9.131901e-13,-0.2658815,-8.462385e-12,0.73453397,-1.1269493e-10,-4.5074536e-08,0.4483641,0.3857525,0.81005347,-0.22655654,0.20513017,-0.07531771,1.5850965,-0.0021195873,-4.305035e-09,-1.8252408e-10,-0.539202,0.89107955,-1.3158541,2.7533386e-12,-0.18933557,7.2592643e-06,-1.8733688e-05,3.3496212e-13,0.043966148,0.059943877,-1.8872158e-13,-1.409093e-09,-1.2401572e-13,0.22888595,0.014626105,4.2088132e-14,-0.0823926,-2.438157e-13,0.47480687,0.07161764,-6.835511e-13,-2.9812323e-08,3.479956e-10,0.08525647
2.2714343e-12,0.5911773,9.636908e-12,0.055168204,8.2803636e-10,-6.296729e-08,0.8478955,-0.029480822,0.2782578,0.16894373,0.7421474,-0.19605821,0.30045223,0.006402422,6.9850337e-10,1.0984332e-09,0.06551005,0.62737656,0.44588995,-1.3884336e-13,-0.26110414,-1.7587894e-06,-1.5926435e-05,-2.1061863e-13,-0.18129009,0.15799902,3.9631802e-13,-1.1992359e-09,8.954005e-13,0.557776,-0.08748452,-2.1525427e-13,-0.11003958,3.9783064e-13,-0.529559,-0.040224172,8.072286e-14,-2.2336414e-08,-5.7072785e-10,0.3450726,-1.2765628e-12,0.34949595,-1.20533705e-11,0.25672036,5.7157834e-11,-4.52338e-08,0.34025854,0.422644,0.74766296,0.67967355,0.13499628,0.27784577,1.1819594,0.0024266634,5.543956e-10,-2.2107524e-11,-0.9729056,-0.2728544,-0.640727,1.0903689e-12,0.8059006,-8.390606e-06,-4.005334e-05,2.7872976e-13,-0.776607,-0.20241693,-1.0710076e-12,-7.707815e-09,-1.0598761e-12,-0.59993154,0.87018615,4.0091186e-13,-0.12816492,4.8412847e-13,-0.24728172,0.25933215,6.010024e-13,-6.076821e-08,6.5656494e-11,-0.00723508
-6.626713e-14,0.3319016,6.0029043e-12,-0.43925694,-1.7373645e-09,3.506568e-09,-0.5985334,0.15798129,-0.075333364,0.15206128,-0.4337594,0.9475422,0.955707,0.02553243,-1.5564204e-09,4.6283544e-10,-0.5823854,-0.55099577,0.558192,-3.1097304e-14,-0.00856408,8.154518e-08,2.1735052e-05,-2.5384783e-13,-0.91075414,-0.10609185,5.6196134e-13,-1.7647008e-09,-7.5145353e-13,-0.06767997,-0.036329195,3.033999e-14,-0.12485825,9.525889e-13,0.5557732,0.098626055,1.7955069e-12,8.074277e-08,5.43171e-10,0.2281387,-4.4070135e-13,0.3258671,-5.878945e-12,-0.06384539,1.187415e-09,8.122504e-09,0.14394838,0.14388524,0.2837243,-0.5628075,0.38791192,0.22281879,1.2264755,-0.018897202,5.0008637e-09,3.3533243e-10,0.18869711,0.02633737,-1.241875,-9.544646e-13,0.53166103,-4.828181e-07,1.5539629e-06,3.1380416e-13,-0.7788094,-0.0954811,1.0843855e-12,2.9745226e-10,2.2331133e-13,-0.8334412,-0.041610043,-2.040462e-13,-0.13819996,-7.9696644e-13,-0.55619305,0.545166,1.6502507e-12,-2.7926387e-08,2.0497415e-10,0.22932662
2.9076654e-13,0.04175662,-2.5438566e-12,0.11484507,-1.3075572e-09,-5.355467e-09,0.15441206,0.49386874,0.1934835,0.0781813,0.29400164,-0.011251476,0.6307525,0.0048018685,-8.582592e-10,1.469331e-10,-0.09802523,0.024784204,0.3513215,-1.1652119e-12,0.0064125275,-4.2240987e-07,6.5648887e-06,5.100788e-13,-0.5144605,-0.07581107,7.125469e-13,-4.240235e-09,1.4949866e-12,0.017767865,-0.70545566,-4.412188e-15,-0.04401599,6.380892e-13,0.2734269,0.38389942,-2.7362088e-12,5.0613216e-09,1.4285079e-10,-0.12624551,1.6105727e-12,-0.18341725,-2.336374e-12,-0.13930617,3.4539657e-10,-9.908112e-09,0.42394263,-0.28732505,-0.2311939,-0.24503028,0.28222558,0.014922794,0.26432234,-0.00080018415,6.9279543e-10,5.976596e-10,-0.016682083,0.1370608,-1.2428646,1.412695e-12,0.18012345,-3.5960134e-06,-2.8542547e-06,3.2535972e-13,-0.8004722,-0.18125512,-6.086628e-13,1.872445e-09,1.927698e-12,-0.13993375,0.77092767,4.4642957e-13,0.021418588,2.6918802e-14,0.037118845,0.21115805,-1.1158479e-12,1.0307351e-08,-1.3835316e-10,0.1538318
1.4821787e-12,0.09098012,4.248932e-13,-0.6181483,-2.084273e-09,4.2570047e-08,0.6383538,0.30418837,0.4226473,-0.21327773,0.49369752,-0.35430622,0.49093068,-0.0065375776,4.1940684e-10,2.9269626e-10,-0.42116413,-0.051965643,0.45367366,-1.0698734e-12,-0.328971,7.6839837e-07,4.8443882e-05,-2.5909185e-13,-0.72471875,0.2582861,-2.0252897e-16,-9.642154e-09,-4.7083322e-12,-0.6441258,0.1427663,-1.3753555e-13,0.41723526,-7.5216905e-13,0.32997853,0.8685078,1.1421542e-12,-5.3337832e-08,6.814622e-10,0.17847383,6.3785414e-13,0.28238598,2.4174321e-12,1.3854634,1.7803842e-11,-1.3412351e-09,0.9470508,-0.22255969,-0.25715727,-0.018349234,0.16918832,0.35423803,1.4192907,-0.00089363655,-1.9746125e-09,2.1935724e-10,-0.45548117,0.425688,-0.36615592,2.464232e-12,-0.0042592566,-2.0369494e-06,1.2139398e-05,9.315514e-14,-1.2199932,-0.007575752,1.2050278e-12,-1.4716895e-08,-8.17699e-13,-0.3864509,1.2248031,-4.3727923e-13,-0.13723786,4.2942527e-13,-0.15700333,0.67034554,6.011075e-13,-4.5533344e-08,-5.809391e-10,-0.7359122
2.9722644e-13,0.10611633,-2.0887944e-12,-0.6421145,-4.0018272e-10,1.7276932e-08,0.26725847,0.54855716,0.002477862,0.1953851,0.22872353,-0.18829967,0.7962789,0.0025060792,-5.647973e-10,-2.674248e-10,-0.46926263,-0.29566208,0.080208346,-7.937119e-14,-0.14595753,-8.095275e-07,-9.114925e-06,7.6641666e-13,-0.36516124,-0.044348657,-2.865221e-13,4.2233803e-09,1.4719189e-12,0.13428704,-0.34136024,-9.2560454e-14,0.04948131,-1.0604779e-13,0.41755572,-0.07804377,2.773449e-12,-2.4321889e-08,-7.2430284e-10,-0.9623058,2.1000505e-13,-0.36580008,9.7718725e-12,-0.48421174,-5.4912025e-10,3.0393416e-08,0.050349597,0.687681,0.32508808,-0.6911964,-0.14624262,-0.15125327,1.0979878,0.00037696294,1.2467324e-10,9.816237e-11,-0.20541474,-0.38824672,-0.63260597,1.353065e-12,0.4322216,-3.319792e-06,5.617746e-06,1.231445e-14,-0.9410641,0.18779826,2.3773423e-13,5.7162035e-09,1.3229621e-12,0.17609932,0.40451527,-4.466185e-13,0.08542314,-4.9703656e-14,0.28184253,0.15252572,7.598718e-14,7.122206e-08,2.387965e-10,-0.7889162
-6.4805095e-14,0.24887913,-4.5196746e-12,-0.86468387,-6.800462e-10,-2.380121e-09,0.13000098,0.30446383,-0.020795668,0.42907158,0.49972916,-0.33218122,1.0808938,-0.0075354483,-1.8470869e-09,5.596645e-10,-0.37894613,-0.8278748,-0.5544046,2.8477118e-13,-0.06300591,7.741371e-06,-4.733451e-06,4.1113808e-13,-0.32989767,-0.049499944,1.3653184e-13,2.1522268e-09,-1.5764619e-12,0.1174975,0.81148314,2.726292e-13,-0.03557315,-1.3031844e-12,0.19675107,-0.7710875,-1.8393542e-12,-3.4607726e-08,3.4108447e-10,0.70234483,-1.5286122e-13,0.15687278,-7.732841e-13,-0.3021907,-4.2333115e-10,-9.095124e-08,0.20959695,0.5392462,-0.1754608,-0.129542,0.29247373,0.2773775,1.384711,0.001017507,-3.6910968e-09,6.179155e-10,-0.14120889,-0.29581216,-1.09565,-8.5509215e-13,0.30098265,6.1170283e-07,-1.1768556e-05,-4.6041225e-13,-0.28209248,-0.45402494,-2.8116507e-14,1.6921549e-08,2.4821226e-13,-0.22724815,-0.036730807,-6.484372e-13,0.12888467,-8.0971905e-13,-0.4244199,-0.11512619,4.039345e-13,-1.4835175e-07,-6.225902e-10,-0.038083322
-6.923428e-14,-0.057633318,5.7862313e-12,-0.24841623,4.7151216e-10,-4.2313133e-08,0.5180675,0.104377195,-0.1899585,0.16809611,0.18674843,0.27752864,0.6872619,0.009397756,2.0797053e-09,-9.616369e-10,-0.10146268,-0.8895118,0.28017437,-1.0212523e-12,-0.07197133,3.1948289e-06,-1.6432059e-05,3.6450912e-13,-0.8697265,0.63721037,-5.810664e-13,-5.4459964e-10,9.774009e-13,0.35822198,0.54909694,-1.978379e-13,-0.105390795,5.732053e-13,-0.4001424,-0.0847645,-2.438438e-12,-7.6614e-08,8.0274765e-10,0.35702246,-2.7819056e-13,0.1654644,7.54619e-12,0.06552346,4.49131e-10,9.535648e-10,0.37817845,0.79458636,-0.7058377,0.13469838,0.74576306,-0.14618042,1.2393649,-0.0027622562,3.880563e-09,3.7735615e-10,-0.3122821,-0.33261645,-1.5342035,-1.1124662e-12,0.008938527,3.880043e-06,-2.0714335e-05,1.7012764e-13,0.108844236,-0.061771713,1.1782518e-13,8.5205454e-13,1.0006102e-12,-0.20946014,0.46375436,6.6349704e-14,-0.005369963,-7.840357e-14,-1.0661348,-0.6158437,2.12101e-12,9.983054e-09,-3.0912284e-10,-0.119958594
-4.6283675e-13,-0.27400342,-1.9386879e-13,0.09877376,-8.133781e-10,1.658737e-08,0.5727233,0.94291955,-0.20817776,-0.00602502,0.13748583,-0.12137675,1.2042018,0.0035935247,1.3917795e-09,9.978222e-10,0.2037048,0.24331053,0.14807715,3.4855493e-13,0.23302726,2.1256615e-06,-1.7675979e-05,-4.2135165e-13,0.25476116,-0.48053855,1.0286615e-12,-5.0715645e-09,-1.2246866e-12,0.032205813,0.67285615,5.5743257e-13,-0.03319493,1.2637938e-13,0.21071152,-0.3575765,1.1339237e-14,-3.819335e-08,1.5605328e-10,0.013773108,-3.9165378e-13,-0.31153822,2.6134754e-12,0.20089792,-1.1857543e-10,-1.2053626e-08,0.8933292,1.0768394,-0.17518835,-0.16049762,-0.07579807,0.015951473,0.44104314,0.0014512393,8.07052e-10,-5.9514965e-10,-0.07328849,-0.1892661,-1.2734567,-5.9126976e-13,0.5771243,1.1465443e-06,1.9711182e-05,1.8210756e-13,0.006108078,-0.19598407,-4.6605298e-14,-7.0410926e-09,4.671621e-13,0.1306685,-0.039671928,-1.7411474e-14,0.035303727,-1.3667808e-12,-0.40051654,-0.09624246,1.4735422e-12,-2.856826e-10,-3.349821e-10,0.4121937
-6.051908e-15,-0.29608777,-1.0056526e-12,-0.08496122,-3.73132e-10,-6.231657e-09,-0.04972436,1.0989636,-0.56253785,-0.059000194,-0.23537052,0.014151169,1.1735307,-0.016315991,2.5347284e-09,1.0045388e-09,-0.25172132,-0.11126706,0.3481847,-2.0724412e-12,-0.10660903,4.5590923e-07,-1.2190948e-05,8.570458e-14,0.018159991,-0.30731696,4.0036946e-13,3.7627848e-09,-2.987326e-12,0.3668861,0.56379247,-4.6472114e-13,-0.2122008,-4.1666643e-13,0.47833818,-0.6527283,-7.4653695e-12,-4.7918096e-08,1.0181649e-09,0.59816873,7.04923e-13,-0.01834672,1.7520145e-11,0.6083837,1.8614492e-11,1.14014735e-08,0.7062191,0.073702484,0.19264969,-0.7781976,0.4281269,-0.3825201,1.1894251,0.007033266,7.45595e-09,8.855277e-12,0.07285893,0.38822424,-0.55614734,-4.335549e-12,0.05023232,-1.3839747e-06,2.2653987e-05,-3.824843e-14,-0.53314257,-1.2660297,8.4111624e-13,-7.566001e-09,1.4995418e-12,-0.7067033,-0.47721025,-5.9652944e-13,0.03580139,-8.2622613e-13,0.2796091,0.13889189,-5.3620884e-12,-1.0985859e-07,-4.8449683e-10,0.7510433
-1.7653956e-13,-0.8891718,-1.3916396e-13,0.43559963,-6.8994305e-10,4.3348873e-08,-0.83501697,0.2414903,0.23603036,-0.5159157,-0.3332547,0.42311382,0.47722715,0.0020169027,-4.0014894e-09,-2.3877866e-10,-0.32400364,0.5446778,0.14648023,8.136678e-13,0.40292457,-4.513506e-06,2.042364e-05,-2.5472406e-13,0.4634959,0.40397596,-4.5782513e-13,-9.432032e-09,-2.1313515e-12,-0.46211824,0.6500646,4.534157e-13,0.20647007,-1.7204986e-12,-0.27224264,-0.7917395,-3.004511e-12,-2.9229033e-08,-1.5602146e-09,0.7598761,-3.217635e-13,0.29571685,4.69679e-13,-0.53792775,5.593006e-10,-9.71897e-08,0.49755308,1.1840911,0.20862256,-0.033559192,0.41488057,0.028424107,1.5582587,-0.007874052,2.1057895e-09,-4.6561022e-10,0.12407748,0.24679238,-0.1604605,-9.814855e-13,0.3707817,-6.5014586e-07,3.2353724e-05,6.4908853e-13,0.34475794,0.07735797,-4.7407407e-13,-1.0482162e-08,-5.476957e-13,-0.54310584,-0.16238311,-1.11627016e-13,-0.3626359,5.223315e-13,0.16949107,-0.13062367,9.896734e-13,4.1620343e-08,1.3513531e-09,0.08212378
-1.1403533e-12,-0.0219476,6.483584e-12,-0.5983617,7.8686224e-10,-2.7785779e-08,-0.96025777,0.076589055,-0.048835993,-0.13954845,0.15279242,-0.007817483,0.87142646,-0.0015317606,1.2548346e-09,-3.8853465e-10,0.5267861,-0.02897758,0.033954933,1.0334877e-12,-0.017043646,6.4401142e-06,2.4753008e-05,-7.5859214e-14,0.0613526,-0.11184091,-5.6025998e-14,-8.808554e-09,-6.6321005e-13,0.02851223,0.55864644,-3.9985813e-13,-0.016743403,5.6317852e-14,0.7488455,-0.59376866,2.1793158e-12,-1.7387059e-08,-7.464845e-10,-0.13209927,-3.7593626e-13,0.6811829,-4.3384025e-12,0.39594352,2.3078517e-10,-7.248379e-08,0.79513043,1.0941502,0.5594794,-0.49539784,-0.017788446,-0.21000393,1.253576,-0.00713618,-3.9870054e-09,-5.628041e-11,-0.29514423,-0.3114534,-0.8628072,-5.2326654e-13,0.3745302,-1.4972424e-06,-5.2195748e-05,-5.2169814e-13,-0.32914147,-0.37686372,-1.5597528e-13,-1.6989343e-08,-1.3927739e-12,0.09639067,-0.23467866,-1.4773995e-13,-0.043822285,-3.773478e-13,0.5351988,0.99269766,4.1545565e-13,3.8009272e-08,-2.5972835e-10,0.61128587
2.325205e-13,0.2711357,-2.8500115e-12,-0.52787894,1.6856883e-09,-1.8652061e-08,-0.599716,-0.49441975,-0.16046304,0.29168552,0.31897965,0.13870467,0.08514132,0.004287476,-1.2653227e-09,-4.0893916e-10,0.34727532,-0.15518998,-0.28815392,1.6697004e-12,0.075207904,1.2481037e-06,-1.5012589e-05,3.8612413e-13,-0.020344991,0.070511624,-3.6695506e-13,8.606969e-09,9.96456e-13,0.7102223,-0.18676177,5.168854e-13,0.10801686,9.861043e-13,0.9823175,-0.32186007,-1.4741552e-12,-1.09335296e-07,-1.3543715e-09,-0.2537744,2.2780166e-13,0.1832356,-1.3151221e-12,0.7292894,-1.1307205e-09,5.346687e-08,0.6673286,1.5692061,0.1703418,-0.3415864,-0.33230087,0.21729521,1.5709996,-0.008123076,5.2942215e-09,-7.2690065e-10,-0.236694,0.22120611,-0.58917755,-9.313996e-13,0.14715675,-3.6599738e-06,-1.9122124e-05,3.2408538e-14,-0.18946159,-0.6297818,-1.7064204e-13,-1.946837e-09,-3.0410868e-13,0.336661,-0.5037925,8.6984846e-13,-0.2399788,-1.6522813e-13,-0.026395027,0.38566115,-2.906459e-12,-1.8103002e-08,1.2704597e-10,-0.20002997
1.0136716e-12,0.36390302,5.5743604e-14,0.100014895,1.8248982e-09,1.9704016e-08,-0.36566782,-0.48604602,-0.3469412,-0.6436107,0.22463235,0.030544693,0.32019573,0.007692085,-4.59618e-09,5.1163764e-11,1.1721001,-0.19944924,0.18655066,-1.419182e-12,0.41901413,2.9748123e-06,1.4534998e-05,-4.3203795e-13,-0.36735705,0.24011913,-9.145681e-13,4.4822157e-10,2.0038227e-12,-0.25347647,0.6273561,2.8942332e-13,0.022434521,-3.506158e-13,1.0750188,-0.15884408,3.4606643e-12,-5.590583e-08,-8.1651425e-10,0.12083349,-1.1371882e-13,0.48186922,1.4737763e-11,-0.28442314,-5.2897256e-11,8.144262e-08,0.54704106,1.0582024,-0.38255873,0.23564184,-0.48867345,-0.00850473,1.6031381,-0.0034078767,-1.4592054e-09,-9.605735e-10,-0.09297035,0.24101137,-0.9021789,-1.4855098e-12,-0.41405064,-3.7114205e-09,-1.7178905e-05,-1.7550967e-13,0.31493753,-0.62784433,9.766268e-13,-1.3444985e-09,-7.179272e-13,0.1546928,0.18655717,6.239207e-13,-0.011966715,3.808851e-13,-0.5102351,0.13336706,-1.5767446e-12,1.0568845e-08,-8.8379276e-10,-0.5897484
5.309453e-13,0.77190006,-6.8589136e-12,0.689198,1.1983452e-09,-6.054235e-09,0.75562924,0.33390328,0.0670017,0.79816693,0.26780388,0.5422934,0.51965064,0.011571938,3.3530467e-10,-6.0683253e-10,0.6156828,0.07921623,1.3619344,9.478982e-13,0.20885374,3.2730536e-06,4.8800528e-05,2.0094988e-13,-0.324579,-0.110841505,-7.452631e-13,-1.6867723e-08,4.9082743e-13,-0.11893627,-0.8818101,-2.1388303e-13,-0.13124843,5.919839e-13,0.50021106,0.0725254,-6.0089325e-13,-6.6938256e-08,1.0849947e-10,-0.055969376,-5.0749265e-13,0.3238915,1.0374505e-12,0.5673509,-8.6951246e-10,1.3713734e-08,0.30190632,0.9015451,0.26715565,-0.86738443,0.3125326,-0.04057248,1.227393,-0.006362171,4.8300075e-09,-1.041946e-09,0.4852728,-0.3582356,-1.0576628,1.3331151e-13,0.053030256,3.4361733e-08,1.4032548e-05,4.566044e-13,0.6822214,-0.62911785,6.9861445e-13,-7.244889e-09,1.0988188e-12,0.10092479,-0.42356452,-7.679956e-13,0.32246268,-1.4866476e-12,-0.09784101,-0.7273092,-1.4094281e-12,1.0147066e-08,5.0486865e-10,-1.1187093
-3.9034195e-13,0.03061159,3.78619e-12,0.1891742,-2.5860034e-10,-3.5938554e-09,0.27813745,0.9470463,-0.4330522,0.00018967316,-0.4568374,0.006079293,0.35744765,0.002302125,5.711292e-10,5.166819e-10,0.29029316,-0.06910133,0.7924208,-2.8207287e-13,0.016640488,2.3306914e-06,-1.801491e-05,-2.3955366e-13,-0.4219765,-0.024345446,-2.293932e-13,6.0077016e-10,4.614685e-13,-0.1645025,-0.2805013,3.5085086e-13,0.02320559,-1.11385835e-13,0.19110951,-0.087742224,-1.7222489e-12,-2.0146134e-08,-1.5180526e-10,0.098876834,-9.881131e-14,-0.2577609,-2.7391314e-12,0.4313723,-1.1929632e-10,8.595896e-09,0.59929544,0.5394836,0.27705923,-0.40237552,-0.3836616,-0.1877685,0.05093984,0.00014121656,5.340054e-10,-1.5074658e-10,0.22917691,0.011776548,-1.271872,2.6882513e-12,0.23454285,3.047222e-06,8.657757e-06,3.900156e-13,0.23022884,0.07159189,4.2940675e-13,-4.1643786e-09,-3.0801465e-13,0.1393205,0.24810195,1.0384392e-13,0.07556453,5.3757384e-13,-0.16721284,0.089734934,-1.3094246e-13,-8.683637e-09,-2.0723055e-10,-0.1177171
7.88088e-13,-0.15684044,-2.973219e-12,0.4788645,2.317057e-09,2.8997079e-08,-0.1982892,1.2742221,0.15405004,0.14268993,-0.61804336,-0.51165813,0.22919682,-0.0075291637,2.2867969e-10,3.963052e-11,0.26199085,0.52181476,0.8487271,-9.919752e-13,0.7836433,-6.367488e-06,3.9835904e-06,-6.4228115e-13,-0.88914895,0.10723601,-3.7920115e-13,-2.056261e-09,-2.182911e-14,-0.48706415,0.007157539,-6.0059396e-13,-0.100779235,1.0526215e-13,0.70715827,0.48172492,-1.0042266e-12,-1.2987481e-08,2.3683364e-09,0.3441233,-1.1320604e-12,-0.9528193,4.5539362e-12,1.0169624,2.915121e-10,7.576213e-08,0.83441633,0.8208968,0.05583207,-0.29916432,-0.34912995,0.36124584,1.1055987,0.013188496,-3.5231769e-09,-1.2012621e-09,0.2703841,-0.46717772,-0.9583836,-1.3759476e-12,-0.21169081,-1.9686781e-06,-1.9024224e-05,2.2199111e-13,-0.45611215,0.99284756,1.6605397e-13,-1.7216475e-08,-1.7435051e-12,-0.3365398,-0.068227604,-3.0761526e-16,-0.09452483,-1.0299182e-12,-0.6757468,0.5438179,2.2248273e-13,-4.158215e-08,-1.615611e-09,0.33068076
-2.2039543e-13,0.57476884,3.731361e-12,0.24298324,-1.231627e-09,-4.675826e-09,-0.23332226,0.7114512,0.23447329,-0.26550734,-0.44969776,0.61003995,0.31747168,0.00771938,-2.2996351e-09,-9.826506e-10,0.596245,-0.4533791,0.5882703,7.388751e-14,0.056039184,3.976999e-06,2.4843954e-05,4.2465228e-13,0.2323024,-0.573054,-1.6972296e-13,-8.882579e-09,1.4935793e-12,0.25821078,-0.21584193,-2.1552058e-13,-0.034869313,-7.558752e-13,-0.3820578,-0.45068967,6.487877e-13,6.2650905e-08,-1.2360653e-09,0.011100855,8.992842e-13,-0.50182456,1.8695642e-11,0.1400299,-3.4294906e-10,-1.949498e-09,0.48251224,1.6698939,0.6973908,-0.105206065,-0.28423882,0.5381053,1.0345455,-0.0051365662,-2.3439024e-09,-7.130378e-10,0.692709,0.12913689,-0.57453394,-1.6887457e-12,0.5624949,1.7613867e-06,-2.6220034e-05,1.6944307e-13,-0.022113122,-0.22430703,5.04581e-13,2.741595e-09,-2.3298939e-12,-0.23970267,-0.12189146,-5.325457e-13,-0.16837151,1.130593e-13,0.71425265,0.2035268,1.0864844e-14,-6.417007e-08,-1.0604242e-09,0.06137171
5.36868e-13,-0.19132516,-3.623088e-12,0.6904713,-4.0619565e-09,2.3455144e-08,0.030319072,-0.27621755,-0.59876096,-0.25119504,0.32161564,-0.3229422,0.3333965,-0.009754967,-3.1234126e-09,-1.6407514e-10,-0.59627956,-0.32970595,0.45018527,2.2905744e-12,-0.051692434,1.4720562e-06,9.075766e-07,3.0878352e-13,-0.06065665,0.10578058,3.5767288e-14,2.203628e-09,2.0130943e-12,-0.23150373,-0.5920068,2.8760218e-14,-0.06406779,-3.99625e-14,0.020393513,-0.16731527,1.477552e-12,4.896423e-08,-5.4311317e-10,-0.19536367,1.5693076e-12,-0.42498884,5.4022112e-12,0.41811052,1.3589432e-10,-7.017365e-08,0.9805983,0.85271317,0.12192432,-0.5886084,0.4902102,0.2903544,1.5500923,0.011898396,1.1642457e-09,9.901339e-10,0.16910668,0.032781295,-0.66237485,-1.133256e-12,-0.2906043,1.6181286e-06,-1.870028e-05,5.0997726e-14,0.08554689,0.29056716,4.0133684e-13,-1.8932629e-09,1.7786455e-12,0.28184843,0.0917039,-3.4881164e-13,0.054148547,9.894616e-13,0.26243216,-0.5666804,-3.340584e-12,1.4062988e-08,-8.1872245e-11,-0.5177931
-7.3251485e-13,-0.1782573,9.014784e-12,1.5859684,5.9197486e-10,6.430679e-08,0.25038972,0.7611571,0.29628962,0.06330393,-0.647814,-0.33403292,0.601362,0.0016684561,4.9207527e-09,-1.6843357e-10,0.3267694,0.11176034,-0.06596437,-1.7412972e-12,-0.41868287,-5.458845e-06,1.9627449e-05,-5.8764235e-13,0.7272757,0.018861536,4.1393316e-13,-9.602325e-09,3.6577304e-12,0.47675636,0.08545539,1.1499696e-13,-0.2048322,-3.1409565e-13,0.3173833,-0.69757336,-2.4010308e-13,5.0018453e-08,-2.559368e-10,-0.12347355,3.324153e-13,-0.31485873,1.3883914e-11,0.2894401,6.614006e-10,9.928415e-09,-0.4408357,1.0702845,0.505135,-0.25054863,0.7567597,0.27562883,1.604876,0.001345023,8.075357e-09,6.0433336e-10,1.0119271,-0.17996612,-0.67740405,5.766093e-13,0.004191053,5.7570533e-06,-5.69057e-06,-1.6728402e-13,-0.04424009,0.06893425,-8.8435016e-13,-1.1424542e-08,-6.801323e-13,0.18433343,-0.2171235,6.26986e-14,-0.009159443,8.457438e-14,0.01352974,-0.34752527,2.2859076e-12,-2.0785595e-08,-5.938984e-10,0.28640243
9.946232e-14,0.253793,5.445403e-12,-0.025284775,-8.721721e-10,1.2579056e-08,-0.36323503,0.3949825,0.37408325,0.36915582,0.44871983,-0.23679571,0.008174276,-0.0034620333,-1.3215002e-09,-6.764881e-11,0.015130905,-0.44470334,0.5238942,9.529335e-13,-0.84896827,-4.901132e-06,4.207669e-05,3.5362083e-13,-0.35343993,-0.14888318,3.3283218e-14,4.696344e-09,1.2384372e-12,0.013929533,0.06339969,2.743926e-14,-0.018913463,-1.6492683e-13,-0.43327782,-0.41726375,1.2409207e-12,4.227929e-08,-8.3623955e-11,0.32834953,-9.15282e-13,-0.406496,4.7098827e-12,0.27640936,5.5880656e-10,-2.7723036e-08,0.060598064,0.58764434,0.61989564,0.5799246,-0.41599822,0.51740474,0.9235401,-0.004597474,-5.806768e-09,2.166661e-10,0.0026604692,0.17082536,-1.3339301,-3.7088197e-12,-0.13110119,-1.9142726e-06,-5.1263505e-06,7.773198e-14,0.5447015,-0.34411535,-1.37714276e-14,-9.957256e-09,-6.580217e-13,1.1638832,0.39382634,1.486746e-13,-0.29994744,1.9474656e-14,-0.102108926,-0.40192327,2.526697e-12,4.0661e-08,-1.0668506e-10,0.666584
1.4049213e-12,-0.029731557,-1.0159472e-11,0.26270205,-1.0029122e-10,-8.013974e-09,0.087202966,0.9218949,-0.09862747,0.29383284,-0.2934519,-0.46395832,-0.17233433,0.003633859,-1.4329709e-09,-2.793099e-10,-1.1816895,0.37791404,0.43731436,2.871601e-13,-0.12807193,5.7297693e-06,-3.952617e-06,5.502679e-13,-0.68133295,0.5433526,-5.197327e-13,-6.854336e-09,-1.0634189e-12,-0.16502473,-0.35187382,-2.9589853e-13,0.098680556,1.1196259e-12,0.74999225,-0.1691668,3.357984e-12,5.5279084e-08,9.990847e-10,0.590862,1.3708791e-12,0.13006449,-1.7028122e-11,-0.8824263,-6.4146427e-10,-6.634919e-08,-0.7533587,0.7236335,0.6185437,-0.015869481,-0.31540272,0.15207395,1.3949524,-0.0032424342,-1.5607385e-09,-4.437013e-10,0.11013231,-0.333189,-0.8859206,4.1481575e-13,-0.08999339,6.548741e-06,1.5203232e-05,-3.8246777e-13,1.0381755,-0.18258956,9.593942e-13,-9.879112e-09,8.063691e-13,-0.06487081,0.09698716,7.1800015e-14,-0.17403127,-1.4618948e-14,0.351746,-0.51898277,-1.7479659e-12,6.182766e-08,1.698513e-09,-0.07571641
2.2687985e-13,-0.1619705,-2.1777636e-12,0.43198174,6.4167016e-10,-2.2004379e-08,0.5138179,0.38315782,-0.2674267,-0.07521168,0.020743448,-0.0050767055,0.082664326,-0.002107509,-4.0599654e-10,-7.390959e-10,0.29141548,0.033693742,0.37752166,1.0598648e-12,-0.09913698,-6.018163e-07,9.28516e-06,-3.3762365e-13,-0.5209967,0.2741044,-2.8074762e-13,-3.165315e-09,-1.4820832e-12,0.1661084,0.08148856,-4.498439e-14,-0.065096505,4.193846e-13,-0.26579773,-0.09372315,-1.1224606e-12,-3.2176843e-08,-1.167237e-10,-0.25874653,-2.2191279e-13,-0.12793927,2.850081e-12,-0.35172316,-2.802481e-10,-7.1684045e-09,-0.78300613,0.24294968,0.18730219,0.21861826,0.09144745,0.115014225,0.6285827,-0.004942737,-8.8887253e-10,-5.840548e-10,-0.12384064,0.084040865,-1.1685499,2.5175535e-13,-0.2626966,3.7038956e-07,-8.441134e-07,-1.486097e-14,0.43622154,-0.04386279,-5.462192e-13,1.7925657e-09,-6.437819e-14,-0.004676132,-0.62316865,-1.7436977e-13,0.05205184,-6.413546e-13,-0.13965937,0.27736017,-7.297386e-13,-6.1382295e-08,-1.6406024e-10,0.17430827
-1.0286108e-13,0.30692226,3.2164588e-12,-0.8780528,5.478506e-10,-2.4950403e-08,0.32584995,-0.28596467,-0.19444664,-0.20973031,-0.47239202,-0.2953423,-0.22942762,-0.0017043109,3.6248058e-09,1.3474687e-11,-0.043870818,0.95565504,1.1982628,2.8217757e-13,-0.23438548,2.4024782e-06,6.2726e-06,-6.8839926e-14,-0.5779157,0.011500016,2.1341181e-13,-5.3932983e-09,1.3679597e-12,-0.25115436,0.3372646,-4.607786e-14,0.2556707,-5.0858406e-13,0.26486763,0.3551701,-1.2148734e-12,3.312324e-08,-2.645735e-10,-0.55767834,1.799157e-12,0.0092988685,-3.3731848e-12,0.25046784,-3.940686e-10,-3.6589327e-08,-0.6563905,-0.31262234,-0.6113841,-0.47089526,0.64956456,-0.10091466,0.7444259,0.0014087588,2.7309977e-09,-1.3716857e-10,-0.069020316,0.57745147,-1.2068158,2.6035337e-12,-0.55889964,6.783749e-06,8.836864e-06,-1.6122761e-13,0.094445124,0.09838994,-1.1587534e-12,-4.8995394e-09,-1.5009174e-13,0.5544049,0.22955008,-1.2502626e-13,-0.007168706,-8.790495e-13,-0.8307473,0.84396225,-1.5980247e-12,-7.689873e-08,3.862689e-10,-0.35429007
-4.612555e-13,-0.33120462,-1.7870614e-12,0.17800681,-2.9856915e-09,7.7988545e-08,-0.23101509,-0.6187935,-0.03002024,-0.64998156,0.16771424,0.24530461,0.41908017,0.008017325,-9.157255e-09,1.9722499e-10,-0.23477684,-0.09133486,1.2592889,-2.0971872e-12,-0.26870808,-1.1634334e-06,1.2333601e-05,6.268152e-13,-0.9659051,0.5164295,9.336158e-13,-4.4579695e-09,1.2199607e-12,-0.3867316,-0.71616787,-3.058195e-13,0.067538045,-9.091354e-13,-0.046340957,0.43873504,3.4823177e-12,4.246532e-09,-8.834211e-12,0.6287053,-1.3089402e-12,-0.37490338,2.2725107e-12,0.40524533,-7.4000334e-10,4.3979167e-08,-1.0376617,0.08986113,-0.33641002,0.07963562,0.12313681,0.16215864,1.1508713,-0.009359507,6.146706e-10,-1.9186625e-11,-0.2690108,0.23920067,-0.78354627,1.641991e-12,1.1088282,-4.182541e-06,1.922507e-05,4.6423477e-14,-0.628544,0.29005527,8.8853013e-13,-1.738226e-08,8.0034937e-13,0.11138564,0.12703775,-7.1554394e-13,-0.18154877,7.933039e-13,0.5735283,0.44249463,3.3846016e-13,-5.7861904e-08,4.8708426e-10,-0.18724695
9.822742e-13,0.08461666,-1.4339827e-12,0.4103345,-4.0262293e-10,-2.9492714e-08,0.7347326,-0.2951577,-0.32474634,-0.33228093,0.37999746,-0.21670818,0.6827565,-0.011409758,1.589467e-09,-5.684717e-10,0.5220414,0.53525305,0.6368422,2.4316076e-12,-0.4958032,3.032957e-06,3.897421e-06,-2.0503662e-13,-0.948834,-0.84818524,-4.261073e-13,-3.834908e-09,1.3789818e-12,-0.0057267584,0.7437865,-1.631669e-13,-0.2858912,7.7265576e-13,-0.6359049,0.51521647,5.0803285e-13,1.778899e-08,-2.3267141e-10,0.8136353,4.3690214e-13,-0.8234698,1.3518202e-11,-0.64828795,-7.10323e-10,-5.8738298e-08,-0.19061074,0.6738509,0.25860766,0.49551794,-0.33305126,0.32555056,1.3052726,-0.00086681085,-4.4769815e-09,2.6249156e-10,0.59428537,-0.7896447,-0.48514497,1.1273091e-12,0.33228156,-3.526373e-06,7.4357185e-06,9.007004e-14,-0.6869072,-0.05988659,9.602174e-14,-1.1518901e-09,1.6903759e-12,-0.0025824904,0.39666796,-1.7283321e-13,-0.02804548,1.0814247e-12,0.11457336,1.185022,7.667419e-13,2.998712e-08,1.2328435e-09,-0.28395823
4.0862436e-13,-0.5127813,-2.2434088e-12,-0.3105557,-1.2352444e-10,2.4476424e-08,0.66499305,-0.41198066,0.1017032,-0.110560626,0.807343,0.109591424,0.80824494,0.008789642,4.2243153e-11,-1.6137441e-10,0.51783514,-0.048099346,0.65101564,9.006458e-13,-0.06905147,1.6469783e-06,-2.4814746e-05,4.4505223e-13,-0.37401572,0.008411441,-5.9458807e-13,-1.6865354e-09,-1.3245502e-12,0.59066576,0.52057344,2.1221252e-14,-0.071969725,6.5447257e-13,0.49402258,0.3271427,7.063745e-13,5.1142397e-09,-5.05995e-10,-0.4953574,-3.7071805e-13,0.30227706,8.919048e-12,-0.072920896,-2.86217e-10,1.1435025e-08,-0.8315777,0.30062813,0.3223325,0.9417867,0.12699902,0.084073536,1.2194499,-0.0071565323,-1.1373319e-09,-5.525537e-10,0.08837193,0.5085801,-0.81866443,1.117031e-12,0.10975586,1.3595094e-05,-1.23640375e-05,-7.0139863e-13,-0.3643985,0.57051677,-7.930232e-13,-8.094148e-09,6.629414e-13,-0.26909024,0.01588948,5.112033e-13,0.22383073,-6.197169e-13,-0.6780551,-0.05938519,-3.5071692e-12,1.5486888e-08,4.465673e-10,0.60942
-3.4647648e-13,-1.1899413,7.48948e-13,0.45684904,2.245145e-10,-6.423948e-08,0.4649476,-0.30362883,-0.7796594,-0.22940016,0.23224339,-0.17586094,-0.3132753,0.007310049,2.277117e-09,1.9845932e-10,-0.25511393,0.7143217,0.56942135,4.9381072e-15,-0.072586164,2.0996256e-06,7.375912e-06,3.2685608e-13,0.2060964,0.6857085,-1.4738203e-13,7.790629e-09,5.069724e-14,-0.063448325,-0.049044117,7.1266197e-13,-0.15526704,6.3493264e-13,-1.003679,0.10023635,1.9748025e-12,1.8067638e-08,-4.4123502e-10,0.017656593,-1.0585287e-12,1.032164,3.2613302e-12,-0.47642878,-4.611898e-10,6.8815595e-08,0.1269831,-0.13396779,-0.881212,-0.40175462,-0.33341876,-0.13176925,1.4150594,-0.004111446,4.0077275e-09,4.6926035e-10,0.59332585,0.29732406,-1.007659,6.5916825e-13,-0.29819262,-5.35831e-06,-3.5096433e-05,6.6861805e-13,-1.4977957,-0.72465706,-1.0950736e-12,3.6822834e-09,3.4222028e-13,0.32427028,-0.36819696,9.0908514e-13,0.005355208,-5.42303e-13,-0.13072905,-0.635721,-2.0459994e-12,-1.190541e-09,-5.8317423e-10,-0.13000964
6.1237284e-13,-0.43972617,4.2838346e-12,-0.020643393,-9.805196e-10,2.2590125e-08,1.362798,-0.5543409,0.0020852222,-0.32237387,0.73245317,0.25338352,0.44684643,-0.013386985,4.602121e-10,-3.0424555e-10,0.2342477,0.34982175,0.5551826,-8.6455685e-13,-0.36526236,-4.6142404e-06,-1.0805402e-05,4.7916586e-13,0.27357772,-0.33311138,-4.0706154e-14,-4.6889803e-10,-1.784422e-12,0.018189026,0.67613083,4.1770428e-13,0.0029600211,-2.6853959e-13,0.1065921,0.40043142,-1.5891342e-12,1.5080863e-08,-6.8965267e-10,0.24936742,3.9758805e-13,0.762408,-4.0024503e-12,-0.17675067,-8.371142e-10,-3.3739678e-08,0.8454715,0.16229688,-0.1381737,-0.015223095,0.5973518,0.078498445,1.0416447,0.0027075605,2.124054e-09,-3.9145364e-11,-0.109608926,0.1306202,-0.61484694,2.8097288e-12,0.48693427,-1.6965571e-06,1.7871895e-05,-3.7945322e-13,-0.26553503,-0.06562657,-5.124894e-13,2.6375713e-10,2.5217196e-12,-0.3839532,-0.65448195,-3.290522e-13,-0.046698306,3.7060367e-13,-0.28637695,-0.1953725,-2.3138765e-12,-3.347112e-08,-9.460717e-11,0.0033361372
3.303385e-14,0.38820285,3.4335924e-13,-0.106274076,-6.419946e-10,-6.774833e-08,0.70839757,-0.6944344,-0.1199707,0.32617405,-0.47953838,-0.3066441,0.34329614,0.012852183,6.099674e-10,-5.015973e-10,0.019252457,0.15526187,0.38046747,1.6189336e-12,0.85295904,7.7007564e-07,-1.3172837e-05,-2.3303814e-13,0.6628275,-0.36293894,1.6383476e-12,-5.247585e-09,1.7617186e-12,-0.33261025,0.44030353,2.1457047e-13,0.18506852,1.790808e-12,0.14497462,0.18210086,2.9465761e-12,-2.0145796e-08,-3.8781398e-10,0.31871387,8.921871e-13,0.14496692,1.1816423e-11,0.12571295,-7.6982065e-10,3.871673e-08,0.73611027,-0.2352986,0.1552367,-0.2806727,0.06880565,-0.27730125,0.94332236,0.0045074318,5.269274e-09,8.1361573e-10,-0.5338118,0.22440764,-1.5698086,1.5802864e-12,-0.11747207,4.1633007e-06,-8.909609e-06,1.7524239e-13,-0.5530677,0.13849601,-1.0276395e-12,-1.8525731e-09,5.992802e-13,-0.48989797,-0.2621832,-3.6349726e-13,-0.1684524,1.2174919e-12,-0.70093775,-0.23013942,-9.228961e-13,1.3002405e-08,-8.45311e-10,-0.033679865
-9.344799e-13,0.09164998,4.1342554e-12,0.18945089,8.5251434e-10,4.3352923e-08,0.4883412,-0.09695081,0.44754723,-0.99077475,0.18237942,0.10986631,0.051483046,-0.017440429,-2.4301152e-09,5.4437044e-10,-0.66295594,0.029556349,0.57696235,-3.1005558e-13,0.08634791,1.7313935e-06,3.8681555e-06,-2.4695654e-13,0.57756805,-0.46195102,-4.025068e-14,-3.1457015e-09,2.0594772e-12,0.21840273,-0.049634106,-7.2909967e-13,0.18236764,-1.568751e-12,0.03076375,-0.02114566,3.884164e-13,-4.6870255e-08,2.4045912e-10,1.057956,2.819161e-13,1.0946096,-1.0724812e-11,0.22137472,1.0567017e-09,4.2775138e-08,1.2347301,-0.015551027,0.0880249,0.20134318,-0.33073592,-0.21838759,1.2144915,0.0021920751,5.076863e-09,-8.3557217e-10,0.031305738,-0.44954804,-0.83628047,-6.916531e-13,0.13799828,2.3425894e-06,-6.328778e-07,-3.9566579e-13,-0.96033984,-0.6298125,-6.053913e-13,1.2538393e-09,-1.8884174e-12,-0.47150433,-0.60188454,1.3479636e-13,-0.03017765,1.0020218e-13,-0.52115864,-0.56429183,-2.0586718e-12,6.937128e-08,-4.093359e-10,0.21455918
8.9241884e-13,-0.19372904,-6.263655e-12,-0.09432145,1.5790865e-09,-2.5085889e-08,0.3156287,-0.7128954,0.61296815,-0.69502753,0.39216536,-0.57464135,0.57827216,-0.003635839,2.2648798e-09,-1.2583959e-09,-0.1263093,0.21204302,0.546256,-3.455406e-12,0.026855044,9.440329e-06,3.5473917e-05,4.623884e-13,0.48761693,-0.12708275,-5.630551e-13,5.923092e-09,3.0937306e-12,-0.49133223,-0.1633121,1.2391282e-13,0.010986696,2.764669e-13,0.0030452702,0.007445519,-6.0621764e-12,-3.029467e-08,-1.0788337e-10,0.6142964,-6.2553164e-13,-0.12137668,1.1131122e-12,0.5136009,1.2323176e-09,-3.2153245e-08,0.8909884,-0.14527506,-0.19152209,0.028756652,0.39550698,-0.23968439,1.2280143,0.0066499123,1.1805804e-09,-8.3946067e-10,-0.8087844,0.5626405,-1.1155037,3.5316815e-12,-0.50541687,-1.7230349e-06,-8.8566085e-06,4.2820164e-13,-0.73198473,-0.047040954,-7.061781e-13,-1.9482945e-08,1.9275978e-12,-0.732844,-0.4351566,-1.154601e-13,0.13361837,-4.782245e-13,-0.857458,-0.46681377,-1.5539399e-12,-4.9790586e-08,2.2797601e-10,-0.64686126
5.4956625e-13,-0.42407936,3.3246838e-12,-0.098273985,3.176785e-10,-1.6831894e-08,-0.0258146,-0.61778396,1.2151345,-0.5210298,-0.16699193,-0.13331188,-0.19729836,-0.0053907926,-3.932172e-09,3.7737705e-10,-0.49592957,0.16112383,0.73657644,-2.1135147e-12,0.1410374,1.2723106e-06,-2.5269566e-05,3.9220992e-13,0.4141374,-0.19719115,-4.274619e-13,1.8756587e-09,-2.799254e-12,0.6109909,-0.41141516,4.091923e-13,0.1385375,3.9128233e-13,0.17321461,0.068324074,-1.6421948e-12,1.9337332e-10,-7.939897e-10,0.0060885437,2.9894934e-13,0.41104162,5.7734355e-12,0.59041184,-7.248705e-11,1.2469288e-08,-0.19076069,-0.074241474,0.36562204,0.04707663,-0.4268365,-0.2927664,1.2296296,0.008176428,-2.3580524e-10,1.7902263e-10,0.08321452,-0.690223,-0.78423774,1.5112268e-12,-0.08002632,-6.0360667e-06,6.12877e-06,2.9707852e-13,-0.9704523,0.1479535,-1.3455502e-12,7.575354e-09,-4.2021096e-13,-0.45990515,-0.14383855,-7.006846e-14,0.05734494,-8.9633146e-13,0.18576112,-0.545427,1.5296549e-12,-1.2419923e-07,3.1208428e-10,0.026768096
2.010608e-12,-0.6501485,5.501397e-12,-0.5030883,1.1316585e-10,2.0099476e-08,-0.35077238,-0.23400173,0.47394845,-0.7439754,0.30090415,-0.18516414,0.16651142,0.0070029832,-2.5831054e-10,-3.7026746e-10,0.3197915,-0.27658644,0.7996154,4.804953e-13,-0.4737296,6.4727683e-06,3.9311913e-06,-2.2207315e-13,0.4184345,0.33531532,-8.815299e-13,3.3664045e-09,-3.000415e-12,0.26812947,0.09979723,4.2965146e-13,-0.011323188,-1.1777309e-14,-0.13838306,-1.041137,2.7610646e-12,6.0335545e-08,-3.3318884e-10,0.9585409,-1.9445645e-12,0.98566085,-1.5918166e-11,-0.27116352,-6.9880857e-10,-6.292612e-08,-0.2593607,-0.08661956,0.014517648,0.5856363,-0.0036545668,-0.745753,0.8775114,-0.0016187866,-1.7644529e-09,5.8322586e-10,0.33313122,-0.10363169,-0.9706919,-2.6194105e-12,0.21218196,-6.816515e-06,-2.3185941e-05,-1.4049038e-13,-0.22358188,-0.6669267,1.2221636e-12,6.5718533e-09,-8.322179e-13,0.3820386,-0.049724724,7.5775215e-13,-0.00048810523,5.041382e-13,-0.2983757,-0.12303913,-3.2482459e-13,-1.9756815e-08,9.34166e-11,-0.47019
-7.0861416e-13,-0.5400991,1.5699326e-12,-0.67306507,3.7162406e-10,6.9283357e-09,-0.37453637,-0.16905047,-0.9004389,-0.3151745,-0.124506295,0.25663647,0.62642044,0.0005681108,-1.954299e-09,6.618539e-11,-0.13428253,-0.77054334,1.1587168,-8.213211e-14,-0.5159287,4.3699788e-07,-5.7021493e-06,9.299473e-15,0.9495189,0.60374796,-9.644149e-13,3.4366958e-09,3.095016e-12,0.34902042,0.12761158,3.2650813e-13,0.004677374,1.367515e-12,0.085002296,-0.15575771,2.3624121e-12,3.2726188e-08,3.2170394e-10,0.32786754,-1.6140691e-12,0.65532887,2.888115e-13,0.10484987,1.8918525e-10,-1.4546828e-08,0.7613789,-0.10376023,0.75775874,0.22382204,0.03375519,-0.08382836,1.039856,-0.0061362637,-1.0445708e-09,-9.630573e-11,0.2991023,-0.4135276,-0.966128,1.618931e-12,0.43991226,5.060102e-06,-8.244046e-06,3.7077188e-13,-0.11878635,0.35847774,-5.745184e-13,-3.1563503e-09,3.2552628e-14,-0.4053581,-0.41276512,-7.84105e-13,-0.0364505,7.7829594e-13,-0.6846642,-0.46115154,-1.0820518e-12,-2.0468628e-08,7.6450396e-10,5.3405995e-05
-1.461485e-13,-0.9397138,-3.8814325e-12,-0.7964183,-1.1787377e-09,3.064437e-08,0.50206494,-0.689381,-0.765017,-0.22980256,0.060945246,0.25273567,0.58504087,0.0018207203,-1.7670831e-09,-1.3297967e-10,0.59689903,0.17122331,0.941143,-3.8204856e-13,-0.42566583,-4.3384134e-06,1.0144896e-05,-3.0557154e-13,0.8446717,-0.5917462,-2.9726688e-13,6.0337797e-09,-5.040133e-12,-0.17497954,0.2541439,-3.6575262e-13,0.09911343,-3.3513974e-13,0.69684565,0.008003359,4.887156e-13,2.305923e-08,7.324866e-10,0.16906035,-8.519823e-14,-0.13041481,5.6821206e-12,-0.2663168,3.8873613e-11,3.526255e-08,0.6254294,0.5110237,0.6503919,0.11996929,0.11484279,0.21915144,0.5812429,0.0016363848,3.239109e-11,8.851288e-11,-0.46477255,0.11616348,-0.972381,-2.1796423e-12,-0.7008355,3.4399757e-06,7.801323e-06,-2.1999319e-13,0.7136978,-0.34908688,-7.0048026e-14,2.8518317e-09,2.0563976e-12,-0.13948093,-0.96912676,1.2169139e-14,0.11067339,8.633724e-13,-0.12234087,-0.21563976,1.9397728e-12,2.5328474e-08,-5.8527316e-10,-0.32740736
2.972182e-13,-0.4457774,-5.217232e-12,-0.1503232,3.4366634e-09,-1.0643654e-07,1.0188147,-0.87057114,-0.2970001,-0.68370676,-0.19726555,-0.14006563,-0.05936127,-0.0058246865,-2.6091505e-09,1.3386746e-10,0.28567612,-0.46297148,0.8471402,-6.0985803e-13,0.66857475,-3.6580593e-06,2.604653e-06,-3.2774185e-14,-0.16840951,0.5422909,-7.466306e-13,-8.692112e-09,2.2431566e-12,-0.5043382,0.614693,3.8202254e-13,0.13400987,6.401912e-13,-0.17131709,0.09136043,-1.7715968e-12,2.8134495e-09,1.3396109e-10,0.44257334,-5.678395e-13,0.3876086,-6.447852e-12,0.063796476,3.4176348e-10,-8.437617e-11,0.6608258,-0.20991279,0.078995265,0.13064858,0.626582,-0.2957588,0.88784134,-0.00090892205,-2.216635e-09,-4.4222015e-11,0.17198956,-0.15050627,-1.058682,8.3137804e-13,-0.18820876,3.2207536e-06,-1.0985848e-05,-1.4418767e-13,-0.4868151,0.21223545,5.1272533e-13,6.9811597e-09,6.696877e-13,-0.2543762,-0.55005765,3.1375865e-13,0.037681874,1.1034809e-13,-0.5112093,-0.10342953,-2.9008343e-12,7.143526e-08,2.6400504e-10,-0.1689569
1.0461139e-12,-0.1351974,-2.4568281e-12,-0.090206735,-1.7961276e-09,-6.361944e-09,1.147134,-0.21201561,-0.05952643,-0.1882229,0.16262357,-0.3564797,0.39843222,-0.0023242051,-1.2157104e-09,-4.2061987e-10,-0.02483916,0.29953924,0.71798116,2.9636656e-13,-0.010260357,-1.6711551e-06,-1.8462742e-10,8.3407185e-14,-0.53933996,-0.11960026,2.252092e-13,-3.7697517e-10,-1.848269e-12,-0.3081528,0.47262812,-3.7947792e-13,-0.037443765,1.3222291e-13,-0.8013887,-0.30441597,3.1082402e-12,-5.131994e-08,-7.7949014e-10,-0.2011977,-1.0113219e-12,0.31174532,-1.0403961e-13,0.10456761,-6.230548e-10,6.471816e-08,0.41598347,-0.30686262,0.090890974,-0.08202419,0.0067352112,0.05511497,0.36643204,0.0015207356,-3.820148e-09,5.968639e-10,-0.0487686,0.092234805,-1.0236092,1.3395428e-12,0.06619347,9.715377e-07,-1.4256341e-05,4.1330397e-13,-0.14924942,-0.22028176,2.5632426e-13,-1.4719781e-08,3.1633122e-13,0.55872524,-0.9017148,3.6518428e-13,0.018705145,1.1227304e-13,-0.18164755,0.53770494,-4.2323014e-13,8.304346e-09,-6.7975536e-10,0.07791279
7.233849e-13,-0.51330376,5.9024213e-12,0.50096816,-1.3509894e-09,-8.186161e-09,0.607342,0.20980105,-0.05605066,0.062463544,0.052579522,0.3084698,0.16648678,-0.014568717,-1.0886443e-09,-1.5326577e-11,0.8474077,-1.2568024,1.3624243,-3.731607e-13,-0.1644537,-3.240511e-06,-4.3705946e-05,6.9135615e-13,-0.1353669,0.27277005,1.3573382e-13,-4.7942994e-10,-4.2931804e-13,-0.022263689,0.16178593,2.839284e-13,0.124017924,-2.8195377e-13,-0.16319384,-0.7171228,-3.475737e-13,-1.01782916e-07,-1.4537076e-10,-0.33735794,-1.8401617e-12,0.4536191,-1.7123009e-12,0.3887832,9.360521e-10,-1.0964303e-08,0.95177835,-0.09708232,0.70116585,0.1569314,0.4951855,0.052139737,1.3156443,0.005386294,-8.6273335e-09,3.417091e-10,0.23028013,0.6424667,-0.9620804,-1.5158518e-12,-0.015266018,1.9558831e-06,-3.373022e-05,5.306104e-13,-0.65357655,-0.21009073,1.0986996e-13,-1.5467627e-08,-3.013099e-13,-0.15645142,-0.033392992,-1.2030017e-13,0.14471257,1.523377e-12,0.37232682,-0.19597416,-1.2793033e-12,4.3114373e-08,1.5535498e-10,0.015016453
6.588621e-14,-0.4727563,-3.010226e-13,1.0769942,-2.3277721e-10,3.3669604e-08,0.1578849,0.0815252,0.41447106,-0.17435329,0.84868956,-0.06931245,-0.38605613,-0.019029925,5.5017135e-10,7.640242e-10,0.15436254,0.27713594,0.69058675,8.5080543e-13,0.8177806,7.4455547e-06,-7.658085e-07,-7.704229e-14,-0.3588667,0.48492497,-6.1810474e-14,-1.1173283e-08,3.2896518e-12,0.19984901,-0.77005666,-3.4373828e-13,-0.02021059,4.2325293e-13,-0.93106407,-0.22781393,-3.567045e-12,5.6079024e-08,2.2578431e-10,-0.09859203,-1.2464678e-12,-0.14868547,2.557989e-12,1.2674985,2.0446407e-09,5.3025147e-08,0.4722918,-0.12207518,-0.11859921,-0.010521489,0.019513007,-0.016169611,0.9119574,0.0071331896,-1.5142131e-09,-5.634432e-10,-0.15225269,0.16418608,-0.020787004,9.899484e-13,-0.6500352,4.2518195e-06,-6.380367e-06,-2.1363013e-13,-0.8497068,-0.0130956005,1.4554523e-12,-6.0471703e-09,1.3959333e-12,-0.38141158,0.30283368,-4.2315026e-13,0.44955447,1.171551e-12,-0.34879798,-1.280725,3.3797672e-12,1.9658934e-08,-4.248513e-10,0.06331248
7.6143714e-13,-0.24404407,-8.483982e-12,1.2554272,3.267983e-11,-4.5078128e-08,-0.65035176,-0.16500972,0.3419786,-0.20708266,-0.6004943,0.9737384,0.058563583,0.012348418,-9.771196e-10,-5.04331e-10,0.5790799,-0.42543644,0.9999789,1.2633938e-12,-0.08925067,-2.6310458e-06,2.002339e-07,1.1284674e-14,0.9073415,0.115467265,-8.2191266e-14,4.0984965e-10,9.272174e-13,-0.13666408,-0.15888819,1.0413408e-14,0.1862148,-3.131447e-13,-0.033441566,-0.33810806,2.041499e-12,-7.942381e-09,2.546031e-10,0.49059862,3.771053e-14,-0.4443923,-1.8055839e-12,-0.10658388,-2.7469144e-10,2.5130973e-09,-0.045974195,-0.3010017,0.77153635,-0.32392427,-0.78669345,0.02789104,0.95788836,-0.0015878531,-3.846945e-10,8.4551477e-10,0.27941507,0.047899127,-0.8900148,-1.4178432e-12,0.40914074,-1.0271602e-06,-1.0106807e-05,4.7143203e-13,-0.2890745,0.4301533,1.0382925e-12,1.09435405e-10,9.659268e-13,-0.50816625,-0.34571615,-6.15779e-13,0.17586677,-2.038724e-13,-0.37155557,-0.70907414,7.7079575e-13,-3.4362302e-09,-2.7333813e-10,-0.056158822
1.0940525e-12,0.21454531,-2.6910809e-12,0.721808,-1.0861405e-09,4.3044928e-09,-0.039862573,-0.09189966,-0.10969319,0.030462535,0.8378322,-0.15230599,-0.22340399,-0.0074538295,-1.6179704e-09,1.183682e-10,0.1520568,0.51709604,1.0079771,9.95148e-13,-0.1377695,-6.575473e-06,-2.3712497e-05,-4.4529647e-13,0.29262438,-0.030480687,-1.8445393e-13,7.014601e-10,-3.0490207e-12,-0.7893916,0.88797957,-1.145168e-13,-0.124133326,7.517316e-15,-0.07684593,-0.36298785,3.990246e-12,1.0265209e-07,6.908044e-10,-0.028655495,1.881181e-12,0.76657933,-4.0804886e-12,0.08171411,-1.1361054e-10,3.6464165e-09,0.12609857,0.26163897,-0.2721707,0.60745823,-0.14523642,0.6836662,1.2693672,0.00043620486,3.3826937e-09,1.1363698e-10,-0.23978086,-0.3982002,-1.2565353,-1.8260489e-12,0.27453086,-1.5721762e-06,1.8207207e-05,5.4447375e-13,-0.5728738,0.2567295,1.0860887e-13,-4.968417e-09,3.4762265e-13,-0.23078382,-0.6120071,-4.49054e-13,-0.24389258,1.4453416e-13,-0.8621408,-0.41530305,-2.3083035e-12,-7.114787e-09,-1.9357167e-09,-0.033473387
-7.292209e-13,-0.30532736,-2.5982354e-12,-0.007851525,-8.659096e-11,-4.241744e-08,0.6052643,-0.72803384,0.047714166,-0.8252556,0.34306088,-0.11484285,0.04122165,-0.004954667,2.7439955e-09,1.3320142e-10,0.1134266,-0.11164738,0.69887275,-1.217778e-13,-0.12135871,1.8718436e-07,2.211332e-05,-2.1836382e-13,0.31272542,0.08905575,6.4125577e-13,-3.1664062e-09,-1.6269024e-12,-0.34743983,0.77365524,-3.1674988e-13,0.1815908,-4.1031474e-13,-0.026527718,-0.77136546,3.3358568e-12,-2.9537818e-08,-8.831506e-10,0.17242575,-1.5072839e-12,0.50539875,7.7420275e-12,0.81760466,-2.5343153e-10,1.0217002e-08,-0.026556721,0.10004432,0.067076825,0.6081441,-0.15824726,0.030353418,1.2525192,0.012599722,-3.5908638e-09,-3.876549e-10,-0.0023728986,-0.18611115,-1.1549412,-2.32013e-12,-0.5931119,-4.288907e-06,-2.5673062e-05,-2.9420937e-13,-0.66700125,0.2857496,7.9174937e-13,6.1796546e-09,-1.813088e-12,-0.67753464,0.1255037,-6.98935e-14,0.07547161,8.753065e-13,-0.686131,-0.13898769,1.7428452e-12,-1.634845e-08,-1.218971e-10,0.22987473
1.336511e-12,-0.0038965456,7.709072e-12,0.2339414,-1.0390584e-09,1.2979575e-08,-0.77865404,0.21692732,-0.4373056,-0.0927712,-0.0055210236,0.111674,0.25621432,0.002311231,-2.0685538e-09,-3.729305e-10,0.3732717,0.36995173,0.6303186,-2.3469022e-12,-0.5271476,6.8562604e-06,-1.6993821e-05,-3.7642426e-13,-0.3815432,-0.37918165,-6.04227e-13,2.148455e-09,2.1789983e-12,0.16226813,-0.30622494,3.859665e-13,-0.12706162,4.037638e-13,0.6751196,-0.21111642,-5.491245e-12,-1.4206577e-08,-1.26774e-09,-0.7805859,2.3353422e-13,-0.04675267,1.040831e-11,-0.15335923,-3.918422e-10,-1.1866378e-08,0.103944995,-0.3451631,-0.66982234,-0.70284706,0.14940283,-0.066477686,1.1096569,-0.0023930436,2.300871e-09,2.4856314e-10,-0.42489862,-0.51463217,-0.6482611,-2.4094433e-12,0.56338626,1.2485199e-06,-5.9367383e-05,-1.3571842e-13,0.35994065,0.61597633,3.092644e-13,7.738209e-09,-1.7027801e-12,-0.29615763,-0.22387621,-3.3699348e-13,0.06131074,-6.7011175e-13,-0.12901942,-1.0313098,4.1016157e-12,-8.242783e-08,-1.1804673e-10,0.2997416
-1.4258355e-12,-0.1390615,-7.0616824e-12,0.42735332,-1.7576761e-09,-2.0036078e-08,-0.22366029,-0.008078316,0.15386204,-0.17909311,0.683233,0.096886806,0.52296776,-0.002718358,-2.782822e-09,5.7761385e-10,-0.28079462,-0.045647025,0.9338242,-2.9365468e-12,0.32049382,9.821788e-07,2.6770207e-05,-7.01958e-14,0.46701556,-0.45864207,-9.553207e-13,-2.4901678e-09,-3.2830105e-13,-0.2473942,-0.28496006,1.3219845e-13,-0.00847964,-1.5695979e-13,0.27524576,0.08729365,3.3317585e-12,4.2621313e-08,-1.8257978e-10,-1.2525004,-1.1366555e-12,-0.016145429,-1.0582943e-12,0.98508227,-1.3154434e-09,1.3953408e-08,0.2165271,-0.32590783,0.3190579,0.08895081,-0.12151937,-0.049471732,1.4973949,0.0039851735,-2.923509e-09,2.989463e-10,-0.2938981,0.23976389,-1.375121,-1.4824025e-12,0.26317918,-1.4797752e-06,1.33443555e-05,-5.6930925e-13,0.23779824,0.4136294,-1.2617056e-13,1.6147967e-08,5.886516e-13,-0.28967726,-0.45084754,-1.6360432e-13,-0.0021897936,-2.8601606e-14,0.34705803,0.2251743,4.322352e-12,1.7568365e-08,-9.832806e-10,0.2765782
-9.472093e-13,-0.07486701,-5.875677e-12,-0.6636612,1.6134996e-09,-6.446817e-08,-0.5539805,0.073745295,-0.37805218,0.06250616,-0.32514483,0.32507205,0.35139316,0.008743675,-4.9036015e-09,-4.3660536e-10,-0.6598387,-0.4422014,0.31109458,2.8332816e-13,-0.23686294,7.8839133e-07,6.9256903e-06,-2.450969e-13,0.18589622,-0.23778674,4.765665e-13,-1.0677612e-09,-8.077408e-13,0.70376015,-0.25968897,-1.4689514e-13,-0.13953547,3.7514848e-13,0.75450104,-0.32511646,-8.8435563e-13,-3.200064e-08,8.431412e-10,-0.97491884,6.387267e-13,0.1082234,8.104692e-12,-0.25674665,2.3584318e-10,3.769118e-08,0.039716907,-0.4804498,0.16497408,0.0339564,0.03754442,0.13388498,1.3620019,-0.01121352,-4.0534682e-09,-1.985668e-10,0.119505286,-0.3160062,-1.2584759,1.5953113e-12,-0.19908008,7.2260555e-06,6.3123684e-06,3.0968422e-13,0.5546821,1.1040988,-9.532549e-13,9.486861e-09,-4.0197126e-13,-0.10359009,0.6800289,1.9259284e-13,-0.07118633,7.523536e-13,0.55142367,0.5882903,-2.6004857e-13,-1.2013499e-08,-8.007589e-10,0.22516468
5.9014344e-13,0.10336892,1.1235066e-11,-0.04009529,-1.9097288e-09,1.0372421e-08,-0.7492254,0.049240503,-0.17377356,0.09852326,-0.8200027,-0.2301801,0.005421819,-0.0029265296,2.0037911e-09,-9.157952e-11,-0.0051159672,0.69167274,0.67904747,7.560571e-13,0.47836393,-5.791027e-06,2.9890201e-05,3.1874877e-13,-0.05157243,-0.0978751,-8.861836e-13,-4.059187e-09,2.5634295e-12,-0.15346968,0.44208276,2.298243e-13,0.05170649,-2.3276867e-13,-0.62542707,0.04646509,-1.8507474e-12,-6.706749e-08,5.127112e-10,-0.8103184,-3.001725e-14,0.16050594,-1.5657141e-12,-0.62424535,-1.0068517e-09,-6.3500347e-09,-0.0811111,-0.3901424,0.13250418,0.5940803,0.19096743,0.13556388,1.1749873,0.0058927047,-2.2829827e-09,-4.755271e-10,-0.42034787,-0.031257614,-1.2641442,-1.6511785e-12,-0.44539335,-2.6082096e-06,6.771664e-06,1.1187232e-13,0.24428648,0.3941587,4.4958302e-13,4.3992263e-09,-2.1199704e-12,-0.38819975,-0.3825876,-4.624392e-13,0.05267137,9.987115e-13,-0.8829227,0.3440565,-6.9327584e-13,3.937942e-08,1.2434193e-10,-0.22956221
-7.1042266e-13,0.47850162,-4.690211e-12,0.2672736,8.354132e-10,3.6153903e-08,-0.25249892,0.453049,-0.08907231,0.10751669,0.334671,-0.10945503,-0.07688126,0.0048459643,1.3372645e-09,2.635886e-10,1.0290414,-0.17481081,0.55612874,-1.186814e-12,-0.4938782,4.4833337e-06,8.2125425e-06,-7.500741e-13,0.82780707,-0.7267448,-5.3078223e-13,-3.924924e-09,5.8762717e-13,0.73143166,0.30714965,-4.5164805e-13,0.0002777964,1.3864493e-13,-0.07080591,-0.11399096,-4.1326136e-13,2.2345468e-09,9.915018e-11,-0.1898085,7.853912e-13,0.36233786,5.247712e-12,0.6110019,6.6059086e-10,-5.073797e-08,-0.65580374,-0.03120737,-0.33015943,0.38893226,0.04391929,0.23890033,0.96148705,0.0025118655,7.632387e-10,-1.8767546e-10,0.4157871,0.14714001,-1.5403252,-1.8934249e-12,-0.06847195,-3.1710924e-06,-2.4901714e-05,-1.04262695e-13,-0.48644277,0.41086778,7.0219004e-14,3.930829e-09,-1.8353145e-12,-0.36482644,0.57912725,1.4367007e-13,-0.13747138,-8.472373e-14,-0.9249519,0.0002009999,2.4278062e-13,3.3507984e-08,-1.0418242e-10,0.11610891
3.5332414e-13,-0.37591663,8.269287e-12,0.09096317,2.2365784e-10,-4.83251e-09,-0.04854783,0.55082524,0.08836661,0.35169405,-0.0106396135,0.09284947,-0.00350241,0.0014767281,-3.2896423e-09,-2.6950792e-10,0.06622261,-0.08662906,0.3254389,1.1526428e-12,0.1509059,-8.202701e-07,-9.640965e-06,1.8876895e-13,0.8464736,-0.12613693,4.4189744e-13,1.1444529e-09,1.6102977e-12,-0.21510182,-0.6002756,1.2886346e-13,-0.039119784,9.918744e-13,0.2404559,-0.22599843,-3.1227577e-12,-2.6407942e-08,1.5205795e-10,0.258348,-5.475827e-13,0.44852275,-2.06745e-13,-0.28923345,8.3292984e-11,-1.4914601e-09,-0.5195568,0.2128636,-0.19383012,0.12188387,0.5973166,-0.02405418,0.441899,0.004450915,-1.9472884e-10,2.7151137e-10,0.41620183,-0.08264176,-0.8688783,2.0321939e-12,-0.35595116,3.773369e-06,-6.684302e-07,2.1288848e-13,-0.22615114,0.21932104,-6.6018783e-13,-9.133849e-09,1.1570953e-12,-0.22252296,0.41866833,-2.8149629e-14,0.017270975,-7.457002e-13,-0.061051175,-0.2977444,-1.6054843e-12,5.2468367e-09,-1.9936915e-10,0.021354211
6.549763e-13,-0.36940432,-2.9716821e-12,0.43733677,-2.4663502e-09,8.330949e-08,0.28063738,0.7286054,-0.34911296,0.34220937,-0.08501675,-0.68801993,0.19829985,-0.009487684,1.0618302e-09,-7.0780315e-10,0.088740945,0.41931045,0.42097288,-3.216569e-12,-0.32361588,-3.7291761e-06,-1.1216269e-05,-1.9010143e-13,1.3002007,0.60798365,-9.050752e-14,-8.600374e-10,1.7823646e-12,0.005897763,-0.435883,2.176123e-13,-0.01201844,9.610714e-13,1.0401256,-0.025390688,2.0540746e-12,4.9941043e-08,-1.7768987e-09,0.64914906,9.8816897e-14,-1.1629938,4.146164e-12,-0.46468842,-2.587978e-10,5.8342728e-08,-0.6059243,0.34541112,-0.09126305,-0.16930068,0.13406685,0.10473269,2.1280234,0.005498476,2.0389193e-09,1.9073633e-10,0.09113304,0.09307464,-0.341618,3.063696e-12,0.30042288,-3.3129713e-06,2.1439866e-05,5.864986e-14,-0.7536245,0.13163285,7.70733e-13,6.9052875e-11,9.543068e-13,-0.42923394,0.6957219,2.4738891e-13,-0.2356993,-1.4780115e-12,0.40913337,0.052692294,2.1795619e-13,-3.5608963e-08,-4.876808e-10,-0.63025624
3.2619984e-13,0.2263988,-3.1205065e-12,0.70398873,-3.4399992e-09,-3.3314176e-08,0.5807484,0.35691357,-0.04298432,0.28171536,-0.586588,-0.20991547,0.07821692,0.004127022,-3.223743e-09,5.904628e-11,-0.10966655,0.14355476,0.9601969,-9.846765e-13,0.28952456,-6.0463867e-06,1.7596076e-05,-8.171824e-13,1.4890715,-0.012537716,-1.235752e-12,-1.9174973e-09,-9.5999055e-14,-0.36684358,0.32169238,-5.9562105e-13,-0.12354104,4.4153708e-13,0.55394536,0.35613406,-5.3286785e-12,-1.36249e-07,-1.0463892e-09,0.3463435,4.3768266e-13,-0.11808845,4.738737e-12,-0.49957862,1.5091327e-10,-1.56896e-08,-0.22530702,0.2720031,-0.8583885,1.0058942,-0.23736002,0.22310151,1.3351496,0.0054838494,-2.8058982e-09,-2.9952665e-11,-0.43517622,-0.652511,-0.72566384,3.3591886e-12,-0.19100124,-7.1472614e-06,9.842931e-06,-2.5733265e-13,0.2614101,-0.28236833,1.400674e-12,3.6885726e-09,2.0440216e-12,0.47760665,0.5373229,-5.2554396e-13,-0.21671769,6.272271e-13,0.6687585,0.70535153,1.8061442e-12,-2.6900665e-08,-2.1970141e-10,-0.39449376
-6.7845875e-14,0.047023907,-3.6941227e-12,-0.08450868,-2.318061e-10,1.660933e-08,0.16005355,0.22476372,-0.4514033,0.35820165,0.44535953,-0.021310361,-0.009164877,0.0020385906,2.7575644e-09,-6.7228056e-10,0.28607813,-0.5127766,0.3466212,-3.089897e-12,0.37605605,-3.8277544e-06,-4.6184705e-06,7.736051e-13,0.71728635,1.4087301,1.6810178e-13,-2.0869788e-09,2.7635572e-12,-0.31543344,-0.46617612,2.0221238e-14,-0.19217849,-9.480654e-13,0.13435993,0.6255079,1.6399263e-13,7.19326e-08,-3.327926e-10,0.4496411,-4.5026645e-14,-0.524071,-1.6073596e-12,-0.1910493,6.734383e-10,-8.84847e-08,-0.070177995,-0.3422184,-0.6860973,1.1314754,0.39538535,0.1923023,1.4036112,0.0051551666,-2.3162796e-09,3.0045239e-10,-0.09796057,0.20236582,-0.8905982,-1.0660997e-12,0.2719557,-1.6284928e-05,-2.3244427e-05,2.0852856e-13,-0.101567075,-0.68607193,2.0828234e-13,-1.4718757e-08,1.2689502e-13,-0.26880926,0.44382188,7.0833264e-13,0.0016372344,7.8247874e-13,0.30350506,0.62390363,2.2247932e-13,-5.0468696e-09,3.050188e-10,-0.5081836
-5.0404375e-13,-0.6093359,6.9619934e-13,0.7512259,2.2779574e-09,2.2380773e-08,-0.12058307,0.17414469,-0.6165356,-0.2916714,-0.27975005,0.17601077,-0.12176941,-0.012397884,-3.8238843e-09,7.189618e-10,0.6618368,-0.89338565,0.9098749,-4.753151e-13,0.6021238,-9.354106e-07,3.3319426e-05,3.0834813e-13,1.1858007,0.123181194,-2.0731908e-13,-3.781015e-09,9.620043e-13,-0.0028584786,-0.0038460921,9.379218e-13,0.25090152,7.349684e-13,0.57730633,0.052465793,-1.3855286e-12,5.7932255e-09,-1.309631e-10,-0.70127046,7.857265e-13,-0.106175825,-9.063873e-12,-0.52079874,5.829905e-10,-8.026222e-08,0.71851814,-0.19543521,-0.42822343,0.19463345,0.40968615,-0.03897567,1.0862385,0.001610498,-3.8728274e-09,-2.5071967e-10,-0.2512808,-0.13907816,-0.16937318,-2.4939063e-12,0.709791,-5.526406e-06,-1.868979e-05,1.98296e-13,0.085313104,0.15791559,8.269084e-13,1.5968359e-08,2.6198927e-13,0.6658616,-0.4414961,-4.498214e-14,-0.14145854,5.9168176e-13,0.42708755,-0.15196288,-3.1973788e-12,5.7043845e-08,-3.9963574e-11,-0.32554397
1.0881866e-13,0.13646312,1.2395879e-12,0.50623703,9.54112e-10,-1.958854e-08,-0.42574242,-0.35282102,0.080164865,0.072312415,-0.6428112,-0.3698622,-0.30680484,0.008886326,-6.24348e-10,5.352478e-10,-0.060812987,0.14822829,1.0547324,1.7102042e-12,1.019149,-3.7971972e-09,-3.0269133e-05,3.5119152e-13,0.79999226,-0.043905206,1.9284104e-13,2.8442195e-09,1.6597098e-12,-0.55904806,-0.2162434,-2.9805363e-13,0.0050498247,7.0667913e-13,0.039914656,-0.0742182,1.7174404e-12,-2.1021117e-08,-1.231444e-09,0.561952,2.7178498e-13,0.064428724,-1.4891395e-11,-0.41358587,9.1444505e-11,1.9832475e-08,0.09470147,0.02874782,-0.069154084,-0.33305743,0.28710002,-0.40179834,0.22080298,0.00032063905,-2.0836333e-09,-2.0957205e-10,-0.70852774,-0.32655522,-0.8247513,1.2232554e-12,0.62579626,-5.1740594e-06,3.012951e-05,9.236698e-15,-0.014061494,0.86511666,-4.3576666e-13,7.2016255e-09,-3.1092473e-13,-0.060234413,0.2133967,5.6723273e-13,0.04255316,5.486018e-13,0.38790432,-0.10020354,1.1409744e-12,-9.597781e-09,8.6278573e-10,0.15813811
3.2517874e-13,-0.39091778,-2.4477195e-12,0.2869299,6.504731e-10,4.3568427e-08,-0.6410579,-0.2959562,0.49411803,0.12669933,-0.872033,0.42417473,-0.31510904,0.009611052,-9.548214e-10,2.600156e-10,0.32552707,-0.4048331,1.1993308,7.187957e-13,-0.48034412,-3.859179e-06,4.33459e-05,-1.483799e-13,1.228342,-0.18903114,-4.7396765e-13,-1.5377683e-08,1.4901591e-12,0.1998046,-0.2476399,-8.9218075e-14,0.02359613,-3.5479811e-13,0.59863055,-0.6928406,1.762137e-12,-7.2984115e-08,-1.0801516e-09,0.3371241,6.0987e-13,-0.38089082,1.3921546e-11,-0.6075159,2.0708024e-10,2.9623175e-09,-0.17638269,-0.6264908,-0.25217578,-0.6025472,-0.2417844,0.015545865,1.1112251,-0.0028366859,-4.4307944e-09,6.286689e-11,-0.5771268,-0.038226232,-0.7451795,-1.2333285e-12,0.7026292,-3.4360212e-06,4.088893e-05,-4.656978e-13,0.35637382,0.4631364,-1.1278294e-12,-1.11131175e-08,5.078102e-13,0.64498264,-0.33097002,5.302068e-13,0.19801396,-3.8077744e-13,0.15090704,-0.41051114,1.3221403e-12,3.26972e-08,4.2397208e-10,-0.1109117
-1.3189697e-12,0.399288,-3.183695e-12,-0.46839002,-2.0983565e-10,-2.7778734e-08,-0.81613207,-0.4109004,-0.42107043,-0.2889364,-0.14915985,-0.16259657,0.16184528,0.017501665,5.1265294e-09,6.32469e-10,-0.2457321,0.16345413,0.63220984,9.359389e-13,-0.062145293,4.278296e-07,-1.6577265e-05,-2.41295e-13,0.991478,0.1381827,1.0939915e-12,-5.672881e-09,2.183169e-12,-0.4728729,-0.14786884,4.1654522e-13,-0.010925487,-3.27209e-13,-0.3777534,-0.11511561,-2.6171318e-13,2.0043524e-08,-1.0767189e-09,-0.51913166,1.4293503e-12,0.07257147,3.0369717e-13,0.18323383,-1.5236253e-10,-3.3960283e-08,-0.14771403,-0.5046722,-0.01795657,-0.6966209,-0.13883962,0.052615073,0.47937614,0.0070624165,2.0983304e-09,3.1636163e-10,0.057364818,-0.3463884,-0.37859815,-6.214219e-13,-0.41429627,2.3017467e-06,1.0561322e-05,5.058453e-13,0.24471071,0.48141596,3.837501e-14,-1.5576532e-08,4.808801e-13,0.30584213,-0.19076663,-4.3276336e-13,-0.11890562,1.8875125e-13,-0.1943773,0.0092525035,-1.2372039e-12,-6.4801844e-09,1.4125895e-10,-0.5382001
-6.671351e-13,-0.5027016,-5.433594e-12,-0.67292255,3.487654e-09,-1.4243785e-08,-0.47803593,-0.40981746,0.26299044,0.21916614,0.4117465,-0.16816644,0.26519877,0.00025634584,-8.847331e-09,2.0157487e-10,-0.604121,-0.9164652,0.6645562,9.515207e-13,0.12636209,-7.187117e-06,5.783947e-06,-1.5108605e-13,1.9508479,0.05912325,-8.4695434e-13,-1.0100109e-09,-2.286837e-12,-0.17375478,-0.52647585,-1.7435818e-13,-0.02969617,4.606891e-13,0.9076355,0.008736803,-1.386135e-12,-2.1205917e-09,-9.067826e-10,-0.53821623,1.6069218e-12,-0.48695427,-2.9955617e-12,-0.07624532,-1.6838793e-09,1.4233653e-07,-0.25351316,-0.13872862,-0.5310031,-0.09377216,0.32564163,-0.15439516,1.4247313,-0.00415417,7.0929627e-09,4.3603662e-11,0.62341154,0.26444694,-0.10675455,-1.8916695e-12,-0.38659763,6.3504103e-06,4.5334564e-05,-3.2537306e-13,-0.124258295,-0.23230276,7.63806e-13,-2.969067e-09,-2.6014473e-12,1.0489167,-0.26966634,-2.5067416e-13,0.22205028,1.7619725e-13,0.26526943,-0.5851305,-3.5516078e-14,-9.3131646e-08,-1.1950576e-09,-0.49570483
5.9176785e-13,0.35777792,-3.9851703e-12,0.20325097,-1.137471e-09,7.798797e-09,-0.2805752,-0.12817769,0.0032464843,0.29196522,-0.14394435,-0.22284277,0.3888391,-0.0049270405,2.1691562e-09,2.1621785e-10,-0.10340527,-0.082745254,0.34992307,-1.506404e-12,0.28579065,-2.511027e-07,-3.943231e-06,-3.2979218e-13,0.75485826,0.05697042,-9.473216e-13,-5.3695937e-09,1.2688902e-12,-0.71384114,-0.68361735,3.3544348e-13,-0.07988945,7.389783e-13,0.08916817,0.41190648,-4.3953388e-13,-8.012492e-09,-3.7447628e-10,0.42757195,7.951893e-13,0.25803232,4.406235e-12,-0.40185514,-5.199396e-10,-1.0849218e-08,-0.7136387,-0.34536946,0.20476373,0.16687554,0.59650713,0.07229663,0.91558653,0.0016639476,-1.0029242e-09,1.190182e-11,-0.7707452,-0.032778155,-0.9519548,6.785464e-13,0.8767172,-8.921503e-06,2.9996495e-06,-5.4198475e-13,-0.49650258,-0.41159588,4.0285388e-13,-3.071397e-09,-9.945581e-13,0.11214315,0.23860309,5.764254e-13,-0.15757315,-7.03686e-14,-0.5075675,0.35741082,-2.0012785e-12,-5.7679927e-08,1.3900976e-09,0.32581827
6.8836224e-13,-0.36929417,5.492487e-12,-0.44142836,2.4687716e-09,6.972117e-08,0.22059205,0.13590764,0.42220435,-0.38479257,-0.13806276,0.41443798,0.3375719,-0.0050721704,1.3875934e-09,1.4338193e-10,-0.52358955,-0.12947091,0.21148804,-1.7550354e-12,0.16453347,-8.298173e-07,1.642663e-05,2.4721701e-13,0.6884274,-0.25629795,-9.632562e-13,6.0903727e-09,-6.341455e-13,0.8959293,-0.032337442,-7.095238e-13,0.03414061,-4.8789206e-13,0.20653252,0.8420141,3.7379778e-13,-6.5249695e-09,-1.360023e-10,-0.27071056,-6.158162e-13,0.22692843,2.9114244e-12,1.0025433,-8.8284885e-10,-2.8915546e-09,-0.6944228,-0.19179286,0.54737526,-0.40355176,0.029616777,-0.48909256,1.2374198,-0.00017203653,1.8493417e-09,-2.8448177e-10,-0.8053162,-0.5271408,-1.218884,7.1967454e-13,-0.5644694,1.6516349e-06,2.488925e-05,3.588663e-13,-0.21181479,0.0007856963,-1.1874453e-12,5.817809e-09,-5.2679914e-13,-0.16977963,-0.6594312,-1.850706e-14,0.15337677,7.788136e-13,-0.01734441,0.18772906,3.6427215e-12,-3.891904e-08,1.4901699e-09,0.3948582
1.0096604e-13,-0.21145234,-2.2166596e-12,0.47036523,1.281953e-09,-5.521917e-09,0.51991737,-0.32869247,0.28485644,0.022175735,-0.02645409,-0.25433964,-0.17079496,0.0058805896,1.02073065e-10,-1.09918755e-10,-0.2868628,1.0645221,0.9800335,1.7568532e-12,-0.6351429,2.8914214e-06,-3.162163e-05,1.9236948e-13,1.0792122,-0.19493853,-1.0966883e-12,6.131447e-09,-1.031124e-13,0.5169231,0.63724494,-1.1403346e-13,0.058157425,-8.3116185e-14,0.40075043,0.47931883,1.8920553e-12,-1.8677538e-08,1.0992299e-10,-0.16956548,-3.544688e-13,0.10587004,-1.7583378e-12,-0.1103933,1.3742664e-10,-1.320854e-08,-0.27444574,0.02551623,0.7193043,0.18953395,0.10511962,-0.3793053,1.1612271,-0.0007176135,-3.0537466e-09,2.0557865e-10,0.23020214,0.46586964,-1.1033843,4.170674e-12,-0.47660783,1.3919589e-06,-1.6756603e-05,5.1651663e-14,-1.0216008,0.23851353,-3.9808174e-13,1.7522977e-08,6.3783896e-13,-0.21832123,0.36072567,-4.707927e-13,0.22433037,7.2046405e-13,0.12437159,0.5484923,1.6821697e-12,1.9889292e-08,-9.8394626e-11,-0.042305846
-9.56492e-13,-0.25855774,4.5774383e-12,0.3652642,-4.883791e-10,4.22295e-08,-0.19277495,0.5520752,0.2537633,0.27432948,0.326191,0.5167792,0.7356126,0.0104499655,4.789424e-09,7.682449e-11,-0.29449913,0.6006201,1.1695635,-1.9494096e-13,-0.41142786,-2.3875373e-06,3.0980127e-06,-4.6366687e-13,1.4507957,0.16611028,1.4212248e-13,-3.0335399e-09,-1.4086456e-12,-0.27847457,0.011032626,4.7083637e-13,-0.032737736,1.2343893e-12,-0.007665826,0.12021063,-2.0581178e-12,7.327361e-08,-2.0079707e-10,-1.3212409,-4.4270512e-13,-0.8501212,-2.0692827e-12,0.2580541,5.0773075e-10,-9.681727e-08,-0.087278366,0.13904181,-0.90067744,0.56727695,-0.46812096,-0.13026777,1.3279048,-0.005321665,2.6511453e-09,3.7386416e-10,-0.48776954,0.29863548,-0.55276537,5.878206e-13,-0.3100416,4.156885e-06,4.355615e-05,-4.3764647e-13,-0.696111,0.5091783,-1.5257205e-13,8.26843e-09,6.908918e-13,-0.7637623,0.52763814,-4.2938846e-13,0.26395515,-8.883998e-13,-0.15650125,0.32821128,3.450525e-13,5.8608435e-08,2.0907745e-10,0.25228107
5.6954376e-13,-0.36980084,-5.056478e-12,0.17893888,-9.0182706e-10,-4.84446e-08,0.059575804,0.18647328,-0.04847606,-0.5678977,0.3967664,0.11357006,0.9497774,0.013982278,3.445503e-09,7.083652e-11,-0.6954287,-0.09080145,0.69653517,-3.0122142e-12,0.012062114,5.1316295e-07,2.0641606e-05,-6.144938e-13,1.4127394,-0.20655146,-9.872775e-14,-6.693243e-09,-1.6578119e-12,-0.092292204,-0.46722245,2.984079e-13,0.035620164,-4.6586324e-13,-0.15107718,1.2053758,9.259823e-13,-5.4206247e-08,9.875423e-10,0.9048674,1.5600285e-12,0.05798322,-1.0557642e-12,-0.6196658,-1.2024891e-09,8.308987e-09,-0.118560135,-0.44263992,0.2912626,0.82157534,0.89954394,0.06578499,1.4749559,-0.010363672,5.7639338e-09,-2.9429698e-10,0.2655626,0.27587172,-0.66098464,-1.9602576e-13,0.52615684,1.2825274e-06,2.127053e-06,-3.5708594e-13,0.29900327,-0.31881687,-1.4704212e-12,-2.0868134e-08,4.241974e-13,0.15825295,0.4550082,-9.110551e-14,-0.11861562,6.550267e-13,0.06265007,0.17807208,-1.9953514e-12,7.14709e-08,9.54907e-11,0.120763175
-3.0718272e-13,0.36147365,-4.2058995e-12,0.05609853,-4.256735e-09,8.155452e-08,-0.19977267,0.18274683,0.4402586,0.179051,0.6346584,0.22390735,0.26150018,-0.010037376,-3.1559788e-10,1.5088025e-10,-0.346452,0.22085793,0.7479144,-1.0962569e-12,-1.018345,-4.4373763e-07,-1.0764476e-05,-6.072499e-13,1.6449252,-0.52307403,5.42291e-13,-2.9407297e-09,1.7032587e-12,0.29069892,0.024670135,-6.26207e-14,0.2073921,3.0249414e-13,-0.3057867,0.37790167,-3.5730115e-12,-6.8869575e-08,5.0254856e-10,0.6926729,-3.3966528e-13,-0.32794863,-6.9443782e-12,0.39882496,4.4614715e-10,-1.6913967e-08,-0.28207567,-0.6505092,-0.18169153,-0.20802948,-0.7253502,0.077224076,1.2385379,0.001990172,-5.2650106e-11,2.7477773e-10,-0.1534417,0.6730478,-0.67163163,2.3634844e-12,0.39618203,2.459591e-06,-3.1360127e-05,-2.6326538e-13,-0.8423845,0.039537705,2.4597915e-14,-1.7424657e-08,-3.0097048e-13,0.5012616,0.079592966,3.1659896e-13,-0.41261032,3.315039e-13,0.2515653,0.20386556,1.3964426e-12,8.99224e-08,-9.44038e-11,-0.35985997
