-9.282562e-09,5.8692848e-08,8.961405e-08,2.178315e-07,-4.256176e-09,-1.025019e-08,4.8763127e-10,-7.306284e-08,3.852518e-08,1.0433162e-08,-8.5192724e-08,-0.031693008,-1.7967443,-4.8951783e-08,-7.302154e-08,5.279202e-08,9.360774e-08,-1.30490285e-08,-1.7185667,0.14192505,-4.912035e-08,1.933639e-08,9.260061e-09,7.0748655e-08,-6.674073e-08,3.3192187e-08,1.3417512e-08,1.8008093e-08,3.3645357e-08,4.1100147e-08,5.5808567e-08,-1.3647789,-7.597993e-08,-6.504206e-08,1.2785554e-07,5.6326698e-08,-5.3005234e-08,1.4946e-08,1.3074803e-09,1.5944123e-07,-5.4229687e-09,-1.870625e-08,5.836559e-08,1.3893785e-07,5.6087565e-08,-6.3433696e-08,7.351004e-08,-5.0477954e-08,2.4719231e-08,2.2780021e-08,2.3441409e-08,-2.551355e-08,-9.556011e-09,6.923338e-08,1.3690646e-07,1.1260681e-07,-1.3975683e-09,1.7081348e-08,-6.2439426e-08,-7.212188e-08,-4.672794e-08,-1.5320902,0.35668448,-6.875921e-08,3.2232826e-08,1.9895392e-08,4.399419e-08,-3.376205e-08,-0.94746846,-1.472388,-9.19338e-08,2.9922173e-08,-4.7532147e-09,1.4537665e-07,-4.1149715e-08,-2.71039e-08,7.27248e-08,-6.59705e-08,2.0164427e-07,-3.5520873e-08,-2.2381514e-08,0.8562844,-1.4975315e-07,-1.1024282e-07,-6.3327814e-09,-6.904004e-08,6.802206e-08,-1.6904707e-08,-6.6667326e-08,-7.855688e-08,-2.9087763e-08,2.1309342e-08,4.5795815e-08,-1.381316e-07,1.8442818e-09,1.623805e-07,-5.9131743e-08,8.440081e-08,1.11631934e-07,3.7256715e-08
-7.049364e-08,1.7401295e-08,1.5076454e-08,-4.014786e-09,-6.937059e-08,4.9378528e-08,-1.0052649e-07,-2.7123548e-10,5.856598e-08,-9.145995e-08,-1.5364509e-07,-0.38445243,-1.8353531,1.3518147e-09,-3.3530974e-08,-1.4585659e-07,3.693414e-08,1.4077519e-07,-1.7046943,0.4924742,-1.5810917e-07,6.5569976e-09,-1.1118431e-07,2.8225253e-08,-2.7602088e-08,1.2486407e-08,-3.6802135e-09,-1.3155787e-07,-2.0661872e-08,4.4874586e-08,-8.580945e-08,-1.3944123,1.6519031e-08,1.2100156e-07,7.324346e-08,-5.9352374e-08,1.0192036e-07,1.1159927e-07,-2.4903345e-08,2.6183223e-08,9.915652e-09,-1.3509485e-08,-2.5176549e-08,-6.414501e-08,7.21125e-08,-5.7814443e-08,6.056725e-08,3.088976e-08,-9.553239e-08,9.568085e-09,3.4826332e-08,8.873391e-08,-4.252029e-08,4.4204985e-08,-2.6644388e-08,4.037952e-08,4.3197794e-08,-3.8359225e-08,-1.4148105e-09,6.9073e-08,-4.6337693e-08,-1.5009106,0.1718134,3.999657e-08,5.889252e-08,-1.0575458e-07,1.3811551e-07,-1.9896925e-08,-1.1692443,-1.4815451,8.385916e-09,6.8015176e-08,-2.8407399e-08,-5.818299e-08,-9.1942525e-08,8.083152e-08,-1.02619246e-07,-1.5996262e-08,9.299013e-08,4.937519e-09,-1.0805331e-07,1.0296623,1.5136182e-07,-8.595309e-08,-8.9603304e-08,5.216549e-08,5.058633e-08,1.9662306e-08,-2.2709735e-08,-8.734181e-08,-5.815248e-08,-4.7083898e-08,-9.519502e-08,3.6633985e-08,6.319745e-08,-6.960406e-08,-1.1425893e-08,-3.8178815e-08,-2.011842e-08,3.5775926e-08
-1.4890337e-07,-4.958599e-08,2.9965683e-08,5.8530542e-08,-4.0132406e-08,3.020041e-08,4.145869e-08,-1.293981e-07,-6.226223e-09,-1.933617e-07,9.9491736e-08,0.18393396,-1.6169728,-1.97725e-08,3.4142502e-08,7.029918e-08,1.2052656e-08,-1.9829535e-08,-1.5795243,-0.06097896,-2.4057803e-08,-9.567448e-08,-2.5044251e-09,4.8036846e-08,7.800601e-08,7.723842e-08,5.869464e-08,1.1762744e-08,-4.0308848e-08,6.274368e-08,3.710892e-08,-1.2932605,-2.1636845e-08,-7.621658e-08,5.0378585e-08,-1.8380608e-10,-9.8552576e-08,4.3089848e-08,6.988803e-08,2.1862299e-08,-2.4634911e-08,-8.2120415e-08,-1.13695805e-07,1.3517322e-08,6.310249e-09,1.04526244e-07,3.5166114e-08,-1.4091503e-08,-2.5495535e-08,7.454951e-08,-5.8587172e-08,2.6964987e-08,1.8641657e-08,-6.274463e-08,3.5137557e-08,5.6515365e-08,1.9908266e-07,-4.841704e-08,-2.0024052e-07,9.0887276e-08,1.622978e-08,-1.4348001,0.3634768,7.013756e-08,-1.8166148e-08,-1.1271547e-07,-1.673461e-08,3.1286945e-08,-0.3149291,-1.4064342,6.689928e-08,-6.2825993e-09,-8.1690494e-08,1.3264449e-08,1.1919255e-07,-3.2473604e-08,-4.454632e-08,4.6254858e-09,-4.0884807e-09,-6.0192434e-08,1.9161e-07,0.6435188,7.777279e-09,-3.7736847e-08,9.254052e-08,4.9647436e-08,1.3871032e-07,3.750226e-08,-3.0303262e-08,-2.0771402e-09,4.695051e-08,8.9274316e-08,5.381922e-08,-5.643122e-08,-7.975564e-08,7.573034e-08,-6.374685e-08,-8.113839e-08,7.0342125e-08,3.2403292e-08
1.0279006e-08,8.3143426e-08,-1.3721673e-08,5.95698e-08,-7.496308e-08,9.243287e-09,1.942524e-08,-2.0100387e-08,8.262234e-08,5.8238992e-08,-8.77926e-08,-0.12913777,-1.9338751,-1.066254e-07,6.629814e-08,2.06254e-08,-7.464722e-09,4.341608e-08,-1.8876748,0.36481807,2.8100953e-08,6.714542e-09,-2.4126123e-09,5.064642e-09,1.0977209e-08,-1.7504762e-07,-4.969026e-09,-3.7369247e-08,1.02990235e-07,8.767587e-08,-3.081302e-08,-1.6374022,-1.0669365e-07,4.5659885e-09,-9.5751666e-08,-1.0385904e-07,4.386951e-08,9.240697e-10,3.024129e-08,-1.7199806e-08,3.8041968e-08,-4.504803e-08,4.8222343e-08,6.9105344e-09,-4.5838506e-09,5.1932965e-08,-5.0300265e-08,5.6777793e-08,8.5141885e-09,-1.0498452e-07,-9.719854e-08,6.340663e-08,6.799664e-08,3.5169084e-08,2.5523976e-08,8.419073e-08,-1.6941719e-09,-1.7381222e-08,7.573723e-09,3.6951594e-08,-6.187816e-08,-1.7823871,-0.4034702,-1.9193132e-07,7.904427e-09,-1.1964527e-08,1.83732e-07,-1.5097562e-08,-0.8797769,-1.771221,-7.443048e-08,5.3165408e-08,-7.290201e-08,-6.470188e-08,7.068826e-08,1.8848358e-07,-1.617122e-08,3.257929e-09,9.503051e-09,1.9483807e-08,-1.4407121e-08,0.39530772,-7.225896e-08,1.6083105e-07,1.7314209e-08,6.341878e-10,-1.4109617e-07,2.5913023e-08,-3.5809567e-08,6.989765e-08,3.3499088e-08,-6.669796e-08,-2.0399142e-08,-1.6662831e-09,1.0607e-07,1.287238e-07,2.081808e-08,-1.5374342e-08,-9.146429e-08,-7.7026215e-08
1.2883403e-07,5.022125e-08,-9.408784e-08,3.839773e-11,-7.5245135e-09,2.5790019e-08,-1.2632566e-07,1.6583107e-07,-6.1015164e-08,-8.1802254e-10,-7.390043e-08,0.57416284,-1.6886857,1.2245803e-07,-1.6972542e-07,-3.2263205e-09,-1.0775589e-07,-1.452238e-07,-1.629161,-0.34433073,3.0325758e-08,3.670625e-08,-1.7464304e-08,-1.098934e-07,5.8258344e-08,8.252475e-08,-6.9571854e-08,-4.5578567e-08,6.1667976e-08,7.15631e-08,1.4589535e-08,-1.3587748,-1.7218266e-08,-1.01443e-08,-1.8438723e-08,8.6343476e-08,-4.3668358e-08,5.501608e-08,2.4084638e-08,-3.436508e-09,9.2625285e-08,3.84465e-08,-1.9531807e-08,6.992467e-08,1.07169825e-07,5.7001508e-08,-1.3675013e-07,1.3002712e-07,-1.1211517e-07,2.5296009e-08,-1.2121475e-07,5.6988064e-08,1.7158509e-07,-3.4232947e-08,4.222831e-08,1.5030329e-08,1.2431933e-08,-2.242422e-08,5.1205348e-08,-8.332241e-08,3.0588275e-08,-1.4787105,0.5838744,-1.2508244e-07,3.8619916e-08,-2.7246635e-08,1.2509545e-08,-7.928176e-08,-0.5466495,-1.4240512,4.1222513e-08,1.500643e-08,-6.961017e-08,2.7947813e-08,4.9258276e-08,8.403745e-08,1.3288151e-07,-1.9829218e-09,-2.0897959e-08,1.299927e-07,1.0708094e-07,0.62624353,2.1665704e-07,-4.829745e-08,1.567931e-08,-5.416884e-09,-9.709822e-09,1.0938047e-08,3.88427e-08,1.5589904e-07,6.2642464e-08,1.8335646e-08,8.908795e-08,1.645888e-08,-1.0438388e-07,-1.508505e-07,6.142715e-08,-3.8687915e-08,8.273e-08,3.475124e-08
7.81575e-08,-4.891592e-08,-9.860125e-08,-5.786612e-08,9.069611e-09,7.0536608e-09,-1.1768608e-08,6.33007e-08,-8.197642e-08,4.342506e-08,-5.1513275e-08,0.5852749,-1.7410545,-1.0151243e-07,-1.3824624e-07,1.5742412e-08,-3.5470734e-08,4.7715485e-08,-1.7156817,-0.36086652,-4.9063406e-08,-6.1610145e-08,2.8750412e-08,2.2344391e-08,-1.3846773e-07,7.0622335e-08,1.5143188e-07,-9.0939864e-08,2.2140181e-08,1.0854603e-07,-6.0218014e-08,-1.4033632,-1.7702169e-07,5.104952e-09,6.004256e-08,-4.8619476e-08,-1.2837498e-07,-1.216916e-07,4.8692993e-08,2.0270906e-07,-7.504672e-08,-7.6212686e-08,3.7706513e-08,-1.0930507e-08,-3.863484e-08,9.991898e-08,-6.342497e-08,1.2376185e-08,-7.799002e-08,9.882411e-08,-4.692417e-08,4.7773845e-08,1.1430561e-07,2.8849081e-08,-1.5689865e-07,7.231213e-08,1.7573447e-07,-1.17438624e-07,4.2881506e-08,-1.3629685e-07,5.34276e-08,-1.5550804,0.6357118,-1.2233048e-07,-2.9476631e-08,6.779037e-08,6.218451e-08,4.296835e-08,-0.6266165,-1.4927331,1.6722328e-09,-4.9118412e-08,-3.2493787e-08,2.8649662e-08,-1.4929773e-07,-2.5595165e-08,-7.2208664e-08,-1.3481795e-07,-9.411343e-08,5.9194104e-08,4.7093156e-08,0.7590851,-4.9175704e-09,3.292496e-08,8.491761e-08,-4.2976342e-08,8.2684437e-10,-4.7123482e-08,-2.4482594e-10,-3.0158862e-08,8.5973255e-08,2.7282864e-08,1.2046151e-07,-3.131515e-08,6.04798e-09,-7.584994e-09,9.494473e-09,7.758847e-08,-4.700519e-08,7.8326835e-08
-3.5758035e-08,9.239036e-10,1.1639707e-07,-5.5612837e-08,1.2516297e-08,-2.2470442e-08,-4.1028713e-08,-2.596694e-08,4.8167596e-08,5.6123934e-08,1.7816554e-08,0.6720531,-1.8706554,8.8588706e-08,-4.7253778e-08,-3.543152e-08,6.4911674e-08,2.3395241e-08,-1.8615162,-0.3809788,7.861175e-08,-3.8931937e-08,-2.415549e-08,-1.3449744e-07,-4.3463515e-08,-6.210246e-08,-1.3244887e-07,3.9153633e-08,4.428361e-08,-8.456128e-08,-9.934761e-09,-1.5410974,2.8314442e-08,-1.5258436e-08,6.848815e-08,-7.868693e-08,3.5403716e-08,7.5270535e-08,2.370435e-08,6.444409e-08,-4.9832288e-08,-9.625829e-10,-5.6475645e-08,-1.6176532e-08,-1.2431986e-08,-1.654805e-07,2.1758108e-08,1.1330023e-07,4.4684246e-08,-9.323598e-08,-9.656708e-08,6.417757e-09,-3.1512222e-08,-4.8701562e-08,-1.02775715e-07,-1.2075307e-07,-2.8432257e-08,4.00273e-08,-3.8918643e-08,-1.9843446e-08,-2.3614408e-08,-1.7223577,0.7219202,7.0286212e-09,-1.6071738e-08,5.4781175e-08,2.6820874e-08,2.6790264e-08,-0.7582335,-1.6987914,1.1341519e-07,1.1184346e-08,7.524734e-09,-1.19184826e-07,-4.4636074e-08,1.73085e-07,3.8220232e-08,-8.540489e-08,2.1095229e-08,7.691625e-08,2.0154825e-08,0.9556671,3.8916856e-08,-1.5627913e-07,4.7704795e-08,-9.996738e-08,1.5096519e-07,-9.821736e-09,-5.972768e-08,-4.240898e-08,-2.8492417e-08,-1.4535871e-07,1.2564522e-07,-1.07512285e-07,4.2402288e-08,-7.404957e-08,-7.066612e-08,-2.5031133e-08,-1.4297269e-08,-7.397933e-08
3.4733908e-08,3.233973e-08,-3.995304e-08,1.4772861e-07,-8.661651e-08,-2.2351365e-09,-1.03975715e-07,-7.443563e-09,-1.1546936e-07,-4.3744667e-08,-1.3005896e-07,0.13902485,-1.9273573,1.2427424e-07,-1.269973e-08,3.6795882e-08,6.3058287e-09,2.6650149e-08,-1.855519,0.099913076,-4.076653e-08,-5.986902e-08,-6.9423507e-09,-1.5689916e-07,-7.2445296e-08,-2.8433815e-08,-9.698837e-09,-5.7218454e-08,1.1096504e-07,-2.0196562e-07,-9.475422e-08,-1.5945663,1.092242e-08,-2.2081917e-08,2.2948079e-08,7.060595e-08,-1.2643632e-07,-5.533013e-09,2.1724776e-07,4.32875e-08,1.0584795e-07,1.1588452e-07,3.677512e-08,-1.8039216e-08,-2.0684137e-08,-5.453675e-08,-6.864017e-09,6.314903e-08,-1.3104945e-08,-2.7984582e-08,-4.9054616e-08,-4.5229203e-08,1.10759125e-07,4.950018e-08,-1.3425702e-07,2.1614659e-08,-2.283171e-08,1.5644844e-08,-1.7727082e-07,1.06539225e-07,-2.5846913e-07,-1.7626642,0.2851296,5.1557027e-08,-1.6463576e-07,3.0317473e-08,-1.4347744e-08,5.515416e-08,-1.1221315,-1.7600495,2.357848e-08,-2.1911852e-08,1.5197699e-07,8.4563226e-08,8.886232e-08,-8.706098e-08,4.6094886e-08,-8.330539e-09,4.9487646e-08,-1.1558075e-08,1.5814446e-07,1.0492324,-6.794479e-08,-1.3568594e-07,-1.12891215e-07,4.832157e-08,-3.0822772e-08,-2.5482993e-08,-4.435855e-08,-6.931421e-08,-5.5952324e-08,-2.7145944e-08,6.566164e-08,4.554873e-08,9.549133e-08,-1.8062543e-08,8.7073975e-09,-5.798353e-09,-5.739865e-09,-8.897196e-09
-1.8963584e-09,2.238587e-09,-7.246389e-08,5.253991e-08,-2.316103e-08,-9.783712e-09,1.8920193e-08,1.5187265e-08,-5.246367e-08,-4.329623e-09,2.9506648e-08,0.35658574,-1.7298284,4.0346357e-08,-1.2139628e-07,-5.4072775e-08,8.908637e-09,1.208025e-08,-1.711685,-0.24867326,-3.0273082e-09,7.144308e-08,-4.6220798e-08,-1.6107048e-08,-7.067086e-08,2.883365e-08,1.0676798e-08,1.02083e-08,4.5317282e-08,9.951199e-08,-4.9788795e-08,-1.3379163,-2.9206925e-08,-3.1317754e-08,3.2653336e-08,-1.06073e-08,-5.019082e-08,-1.0654349e-08,8.764573e-09,2.7385667e-09,7.739551e-09,2.6215389e-08,-4.1647752e-08,-7.206242e-08,-2.8259173e-10,9.196855e-08,-2.434385e-08,9.425454e-09,-1.1831648e-07,1.0996769e-07,-4.3595776e-09,-3.1127527e-09,-3.457662e-08,4.6280515e-08,3.4537347e-08,-7.014012e-08,1.0141889e-08,6.06666e-09,5.0814112e-08,4.779126e-08,2.7212135e-08,-1.4770752,0.22293805,1.349216e-07,-1.5959873e-08,2.3858837e-08,-2.273296e-08,1.0191254e-07,-0.4796231,-1.477665,-2.1507798e-08,3.731634e-08,8.30155e-09,-4.3393545e-08,-1.6370066e-07,1.0129984e-08,1.1590751e-07,1.4974702e-08,-5.579254e-08,-1.52678e-07,1.2687867e-08,0.4803049,-9.74052e-09,-1.7402233e-08,-1.2373032e-07,-1.6297998e-08,1.9659954e-09,7.866023e-08,1.1236125e-08,9.821585e-08,-4.4007738e-08,7.744165e-08,-8.670577e-08,1.911776e-08,-4.8490275e-08,1.0353841e-07,1.9999904e-08,-3.5123175e-08,6.898757e-09,-1.1234738e-07
2.326183e-08,-9.8537704e-08,-7.4643225e-08,1.3594678e-07,-7.0957498e-09,3.869853e-08,6.899376e-08,-2.9012298e-08,-4.3647145e-08,7.7822065e-08,1.6456545e-07,0.4448313,-1.7899364,1.0524607e-07,8.434105e-08,5.5800598e-08,8.24017e-08,3.3113224e-08,-1.7369351,-0.20515719,-1.0899683e-08,-6.8960105e-08,-2.5921386e-08,5.072388e-08,-8.896056e-08,3.0079224e-08,2.3842688e-08,-3.757551e-08,9.6459125e-09,1.1314482e-07,-2.568293e-08,-1.4857031,1.7723264e-07,-2.371987e-08,-1.1492503e-08,4.7786717e-08,-2.6157252e-08,-4.95676e-08,1.5852759e-09,-5.3733686e-08,-5.3350696e-08,1.99818e-07,4.2815067e-09,4.864767e-08,1.6669997e-08,2.6630309e-08,3.6837548e-08,-3.3852956e-08,-2.2681935e-08,-5.3225513e-10,-2.7193878e-09,-2.9440503e-09,6.2951905e-08,7.4532345e-09,-3.4298864e-08,6.726208e-08,6.5748445e-08,2.0333882e-08,-5.991558e-08,2.2044075e-08,-2.7367935e-08,-1.5754287,0.37931702,1.3710888e-08,5.920893e-08,9.120503e-08,-3.4526222e-09,8.3556685e-08,-0.69064176,-1.5410861,5.4317653e-09,-7.567177e-08,2.586638e-08,-7.165252e-08,-1.3425197e-08,-7.272421e-08,-1.3677914e-07,2.1255207e-08,-4.87424e-08,-6.1485636e-08,-1.0180049e-08,0.5852781,1.1165813e-08,3.0922557e-08,-8.744672e-08,9.082957e-08,6.967134e-08,-1.3568426e-07,9.369485e-08,-3.995777e-08,-7.331093e-08,-2.1742345e-08,-1.7659363e-07,-3.8819024e-08,2.638648e-08,5.0760956e-08,7.2503724e-08,1.1279335e-08,-7.3579514e-08,-2.5180718e-08
-3.1613578e-08,5.6513322e-08,-5.673472e-08,4.334544e-08,-2.7229945e-08,5.0400228e-08,1.3482948e-08,-4.5130273e-09,7.747603e-08,-9.971242e-08,-7.754058e-08,0.56441456,-1.5437032,-2.2856597e-09,-6.76699e-08,8.779946e-09,1.2216807e-07,-1.19121495e-08,-1.5518284,-0.43753842,-6.87383e-08,1.4105659e-07,-1.9462373e-08,-1.2416052e-07,-2.308574e-08,7.7031984e-08,1.3248594e-07,1.8377769e-07,2.7544631e-08,-2.8639185e-08,-3.985216e-08,-1.2603322,-2.8207896e-08,-5.5013842e-08,1.4707005e-07,1.4539676e-08,-2.0185908e-07,4.7605944e-08,-2.5551984e-08,-3.8892754e-08,-7.4063706e-08,6.132623e-08,-1.344044e-08,1.1423425e-08,7.9265146e-09,5.437187e-08,6.6557064e-08,-5.718505e-09,4.4352966e-08,-4.8066156e-08,-3.3077356e-08,9.287859e-09,2.8999244e-08,-2.2721718e-09,3.8581273e-08,-3.772578e-08,-8.340031e-10,-1.2397537e-08,-2.9972256e-08,9.3467634e-08,-1.9551113e-08,-1.3329496,0.50641805,2.1230075e-08,9.375549e-08,3.2562276e-08,1.15914936e-07,-1.3209838e-07,0.02115566,-1.2817401,-1.0704507e-08,-1.9475434e-07,-3.5872645e-08,9.036951e-09,-4.29804e-09,1.5007112e-08,1.1947659e-08,-1.6019484e-08,1.1173714e-08,4.8045123e-09,1.395783e-07,0.33899456,-7.3298374e-08,1.9189436e-08,5.3278306e-08,-8.4755314e-10,1.0427333e-07,-1.5882256e-08,1.5032238e-07,4.0487297e-08,-1.8505757e-08,1.081472e-07,1.4465225e-09,-3.544389e-08,-4.9888026e-08,1.1554576e-08,3.3074357e-08,-5.6870324e-08,1.4108579e-07,-1.1655612e-07
-4.8418457e-08,-2.6257721e-08,3.1024594e-08,3.3883758e-08,1.3002861e-07,-3.6356138e-08,5.4074185e-09,1.2578704e-08,2.3236282e-08,3.948957e-08,4.0016648e-08,0.24579555,-1.474441,-1.473091e-08,-4.7701175e-08,-3.9664588e-08,-1.8947821e-08,5.1411654e-08,-1.4663808,-0.14700195,1.5355732e-07,1.185742e-08,-1.1091432e-07,9.740695e-09,4.4711648e-08,7.4475395e-08,7.6338594e-08,6.105839e-08,-5.0447376e-08,-3.5627416e-08,7.558399e-08,-1.1185642,1.2356478e-08,-9.336816e-10,1.6463275e-09,3.4350563e-08,-9.478238e-08,1.1869703e-07,-1.5856255e-08,-1.0610354e-07,-2.5038748e-08,-4.5661412e-09,1.6241312e-08,3.009569e-08,6.278967e-08,7.152158e-08,2.0148228e-08,-3.5442625e-08,8.41462e-08,4.608284e-08,2.1546859e-08,-2.7339679e-08,-8.9352795e-08,-3.031843e-08,-5.7545535e-08,-9.129214e-08,-2.2352033e-08,2.1048294e-08,-7.16635e-08,2.6132358e-09,-6.686029e-08,-1.1774317,0.07317474,-2.8387182e-08,5.3577615e-08,1.2269856e-09,-3.0715956e-08,1.9924457e-08,-0.23732118,-1.1153708,8.724767e-08,3.2138558e-10,2.8380786e-08,-4.659769e-08,-1.15619315e-07,1.2168316e-08,3.3390048e-08,-3.590805e-08,-2.1784185e-08,-7.27063e-08,-1.5718086e-07,0.1372698,-1.2678805e-07,6.8971193e-09,5.8326535e-08,2.6409488e-09,1.1848856e-07,8.648806e-09,9.4235574e-08,-2.1355916e-08,-6.3493154e-08,8.214266e-08,4.926504e-08,-1.4442568e-07,-3.1433004e-08,-7.391135e-08,-1.7237092e-09,2.9064461e-08,1.4724984e-07,-3.1319647e-08
3.672543e-08,-6.572382e-08,-6.080585e-08,1.14912254e-07,-4.4341533e-08,5.3940052e-08,1.9351951e-08,-8.9712074e-08,-2.4611849e-08,4.6908973e-08,-9.5469495e-08,0.5714629,-1.4660789,-9.171753e-09,3.234635e-08,2.4354962e-08,3.4491546e-08,-3.4916113e-08,-1.5328257,-0.5204896,-1.7351109e-08,-8.1100474e-08,-4.51628e-09,3.2762696e-08,9.611937e-08,-2.3789513e-08,5.1039645e-08,2.33832e-08,5.6388117e-08,-1.2775596e-08,4.4928676e-08,-1.043472,8.823586e-08,7.375478e-08,-3.0331528e-08,7.3869852e-09,8.409055e-09,-3.6624577e-08,-9.3857196e-08,-3.1341944e-08,1.1259393e-08,-1.6782522e-08,3.0870115e-08,7.036378e-08,-5.3860962e-08,9.662216e-09,-1.2198246e-08,7.542433e-08,-7.23015e-08,-7.906612e-08,2.3609712e-08,7.4123605e-08,7.228324e-08,-1.4972694e-09,-1.9067999e-08,8.724801e-08,-9.800427e-11,1.7305561e-08,1.2317621e-08,-1.1765181e-08,2.649913e-08,-1.2684195,0.63312477,-2.4720025e-08,-6.258382e-08,4.5058055e-08,-1.673347e-08,-4.9352735e-08,0.20188156,-1.2507489,-6.065008e-08,-3.7805222e-08,-1.773299e-07,7.512436e-08,-1.3389078e-08,-6.727534e-08,4.7042203e-08,2.5963615e-08,1.1070053e-08,1.9593589e-08,1.009061e-07,0.49184147,-6.361803e-08,-6.6441274e-08,4.6719215e-08,9.210477e-08,7.1945635e-08,-3.4784243e-08,3.4408984e-08,1.2641375e-07,-1.6295272e-07,-2.7181832e-08,-3.8867647e-08,-4.342294e-08,1.2877362e-07,-7.2106943e-09,1.502394e-08,2.0138272e-07,-5.564898e-09,-3.0401566e-08
-3.576965e-08,-3.1951082e-09,-7.444804e-08,1.849475e-07,2.375813e-08,-2.1959007e-08,-1.08933635e-08,5.895695e-08,-2.3400482e-10,-4.998772e-08,-1.8751265e-07,0.27871507,-0.7647075,9.0498176e-08,-2.2180101e-08,-7.899462e-09,1.308776e-08,1.9768827e-08,-1.0935317,-0.28203833,-4.3783352e-08,1.1064931e-07,-9.04042e-08,2.4594144e-08,-1.1341531e-07,-3.3172906e-08,-1.07785716e-07,-1.0731086e-07,-2.3864466e-09,3.626069e-08,-4.23485e-08,-0.4575407,9.04785e-08,2.1192266e-08,-4.1098954e-08,3.257552e-08,3.1677523e-08,5.16317e-08,1.1449702e-07,3.0343916e-08,1.7265013e-08,-2.7417427e-08,4.4894335e-08,-7.5387305e-08,-9.451721e-09,1.1043324e-07,-1.03065005e-07,-8.796508e-09,1.8057307e-08,8.6350866e-08,3.7794234e-08,-2.2976977e-08,-3.8544467e-08,3.5312098e-08,1.3322661e-08,1.8258856e-08,7.740599e-09,1.0337018e-08,-2.4387827e-08,1.0882744e-08,2.1079945e-08,-0.7441828,0.5458746,-5.727378e-08,-1.5110217e-08,-4.833961e-08,1.0681407e-07,-6.398879e-08,0.26365298,-0.7883504,-3.8035903e-08,4.8162214e-08,2.7936139e-08,-1.1672586e-07,-1.3522969e-08,1.5229e-08,-3.4123754e-08,9.387584e-08,-3.378036e-08,-1.11931584e-07,-1.3264872e-08,0.41533193,3.569403e-08,-1.01814024e-07,-6.6837416e-08,-2.0807288e-08,-7.808724e-08,3.790064e-08,2.0145103e-08,3.8591008e-08,3.703524e-08,8.954753e-09,-4.065847e-08,-2.0133331e-08,-1.8162748e-08,-6.05756e-09,-2.8321427e-08,7.1418036e-09,-1.6175315e-07,1.52707e-08
7.9831835e-08,-9.168824e-09,3.7181113e-08,5.141465e-08,1.2273318e-07,-2.9121722e-08,-6.9607225e-08,6.269996e-09,3.312116e-08,-4.9505264e-08,3.371779e-08,0.7065794,-1.4082007,-1.3206002e-08,-8.870465e-08,1.8537293e-08,1.942205e-08,-1.622021e-07,-1.4585719,-0.56594044,-5.3737757e-08,6.827647e-09,3.907644e-08,3.796555e-08,-8.227147e-09,-2.0366656e-08,1.37176475e-08,2.7725102e-08,-1.2068567e-07,-9.941842e-08,4.073992e-08,-1.0724783,-6.292121e-08,-1.2858434e-08,-7.101259e-08,7.248743e-08,4.986937e-09,-1.4335356e-07,4.6480018e-08,3.1599665e-09,-1.1813558e-08,-5.4920694e-08,-8.281948e-08,-8.003339e-08,-8.8309584e-08,1.3666553e-07,-8.619634e-08,3.0228295e-09,1.6410719e-07,7.0336704e-08,-3.6832324e-09,-1.10832254e-07,-5.7316207e-08,-2.1413461e-08,1.7475186e-09,1.3239477e-07,-6.957864e-08,2.0901744e-08,3.124476e-08,-3.221843e-08,4.0121577e-09,-1.2658132,0.70201826,4.0970583e-08,-1.4762378e-07,2.6982022e-08,8.9892744e-08,3.2357825e-08,0.2774123,-1.2383163,-5.9328762e-08,2.4950104e-09,3.710889e-09,-2.4613508e-08,-1.7537309e-07,-1.3115948e-07,4.387058e-09,3.0012925e-09,1.0405513e-07,1.1023282e-08,-5.875635e-08,0.55508924,-4.1903693e-08,-1.4660015e-09,1.824824e-07,-4.9214393e-08,-2.6953611e-08,2.7409133e-08,-5.637739e-09,1.0583747e-09,-3.8129087e-08,-1.4054581e-07,7.489899e-08,1.00768816e-07,-2.5794918e-08,-2.968051e-08,2.1744086e-08,3.0097603e-08,-1.9579133e-08,6.083408e-08
-1.9339161e-09,7.652183e-09,6.4217742e-09,-2.3325963e-08,3.6245105e-09,-2.4931763e-08,-9.4846456e-08,2.4077046e-08,9.665252e-08,-2.9227525e-08,6.712326e-08,0.34378415,-1.6255494,8.269602e-08,1.6201986e-07,5.25859e-09,-2.2184146e-08,-1.0051489e-07,-1.6066188,-0.18608636,-9.3492105e-08,-1.6932102e-08,7.861183e-08,8.447431e-08,2.2709958e-08,-1.12462324e-07,8.674571e-08,4.0840945e-08,-4.2694637e-08,-7.5486696e-08,-7.29261e-08,-1.3171488,-4.6823267e-08,-8.046946e-08,1.2132801e-08,3.582998e-09,4.953901e-08,-7.023253e-09,6.961045e-08,-9.738267e-09,-6.712466e-08,2.546464e-08,-8.9938226e-08,5.0338844e-09,-5.7487963e-08,-6.7730426e-08,5.0753137e-08,-7.089207e-08,8.228743e-08,1.0448967e-07,6.2360435e-08,-3.2831252e-08,-1.1708307e-07,-6.876293e-08,1.7274768e-09,-2.518173e-08,-3.8825657e-08,1.8786611e-08,4.0492377e-08,1.1947618e-08,1.0644392e-07,-1.4609652,0.49548998,-5.1246115e-08,8.375487e-09,4.9572247e-08,-6.597613e-09,-1.3052912e-09,-0.040121205,-1.4387434,-1.01057545e-08,6.657221e-08,3.6971535e-08,-4.7656755e-08,4.5301306e-08,2.1418245e-08,-1.292953e-08,-1.5494638e-08,-1.1410655e-07,-1.8391201e-08,6.043652e-08,0.46501663,-2.0672455e-07,-2.2278492e-08,-3.017919e-08,1.7985759e-08,1.0515219e-07,1.8184446e-07,-5.1124292e-08,5.7428583e-08,-5.719596e-08,-5.093761e-08,-2.3922768e-08,4.7386397e-08,-3.562924e-08,5.304752e-09,2.7900748e-08,-5.2893206e-08,-3.1146275e-08,2.5145313e-08
1.25696e-07,-1.5488187e-07,-8.90952e-08,-9.0203066e-08,9.181e-08,-2.0457364e-08,-6.123773e-08,-4.414088e-08,1.6822021e-08,1.273638e-07,7.898808e-08,0.38107744,-1.7282764,5.635558e-09,-6.127215e-08,6.9409886e-08,1.9636737e-10,-6.841496e-08,-1.6064936,-0.19922295,-8.154547e-08,-7.935621e-08,-3.7230514e-08,-3.849445e-09,-9.75928e-08,-1.7988421e-08,1.14309344e-07,-5.6053644e-08,2.7316307e-08,-3.315039e-08,3.582418e-09,-1.3564417,-4.5958775e-08,-1.8344183e-07,7.467246e-08,-1.6259285e-07,4.389664e-08,9.349439e-09,5.704983e-10,-3.9824606e-08,2.2605175e-08,2.3189529e-08,1.0883895e-08,3.2274208e-08,-6.43077e-08,-3.048868e-08,6.208537e-08,3.4754052e-08,-1.7873734e-08,-1.0377625e-07,-1.3293862e-07,5.189232e-08,-9.783593e-09,3.2073817e-08,1.6453546e-08,3.3920195e-08,-1.8310505e-08,-2.7728568e-08,2.8724106e-08,-1.4027722e-07,-2.0179444e-07,-1.4952925,0.7188435,1.9699655e-08,2.4330234e-08,-9.651364e-09,-1.4973844e-08,-9.8853086e-08,-0.6192162,-1.4773113,3.5869583e-08,6.871195e-08,-3.2848462e-09,2.4613342e-09,-5.6897747e-08,-6.6249086e-09,-4.4300226e-09,-3.2532547e-08,-1.0026033e-07,-1.9694319e-08,8.6423476e-08,0.9003147,2.6680217e-08,3.9118056e-08,1.2828768e-07,1.0094183e-08,3.411423e-08,-3.1505827e-08,-5.942928e-08,1.0022894e-07,-7.335542e-08,3.993478e-08,-1.06258454e-07,-7.744737e-08,1.8549459e-07,-8.298625e-08,-4.779621e-08,-1.6962336e-08,6.782606e-08,-3.1883477e-08
4.869439e-08,3.938773e-08,1.7758639e-08,1.118411e-08,-6.8454824e-08,9.360297e-08,-2.3446853e-09,4.4208598e-08,1.2215645e-08,7.963571e-08,8.961887e-09,0.631922,-1.4834392,2.8811373e-08,7.142788e-08,-9.4057974e-08,-7.639042e-08,3.7871633e-08,-1.5281796,-0.44314733,1.5861431e-08,-1.742721e-08,7.67869e-09,-9.231494e-09,-2.5433812e-08,3.5208984e-08,1.0971731e-07,2.5235945e-08,3.7907835e-08,3.342758e-08,6.255693e-09,-1.1421739,-3.2354276e-08,-9.636146e-08,-3.1932e-08,-1.5493923e-07,6.036004e-08,-2.1824219e-08,5.258997e-08,-9.6818425e-08,-7.1041256e-08,-7.990934e-08,-3.8744894e-08,-3.1773393e-08,-4.17582e-08,-9.221974e-08,5.7074274e-09,4.3531017e-08,-8.146498e-08,1.1366774e-07,1.5341595e-09,-6.6768884e-09,-1.110319e-09,6.767314e-08,-5.0864617e-08,6.751339e-08,2.882561e-08,-1.740808e-08,3.4603758e-08,-6.985797e-08,-4.100814e-08,-1.2751998,0.88634366,-1.8763356e-07,1.5336175e-08,-5.7727004e-08,1.285647e-07,-1.4046176e-08,-0.18668039,-1.2622267,-5.124526e-08,-2.355593e-08,2.6571886e-08,4.740698e-08,-3.1476155e-09,3.1638386e-08,7.264036e-08,-4.2353534e-09,3.741484e-08,5.341523e-09,-4.038796e-08,0.7182245,-1.0153514e-08,-2.6341354e-08,7.96731e-08,-6.582625e-08,-3.6066965e-08,3.1211584e-09,3.80008e-08,1.0107794e-08,6.848277e-08,-1.0949786e-07,-3.892706e-08,2.0595088e-08,-1.0926231e-07,-8.932439e-08,1.1827663e-07,-3.279736e-08,1.6203293e-08,1.709922e-07
1.16795995e-07,-1.5039882e-08,-6.300514e-08,6.802607e-08,-7.2949824e-08,8.44702e-08,2.3984864e-08,3.1405836e-08,-3.4538918e-08,-3.3346613e-08,-7.197239e-08,0.90136564,-1.4871973,5.409528e-09,1.221398e-07,3.5526035e-09,-1.5200486e-07,-1.11344825e-07,-1.5361865,-0.6576471,-3.704726e-08,9.7444385e-08,-4.797758e-08,-9.490144e-08,2.6761438e-08,-6.7493204e-08,1.4556146e-07,-5.1774066e-08,7.541785e-09,4.2705693e-08,2.8378839e-08,-1.2059705,-1.5657596e-08,-8.815686e-09,-3.558091e-08,-2.6476691e-08,-1.005202e-07,-1.3597502e-08,2.205393e-08,-2.1693337e-08,-2.9740056e-08,8.2959435e-09,-2.5383942e-08,-1.1143989e-07,2.0257051e-08,-1.5089915e-08,4.9152245e-08,-1.5874495e-08,-3.6031402e-08,1.756894e-08,-1.7746377e-08,5.1052847e-08,1.1649554e-08,1.2753011e-07,1.1456896e-07,6.487888e-08,-4.17879e-08,1.236967e-08,4.3092857e-08,1.6839152e-10,-1.1377162e-07,-1.3892924,1.0043762,-6.3461414e-09,1.7087993e-07,7.1635185e-08,-1.1042283e-07,-2.674653e-08,-0.051105008,-1.347984,5.9173086e-08,-1.6512182e-07,2.0284679e-07,5.777663e-08,2.3624054e-08,1.5924392e-08,-6.4142085e-08,2.561847e-08,1.2159131e-07,1.648428e-07,-1.0166984e-07,0.8161716,-1.4816113e-08,1.5718225e-08,-3.6955058e-08,-2.547289e-08,8.7212534e-08,3.2214615e-08,2.1559497e-08,-9.181466e-09,1.18046515e-07,2.3762976e-08,6.160196e-08,9.1082955e-09,2.5795401e-09,-2.2368276e-08,-5.712534e-08,-1.814778e-08,2.9143555e-08,-2.0972902e-08
-1.9955753e-08,-1.0850757e-08,7.022744e-08,7.33606e-08,-9.948289e-09,5.815879e-08,3.199651e-08,-2.4861368e-08,7.931166e-08,2.842427e-08,2.1722238e-08,0.29230395,-0.8107016,1.0376935e-07,-1.4231107e-08,4.7868014e-08,-7.984573e-08,-4.538995e-08,-0.96329975,-0.20087728,-3.368832e-08,-1.7336966e-07,-1.355998e-08,3.0704573e-08,-3.3991242e-08,-3.1508943e-08,7.4182196e-08,4.8401624e-08,2.4813254e-08,5.1417757e-08,2.6330689e-08,-0.48684454,-1.4357713e-07,-2.3036929e-08,8.972901e-08,2.034401e-09,1.0383202e-07,-1.9274001e-08,1.994265e-08,-5.4184774e-08,-2.3599991e-08,-6.8844166e-08,5.7950636e-08,4.678183e-09,6.527692e-09,5.6317987e-08,-1.9828931e-08,1.4628457e-08,-2.1524528e-07,7.747117e-09,-8.857656e-09,3.732262e-08,1.3055781e-07,-2.5336018e-08,6.557397e-08,2.851182e-08,3.0890355e-08,-1.501016e-07,8.795409e-08,1.0188854e-09,6.470948e-09,-0.7560882,0.76958525,-1.3807988e-07,-1.3776834e-08,3.6115196e-08,-3.4024914e-08,1.3188497e-08,-0.30049372,-0.7177758,-1.2933359e-07,-9.999616e-08,-2.2919185e-08,1.0192419e-07,-2.3793856e-08,1.792425e-08,-2.7857453e-08,-2.4436815e-08,-1.2701413e-09,-1.5979417e-07,-3.3417216e-08,0.8144488,2.992049e-08,-3.2233903e-08,9.582993e-08,1.2310286e-09,2.5293851e-09,2.6502757e-08,-4.864191e-08,-1.8802043e-08,2.1071617e-08,-2.9123925e-08,-1.9582615e-08,5.8135615e-08,-1.5892013e-07,4.7863082e-08,7.8957925e-08,1.08778146e-07,8.886882e-08,-5.3998235e-08
-9.023713e-09,2.719027e-08,-2.0881066e-08,-3.2752983e-08,1.7481499e-08,6.0485725e-08,1.04792704e-07,-2.6368205e-08,-2.566809e-09,-3.6610903e-08,-1.4525521e-07,0.10063977,-1.2161025,1.4350854e-07,-3.4861163e-08,7.171675e-08,-6.210341e-08,-2.9590964e-08,-1.243469,-0.0505743,-7.75436e-08,7.450236e-10,-2.8946054e-09,-4.620479e-08,-8.060011e-09,-1.8042694e-08,1.2101378e-08,5.983328e-08,-5.1097665e-08,-6.3377406e-08,1.2386762e-08,-0.79178524,2.623381e-08,-8.931167e-09,-1.5839579e-08,1.416452e-08,1.4249538e-08,-3.675116e-08,2.0021687e-08,-3.1463756e-08,-3.644652e-08,2.3374245e-08,-2.4044073e-08,-6.149203e-08,1.893519e-07,-1.572218e-07,3.9483073e-08,-2.0393255e-08,9.065166e-08,-2.3508413e-08,-1.7661641e-08,5.7859594e-08,-4.914886e-10,-7.3402674e-08,4.6078007e-08,9.4970645e-09,1.143997e-08,-8.314482e-08,3.3506545e-08,3.9469942e-08,3.7864098e-08,-0.9890569,0.49120438,2.9315089e-08,-7.082378e-08,3.0517832e-08,-4.185164e-08,5.755492e-09,-0.21856712,-0.9357866,-2.4895154e-08,-8.212499e-09,7.3217166e-10,5.2990703e-08,1.8384421e-08,1.4586181e-09,1.4610022e-07,-7.054243e-08,-2.3215641e-08,-6.7762656e-08,-7.632661e-08,0.5796954,3.786139e-08,4.6795314e-08,1.13184306e-07,-1.4476589e-09,7.925518e-08,2.8080297e-08,2.5982514e-08,5.0838977e-08,-3.9685446e-08,5.9970674e-08,1.3282865e-07,1.1282005e-07,1.3834115e-07,4.6709815e-08,-5.816218e-08,-4.791056e-08,1.16292924e-07,1.4101208e-07
-9.191456e-09,9.167043e-08,-2.1219595e-08,6.586551e-08,1.2629103e-07,1.9806118e-08,7.6293e-09,-4.0022208e-09,-6.564082e-08,-5.44319e-08,5.133253e-08,-0.43589965,-1.9034175,-1.7918929e-07,-1.8778206e-08,-2.4996712e-08,9.264117e-09,7.298302e-08,-1.8895713,0.6101384,8.500274e-09,2.5275e-08,1.272972e-07,7.910661e-09,-6.6833685e-09,-5.619079e-08,1.852739e-08,-3.1902324e-08,1.9446103e-08,3.3190595e-08,-1.1297659e-07,-1.5398208,2.4489026e-08,-6.2844387e-09,-2.8395084e-08,1.4736602e-07,-3.5299436e-08,-2.4722603e-08,5.286107e-08,1.7698607e-08,7.550551e-09,4.6154485e-09,3.5365712e-08,-9.497187e-08,9.9122715e-08,-6.222908e-08,2.8932075e-08,4.9771582e-09,1.3333405e-07,3.7509956e-08,-2.908045e-08,1.6078343e-07,-9.6694e-08,-5.2241283e-08,-5.594817e-09,1.4170719e-07,9.366363e-08,-6.503903e-09,-5.3752647e-08,5.3184866e-08,1.0367687e-07,-1.7041018,-0.29838064,-6.614398e-08,-4.9917247e-08,1.6715983e-07,6.244148e-08,2.079745e-08,-1.269512,-1.6930943,3.3547252e-08,6.8957178e-09,6.201425e-08,3.421026e-08,1.1034661e-08,-1.1216944e-08,1.049167e-07,9.034413e-08,-5.0294453e-09,5.4221367e-08,-3.324272e-08,1.0767636,-6.313056e-08,4.4449116e-08,2.525055e-08,1.3486891e-07,-1.5631763e-09,3.5953992e-08,7.6513004e-08,-2.1417035e-08,3.2075448e-08,6.894962e-08,-9.112005e-08,3.2727446e-08,1.9089843e-08,-1.0385223e-07,-1.5128442e-08,-7.4637555e-08,6.6565686e-09,1.7016994e-08
3.1951288e-08,-4.292346e-08,-5.5167337e-08,2.994024e-08,5.997607e-08,2.1613076e-08,1.4056178e-08,-6.718213e-08,1.5662375e-08,7.780906e-08,-1.8649825e-08,0.10450359,-1.8060585,4.2667036e-08,-8.219341e-08,4.793064e-08,3.6655376e-08,-1.7216651e-08,-1.7772838,0.12863085,3.4138782e-08,-2.3148711e-08,1.6220357e-08,-1.6557292e-08,-1.5024374e-07,-2.0171917e-09,-6.05951e-08,-8.124749e-09,-1.648516e-09,7.2503546e-08,-1.46669805e-08,-1.5028423,-1.7843078e-08,-1.991106e-09,5.0774943e-08,-1.1710012e-07,4.1637513e-08,9.5599916e-08,-6.5485914e-08,-9.985102e-08,1.0334972e-08,7.6736924e-08,-9.073878e-08,9.13569e-08,-7.401047e-08,5.0103996e-08,3.0687023e-08,-5.9066014e-08,-5.448459e-08,5.9502078e-08,4.9937505e-08,-5.6826025e-08,-6.0879906e-08,4.5733355e-08,-2.662226e-10,7.103071e-08,-2.670539e-08,-8.737829e-08,-7.0746626e-09,-1.8711802e-08,1.1017724e-07,-1.67035,0.34766275,-5.1175604e-08,2.6121464e-08,8.480004e-08,-2.058741e-08,-1.4824685e-07,-0.6213483,-1.6462661,-1.1858603e-09,4.4889944e-08,1.1079209e-09,5.604061e-08,1.1228923e-07,2.2060558e-08,-3.4189995e-08,1.1473236e-07,-1.0203606e-07,-1.4370994e-08,5.9475898e-08,0.9976104,2.9758711e-08,1.973791e-08,-2.5334533e-08,4.0610754e-08,-9.405797e-08,4.5815316e-08,-1.5620927e-07,-1.2294478e-08,4.7732517e-08,-9.285546e-08,-3.0200674e-08,-3.2951423e-08,4.5398043e-08,1.7799536e-08,-7.354036e-08,-1.1644325e-08,-1.4345531e-07,2.183518e-08
-1.7527162e-07,-1.624999e-07,7.2071593e-09,1.8823696e-08,1.7891105e-07,-1.7384778e-08,9.4841184e-08,1.7799639e-08,1.3591173e-08,1.0605309e-07,2.5888829e-09,0.2576843,-1.7737026,5.5204385e-08,1.0350785e-07,1.7119834e-07,3.0244284e-08,4.5437403e-08,-1.728604,-0.04493951,4.8499494e-08,3.9836273e-08,-2.1747937e-08,4.7967298e-08,2.6187783e-08,-2.6327536e-08,-1.9336472e-08,-1.0765618e-07,2.9510066e-09,-6.5844574e-10,-1.833079e-08,-1.4693667,6.12322e-08,-2.968043e-08,5.7366027e-08,-7.016163e-08,4.115011e-08,4.832983e-08,1.9710207e-09,-1.7930413e-09,5.4948757e-09,-1.6293207e-09,-4.461629e-08,4.537755e-08,-7.910557e-08,-1.9738167e-10,2.0913726e-08,-7.178173e-08,-1.0758211e-07,7.334901e-08,-7.694852e-08,-6.474753e-09,1.1843739e-08,-2.1999888e-08,-9.693696e-08,-3.815121e-08,-5.8402243e-08,8.237325e-08,-1.06710104e-07,3.397991e-08,-2.6779242e-08,-1.599866,0.42140037,-2.6583955e-08,-6.074206e-08,1.0469243e-07,-5.1505676e-08,-2.1883803e-08,-0.5299478,-1.563367,7.2679427e-09,-1.5522733e-08,-2.9171154e-09,-8.072372e-08,1.4206674e-07,2.6563901e-08,1.1807796e-08,1.9273834e-08,9.425822e-08,2.2584153e-08,-1.7234932e-08,0.7659335,-3.7727375e-08,-1.0642094e-07,8.4778184e-09,-5.511497e-08,-8.768346e-09,-7.8020946e-08,-2.880087e-08,9.3633034e-08,-1.683411e-08,2.1413799e-08,3.8934957e-08,-1.05988214e-07,1.3911145e-07,7.923537e-08,-4.3508255e-09,2.739826e-08,1.864403e-08,1.1558132e-08
-7.717112e-09,2.6640183e-08,2.762286e-08,-5.6902563e-09,-2.8378366e-08,1.3502213e-09,2.4455979e-08,3.688491e-08,-1.5391418e-08,-2.1962308e-09,-7.625001e-08,-0.10993266,-1.4367787,-3.7583817e-08,-2.9638132e-08,-1.1938141e-08,1.5980042e-07,9.848836e-09,-1.302789,0.21716858,-7.550177e-08,-2.1000798e-08,-1.0706904e-07,-2.382645e-08,-6.196655e-08,6.020439e-08,5.1503697e-08,1.9902856e-08,4.4860773e-08,-6.0094216e-08,-2.7260565e-08,-1.0400763,-1.2647028e-08,2.1101494e-08,1.2809048e-07,-1.6695815e-08,-1.0148062e-08,-5.2246246e-08,-9.04139e-08,-9.67602e-08,-3.809359e-09,-1.6269098e-07,-2.5233597e-08,7.369053e-09,-4.8650293e-09,6.841248e-08,-4.7536297e-08,4.7239233e-08,3.2276297e-08,1.5402382e-08,-3.623694e-08,7.81821e-09,1.0220423e-07,6.640441e-08,-6.306574e-08,-2.5037705e-08,-2.1423729e-08,5.4569426e-08,1.0591838e-07,-2.808516e-09,1.5773085e-07,-1.1368521,0.29394147,-3.2808465e-08,1.94561e-09,4.7959656e-08,-2.2332536e-09,4.830099e-08,-0.5992105,-1.0499389,7.5851005e-09,-9.077592e-08,-7.7721324e-08,-2.0938762e-09,-2.2439133e-08,6.546872e-08,2.3627543e-08,-3.7685318e-08,1.789112e-08,-1.0844223e-07,8.796174e-09,0.626006,3.3821824e-08,2.8835367e-09,-1.6276799e-08,-5.1747772e-08,8.582453e-09,2.6044045e-08,-3.129646e-08,-7.2615876e-08,-4.153921e-08,5.259074e-08,-9.951496e-09,4.1933454e-08,5.9288574e-08,-6.4256845e-08,4.873265e-08,-4.2729056e-09,4.2416485e-08,7.777019e-09
1.4500493e-07,-1.0664411e-07,-1.0288208e-08,4.0217866e-08,-1.5396896e-08,6.573946e-08,-9.298951e-09,2.3044354e-08,1.2890767e-07,8.987428e-08,5.6255463e-09,0.45890507,-1.3510413,-3.1835285e-08,3.3227998e-08,1.7154921e-08,-3.617635e-09,-1.883452e-08,-1.3397789,-0.2883039,-1.5639563e-08,3.543102e-08,1.1158603e-07,3.963079e-08,-7.123425e-08,-8.879026e-08,1.6855782e-07,-4.3070578e-08,8.056629e-08,1.9024244e-08,5.4488126e-08,-0.93593216,-1.3910757e-08,-1.2371734e-08,-2.5202342e-08,1.4090584e-07,2.414386e-08,-1.5501442e-07,1.7170114e-09,-2.1801593e-08,-2.5676828e-08,-6.7024644e-09,-2.9589158e-08,-2.3018552e-08,1.4114373e-07,-1.21845565e-08,1.4531871e-08,4.5169905e-08,-1.2636241e-07,-5.663345e-08,-5.6356154e-08,-1.4374045e-08,1.3794132e-08,-8.6908045e-09,-7.5391696e-08,6.3849406e-09,1.0515663e-07,7.8811e-09,-2.7480507e-08,-3.578652e-08,2.956525e-08,-1.1609503,0.7041434,-4.4614097e-08,7.191252e-08,3.2092577e-09,-5.8504916e-09,4.9506834e-09,-0.55818397,-1.1111143,-1.2509892e-07,2.0763782e-08,-7.439533e-08,1.0109508e-08,1.1872174e-07,2.158269e-08,8.104401e-08,1.8989422e-08,-7.0641875e-08,-2.7050778e-08,1.9359309e-08,0.8529674,-2.567813e-08,4.0557314e-08,2.1404615e-08,1.5684051e-08,2.4973154e-08,-1.6963902e-08,-9.5126875e-09,8.4151175e-10,3.3223923e-08,-1.5230428e-07,-2.0134719e-08,4.868467e-08,-1.16168664e-07,-3.086963e-08,-1.13414956e-07,-8.6683976e-09,-2.7397423e-08,2.0800465e-08
-6.455668e-08,7.803079e-08,1.5918712e-08,-3.1537052e-08,-1.935577e-08,2.1166699e-08,-7.3604596e-08,3.7738285e-08,3.5464804e-09,-5.670257e-08,-2.32215e-08,0.18437026,-1.7170374,6.823427e-08,1.4060484e-07,1.3678829e-08,-8.270849e-09,1.7322387e-07,-1.7102523,0.020660045,-2.4577826e-08,-1.7243931e-09,6.678119e-08,2.5921393e-08,3.5299255e-08,-1.3450546e-07,6.567596e-08,-7.0383663e-09,-7.664959e-08,5.221061e-09,9.129012e-08,-1.37001,8.817285e-08,-5.5524197e-08,-7.636932e-08,1.6314194e-08,-9.953477e-08,1.2043309e-07,-1.6615992e-08,8.793023e-09,-4.802832e-08,-2.3445345e-08,3.1013933e-08,-5.8261914e-08,6.0833294e-08,-7.076548e-08,-1.1741334e-07,9.3882795e-09,-2.635616e-08,3.7973717e-08,-3.4667835e-08,-1.1708215e-07,-1.2084261e-07,-9.220898e-08,5.4841205e-08,-1.4033226e-07,-2.5459773e-08,-2.2016984e-08,1.0714988e-07,2.9525093e-08,-1.3022722e-07,-1.5428447,0.46808136,-4.2168598e-08,5.014528e-08,2.0820139e-08,1.335454e-08,3.0976643e-08,-0.6781184,-1.5158302,-5.1235155e-08,5.573773e-08,-4.0353854e-08,-1.3533725e-08,1.3631458e-07,-9.617848e-08,8.9588134e-08,1.0480893e-07,-4.1708113e-09,5.2602402e-08,-5.0836128e-08,0.9728595,-1.9420586e-08,3.4198962e-08,3.0444216e-08,6.389478e-08,-2.2258533e-09,-4.3096147e-08,-1.665911e-08,2.1835334e-09,-2.2590275e-08,7.38474e-08,-4.6032692e-08,-7.984356e-08,9.8088606e-08,2.9898978e-08,-1.5818355e-08,8.0616495e-08,-2.8744127e-08,1.4704804e-07
1.6920405e-08,-9.557625e-09,-4.089389e-08,-4.130595e-08,-6.567737e-08,5.422838e-08,-3.3165083e-08,-8.382098e-08,2.67354e-08,-1.03149496e-07,-4.7228642e-08,0.66460395,-1.9020205,1.6655449e-08,2.0402943e-08,-8.841436e-09,-1.3741086e-07,-1.5976362e-07,-1.8609959,-0.42383918,-5.5628387e-08,1.9518746e-08,-1.1579207e-08,4.3502773e-08,-1.518975e-08,2.4564272e-08,6.231413e-08,5.5052823e-08,3.123189e-08,-1.9031795e-08,-1.7462767e-08,-1.5469582,-3.3396304e-08,-4.3800586e-08,8.7810434e-09,3.2452746e-08,1.4208676e-07,-7.95707e-09,-7.357968e-08,-2.3103347e-08,1.9650201e-08,3.282941e-08,5.5341964e-08,8.935399e-08,4.516849e-10,3.871894e-08,1.5718574e-07,-1.7874346e-08,5.7161184e-08,-1.1257616e-07,3.4791462e-08,-1.5313175e-08,-1.482561e-07,-4.0531617e-08,6.2870086e-08,8.739579e-08,-7.604626e-08,-2.5385893e-09,2.227467e-08,1.5125713e-07,-4.118641e-08,-1.719117,0.76530504,1.6431227e-07,-7.172793e-08,-3.5905696e-08,-1.3470743e-08,2.3817675e-07,-0.39313945,-1.7019902,-8.428072e-09,-1.8813147e-09,-1.3172667e-07,1.1441019e-07,-7.3109604e-08,2.2248388e-08,2.0505468e-07,1.3391066e-10,1.5986235e-08,1.8597364e-08,-9.607183e-08,0.95312935,-6.59411e-09,3.9654413e-08,2.9086763e-08,6.08097e-08,-1.3772409e-07,-2.2636828e-08,6.9317544e-08,-1.0496795e-07,4.9038395e-08,3.508385e-08,-1.0004596e-07,-1.3639007e-08,-4.331458e-09,-1.0472014e-09,3.852642e-08,1.2637514e-08,2.4048035e-08,9.009119e-08
6.2127072e-09,-1.1987053e-08,-6.113038e-08,1.0071399e-07,-2.2009736e-08,-8.499025e-08,5.7137928e-08,-1.2835518e-07,5.850283e-08,8.724902e-08,-9.146251e-08,0.18256727,-1.9716067,9.920466e-08,-1.1810137e-08,-7.5548584e-08,-6.2502174e-08,-1.0804011e-07,-1.9200413,0.13067606,9.9831894e-08,-1.0028463e-07,5.093053e-08,2.1349237e-08,4.065949e-08,3.739089e-08,-2.8406731e-08,1.2099184e-08,-4.2534265e-09,1.6376198e-07,-9.871528e-08,-1.6632267,1.5335164e-08,-5.170757e-09,-2.1909969e-08,8.791621e-08,1.0139356e-07,-2.365919e-08,-5.928676e-08,-9.703387e-08,-7.659434e-08,-5.9512583e-08,-8.010768e-08,2.047321e-08,-9.429636e-09,-5.227011e-08,-1.5991002e-07,-6.5024025e-08,4.527729e-08,-2.069029e-08,5.3547033e-09,-2.00377e-08,-2.9278237e-08,5.9304043e-08,-2.5015748e-08,-4.2228592e-08,-1.14471606e-08,-2.5359132e-08,5.65682e-08,1.510962e-07,3.9518966e-09,-1.8102323,0.36883783,-8.527657e-08,4.9950707e-08,5.3486417e-08,5.579456e-08,-1.0819949e-07,-1.2345638,-1.7939415,2.4584516e-08,1.2611883e-08,2.815917e-08,-9.655325e-08,-3.2321346e-08,5.341611e-08,-3.4461777e-08,9.003905e-09,-6.3441306e-08,-1.4765173e-07,-1.0088883e-08,1.2070985,-1.6767277e-07,-3.6172835e-08,-1.0134947e-07,1.1848315e-07,-7.2481185e-08,-2.8627994e-08,-2.2231132e-08,4.899395e-08,7.653377e-09,3.802097e-08,-6.403696e-08,9.488308e-08,7.859377e-09,8.272735e-08,-1.6229254e-08,1.8479298e-09,1.3105888e-07,-6.0252695e-08
1.2182607e-08,-4.536946e-08,-1.979804e-08,-1.3560839e-07,1.3763558e-07,-1.0360888e-07,2.7043658e-08,1.0047755e-07,-8.3339025e-09,-1.9477744e-08,-1.792202e-08,0.17074238,-1.9233822,-9.242211e-08,-1.2975603e-08,-2.7777865e-08,1.2520192e-07,-7.40722e-08,-1.8997784,0.068964966,5.014251e-08,-4.7751875e-08,-8.331811e-08,-5.063435e-08,3.3930622e-08,-5.079229e-08,-1.6834917e-07,-7.01897e-08,1.455498e-07,-1.1070019e-07,8.536026e-08,-1.5488279,-6.913302e-09,1.1547327e-08,-1.5609903e-08,-1.1942804e-08,-4.8772183e-08,-2.075216e-08,6.936352e-08,-2.4566713e-09,5.5936617e-08,-2.8717157e-08,-6.319177e-08,9.368501e-08,-4.5696787e-08,-1.4122575e-08,-3.527871e-08,1.4300499e-08,-1.4184208e-07,5.8851434e-08,-1.8566649e-08,1.2321291e-08,-1.2861409e-07,7.999671e-08,1.8549537e-07,-1.7236498e-07,9.1549566e-08,2.0039813e-08,5.3796022e-08,-6.4306924e-08,2.3500984e-08,-1.7111686,0.37976137,-5.0570357e-08,-1.28209905e-08,7.1209802e-09,-6.907973e-08,1.0664587e-08,-0.76664495,-1.722213,-1.1541754e-08,4.4148244e-08,1.7384117e-08,-1.0863947e-07,6.419578e-08,4.8975465e-08,-8.777624e-08,-5.967889e-08,5.6447064e-08,1.1972298e-07,-1.690284e-07,0.8853529,3.7562728e-08,2.223151e-08,-3.9850626e-08,-4.3048374e-08,-3.6961115e-08,2.0914943e-08,2.1454804e-08,-2.2504715e-08,2.1696515e-08,2.683091e-09,5.106376e-08,-9.0790095e-09,1.2202031e-08,-7.742756e-09,-4.8136197e-08,-7.785589e-08,-3.0567122e-09,3.6879623e-08
3.6083193e-08,7.136139e-09,-1.2864469e-08,2.0949246e-07,-2.8389728e-08,-9.7911055e-08,-3.0535254e-09,-7.264446e-08,2.5175451e-08,6.800856e-08,4.7057018e-08,0.5554544,-1.6452495,2.6042631e-08,5.6631634e-08,2.7716531e-08,2.9065493e-08,-2.6991213e-08,-1.6339074,-0.3191645,3.341831e-08,-5.565635e-09,-5.6770244e-08,-7.171012e-08,-1.535859e-08,-5.7404655e-08,-2.5253044e-08,1.3020021e-08,-1.3817034e-07,1.1808014e-08,-4.338394e-08,-1.3164157,5.2465776e-08,1.8219465e-08,-1.3332034e-07,-3.940111e-08,-6.620761e-08,1.3834207e-08,7.964587e-08,-4.8471897e-08,-2.2839146e-08,-5.0101956e-08,-1.1453202e-07,-2.0239284e-08,5.595259e-08,-9.919991e-08,-2.167543e-08,8.0238124e-08,-3.3778242e-09,-2.6357625e-08,1.3149313e-08,4.797862e-08,5.8320953e-08,6.3587265e-08,9.672317e-08,-1.1002363e-07,-2.8397892e-08,1.3373796e-07,-4.9434465e-08,-6.079631e-09,-5.04605e-09,-1.5006943,0.72071654,-4.2485265e-08,6.799526e-08,-6.37841e-08,-1.2210128e-08,1.9111294e-08,-0.39725903,-1.4628077,2.6413964e-08,-6.2470875e-08,-2.1011187e-08,-2.4847083e-08,-2.0932564e-08,2.8194343e-08,2.4745507e-08,2.578296e-08,-1.1500868e-07,1.3999149e-07,6.2600435e-08,0.90601087,4.966218e-08,-9.081766e-08,2.7201686e-08,4.0379e-08,2.4001329e-08,-6.5653296e-08,-6.266766e-08,-1.1514985e-07,-1.1804357e-08,4.867233e-08,1.427161e-08,-5.414874e-08,-8.856198e-08,-5.518961e-08,-1.2228407e-08,-4.47926e-08,-1.2190293e-08,-1.03421655e-07
-3.8611322e-08,1.5501526e-07,-5.0886225e-08,-2.2180911e-08,-2.575391e-08,-2.1996087e-08,1.844726e-08,3.096992e-08,4.8549968e-08,3.944804e-08,4.6852975e-08,0.21405965,-0.95130074,8.081012e-08,5.814244e-08,-9.773011e-09,2.3502047e-08,4.036991e-08,-1.1936191,-0.17666791,-1.240293e-07,-6.3934685e-08,2.297261e-08,4.5395907e-08,9.811156e-09,1.3725888e-07,1.1299056e-07,-2.505661e-08,1.0712613e-08,1.2660497e-08,5.6507158e-08,-0.62095547,-2.5349738e-08,-5.538624e-09,-5.4576873e-08,-1.4392757e-08,3.0101155e-08,-4.8098453e-08,-4.906675e-08,-1.11793476e-07,-2.151097e-08,8.154487e-09,1.6543578e-07,4.6250875e-08,-9.429825e-08,6.596894e-08,7.517339e-08,9.994925e-08,-5.6507652e-08,1.0273152e-07,1.0262522e-07,-4.8650683e-08,-1.3462422e-08,2.1811221e-08,1.1323795e-09,2.7448248e-08,-5.3711815e-08,2.1311823e-09,-7.2654345e-08,3.8262016e-08,4.238609e-08,-0.8582365,0.4265909,-3.185481e-08,1.688928e-07,2.9088392e-08,2.2433369e-08,-1.1145886e-08,0.35215244,-0.85015494,-4.0810075e-09,1.2963849e-08,-5.1724705e-09,7.307185e-08,8.392213e-09,2.1716417e-08,-1.9380148e-07,-2.5055193e-09,1.4689043e-08,6.5566866e-08,2.4030257e-08,0.27736703,-1.7154534e-08,7.7376335e-08,1.6461703e-08,2.7020242e-08,1.073618e-07,1.411752e-07,-4.820582e-08,1.0531648e-08,-1.2382486e-09,-1.166605e-07,7.6879566e-08,-9.2734425e-09,-2.2261421e-08,-2.0364505e-08,2.6919812e-08,-4.58345e-09,5.0109968e-08,1.4497278e-08
-1.6199225e-08,1.1676029e-09,-6.127517e-08,7.749098e-08,-4.0010892e-09,-8.996962e-08,-1.00457626e-07,-3.0019415e-08,1.61216e-07,9.83304e-08,-1.5480705e-08,0.323952,-1.3191278,-1.4148397e-08,1.0700046e-07,9.955069e-08,9.394546e-09,6.470824e-08,-1.3979404,-0.169499,2.7857222e-08,7.255969e-08,1.3653036e-08,-1.14436695e-07,-6.031005e-08,-5.28425e-08,-1.43202925e-08,-2.0229533e-07,-3.2953437e-08,-5.428597e-08,1.1382004e-07,-0.9636413,-6.9903024e-08,-6.66816e-08,1.06453314e-07,-1.663004e-07,-8.866503e-08,-1.2543342e-07,-2.637735e-08,1.8023232e-09,1.4319492e-07,-2.4111564e-08,-2.3841622e-09,-2.2826958e-08,-3.8615667e-08,-1.4890966e-08,1.3975562e-08,7.5571144e-08,-1.2874808e-07,3.8155935e-08,1.2956907e-08,-9.4789755e-08,6.558986e-08,4.8885276e-08,8.114595e-08,1.8442325e-08,-1.991986e-08,-5.08793e-08,2.090643e-08,-7.930362e-08,-1.1400346e-08,-1.1364166,0.32925004,-9.166534e-10,-1.4988039e-07,2.009764e-08,-2.0105172e-07,2.07474e-08,-0.094704956,-1.0992131,-3.7848057e-08,-2.3107624e-08,-7.2129936e-08,4.7842313e-08,2.2382174e-08,-3.3607876e-08,-3.6819898e-09,-4.99707e-08,-1.6624725e-08,-2.6920898e-08,3.5653823e-08,0.32159737,-1.2181526e-07,6.3461826e-08,3.8219383e-09,7.481213e-08,-2.5420949e-08,8.07314e-08,4.244223e-08,4.5757957e-09,-5.6047753e-08,-6.85677e-08,-2.101988e-08,-1.4885941e-08,-2.5801292e-08,-1.6160307e-08,8.412466e-08,6.5488464e-08,6.586134e-08,-3.3976832e-08
1.9692934e-07,-1.6055072e-08,6.546769e-08,1.1097528e-08,-3.441903e-08,4.0110276e-08,4.4879627e-08,-8.962278e-09,-4.67254e-08,3.6889222e-08,1.3558721e-07,0.69224125,-1.4363061,6.633249e-08,-1.9222536e-07,-1.6578132e-07,-5.5332443e-08,4.2637677e-08,-1.5409319,-0.5844576,-5.8738586e-08,-3.251259e-08,-5.7928013e-08,9.392862e-09,4.6408182e-08,2.4752037e-08,1.5659884e-07,1.4228959e-08,-9.5969575e-08,-9.492035e-09,-3.3934313e-09,-1.0385486,2.5700661e-08,-1.01801145e-08,-1.0623219e-07,2.9424012e-08,-1.552743e-08,-1.0269251e-07,4.8934936e-08,3.0071e-08,-1.5751583e-08,-8.749979e-08,-8.207131e-08,-5.0557375e-08,-1.2719585e-07,-3.748112e-08,-2.2855188e-08,2.8989493e-08,1.9715035e-08,1.0721765e-08,-2.8094977e-08,6.858804e-08,-9.960159e-08,1.2440008e-08,-2.6632597e-08,8.25194e-08,-7.29768e-08,5.6561994e-08,-7.774281e-09,1.4245142e-08,-1.6673699e-08,-1.2614032,0.86647123,-4.383249e-08,3.981834e-08,-6.732517e-10,2.2706416e-08,4.5923727e-09,0.19826691,-1.2380257,7.2335764e-09,-3.783244e-09,9.939287e-08,4.9372034e-08,3.287885e-08,-5.2974666e-08,-3.025452e-08,4.8336934e-09,1.525933e-08,-5.340698e-08,-3.2101635e-08,0.6629665,3.8366096e-08,-9.081517e-08,1.6482815e-08,-4.7437325e-08,-2.8326292e-08,-1.3826376e-07,4.7475666e-08,3.6185686e-09,2.730026e-09,4.8170968e-08,-1.2527714e-07,-3.4228982e-08,-5.003293e-08,-7.281539e-09,1.1123317e-08,1.2560481e-07,-1.7084751e-07,-1.1166417e-08
4.0177795e-08,-1.1793754e-07,-9.4740304e-09,6.0245773e-09,4.774132e-08,1.44990855e-08,2.2814227e-08,7.781594e-08,7.268544e-08,3.686394e-08,4.275762e-08,-0.102135554,-1.4843231,-2.4442596e-08,2.7586728e-08,5.575455e-08,-1.8512182e-08,-1.1960422e-07,-1.4030162,0.121372886,1.260372e-09,-1.3211657e-07,2.9466605e-08,8.410304e-09,1.4341381e-07,1.65375e-07,7.05795e-08,-2.230383e-09,1.0622406e-08,-6.9649237e-09,-3.6471953e-08,-1.0925387,-6.553649e-08,-2.7734142e-08,-3.3935322e-08,1.5849988e-09,-1.5612866e-08,-8.081932e-09,-1.0062881e-07,2.8051236e-08,-3.7649578e-08,-6.305171e-08,-6.951978e-08,3.7460183e-08,1.8849795e-07,-3.416726e-08,-4.7325226e-08,-1.0304401e-08,-1.07313326e-07,1.282031e-07,4.3085713e-10,1.6825375e-08,-1.9842005e-08,1.826148e-08,-7.528794e-08,-3.821952e-08,-4.219184e-08,5.986819e-08,6.90256e-08,-1.09452635e-07,1.1073428e-08,-1.2575152,0.47700992,7.1007484e-09,-4.4988017e-08,1.7106825e-07,1.10509774e-07,1.1671823e-08,-0.35346922,-1.2295889,8.996615e-09,6.563067e-08,2.881908e-10,-6.51348e-08,-5.0617064e-08,-3.4072851e-09,2.611143e-08,-4.776682e-08,-2.1494884e-08,6.830572e-08,-1.2878151e-07,0.6438364,-3.5729098e-08,-4.5699778e-08,4.1470358e-08,-2.559931e-08,-9.7086e-08,2.9562226e-08,7.241187e-09,2.1300703e-08,2.957066e-08,7.36471e-08,-5.7693658e-08,-3.370315e-08,5.682352e-08,-5.3398367e-08,1.8199323e-08,7.532421e-08,-4.5252705e-08,-1.7892627e-07
7.6260484e-08,5.6264504e-08,-1.9621911e-08,1.3997844e-08,-3.738112e-09,8.248965e-08,-3.817112e-08,7.861947e-08,2.8767882e-08,4.7740023e-08,1.3833887e-08,-0.19995904,-0.92197675,3.0501708e-09,6.3157053e-09,2.2855255e-08,2.7687324e-08,1.205491e-08,-0.9497625,0.23298554,-1.8691507e-08,1.2213093e-07,4.374127e-08,8.038732e-09,5.520889e-08,-5.3904163e-08,-3.0382363e-10,-9.012341e-08,3.0375595e-09,8.4254545e-08,5.2039322e-08,-0.511421,-3.2781138e-08,9.903001e-08,3.079874e-08,1.3215669e-07,5.0175498e-08,-2.2836666e-09,1.3305561e-07,-8.542446e-08,7.904413e-08,5.2742283e-08,5.154091e-08,-4.500209e-08,4.270411e-08,-7.450091e-10,9.608812e-10,-6.866443e-08,-4.9171547e-08,5.5528854e-08,8.743968e-08,2.1339815e-08,-3.4412963e-08,4.160917e-08,-1.4585986e-07,3.793968e-09,-1.4682757e-07,4.742673e-08,-1.1722823e-07,-1.0320749e-07,6.539146e-08,-0.70314354,0.66317177,-9.0130236e-08,1.10514115e-07,1.4851537e-08,-4.9180713e-09,-5.5984806e-08,-0.8461398,-0.7850325,-1.0123122e-07,6.5179595e-09,2.1088926e-08,5.279553e-09,-1.0970841e-07,-1.418062e-08,4.455867e-09,8.423644e-08,1.7517696e-07,-4.862538e-08,6.250672e-08,0.9021258,1.108834e-08,-1.9637824e-08,-1.1233023e-09,6.8684216e-08,-1.4352706e-08,-4.9573245e-08,-2.5427841e-08,-1.01390484e-07,-1.9687714e-09,1.7827098e-08,3.7920728e-08,2.939068e-08,-4.6185527e-09,-3.7285908e-08,-8.895552e-08,1.763203e-08,1.7176622e-07,8.457416e-08
-4.1728303e-08,6.962523e-08,6.6884674e-08,-3.6588162e-08,-6.774822e-08,-6.950924e-08,-1.1647957e-08,-5.2808485e-08,-3.6994372e-08,-3.0487264e-08,7.698583e-08,-0.069974795,-1.756236,6.308711e-08,2.3837192e-08,9.184611e-09,7.7434635e-08,6.864132e-08,-1.6866372,0.27711636,-9.307968e-08,8.940318e-08,2.389467e-08,-5.1986994e-08,1.7084705e-08,3.1934793e-08,-7.561421e-08,9.946611e-09,-3.271564e-08,3.2666875e-08,-9.345132e-09,-1.3820447,8.262644e-09,3.2257617e-08,5.0240274e-09,-1.2161962e-07,5.0512977e-08,-2.5306315e-08,-1.8252116e-08,-1.0085179e-07,3.3417923e-08,8.990042e-08,1.8203972e-08,9.4735164e-08,4.526988e-08,-2.2182004e-08,-1.4984629e-07,8.322633e-08,-4.485095e-09,6.700358e-08,-1.000565e-09,-1.4684643e-07,5.8809885e-08,-5.9019854e-08,2.375098e-10,-1.4065296e-07,-2.7428346e-08,3.0665873e-08,-6.619932e-08,7.2190275e-08,-4.699164e-08,-1.5465866,0.38699657,3.0060367e-08,2.5995305e-08,2.8383791e-08,-9.5962235e-08,3.7002298e-08,-1.0197406,-1.5386252,7.9037505e-08,-3.8658357e-08,-4.0950717e-08,4.640883e-08,3.337894e-08,-2.3689118e-08,3.6810114e-08,3.599535e-08,-2.8160162e-08,-2.4123619e-08,-5.5695427e-08,0.9059254,1.8502318e-08,-1.0544357e-07,-1.6885128e-08,1.2780511e-07,5.097291e-08,-1.1382912e-09,2.2553703e-08,3.0680023e-09,-1.3937974e-08,-5.0460688e-08,-1.904258e-08,-2.0416149e-08,-3.3641058e-08,4.992424e-08,-7.63941e-08,4.508243e-08,-1.7206592e-08,9.480408e-09
-4.657547e-08,4.905499e-08,3.5839754e-08,-1.1306364e-08,-2.7241104e-08,1.3200933e-08,4.8957904e-09,4.976377e-08,1.0342568e-08,-7.1586314e-08,8.574497e-08,0.09676113,-1.3439732,9.051071e-08,-7.781286e-08,-6.305098e-08,-4.230507e-08,4.5990774e-08,-1.4202328,-0.04329387,-4.3844093e-08,2.979735e-08,-6.31355e-08,1.08059645e-07,-1.922097e-07,1.2693532e-08,-6.483998e-08,-6.6842034e-08,-8.7214474e-08,2.358662e-08,-7.929984e-09,-0.8899005,9.211192e-10,8.288276e-08,-1.9766572e-08,7.932307e-09,-4.1637115e-08,-4.0601016e-08,1.9782937e-07,7.130018e-08,-1.50958e-09,-6.784309e-08,-3.053338e-08,2.4941839e-08,4.133382e-08,4.251531e-08,-3.862767e-08,1.5277326e-08,-6.755971e-08,1.16741774e-07,-3.7710805e-08,6.080965e-08,-1.1975142e-07,-5.949765e-10,2.1126205e-08,-9.8526776e-08,3.5751263e-08,5.8002957e-08,1.3520765e-08,-4.0862496e-08,-6.367223e-08,-1.1117607,0.39202294,-3.9480867e-08,-4.377372e-08,2.3642889e-08,1.6043111e-07,3.1091634e-08,-0.27396438,-1.1427858,4.27611e-09,4.7894908e-08,1.5275599e-07,5.55424e-08,2.067102e-08,2.8983875e-08,1.12213584e-07,1.13506104e-07,-5.0512824e-08,3.4562973e-08,-1.0785406e-07,0.54071546,-1.2984556e-07,-5.0938578e-08,-2.0391456e-08,2.8202301e-08,3.0872783e-08,2.7645548e-08,-1.0425003e-08,-7.706325e-08,-2.1393518e-09,1.3025165e-08,4.427403e-08,-1.01668604e-07,-7.727925e-08,-3.5592862e-08,-6.56473e-08,-9.808333e-08,-1.2469158e-08,-1.6214571e-07
-7.774354e-08,3.0580043e-08,-8.4397996e-08,-1.2960062e-07,-3.867155e-08,9.739372e-08,5.2504152e-08,-1.1091011e-08,2.2078918e-08,5.5999315e-08,-1.0090908e-08,0.10841898,-1.5067298,2.1723194e-08,3.1394432e-08,6.179302e-08,-1.3584923e-08,-1.5601348e-07,-1.4205697,0.0058893277,-1.7757715e-07,-7.816261e-09,1.4543081e-08,-8.2451015e-09,-1.2457849e-07,1.1928815e-08,1.13967474e-07,5.9244223e-09,-2.1787793e-08,3.376071e-08,1.95597e-07,-1.1560698,-1.4183436e-07,3.9564608e-08,-1.4134166e-07,3.1802951e-09,1.2196521e-07,-1.22274715e-08,4.073857e-08,8.316711e-08,7.231142e-09,-6.4357565e-08,-5.234306e-08,-1.799657e-08,-6.100316e-08,-1.2106099e-08,3.0026882e-08,-7.446164e-08,-6.991231e-08,4.1839055e-08,-2.6471252e-09,1.9301117e-08,-5.0255384e-08,7.696624e-08,5.2824706e-08,-6.475071e-08,1.0480559e-08,4.7803766e-08,-2.201912e-08,-1.07451804e-07,1.03856394e-07,-1.3096036,0.65359515,-3.6048384e-08,-1.33729365e-08,2.3082968e-08,-1.1935717e-07,-4.3789374e-08,-0.7752452,-1.2615553,5.6605202e-08,1.0219818e-08,7.3057265e-08,4.730264e-08,9.555597e-08,9.312293e-10,2.6497164e-08,1.8346668e-08,6.270611e-08,3.194595e-08,-3.489176e-08,0.9161185,1.6083138e-08,3.073879e-08,-3.450504e-08,7.9090434e-08,4.3320988e-08,4.2539654e-08,-3.445018e-08,3.5193345e-08,1.4373485e-09,-1.077799e-07,-4.638843e-08,1.6128695e-08,-1.6157292e-08,1.1008247e-08,-3.4579468e-08,-7.682145e-08,2.0258556e-08,7.738876e-09
2.4991632e-08,-1.1568986e-09,1.6511743e-08,1.1385524e-09,1.0321754e-08,-2.4884628e-08,8.347126e-09,-5.2060884e-08,1.5840351e-09,4.3317797e-08,-1.6118339e-08,0.039906543,-0.68491983,1.18284575e-07,-1.0083506e-08,1.44667e-07,-1.07386775e-08,6.3899336e-08,-0.89514625,-0.04984573,3.8081648e-08,-2.5306832e-09,-3.4271235e-09,6.154243e-09,-9.2598576e-08,2.6232614e-08,1.8414228e-08,-2.0522418e-08,9.341572e-08,-1.7917603e-08,3.4560035e-08,-0.336155,2.435375e-08,-1.3788183e-07,2.7063372e-08,3.2364888e-08,-5.448419e-08,-4.4817163e-09,-4.08121e-08,6.28278e-08,1.3914025e-07,-1.2337745e-07,-1.9817941e-08,-2.9990204e-08,1.0792113e-07,1.1970499e-07,-2.0883359e-08,-2.4993927e-08,1.4264683e-07,-1.5398264e-08,-7.73629e-08,2.7170977e-10,-7.407279e-08,-2.925487e-08,-3.379647e-08,-1.240962e-07,5.4510963e-08,-5.4733597e-08,6.38969e-08,1.4131561e-07,3.8472713e-08,-0.66465396,0.61824435,5.611222e-08,1.3770157e-08,-1.0562255e-08,4.5023285e-08,1.6265172e-08,-0.19665596,-0.6905235,-3.9436568e-08,2.0383213e-08,-9.8032515e-09,-7.0495894e-09,1.8888457e-08,-5.388074e-09,-1.5106364e-08,2.7145063e-08,-1.1681571e-09,3.095072e-08,1.1716707e-07,0.7680288,-8.680921e-09,-5.7028625e-08,-1.1040958e-08,8.596371e-09,8.2979724e-08,-1.4319067e-08,-2.5025862e-08,1.1786659e-07,5.0042374e-08,3.342649e-08,-3.279743e-08,2.0234573e-08,-6.7401213e-09,8.618349e-08,-7.8200266e-08,-7.544427e-09,-6.647523e-08,1.3136076e-07
3.026657e-08,-1.4761801e-07,3.689586e-08,4.1149804e-08,7.238269e-08,-3.5952986e-08,-9.5841756e-08,-2.1705482e-09,5.264687e-08,-1.2142102e-08,-9.438205e-09,-0.47112003,-1.6788282,1.7629364e-07,3.7934203e-08,-3.161695e-08,7.313703e-08,4.1455984e-08,-1.600835,0.47482923,-8.8216744e-08,2.5055702e-08,6.2043675e-08,-8.974447e-08,1.6030043e-08,1.0219713e-07,2.7322118e-08,-1.6886107e-08,-1.3226778e-08,2.6821247e-08,7.5568884e-08,-1.2960836,5.878619e-08,9.937261e-08,6.159057e-08,-1.1733895e-08,5.5118374e-08,2.715464e-08,2.0355998e-08,-3.251954e-08,5.7396466e-08,-5.834849e-08,-3.5991977e-08,2.7680542e-09,3.308422e-08,-5.273514e-08,1.0621536e-08,3.915124e-09,1.1904049e-07,-4.554504e-08,-2.0418645e-08,1.07089715e-08,-1.4351732e-08,4.470832e-08,1.5131995e-08,9.8295345e-08,-2.839558e-08,-4.469504e-08,4.564342e-09,7.311807e-08,5.883578e-09,-1.4317716,-0.066503696,1.7494433e-09,-2.473975e-08,-2.9371652e-08,-4.740236e-08,-1.829777e-08,-1.0839113,-1.4096391,-3.5955615e-08,-2.024657e-08,-2.7582395e-08,7.622638e-08,5.7973075e-09,-3.3531354e-08,-2.6705788e-08,-7.532215e-09,9.714072e-08,-3.2074198e-08,-1.8049268e-07,0.8084423,7.830708e-08,6.404385e-08,-5.827698e-08,9.197211e-08,-3.5864808e-08,-5.2277436e-09,-1.1981495e-08,-4.5932367e-08,1.02066885e-07,-7.412999e-08,-1.02566986e-07,3.3742005e-09,1.8951485e-07,4.0278124e-08,2.1081012e-08,2.5055353e-08,-2.5312783e-08,-9.0288246e-08
-2.156684e-08,8.293887e-08,-3.823001e-08,3.0427508e-08,1.2277044e-07,-7.9322675e-08,-1.629357e-07,1.3193681e-08,-4.4534623e-08,-4.957027e-08,-9.317834e-09,0.054670397,-1.4174992,1.34903075e-08,2.1106509e-08,-1.16347806e-07,-7.3108396e-08,-1.9363299e-08,-1.3691523,0.023056576,6.610772e-08,1.1484197e-08,-6.490107e-08,3.2564266e-08,-7.1368103e-09,-1.11508456e-07,-1.414605e-07,-2.8978949e-08,-2.1508129e-09,-6.390747e-08,1.0801321e-07,-1.031597,-3.1545124e-08,6.67392e-08,-3.658712e-08,-1.09288386e-07,-6.498105e-08,-8.3393665e-09,-2.4585214e-08,-6.048758e-08,7.1552535e-08,7.041168e-08,4.377929e-08,2.0116504e-08,4.3385946e-08,-1.3225117e-07,-1.4293384e-09,1.0812131e-07,9.28614e-08,3.1977464e-08,1.00808904e-07,1.36811344e-08,1.4380586e-08,-1.0962452e-08,-4.93637e-08,-1.9963788e-07,-5.267028e-08,6.039598e-09,9.354067e-08,-1.3766012e-07,4.7918775e-08,-1.2329656,0.4964847,-1.2449846e-07,1.7767206e-07,5.06945e-08,5.3780138e-08,1.6979449e-09,-0.31418082,-1.207071,-8.932094e-09,-4.796235e-08,4.3185292e-08,1.5668704e-07,-1.0146435e-07,1.8626632e-07,1.3644353e-07,2.1402196e-09,1.1585435e-07,-8.1963005e-09,-8.55433e-08,0.6710454,7.836627e-09,1.2085067e-08,-6.739075e-08,-4.2297234e-08,-1.4212041e-08,2.8854217e-08,-2.3758773e-08,2.1468221e-08,5.5659974e-08,7.675808e-08,-5.9351258e-08,7.0560784e-09,1.284466e-07,4.0816605e-08,-7.793922e-08,-7.804646e-08,7.035164e-08,-3.1018054e-08
4.4784475e-08,6.4882116e-08,1.16467305e-07,-4.3939874e-08,6.248477e-08,1.1182092e-08,4.329325e-08,-2.1539988e-08,4.856634e-09,3.1572607e-09,-3.961578e-08,-0.0028437125,-1.5071508,-4.0569578e-08,-8.498135e-08,7.077899e-08,8.8322935e-08,1.723361e-09,-1.4522943,0.09905339,1.8170579e-07,-9.651448e-08,-4.631871e-08,-5.22065e-08,-1.7203614e-07,-1.0028188e-08,2.1801362e-08,1.9756026e-08,3.2214864e-08,2.7610843e-08,1.7102674e-07,-1.1664758,-3.5030236e-08,1.059354e-07,3.3728227e-08,1.2534681e-08,1.1286242e-07,7.2744484e-08,1.0829146e-09,-1.4207927e-07,-3.5473565e-08,-7.058548e-08,2.6427097e-08,-2.2635294e-09,-6.031122e-08,-5.7664067e-08,3.200584e-08,1.9790356e-09,-2.9964802e-08,-6.8242976e-08,-2.7803736e-08,3.6495685e-08,1.773735e-07,-1.939813e-07,-1.5378856e-07,-5.106792e-08,3.134245e-08,1.07478115e-08,-1.2889366e-08,-7.202241e-08,1.8305844e-08,-1.309722,0.4746076,3.8208736e-08,-3.742041e-08,-4.0451294e-08,-1.1266859e-08,-3.368077e-08,-0.9730257,-1.2947906,-6.782989e-08,1.2594331e-08,-3.0792854e-08,-4.1270155e-08,-3.334758e-08,1.1030117e-07,1.5362847e-08,-1.5979769e-09,6.111197e-08,7.7894605e-08,-9.866589e-09,0.7778155,-8.221865e-08,-9.680995e-08,-6.225687e-08,-1.874724e-08,-1.4862305e-08,3.6277495e-08,3.2337816e-08,1.5352182e-08,7.26103e-08,2.5852458e-08,-2.3388521e-08,-7.2443065e-08,3.1735738e-08,5.913639e-09,-1.1625619e-07,8.846749e-08,-2.4576451e-08,3.2740184e-09
3.0121683e-09,6.5857435e-08,-9.280658e-09,1.5708963e-08,1.8033752e-09,6.874286e-09,8.121354e-08,1.7418273e-08,2.8689499e-08,-1.7793361e-08,-1.7524457e-08,-0.09300717,-1.327731,-5.9600325e-10,-1.8422647e-08,-4.8249404e-11,-2.5952968e-08,3.063768e-08,-1.2950695,0.09613001,2.3926163e-09,6.547356e-08,4.6814044e-08,-1.2920883e-07,-4.5089667e-08,-3.8873573e-08,9.8319525e-08,-1.5949561e-07,-2.3977261e-08,1.7755944e-07,7.3193505e-09,-0.8781094,5.1467296e-08,-1.6520843e-08,5.316222e-08,5.6682847e-08,2.0891271e-08,6.214444e-08,-2.7568088e-08,-1.6993333e-08,4.2800206e-08,-2.769016e-08,-4.1513882e-08,6.0035916e-08,-5.7534926e-08,-2.9557317e-08,3.909833e-08,-1.4635379e-08,3.2822847e-09,1.0087017e-07,3.3062474e-08,-2.4006638e-08,-3.1799075e-08,6.9789316e-08,1.3229744e-07,-4.3224965e-08,5.1520246e-08,2.3226466e-08,6.7130372e-09,8.5621636e-08,1.6409014e-07,-1.065171,0.64577967,7.895562e-08,1.08573836e-07,3.5012327e-08,1.51731e-08,4.0791438e-08,-0.7877559,-1.0677055,1.7485208e-08,1.4474994e-08,8.758443e-10,3.9130356e-08,2.9346921e-08,5.134694e-08,-3.398233e-08,8.049507e-08,1.7034814e-08,-1.775895e-08,6.6705404e-08,0.8905726,1.05626e-08,-2.2071323e-08,2.016244e-08,1.0461857e-08,6.794852e-08,1.5854093e-08,-2.679986e-09,-3.5343596e-08,2.9182097e-09,-8.676578e-09,8.226665e-09,6.377755e-08,-4.624818e-08,-6.5684436e-09,-2.2409493e-08,-5.136686e-08,1.4185106e-08,-1.3533956e-09
4.382057e-08,1.8491583e-08,-4.2205112e-08,-3.5774935e-08,1.0285431e-07,2.6383876e-08,-2.1769715e-09,-5.396057e-08,-7.090655e-08,-1.3136738e-08,-8.938113e-08,0.17049313,-0.99445426,-1.6736966e-08,-2.2440037e-08,-6.3364055e-08,-1.650794e-08,4.7993712e-08,-1.1407255,-0.109280646,-2.0163572e-08,3.780785e-08,8.454164e-08,3.0186072e-08,-5.992261e-08,-2.013941e-08,5.982864e-08,3.3973237e-08,-2.928175e-08,-5.834199e-08,-4.7543015e-08,-0.523003,3.1436507e-08,-3.3061944e-09,-8.332623e-08,2.9012963e-08,3.6878266e-08,-7.080718e-08,-1.6170975e-07,-1.399675e-08,-5.290225e-08,-8.707697e-08,-6.296375e-09,2.749644e-08,6.268124e-10,1.8941778e-07,-1.6160667e-08,-1.1579029e-08,8.247342e-08,-6.6325406e-08,-5.3057338e-08,-1.05769935e-08,3.8266602e-08,-6.786446e-08,1.0540728e-07,-6.393908e-08,-6.852687e-08,4.8583118e-08,-4.674276e-08,-4.1053294e-08,5.4695956e-08,-0.79388595,0.8150629,-5.9147682e-09,2.6917377e-08,3.0566085e-08,-6.138363e-08,1.17935866e-08,-0.59610116,-0.83765835,7.016613e-09,2.1809491e-08,-4.275693e-08,1.8350256e-08,5.3917546e-08,2.8031106e-08,-2.2364405e-08,-3.129729e-08,7.563996e-08,1.0618864e-07,7.461449e-08,0.8447452,-1.0111723e-08,1.1943472e-07,7.504022e-08,6.7273405e-08,2.0384826e-08,-4.7442196e-08,-7.689394e-08,-2.6116158e-08,4.723603e-09,1.5662962e-08,7.474715e-08,-5.5475624e-12,-1.2676615e-08,1.2426284e-08,-1.5908146e-09,-5.5587186e-08,-1.7665608e-08,-6.510328e-08
2.3768258e-09,1.846967e-09,5.3337335e-08,-7.8483204e-08,-6.132016e-08,7.661818e-08,-6.196051e-08,-2.8194355e-08,4.4905065e-08,-2.2944551e-08,5.1932748e-08,0.6273479,-1.8591644,2.5465763e-08,-3.0444916e-08,6.184643e-08,-7.480274e-10,-9.468759e-08,-1.7608243,-0.39357328,-6.034533e-08,7.242229e-08,-1.11321285e-07,1.5345876e-07,1.5692018e-07,1.3791125e-08,2.8341905e-08,-8.634008e-08,-3.4200163e-08,-8.584987e-09,-2.232453e-08,-1.4149948,4.6012536e-09,-2.0396342e-09,7.029607e-08,-9.699128e-08,-1.3856521e-08,1.568256e-08,-1.4785422e-07,3.254754e-08,-4.1271036e-08,-1.32510145e-08,-3.3512094e-08,-7.134103e-08,3.3138612e-08,-4.9826216e-08,1.6065613e-08,2.769438e-10,-9.056878e-08,-3.8353118e-08,-8.450722e-08,6.3885906e-08,-4.1344727e-08,-2.3513643e-08,4.8542514e-08,9.240486e-09,-5.7956814e-08,1.8819547e-07,5.0920637e-09,-1.2929512e-07,1.7649764e-07,-1.6249428,0.84627116,1.4705947e-07,-3.0753213e-08,-4.433442e-08,-1.8854251e-08,-2.1396929e-09,-0.8371174,-1.5844034,4.38218e-08,4.2313225e-08,-1.521957e-08,-5.7463303e-08,5.2355947e-08,7.497323e-08,-5.043649e-08,-1.8343378e-08,-1.05285096e-07,8.1986634e-08,1.3152795e-08,1.0687315,-1.2660387e-07,1.0479154e-08,7.8688174e-08,9.50258e-08,2.3920084e-08,8.424247e-08,-6.931977e-08,9.031432e-09,-1.6960279e-08,3.929605e-09,3.985477e-08,2.9503937e-08,7.470594e-08,-1.03282645e-07,-2.515612e-08,6.1458245e-08,3.982517e-08,-1.8194765e-08
3.255604e-08,6.7766344e-08,1.3102215e-07,-2.5683434e-08,-4.697775e-08,5.328031e-08,-5.0789073e-08,-4.30487e-08,-5.634489e-08,-6.449434e-08,4.9704095e-08,0.58789045,-1.5388875,1.2330679e-07,2.4770726e-08,1.54091e-08,-2.8404516e-08,1.1675828e-07,-1.5480319,-0.29898307,-5.0631687e-08,2.5309289e-08,-3.248229e-08,-1.1965396e-07,-5.529829e-09,1.2827132e-07,-4.4097863e-08,-1.3824824e-08,-5.2375118e-08,-7.987077e-08,-1.01287085e-08,-1.2597363,3.247754e-08,-6.3406695e-08,5.992465e-08,1.505123e-07,4.5416538e-08,-3.8313093e-08,-5.947487e-08,-1.9054912e-08,9.489485e-08,-2.7016736e-08,-6.9433206e-08,8.361979e-08,1.9363449e-07,5.442903e-08,-1.0106416e-07,-1.828167e-07,-7.652265e-08,-5.9213843e-09,1.3346248e-07,1.210795e-07,-3.2684206e-08,5.9429013e-08,6.1023236e-08,7.045067e-10,4.4918952e-08,-1.5781389e-08,1.1246308e-07,9.895802e-08,-5.000535e-09,-1.4079916,0.73992026,-6.754035e-08,-8.004952e-08,7.020969e-08,-2.8805413e-08,2.2107123e-08,-0.42081028,-1.3937263,3.2098214e-08,-5.539374e-08,6.5036176e-08,4.1866308e-08,3.3858484e-08,2.9381305e-08,-6.9799135e-08,4.5544716e-08,-3.806967e-09,-2.3590623e-09,1.0904646e-07,0.80097073,-1.2532581e-07,-1.0446641e-08,-5.812447e-08,1.4205791e-08,-9.657039e-08,-6.157504e-08,-8.710252e-09,-9.328633e-08,-4.3045127e-08,-2.359053e-08,-7.618803e-08,2.7328046e-08,-6.0922503e-09,-3.5644618e-08,4.59575e-08,-7.306187e-08,3.229733e-09,1.2520712e-07
-2.688467e-08,-5.040577e-08,-9.6412116e-08,-1.233278e-07,-7.7882476e-08,1.1876931e-07,1.12694e-07,7.325657e-08,-9.609465e-08,3.8292445e-08,4.649328e-09,0.6470447,-1.5658511,-3.8743323e-08,-2.9604063e-08,1.190238e-07,-6.681865e-08,-3.0792222e-08,-1.57901,-0.39606273,-6.0468714e-08,-1.822811e-08,1.092715e-07,6.324279e-08,-9.7532535e-08,-6.225748e-08,-4.0334037e-08,1.0205473e-07,2.628223e-09,-1.5427636e-08,-5.470666e-08,-1.2293301,1.9641934e-08,2.4685486e-08,-4.9305797e-08,1.2225877e-07,1.8770497e-07,2.6786264e-08,5.6298333e-08,-2.6673579e-08,8.547296e-10,-4.2871648e-08,-2.4446752e-08,-3.8974168e-08,1.6377408e-07,-9.438887e-09,3.0595523e-08,-3.949104e-09,3.920394e-08,-1.6000465e-08,1.1308569e-07,-1.7968457e-08,7.4903085e-08,-6.658243e-09,5.274663e-08,3.9340556e-08,1.1652005e-07,-5.5022376e-08,5.1629634e-08,-6.644942e-08,3.0042067e-08,-1.4030501,0.80155104,-1.1226085e-07,-9.3344354e-09,-2.426562e-09,5.0827193e-08,3.1074883e-08,-0.23010771,-1.3768312,2.2134685e-09,1.5159873e-08,-8.104116e-08,-4.318253e-08,5.1554533e-08,-9.9298006e-08,3.1448465e-08,-3.2041072e-08,-1.4962671e-08,-2.551081e-08,4.8993492e-08,0.7502453,4.457201e-08,-2.7010486e-08,-1.0707531e-08,1.9603206e-08,-3.1075498e-08,-8.6966054e-08,-1.036736e-07,-7.904411e-09,-3.425648e-08,-7.998271e-08,-6.2076715e-08,5.1040754e-08,-3.8623885e-08,6.141495e-08,-7.887333e-08,6.192454e-08,2.8053442e-08,-5.624183e-08
-6.965106e-09,8.2599865e-09,-8.709171e-08,2.302227e-08,-5.2420624e-08,9.35996e-09,7.820239e-09,-3.7518472e-08,-4.606057e-08,-1.3812977e-08,8.664786e-08,0.59837025,-1.4638959,-3.3701063e-08,4.788526e-08,-4.3356444e-08,-2.6010795e-08,-2.6971598e-09,-1.3721647,-0.35859096,-1.0088712e-09,5.2577107e-09,-5.5169828e-08,1.1065504e-07,-1.9437653e-08,-9.5381466e-08,3.9410175e-08,1.0240711e-08,-6.374681e-08,-1.753244e-08,-7.632117e-08,-1.0600096,1.7034354e-08,-4.974273e-08,8.363493e-08,1.4449213e-08,-3.5215127e-08,-5.4328947e-08,3.9581664e-08,9.867925e-08,-3.7926945e-08,1.2140957e-08,-9.61901e-08,-5.5302536e-08,-4.1581938e-08,-1.4723194e-07,-1.2609061e-07,4.45303e-08,-3.8974083e-08,-2.0005388e-08,-2.7841434e-08,1.2561891e-07,1.251891e-07,4.2234014e-08,8.147674e-08,4.3121577e-09,-6.5827614e-08,1.4634253e-07,-1.8400974e-07,-6.03332e-08,-5.1153357e-09,-1.2339795,0.73302203,5.3550867e-08,3.3641278e-08,-8.6438405e-08,2.3193163e-08,9.2078185e-09,-0.35314885,-1.1655873,-9.953032e-08,9.8302976e-08,7.692716e-08,-6.636712e-08,5.8625496e-09,-1.455253e-07,-4.9942702e-08,4.549343e-08,3.3141916e-08,-2.8631348e-08,-3.9195328e-08,0.684968,4.324382e-08,-3.4222506e-08,5.00425e-08,-4.0820744e-08,-2.1628832e-08,6.825397e-08,1.0761014e-07,-2.2126502e-08,-8.733562e-08,-2.927643e-08,8.57711e-09,-2.2633412e-08,1.8800343e-08,-8.494169e-09,1.9694273e-09,-4.971635e-08,-6.856706e-08,2.344322e-08
-1.171956e-07,2.774706e-08,1.43330645e-08,-9.354254e-09,4.0219795e-08,-2.0196367e-08,8.186275e-09,-1.8350406e-07,3.4808615e-08,-1.2588987e-07,1.4898211e-07,0.4139005,-1.6457387,2.0494193e-08,8.1734996e-08,-8.573571e-08,-3.0836876e-08,-1.7214138e-08,-1.6756912,-0.17099164,-8.5297614e-08,3.1378402e-08,1.18808785e-08,-4.1600916e-08,1.5074804e-07,1.11953156e-07,-8.652159e-09,-5.5326755e-08,-1.5353265e-09,-2.155104e-08,3.9060595e-08,-1.234898,-1.6389666e-07,1.2532422e-07,3.603114e-08,4.7768406e-08,-3.1720333e-09,-9.280507e-09,3.8253823e-08,2.1481274e-08,-5.2303758e-08,1.1396686e-08,-5.224549e-08,-5.2092545e-08,4.281343e-08,-8.832379e-09,1.4079153e-07,-1.4261653e-07,-3.2751647e-08,-7.573043e-08,2.0021599e-08,-5.217524e-08,8.945605e-08,-1.2393826e-08,-5.371696e-08,1.4251266e-07,-7.166227e-08,-2.4613287e-08,7.4327287e-09,-2.7632689e-08,-1.12716606e-07,-1.4493251,0.5017899,1.5101898e-08,-8.2777674e-08,-6.895641e-08,1.9280328e-08,-2.6788971e-08,-0.4640924,-1.4212229,-2.007199e-08,2.3271493e-08,-5.909305e-08,1.9787489e-08,4.0308636e-09,1.0693146e-08,7.5167765e-09,-3.9006174e-08,5.3433418e-09,-4.660653e-09,-8.822205e-08,0.6229317,-5.057416e-09,9.9309915e-08,7.487502e-08,-4.2067974e-08,-2.215673e-09,-1.1067506e-08,2.3118442e-08,-1.2759143e-08,3.8809823e-08,-9.984135e-08,-4.8965255e-08,-3.2584524e-08,6.921009e-08,-2.5006626e-08,9.496496e-08,1.2985312e-07,-7.193487e-08,4.5837467e-09
7.684554e-08,2.1237742e-08,7.6330835e-08,2.5987067e-08,-2.1628956e-09,-4.4369724e-08,1.2360371e-07,4.61901e-08,-3.797959e-08,-7.62971e-09,1.3511692e-07,0.18971287,-1.8865026,3.0973112e-08,-5.2555098e-08,3.958709e-09,3.484572e-08,4.3274948e-08,-1.8315191,0.08314906,8.881107e-08,8.8824706e-08,-4.1094005e-08,-2.6159418e-08,1.7149553e-08,3.103104e-08,-5.2657747e-08,8.5752525e-09,-8.5964516e-09,-2.7750602e-09,1.0681513e-07,-1.5341927,-3.8862147e-08,1.2245548e-07,-4.8590053e-08,-3.0627753e-08,1.8195532e-08,-1.9785507e-08,5.7353372e-08,1.5674406e-07,-8.4340215e-09,5.7727775e-08,-6.4552836e-08,2.806084e-08,3.79487e-09,1.2335663e-08,3.499404e-08,-1.05527945e-07,-8.334135e-08,4.154046e-10,8.303655e-08,-7.984449e-08,-1.1421374e-08,3.359168e-08,-2.8946324e-08,-9.6707936e-08,-1.1977168e-08,-2.894582e-08,2.7690778e-08,1.0665897e-07,1.8409658e-09,-1.7118177,0.7370015,-1.1316398e-07,1.3696994e-08,5.998353e-08,1.28083855e-08,-1.2108885e-07,-0.9657716,-1.6959451,3.1583184e-08,-7.1937365e-08,-2.4958629e-08,-3.012685e-08,1.7144086e-07,-2.094629e-08,9.6051025e-09,1.1093398e-08,1.1618901e-08,8.503908e-08,-1.371893e-07,1.2899003,1.6980897e-08,7.4614537e-10,1.1091271e-07,-1.1066263e-08,-1.7493352e-07,3.212802e-08,-5.407363e-08,6.236133e-08,-7.48925e-09,-8.4718044e-10,9.1496396e-08,1.7228011e-08,-5.590721e-08,1.0164447e-08,8.930695e-08,5.060592e-10,1.06030264e-07,1.7300604e-08
-1.0174704e-07,2.8508076e-08,5.1100464e-08,9.258152e-08,-8.8465775e-08,1.654325e-07,-2.3269504e-08,-4.0756888e-08,-1.607904e-08,4.0670116e-08,1.3576458e-07,0.23898527,-0.5510544,-6.50671e-08,-1.2297802e-07,-1.215199e-08,-5.3820726e-10,2.9961e-08,-0.87247545,-0.10201569,-5.559487e-08,2.3273302e-08,4.582624e-08,-2.51101e-08,-2.4898696e-09,1.2683859e-07,2.1592367e-08,-2.330184e-08,-8.055629e-08,-3.0010593e-08,-4.5562118e-08,-0.23369206,2.3515014e-08,-2.1958902e-08,7.587582e-08,4.3504258e-08,1.6294484e-08,4.187208e-08,-1.3325139e-08,-5.6641625e-10,8.688957e-08,-5.70785e-08,-1.7425955e-07,2.752903e-08,3.4496956e-09,4.749848e-08,1.5025715e-07,-3.9837595e-08,1.6827139e-08,2.8668257e-08,-4.1733966e-08,7.80805e-08,-4.667097e-09,-3.8056967e-08,9.04165e-08,5.9489786e-08,-3.8449194e-08,6.583909e-08,-3.093928e-08,-1.2078813e-07,-6.516786e-08,-0.61015475,0.81672627,-5.4416393e-08,-2.1876001e-08,-1.6927795e-07,1.00693526e-07,1.809191e-09,-0.2915088,-0.64456934,1.4547936e-09,1.6847633e-08,1.2676611e-07,2.1041139e-07,2.8460938e-08,-2.9528778e-08,1.9132024e-08,2.8982063e-08,-2.4131516e-08,-7.342629e-08,-5.397112e-09,0.9529518,7.442303e-08,5.195631e-08,-2.772719e-08,-1.374322e-07,1.1359386e-08,-1.5785965e-08,-2.8184722e-08,-9.74659e-08,7.93322e-09,-5.5950323e-08,-6.217678e-08,-2.1623924e-08,-1.6110885e-08,1.01529245e-07,-2.1185596e-09,-3.4107106e-08,3.3551604e-08,5.317016e-09
-2.0564231e-08,1.7465752e-08,-3.7034965e-08,1.1582728e-07,-3.030005e-08,-7.99663e-08,4.3292122e-08,-6.613425e-08,-7.21635e-08,-1.37996246e-08,5.286991e-08,-0.41103512,-1.8390015,-1.0013089e-08,-7.375396e-08,-3.6694686e-08,7.103306e-08,5.5557393e-08,-1.6877413,0.5938874,-3.510489e-08,6.55089e-08,-4.3223725e-08,-6.127929e-08,9.306538e-09,-3.782007e-08,-3.3888966e-08,1.850867e-07,1.0404317e-07,4.0932747e-08,1.5573174e-07,-1.4425362,3.392415e-08,-1.1137515e-07,8.021768e-09,3.7821465e-08,-8.335288e-09,2.366964e-08,4.9927028e-08,-5.5631176e-08,1.8017568e-08,6.082908e-08,-1.929895e-08,-8.7945345e-08,2.2781462e-08,5.150084e-08,-2.4648603e-08,-1.0488954e-07,3.4260314e-08,1.1848761e-08,5.8193763e-08,-1.762751e-08,-8.664985e-09,6.8630825e-09,-1.8422259e-07,-3.7840117e-08,-1.577017e-08,-4.5709726e-08,-7.764842e-08,2.4191852e-08,-2.3852063e-08,-1.6100113,0.2945359,-3.2051947e-08,-5.989134e-08,1.0029046e-08,-6.7899634e-08,3.1789336e-09,-1.406035,-1.6047817,-4.499447e-08,-4.767074e-09,8.088486e-08,5.4734656e-08,-4.4939128e-08,-1.2982733e-08,1.8606647e-08,-6.176943e-08,-6.550641e-08,-1.7370683e-08,3.9697902e-08,1.2103297,5.2602836e-08,1.5466188e-07,-6.947408e-08,2.2062965e-08,7.283816e-08,4.130884e-08,-9.525635e-09,4.5424464e-09,-2.9030836e-08,-7.996572e-08,-2.8708557e-08,1.15864424e-07,8.600091e-08,5.0138162e-08,1.962624e-08,1.2585421e-07,-1.0168422e-07,-7.1267934e-09
-7.978233e-09,-4.353624e-08,2.8161942e-08,6.6703855e-08,1.365783e-07,-1.2499952e-09,-1.6013686e-07,2.8976205e-08,5.646088e-09,3.9533766e-08,-6.201001e-09,0.11736157,-1.3486403,1.2802874e-07,5.1983147e-08,-1.3869716e-08,3.4516642e-08,-1.4048453e-07,-1.3408247,0.06905303,-6.8758624e-08,-5.7954658e-08,9.2971675e-08,3.9575312e-08,5.0729312e-08,-4.3725365e-08,-1.8493207e-08,-8.734021e-08,-3.3376843e-08,-1.7098309e-08,5.813519e-08,-0.96737975,1.01833045e-07,-1.8980426e-08,3.8607428e-10,-1.15002415e-07,-8.572405e-08,2.3294152e-08,1.0381404e-08,-4.5846143e-08,1.6505199e-07,1.6674767e-07,9.7359994e-08,9.598414e-08,2.7909195e-09,-5.862135e-08,8.5190365e-08,1.332697e-07,9.2908436e-10,-5.583027e-08,-2.1116094e-08,3.215013e-08,5.827438e-08,-1.4273758e-08,1.0398651e-07,1.2981212e-07,-1.6161952e-09,-9.4984664e-08,6.5296305e-08,-5.320284e-08,-1.9470349e-08,-1.1887143,0.3700927,-6.761455e-08,6.224708e-09,1.9647855e-08,-3.0848376e-08,5.6483877e-08,-0.6249011,-1.1581,3.9449006e-08,-1.9057484e-07,2.2157094e-08,-1.2001212e-07,1.510881e-08,-4.8325735e-09,4.0881794e-08,1.1619776e-07,-8.6638e-08,-2.1823162e-08,-3.2632013e-08,0.7199513,-2.7907063e-09,5.6734173e-08,3.955733e-08,3.1753267e-10,-2.745737e-08,-2.982035e-08,8.944397e-08,1.4378262e-08,-1.547235e-07,-4.7138776e-08,8.039301e-08,-8.0758255e-08,-8.324436e-08,-3.7581263e-08,-6.759774e-08,-7.3692675e-08,-5.0448932e-08,7.1694764e-08
1.6991481e-07,4.435723e-08,4.5227466e-09,-9.919653e-08,-6.5871724e-08,1.5699321e-08,7.354018e-08,-9.7267716e-08,1.3029768e-07,8.252939e-08,9.4065705e-08,0.2143263,-1.3886647,-9.3540095e-08,1.1853369e-07,-4.687407e-08,1.1823325e-09,1.2912223e-07,-1.3984615,-0.059363365,4.049328e-08,-3.7161733e-08,-1.5702941e-08,-1.14244145e-07,-1.9105734e-08,-3.5256722e-08,-2.2666551e-08,7.7954574e-08,8.082359e-08,9.348864e-08,-6.757878e-08,-1.0632749,8.634826e-09,1.5355431e-07,-1.5159554e-08,3.9197356e-10,2.810389e-08,-3.5863945e-08,-1.3608025e-07,1.4776861e-08,-5.8150704e-08,-2.6398995e-08,7.9168e-09,-1.304879e-07,-8.710279e-08,-2.3001926e-08,3.8758493e-08,-4.593918e-08,4.3853788e-08,1.2339032e-07,-1.5282167e-08,2.065506e-08,-4.3082437e-08,-4.633929e-08,-9.58517e-08,-3.6754386e-08,1.2105039e-07,1.706507e-08,9.365819e-08,-1.748118e-08,1.1774088e-07,-1.2499859,0.50925314,1.0040776e-07,1.7743473e-07,2.0476163e-07,-1.2541364e-09,-3.0465166e-08,-0.29404113,-1.2291043,6.877271e-08,-4.4952337e-08,7.913889e-08,1.7236192e-07,-2.7169389e-08,-4.0095703e-08,-1.2446876e-07,2.1350509e-08,5.4624746e-08,2.2115398e-10,-7.473243e-09,0.6838,-3.395873e-08,1.3157583e-07,6.8714556e-08,-5.5706604e-08,-8.3727425e-09,1.8642034e-08,-7.038854e-08,-8.657748e-08,1.5843053e-08,-1.1884307e-08,9.220167e-09,9.916498e-08,1.6900802e-07,1.913548e-08,-8.663109e-08,-7.191498e-08,-1.4185252e-08,6.898646e-08
3.150483e-08,-8.3245155e-08,1.314444e-07,-8.263662e-09,-6.1580806e-08,-4.450932e-08,-4.438199e-09,-1.3799868e-07,-1.4814631e-08,5.4482513e-08,-1.4122459e-08,0.28325573,-1.7052428,4.9896236e-08,-4.1712106e-08,-1.6684629e-08,6.1441995e-08,3.1503227e-08,-1.6683257,-0.05392171,1.1653942e-08,-7.403487e-08,-4.115923e-08,2.842838e-08,-7.550534e-08,-1.412847e-07,-6.577694e-08,-2.7988767e-08,-6.727106e-08,-2.6205631e-08,8.661959e-08,-1.256435,-2.1086553e-08,4.3893642e-08,3.1900715e-08,1.8058135e-08,2.5103404e-09,-2.2922617e-08,3.792175e-08,1.4027002e-10,-8.8390195e-08,4.7616172e-08,5.53968e-10,9.392572e-09,-1.1479433e-08,-7.191218e-08,1.65853e-08,-6.7059442e-09,-2.0180384e-08,1.2438682e-07,-2.7801057e-08,-4.4486136e-08,7.509134e-08,-6.356599e-08,-4.9388458e-08,1.486579e-08,5.7370816e-08,1.0223928e-07,-1.1137779e-08,4.338994e-08,-7.564747e-09,-1.447615,0.62557155,1.041791e-08,1.4005919e-07,-5.3275926e-09,7.334929e-08,-5.531575e-09,-0.81613046,-1.4420753,7.051069e-08,2.4297698e-08,2.9093156e-08,-1.6476159e-08,-5.3584923e-08,3.7361154e-08,2.4731246e-08,-8.273979e-09,-8.999166e-09,-2.910755e-08,-1.08281526e-07,0.8164054,-7.092917e-08,5.9010315e-08,3.0409588e-08,2.3364032e-08,1.3271872e-10,1.6494897e-07,1.4547403e-09,3.62814e-08,6.606586e-08,7.531711e-08,3.303133e-08,4.5259846e-08,-8.440011e-09,6.850131e-08,1.1265785e-08,-7.300522e-08,-3.5505895e-08,2.047495e-08
1.01837486e-07,-1.8730844e-07,-6.4996996e-08,-3.5584055e-08,-6.3200986e-08,-8.749554e-09,1.2165384e-07,-2.3825333e-08,4.4749555e-08,-1.570775e-07,-1.7433099e-08,0.048069675,-1.3113198,-1.8550203e-07,-1.1054634e-07,-2.1895548e-08,-1.9873843e-08,-3.785703e-08,-1.3070117,0.06320207,1.5537363e-08,5.5603792e-08,3.2281953e-08,3.844867e-08,-5.0240097e-08,4.7041613e-08,-6.557399e-09,2.1035369e-08,-9.609583e-09,1.8102277e-08,1.1684831e-07,-0.934807,6.1821204e-08,4.0187988e-08,-4.0123368e-08,9.302564e-09,1.4053988e-07,4.7819118e-08,5.8845075e-08,5.985712e-08,-5.5636377e-08,3.1705476e-08,-3.3105696e-09,-2.972424e-09,2.054923e-08,-3.819872e-08,1.0202915e-07,-2.8213012e-08,6.789981e-08,-1.7582682e-08,-3.7407254e-08,-3.9737575e-08,-3.451231e-08,-7.368714e-08,3.5080745e-08,-2.7578444e-08,-4.0689088e-09,-4.3279716e-08,1.03660305e-07,-3.9218023e-08,-9.277812e-08,-1.0740516,0.25584322,1.4333034e-07,-1.8566869e-08,-1.6050784e-07,3.2108144e-08,4.254895e-09,-0.36948785,-1.006518,-2.5863109e-08,4.2282394e-08,1.5936507e-08,1.7626885e-08,4.1130562e-08,9.634817e-08,5.9498763e-08,-1.7729488e-07,-1.17154755e-07,-4.049893e-09,1.0166161e-07,0.5018875,5.4945705e-08,1.7065675e-07,-1.2360092e-08,-1.9453493e-08,4.9330417e-08,-1.1053053e-07,-3.24994e-08,-1.2124455e-07,4.1973042e-08,-8.150534e-08,7.595974e-09,-1.01897704e-07,1.6658515e-09,3.2060033e-08,-4.1624773e-08,3.1437498e-08,-3.4098157e-08,1.357553e-07
5.6348277e-08,6.752278e-08,-1.8225442e-07,1.3063988e-07,-8.808091e-08,1.7546633e-08,-1.9888713e-08,-3.4602392e-09,-8.914508e-09,1.4948132e-10,-8.8212325e-08,-0.16618364,-1.6712714,5.3652016e-09,1.2124599e-07,1.9485492e-08,6.0168546e-08,-7.49241e-08,-1.5539316,0.32309484,2.4158979e-08,-3.989694e-09,-6.000551e-10,-4.5467097e-10,9.645281e-08,5.041445e-08,-2.0015833e-08,-9.971416e-08,-2.2030154e-08,6.531598e-08,-1.8154445e-08,-1.3055303,1.06918705e-07,3.4292e-08,3.2564742e-08,-1.0844032e-07,-9.877586e-08,-9.429975e-09,-8.785139e-08,5.1494943e-08,-4.953332e-09,-2.692806e-08,-1.12610614e-07,2.3179933e-08,1.1827453e-08,1.5591958e-08,-4.1605748e-08,-1.443484e-07,-7.892396e-08,3.9206974e-08,8.583722e-09,4.4510102e-08,-5.249582e-08,1.0886627e-08,-8.113391e-09,-5.1634075e-10,-4.7926655e-08,-8.054061e-09,-3.250582e-08,3.536321e-08,3.457147e-08,-1.4423939,0.55034167,6.4930646e-08,-6.806233e-08,-6.305719e-08,-1.1309315e-07,-5.983565e-08,-1.2649838,-1.421668,-9.044988e-08,1.7563604e-09,3.691587e-08,-1.4891768e-08,-1.6330404e-10,-1.4465786e-07,-3.0043253e-08,4.833769e-09,-5.4993755e-08,1.08427706e-07,-1.7339528e-07,1.1574258,-2.3593785e-08,6.579714e-08,8.966719e-09,8.243463e-08,-1.2938075e-07,1.3396894e-08,1.778348e-07,-4.8042796e-08,4.3313918e-08,-1.3370009e-08,-5.484848e-10,1.5724488e-07,-8.0739376e-08,8.599938e-08,4.4458595e-08,-8.394566e-08,-1.60383e-08,1.6649098e-08
-7.599299e-08,-3.8525826e-08,-1.2971003e-07,-1.3620154e-08,2.8281256e-08,7.493108e-09,-5.103097e-08,-4.564584e-08,2.095123e-08,-9.740023e-08,2.5321617e-08,-0.08279336,-0.646731,-4.8203006e-08,-1.442253e-07,2.4690095e-08,4.764898e-08,-1.1685239e-08,-0.91934526,0.076281905,-4.1162124e-08,5.965554e-08,-4.1592592e-08,-3.2098129e-09,-4.5588898e-08,7.655283e-09,3.976851e-09,1.423754e-07,-6.4583126e-08,-6.477627e-08,2.1453179e-08,-0.29737812,1.2752313e-08,1.0273269e-08,1.6237297e-07,-1.6051662e-07,5.467659e-08,-1.011842e-07,-9.183779e-08,1.4759305e-09,4.6886782e-08,2.3406763e-08,1.13027966e-07,-4.0782442e-08,5.534783e-08,-3.2698363e-08,1.0906248e-08,1.3322047e-07,1.1201229e-08,-4.9849657e-08,-7.465689e-08,2.800769e-08,-9.355742e-09,4.329772e-08,-3.932694e-08,3.3503287e-08,3.1002095e-08,2.6563836e-08,-5.6083405e-08,-1.6098252e-07,-3.128072e-09,-0.6569171,0.69038904,7.889561e-08,1.298767e-07,-1.2993462e-08,1.0189224e-07,-1.1006028e-07,-0.4222013,-0.7291156,-6.069638e-08,2.671852e-08,5.153969e-08,1.2277191e-07,9.5762466e-08,-1.5961477e-08,1.746997e-08,2.8411428e-08,-6.9708648e-09,3.0889584e-08,-1.6823444e-07,0.9096562,6.4339076e-09,3.4430059e-09,-5.7397514e-08,-6.8724084e-09,2.0931282e-08,6.0040364e-09,-7.389315e-08,2.7656268e-08,-1.3062369e-08,6.14494e-08,2.073853e-08,6.293009e-09,-3.2839147e-08,-8.442177e-08,-4.34084e-08,1.307755e-08,5.1556704e-08,7.1953245e-08
-3.6687187e-09,-1.4740596e-08,1.21063355e-08,-3.2886252e-08,2.3852241e-08,1.281905e-07,7.649332e-08,5.612173e-08,-2.716795e-08,8.185535e-08,-5.981218e-08,0.057780664,-1.0214733,-1.251737e-08,-1.2652347e-08,-8.426281e-09,2.4399576e-08,2.4604157e-08,-1.1708112,-0.0365875,-2.801335e-08,2.6287104e-08,6.396283e-08,5.7389556e-08,7.2349025e-08,-6.3478694e-08,-3.7584194e-08,-6.106692e-08,-6.045191e-08,-5.3043145e-08,2.0628562e-08,-0.6799894,-3.6827508e-08,7.613748e-08,-1.4398661e-07,1.7248645e-07,-2.4411289e-08,8.287195e-09,-6.787055e-08,-1.8806917e-08,-3.8396514e-08,-4.1164903e-09,-8.927027e-08,2.0150068e-08,8.5269406e-08,1.9851498e-09,5.6842577e-08,-9.2616105e-08,8.432162e-08,-9.241224e-09,3.5263255e-08,8.5018286e-08,-2.0766143e-08,5.5740543e-08,-2.3175833e-08,1.7692408e-08,-1.4048506e-08,4.5875428e-08,3.6093127e-08,5.2381676e-08,2.5575545e-08,-0.8925061,0.6549686,-1.5202733e-07,9.723147e-10,-4.8176002e-08,-7.648805e-08,1.7904489e-08,-0.27302065,-0.8612463,-1.0428085e-09,-3.9037594e-08,1.6276916e-08,2.4618108e-08,-3.382234e-09,7.585719e-08,5.9942124e-08,6.9646537e-09,7.38779e-08,1.727236e-08,1.8488496e-08,0.7214854,2.28008e-08,1.1667281e-07,-2.0174467e-07,5.4140635e-08,7.497868e-08,-3.8568352e-08,-1.17036585e-08,-7.166534e-08,-9.404664e-08,7.207373e-08,-1.3158303e-08,-1.3300185e-08,3.595467e-09,1.5944065e-07,4.7792728e-08,5.2184298e-08,-2.1506885e-10,-1.6413658e-07
1.8971741e-07,-6.958672e-08,-3.7621824e-08,-1.3227491e-08,-4.153148e-08,1.754298e-08,1.6136072e-08,2.870046e-08,1.15580285e-07,3.0014249e-09,3.1762273e-08,-0.47853476,-1.5450963,-1.0480497e-07,-3.302766e-09,5.2815803e-08,-9.05958e-09,7.401182e-09,-1.4158438,0.5242439,1.208694e-07,-7.980604e-08,2.7150715e-08,-2.9813076e-09,3.5596756e-08,7.441182e-08,1.4465087e-07,8.882937e-10,2.1621858e-08,-5.3816443e-08,2.186782e-08,-1.2166501,1.0726147e-07,1.5213216e-07,-2.555705e-08,-5.9459097e-08,-3.542965e-08,-8.992836e-08,-2.2664345e-08,1.7494624e-08,8.9716565e-08,1.3730697e-07,6.693276e-08,1.0642496e-07,1.2098871e-08,-4.7897174e-08,1.6397934e-08,-5.2121244e-08,2.4352625e-08,1.6766423e-07,-2.3783677e-09,-1.309521e-07,1.0656194e-07,4.746223e-09,1.2193459e-07,-1.118987e-08,-2.6811273e-08,-3.6957637e-10,3.165576e-08,-1.122789e-09,-2.0147502e-07,-1.2677234,0.14666946,1.2989956e-07,-1.4503188e-07,-6.474875e-08,5.036425e-08,1.1367144e-08,-0.90471214,-1.237515,5.5752597e-08,1.5050013e-08,2.142821e-09,1.4646027e-09,-2.6590882e-08,1.2120042e-07,1.9379007e-08,-3.766287e-08,4.7817473e-08,3.4820262e-09,4.8621274e-08,0.81772393,-6.1656955e-08,1.139711e-07,-2.2594625e-08,-5.385629e-08,1.4192603e-08,-4.7915524e-08,1.7252868e-08,-6.4506853e-09,-1.8026501e-08,-6.038558e-09,-4.0272592e-08,1.8529448e-08,1.9939922e-08,-5.2283607e-08,2.0437564e-07,-1.266206e-08,-5.4196914e-09,1.0995127e-08
-6.901987e-08,1.5496943e-07,5.8463044e-08,8.1002646e-08,1.7940778e-08,4.19299e-08,-7.481637e-08,-6.114598e-08,2.8762429e-08,3.817785e-09,7.4588044e-08,-0.42008114,-1.7005985,-7.381777e-08,6.073988e-08,-7.178497e-08,-6.749633e-08,-1.151369e-08,-1.5483927,0.49064225,-7.255458e-08,-8.483806e-09,-2.6196403e-08,2.1460925e-08,-2.9580334e-09,-5.708267e-08,-7.618158e-08,1.0393607e-07,9.821352e-08,-4.3598192e-10,-8.964642e-08,-1.2888018,-2.6091982e-09,-1.1267003e-07,-3.7366178e-08,-1.03885135e-07,-7.308202e-08,-3.761248e-08,-1.5542754e-07,9.2911705e-08,-6.1573573e-09,-1.2663373e-08,-2.8451066e-08,-1.0464115e-07,-2.4031358e-08,5.7253995e-08,-8.422869e-08,6.6988726e-09,4.1198906e-08,-1.5708386e-07,-1.46981805e-08,7.184013e-08,-1.03042375e-08,-5.433947e-08,-6.166657e-08,-1.3617033e-08,5.824564e-08,-1.291537e-07,-6.8949035e-08,3.6387252e-08,5.883978e-08,-1.4117409,0.17926714,9.366652e-08,1.0670027e-08,6.678735e-08,-6.846621e-09,5.136689e-08,-0.9168092,-1.3786685,2.055315e-07,-2.0947626e-08,-6.232171e-08,2.3835813e-08,-4.4160213e-09,-2.9197988e-08,5.1028152e-08,-1.0347907e-07,1.5209031e-07,-2.070153e-08,-4.3386997e-08,0.8362271,1.818932e-07,1.090034e-07,-2.5641704e-08,-7.266962e-08,1.016931e-07,2.2251879e-08,-2.7049687e-09,5.3098773e-08,8.0238706e-08,-5.2578404e-08,-3.839105e-09,-6.119987e-08,1.0204004e-07,1.2454429e-07,-1.5369575e-07,-4.4360462e-08,1.9825217e-09,4.108834e-08
1.3475686e-07,-6.710436e-08,1.0587992e-07,-3.9670986e-08,1.0974262e-07,-1.500388e-07,-4.9050755e-09,3.7916564e-08,3.5688092e-08,-3.314002e-08,-1.230603e-07,-0.10031002,-1.3896284,9.353562e-08,4.6661636e-08,4.270344e-08,1.2304719e-07,-9.461236e-08,-1.3595167,0.1294126,8.700422e-08,-5.4678615e-08,-4.4031903e-08,1.3715535e-07,1.3045928e-07,1.3283655e-07,1.9967345e-08,-1.9982242e-08,1.942328e-08,-4.0170878e-08,9.1616855e-08,-1.0435086,-7.6721534e-08,-2.2586747e-08,-6.879647e-08,-1.920926e-08,-3.5113313e-08,3.7618786e-08,-5.081273e-09,9.710089e-08,3.013087e-08,1.8381346e-08,-2.672298e-08,2.852972e-09,1.7169969e-08,-6.535352e-08,2.7885427e-08,6.9790076e-09,-6.758989e-08,-6.769545e-09,2.668412e-08,9.619421e-08,1.8485794e-07,-6.542405e-08,-1.8447106e-07,-4.3535177e-08,-3.666264e-08,1.408996e-07,-1.6843464e-08,-5.1442324e-08,6.3084954e-08,-1.156049,0.29862005,5.6763845e-08,6.124109e-08,-2.4812163e-08,-1.0561552e-08,6.940456e-09,-0.39495343,-1.1052508,1.09217204e-07,6.843683e-09,2.9634627e-08,-3.1435434e-08,-2.1923483e-08,-8.812886e-09,4.248314e-08,5.1745097e-08,8.596193e-08,1.8385098e-08,5.6150483e-08,0.6040532,2.1564498e-08,-1.0151535e-08,-6.984376e-08,3.9964775e-08,4.633324e-08,3.7107252e-08,-6.076537e-08,-2.6348875e-08,-2.316024e-08,8.50618e-08,1.2562518e-07,7.688392e-10,-4.9181516e-08,2.9060901e-08,-5.1322733e-08,-4.477881e-08,5.0204278e-08,-1.6863057e-08
-3.5725147e-08,-8.529533e-08,-4.4145672e-08,-1.3265598e-08,-3.112836e-08,-2.5749952e-08,1.9574469e-07,-9.729922e-08,2.1783002e-08,-9.050301e-08,4.619867e-08,-0.047158666,-1.7996175,1.07564645e-07,1.9279359e-08,-1.5688446e-09,-4.1440127e-09,-3.7934022e-08,-1.7366993,0.22380808,-1.5252729e-07,-3.4836624e-08,4.4414e-08,7.2190147e-09,-5.4905925e-08,9.897598e-08,-6.518396e-08,6.514212e-08,-4.2507153e-10,1.8631441e-08,-2.1841021e-08,-1.4512151,2.0358758e-08,5.6112203e-08,-1.8278733e-08,3.6311647e-08,5.5064863e-08,-2.2898497e-08,-2.47672e-08,-4.301674e-08,5.6660234e-08,8.4967425e-08,-1.419394e-07,-7.860812e-09,-6.46426e-08,5.1344166e-08,-6.842871e-09,-9.232719e-09,3.6936566e-08,-4.283398e-08,7.3174064e-08,3.6890562e-09,-4.730307e-09,-3.7887695e-08,-3.1754105e-08,-4.309522e-08,-6.806527e-08,6.637268e-08,4.474149e-09,-3.4093556e-08,-2.0528653e-08,-1.5937797,0.025512364,3.8162188e-08,-9.659909e-09,5.3107996e-08,6.5077714e-08,6.879298e-08,-0.7789994,-1.5539705,7.616845e-08,-4.133217e-08,4.5122924e-08,-1.514378e-07,-6.8904065e-08,4.6523112e-08,-1.278501e-08,4.01099e-09,-1.7862877e-07,1.2625019e-08,-4.8070117e-08,0.7396704,4.471861e-08,-8.7106706e-08,1.847551e-08,1.3885283e-07,1.5539149e-07,1.5356065e-08,3.8953957e-08,1.1598917e-09,3.9030816e-08,-8.021978e-09,-3.297562e-08,5.152902e-08,-1.4346433e-07,-1.06192125e-07,-7.737976e-09,1.3470147e-07,3.328653e-09,-1.2228206e-08
7.9310844e-08,3.1666612e-09,1.0272822e-07,3.655504e-08,6.080958e-08,1.2819783e-07,1.9487558e-08,-7.423186e-08,-2.434373e-08,3.4976747e-08,1.8751507e-09,0.20643598,-1.2805448,-2.6670948e-08,-1.58672e-08,-6.539634e-08,3.5339625e-09,-5.0229335e-08,-1.3640836,-0.1441107,2.4959402e-08,-1.587101e-08,-1.5027825e-07,-1.8476648e-08,-6.833054e-08,6.754851e-08,6.8125175e-08,-4.1837463e-08,-3.1326984e-08,-1.4259865e-07,-1.1803573e-07,-0.93985564,-2.3306882e-08,6.879722e-08,9.692596e-08,-6.501605e-08,-6.468353e-08,7.605541e-08,8.6905935e-08,-1.4652714e-07,-4.7006665e-10,1.6826057e-08,6.547326e-08,-6.045209e-10,5.6986515e-08,-6.063634e-08,1.8440134e-07,1.0605325e-07,2.022972e-09,9.2707566e-08,-1.7224309e-08,-9.844587e-09,4.5509484e-08,-1.08984665e-07,-4.834628e-08,-9.1577306e-08,1.028162e-09,-1.9539875e-08,-3.5387266e-09,6.2449175e-09,1.8278001e-10,-1.1044184,0.5144076,4.9755284e-09,-3.5183767e-08,-1.2169812e-07,-1.0245939e-07,-3.2830833e-08,-0.14572418,-1.0742415,-9.082825e-08,3.0054927e-08,-4.5747246e-08,9.884677e-08,-1.193046e-08,-3.132565e-08,8.456012e-09,-4.066004e-08,1.44036925e-08,1.3958605e-07,3.1717e-08,0.5609137,1.8236818e-07,-5.2406374e-08,-1.496539e-08,1.3080442e-08,-4.2605537e-09,-3.0147763e-08,4.6174883e-08,2.159396e-08,-1.5364128e-08,3.076579e-08,-1.1936567e-07,6.6089534e-10,-4.7078338e-08,1.8781651e-07,-1.8869612e-07,3.1151057e-08,-2.2949086e-08,-2.1353722e-08
5.793752e-08,-3.4554137e-08,-5.9206815e-08,1.4839512e-07,-6.647569e-08,-1.14884315e-07,9.095105e-08,8.6534044e-08,7.053572e-08,-6.1791894e-08,-6.060131e-08,0.62123996,-1.3506947,-2.9073213e-08,-5.5014002e-08,-1.1672902e-07,1.0519173e-08,-2.9193535e-08,-1.3724265,-0.48350224,-5.597229e-08,4.004976e-09,-3.194127e-08,1.04624235e-07,-1.1680308e-07,-7.867126e-08,5.4961315e-08,1.7659883e-07,-1.05532045e-08,2.250784e-08,5.2286076e-08,-0.9718048,-1.6354613e-07,5.0042118e-08,-9.045603e-09,-1.3285864e-07,6.4706764e-09,-1.6981536e-08,-8.528971e-09,4.251101e-08,1.2853736e-08,1.1150287e-07,-4.454464e-08,-3.3312613e-08,-1.9236065e-08,3.837665e-08,9.952007e-09,-3.909069e-08,-1.5441907e-08,-1.89964e-08,-2.7551215e-08,-4.67588e-08,-8.980809e-09,-3.2155185e-09,1.4016453e-07,-3.5070283e-08,1.334508e-07,1.7283682e-08,7.4844895e-09,4.4629537e-08,1.9469422e-08,-1.1189021,0.73911864,-3.6319708e-08,-2.6627493e-08,8.1453045e-08,-1.0049567e-07,1.1310215e-07,-0.27853495,-1.0586699,1.4914293e-07,-1.3294519e-07,1.7353547e-07,5.004943e-08,-8.547364e-09,1.0362254e-07,-2.4926985e-08,2.0389411e-08,-3.4607112e-08,-4.6096787e-08,2.150719e-08,0.59698546,-6.502853e-08,-1.1092411e-07,-1.8664323e-09,2.9856032e-08,-4.9711367e-08,-2.1928132e-08,1.9368315e-08,8.809124e-08,1.0802984e-07,1.00147005e-07,5.2875784e-09,8.654773e-08,-5.322145e-08,-9.735267e-09,3.1344833e-08,-6.6795884e-08,-6.395849e-09,-2.9539969e-08
9.9156665e-09,3.3755065e-08,-3.444356e-12,3.623285e-08,9.5479564e-08,8.3429384e-08,5.971399e-08,3.7737017e-08,8.6114795e-08,5.7732702e-08,-7.372682e-08,0.74722505,-1.5636263,-1.08034506e-07,-7.3545685e-08,-4.806641e-08,2.6246315e-08,8.874184e-08,-1.4955952,-0.49416164,-1.10904335e-08,-1.7270516e-07,-1.2833459e-07,1.530584e-08,-2.8448213e-09,-9.628218e-08,-1.28396875e-08,6.0228686e-08,8.002912e-09,-1.7354385e-08,2.1803348e-08,-1.2371664,-9.3777274e-08,6.511675e-08,-3.1299766e-08,-3.414979e-08,-2.3576876e-08,-4.142922e-08,3.1693197e-08,1.6148014e-08,-2.2368479e-08,4.2164864e-08,-1.1626982e-07,4.545896e-09,1.1289015e-07,5.8893335e-10,5.462402e-08,-1.2374868e-07,-2.0417094e-08,-1.3197618e-07,-6.257444e-08,4.4801485e-08,1.8046524e-09,4.729916e-08,1.3808342e-07,1.1257259e-07,4.859185e-08,-1.047892e-07,-1.1875682e-07,7.685082e-08,-3.4012157e-08,-1.3667089,0.6623369,4.382822e-08,1.766136e-08,-9.444547e-08,-1.7076712e-08,6.76523e-09,-0.23836234,-1.3204288,1.0673296e-07,-9.0121404e-08,4.8485738e-08,1.9940444e-08,-9.734981e-08,1.3057777e-07,9.370984e-08,-1.3474438e-07,-6.851247e-08,-9.492305e-09,7.985295e-08,0.61369777,1.2507132e-07,5.408652e-08,-6.104608e-08,4.5266585e-08,-4.8864404e-08,9.4628994e-08,-1.2245359e-07,-2.5167504e-09,8.710401e-09,-7.678796e-08,4.0595598e-08,3.9772594e-08,1.0351655e-07,-4.3458062e-08,2.0461059e-07,-1.03887615e-07,6.106459e-08,-8.642083e-08
1.3702171e-07,5.825243e-08,7.355055e-08,-9.045715e-09,-8.801858e-08,-1.7113618e-07,-3.363018e-08,2.0628445e-08,1.010761e-07,-6.3312186e-08,1.14783745e-07,0.93969846,-1.6480812,9.854983e-08,-9.4795894e-08,-2.8045228e-09,-1.6570343e-07,4.0275957e-08,-1.6468365,-0.6700169,3.204658e-08,-8.591385e-09,6.40785e-08,-6.553406e-08,-1.096643e-07,1.2223566e-08,-7.255096e-09,-6.93623e-08,9.9884616e-08,-5.8119895e-08,3.393986e-08,-1.3387811,4.8458375e-08,-4.616052e-10,6.288336e-08,5.958007e-08,1.181481e-08,-8.4519996e-08,3.3457482e-08,9.9266755e-09,7.412353e-08,-3.7904712e-08,1.1773969e-08,8.335802e-08,2.857352e-08,3.305243e-08,-4.0793374e-08,1.825966e-07,-3.1344047e-08,-2.111205e-07,6.7893984e-09,-1.5448359e-07,1.8009095e-07,-2.1826345e-08,2.767187e-08,3.8365265e-08,6.563191e-08,5.557793e-08,6.9181695e-08,8.247859e-08,-4.8817608e-08,-1.5058583,0.9546396,-9.611779e-08,1.11641576e-07,2.9891467e-09,-8.313782e-09,-4.889156e-08,-0.22775558,-1.4614319,3.619599e-08,-8.9743715e-09,1.3013954e-08,-6.483124e-08,2.8915288e-08,-4.284686e-08,-5.0784315e-08,1.3004576e-07,-9.6247476e-08,-1.076794e-07,4.508482e-08,0.8834979,4.876782e-08,1.490699e-08,-2.669075e-08,3.9586798e-08,1.2367764e-08,-8.720896e-08,6.394199e-09,4.7667053e-09,-5.0159944e-08,2.9012334e-08,1.0341188e-08,3.0212348e-08,-4.072387e-08,7.60825e-08,2.1844413e-08,6.6025514e-08,6.57432e-08,3.5513878e-08
1.0214987e-07,4.8103914e-08,6.381567e-08,-1.463555e-07,-4.403716e-08,3.1546556e-08,2.8619644e-08,1.3829687e-07,8.6544105e-11,-1.0745818e-07,-1.2410491e-07,0.52844614,-1.491597,2.2657138e-09,4.30561e-08,-6.1510995e-08,8.715066e-09,-4.806368e-08,-1.5078236,-0.34654614,3.8100612e-08,1.8445238e-08,2.7008632e-08,-4.0876408e-08,-1.1214984e-07,-3.132405e-08,1.7613077e-07,3.852675e-08,-1.0814306e-08,8.5952756e-08,1.0495875e-07,-1.2121786,-4.949782e-08,-4.0876078e-08,-1.0105875e-08,1.2887314e-07,4.287317e-09,9.766839e-08,-1.6706071e-08,3.017662e-08,1.3063261e-08,-1.9441593e-08,2.3894348e-08,-2.805076e-08,1.5438264e-08,-6.27417e-08,7.57712e-08,5.5926655e-08,-6.747545e-08,-2.8334426e-08,4.404183e-08,-3.2808742e-08,1.5986359e-09,-1.7633438e-08,1.3376791e-08,2.3226875e-08,1.6064163e-08,-6.002683e-09,-7.641647e-08,7.0425674e-09,-4.701157e-08,-1.3151126,0.48285514,2.3470097e-08,1.692861e-07,-6.37799e-08,6.009661e-08,-4.930604e-08,-0.16725725,-1.2715921,-1.0311918e-08,-8.7161524e-08,1.92735e-08,1.6082033e-09,-6.483264e-08,5.1833286e-08,6.1672566e-08,-3.2883086e-08,-9.282958e-08,4.760471e-08,2.029515e-07,0.42435008,-4.078556e-09,-8.450106e-09,-4.366092e-08,-3.7292537e-08,3.1445477e-08,-1.5520888e-07,3.6473477e-08,9.182472e-08,-6.314507e-08,1.2428634e-07,-8.417997e-08,-4.5357034e-09,-3.120111e-08,-3.514425e-08,-5.395455e-08,1.1684801e-07,-1.1434933e-09,-7.994263e-10
5.3489526e-08,-1.889309e-08,-1.8113077e-08,-1.2063741e-07,-2.2776575e-08,-1.12730945e-07,3.1939987e-08,-1.4664128e-07,-3.622154e-08,-2.8204695e-08,-9.7689394e-08,0.67788637,-1.6060779,-2.4942324e-08,-1.4825376e-07,-1.11740164e-07,1.2577685e-07,-8.857519e-10,-1.6057082,-0.44039965,1.7212463e-07,1.18430684e-07,1.0803423e-07,-3.601324e-08,2.3627504e-08,1.7885877e-07,1.39069805e-08,-3.265754e-08,-5.471417e-09,-7.0575105e-08,6.178034e-09,-1.2850403,1.2268319e-07,4.4820382e-08,1.0028454e-07,-7.79724e-09,-9.6450115e-08,-5.990714e-08,4.8536982e-08,2.3549371e-09,1.9141165e-08,3.4138747e-08,8.343893e-09,2.769865e-08,-1.8502625e-08,-4.8910714e-08,9.388245e-09,8.469475e-08,-1.0441152e-08,1.9565473e-08,-9.757668e-09,2.1578739e-08,3.2794915e-08,-1.4754548e-07,-8.100597e-08,-4.6992206e-08,-9.794855e-09,-5.9714487e-09,6.557127e-08,-1.0826993e-07,-6.60122e-08,-1.4317449,0.46141458,3.7271136e-08,3.0433164e-08,-1.6045199e-08,-3.0814302e-08,1.4156198e-08,-0.25754517,-1.3226448,1.05531015e-07,-1.2864169e-07,-5.582141e-08,-5.121958e-08,-1.0378383e-07,-1.8470249e-07,8.782566e-08,1.9874298e-07,6.907399e-08,-4.801702e-08,1.03269e-07,0.5138627,6.766564e-08,4.8336272e-08,2.0523919e-07,-4.7086825e-08,-1.8204761e-07,-2.7528728e-08,2.3861837e-08,-2.0066473e-08,1.5083641e-08,6.863596e-08,3.6271818e-08,-4.3973635e-08,1.10519025e-08,2.4321377e-08,7.025462e-08,-1.0624741e-07,1.8182009e-08,-6.166175e-08
-6.498599e-09,-7.04004e-08,-1.3089839e-07,6.127215e-08,-4.2101586e-08,6.3629614e-08,1.7923078e-08,7.709527e-08,-2.6336e-09,5.4100838e-08,-1.363715e-08,0.89395255,-1.7550542,-4.6303647e-08,-1.5585877e-07,7.5348076e-08,3.8274823e-08,-1.3071048e-08,-1.75136,-0.6556783,-2.3542263e-08,1.3900404e-08,-4.613449e-08,-1.40690375e-08,-7.3007733e-09,-1.7068062e-07,-1.8935444e-07,-3.696006e-08,3.749946e-09,-6.613687e-08,1.0064266e-07,-1.4410707,4.8755204e-08,2.9396556e-08,-4.7044885e-08,3.9350667e-08,-4.6225882e-08,5.011691e-08,-5.2126836e-08,4.4109527e-08,2.3382624e-08,1.5217058e-08,1.0320313e-07,1.1679131e-08,-2.6845301e-08,6.539426e-08,-1.015856e-08,2.23787e-08,7.947827e-10,-2.6162581e-08,-2.3492968e-08,2.018791e-08,8.616702e-09,3.6586364e-08,8.806901e-09,-9.148818e-08,4.3150468e-08,-3.1743607e-08,9.18965e-09,-1.6464135e-07,2.7082658e-08,-1.5801779,0.8948405,-4.026996e-08,-6.1835337e-09,6.2086474e-09,-7.255808e-08,3.7100897e-08,-0.040990435,-1.5465863,-5.6609114e-08,3.298343e-08,-1.2183747e-09,-2.946269e-08,6.6850756e-09,9.834714e-09,-1.3524422e-07,-3.744566e-08,2.059231e-09,-4.4720672e-10,1.5012187e-08,0.72348565,-2.4029019e-08,1.8890972e-07,-1.3850395e-08,-8.558578e-09,-1.1654037e-08,-7.5573126e-08,-3.8251777e-08,-1.0415668e-07,3.1450693e-08,2.7533781e-08,6.795412e-08,-2.5810897e-08,6.9603246e-08,5.300992e-08,3.9517154e-09,-1.3207666e-09,-1.497584e-08,7.5214245e-08
7.2142186e-08,5.2507474e-08,2.257248e-08,-8.633179e-08,4.955055e-08,-4.5845876e-08,-5.987929e-08,5.893501e-09,-7.942589e-10,-8.5948415e-08,9.841479e-08,0.58216053,-1.3796458,-5.9211477e-08,-2.2668814e-08,8.464433e-09,-1.47371395e-08,2.1282677e-08,-1.3761929,-0.45761412,-6.819647e-08,7.575801e-08,9.849526e-09,-1.2228156e-07,2.4207376e-08,4.309362e-09,6.618234e-08,7.2036826e-08,1.3790585e-08,1.4069106e-07,3.8989853e-08,-1.0191933,1.0131934e-07,6.612504e-08,7.051945e-08,-1.12961885e-07,3.3005e-08,2.4069521e-08,-9.6700674e-08,7.5976324e-08,-6.608876e-08,1.216886e-07,1.1941319e-08,-3.0725023e-08,-4.61692e-08,-2.010497e-08,1.6095569e-09,1.3409988e-07,3.104097e-08,5.960044e-08,-1.9309937e-07,3.273284e-08,-3.010492e-08,8.8281666e-08,-6.921863e-08,5.0290883e-08,2.0577278e-07,8.480184e-08,8.701194e-08,4.2279538e-08,-7.01797e-09,-1.1684818,0.8300997,-6.710762e-08,1.0631485e-08,-4.926449e-08,1.2331365e-07,-2.0736444e-09,-0.17848574,-1.1381416,-8.8018055e-08,2.0912113e-08,3.3054175e-08,-2.0027159e-07,1.1964002e-07,-6.2226206e-08,-7.938191e-08,-6.4980824e-08,-2.431817e-08,2.6613879e-08,1.565656e-08,0.685863,7.2480564e-09,2.6874654e-08,-1.12196815e-07,6.293358e-08,-1.3934334e-07,-1.02281895e-07,-4.3876195e-08,3.9617845e-08,1.3424575e-08,-4.241404e-08,-8.3913704e-08,2.7012579e-09,8.109534e-09,-4.6020666e-08,5.2654334e-09,-2.6568019e-08,-1.1091761e-07,-5.719666e-08
