-5.90351e-08,-1.4515416e-08,1.8052934e-07,6.116656e-08,-1.2223815e-07,-1.9341007e-08,-6.623857e-09,-4.7401196e-07,-2.0697745e-07,-3.4446188e-07,-5.4674797e-07,-2.4535627,-2.4427185,-7.246505e-08,-1.542343e-07,-2.41407e-07,1.8390995e-08,-2.3584825e-07,-2.4672523,-2.356454,9.604696e-08,1.2598802e-07,-2.7019292e-08,-4.7831897e-08,-5.581098e-08,-9.762717e-08,1.351516e-08,-2.4481865e-08,9.7961276e-08,1.2841144e-07,-4.4818722e-07,-2.201269,6.5823684e-08,-1.2971299e-08,-9.002681e-08,-3.0156275e-07,-3.864782e-07,9.360086e-08,1.1458645e-07,2.1007668e-07,5.5789517e-08,3.6124717e-08,4.2958337e-07,-1.4697507e-07,-3.0122587e-07,3.8392005e-07,-3.748762e-07,1.2218985e-07,1.0897167e-07,2.6433899e-08,4.3898396e-08,-1.08312506e-07,1.2512204e-07,1.3806665e-07,1.2129713e-07,-2.3233741e-07,1.650431e-07,3.7581607e-08,1.2568482e-08,2.4853989e-08,-1.097946e-07,-2.3142695,2.4570649,-5.9062632e-08,2.1568414e-07,-2.6019293e-07,8.5886974e-08,-9.901861e-09,2.3567753,2.4279327,1.2940666e-07,-1.4493585e-07,2.0832944e-07,7.588928e-08,4.7168687e-09,-3.6228007e-09,-1.5916612e-08,3.8018165e-08,-2.2650852e-08,7.6503035e-08,-5.1366285e-08,2.60532,1.7397811e-07,4.5495602e-07,1.3016783e-07,8.93418e-09,-1.9994502e-08,-2.3336497e-09,6.045003e-08,5.837695e-08,-8.2386066e-08,-1.2043674e-07,-2.0897836e-07,-4.01781e-07,-8.649157e-08,3.51159e-07,8.0385874e-08,2.3969324e-09,-8.3177504e-08,-1.20546e-07
2.1534987e-07,1.347843e-07,2.6034044e-08,1.0561187e-08,1.8252955e-07,-4.76047e-08,-4.6954817e-08,-1.2490702e-08,-1.0183294e-07,-6.050319e-08,8.485079e-07,-1.6827558,-1.4902339,-1.6039874e-07,-1.3725398e-08,-1.6482008e-07,6.7387607e-10,6.3520254e-08,-2.0146308,-1.7035105,-5.3577014e-07,-1.4028072e-07,1.7632763e-07,1.2724199e-07,-1.7851417e-07,-2.8614046e-08,-1.2544271e-07,-3.1943426e-07,9.188654e-08,7.099779e-08,-6.598956e-08,-0.7591693,1.09765104e-07,9.8560164e-08,-6.910648e-07,2.2899982e-08,9.909442e-10,-1.2502268e-07,-1.2983402e-07,7.692042e-08,-5.9335242e-08,-5.002274e-09,1.9388519e-07,-9.5333505e-08,-1.9645643e-07,-1.03663766e-07,2.4429758e-07,3.5027867e-08,-7.7356766e-08,6.4506594e-08,2.4453956e-07,-2.3704905e-07,2.8685358e-07,-4.151333e-08,2.5084694e-07,2.6780046e-07,5.5373243e-07,5.670553e-08,7.764891e-08,-5.6785563e-08,1.5119895e-07,2.0620623,-2.2693765,5.1926882e-08,3.6044412e-07,-3.048205e-08,4.065911e-07,-4.2525315e-07,-2.471072,-2.2029533,4.871693e-08,-3.6385882e-07,-3.141545e-08,-1.0514824e-07,-6.821386e-07,-7.2919484e-09,8.6393e-08,-6.212566e-08,-1.16551405e-07,-2.8700964e-07,-1.7575316e-07,-2.09998,-1.1939359e-07,-2.7061435e-07,-1.6129856e-07,-3.2835908e-07,-4.0206726e-07,1.914854e-08,9.234748e-08,7.961266e-08,-1.3107541e-07,-2.584656e-07,-1.814964e-07,-1.5950327e-08,1.3648844e-08,-6.25297e-08,1.4099985e-08,5.661508e-07,1.0144749e-07,-2.1049743e-08
-4.2095145e-08,4.0261742e-08,1.5799051e-07,5.7874825e-08,1.3067599e-07,-1.4038567e-07,4.4256998e-07,-1.537739e-07,1.7739332e-07,-2.3741396e-07,-7.7595544e-08,-1.5090979,-1.5295126,-1.2597646e-07,4.1455504e-08,-1.4224613e-08,-1.8601662e-07,-7.347937e-08,2.3524756,-1.5099443,1.5117821e-07,-8.8263725e-08,-5.4291297e-07,5.07379e-07,-6.0174806e-08,6.1472036e-09,-4.688733e-09,1.8764904e-08,-4.9734936e-08,5.9352356e-08,-1.8892074e-08,-1.1564809,9.034497e-08,-8.097136e-08,-1.0322681e-07,1.2322732e-07,-5.643036e-07,4.0348317e-07,-1.3209714e-07,-1.6900857e-07,-1.11225916e-07,4.433618e-08,-2.7079913e-08,1.6893961e-07,5.186025e-07,1.1277265e-07,5.282645e-07,1.5211059e-07,1.6400274e-07,2.6904266e-07,2.4419965e-08,-1.8795273e-08,6.8611094e-08,-1.051351e-07,-3.8818513e-08,-1.2266244e-07,-8.24493e-07,2.4037941e-08,-6.0609793e-09,-3.737739e-07,-8.5618794e-08,1.7571012,-1.849511,-5.1176343e-09,-1.2748903e-07,4.869055e-08,4.844566e-08,-2.4878955e-07,-2.0296366,-1.723913,-2.2727393e-09,4.993307e-09,7.060534e-08,-3.358086e-08,-7.595358e-08,-3.6098168e-08,1.785903e-08,-3.0309187e-07,-3.9602412e-07,4.1604704e-08,-6.748697e-08,-1.6180382,-2.319183e-08,2.0067498e-07,-1.4115065e-07,-1.6055131e-07,-1.5737584e-08,7.71931e-08,2.1104528e-07,3.9651158e-07,-4.4116888e-08,-1.2923837e-07,7.658592e-08,3.7817637e-07,2.9932573e-07,6.103948e-08,4.974319e-09,3.5605993e-07,-1.14401125e-07,9.847343e-08
1.2846456e-07,-2.13313e-07,3.4773186e-07,1.0916366e-07,-1.4857659e-07,-4.143962e-08,-2.1487331e-07,-1.2322356e-07,-5.475566e-07,5.0866573e-09,-2.4799596e-07,2.1764219,2.5660172,1.11672136e-07,-2.9436524e-07,-7.239713e-08,-2.9170948e-07,-1.636021e-07,2.3374627,2.2359457,9.149709e-08,4.793787e-08,-5.8004957e-08,-4.33586e-08,-3.822869e-07,-2.6145705e-07,-3.125973e-08,1.9168668e-07,-6.7990986e-09,1.1963238e-07,-4.2007528e-07,2.0886273,6.101008e-08,1.2583693e-07,5.220956e-08,1.4378682e-07,2.2878908e-09,-1.2372041e-07,2.1310635e-07,-1.0357533e-07,4.1087162e-08,-7.0693005e-08,-4.4831523e-08,-9.376375e-09,1.3456378e-07,5.5710714e-08,-1.266832e-07,4.5875984e-07,1.5758546e-07,2.6247262e-08,5.2669407e-07,2.5680837e-08,1.3737987e-07,2.195776e-09,4.825619e-09,-5.011098e-08,5.4079145e-08,7.5726734e-07,8.0255035e-08,-1.5839731e-08,2.0251412e-07,0.24638063,-0.33869806,9.9113805e-08,-4.636057e-08,-2.1390893e-08,-1.3091356e-07,2.2494467e-07,-0.14009005,-0.16494988,8.0932594e-10,-2.9019322e-08,-5.4474192e-08,2.8060526e-07,-1.3615592e-07,-3.8281087e-07,2.6899167e-07,1.0787003e-07,-6.781212e-07,-4.1443042e-07,-1.8487654e-08,-0.12220355,5.6341975e-08,1.36049145e-08,-1.9667617e-08,-2.207446e-08,1.0224007e-07,-7.922634e-08,-1.6225071e-07,1.6314941e-07,1.8413934e-07,2.0883217e-08,1.6559524e-07,-1.9840157e-07,-1.8972422e-08,2.1761899e-08,-8.86289e-08,4.3353077e-07,1.3978824e-08,2.6586195e-08
