-1.5688568e-14,1.7161463e-07,-0.0403795,-1.1159655e-09,3.5293792e-13,5.929232e-11,1.0680556e-11,0.52299553,-5.8596747e-13,-3.1604e-13,-0.053619646,1.1142333,1.1267292,1.6228318,-5.719309e-13,-0.09853329,5.477647e-14,0.06240962,-0.9475164,0.29035744,-0.6697502,-1.562957e-11,-1.804319e-13,0.23058347,-0.23874825,0.00013639402,2.1437534e-13,-0.5645575,-4.033722e-12,-2.5723154e-12,-8.8145924e-08,-0.99408627,-0.69175017,6.1980684e-11,0.06667288,-7.426696e-10,-1.1798811,-7.840957e-11,-4.2787258e-13,-1.49682e-13,-4.5917924e-13,1.98734e-09,4.2286487e-13,-6.107343e-12,1.06250566e-13,1.0854981e-10,-2.6796387e-09,-7.6856414e-13,1.5045669e-07,-3.8506213e-13,1.8222086e-13,-3.301968e-08,0.21819264,5.7908495e-10,5.6977497e-13,1.1397602e-11,6.603288e-13,0.23683941,-2.7282273e-13,2.2245416e-13,-0.048123546,0.20499109,0.82611215,0.5314865,1.8232063e-13,0.09675902,-7.122365e-13,-0.09874372,-0.5395141,-1.3389536,-0.9931911,-4.6232597e-12,-2.498051e-13,-0.5898429,0.355128,-6.6706493e-06,-7.06086e-14,0.5555743,-2.9814562e-12,-1.9264646e-12,4.198867e-07,0.078851566,-0.103072196,-1.3011528e-10,-0.8418909,3.6370432e-10,-0.5228958,1.3368357e-11,-2.1310014e-13,5.6093086e-13,-4.667444e-13,-3.9761905e-10,-6.2133126e-14,-8.692734e-13,8.3927873e-13,-6.912716e-10,-1.1868739e-09,-2.0102035e-13,-1.7100331e-06,-1.4596736e-13
3.9142642e-13,-3.2445067e-07,0.3086843,4.387513e-10,1.6581002e-13,1.785782e-11,-2.3285954e-12,0.7760029,6.724365e-13,1.1413017e-14,-0.17428005,-0.64217746,0.31166777,-0.07438068,1.8148502e-13,-0.704317,2.6918376e-13,0.36770135,-1.2812552,0.43920052,0.8577905,-1.951095e-12,6.2609884e-14,-0.16093723,-0.2905133,1.51366585e-05,3.4740765e-13,-0.26243165,-4.1713026e-12,-2.2329276e-12,-1.5775215e-07,-1.4772433,0.10343158,-5.028191e-11,-0.39821398,-3.6950176e-10,-0.3518722,-4.1591744e-11,-8.149161e-13,5.824824e-13,5.164931e-13,-1.07011e-09,1.1650305e-13,-1.999474e-12,2.3807199e-13,1.0331067e-10,-3.1140568e-09,1.3335727e-13,-8.1052735e-07,2.2530589e-13,1.614001e-13,5.7175217e-08,-0.28805593,-1.8391032e-09,-3.334564e-13,-1.392831e-11,9.707235e-13,-0.45799184,-8.0526406e-14,-5.822415e-14,0.35524845,-0.6480839,0.9465715,-0.093344405,-3.0725715e-13,0.08634551,2.3584005e-13,0.66943276,-0.17233835,-0.6523428,0.37606946,2.1830421e-11,-2.1980406e-13,-0.4964694,0.29911393,0.00026719648,-5.000806e-13,1.1702659,5.2445353e-13,-6.077014e-13,-2.4344388e-07,0.38752243,-0.40263554,8.374704e-11,0.48291874,-4.2352055e-10,-0.96082467,7.866916e-11,-4.0442552e-13,7.8673743e-13,-2.9508915e-13,-3.9958947e-10,-3.1651643e-13,3.0292062e-12,-5.4921746e-13,3.5397574e-11,2.588529e-10,-2.7924126e-13,-8.046874e-07,-1.8735745e-14
-8.488211e-13,-5.5055853e-08,-0.54637116,-3.8258355e-10,-9.0509463e-13,-6.064971e-11,5.0355883e-12,0.31165427,-6.710128e-13,1.0008812e-14,-0.23626418,0.733155,0.12411844,0.34208253,1.599944e-13,-0.070017606,2.6455587e-13,0.08850201,-1.3180217,1.173619,-0.7332486,-2.2977184e-12,2.2979058e-13,-0.01847797,0.19744468,-9.979887e-05,-4.3325573e-13,0.9904621,1.1421395e-11,6.512924e-13,-1.5829023e-08,-0.48075628,-0.23118643,-2.2100112e-10,0.05358295,2.474819e-12,0.0007934035,1.664521e-10,1.2690906e-13,9.205345e-13,-4.6433137e-13,1.6506616e-09,6.7560324e-13,-3.8157927e-12,6.2763596e-13,-2.0269464e-10,-2.8342995e-10,-1.5375033e-13,-6.120348e-07,-8.919959e-14,2.4335534e-14,1.0477603e-07,0.37851834,-4.5634332e-10,1.2539479e-12,1.2403047e-11,2.880341e-12,0.06236178,-6.9883444e-14,3.2463913e-13,0.31079277,-1.2302815,0.60208505,0.062591046,-4.374947e-13,-0.031785287,2.117774e-13,-0.3121078,-0.3530617,-0.77487683,-0.27970892,1.822373e-11,6.53183e-14,-0.47830832,0.31793535,1.3568953e-05,-1.5643014e-13,0.7763014,5.0104226e-12,6.153952e-13,-4.9977615e-07,0.16078658,1.0884238,-7.2128345e-12,0.0659155,5.756881e-10,-0.36687616,-7.1197576e-11,-5.8568894e-13,6.194951e-13,1.3605612e-13,1.2418824e-10,-3.7647207e-13,1.3699298e-12,-5.777873e-13,1.858088e-10,3.3768618e-10,1.0798175e-13,-1.3351114e-06,3.7635707e-13
-2.7129433e-13,1.08360105e-07,0.40192595,1.4936871e-12,-1.2310999e-12,-1.9501735e-10,3.2667495e-12,0.21491541,5.162908e-13,2.0279785e-14,-0.28505662,0.3699974,-0.4987974,0.495769,2.2610169e-14,-0.5863877,-2.0665864e-13,0.81551147,-1.1641152,1.3304597,0.44997546,1.1863425e-11,-5.8041495e-13,0.3000321,-0.52702874,8.4159314e-05,1.2326654e-13,0.616082,-2.7483267e-12,-1.8680999e-13,3.089843e-08,-0.74467534,-0.30371165,2.879564e-10,1.1853372,1.8382004e-10,0.17740758,3.019259e-10,5.339287e-13,2.428576e-13,-6.052152e-13,-3.4587642e-09,-4.7216625e-13,-4.2867385e-12,2.5839218e-13,1.6542613e-10,2.8680909e-09,-8.8768836e-14,-2.4444955e-08,4.7906156e-13,6.0958183e-15,1.1233017e-07,0.46508443,-4.575875e-10,-9.523402e-13,-2.2825804e-10,-9.855786e-13,-0.9319886,6.5712507e-13,2.3169915e-14,0.49068686,-1.5728087,0.6176928,-0.25548312,-1.8634241e-13,0.16920471,5.7315356e-13,0.039031368,-0.12890486,0.5668848,-0.06920799,-7.393131e-13,-1.7721851e-13,-0.35514653,-0.16868082,-0.00014405463,5.510971e-13,0.7562187,-3.419519e-12,6.694569e-13,2.2318616e-07,0.85965604,-0.20332636,4.4176076e-11,-0.84650284,-5.7389044e-10,-0.3874031,-1.1836628e-10,1.9673884e-13,3.4382713e-13,-4.569697e-13,-6.1659455e-10,1.042484e-13,-2.3992336e-12,8.463705e-14,-4.4647334e-11,2.265635e-09,-2.295321e-13,1.773351e-06,-1.2536628e-13
-4.2118392e-13,-2.1835916e-07,0.7086213,6.772941e-10,6.576022e-14,1.8032603e-10,5.1219775e-12,0.51270914,2.6746183e-14,-3.1056781e-13,-0.11307144,-0.491478,-0.41810322,0.07168938,5.4854363e-13,-0.46924618,2.7862857e-13,0.3960631,-1.4240742,0.7362661,-1.3954358,4.1174453e-11,-2.7075428e-13,-0.542544,-0.2421639,2.559643e-05,-2.3797595e-13,-0.013317479,1.3611603e-12,2.0743166e-12,4.4387062e-07,-0.8721247,0.659887,-2.0302192e-11,-0.1486282,-8.1942325e-10,0.21771197,7.503463e-11,-5.0140437e-13,-2.6628472e-13,7.8086314e-14,4.873491e-10,-6.8636123e-13,-1.1795684e-12,5.8377606e-14,4.9736347e-11,-1.0661729e-09,5.222985e-13,-2.1492566e-07,3.9540972e-13,5.640957e-13,-1.5962318e-08,-0.26411438,-1.8634047e-10,4.3843607e-13,5.824524e-11,-8.456354e-13,-0.0049450174,6.036469e-14,4.9273086e-10,0.12114047,0.28731233,0.4877751,-0.34040123,2.982335e-13,0.3440642,-4.4701534e-14,0.6793316,-0.2659926,0.68623614,0.3322791,4.3355315e-12,4.0052342e-13,0.07051557,-0.12266362,-0.00025840546,4.407922e-13,-0.8138625,5.616082e-12,-1.6328028e-12,-1.1653433e-07,-1.0562129,0.9036599,-2.25619e-10,-0.16488624,1.0713497e-10,-0.6478997,8.4377685e-11,-1.3455884e-13,3.7283853e-13,-4.613908e-13,-2.3756663e-09,4.8163204e-13,1.2794236e-13,-3.3747067e-13,2.2755059e-10,1.4431709e-09,9.318249e-14,-1.9309923e-09,-1.8637744e-13
-6.7542516e-13,2.7171886e-08,0.15292162,-1.0803798e-09,5.5154427e-13,-1.7056552e-10,3.13525e-12,-0.47434354,4.2468196e-13,7.682272e-13,-0.14301315,-0.86503667,-1.2591097,-0.17188239,-5.3619815e-14,-0.5298734,3.2029647e-13,-0.059764296,-1.2670573,0.9984451,-0.9588721,2.2195933e-11,-6.1009303e-13,-0.51917946,0.14561683,-7.32991e-05,-1.7687457e-14,0.38595855,2.044366e-12,-2.2358656e-13,-5.3274175e-07,-0.56764966,0.29508418,-9.227999e-11,-1.1451769,1.9065503e-11,0.027789852,-1.9480476e-10,6.9505025e-13,2.7841444e-14,2.1906791e-13,-1.1678871e-09,-5.088697e-13,4.0173216e-12,-3.1542022e-13,1.2193302e-12,-3.5455838e-09,-1.3310083e-13,-1.563837e-06,3.6220725e-13,1.0937516e-12,-2.1794108e-08,0.5315398,3.7673709e-10,3.9496664e-13,1.5940654e-10,4.848638e-12,-0.5435184,-3.851976e-13,-2.4577535e-13,0.041530207,-0.036422327,-0.039697558,-0.34802243,2.3942838e-13,-0.249241,2.7505426e-13,0.6056092,-0.09069559,-0.11036024,0.43506944,2.188887e-11,2.597774e-13,-1.0634083,0.10226104,-0.00011859727,2.4978419e-14,-0.76854473,-7.1764764e-12,-1.676119e-12,-7.940263e-07,-0.5903405,0.018398471,-2.4824748e-10,-0.4344005,-1.9310675e-10,-0.79036236,6.361619e-11,-7.576329e-14,-4.3040696e-13,-7.434358e-14,4.250903e-10,-3.81176e-13,2.9107105e-12,4.767238e-13,-2.6456926e-10,1.9541562e-09,2.6476868e-13,-2.1993738e-07,-3.4224546e-13
2.609443e-13,-6.8927065e-08,0.21419488,3.1487052e-10,3.2344076e-13,-2.3215059e-10,-1.6655861e-13,0.46174818,3.633257e-13,-7.4692986e-13,0.018153623,0.3643063,-0.34193122,-0.52794063,1.2911016e-13,0.27085608,4.7475365e-13,0.24793209,-1.7369269,0.7811322,-0.7202723,-1.5017014e-11,-9.882763e-14,-0.7131708,0.11930418,3.4651762e-06,9.925551e-14,0.69792634,4.345654e-12,-1.4209391e-12,-4.0529642e-08,-0.91050035,-0.14054109,-3.970156e-10,-1.2518548,-3.3317404e-11,0.43433595,-1.9104436e-10,-5.10635e-13,5.031198e-13,1.0152309e-13,-3.350552e-10,9.243784e-13,-2.9045852e-12,-3.544772e-14,-5.4834096e-11,-3.4214298e-13,8.1144e-13,-4.794475e-07,3.2852952e-15,7.367534e-13,-1.2525592e-07,-0.09029847,7.1062156e-10,-1.0595412e-12,-3.8266366e-11,8.9015004e-13,-0.5709685,-2.6346362e-13,-4.275792e-13,0.4142153,0.4193982,0.079080395,-0.5525233,3.0286724e-13,0.17548162,2.0714492e-13,-0.94315815,-0.26589787,0.36686635,-0.10369022,9.36866e-13,-2.1175856e-13,-0.3615068,-0.13949285,0.00013855293,2.4070448e-13,-1.6004102,-1.5788074e-12,7.896153e-13,-1.8107741e-07,-0.7166742,-0.22914982,1.6033742e-10,-0.12267615,-3.625918e-10,-0.72728103,-9.1887185e-11,-5.90527e-14,1.2833238e-13,3.333424e-13,-3.107958e-09,9.0436534e-13,9.973277e-13,-6.0923814e-13,-8.310215e-11,1.0518939e-09,-2.4515226e-13,-1.5646996e-06,4.4450684e-13
-1.06944076e-13,-2.1925073e-08,0.31007677,-8.28955e-12,7.7456874e-14,6.856877e-11,-2.7195227e-12,-0.68854153,-6.8425875e-13,1.3010353e-13,0.45400172,0.46624056,-0.040748782,0.19890645,1.135653e-14,-1.52691,2.4233816e-13,-0.32874873,-1.6598995,0.65343094,-0.22937258,1.21075545e-11,2.2933142e-13,0.09477955,-0.50027394,-9.708502e-05,-7.470711e-14,0.91854084,-2.7706375e-13,7.486724e-13,1.802397e-07,-0.9347398,-0.72354144,3.5503933e-11,-0.94747937,2.002028e-10,0.48928308,3.6106916e-11,4.0150787e-13,-3.6399494e-13,-3.2387206e-13,8.538772e-10,1.2043738e-13,-6.8131464e-12,9.995195e-14,2.3813088e-10,2.4155011e-09,-3.2796135e-13,-1.1108284e-07,-4.4732924e-13,5.3448294e-13,2.5699012e-07,-0.2040512,1.6438528e-10,2.6814634e-13,-3.907246e-11,5.7138834e-12,0.022859361,5.198456e-13,4.921081e-13,0.66607845,-0.35826802,0.3190963,0.25265333,-2.8864362e-14,0.11472218,-1.9499522e-13,-0.17555024,-0.62688833,0.38109073,-1.4147766,-2.0560725e-12,3.4372733e-13,-0.77150273,-0.88681364,-3.9574992e-05,-2.2928464e-14,-1.3248363,-1.2176846e-11,-3.5277743e-14,-3.4909814e-07,0.14403954,0.05893205,-6.302763e-11,-0.52432346,1.591203e-10,-0.6560596,4.5310547e-11,-2.1899675e-13,1.0697399e-13,-4.8782345e-14,1.9690738e-09,-1.6525537e-13,-2.7673567e-12,-2.3166205e-13,-3.8944425e-10,6.6928163e-10,3.4628062e-13,1.6414027e-06,-2.516885e-13
-6.6863084e-13,2.4025013e-07,0.50749296,-3.4195285e-11,-1.0869387e-12,-1.1213373e-10,2.3600826e-12,0.22302061,1.0832269e-14,-1.7531979e-13,0.090793066,0.30622208,-0.0699489,-0.08920588,-4.2829065e-13,0.09740341,5.9508887e-13,0.16618545,-1.1490552,0.90310043,0.032629255,4.3864946e-12,-2.570497e-14,0.6453063,0.13967668,-1.723855e-05,3.5540491e-13,1.2765579,5.4423627e-12,2.623838e-12,-1.282482e-08,-0.81929195,-0.5962291,1.745087e-11,0.46392602,5.525671e-11,0.20512377,-1.5842713e-10,-6.7821085e-13,-3.478891e-13,5.1188676e-13,1.1437848e-09,-7.988774e-13,-1.4664053e-12,6.3794684e-13,-1.7629968e-10,-1.7515466e-09,2.0068043e-13,8.608922e-07,3.6097785e-13,2.702815e-13,-8.625638e-08,0.12342771,-1.3329056e-10,4.665548e-13,4.0021285e-12,3.790668e-12,-0.19435166,2.5234507e-13,-2.2737164e-13,-0.20210356,0.45949855,0.100826144,0.7729077,2.4094697e-13,0.06333764,1.906541e-13,-0.6451785,-0.043875046,0.31358093,0.1228735,7.671333e-13,-2.8675364e-13,-0.54737633,0.95989037,5.583911e-05,6.112125e-14,-1.2640178,3.774596e-12,5.57595e-13,-6.654089e-07,0.18777572,-0.51079667,7.882186e-11,-0.06856653,8.868926e-12,-0.5360822,4.113348e-11,1.448022e-13,6.441478e-14,-2.987536e-13,-5.5612337e-10,-6.8895063e-13,-9.046882e-13,-6.23799e-14,5.4614008e-11,3.041234e-11,-2.51515e-13,1.6712129e-08,-3.5005736e-13
-4.3107553e-14,-1.5403292e-07,0.57041895,-3.7010212e-10,2.5321905e-13,7.8815066e-11,-2.2026252e-12,0.57897466,-3.1402482e-13,3.4920789e-13,0.20270225,-0.24291918,-1.0431273,-0.6499597,-4.2381203e-13,0.2568304,3.816801e-13,-0.37422565,-1.1118506,1.2905911,0.4016186,1.7705081e-12,-3.406171e-13,-0.6504658,0.19276987,0.00013822617,5.841951e-13,1.0471818,-6.199275e-13,2.7284195e-12,-7.6057853e-07,-0.63878036,-0.077421755,9.346867e-12,7.521734e-05,-3.0984823e-10,0.7982427,-3.3363295e-11,-4.5466102e-13,-3.554088e-13,1.263485e-13,-1.8382393e-09,-2.1271158e-13,-3.0454955e-12,-5.295244e-13,2.8849917e-10,2.609984e-09,-6.0077507e-13,1.5907676e-07,-4.5364694e-13,4.246777e-13,1.8190683e-08,-0.75263274,2.838924e-10,-5.617672e-13,-5.9833236e-11,1.2047147e-12,0.40143424,1.16859105e-14,-4.5580765e-13,0.047910184,-0.38300195,0.7125981,0.34830165,1.0192354e-13,0.6190968,-1.9388858e-13,-0.4724692,-0.3245955,0.235679,-0.7495472,9.717291e-12,-4.1427997e-13,-0.87721664,-0.49268404,7.324732e-05,-1.2638919e-13,-0.8127995,-5.7116447e-12,-1.7904381e-12,-5.635094e-07,0.1744986,0.35593817,-8.252144e-11,0.49138823,-6.408657e-10,0.01805038,-1.9506434e-10,-1.784803e-13,6.144342e-13,1.1869233e-13,7.421967e-10,-6.413694e-13,1.0587254e-12,-5.0009205e-13,-3.0133027e-10,-4.374435e-10,7.341653e-14,-8.4364365e-07,1.1144194e-13
-1.4380665e-13,-1.3953955e-07,0.17730586,9.387016e-11,1.8322529e-13,9.370121e-11,2.4752802e-12,-0.013489464,4.656323e-13,4.8820307e-13,0.04313378,-0.15608022,-0.56384575,0.34147704,-5.2683693e-13,0.31777477,-4.886589e-13,-0.45494995,-1.5846268,0.61268735,0.82166123,1.8573885e-11,1.7687888e-13,-0.28793523,0.16722669,1.6690523e-05,-6.8893963e-13,0.94285387,-4.068826e-12,-2.5220765e-13,2.1719765e-07,-0.027890008,0.4221772,4.33149e-12,0.19644177,-6.65551e-10,0.67464024,6.3862995e-12,4.0955227e-13,-3.4500088e-13,-1.4047615e-13,1.4100308e-09,-1.1407143e-13,5.7394354e-12,9.975343e-14,4.5135662e-10,2.2670248e-09,-4.0248013e-13,1.4541993e-06,3.3719932e-13,5.33515e-13,-1.4957143e-07,0.011470865,-1.1295939e-09,-9.863553e-13,-4.830107e-11,3.6474832e-13,-0.17314477,-7.0721814e-13,-1.6299077e-13,-0.36312354,-0.24380852,0.042878166,0.9624607,2.669537e-13,-0.6338053,2.1824182e-13,-0.6733701,0.080155164,0.8021321,0.15340693,5.904881e-12,-2.0460243e-13,-0.26861838,-0.35516626,-0.00012916651,3.0195827e-13,-0.6854622,-4.5703207e-12,2.749515e-13,1.6398097e-07,-0.17821321,-0.64352393,8.663997e-11,0.94922364,-4.5206439e-10,-0.4039037,-1.45096435e-11,-1.337863e-13,-6.495148e-13,2.5306458e-13,-1.4707258e-10,-2.2650816e-13,4.9826864e-13,-5.556862e-13,2.8601566e-10,9.0865043e-10,7.885275e-14,5.2894967e-07,2.3210435e-13
-2.2292094e-13,1.5016825e-07,-0.022425994,-1.0095114e-10,-1.3165554e-13,1.2907035e-10,-4.2914288e-12,0.43844154,2.56676e-13,3.2317503e-13,-0.013644159,-0.41465452,-0.33938575,-0.26117253,5.765394e-14,-0.12941569,4.1613745e-13,-0.069718316,-1.2319194,1.0414262,0.7515642,-6.040725e-12,5.58828e-13,-0.04352538,-0.87367535,9.686056e-06,-2.9784416e-13,0.2465764,7.987498e-12,2.0964346e-12,1.2530589e-07,0.20482358,0.19829877,-3.8666948e-11,0.54460543,5.70195e-10,0.1798448,1.4009754e-10,-5.6339303e-13,3.6601188e-13,-4.624034e-13,1.1946798e-09,8.970713e-13,2.6222134e-12,1.1001649e-13,1.5239789e-10,-1.3594996e-09,-6.933601e-13,-1.5513012e-06,3.6875532e-13,-7.9971544e-13,-1.7351546e-07,0.67649364,-4.853027e-10,2.4164665e-13,-1.0318621e-10,-4.5806544e-13,0.07264032,-1.901486e-13,6.3851675e-13,-0.07620461,0.105495885,0.17546278,0.28019637,-3.9435867e-13,-0.31252617,-8.705249e-15,-0.41589576,0.03836313,0.53619665,0.22468613,1.8284737e-11,4.216698e-13,-0.6543073,-0.13724059,0.00012733601,-2.1581386e-13,-0.430852,-7.248228e-12,6.3106475e-13,8.46863e-08,-0.43230125,-0.41605955,9.175523e-11,0.014357701,-2.8009337e-10,-0.70403516,6.127303e-11,-2.2775401e-13,-1.9400551e-14,-2.8581307e-13,-1.0025694e-09,5.915444e-13,1.2309641e-13,-4.4446418e-13,-6.855359e-11,-5.5969573e-10,-8.8092245e-13,-3.0304744e-07,-1.5058182e-13
3.0697333e-13,-1.0640675e-07,-0.46466607,-4.2296228e-10,3.1633574e-13,-8.315759e-11,3.178742e-12,-0.2215477,8.4747435e-14,6.4716727e-13,-0.4610569,-0.496378,-0.3104156,0.2550949,3.7799462e-14,1.1011802,4.8057576e-13,-0.069335684,-1.3155578,1.0495476,0.52331245,1.5001582e-11,-4.5399264e-13,0.097829424,-0.06652834,-2.9711517e-05,3.7306182e-13,-0.19723439,3.68243e-12,-5.591042e-13,4.045856e-08,0.37562847,-0.1382728,3.8581034e-11,-0.15377355,2.5235372e-10,-0.27144006,1.4560832e-10,2.9522153e-13,-6.9773424e-13,-1.6215761e-13,1.2693397e-09,-6.7759817e-13,-2.4601115e-12,-7.735162e-14,-8.101381e-12,3.1095557e-09,-2.2230373e-13,1.0878283e-06,-2.353887e-14,-5.1532335e-13,1.0606564e-07,-1.0141206,1.0414423e-09,-3.124155e-13,-2.7661994e-11,-1.4357678e-12,-0.6529667,2.413281e-13,-5.106726e-13,-0.06505197,-0.31393105,0.3131095,0.087745845,-8.3787415e-14,-0.31220093,-3.9617967e-13,0.6146185,-0.49424008,0.11336666,-0.7184867,-4.5745265e-12,1.8482617e-13,-0.40144563,-0.24933991,-0.00026668515,5.108912e-13,-0.306182,1.3352619e-12,-3.7165692e-13,7.591941e-07,-0.388639,0.18270631,-7.082279e-11,-0.8243679,-2.0207509e-10,-1.2142485,-9.190666e-12,-4.6174897e-14,-1.2008236e-13,-2.32521e-13,-3.456029e-10,5.172547e-14,6.361049e-13,-2.334709e-13,2.4015338e-11,-4.808037e-10,-1.02809254e-13,-1.2420851e-06,3.4271132e-13
1.8933322e-13,2.1389852e-08,-0.24233161,-2.1211757e-10,2.6393395e-13,5.788172e-11,-7.671135e-13,0.044141117,-2.5715156e-13,6.817542e-14,-0.045121368,-0.37556684,-0.2850853,0.083986476,3.99416e-14,0.311884,3.3179332e-13,0.058950007,-1.0577294,0.83279395,-0.04825522,4.7913375e-12,4.4561604e-13,-0.44609815,-0.41017756,-1.6004653e-05,-2.597489e-13,-0.059697088,1.1644353e-12,-2.250112e-13,4.578191e-07,0.4454526,0.257241,5.6643558e-11,-0.5750724,2.3390073e-10,-0.3772174,-6.965674e-11,-3.026167e-13,-4.1813723e-13,1.2121567e-13,-1.2682557e-09,2.4509843e-13,4.546874e-13,4.891183e-13,2.5821462e-10,-2.8393394e-09,4.785209e-13,-5.668645e-07,-2.2557231e-13,3.2025524e-13,-5.6949588e-08,0.5803486,1.0440605e-09,-3.3526215e-13,1.2628213e-11,1.0139922e-12,-0.21661822,-3.662353e-13,-2.8714205e-13,0.06364943,0.20566376,-0.14946152,0.35924304,-5.634999e-13,0.046871323,3.3505121e-13,-0.11278688,-0.029107818,0.0134030925,0.02826142,-1.8835025e-12,3.0813888e-13,0.0079773385,-0.14935334,3.7098693e-05,5.9416914e-13,0.045170132,-5.807221e-13,-1.1586663e-13,-4.884458e-08,-0.5366955,0.17026377,-3.2278603e-11,-0.085651115,-3.474366e-10,-1.0673462,1.8085127e-11,-4.8592684e-13,-4.2250163e-13,3.9371165e-13,-7.566425e-10,4.157485e-13,6.2282015e-13,7.164863e-14,4.6527317e-11,7.5516354e-10,-1.8486738e-13,2.879121e-07,-3.2617442e-13
-5.9646385e-13,1.317619e-07,0.15065295,-8.6676993e-10,3.1258e-13,-7.555928e-11,-1.4659956e-12,-0.49232385,5.4203603e-13,2.7613065e-13,0.4380322,0.38022396,-0.17639938,-0.5213168,-6.291625e-13,-0.55650955,3.5516785e-13,-0.38137087,-1.1262317,0.69607025,0.5380087,-1.1059817e-11,3.784738e-13,-0.12226664,0.4784326,-2.8323406e-05,6.743538e-13,-0.5203649,-1.9961908e-13,-4.892806e-13,5.611641e-07,-0.4457692,0.41518128,4.069337e-10,-0.90579075,-1.6037653e-10,-0.49319968,3.648673e-11,1.3159878e-13,-3.0208247e-13,1.8149688e-13,-4.2765946e-10,4.269032e-13,3.5345517e-13,7.550075e-14,-5.810766e-11,4.2711865e-09,1.5686844e-13,-5.445006e-07,-1.3351324e-13,2.6846404e-13,-3.3352435e-08,-0.47590008,2.8004193e-10,4.0301684e-13,-4.176714e-11,3.2736175e-12,0.09735904,2.6669097e-13,-1.5580473e-13,0.24271491,-1.0162168,-0.37186593,-0.45338285,-3.0294896e-13,0.12571585,1.0347403e-13,0.3335292,0.49631822,-0.4537896,0.011097398,5.2403394e-13,-3.4983003e-14,0.39848697,0.45787257,-0.00017238007,-4.9930925e-13,-0.6339885,2.1087372e-12,1.4078554e-12,-3.047789e-07,-0.34731334,0.002489984,1.513498e-10,-0.29816827,-1.6124374e-10,-0.92127943,-1.3932877e-10,2.3193172e-13,-5.153603e-13,-1.03568656e-13,5.821479e-10,-5.9506686e-13,-1.7674045e-12,-1.1099146e-13,-3.4906317e-11,-1.8740995e-09,-1.1337155e-12,2.6859777e-07,3.0700467e-13
4.11948e-13,-2.3443165e-07,-0.44798526,-2.311811e-10,-4.8829425e-13,-1.1926492e-10,-1.3082927e-12,-0.20911667,9.3062954e-14,-7.7086433e-13,0.15689069,0.3345276,-0.19827472,0.86528414,1.4248084e-13,0.20858087,5.818129e-13,0.52549773,-1.5565387,0.6972124,0.127644,-1.5148389e-12,-1.09394834e-13,-0.1546454,-0.30751246,-2.7657881e-05,-7.7049586e-14,-0.73884654,7.2541734e-13,1.5743908e-12,3.2068023e-08,-0.10329656,0.6138192,-7.199487e-11,0.43056914,9.123917e-11,-0.7276085,1.12491745e-10,-5.1870617e-13,5.068271e-13,-3.107613e-13,-6.429711e-10,-3.0596104e-13,-8.022297e-13,-4.1178974e-13,-5.720939e-11,7.649949e-10,-2.8061e-13,-1.2636607e-06,-2.8661112e-13,5.038125e-15,1.0908856e-07,-0.2869454,-1.1743145e-09,4.7410963e-13,2.6799327e-10,2.1816121e-13,0.59340525,1.5577651e-13,3.491632e-13,-0.5670822,-0.43267354,-0.10917187,0.16168706,1.7582425e-14,-0.20378907,-4.779623e-13,-0.28348985,-0.42185056,-0.68912554,-0.22887105,2.0326045e-11,1.6670411e-13,0.14179745,0.6922767,-6.654331e-05,2.1207534e-13,0.019553378,3.5995447e-13,-4.0416477e-13,-2.5450012e-07,0.4038254,-0.053637497,4.2645554e-10,0.09848334,-3.3061343e-10,-0.18285136,-7.121099e-11,-1.9378298e-14,4.3120412e-13,5.172767e-13,4.909401e-10,-4.2690943e-13,2.2671385e-12,3.7477129e-13,6.330874e-10,-5.2076954e-10,1.6133546e-13,-1.2793355e-07,-1.1928257e-14
-3.8232828e-13,-1.3073219e-07,0.09015408,1.2917926e-10,1.4709223e-13,-2.6759352e-11,-3.0107774e-13,0.70940495,6.627495e-14,-3.1724203e-14,0.13490376,0.6876747,-0.10806318,-0.859117,-8.1781305e-13,0.7670193,-2.405098e-13,0.4470065,-1.5079488,1.0238975,-0.9687904,-4.2947087e-12,2.7287656e-13,0.84510654,0.2412991,9.344614e-06,-3.6503016e-13,0.08653171,9.976438e-14,-1.9137949e-12,-2.8323828e-07,-0.33626518,0.46226734,-1.2324837e-10,-0.41282862,-1.6939386e-10,-0.99074566,-3.6855154e-11,6.542305e-14,4.1519934e-13,-3.857327e-13,6.2410566e-09,7.181559e-13,9.483586e-13,-4.196372e-14,3.2758835e-10,3.5588588e-09,6.782233e-13,-1.7037452e-06,1.3168991e-14,-7.7803947e-13,1.0404197e-07,0.34043336,-4.331676e-10,2.56267e-13,-2.2118456e-10,1.2707645e-12,-0.12246333,7.279989e-13,-8.342394e-15,-0.80388165,-0.7718357,-1.1083654,-0.037132084,-4.7474936e-14,0.49387223,-6.14648e-13,-0.1781963,-0.12760387,-0.7458813,-0.86645055,2.7083056e-11,1.8172521e-13,0.46906602,0.31017107,4.752078e-05,8.244292e-14,-0.15039699,-2.2527152e-12,-1.075755e-12,3.118437e-07,-0.008888371,-0.18035913,8.559048e-11,0.26789036,1.5429635e-10,-1.3956976,1.7839034e-10,-4.53423e-13,1.1609084e-13,-2.2047818e-13,1.0183169e-09,4.2753758e-14,-1.3372009e-12,4.3644661e-13,1.2630951e-11,-1.9919535e-09,3.1811107e-13,8.405382e-07,-1.3473611e-13
7.3850106e-14,-5.6575598e-08,-1.3822066,4.2014763e-11,8.525633e-13,-4.1013113e-11,4.5311845e-13,-0.038945854,-4.2375798e-13,1.6421413e-13,0.005005366,0.39729244,-0.05119755,0.30107707,-3.605809e-13,0.25985909,1.1986565e-13,0.14326249,-0.8023368,0.9379464,-0.5359879,1.0706463e-11,-1.2873131e-13,0.22531413,0.16564962,6.8577945e-05,1.319106e-13,-0.7985482,-3.4063561e-12,-1.2431887e-12,-2.4992778e-07,-0.34394372,0.16264127,-5.973107e-11,0.33103043,4.2842993e-10,-1.0205864,6.0906266e-11,-2.763387e-13,-2.2274381e-13,-2.2745968e-13,1.7836749e-09,4.0929678e-13,6.717629e-13,1.7602117e-14,-6.1023675e-10,1.4784739e-09,-2.2641077e-13,-3.8305603e-07,3.968259e-13,-3.8384614e-13,-1.128119e-07,0.60306126,5.809439e-10,7.410522e-16,-2.855039e-10,5.4761018e-12,-0.8736876,4.801521e-13,-3.137585e-13,-0.21550816,-1.3820045,0.2922292,0.5482768,-5.6549947e-13,-0.79185075,-2.0922175e-14,0.43775767,-0.5553844,-0.42221525,0.15046556,1.747922e-11,-6.9381716e-14,0.52760965,0.22260182,-0.000171477,3.4999136e-13,-0.03302824,3.6318903e-13,3.5922708e-14,2.9211435e-07,-0.25381678,-0.11154633,5.620085e-11,0.54751325,-7.0963435e-10,-1.2668786,1.4674956e-10,4.467726e-15,-1.599707e-13,2.6750845e-13,7.256471e-10,3.711171e-13,2.0764683e-13,1.01335607e-13,-1.8234278e-10,-1.1582579e-09,-8.4982715e-13,-3.7973413e-07,-5.504001e-14
-7.1104754e-13,1.8625394e-07,0.8621338,2.0102235e-10,9.100029e-13,-1.5977855e-10,7.559493e-12,0.45006666,9.076968e-14,2.0026559e-13,0.09739983,1.2083751,0.17789218,-0.08722759,-2.2736828e-13,0.92667997,-4.1119666e-13,-0.106220216,-1.0255343,0.91603905,-0.3272192,1.7429065e-11,4.39478e-13,-0.519995,-0.24319646,2.3150145e-05,2.2010227e-13,-0.84207654,-3.6853303e-12,2.0090327e-12,2.0083098e-07,-0.24909768,0.64425695,8.360142e-11,0.35810322,5.6079093e-11,0.1823158,1.1513569e-11,-3.3427877e-13,-4.1154236e-13,5.2233196e-13,1.3053653e-09,-4.078444e-13,2.4160298e-12,-3.33581e-13,-2.402875e-10,-2.5083695e-09,-2.7127172e-14,-1.1637212e-06,1.1081885e-13,1.2612223e-13,-1.5236377e-07,-0.83286756,1.0724335e-09,-4.2032865e-14,-1.3126522e-10,3.834993e-12,0.21681416,7.10636e-13,2.396395e-13,-0.4379142,-1.1313647,0.011865117,0.27074453,-3.68419e-13,-0.16589466,-1.188913e-13,-0.076006606,0.2326137,-0.5358493,-0.10364887,4.361812e-12,-3.5472048e-13,0.17943338,-1.0020568,8.5023756e-05,-6.5353083e-13,-0.74562985,-2.116808e-12,-1.038139e-12,-3.0294186e-07,0.50722563,0.1640584,-4.1236556e-11,-0.9440436,3.5683297e-11,-0.9003759,-1.7359783e-10,6.6350126e-13,-3.1621984e-13,2.2550558e-13,-1.3019174e-09,-1.7977002e-13,2.6666774e-12,-5.661397e-13,-2.3359267e-10,1.6264561e-09,3.7447554e-13,-2.3238379e-06,4.549934e-13
-1.2466032e-13,3.151463e-09,-0.77384174,1.09975265e-10,-5.287172e-13,3.4220453e-11,3.1974796e-12,0.56388056,1.4779097e-13,-4.590805e-13,0.14701253,0.48301843,0.86661875,-0.12324196,-1.3899846e-13,0.22323883,2.5938474e-13,-0.39767867,-0.80363834,1.044182,0.018653642,-8.864562e-12,2.8326026e-13,0.14506203,-0.35732085,-6.224257e-05,3.8024775e-13,-0.6057023,5.513413e-12,2.4922447e-12,8.1218666e-08,0.045864344,0.2649168,1.61135e-10,-0.5133318,9.336888e-11,-0.37115613,-4.7982306e-11,-1.793126e-13,5.286685e-13,3.8779667e-13,-8.880266e-10,-1.5991871e-13,-3.052465e-13,8.082085e-14,-1.0763915e-10,1.2863021e-09,-3.5410946e-13,-4.578963e-07,-4.6894693e-13,-7.562885e-13,1.4333632e-08,-0.4424572,1.1063765e-10,-2.143312e-13,1.2763211e-11,1.959478e-12,0.02648228,1.803911e-13,-5.7871774e-13,0.5840046,-0.2923241,-0.09692927,-0.42494953,-2.5464163e-13,0.045039702,-5.2827913e-14,0.12402944,-0.055016067,-0.6858743,-0.4148065,-5.66698e-12,-3.0179686e-13,-0.41747683,-0.19844976,1.095288e-05,-1.169144e-14,0.21187572,-4.001298e-13,-6.927608e-13,-2.3174869e-07,0.22979459,0.19731727,-7.6203925e-11,-0.36256295,-3.3408082e-10,-1.1553422,-3.5822584e-11,1.8558362e-13,2.0177038e-13,-2.4895851e-13,-2.8585104e-10,4.3137794e-13,1.9039484e-12,4.011269e-13,-8.945059e-11,-3.6915793e-10,-2.8445725e-13,5.772234e-08,-1.220507e-13
3.255344e-14,-1.7534964e-07,-0.034588948,7.583677e-11,5.2212412e-14,-1.1247919e-10,4.602842e-12,-0.45059362,-3.4151403e-13,-4.1629674e-13,-0.15755025,-0.20522664,0.8300006,-0.40398204,2.335967e-13,-0.22017871,-3.4071365e-13,0.30789918,-1.2332977,0.52390313,-0.20156698,4.186186e-12,-5.440339e-13,0.47987735,0.41941535,4.3423e-05,-5.2108898e-14,0.25318983,-3.9472622e-12,-1.5689945e-12,-6.8420924e-08,-0.028151667,0.20404679,-1.7329988e-11,-0.34425017,-1.3652168e-10,-0.8346331,-9.9547134e-11,4.9109024e-13,4.4270121e-13,4.64239e-13,1.228939e-09,3.2316036e-13,-1.4750636e-13,-1.8961921e-13,-4.6930293e-10,-1.4997129e-10,-8.108157e-14,-6.8660455e-07,2.8819284e-13,-3.4347308e-14,-1.9379012e-08,-0.05357865,5.252273e-10,7.9314246e-13,9.7140046e-11,-5.126136e-13,0.022396663,4.0582777e-13,-3.3906772e-13,-0.028866386,0.07145201,-0.010441267,-0.22865516,-3.5945227e-13,0.20875356,-2.2051133e-13,-0.44619736,0.24102132,-0.668354,-0.4280158,1.1979075e-11,1.2754836e-13,-0.08377689,0.6284388,-0.00011807963,1.1662715e-13,0.451896,5.14996e-12,5.768912e-13,-4.0090626e-07,0.0119251385,-0.46392995,1.2878178e-10,0.98082167,-1.2821016e-10,-0.59938914,-9.7390394e-12,1.3944707e-13,6.386548e-13,-3.5688165e-13,8.7057465e-11,4.557317e-13,-1.6488757e-12,-2.8254287e-13,-1.4026649e-10,1.2614212e-10,2.910628e-13,1.6234094e-06,1.866773e-13
3.065839e-14,3.818359e-08,-0.21190172,-1.4051543e-10,3.2950023e-13,8.727312e-11,-1.9509758e-12,0.16851413,-1.2637244e-14,-3.604963e-13,0.18420239,-0.69011647,0.030990329,0.28176197,-3.9614427e-13,-0.37469295,4.3789343e-13,0.32301795,-1.1933815,-0.019423965,-0.78605586,-1.2207419e-11,-3.1366882e-13,0.58707213,-0.15193494,7.987438e-05,-6.906646e-13,0.66567534,8.410501e-12,-2.3791964e-12,-3.4392576e-07,0.02095446,0.023040447,2.515913e-10,-0.9118091,4.202868e-10,-0.09466207,-1.023968e-10,-2.3613067e-13,-2.78288e-13,-7.214539e-15,-1.7861038e-10,-3.837859e-15,-1.545796e-12,-7.164453e-14,-1.2853826e-10,-3.086509e-09,3.3656533e-13,1.2195575e-07,-2.660586e-13,-1.009306e-13,-2.8615887e-07,-0.9538258,5.3622173e-10,7.682494e-13,8.8447194e-11,8.1420114e-14,-0.097202055,1.9498205e-13,1.2224266e-13,0.59922767,-1.5024474,-0.2809616,-0.8207178,-1.1422357e-13,0.5420502,-3.590957e-13,0.011473628,-0.36189738,-0.7047254,0.26647696,2.2362388e-11,-5.7844175e-13,0.20556004,-0.31049296,7.029554e-05,2.8622233e-14,0.9251131,3.325932e-12,-2.0643804e-12,-3.100718e-07,-0.18137893,-1.5889736,-3.8223216e-11,0.6800416,4.319168e-10,-1.4507419,1.5552341e-10,-4.279064e-14,-6.828804e-14,-2.4865177e-13,-1.6223874e-09,2.2532163e-13,-1.6388869e-12,-1.0475534e-13,-4.7400706e-10,-3.9511022e-10,-4.0843734e-13,-1.2961087e-06,-4.1932942e-13
-1.6433794e-14,-2.7165134e-07,0.040983595,-6.9526906e-10,-3.2835705e-13,-1.0160335e-10,1.9785328e-12,-0.5943775,1.8752979e-13,-1.7631984e-13,-0.62504643,0.8689085,-0.12896171,-0.8188276,-5.1798003e-14,-0.15970118,2.420129e-13,0.20221594,-1.5613338,0.19590513,-0.5590857,-1.1253002e-12,-7.7018876e-14,0.48338455,0.35139373,-0.00013080222,2.8069317e-13,-0.6458733,-8.212682e-13,8.708004e-13,-2.7453794e-07,-1.24996,0.123615935,-6.014444e-11,-0.4054157,-1.2711003e-10,-0.5880834,-1.6356937e-10,-1.9778152e-14,7.008337e-14,3.7485138e-13,-4.7709974e-09,-4.564374e-13,2.1023274e-12,5.5940175e-13,1.5668332e-10,1.3440582e-11,3.1605697e-13,-7.994876e-07,1.4994652e-14,-8.4508464e-14,2.3683089e-07,-1.5810374,9.479189e-10,3.9346697e-13,4.746535e-11,-2.2923462e-12,0.48064762,-3.2254855e-13,-3.80441e-14,-0.34693703,-1.5454032,-0.5799466,-0.11439936,1.3732358e-13,-0.5162967,3.6554562e-13,-0.44749066,-0.1637423,0.101901636,-0.051264513,1.5262003e-11,-3.065259e-13,-0.31007147,-0.22251041,0.00019967089,4.0713285e-13,0.5913312,3.3893181e-12,1.8189103e-12,-3.9864865e-08,0.10051275,-0.30911642,-1.2208536e-10,0.6628475,1.9055704e-10,-0.7962397,2.3415096e-11,-4.5663945e-13,1.7229206e-13,-2.728135e-13,1.8818391e-09,-4.7908384e-13,2.770405e-13,-4.0565267e-13,-1.1211812e-10,2.1736175e-09,-1.3097393e-13,-1.2131959e-06,-1.022132e-13
-4.2587082e-13,6.550714e-08,0.32643884,-7.423063e-10,-1.11176584e-13,9.372817e-11,6.03835e-12,-0.5952341,6.1327863e-13,1.3770698e-13,0.118655585,0.34202677,0.152516,-0.2346722,-2.4488116e-14,0.52317524,3.1311856e-13,-0.2245878,-1.3036584,-0.18255697,-0.6440047,-4.31577e-12,2.0777528e-13,0.12031564,-0.25895178,-1.0541535e-06,-4.5276914e-13,-1.3974271,-3.321927e-12,-1.6937406e-15,1.6268939e-07,0.007411517,0.21904314,2.6915642e-10,-0.1650982,-9.844056e-11,-0.8424881,-5.974582e-12,3.2079558e-13,6.0597165e-13,5.860926e-14,2.0399646e-10,-3.8292713e-14,-4.3766674e-12,-2.128419e-14,-1.3576466e-10,1.1954746e-09,4.508272e-13,-1.1713663e-06,-3.515977e-13,-5.902059e-13,1.2363779e-07,-0.8247821,8.4199087e-10,6.049554e-13,-1.8674351e-10,1.5228793e-12,0.6835768,4.2617673e-13,4.6680325e-15,-0.5893426,-0.7749798,-0.2288979,0.2613233,-3.578507e-14,0.049890198,-1.7294831e-13,0.07848514,-0.48395756,-0.6066491,-0.54292774,1.9908035e-11,-8.012403e-14,0.21893312,0.031865984,-0.00014818391,-6.084071e-14,-0.22106926,-3.7796047e-12,4.5658486e-13,-3.1218653e-07,0.09488293,0.16988263,1.451907e-10,-0.5417747,5.7192404e-11,-0.37995887,2.0473925e-10,7.7866695e-14,2.8218506e-13,4.566082e-13,-3.6269676e-10,4.7066203e-13,7.2532746e-13,-6.6369127e-13,2.8152308e-10,2.019605e-09,1.4498326e-13,-1.2264381e-06,-1.7284405e-14
-3.596843e-13,-8.502957e-08,0.31803253,-1.2842734e-11,2.255645e-13,-1.2801543e-10,8.90712e-13,-0.12070897,-3.556785e-14,-2.159741e-13,-0.01663864,0.6079034,0.26003262,-0.15727895,4.394749e-13,-0.43993837,1.5682407e-13,-0.33407116,-1.5000407,-0.21637191,-0.017192386,-1.5120115e-11,-3.167605e-13,1.0727609,0.17531723,1.1879551e-05,-2.287825e-13,-1.164861,3.3154091e-12,3.5131682e-13,-2.3949232e-07,0.4549617,-0.30073303,-1.5811344e-10,-0.042930417,-3.8506942e-10,-0.879535,-1.06065656e-10,2.2090874e-13,1.4396663e-13,-3.9753335e-13,3.8145505e-09,3.2185883e-13,-1.1536384e-12,-5.6596654e-14,2.6384533e-10,-3.2108627e-09,-5.551629e-13,6.892796e-07,-1.9800286e-13,-3.4646147e-13,-4.3626446e-08,0.14469625,8.0312046e-10,2.2390785e-13,3.217839e-11,-3.6802917e-14,0.46688855,5.3876294e-13,2.445922e-13,0.7481556,0.33218667,0.37053204,-1.0585575,-5.304684e-13,-0.23915175,5.4995407e-13,-0.03146737,0.6376749,-0.671638,-0.023447793,5.640716e-12,-4.450159e-13,-0.33224195,0.22077364,1.5745685e-05,2.9580816e-13,0.52446467,-4.7335577e-12,1.272951e-12,2.4388262e-07,-0.072294846,-0.071855485,-9.130557e-12,0.17400888,7.9390806e-11,-0.41166365,-3.0886363e-11,-6.3868843e-13,-2.6087598e-13,-3.8227022e-13,-1.9709574e-09,1.4825658e-13,2.1241957e-13,4.818625e-13,6.089246e-11,-5.8719213e-10,-3.547081e-13,-7.939864e-07,3.2889593e-13
-3.1775976e-13,5.7074946e-08,0.71160835,9.333828e-11,-7.431111e-14,-1.7301948e-11,-3.1976327e-12,-0.08740863,9.2544014e-14,-1.9932352e-14,0.48067945,0.5876747,0.04261061,-0.023772892,-4.172853e-14,0.68669415,-2.0790173e-13,-0.4229742,-0.78821135,0.55323184,-0.43277898,2.19957e-12,4.9283136e-13,0.35181215,0.04663804,3.6744284e-05,-4.3052018e-13,-1.2613938,-8.514318e-12,-1.6122674e-12,-2.9755373e-07,0.0036606668,0.280676,2.4865107e-10,-0.018142767,1.5056964e-10,0.045292594,-4.5431846e-11,4.0532703e-13,-1.0404259e-13,-2.9451615e-13,4.4250048e-10,-4.5092435e-13,-4.0723393e-12,2.0947937e-13,2.1870886e-10,2.7632956e-09,-1.1174345e-12,-7.489101e-07,2.5109892e-13,-1.5000918e-13,-9.894714e-08,0.2563034,-1.2254568e-09,4.0097892e-13,7.8825946e-11,1.6315581e-12,0.5511129,-4.074562e-13,6.6688734e-14,0.22235912,-0.30988488,0.5367769,-0.3307873,-1.9190251e-13,-0.3668515,-1.0188183e-13,-0.24882692,0.21089259,-0.5161721,-0.63363224,-1.0309172e-11,1.3876443e-13,-0.069704905,-0.09857704,3.5755773e-05,4.221182e-13,-0.4749904,-4.889732e-12,1.4011897e-12,9.964836e-08,0.26172727,-0.3062945,9.85942e-11,0.50715315,-3.188808e-10,-0.97916174,1.9487474e-11,-5.574123e-13,-7.743936e-13,3.3460943e-13,-1.708118e-10,3.2231596e-13,-7.8961295e-13,-5.6514754e-13,-1.6983469e-10,3.8112424e-10,3.2092466e-13,9.556643e-08,-5.4854857e-13
-1.2717301e-13,-1.4790567e-07,-0.94734097,-3.4406679e-12,-5.91689e-13,-4.8769766e-11,1.8735044e-12,-0.11881237,-4.8776413e-14,2.5962685e-13,0.010926474,0.9128166,-0.43504417,0.49473324,5.5354457e-13,0.33880427,-3.3518652e-13,0.66254,-1.3615428,1.0623223,-1.0882354,8.663312e-12,-2.8256027e-13,0.17975871,-0.49776626,0.00010359198,5.075527e-13,-0.7738041,6.04196e-12,3.0967032e-12,-7.302233e-08,-0.5970254,0.4913632,1.4187193e-10,0.3300367,1.239174e-10,0.31955275,-1.20502e-10,-4.4662874e-13,3.800374e-13,3.352492e-13,2.7264986e-09,5.5046327e-14,-9.012093e-13,-2.567541e-13,1.0034991e-10,1.663178e-09,1.646914e-13,9.833534e-07,4.5516905e-13,4.77647e-13,-2.1229714e-07,-0.939065,7.998058e-11,5.1407815e-13,-6.179995e-11,2.1075914e-12,0.14134724,-5.246019e-13,4.0365037e-13,-0.05751471,-0.5555702,0.9223067,-0.29101387,-3.2916237e-13,0.44338873,2.9655602e-13,0.68115383,0.12856078,-0.28525352,0.38385484,-2.4061243e-11,-3.5549252e-13,-0.38678557,-0.36554956,-6.731892e-05,4.578676e-13,0.1966636,1.0411615e-13,2.860005e-13,1.6178831e-07,0.8117875,-0.5872061,2.1517133e-10,-0.006079145,-7.091048e-10,-0.14936778,8.5313055e-11,-7.2766625e-13,-2.974598e-14,1.0151416e-13,-1.0345308e-09,7.011157e-14,-1.7495133e-12,4.575619e-13,-3.448361e-10,1.7581483e-09,-5.385751e-13,-1.2043571e-06,-3.8243527e-13
2.1943431e-13,2.8647645e-07,-0.8326374,4.736035e-10,2.6191305e-13,-3.9449763e-12,8.34842e-12,-0.11638956,3.2117391e-13,6.2127625e-13,0.2485428,1.0282166,-0.025792051,0.24622111,-9.1595134e-14,0.21667714,-3.2028143e-13,-0.032072805,-1.3554884,1.0739928,-0.40170708,1.7224313e-13,-5.4204856e-13,-0.34986755,0.37533063,6.744608e-05,3.2922352e-13,-0.5872674,-2.9901856e-12,2.6393868e-12,-3.9886405e-08,-1.4290543,0.07682938,2.0135069e-10,0.074125364,-4.8519083e-10,-0.28548068,-2.476004e-10,-1.9716732e-14,-3.9492034e-13,3.0276324e-13,-3.5099301e-09,-3.8305836e-13,-1.9642012e-12,-4.8045953e-13,7.694645e-11,-1.4860205e-09,-3.1354395e-13,-5.663353e-07,1.7890039e-13,1.5142611e-13,1.1080703e-08,-0.00941596,1.2115309e-09,-1.9865476e-13,4.8595804e-11,2.1544246e-12,-0.26895952,-4.943634e-14,1.2924671e-13,-0.084562674,-0.26436585,-0.34209988,-0.24582478,6.826765e-13,0.3103234,-1.268892e-13,0.4708337,-0.37035382,-0.70732033,-0.74274504,-1.9952012e-11,-5.3189153e-13,-0.3301217,0.73832256,4.7155707e-05,-3.2099765e-13,-0.4851939,5.0025574e-12,-7.5294756e-13,3.314605e-07,0.07940078,-0.071218334,4.6941746e-11,0.83937794,4.465589e-10,-0.31906077,3.8748407e-11,7.519782e-14,8.232671e-13,-2.4960123e-13,-2.3382274e-09,7.178211e-13,3.8674793e-12,5.505453e-13,5.6311644e-10,9.118666e-10,1.8525063e-13,8.030064e-07,-2.466343e-13
7.376158e-14,3.024481e-07,0.33117682,4.865093e-11,-1.6268193e-13,-5.4394704e-11,-1.3937205e-12,0.29603487,6.134295e-13,-6.5084646e-13,0.07725506,-0.35359713,0.30620745,-0.4233189,-7.6988605e-13,-0.5580315,-1.7496689e-13,0.13975796,-1.7655454,1.5787493,-0.45131892,-7.4478635e-12,2.7995583e-13,-0.119951025,-0.318396,-3.0773866e-05,-3.545642e-13,-0.08538672,3.219577e-12,-8.882502e-13,-1.9092475e-07,-1.3668779,1.3686268,-5.1191544e-11,-0.30533072,4.0263104e-10,-0.48387972,1.303863e-10,-6.841698e-13,-3.0923712e-13,1.7640723e-13,1.6627157e-09,5.7716294e-13,-1.8102851e-12,5.090789e-13,-5.2749288e-11,-1.7712373e-09,-8.069021e-13,-8.280162e-07,2.370193e-13,2.1299629e-13,1.3421223e-07,-0.13775022,-1.7010484e-09,6.4886887e-13,-7.865758e-11,-2.3152322e-12,0.1160872,1.8928716e-13,-4.3133164e-14,-0.12188934,-0.6133308,-0.18992506,-0.04651168,2.061701e-13,-0.052659497,2.3698605e-13,-0.72056097,-0.051868852,-1.0361276,0.3790821,4.915497e-12,-1.9306074e-13,-0.13120116,-0.07036014,-0.00011676997,6.1230426e-14,-0.9139237,5.0139216e-12,2.7465224e-13,-1.15181365e-07,0.078383885,-0.17934503,-5.9862476e-10,0.05695403,3.8699363e-11,-0.56563336,3.8587824e-11,6.645804e-14,-1.7228943e-13,-1.5617206e-13,5.7979566e-10,1.6699432e-13,-1.9841893e-12,-1.9683013e-13,-1.8413202e-11,-1.8851054e-09,1.923849e-13,1.6615958e-07,-1.11893676e-13
-2.8790344e-13,-4.3419e-07,0.49582785,-1.45495e-10,-3.6022655e-13,-8.200713e-11,-1.9275245e-12,-0.660722,-3.0203848e-13,-5.2812e-13,-0.0801401,-0.70965606,-1.1355113,-0.043153293,1.9390506e-13,-0.5270601,5.357895e-13,0.04727381,-1.1577616,1.4590563,0.15809938,5.247226e-13,-2.7495947e-13,-0.06287415,-0.18932167,2.0096797e-05,-3.6281655e-13,-0.12386834,-5.838876e-12,1.1340273e-12,-7.6660854e-08,-1.0746424,-0.24461806,-3.2101902e-10,0.22488083,1.0809927e-10,0.22736707,7.913871e-11,-3.5233256e-13,-1.5456798e-13,4.654263e-13,1.1218574e-09,-4.3886655e-13,1.6155991e-12,6.0109876e-13,-2.8500435e-11,5.0075752e-09,-1.0999956e-12,1.1499583e-06,2.6752537e-13,3.3076225e-13,-1.2123485e-07,-0.64203984,1.5059467e-09,4.378713e-14,9.981911e-13,1.2240168e-12,0.70029294,-1.2431516e-14,-6.253502e-14,0.558406,-1.2159811,0.0198582,0.7018588,-8.060436e-14,-0.15042767,4.635319e-13,-0.5051442,-0.046325676,-0.14477709,-0.5994022,6.554982e-13,4.764416e-13,0.054822363,0.11685385,-0.00018920058,1.7722722e-13,-0.34591997,-8.080455e-12,1.5868752e-12,-4.851076e-07,0.7773288,-0.78558403,5.5094512e-11,0.26309052,-6.892965e-10,-0.24957055,1.6085855e-10,-4.0863217e-13,-1.6666724e-13,3.2615154e-13,1.1180915e-10,8.5721686e-13,-2.9634112e-12,-4.721596e-13,-1.2545363e-10,-1.3592119e-09,-8.6629255e-13,1.5976647e-07,3.8643242e-13
1.5467396e-13,1.5137868e-08,0.94474626,-2.871083e-10,-3.1935164e-13,-1.7202649e-10,5.9573327e-12,-1.2479019,2.715675e-13,-1.6225541e-13,0.23239857,-0.16174142,-0.21538116,-0.073511906,4.8713843e-13,0.7489784,-8.1152506e-14,0.1734715,-1.5677768,1.2181785,-0.15073952,5.7390724e-13,-3.506823e-13,-0.051801696,-0.91308266,-8.780743e-05,-2.1922568e-14,-0.061813626,2.7172212e-12,2.6140188e-12,9.812653e-08,-0.8285441,-0.25077066,5.968356e-10,-0.35277376,1.1192108e-10,0.27028474,7.389854e-11,2.2938823e-13,9.0320454e-13,1.9846925e-13,8.812036e-10,1.3963255e-13,5.058389e-12,2.5413994e-13,-8.829379e-11,-3.2362313e-10,-1.03754895e-13,3.2530443e-07,-3.645461e-13,-3.6983193e-13,-7.173761e-08,-0.40662602,-9.298994e-10,1.9371213e-13,1.4936877e-10,8.1639816e-13,0.13645987,2.934398e-13,5.829415e-13,0.43122765,-0.47485226,0.7908486,0.15710092,1.489008e-14,0.3067959,-5.070162e-13,0.14036275,-0.1764496,-0.6304788,-0.7156727,8.238478e-12,1.7615377e-13,-0.042475313,0.067591935,-0.00019993025,-5.886818e-13,0.008452673,1.1107237e-11,1.2259166e-12,-2.6907995e-07,-0.2970566,0.626118,7.651597e-11,0.27542382,-6.80632e-10,-0.7620145,1.8178278e-11,5.0996663e-13,1.8643623e-13,1.6631295e-13,-2.3132901e-10,-3.1626855e-13,4.1488657e-12,4.2381083e-13,1.4310163e-10,1.3588435e-09,-8.585361e-13,-4.593951e-07,1.8501138e-13
3.5869943e-13,2.1624648e-07,-0.31748754,1.7580928e-10,1.3501502e-13,-8.7226745e-12,-8.06807e-13,0.20404649,4.6331244e-13,-3.8044676e-13,0.23037079,-0.24231362,-0.20787565,-0.39551264,4.0451513e-13,0.19419636,-3.612538e-13,-0.09137252,-0.8022605,1.2225039,-0.7537836,5.390628e-12,3.7979296e-13,0.07300577,-0.058208067,-2.1452086e-05,2.7484818e-13,-0.58269185,-6.1142745e-12,-1.5901432e-12,-1.5041189e-07,0.20091426,-0.045463465,7.396032e-11,0.47327635,2.3890295e-10,0.13832954,4.8135364e-11,2.4382764e-13,-1.9334171e-13,-5.184261e-13,-2.6185236e-09,-2.5525724e-14,7.35118e-13,-1.7580285e-13,1.0283829e-11,-1.7239209e-09,4.07629e-13,9.683599e-08,3.124441e-13,-4.406135e-13,9.531884e-08,0.1952629,1.192358e-11,-2.9065856e-13,2.4838083e-11,-3.4477605e-12,0.01044207,-2.4847873e-13,3.1215763e-13,-0.40753078,0.22459956,-0.19096242,0.40664807,1.2057214e-13,-0.16574822,-3.9750104e-14,0.039678223,0.28680924,-0.27053735,0.22272211,-4.3777998e-12,6.188639e-13,0.44625318,0.5415624,0.00022843518,5.957336e-14,0.12966907,3.3531368e-12,-1.905736e-12,-1.9536856e-07,-0.0363387,0.33923674,-3.870733e-11,-0.34349206,-9.598204e-11,-0.52244264,1.4038364e-10,-1.3336772e-13,-1.1683921e-13,-5.1299904e-13,9.645003e-10,1.3498636e-13,2.040697e-12,-3.6122852e-13,5.8805426e-11,-1.5878895e-09,-3.8464926e-13,-3.3433673e-07,-3.0138224e-13
8.952489e-14,-2.701682e-07,-0.3354829,1.748994e-10,2.6149067e-13,-1.8539892e-10,-4.00583e-12,-0.6888954,-1.8564021e-13,-2.9154272e-13,-0.080049135,-0.32692054,-0.37962818,-0.3391004,3.9456684e-13,0.2615689,-5.311902e-13,0.50010085,-1.1368539,1.0177307,-0.056419015,-1.17881755e-11,-6.6179896e-13,0.15307492,-0.10677267,-2.3018612e-05,3.8377952e-13,0.050837986,-5.6347843e-12,9.126863e-13,-1.942806e-07,-0.28362688,-0.42243573,-1.615591e-10,-0.4534923,-1.2349588e-10,0.0017141476,7.172998e-11,-6.072725e-14,1.9190758e-13,-2.661958e-13,3.0890732e-09,-1.7271906e-13,-3.9144642e-12,2.7166962e-13,-1.9710714e-10,-2.3409603e-09,-8.674324e-13,1.5738088e-06,2.6431168e-13,7.905788e-14,1.3066277e-07,-0.24843548,1.4401919e-09,-3.825936e-13,-4.9767062e-11,-3.7224862e-13,0.38330534,1.02247746e-13,3.5706263e-13,-0.27453378,-0.4609173,-0.23296463,-0.33802003,-1.6044295e-14,0.08470237,4.478335e-14,-0.11278673,0.1893567,-0.2173236,1.05296,9.665576e-12,-3.0538807e-13,0.04608876,1.153493,-0.00010642964,-4.3362094e-13,-0.37036327,-7.943119e-13,9.419385e-13,2.0250673e-07,-0.2521795,1.0581434,2.5767659e-11,-0.2812381,2.8199804e-10,-1.0400631,-7.154362e-11,-2.1811546e-14,2.9502225e-14,2.505544e-13,-1.8931827e-09,-6.885282e-13,2.2433366e-12,1.0680611e-14,6.30197e-11,-1.4988686e-09,-8.267741e-14,-5.5427364e-07,4.846329e-13
-2.6636435e-13,1.0017435e-07,0.5708429,-2.7576674e-10,-2.1105524e-13,-8.932981e-11,-1.9201773e-13,-0.5315742,7.090809e-14,-2.0156668e-13,0.005969622,0.60122967,-0.7428287,0.5829014,-2.4327898e-13,0.5849333,-3.0891555e-13,-0.57741135,-1.1253228,0.76460314,0.3260268,-3.3640764e-12,-2.2988664e-14,0.16777346,-0.37320527,-0.00016537517,-3.7488545e-13,-0.1937299,-6.2988065e-12,1.504562e-12,2.8994472e-07,-0.663039,1.1806078,2.326986e-10,-0.181308,5.9491585e-11,0.29437348,8.3617474e-11,-7.3697775e-14,-1.1459405e-12,3.6479638e-13,3.267955e-09,-2.0563764e-13,1.1327765e-12,3.1670456e-13,-3.0454064e-10,-1.9787965e-09,5.0936257e-13,1.9897935e-07,4.1579004e-13,-4.921109e-13,3.8290366e-08,0.0011447631,-4.5853968e-10,5.798609e-13,-8.4621456e-11,-3.9187043e-12,0.36638424,-1.7953157e-13,2.0507115e-14,-0.13498183,0.1330006,1.2051219,0.7768306,-1.197098e-13,-0.38109994,5.820095e-14,0.008244146,-0.3602844,0.35418424,0.13902362,7.268178e-12,-2.7387158e-13,0.50984913,0.37112173,-7.0068985e-05,3.4698134e-13,-0.32466647,-1.6098884e-13,-2.0405682e-12,1.7154713e-07,0.76131296,-0.23436548,-3.6605347e-10,0.10628733,8.8786256e-11,-0.5896697,2.3012366e-10,-2.426424e-13,3.3315275e-13,-4.5321976e-13,-2.1066124e-09,2.2773252e-13,-2.7789572e-12,-3.2331505e-14,3.061166e-10,-1.9902374e-10,-1.9287241e-13,3.7986655e-07,3.3593885e-13
4.4284048e-13,-1.719231e-07,0.02858062,-7.3352144e-11,3.741609e-13,-4.0862765e-11,-7.095462e-12,0.7526482,-5.1349e-13,-4.313184e-13,0.22940984,0.72835386,-0.55061364,0.46941447,-2.9345493e-13,0.014037082,9.163864e-14,-0.80628926,-1.3742193,0.38951474,-0.7496161,-4.8727485e-12,1.6194424e-13,0.29318154,0.22524793,-2.848817e-05,4.114578e-13,0.76626825,6.036501e-12,-5.648473e-13,1.9804745e-09,-0.8246144,-0.09383298,2.0331545e-11,0.90209585,2.5864239e-10,-0.29586536,-2.3342474e-12,4.6604626e-13,4.5755896e-13,-2.4580706e-13,1.2201742e-09,-3.5866291e-13,4.9137734e-12,-2.21637e-13,1.3030377e-10,3.3953498e-09,3.1709424e-14,-4.198682e-07,-3.5436525e-14,1.7792202e-13,7.698672e-09,-0.39089766,1.3678103e-09,9.371104e-13,3.7896065e-11,-1.1624657e-12,0.29141337,4.3294714e-13,2.8903052e-13,0.025730878,-0.18183242,0.9380186,0.77665246,-9.9665745e-14,0.11996995,2.1611836e-14,-0.5463816,-0.057664182,-0.8178066,-0.114453495,-7.561434e-12,-5.3413665e-13,0.31898823,-0.7500406,4.351741e-05,5.037143e-13,0.6439359,-6.428803e-13,-1.05268875e-13,2.9078944e-07,1.1348498,-0.09318357,-1.2746451e-10,0.4192557,3.5560648e-11,-0.4763469,-6.0384205e-11,2.8914344e-13,-5.7344103e-14,-3.4124914e-13,-1.675402e-09,3.8440767e-13,-1.8921375e-12,3.7029768e-13,2.4442867e-10,-8.936448e-10,-5.187322e-13,1.2498867e-06,-2.1841844e-13
3.461141e-13,-1.7305613e-08,-0.17779674,-3.5500622e-10,-2.635157e-13,2.8547574e-11,-5.031699e-12,0.12415216,-8.799602e-14,-4.295581e-13,-0.121866845,0.29667804,0.94499433,0.013176318,3.346002e-13,-0.06773582,5.143261e-13,0.11576789,-0.8093596,-0.17742658,-0.0742351,-1.2310518e-11,4.0967015e-13,0.4662219,-0.24201944,-1.8053055e-05,3.887708e-13,0.20395395,-6.5949472e-12,2.0634276e-12,7.975796e-08,0.012279743,-0.2534124,-8.977599e-11,-0.10488706,1.8841248e-10,-0.5174557,4.4096737e-11,1.9592428e-14,1.6079924e-13,-2.6820804e-14,-1.7244604e-09,1.5706398e-13,-1.7590781e-12,-1.075805e-13,-5.3494556e-11,5.5292076e-10,1.7563636e-13,2.4839665e-07,-1.8600112e-13,4.8415997e-13,-7.656739e-09,-0.2461685,-1.0260901e-09,-3.1853643e-13,-9.774794e-11,6.1146823e-13,-0.14754856,3.7074713e-13,-3.6522808e-13,0.31826684,0.17014776,1.7484981,-0.073800206,-4.258288e-14,0.40257245,1.8052966e-13,-0.41720384,-0.22810355,-0.99541175,-0.2938957,-8.939965e-12,-5.7408505e-15,0.25731555,-0.2701268,-8.820936e-05,3.340956e-13,-0.053083785,1.6271466e-12,1.5643526e-12,1.1487803e-07,0.1955051,0.002240506,4.1674112e-11,-0.34440526,-2.038598e-10,-1.3295175,4.68604e-11,-2.934364e-13,4.2664136e-13,-9.324155e-14,-5.1633524e-11,2.7043775e-13,1.1182391e-12,-1.6847565e-13,1.1276626e-10,-7.693294e-12,-4.829516e-13,-6.5609436e-07,-3.4196677e-13
-6.0239314e-13,1.2420155e-07,-0.22492768,2.647259e-10,1.6406055e-13,1.4770984e-10,-1.812521e-12,-0.6438861,-4.722413e-13,3.3571274e-13,-0.3940734,0.5878336,-0.12154132,0.9639402,-2.0710156e-13,0.1708779,1.5655917e-13,-0.14607437,-1.4653829,0.14928257,-0.19731946,-3.1441415e-11,-1.3872145e-13,-1.0483311,-1.5681207,-4.3545446e-05,2.0448915e-13,0.37603277,2.0438315e-12,6.22741e-13,-7.402325e-08,-0.10230999,0.47944346,1.5908841e-10,-0.10687877,1.4955226e-10,-0.20095772,-1.01718634e-10,-6.084415e-14,-2.3458647e-13,2.1504288e-13,4.707312e-10,3.6708817e-13,2.3827045e-12,8.1750524e-14,6.200607e-11,-3.8109977e-09,8.2401534e-13,1.418215e-07,1.3417235e-13,9.369957e-14,-1.1932062e-07,-0.02032062,-3.740428e-10,-2.7015713e-13,-1.0813269e-10,8.4625763e-13,-0.3958774,-3.6156372e-13,-5.4984636e-13,-1.1884283,-0.36025256,0.39591905,0.02183383,1.1385362e-13,-0.2033692,1.6980505e-13,0.3555489,-1.0725212,-1.5879824,0.016603976,-7.915805e-12,5.2664145e-14,0.28911892,-0.71677107,-0.00026931398,3.5447295e-14,0.08753993,3.1696048e-12,-1.6671637e-12,-1.11445225e-07,-0.017796565,-0.33794817,-1.4552669e-10,0.54571265,1.6787094e-10,-0.65815663,9.602658e-11,1.2441079e-13,-6.8971825e-13,-2.2386787e-13,-1.7352622e-09,-8.038365e-13,8.084376e-13,1.11493564e-13,-3.3656244e-11,-4.633663e-10,3.296223e-13,3.1925688e-07,-3.6016153e-13
7.9134095e-13,-2.3380629e-08,0.11376787,7.5161743e-10,-1.6962908e-13,-8.5339895e-11,1.7463797e-12,-0.111831054,-5.6722454e-13,6.741282e-14,-0.25101745,0.18745068,-0.1824165,0.5525627,3.2821085e-13,-0.63983095,4.099763e-13,0.06345752,-1.4596372,0.30105707,-0.59922963,-2.7122863e-11,2.463349e-13,-0.2420719,0.1358133,5.723122e-05,-1.9327094e-13,0.8495602,1.1113404e-11,-6.9516707e-13,3.999454e-07,0.18729633,0.42400402,-9.191926e-11,0.009720486,-1.9349337e-10,-0.06897707,3.9716987e-11,-6.3673795e-13,-5.6698434e-14,5.7228706e-13,-2.3397697e-09,3.6802896e-13,1.2413316e-12,4.7736554e-14,9.5470576e-11,-4.7849413e-09,6.3703475e-13,-1.330323e-06,1.7503658e-14,-1.6384695e-13,-7.0102715e-08,0.07490407,-1.1260104e-10,-3.490519e-13,1.0799394e-10,1.9763629e-12,0.6259619,7.629226e-13,-6.363909e-13,-0.22975086,-0.120425284,-0.11188986,-0.9570658,2.3201317e-13,0.37089872,5.63835e-13,-0.3343638,-1.0642858,-0.6895376,0.33428577,2.5791565e-13,-1.7797629e-13,0.07721919,-0.4414571,-0.00015142492,2.9973612e-13,-0.09729801,-3.5717451e-12,7.4534086e-13,-1.9319555e-07,0.056651138,-0.4076754,-9.6688595e-11,-0.9575082,-4.3421058e-10,-0.35130203,1.6323401e-10,3.640713e-14,-8.239497e-13,1.4587837e-13,-4.5911952e-10,4.8653746e-13,6.722878e-13,2.3974063e-13,3.9191518e-11,1.1230004e-09,2.5506108e-13,-9.883557e-07,-6.8668595e-14
-2.9990696e-13,3.035238e-08,0.41866115,1.3757129e-10,1.2887159e-14,7.236475e-11,-9.633136e-13,-0.6167772,1.230607e-13,-1.5597499e-13,-0.16715235,0.13165718,-0.31341898,0.076867744,-1.6723594e-13,0.62814575,-3.2815891e-13,0.10953285,-1.4625219,0.63633263,-0.7725409,-3.7276224e-12,3.9057822e-13,0.22085854,0.2424326,-9.4586765e-05,-4.207938e-13,0.5844389,-4.717969e-12,9.369044e-13,-1.7187355e-07,-0.84555817,-0.010777958,5.1916003e-11,0.15411946,2.8534375e-10,0.6403876,6.0887136e-11,-6.4048566e-15,2.6676686e-14,-5.089781e-13,3.2259784e-09,2.6203792e-13,-1.0910852e-12,3.7562997e-13,3.2839323e-10,1.1437818e-09,-6.380826e-13,-2.9990463e-07,5.741272e-13,-1.576475e-13,-2.7317353e-07,-0.6733792,1.1044328e-09,1.7508868e-13,-2.920953e-11,-2.3933039e-12,0.0364895,-3.938917e-13,-4.1550698e-13,-0.3063649,0.15594918,0.24711621,0.1919668,-2.181374e-13,0.4424338,4.1591432e-13,0.0662258,-0.31063795,-1.4003602,0.014329685,2.60782e-11,1.2834048e-13,-0.6873747,-0.15884414,0.00014607035,-1.9836948e-13,0.934926,4.333092e-13,1.1344038e-12,-3.8563428e-07,0.19822867,-0.95819217,4.996569e-11,-0.4717579,4.672438e-10,-0.5601817,1.2281065e-10,2.5042086e-13,-2.1616527e-13,4.4261074e-13,1.5047353e-09,-1.313171e-13,-4.3386583e-13,-4.389244e-13,2.6764785e-10,-2.8519485e-09,-5.1312795e-14,-2.5763734e-07,-4.2139672e-13
5.809632e-14,-1.12816e-07,0.342483,-1.5851011e-10,1.1455089e-13,4.83222e-11,-5.5858974e-13,0.020836063,1.489314e-13,3.371663e-13,-0.070670456,-0.11935068,-0.19873814,0.29353335,-3.1051786e-13,-0.35587713,-3.5664042e-13,-0.18730925,-0.62294024,0.9895012,-0.18485634,-9.441218e-12,1.6333216e-13,0.21749553,0.24227059,-6.030613e-05,-2.2175141e-13,0.3685593,-7.4465976e-13,5.8215076e-13,4.3055437e-08,0.12604539,0.09797004,6.04304e-11,0.10719955,-9.562005e-11,-0.6038462,-2.5505719e-11,9.442582e-14,2.899139e-13,3.4932384e-13,-1.2015606e-09,-1.4989003e-13,1.425355e-12,-3.639031e-13,-1.0285803e-10,1.1936119e-09,9.276466e-14,-1.325758e-07,-2.3325986e-13,-1.3823079e-13,-3.6514784e-08,-0.099746734,-1.6573146e-10,2.8952456e-13,2.7591157e-11,-1.9334252e-12,-0.1304971,1.05364393e-13,3.570839e-13,0.25707182,0.017379455,-0.13109304,0.021120029,6.876902e-14,0.16392763,-7.418271e-14,0.42830825,-0.14470057,-0.9964582,-0.30925584,-7.2926465e-12,-3.944052e-13,-0.10029724,0.100485,-4.0849864e-05,-3.1811348e-13,0.45478067,-2.5634978e-12,8.82629e-13,-1.5547688e-07,0.370425,-0.19927925,1.3902329e-10,0.17289518,2.263961e-10,-0.91084117,-4.671855e-11,-1.8424108e-13,1.8044184e-13,1.7477597e-13,5.6917e-10,-3.0216758e-13,-9.232895e-13,-1.7205258e-13,2.079263e-10,1.306978e-10,-1.8843065e-13,4.9934783e-08,3.453997e-13
-1.08811465e-13,-2.9792169e-08,0.310157,-1.0464706e-09,1.1813792e-14,3.2402706e-11,-2.5987762e-13,-0.5853713,1.4607166e-13,-6.2458583e-13,-0.41660443,-0.262054,0.0026667593,0.2791423,2.6605495e-13,0.38394484,-4.43149e-13,-0.59636027,-1.4122052,0.59950644,-0.57514006,-3.1845594e-12,1.247605e-15,-0.0366312,0.24323252,-0.0001812412,-2.8745333e-13,0.86346704,7.49739e-12,2.7709215e-12,2.3077419e-07,-0.067104794,-0.17322408,-7.810443e-11,0.89963406,4.37403e-10,-0.9235826,-5.815313e-11,4.751761e-13,5.7065794e-13,5.6909284e-14,-9.485865e-10,-3.977616e-13,1.8428314e-12,1.8909776e-13,-2.9149372e-10,-2.2864088e-09,1.9810087e-13,-6.726908e-07,1.4765676e-13,4.2461092e-13,1.2101972e-07,0.36289987,-6.3696315e-10,-2.1552606e-13,5.178235e-11,4.1567227e-14,0.05665787,3.8422634e-14,-1.3144646e-13,-1.0697867,-0.4978862,0.32417133,-0.6695404,1.6678987e-14,-0.13349617,-4.578457e-13,-1.123096,-0.5973178,-1.308377,-0.32023194,5.23321e-12,7.566039e-13,0.38660073,0.5341707,6.4440195e-05,-1.8188405e-13,0.107933566,-7.5199634e-13,1.013412e-12,-2.0329807e-08,-0.2702642,0.78362465,1.4699537e-11,-0.65951127,3.6341513e-11,0.14311928,-7.6410836e-11,1.11342034e-13,-2.6860496e-13,2.5254337e-13,-2.8535716e-09,1.2993122e-13,4.728363e-13,3.941143e-13,4.5334392e-10,1.1128148e-09,-3.8553308e-13,1.3573813e-06,1.7549342e-13
1.1178269e-12,-6.486273e-08,0.36670938,4.424067e-10,-4.0537327e-13,3.656243e-11,-8.275455e-13,-0.24756154,5.7093355e-13,3.6579518e-14,0.16532317,-0.23152927,0.036562033,0.14507794,-4.768459e-13,0.8369155,-6.8756714e-14,-0.2591236,-1.1869751,0.2812019,-0.20127179,-3.3434288e-12,-7.540935e-14,0.42418152,0.21425544,0.00012332025,1.6591199e-13,0.34812847,1.0192047e-11,-5.901433e-13,3.5221955e-08,0.09570649,0.10173132,-7.939138e-11,-0.10121097,2.0205834e-10,-0.046779737,-2.7474726e-11,-3.1467044e-13,-3.5547924e-13,8.9967855e-14,7.336507e-10,-7.0303333e-13,-2.5952686e-12,-2.0597211e-13,-1.1497896e-10,2.7582139e-09,7.7192137e-13,-2.4626567e-07,9.69499e-15,5.5437095e-13,-1.5593143e-07,-0.39972696,2.9000286e-10,-3.2301635e-14,6.217718e-11,3.1153715e-12,0.13294864,1.1396496e-14,2.02573e-13,-0.34681955,0.42879406,-0.24406663,0.91277057,3.7016058e-13,-0.520063,2.571359e-13,-0.09872112,-0.21848562,-1.3724927,0.14376423,2.815105e-13,-5.1528595e-13,0.35209075,0.23673394,-0.00015448817,-6.9676605e-14,-0.19783382,-8.6425485e-13,-7.615265e-13,-1.0656032e-07,0.47360396,-0.09753284,-4.7299734e-11,-0.1956031,2.1418434e-10,-0.29261357,2.3215794e-11,-1.10576695e-13,2.4840473e-13,-1.2212735e-13,-4.007873e-10,9.189561e-13,8.616385e-13,4.146103e-13,1.2605501e-10,1.1223992e-09,-2.6355488e-13,1.0770025e-06,-3.268642e-13
8.2802954e-13,9.637485e-08,0.8853849,-6.9269773e-10,-3.635503e-13,1.754995e-10,3.702595e-12,-1.0748974,2.066099e-13,-5.9476154e-13,0.12956691,-0.0952132,-0.22577395,-0.69390666,-3.6770307e-13,-0.23782009,-1.6668253e-14,0.34062782,-1.0353974,0.55346775,-0.42384288,1.4598656e-11,-2.766266e-13,0.20566063,0.88887846,-2.2610488e-05,3.5867988e-13,0.3877942,1.6669768e-12,1.1111347e-12,1.8661776e-08,0.4551548,-0.07263996,1.5495637e-10,0.1919306,-3.4171527e-10,0.44681054,-1.6535389e-12,6.266602e-14,-6.6146546e-13,-2.8410027e-14,2.316021e-09,3.6053403e-13,2.095525e-12,1.7057798e-13,-4.071094e-11,2.8960665e-09,7.741963e-13,-6.591838e-07,2.623621e-13,2.0853585e-13,4.137875e-08,-0.36585644,-1.399208e-09,-6.779525e-13,-2.1647587e-10,4.6582894e-12,-0.0917305,2.5937051e-13,-6.268559e-13,0.26061946,0.21900688,0.53281635,-0.14288566,-2.0139936e-13,0.7777617,3.064813e-13,-0.2558161,-1.1960952,-1.3267665,-0.46060795,9.745225e-12,3.2805722e-13,-0.06970915,0.51711273,-0.000102311926,4.0429804e-13,-0.10234289,3.250322e-12,4.588338e-13,5.98637e-07,0.994176,-0.015396509,-1.01282004e-10,-1.2142311,-8.657195e-10,-0.27119192,-3.4994584e-11,3.108587e-13,-3.559007e-13,-2.8778594e-13,-9.546346e-10,-1.4725433e-13,-1.2171109e-12,4.0212476e-13,-4.4545503e-11,-3.7795883e-10,-6.146282e-13,-3.0691834e-07,-3.8802343e-13
8.080247e-13,7.9123026e-08,0.45379177,4.241439e-10,6.5477116e-13,8.625192e-11,3.8711764e-12,-0.27482644,-2.1264414e-13,-4.990976e-13,0.7233042,0.70775783,-0.81172955,-0.26937813,1.11515614e-14,-0.26041213,-4.2044178e-13,-0.40623134,-1.0104488,0.5579916,-0.046316285,-7.1807677e-12,3.8064506e-13,0.106464304,0.117459066,7.4510914e-05,-1.6497716e-13,0.85384524,-6.06045e-12,2.8311652e-12,6.3586416e-09,-0.15838502,0.26886198,1.0082776e-10,0.36461803,-2.1288908e-11,0.4956241,-1.4740958e-11,1.3697124e-13,3.1674392e-13,-5.213938e-13,-3.7667985e-10,-1.8717287e-13,3.2257593e-12,-3.8239103e-13,-1.2749986e-10,6.736671e-11,-5.899633e-13,1.2204865e-06,9.9420336e-14,-3.35038e-14,1.8899478e-08,-0.19004145,-4.6360693e-10,-1.9212907e-13,-7.6677546e-11,4.2605833e-13,0.12275945,7.055705e-13,-1.8101324e-14,0.26089022,0.22453558,1.349654,-0.15776134,4.3323093e-15,0.4911255,-3.2328678e-13,-0.16768456,-1.271459,-1.3722416,0.3397748,5.105764e-12,-2.3924642e-13,0.29867876,0.07871458,-1.6076496e-05,-3.0745976e-13,0.55934733,2.7143298e-12,1.4199823e-12,-1.3129458e-07,0.82680625,0.29617906,1.1288067e-10,-0.12904394,-1.2471865e-10,-0.47706097,-3.5501005e-11,-4.9633556e-13,1.2821138e-13,-3.6111294e-13,-2.9657504e-10,2.9328433e-13,1.4132532e-12,3.6360736e-13,-8.9939944e-11,-3.0867905e-10,-3.6088775e-13,-4.3872163e-07,1.8753185e-13
6.2916426e-13,-9.7577555e-08,-0.1208219,-2.9617417e-10,-7.0923866e-13,1.7072715e-12,-2.6188123e-13,0.08410648,-2.6487037e-13,-7.410865e-14,0.30292886,-0.9241869,-0.41689807,-0.23677064,3.994945e-13,-0.0822249,4.1184908e-13,0.29541758,-0.7631703,0.33550957,0.2918583,-1.6139631e-11,2.6706502e-13,-0.4241507,0.15089114,-3.299548e-05,-3.0602756e-13,0.60207546,-4.2721902e-13,1.0922949e-12,3.291702e-07,-0.16574793,-0.05971232,7.5415674e-11,-0.10484183,8.5249325e-12,0.42845905,-3.9986712e-11,2.7973517e-13,3.2555485e-13,8.6440566e-14,5.006134e-10,-4.769119e-13,1.3807954e-12,-4.699549e-13,7.1180666e-11,-9.296526e-10,-1.0084387e-13,-5.9153217e-07,2.6906808e-14,3.9722978e-13,1.816926e-08,-0.078913525,-4.3268356e-10,2.8864205e-13,1.323047e-10,6.3792927e-13,-0.24820611,-1.2138202e-13,2.7584375e-13,0.32953474,0.3883825,1.217637,-0.4994685,-2.9653057e-13,-0.19603184,-3.8505093e-13,0.33466387,-0.43927294,-1.3083086,-0.50098825,-1.2682744e-11,-4.0107173e-13,-0.16354205,0.5422532,-0.00016546683,-6.3730705e-14,0.018771082,-2.7928814e-12,1.2642602e-12,-1.0238814e-07,0.0105041545,-0.33188182,5.15291e-11,-0.0825057,1.269828e-10,-1.0642793,2.6840053e-11,1.2072136e-13,1.1789067e-13,-1.2344798e-13,-3.4524705e-10,3.004451e-13,8.814168e-13,-3.1455933e-13,2.3779825e-10,-5.24611e-10,-2.1459483e-13,-1.5379593e-06,1.7131194e-13
4.737766e-13,3.7304886e-08,-0.730558,-6.031925e-10,-5.661529e-13,-8.051869e-11,-3.07069e-12,-1.2024066,-3.5560116e-13,-8.302946e-13,0.019142022,-1.0584174,-0.42143682,0.45914012,3.206038e-13,0.94836795,3.2975527e-13,0.3348884,-1.1114782,0.35010147,0.28036296,-7.545742e-12,9.657932e-14,-0.628595,0.73503935,-1.4647669e-06,-2.7500644e-13,0.08452842,1.2071073e-11,-2.6975397e-12,1.9393879e-07,-0.66472167,-0.9729369,6.860657e-11,-0.008675871,8.1800684e-11,0.29509115,4.4347474e-11,5.2150396e-13,-3.508429e-13,-2.7607365e-14,-3.2303948e-09,-9.197677e-13,-2.8054653e-13,2.853329e-13,-1.2870793e-10,1.2352372e-09,6.430349e-15,-2.856865e-08,5.5398524e-13,9.031518e-14,1.5626765e-07,-0.02717716,-1.0974069e-09,5.755173e-13,-1.2010022e-10,-1.3638136e-12,-0.30004796,-3.2949132e-13,-4.9990535e-13,-0.7152565,-0.5826604,0.8173735,-0.12746866,-1.4418649e-13,0.96201557,-5.5336475e-13,-0.017159197,-0.11370265,-0.8950556,0.12678094,2.1100949e-11,1.8514042e-13,-0.89989096,0.68735576,6.427478e-05,-2.652452e-13,0.18064676,2.8504293e-12,5.218604e-14,-3.9417822e-07,0.12353878,0.35541412,-1.4231358e-10,-0.5778058,7.889368e-10,-0.5812047,-1.7704345e-10,6.4771634e-14,3.5552897e-13,7.6470677e-14,5.6124105e-10,1.9033238e-13,2.3912402e-12,4.6909004e-13,-9.295242e-11,9.508193e-10,-3.0874283e-14,2.472847e-06,-2.5382512e-13
-8.3291647e-13,3.4425415e-07,-0.7686161,1.13503165e-10,1.2451275e-13,-7.6903886e-11,2.465137e-12,-0.2086457,-1.562618e-13,5.2593563e-13,-0.66173977,0.042305384,-0.80073965,-0.71210885,3.370476e-13,-0.2165904,6.342835e-13,0.068762995,-0.9175979,-0.022472747,-0.2728851,1.2461249e-11,4.770305e-13,-0.26523536,0.084775515,9.553517e-05,5.422105e-13,0.48961323,-5.5040265e-12,-1.1225588e-12,-2.7544098e-07,-0.5504072,0.22441971,-2.359584e-10,0.57994086,-1.155638e-10,0.98198545,2.2493216e-10,1.0553364e-13,-3.523046e-13,-1.8391799e-13,-5.2556526e-10,-6.0943633e-13,-3.284789e-13,1.8314002e-13,-2.244595e-10,1.5813665e-09,-7.37484e-13,-1.3037604e-06,-2.2411146e-13,1.0983575e-13,-2.2795787e-07,0.07889685,-1.7047563e-10,-3.611068e-13,-1.9072999e-10,3.4443355e-12,0.12774989,3.71828e-13,-2.294413e-13,-0.16411717,-0.6465968,0.19038832,-0.27968878,-3.319559e-13,0.31283703,-2.0418445e-13,-0.3293499,-0.25989908,-0.10120571,0.099261284,-2.2196842e-11,1.8285957e-13,-1.0900055,0.57919586,1.244841e-05,3.2187488e-13,-0.40583664,3.93502e-12,1.3152704e-12,-3.616997e-07,0.6361512,-0.09537141,1.506497e-10,0.9250359,-1.1084472e-10,-0.77008706,-1.14492756e-10,-3.2195736e-13,-2.3293672e-13,-2.2424753e-13,1.7846717e-09,-4.625572e-13,1.803743e-12,1.2224759e-14,-4.2918905e-10,-2.7986508e-10,7.39128e-14,-8.20391e-08,1.1359438e-13
-5.672104e-13,-1.09446205e-07,-0.024808437,5.625689e-10,-3.391417e-13,-1.3570237e-10,3.4610919e-12,-0.7259289,-5.164841e-13,-2.2176602e-13,0.2976569,-0.114566684,-0.257956,0.20062414,-2.4889785e-13,0.8632223,-5.207534e-13,0.6826173,-1.2402889,0.097016335,0.2595654,-1.9847969e-12,1.8011506e-13,0.04267655,0.49695402,4.888628e-05,6.8110556e-14,0.28315943,-6.9674427e-12,-1.7338266e-12,1.0643277e-07,-0.28885686,0.27563012,-2.1849354e-10,0.39200163,2.917999e-10,1.5800499,-8.828968e-11,4.426508e-13,5.3151916e-13,-7.4671985e-14,2.6645275e-09,-5.164261e-13,-5.2395584e-12,-7.42965e-14,-1.8580514e-11,-2.972525e-09,7.2262015e-13,-4.749074e-07,-4.2848404e-13,5.169364e-13,-2.3797219e-07,-0.52399474,8.411442e-10,-4.1320652e-13,2.3040435e-10,4.6825577e-12,0.51022595,-1.1512078e-13,4.380481e-13,-0.43688524,-0.5505566,-0.10224883,0.40077198,-4.5642187e-14,-0.58908665,2.3064626e-13,0.46164966,-0.17074184,-1.086404,0.14872952,8.286892e-12,-3.1377976e-13,-1.1447848,0.53571314,-2.7890841e-05,2.9272307e-13,-0.19129059,4.873873e-12,2.443605e-12,2.6716407e-07,-0.31419483,-0.27750468,-2.364345e-10,-0.7033889,3.598745e-11,-1.1084707,-3.560921e-11,-1.8532514e-13,-2.9757566e-13,3.1339254e-13,-8.480208e-11,-5.571052e-13,1.6912472e-12,2.3653667e-13,4.466584e-11,3.223681e-10,8.253417e-13,1.3907473e-06,-1.857647e-13
5.3450462e-14,2.3266074e-07,-0.11489978,1.1845563e-09,4.2284324e-13,7.857655e-11,-1.6485773e-12,-0.27005762,-1.3733995e-13,-2.2757463e-13,-0.6158291,-0.4203996,-0.2740975,0.5720397,1.2845573e-14,0.2583338,-3.0942685e-13,-0.3699993,-0.6674385,-0.20655449,-0.076228395,2.0200779e-11,1.9858914e-13,0.20687582,0.12951122,2.4506779e-05,-2.476881e-13,0.5134936,-6.407547e-12,1.3860952e-12,3.9906124e-07,0.17125736,-0.24571018,-1.0126266e-10,0.048560437,1.06876646e-10,1.6586751,5.4750232e-11,-1.8256582e-13,-1.8882553e-14,2.1308481e-13,-1.7727525e-09,6.0253e-14,-1.0543558e-12,-1.7435684e-13,-2.8412794e-10,-1.5074276e-09,4.9501923e-13,-1.4835605e-06,3.266346e-13,4.692882e-13,4.3491315e-08,-0.63389844,9.463751e-10,9.2598455e-15,2.6644919e-11,-2.684315e-12,0.6059893,-3.8330325e-13,-1.5425514e-13,-0.12618032,-0.991158,-0.4696166,-0.074819684,4.8831924e-13,-0.6253952,2.4606413e-13,-0.6167847,-0.6980677,-0.90202224,0.11503781,1.5891628e-13,2.7024368e-13,-0.42102998,0.932448,-8.704551e-06,-4.0125507e-13,-0.7105988,-2.7342304e-12,1.3629247e-12,-6.242575e-08,-0.35864484,0.21783617,-1.6916596e-12,-0.5072498,-3.7089468e-10,-0.8169813,-7.086867e-11,-8.831342e-15,1.148719e-13,-1.4815906e-13,-1.2116838e-09,2.0612372e-13,2.5493044e-13,-3.8815462e-13,2.3994726e-11,1.1309325e-09,-6.444286e-14,3.4367417e-07,-4.2590478e-13
5.200435e-13,-1.6813276e-07,0.6262823,1.0337022e-09,1.172423e-12,-2.242562e-11,-2.5203737e-12,0.33200598,8.716194e-14,2.596309e-13,-0.37646472,0.30100054,-0.2921481,0.8704245,3.5829017e-13,-0.18042763,3.878892e-13,0.1928573,-1.4153795,-0.22680473,-0.008038843,-2.9849054e-11,6.0446803e-13,1.049189,0.1704518,-5.285447e-05,-1.8127807e-13,0.21291569,-2.7647014e-13,-1.62594e-12,2.3597744e-07,0.26815036,-0.31275824,1.7435008e-10,0.7353122,3.204457e-10,1.5366693,-1.2113738e-11,4.7028896e-13,8.8961976e-13,5.0054904e-16,-6.685042e-10,-5.310445e-13,-1.7053309e-12,6.1748165e-13,-2.1726149e-10,-5.1316897e-09,2.0085813e-13,-1.364815e-06,-1.7696321e-13,-3.133439e-13,3.981124e-09,0.0771878,1.531103e-09,-9.541272e-14,-3.2485954e-12,-3.2929683e-12,0.14753413,3.5651164e-13,-7.0504117e-13,0.069224626,-0.6000973,-0.2118943,-0.005796099,-1.4227451e-13,-0.44392496,1.4630292e-13,0.022614658,-0.73071426,-0.83057916,0.5531391,-2.7917204e-12,-2.0323446e-13,-0.2910146,0.52434146,-4.1293653e-05,-4.461977e-13,-0.19597137,-3.627422e-12,-1.5739217e-12,5.616707e-07,0.105063245,0.039792873,3.214347e-10,0.05055021,-1.12992865e-10,-1.000733,1.9346647e-10,7.606256e-13,-3.313009e-13,-1.7435409e-13,-8.8054386e-10,6.560145e-13,-2.758134e-12,6.064154e-14,-1.9101748e-11,-3.8849376e-10,-1.2866471e-13,-3.0406048e-07,-4.30615e-13
-9.342339e-13,-1.7148983e-08,0.7647921,3.0685138e-10,-9.054696e-13,-1.3652954e-10,1.1437035e-11,-0.30322325,-1.3067997e-13,6.8860374e-13,-0.01934249,-0.5423267,-0.39615,0.93567276,-3.9743846e-13,-0.24508826,-2.2451252e-13,-0.9293726,-1.5595717,-0.0750894,-0.23496233,-3.8267384e-12,2.1530987e-13,0.36438423,0.010108295,3.202788e-05,1.8455437e-13,-0.18911162,-5.6793173e-12,2.8563569e-12,-1.9045868e-07,-0.67569077,-0.37714526,3.3546765e-10,0.22837234,-9.545906e-11,0.40549493,3.3438138e-11,1.8347882e-14,7.2672163e-13,3.9110097e-13,5.746676e-10,-1.18578e-13,-5.8478587e-12,7.7570453e-13,-1.3038073e-10,-5.032149e-10,-9.992824e-13,3.515746e-07,-9.5145e-14,2.6742467e-13,1.16996475e-07,-0.18979222,-1.2088442e-09,2.1358254e-13,4.32849e-11,1.4135726e-12,-0.9209895,-7.6700544e-13,-6.456055e-14,0.2162698,0.021067478,1.2059207,0.019529214,-5.011242e-14,-0.18852648,5.643485e-13,0.59371823,-0.2896411,-1.4619578,0.29600438,-9.872898e-12,-4.858744e-13,0.06469678,-0.6545022,-2.137015e-05,4.8742293e-13,-0.51470524,-1.2105751e-11,-1.6436862e-12,7.9208526e-08,-0.19715929,0.26227397,1.3061145e-10,0.3734551,1.1983384e-10,-0.62429684,2.2690062e-11,1.4464114e-13,-2.6497717e-13,2.456907e-13,-4.170805e-10,-5.252973e-13,-2.4472425e-12,1.7024663e-13,-4.2940407e-10,1.2497432e-09,-9.242341e-13,-1.3483244e-06,1.6155721e-13
-1.2369083e-13,-1.3128663e-07,-0.14572568,-3.8291084e-10,-1.0090839e-13,-4.4183986e-11,1.4914286e-12,-0.32295027,1.0191636e-14,2.1046416e-13,0.028843507,-0.3929016,0.13813064,0.31445622,-2.0450056e-13,-0.2397258,3.869067e-13,-0.018298782,-0.5317987,0.19082713,0.07796882,1.1564113e-12,6.0133e-14,0.091950946,-0.0969327,4.4029775e-06,-3.3692976e-13,-0.0756326,1.8278543e-13,5.6811055e-13,4.1106137e-08,-0.28622463,0.0137257315,-7.827398e-11,-0.00917333,4.5826034e-12,-0.03369569,4.593209e-11,-1.6628571e-14,-2.0241662e-13,7.340683e-14,5.837706e-10,1.968574e-13,1.4064232e-12,-1.8865543e-13,-2.1174843e-11,1.1030823e-09,-6.3016633e-13,5.3684704e-07,2.075996e-13,1.210727e-13,-2.8675728e-08,0.1841785,-9.352269e-11,-5.23276e-13,4.461087e-11,3.0951212e-12,0.007854386,1.7426132e-13,7.911613e-15,-0.057473868,0.051478863,0.04574586,0.2686459,-2.5551436e-13,0.1839197,1.4720557e-13,0.14976826,0.16185535,-1.4105791,0.030896474,-4.0528783e-12,1.1752326e-13,-0.11117502,0.28043145,6.12243e-05,-3.5243016e-13,0.027305983,-1.192512e-12,-1.4566973e-12,-8.140939e-08,0.06123579,-0.05334301,8.6946894e-11,0.14282022,-3.5041056e-10,-1.1521894,3.5747613e-11,-2.52961e-13,3.896083e-13,-4.2041647e-13,1.15272444e-10,-4.3847182e-13,5.302319e-13,2.1051102e-13,6.4666896e-12,1.2593854e-10,-5.1123168e-14,-3.2060626e-07,-5.1727524e-13
-1.6816599e-13,1.6051621e-07,0.07051194,-1.8384277e-10,-1.0634134e-13,6.2858725e-11,2.7020552e-12,0.6314037,4.0814398e-13,-3.779411e-13,-0.63025856,-0.61164033,0.34731624,0.1740802,4.740995e-13,0.19139707,-3.6868807e-13,-0.5047006,-1.3097576,-0.17308064,0.37343565,2.6349391e-11,8.6610894e-14,0.09264207,-0.25211102,2.3298027e-05,-4.6935757e-13,0.16829734,-3.3606044e-13,1.4805081e-12,3.3304536e-07,-1.0771949,-0.3374591,-1.4228906e-10,-0.058897503,-2.1221372e-10,0.36834446,1.15337254e-10,4.422815e-13,3.632393e-13,-5.0080686e-13,1.019998e-10,-5.481967e-13,-1.6338067e-12,1.3378477e-13,2.7332223e-10,1.3963974e-09,-4.3624197e-13,8.092406e-07,-4.781224e-13,1.0308995e-12,5.27395e-08,0.653989,-7.4753925e-10,1.5023802e-13,-1.2941909e-10,-1.3123e-12,-0.76908064,3.4200434e-13,7.85106e-14,0.23555897,-0.011481566,0.1794596,-0.49003914,-2.4412026e-13,0.09710957,-4.266959e-15,-0.57434165,-0.82336307,-1.9018344,-1.0032562,-2.29335e-11,4.515449e-13,0.18591584,0.38404816,-0.00021687285,3.40906e-13,0.48169672,2.2565318e-12,4.1171293e-13,-1.1952334e-07,-0.19231328,-0.19476566,-1.8572838e-10,0.005985643,2.3497987e-10,-0.71426964,7.0237094e-11,2.3462973e-13,6.49194e-13,-1.0284395e-13,-3.3834124e-09,1.12428784e-13,-1.3604495e-12,-5.2429854e-13,-8.188611e-11,6.509202e-10,-9.765383e-13,-4.962012e-07,-2.2411643e-13
-4.343305e-13,-6.386397e-08,-0.23269607,3.7371858e-10,-4.1912383e-14,-2.227246e-10,2.4516173e-12,0.14102721,-2.4000664e-13,-3.0596858e-13,-0.6754536,-1.1788998,-0.26357287,-0.17749801,4.951914e-13,0.27522057,-3.2456692e-13,0.52526695,-1.0619698,-0.08592589,0.6266565,2.9574027e-11,7.384723e-14,0.16744041,0.09827933,-2.71482e-05,4.8523273e-13,0.05148206,-9.7394245e-12,-4.956009e-13,-4.5925964e-07,-0.2574033,0.5722829,3.3238154e-10,-0.6295998,1.05103974e-10,0.8387422,-8.455564e-11,3.0508186e-13,2.6776124e-13,2.502094e-13,1.5020152e-09,2.5296415e-13,-3.0643333e-12,3.4891155e-13,-1.2785747e-10,1.0154101e-09,-9.332624e-13,3.054888e-07,-2.6845076e-14,-6.6888376e-14,-9.861024e-08,-0.4830376,3.1495326e-10,-4.549185e-13,-2.5408347e-11,-9.182032e-13,0.26998267,4.4956348e-13,1.7874841e-13,-0.14287467,-0.20760752,0.026958253,0.5351138,3.7009995e-13,0.05250377,2.539505e-13,0.29986122,-0.31442386,-1.3360517,0.0230121,-1.1771249e-11,3.7624005e-13,-0.056202777,-0.46404523,-0.00012596234,4.906593e-13,-0.8060762,4.012231e-12,-9.676271e-13,-7.425093e-08,-0.26933014,-0.23858017,-3.253632e-11,0.059557557,9.640473e-11,-0.83066005,3.9188396e-11,-4.910288e-13,3.1710021e-13,-4.2685704e-13,-9.72141e-10,7.784495e-13,7.1591127e-13,2.1810657e-13,1.0580327e-10,-1.3390462e-09,-1.1439575e-12,2.796845e-07,2.0103082e-13
-3.3855254e-13,1.1177099e-07,0.3595654,-2.912002e-10,-5.237844e-13,-3.5274263e-11,-4.5716885e-12,0.39235184,-2.284192e-13,6.807575e-14,-0.31471583,-0.03891899,-0.50545853,-0.5170282,1.4251603e-13,0.53688854,3.3485253e-13,-0.62459964,-1.2977746,0.042815644,-0.46372443,-6.3952706e-12,4.258515e-13,-0.5621629,0.3656625,3.7123427e-05,2.7596258e-13,0.07837401,1.0152605e-11,1.2265563e-12,-1.380615e-07,-0.5196672,-0.070140086,-6.406844e-12,0.7897645,6.9013123e-10,0.5938868,9.762831e-11,6.7945324e-13,-2.1647996e-13,1.8329014e-13,-1.1758784e-09,4.3162178e-13,2.4186946e-13,1.7704482e-13,7.416963e-12,3.553275e-09,-3.322384e-13,1.3953296e-07,-3.547817e-13,-7.8662424e-13,-8.724513e-08,-0.09230679,-7.9023416e-10,-4.1881543e-13,-9.2893776e-11,-2.6973094e-12,-0.5433671,-5.9612786e-13,-6.5225006e-13,0.04935273,-0.27067345,0.14345129,0.038550496,2.4790012e-13,0.27866355,-6.040956e-13,0.23332998,-0.72085834,-0.772062,0.19536202,6.4257566e-12,1.6695311e-13,0.86279386,-0.17168732,-1.4523885e-05,-3.3913153e-13,-0.40695977,1.0632806e-11,5.819612e-13,-4.5023276e-07,-0.32321572,0.6301085,1.6970156e-10,0.08222153,2.538196e-11,-0.6688609,7.9625695e-11,-1.4252134e-13,-7.067166e-13,-2.806479e-13,1.5814424e-09,-7.6895006e-14,-2.6363332e-12,5.119272e-13,-6.74541e-12,-3.1801123e-10,3.0274839e-13,-3.8423462e-07,-1.3409707e-13
6.6472294e-13,3.0392437e-07,-0.29337734,9.630976e-10,3.450229e-13,4.661902e-12,2.9497364e-12,-1.1524779,1.5385062e-13,6.3370874e-13,-0.4583435,-1.0693983,-0.6335528,0.5670215,5.5653756e-13,0.07053004,-1.6010102e-13,-0.014141932,-1.19552,0.5255214,0.7439799,7.52104e-12,1.8386724e-13,-0.36184448,-0.110052995,3.779892e-05,4.2951992e-13,0.3004832,6.5720853e-12,-2.8901382e-13,1.6458122e-07,-0.52126455,-0.1111209,-9.187175e-11,-0.12769942,6.0019134e-10,0.4026343,-3.458991e-11,-2.0708053e-13,-2.0305713e-13,-4.878957e-13,-1.0877539e-09,4.5192837e-13,4.4519917e-12,-3.4590728e-13,3.7516457e-10,-1.2336485e-09,-1.7957895e-13,2.5524696e-07,-7.922276e-14,1.1541455e-13,-5.963714e-08,-0.18237151,1.1116033e-09,-2.9308912e-14,4.4319798e-11,3.6697495e-13,-0.3783176,-5.2445754e-13,6.390477e-13,0.03240086,0.21888414,0.45603713,-0.37937385,3.9259828e-14,-0.78693813,2.4836646e-13,0.9224389,-1.2676017,-0.08614515,0.14473455,-2.4914074e-11,2.3336153e-13,0.85127836,-0.3926327,-0.00030468788,-2.3018913e-13,-0.6117804,-2.7452123e-12,-2.4074375e-12,-1.7116788e-07,0.768815,-0.33703625,-8.190083e-11,1.0055324,1.5537419e-11,-0.8647186,-6.807519e-11,-8.2020865e-13,4.0853933e-13,-2.1822469e-14,1.2988968e-10,-9.947399e-14,-4.413824e-13,-1.9809946e-13,-1.4691957e-10,6.7052516e-11,-3.6440832e-13,-5.560232e-07,-8.781989e-14
-2.009047e-13,-2.2535275e-07,0.066081576,-6.0735555e-11,-7.362929e-14,-6.564191e-11,1.4902413e-12,0.30310863,-2.0384077e-13,5.435306e-14,-0.59579784,0.08772349,-0.32501027,0.30530205,-1.2135208e-13,-0.5981642,3.624536e-13,0.31571615,-1.2242516,0.52611595,0.051436078,3.4764828e-12,-5.733817e-14,-0.24415994,-0.5607009,8.334194e-05,4.1932663e-13,-0.6278724,-2.8349135e-12,-7.525609e-13,2.8626016e-07,0.92300844,0.90473497,-1.6280591e-10,-0.20410651,2.1400405e-10,-0.033308316,-9.291835e-12,-1.8229722e-13,6.0595344e-13,2.937643e-13,5.01533e-10,2.899433e-14,4.26786e-13,-1.0966125e-13,1.0845878e-10,-2.017472e-09,-5.774885e-13,-1.0106778e-06,3.1997706e-13,-1.1195813e-13,2.0757368e-07,-1.0081999,-3.4543687e-12,4.1133728e-13,-1.3541274e-10,-1.5345394e-12,-0.49228132,1.9241016e-13,1.1985611e-13,0.59372896,-0.62555975,0.024213897,-0.106146224,4.6272296e-13,0.4476394,-6.5035325e-15,0.21995467,-0.43977833,-1.2964203,-0.25135455,-3.206724e-12,1.3864859e-14,0.25415552,0.1827977,5.142862e-05,8.688565e-14,-0.048340656,2.9909528e-12,-7.748738e-13,2.133453e-07,-0.40900508,0.20062236,-1.5690801e-10,-0.26567587,3.5992037e-10,-1.1800165,4.2744013e-11,-2.98534e-14,-7.6210625e-13,-9.127535e-14,-2.9962716e-10,3.4233166e-13,-7.761629e-13,5.768785e-14,-2.0404853e-10,-3.0513436e-10,2.5492065e-13,-8.353298e-08,2.032338e-13
4.886552e-13,6.7029184e-08,0.60984844,-2.8805675e-10,7.629855e-13,1.2825413e-10,-5.71582e-13,-0.4898575,-1.6159882e-13,5.004931e-13,-0.7448708,0.042889837,-0.5543908,-0.14714643,-5.679603e-13,-0.049718726,-6.4887345e-14,-0.3958242,-1.0269542,0.3160007,-1.1212257,2.455052e-11,4.3990118e-13,-0.37395903,-0.40359032,-1.5636311e-05,2.844278e-13,-0.93138367,1.6292058e-12,6.9018944e-13,1.8751976e-07,-0.15926352,-0.32802892,2.7242365e-11,0.29820698,5.482282e-11,-0.21969257,-5.8287524e-12,-1.7571694e-13,-4.8041866e-13,-2.784883e-14,3.1310796e-10,4.815213e-14,-2.7962112e-12,4.106974e-14,2.4919325e-10,-1.7996902e-09,-2.4113744e-14,-3.8022844e-08,-2.2003097e-14,3.172602e-13,1.7051002e-07,0.43850765,2.0785448e-10,-1.296588e-13,-2.3027462e-11,1.8866822e-12,-0.4435647,-6.334534e-14,-1.6714131e-13,0.472339,0.76752704,0.59053284,0.107147284,-2.563723e-13,0.103435226,-3.565796e-13,-0.11144883,-1.0986326,-0.7630443,0.11291647,1.3593762e-11,-3.970424e-13,-0.20404822,0.37306845,9.933638e-05,5.15358e-13,0.66222256,-5.699279e-12,-5.8860496e-13,5.646014e-07,0.9544321,-0.5512607,1.2104233e-10,0.5694493,1.087953e-09,-1.0142814,6.317922e-11,-6.5508807e-13,5.788878e-13,1.2835287e-13,-9.2150443e-10,-5.038823e-13,-3.5083264e-14,-1.9155467e-13,1.5820974e-10,-1.4656464e-09,-6.084312e-13,9.609895e-07,-5.3180388e-14
-3.4554963e-13,-2.0644761e-07,-0.4190725,-2.5935795e-10,-6.0482684e-13,-3.146439e-11,4.7279676e-12,0.38940066,-1.6231943e-14,4.3581293e-13,0.048876885,0.1238714,0.0627704,0.0422192,2.9776404e-13,0.008840145,-2.474684e-13,0.43395656,-0.812188,0.9825393,-0.027748225,6.1457167e-12,4.7620084e-13,0.0059261695,-0.2062816,-9.773145e-06,1.0574617e-13,-0.4890539,-2.2908541e-12,-1.0016224e-12,-3.509595e-08,0.5341196,0.05134772,6.6149995e-11,-0.18119183,2.344953e-10,0.29937953,4.7076183e-11,-3.1629292e-13,-2.8260976e-13,6.773526e-15,-4.1061105e-10,3.324237e-13,1.1674411e-12,2.1128604e-13,-1.3684451e-11,-5.0393606e-10,8.7995366e-14,5.1165296e-07,-2.0103033e-13,4.079306e-13,-4.4375472e-08,0.14126335,2.3793717e-10,1.0887957e-14,-4.371286e-11,1.6884335e-13,0.1801881,-4.0510336e-13,2.9637555e-13,-0.06481178,0.7773331,0.8431256,-0.13397548,-4.598026e-13,-0.34868148,3.1996763e-13,0.44498417,-0.595727,-0.66792583,0.052007724,1.6864482e-11,-5.6087426e-13,0.30863738,-0.25891227,-9.947529e-06,4.970198e-13,0.9433227,-5.580005e-12,2.5793273e-13,-9.001022e-09,0.32641247,0.02396134,7.308429e-11,0.0049770437,7.281547e-12,-0.4875895,-1.22699455e-11,-4.4576918e-13,-6.025611e-13,2.8251726e-13,-1.0790789e-10,-3.9985363e-13,-7.072455e-13,-6.815902e-14,-6.260029e-12,2.2924374e-10,2.7508323e-14,6.173721e-09,-3.5555735e-13
-3.336797e-13,1.03086705e-07,-0.056327824,-5.158354e-10,-4.6263904e-13,1.2355808e-10,-1.46193e-12,0.47386742,-3.429096e-13,2.764057e-13,-0.2701853,0.14108643,0.15271682,-0.24550073,2.0015059e-13,-0.0035613503,3.51674e-13,-0.5059337,-1.2255714,1.2891567,-0.3864571,2.177725e-11,-2.6662605e-13,-0.4675032,-0.2721202,-1.7453147e-05,1.1164165e-13,-0.083582796,-2.1041998e-12,1.3671107e-12,8.052888e-08,-0.07339884,-0.22221252,-3.7276796e-12,0.20513625,-9.688143e-11,0.28263718,-5.1494115e-11,4.4039845e-14,-3.278548e-13,-3.6106643e-13,-2.0751951e-09,-4.295342e-13,-9.552879e-13,-1.5359992e-13,1.9877648e-11,7.28634e-10,7.0417576e-14,-4.5756912e-07,-4.0400317e-13,-4.8182866e-13,-1.7530633e-07,1.2219452,1.1018744e-09,-2.0415503e-13,-5.711545e-11,-4.8414723e-14,-0.34080106,3.51976e-13,-7.695125e-14,0.28794694,0.20858844,0.17987782,0.43715623,-1.5886598e-14,-1.3011789,1.7245135e-13,-0.35186833,-0.13875437,-0.20645694,-0.27925256,-7.475329e-12,-6.3922197e-13,0.5911269,-0.22917502,0.000113672635,-4.625027e-13,1.0982432,4.6595384e-12,1.683843e-13,-6.50982e-08,0.4288742,-0.13825138,-6.807767e-11,-0.2513814,-5.19685e-12,-0.5150864,6.431819e-11,2.521799e-13,2.4610075e-14,-3.648455e-13,7.835571e-10,2.2809266e-13,3.0605444e-13,1.0555362e-14,2.4671137e-10,5.941644e-10,-1.7954605e-14,8.7666837e-07,2.2416406e-13
-6.833789e-13,-6.607086e-08,-0.37461856,-1.4144581e-10,6.319563e-13,1.2844675e-10,1.8485881e-12,0.35478827,2.4334254e-13,-1.7558437e-14,-0.26787513,0.035361838,-0.68771505,0.09251873,-2.7782673e-13,0.09387149,1.1574861e-13,-0.7752435,-1.3161272,0.9825064,-0.024916664,-2.6252292e-11,-5.192853e-13,-0.4048134,0.061805725,-0.0001673625,9.8158244e-14,0.013201574,6.4796974e-13,-2.8274692e-12,-2.7584812e-07,-0.37617683,0.55493015,-8.644781e-11,0.7234531,-7.888684e-10,0.22740598,-6.719269e-11,-4.9491894e-13,7.0237707e-13,2.9438024e-13,3.0331242e-09,-5.516288e-13,7.6502324e-13,-7.4984165e-13,4.012639e-11,-4.1837285e-09,-2.1770856e-13,-5.4414767e-07,-4.2051898e-13,-4.6626494e-13,-1.4928174e-08,-0.26824006,-2.406667e-10,-6.717367e-13,2.726062e-11,6.071597e-13,0.5289273,4.342414e-14,6.1198713e-13,-0.7283692,-0.27461284,0.48765084,0.090496376,-5.550776e-13,0.4869238,6.6038104e-13,-0.09086457,-0.52848405,-0.78711504,-0.024250166,3.058246e-11,-2.7641664e-13,0.039089523,-0.83524466,0.00012615077,-2.3957252e-13,1.2922844,-5.4837497e-12,1.6141826e-12,1.1957212e-07,0.57071215,-0.6662412,4.2984555e-10,-0.7152209,-7.481013e-10,-0.013146287,8.818349e-11,2.5679404e-13,8.3476655e-13,-7.076436e-14,2.1031843e-09,5.115423e-13,5.410405e-13,-9.000546e-13,-3.3311467e-10,-1.3504882e-09,2.032812e-13,-6.820033e-07,3.9705202e-13
2.5144782e-13,3.7030787e-07,0.46637973,3.4521735e-10,-1.8967044e-13,-2.139974e-11,-1.1171942e-12,0.82675517,2.956723e-13,-3.4366604e-13,-0.60494006,-0.91047555,-0.19706883,0.1728908,-5.904358e-13,-0.5514307,1.4860913e-13,0.27296156,-1.4506764,0.5686491,0.3799383,3.8114243e-12,-3.1109013e-15,-0.038135737,0.50350356,5.6846957e-06,-4.4703675e-13,-0.53588724,8.498149e-12,-6.175336e-13,2.5120758e-07,-0.09647409,1.1191632,1.6120114e-10,-0.3542364,1.7524728e-10,0.79748964,2.488669e-12,-3.4870587e-13,-2.435348e-13,1.4931979e-13,2.157973e-09,2.2756254e-13,-3.0088026e-12,3.9607494e-13,-3.0344557e-10,-9.14291e-10,-1.0293539e-12,-6.698351e-07,4.593432e-13,2.7351981e-13,2.6333474e-08,0.17396206,1.1668069e-10,-8.7683745e-13,-1.7654861e-10,1.0448041e-12,0.36714894,-6.447962e-14,-1.2636989e-13,-0.07807584,0.31637782,0.32587373,-0.16891296,-6.396444e-13,0.70353824,-3.359407e-13,-0.0037752744,-1.2949909,-0.7424594,0.07420857,1.5033745e-11,2.4321148e-13,-0.39011157,-0.04744146,6.6427034e-05,-7.064976e-14,0.8546551,6.4510784e-12,-2.7283638e-12,-3.315253e-07,0.32266027,-0.14247838,3.5782133e-10,-0.5401292,-4.1551723e-10,0.33906513,1.4411572e-10,6.205448e-13,-4.1984992e-13,5.318765e-13,-2.7902294e-09,-2.820308e-13,2.0571162e-12,3.4113337e-15,-3.2106168e-10,1.1498819e-09,-4.6582226e-13,8.950172e-07,1.8928197e-13
3.990279e-13,1.4594958e-07,0.64050925,-9.379117e-11,6.1436235e-14,1.5693077e-10,2.593105e-12,0.00081440154,2.1092031e-13,-1.9631486e-14,0.6539109,-0.04973659,-0.07039311,0.41831228,-1.9057393e-13,-0.4459984,-2.4177546e-13,-0.35630023,-1.4161403,0.7289098,0.24395509,-9.246347e-12,-2.1184073e-13,0.37229392,-0.57932043,0.00014835429,-4.1371707e-13,0.22757322,-6.610279e-12,4.0886844e-13,4.144901e-07,0.1679264,-0.423732,-2.3356424e-11,-0.09816376,-4.6799675e-10,0.64448553,2.6689324e-11,4.0497607e-13,3.7746645e-13,-2.853677e-13,6.5487343e-10,-7.7223216e-13,-3.5874047e-12,1.0826171e-13,-2.9112643e-11,1.5300963e-10,-8.696059e-13,6.490122e-07,4.5438235e-13,1.0326832e-13,-6.950064e-08,-0.36800057,1.1978296e-10,1.2055938e-13,1.9875614e-10,-2.212244e-13,1.1459187,3.4794333e-13,-3.2623006e-13,-0.53950495,0.26270053,0.09145026,-0.6871908,2.1579087e-13,-0.7169496,-1.976921e-13,-0.30315304,-0.4999317,-0.30430585,-0.1501324,1.6550369e-11,-2.0058651e-13,-0.09049749,0.27814767,7.1149945e-05,2.4032827e-13,1.1762059,1.6646501e-13,-2.018691e-12,-2.6955894e-07,0.21570121,-0.25395817,1.4831237e-11,-0.1069161,3.8503617e-11,0.06498179,-1.11898435e-10,-1.5574564e-15,4.8094493e-13,9.972852e-14,8.717313e-10,2.5929438e-13,1.525775e-13,2.653487e-13,9.467411e-12,-1.5678073e-10,-4.8032e-14,-5.333017e-07,-3.840673e-13
-5.5224347e-13,-4.062651e-08,-1.0030633,5.0944412e-11,4.8619745e-13,2.352744e-11,-4.242115e-12,-0.23536411,-8.970587e-14,2.7982198e-13,-0.0037296377,0.29393917,0.16028967,-0.8287083,1.888916e-14,-0.048622735,9.773161e-15,-0.8767595,-1.018121,1.4762028,-0.00853501,6.5175166e-13,1.08727046e-13,-0.43332663,-0.07735132,-5.452753e-05,4.275498e-13,0.22076203,7.2092068e-12,-1.4797948e-12,2.3940947e-07,-1.0690156,-0.61122614,-3.9261774e-10,-0.028790329,1.9940147e-10,-0.41482356,7.2998406e-11,-4.4798006e-13,-6.6098846e-14,2.7884693e-13,1.0432017e-09,2.2631297e-13,1.7543343e-12,2.0778069e-13,-8.98688e-11,-3.739334e-09,6.4883835e-13,-7.1513097e-07,2.7675315e-13,3.5621067e-13,5.6650947e-08,0.13938694,1.4839217e-09,1.8514216e-13,-7.2739946e-11,4.991087e-13,0.06854665,-3.2132578e-13,2.38065e-13,0.48536155,-0.8221138,0.2613916,-0.5055672,2.764431e-13,-0.07481391,2.9185232e-13,0.21197052,-0.8371067,-0.27089238,1.6602566,1.2207939e-11,-3.8572812e-13,-0.7564895,-0.09597942,8.075366e-05,-6.7763644e-13,0.24044022,1.06758005e-11,1.4316302e-12,-9.2333806e-08,0.4226871,0.9238238,-1.5496486e-10,-0.26924053,-1.6639387e-10,0.15572423,-4.0252964e-11,-2.4947343e-13,-1.44214e-13,-3.8671356e-13,2.712152e-09,-4.015585e-13,-1.3791557e-12,1.0049256e-13,-7.563081e-11,-5.265319e-10,7.469894e-13,5.892801e-07,2.720827e-13
-1.8481366e-13,-4.1258975e-08,0.3885076,3.673869e-10,7.0626854e-14,-7.326838e-11,4.9988605e-14,-0.3204606,5.209847e-13,9.347471e-14,0.23825325,0.38136217,-0.0069975085,0.098466724,4.722671e-13,-0.66189265,4.836909e-13,-0.586458,-1.3848416,1.1335471,-0.35090196,1.1905374e-12,5.050085e-13,-0.4396701,0.16972156,-2.8383067e-05,1.2115283e-13,0.17687525,-2.3331567e-12,7.110396e-13,6.8891666e-08,-0.1842671,-0.02608854,3.3753356e-10,0.4404284,-1.1053067e-10,0.31639773,1.7972301e-10,1.6873956e-13,-1.509269e-13,-3.687653e-13,-1.6671364e-09,-3.7326094e-13,2.2640913e-12,-8.8030765e-14,3.532727e-10,1.4387669e-10,-1.4272016e-13,1.9038391e-06,-3.0419092e-13,5.1114657e-13,1.9111049e-08,0.29565313,1.1711214e-10,-3.8618398e-13,-4.225139e-11,2.28619e-12,0.3161385,-5.1196265e-13,6.3246603e-13,-0.2508113,0.6804219,1.2465484,-0.590846,-2.696196e-13,-0.24884693,-4.222408e-13,0.21616955,-0.35213855,-0.11867711,0.25130558,-1.3246532e-11,2.708645e-13,-0.012628574,0.21693623,0.00016690968,5.359775e-13,-0.13657741,-2.532231e-12,-1.7395957e-12,-7.3385854e-07,-0.17813838,0.43527144,-2.7900054e-10,-0.1401955,4.675223e-10,0.4617324,-2.7997063e-11,6.844738e-14,5.965123e-14,-3.580079e-14,6.61989e-10,7.5333197e-13,-2.476128e-12,2.9642692e-13,1.8676505e-10,1.1815691e-09,1.2579315e-13,-2.8064127e-07,-3.271245e-13
-3.117521e-13,-6.305534e-10,-0.4267605,1.4178303e-10,1.5950023e-13,1.572542e-10,-1.6425303e-12,-0.33743474,-8.3219456e-14,-2.3918183e-13,-0.027034985,0.7021596,1.0950456,0.10329321,-9.9292455e-14,0.022405976,-3.0810055e-13,0.08895883,-1.1291093,1.4993227,-0.5061379,-8.169441e-12,-5.038559e-13,-0.3050983,0.2821676,2.640128e-05,-1.5768436e-13,0.89893204,3.4008252e-12,1.8618332e-12,-4.4592747e-07,-0.58996403,-0.33397594,-1.0886989e-11,-0.12673481,1.6780504e-11,0.26730877,1.7553927e-13,-5.3287236e-14,-2.8408526e-13,1.7541739e-13,1.5281527e-09,4.6983636e-13,2.201895e-12,-8.304029e-14,1.659043e-10,5.120763e-10,-1.708617e-13,-5.660787e-07,-1.972965e-13,3.8815197e-13,-2.2386266e-07,0.3921084,1.1642429e-09,1.923354e-13,-3.8195083e-11,3.949847e-12,-0.2570354,-3.1618423e-13,3.9555333e-13,0.4251051,-0.041420355,0.26543647,-0.30079672,-7.2560393e-13,0.5023646,1.6219464e-13,-0.67458653,-0.07809881,-0.27807,-0.28603858,7.2018975e-12,-7.6519574e-14,-0.017640293,0.11549393,8.447637e-05,5.753756e-13,-0.60018575,-6.4009063e-13,7.0666346e-13,-1.0082434e-07,-0.32084912,-0.19697335,1.7268728e-10,0.14004767,2.3062385e-10,-0.24791089,-1.817575e-10,5.574382e-14,1.4779939e-13,3.087393e-13,4.7904736e-12,-6.4582454e-14,1.6340992e-13,-4.3133948e-13,-2.76816e-10,1.0089137e-09,6.945152e-13,2.2284651e-07,-2.4025386e-13
-5.1085264e-13,1.14100175e-07,0.7537896,-9.876496e-10,3.187883e-13,-6.832195e-11,1.886198e-12,-0.69887954,1.9656282e-13,-2.8651747e-13,0.253492,0.26144513,0.73122334,0.21478015,5.328017e-13,-0.4560427,-5.928282e-14,0.0069932397,-0.99990577,1.0575727,-0.4028081,1.6127955e-11,2.5384035e-13,-1.2579286,0.5314525,-8.285584e-06,5.4069542e-14,0.43979952,4.5054325e-13,-7.472735e-13,-8.696521e-08,-1.1527694,0.04437244,7.334262e-11,-0.04701159,4.632631e-10,0.36881667,-5.5109733e-11,-2.91417e-14,-5.114548e-13,-7.824801e-13,2.8704955e-10,-2.7259293e-13,1.6351601e-12,-5.5095387e-13,7.4087014e-11,-3.1546352e-10,-4.0070383e-13,2.8491672e-07,3.954703e-13,-7.2856223e-13,-6.07271e-08,0.17271899,8.200455e-10,9.05569e-15,8.978136e-11,-1.8759482e-12,-0.44850683,-3.3655216e-13,1.903945e-13,-0.08361705,-0.8579126,0.39507937,-1.071242,-1.1290868e-13,0.6675888,2.3817116e-13,-0.612958,-0.5134864,-0.55153304,0.8730977,-4.8845377e-12,-1.434232e-13,-0.062423553,0.48895246,8.04104e-05,-1.3610292e-13,-0.41261572,9.460192e-12,-4.1455758e-13,1.6488714e-07,0.13753214,0.3997319,-3.0036182e-12,0.56864744,-5.485993e-10,0.34637848,8.449116e-11,-1.18729625e-14,6.3920527e-13,-1.4653139e-13,1.4422641e-09,3.5727896e-13,3.685758e-12,-3.59679e-13,6.2244696e-11,1.8020114e-09,4.7163255e-14,-7.5763296e-07,6.135484e-14
4.0951086e-13,1.7202473e-07,0.20931692,-9.556616e-12,-5.00563e-13,1.5849765e-10,8.4595807e-13,-0.026022322,-5.8849925e-13,-4.54911e-13,-0.39504564,0.46940184,0.19209886,0.34683144,-2.9203544e-13,0.2999183,5.4502485e-13,-0.122511126,-1.1690595,1.4346877,-0.3117998,7.773036e-12,-8.1474026e-14,-1.0063488,0.19086456,-4.1164887e-05,3.069669e-13,0.70626336,-1.2276301e-11,-1.4992293e-14,-3.515331e-07,-0.5561885,-0.33290127,-2.0855542e-10,0.51440805,-4.7512855e-10,0.711272,-7.128928e-11,1.2457808e-14,-1.549712e-13,3.2483375e-14,-1.2596244e-09,2.8356535e-13,1.0092628e-12,1.01099494e-13,-7.2182815e-11,-7.2891165e-10,8.1408177e-13,-1.0623563e-06,5.369029e-13,-2.869695e-13,-3.128101e-08,0.27361995,-7.9937384e-10,5.8059894e-13,-2.8167852e-11,-2.5396592e-12,-0.66087496,3.1930432e-13,-3.9110322e-13,-0.38288325,-0.9980587,0.21298651,-0.75831425,4.748738e-13,0.96555674,-3.936974e-13,-0.62659186,0.22735356,-0.666504,0.2427315,5.0096385e-12,2.1901936e-13,-0.18060651,0.23300658,-0.00010158947,3.001525e-13,-0.72482795,7.73207e-12,1.1297741e-12,-4.10261e-07,0.2368247,0.65704566,-4.1778137e-11,-0.09956437,-1.882888e-10,0.21317911,2.8897083e-11,-4.82607e-13,-4.1861767e-13,-4.9142846e-13,-1.6405939e-10,6.5652345e-14,-5.3870374e-13,2.1013284e-13,7.499718e-11,2.6354335e-10,1.5520704e-13,7.9237975e-07,2.2307693e-13
-5.536836e-13,-4.3399258e-08,0.82068473,-9.310576e-10,-7.263916e-14,2.3137197e-11,-3.2148817e-12,-0.55847436,-5.37058e-13,5.72277e-13,0.6374314,0.6347644,-0.04996555,0.3094615,-5.2255905e-13,0.4352023,4.635154e-13,-0.15849522,-1.0276334,1.3234555,0.056372803,-4.517229e-12,4.56359e-13,-0.77597106,-0.33379546,-0.00024242651,3.4623902e-13,0.23103277,6.928991e-13,-7.028438e-13,-1.784653e-08,-0.9197983,0.53906906,2.1456324e-10,-0.5298235,-1.0139371e-10,0.08959167,1.0075023e-10,6.011839e-13,-4.2167073e-13,1.3946852e-10,-6.787615e-11,2.8351575e-13,7.6953645e-13,5.919246e-13,1.0966668e-10,-5.064663e-09,-8.215283e-14,9.3111674e-07,3.5267386e-13,3.9669464e-13,1.892995e-08,-0.10725938,1.1060619e-09,-1.4439185e-13,-2.016633e-10,-6.7366533e-13,-0.114964984,-6.2152063e-13,1.4014765e-13,-0.63138276,-0.48356494,-0.022028046,-0.0015084967,-2.0248164e-13,-0.14733125,4.551498e-13,-0.8051864,-0.27091452,-0.19644865,0.7763735,1.0934049e-11,2.0556338e-14,0.022972243,-0.54977363,0.00013889564,-3.249267e-14,-0.28097498,4.9088e-12,-1.6894233e-13,8.376443e-09,0.28967133,-0.70263666,5.0545092e-11,0.6871831,1.2261833e-10,0.35621202,-9.634857e-11,-6.1810203e-13,3.4687476e-13,2.5550688e-13,-5.560184e-10,1.7522919e-13,-8.4016626e-13,4.210944e-13,4.3719084e-11,-1.1481985e-09,-5.263006e-13,6.8926823e-07,-4.7739764e-13
2.3651626e-13,-1.1335159e-08,0.04176905,-5.364545e-10,-1.8702254e-13,-3.2084085e-11,4.9155046e-12,-0.7642673,-2.9618915e-13,-1.30894e-13,0.42690438,0.8095024,0.16575916,-0.20782532,6.815985e-13,-0.65184313,-1.9240978e-13,0.43879104,-1.0221386,0.8579443,0.5377931,2.7607631e-11,4.796477e-13,0.17285925,-0.21530089,7.83881e-05,-1.7902701e-13,-0.120658815,1.6335485e-12,-2.3213774e-13,1.1769703e-08,-0.21258266,0.3145877,-2.1118704e-10,0.7958909,-4.1596687e-10,0.32527226,-1.2325835e-10,-3.5780257e-13,1.09489e-12,-5.516582e-13,2.506374e-10,2.225268e-13,-4.445691e-12,-3.4310003e-13,-6.3324138e-12,-2.9271222e-10,8.026067e-13,-2.3507018e-06,4.0057863e-13,5.1903815e-13,-1.799676e-07,0.64206916,-6.223049e-10,5.4928154e-13,-1.7988685e-11,-9.19867e-13,-0.5389867,6.537352e-13,5.2249004e-13,-0.62131345,-0.63898736,0.037091196,-0.22190075,6.96953e-13,-0.052431136,-4.195484e-13,-0.028372755,-0.330408,-0.14974642,1.1733711,1.7409709e-11,-3.1209605e-13,-0.7116487,0.3578244,2.6099533e-05,-5.6079273e-13,-0.4373268,2.503305e-12,-4.5540665e-14,-3.1287013e-07,0.7701809,-0.6685517,-2.347654e-11,-0.57001156,-1.7650377e-10,-0.275221,-4.2927956e-11,-7.277472e-13,1.4530881e-13,-3.9835014e-13,1.0526156e-09,4.05435e-13,-1.526816e-12,-6.660669e-13,-4.829655e-10,-1.8047179e-10,-2.8080354e-13,-2.847959e-08,3.172078e-13
-1.09027e-12,-2.904721e-07,0.23449498,4.820295e-10,-3.416017e-13,1.4122999e-10,4.8906734e-14,-0.5056543,-4.0187084e-13,-1.8433226e-13,0.68376607,0.4694766,-0.6923649,-1.0137166,-5.3696427e-14,-0.2657051,4.935977e-13,0.41487697,-1.5201399,0.640065,-0.043417454,-8.6302493e-16,3.041154e-13,0.0030114502,-0.6056266,3.295517e-05,6.471703e-13,0.4382955,-1.403905e-12,1.8811812e-12,-2.5140758e-07,-0.9257728,-0.1809622,-5.1371803e-11,0.21042433,2.81977e-10,1.1079999,-2.1190612e-11,-3.1579015e-13,-1.61537e-13,-2.7307366e-13,1.166396e-09,8.000972e-13,1.559654e-12,3.467176e-13,8.550638e-11,4.687405e-09,-5.650628e-13,1.223296e-07,4.4901168e-13,1.1523627e-13,1.1236681e-07,-0.031308748,-4.8836754e-11,6.8765387e-13,-1.3530908e-10,3.5151385e-13,0.08252344,-5.0561145e-13,2.1733055e-13,-0.7189753,-0.33915076,0.101193815,0.22524294,4.072187e-13,1.2296727,-1.6872376e-13,0.6784172,0.5926702,-0.25667953,0.38946727,2.1188867e-12,8.307717e-14,0.35994008,0.34849745,-0.00012584002,7.871733e-14,-0.51695186,2.5232316e-12,-2.1036552e-13,5.595633e-07,-0.48048845,-0.24078973,1.4751984e-10,-0.10596022,3.2956185e-10,-0.358881,1.4224026e-10,-4.944586e-13,2.5153452e-13,-2.6497367e-13,-7.548746e-10,2.9781922e-13,-8.8601544e-13,-4.510439e-13,-1.675912e-10,-9.937786e-10,-2.360362e-13,1.7123001e-07,1.5859333e-13
-8.396672e-13,-4.8984855e-08,0.49999416,6.070146e-10,-5.049013e-13,5.8633584e-11,1.1609866e-12,-0.26578864,-6.747036e-14,8.9128276e-14,-0.100052245,0.44461605,-0.27236432,0.23511921,-5.6414297e-13,-0.13316812,2.181763e-13,-0.0009195348,-1.2613584,0.8800496,0.034622654,3.9918433e-12,-5.3122952e-14,-0.06371963,-0.74087405,-1.1219524e-05,-1.8797144e-13,-0.4215081,-1.4432909e-12,1.0050935e-12,2.7712545e-08,-0.0069055166,-0.121822245,-2.8412808e-10,0.41683897,-2.8650353e-11,1.7639283,-1.6128151e-11,2.2777608e-13,-8.296047e-14,-3.5604795e-13,-9.806082e-10,4.6313745e-13,-1.972702e-12,4.6279993e-14,-2.9011957e-10,-2.8402096e-09,3.55133e-13,1.1398989e-06,-3.3200423e-13,9.356258e-14,-2.9808934e-08,0.28557807,-4.739003e-11,-3.8899073e-14,-3.1525914e-11,-4.2901242e-12,0.39059013,-6.2433354e-13,1.9351713e-13,0.3234705,0.32853588,1.2846941,-0.04247465,3.034605e-13,0.38697374,4.59995e-13,0.526705,-0.028704556,0.2719758,-0.254963,-3.663542e-12,-3.3824273e-13,0.140473,0.806529,5.3645155e-05,2.1927355e-13,-1.3120136,-2.5695895e-12,4.3216553e-13,5.7014614e-07,0.22206058,0.4690129,-1.2957112e-10,0.038177077,-5.274265e-11,-0.38804126,4.7018327e-11,-2.435384e-13,8.502544e-14,-2.1275569e-13,2.317256e-09,5.815807e-14,-2.221362e-12,2.355689e-13,2.0195398e-10,7.4590867e-10,-3.111784e-13,4.402143e-07,1.7796723e-13
5.5143574e-13,1.663167e-07,0.020565614,-5.065793e-10,-2.9011548e-13,5.187301e-11,-9.985588e-13,0.47682616,-4.8126374e-13,-1.1782104e-13,0.31483585,0.8492303,0.94261634,-0.72017086,3.531306e-14,-0.0734261,-2.8207308e-14,-0.28613484,-1.274709,1.0818609,0.32241672,2.677389e-11,6.411501e-13,-0.14290488,0.18467715,-0.00012295177,1.1705299e-13,0.6712113,3.548287e-12,-2.7068148e-13,-3.0937468e-07,-0.85472786,-0.050004978,6.1707913e-12,0.37994015,4.5369458e-11,0.8527528,-7.186346e-11,-1.560255e-13,2.4447986e-13,-4.2179194e-13,-3.0914529e-09,5.699465e-13,-3.996791e-12,-4.0872996e-13,-1.466062e-10,2.4206759e-09,5.248141e-13,5.159057e-07,7.934121e-14,2.0122039e-13,-4.207834e-08,-0.33845416,-2.7125407e-10,5.9729955e-13,-3.1483482e-11,-3.203386e-13,-0.12999415,-6.7756293e-13,6.3864734e-13,-0.38052624,0.14430238,0.4477086,-0.14512026,-1.4494184e-13,-0.21125133,-1.0667235e-13,-0.051189683,-0.5153073,-0.43867594,0.4170853,-5.5247126e-13,6.4376916e-13,-0.004120918,0.014787174,3.9195373e-05,-1.3925704e-13,-0.009918302,1.4148845e-12,4.0515616e-13,1.4310709e-07,-0.052233264,0.40348727,-1.889945e-10,-0.071801394,-5.3390625e-10,0.49769735,2.5455645e-11,3.9521966e-13,5.975023e-13,-4.380204e-14,-1.3475303e-09,-3.0233652e-13,1.8452694e-12,3.5588145e-13,-1.3754635e-10,5.7281646e-10,9.325163e-14,9.4790664e-08,1.3961166e-13
-1.6736978e-13,1.0214223e-07,-0.30846268,-2.5157887e-10,-2.1396178e-13,3.0858e-11,1.5711169e-12,0.37028885,-5.645587e-13,-6.4755235e-14,-0.25290716,0.78291714,1.0900273,-0.25647992,5.080849e-13,0.35001642,2.5418656e-13,-0.17103174,-1.3103745,0.805144,0.03987925,8.318289e-12,-4.332941e-13,-0.5983132,0.018918598,9.2083465e-06,-2.9939698e-13,0.12400319,1.1656821e-13,2.533042e-12,2.4104786e-08,0.36579344,0.34328458,-3.2549036e-10,0.20806578,7.476063e-11,0.4596301,1.4066888e-10,2.9355685e-13,-2.4433905e-13,3.4019857e-13,4.355763e-10,4.0136465e-13,-3.0014992e-12,-9.524323e-14,1.08484076e-10,1.4039488e-09,-3.4022825e-13,-7.817429e-07,-3.0002942e-13,-3.7442087e-13,-2.395863e-08,0.4071826,3.8757525e-11,3.1979448e-13,-5.832105e-11,1.2316584e-12,-0.7857373,3.4880573e-14,-3.6270889e-13,0.022717359,0.6032973,0.4297136,-0.16845135,3.204114e-13,-0.4446694,5.447088e-13,0.31133145,-0.292468,-0.5894876,0.029373854,-4.6073683e-12,-1.2993494e-13,-0.18096322,-0.15862319,-1.2084831e-05,-1.5819757e-13,0.41781804,8.858697e-13,6.1979214e-13,1.1823556e-07,-0.13253222,0.08557278,1.8584496e-10,-0.28391498,-1.5734919e-10,0.32763046,6.456561e-11,9.639322e-14,4.3321168e-13,4.4303265e-13,-9.55287e-10,-2.2385029e-13,3.345991e-13,2.9537475e-13,8.940407e-11,1.1501582e-09,-3.4934577e-13,5.279173e-07,6.924387e-14
3.93686e-14,9.490888e-08,-0.09587705,-1.3256449e-10,-4.288657e-13,1.126632e-10,3.4500042e-12,-0.5318054,-2.6544218e-13,-2.3414712e-13,-0.05946031,0.40820453,-0.03855923,-0.062534325,-3.6839515e-13,-0.23011985,1.0631676e-13,0.20463148,-1.7158856,0.8412888,0.9378991,-2.1976638e-11,-3.5020175e-13,-0.35190877,-0.38279977,-3.4789282e-05,-2.1102526e-13,0.36211792,-3.5069747e-12,3.523898e-12,4.6974984e-07,-0.9359313,-0.5773459,2.6158023e-10,0.3780952,-1.4817952e-10,-0.0949293,1.4439564e-11,-1.8710711e-13,6.626454e-13,8.275823e-13,3.4578382e-10,-1.2473776e-13,-4.6018614e-13,-3.3126968e-13,-7.212489e-11,-5.769172e-09,4.5068506e-13,4.1496043e-07,-2.1403208e-14,-1.2527728e-13,3.219241e-08,-0.18099502,1.2516147e-09,-5.1337054e-13,3.356137e-11,-4.1103093e-12,0.063974224,-5.592287e-13,1.2298056e-13,-0.69615704,-0.24707153,0.101339936,-0.24561562,-2.6601638e-13,0.32718834,4.1338027e-14,0.667074,-0.3166166,-1.2819604,0.1778481,1.0893579e-11,-8.629504e-14,-0.22133878,-0.14826083,-0.00015477494,-8.899218e-14,-0.42822593,9.480009e-12,-1.889152e-12,-1.4607392e-07,-0.34511903,0.3372347,-9.721795e-11,0.18653074,1.530101e-10,-0.023044612,2.3708124e-10,-5.315217e-13,7.820421e-14,1.717642e-13,-2.3976363e-09,-2.4481556e-14,2.7148798e-12,-9.0512564e-13,-6.603823e-10,1.6222063e-09,2.836728e-13,8.2405796e-07,-9.276279e-14
3.8599988e-13,-5.18735e-08,-0.08902945,-1.1294381e-10,-9.949151e-13,1.1163948e-10,-3.3710248e-12,0.3218765,-8.077428e-14,1.7607497e-14,0.5412074,0.5606319,-0.32440647,0.18650995,2.1636447e-13,0.08346224,2.7003145e-13,-0.6508394,-1.1078991,0.21480061,0.9863687,-3.1578237e-11,-3.277086e-13,-0.6158491,-0.09660699,-3.798891e-05,-1.5718828e-13,0.9428383,-3.078957e-12,-1.5883833e-12,1.2034926e-07,-0.51526296,-0.8084637,-7.847632e-12,-0.08834508,2.831283e-10,-0.6992827,2.4501755e-11,5.8127954e-13,6.197662e-13,-2.6322835e-13,-3.4809051e-09,7.5034824e-13,1.9142526e-12,6.304348e-13,-2.902828e-10,1.1159798e-09,-6.320715e-13,-7.1014676e-07,-2.9873773e-13,-2.939921e-13,9.15912e-08,-0.29525447,3.8623332e-10,4.563187e-13,9.4542235e-11,-2.8094465e-12,-0.82394826,-4.9124485e-13,-1.5766067e-13,-0.3078544,-0.4005774,-0.3303143,-0.96154845,2.6171998e-13,0.19663963,-2.9921684e-13,-0.23480098,-0.016035568,-0.7866277,0.75340104,2.415141e-12,3.3842558e-13,0.20237683,-0.9132293,-0.00010228076,-2.0041195e-13,0.010149309,-1.095759e-11,7.115736e-13,4.666739e-08,0.27765882,0.5936717,-3.6565975e-10,0.7630845,-7.8473616e-11,0.22906189,-1.2488784e-10,2.8865105e-13,9.3708244e-14,-5.970734e-14,-2.0549342e-09,-2.5755862e-13,2.255573e-12,-2.5880307e-13,3.4511274e-10,-1.9404183e-09,-2.7157242e-13,2.8469333e-07,-8.7076125e-14
