-2.2971588e-13,-2.4502912e-13,5.7796524e-12,-2.3017458e-13,-1.5393494e-13,-2.9372978,-2.4603527,3.0122333,-1.9144217,-2.0751693,7.2426635e-13,-2.6348056e-13,-1.8960066,4.7086223e-13,-3.5287154,-2.7884927,-2.340402,-1.2354832e-12,-2.0832152,3.319569e-13,7.919026e-14,-2.2116525,-2.8904917,-1.8707453e-13,4.0118356,-5.0959134e-13,-9.3352585e-14,-1.2658631e-13,-4.633186e-13,-4.4441338,4.5133934,1.4471784e-13,-1.3796451e-13,2.6986562e-13,-2.0145466,5.204766e-13,-9.951527e-13,9.638442e-14,3.9027016e-14,-1.9676582,-2.904753e-13,-2.0142172e-13,-4.722115e-12,-1.8214834e-14,-6.1949745e-13,2.0799973,2.3332362,-3.5215414,-4.4824,-2.5836267,8.7417405e-14,-1.8538141e-13,2.5847304,1.9300887e-13,2.7204459,2.0580308,-2.276133,7.663322e-14,3.4917862,-6.76696e-14,1.6074246e-13,-2.7467206,2.182681,-3.0695582e-13,4.5930843,2.9031625e-13,-7.1008276e-14,8.416926e-15,-6.761688e-14,2.9443183,-3.046803,-4.3900227e-15,5.462636e-14,5.39411e-13,-5.098791,4.0534403e-13,-4.3757963e-14,-2.1558337e-14,-1.8996607e-13,-3.3095613
-2.6145422e-13,1.411902e-12,-1.4372817e-13,3.758558e-13,-1.5163307e-13,-1.8780774,-1.9422244,-1.5795,-0.9135858,-1.2994527,5.1019356e-13,2.8940327e-13,-0.96468794,9.196963e-13,-1.327926,-1.5832019,-1.2282428,2.2349249e-14,-0.5439516,2.6525833e-13,3.856034e-13,-0.88036156,-1.5409878,7.9931375e-14,-1.7189878,-9.7395426e-14,-2.394016e-14,2.417961e-13,1.8717009e-13,-1.7804551,-1.3295045,-3.2185257e-13,-2.6296608e-13,-1.5309413e-13,-1.0623977,2.7688458e-13,-5.081396e-14,3.1364307e-13,-1.5853616e-13,-1.3090487,1.4061027e-12,2.9418075e-13,1.4110297e-12,-4.140064e-14,-1.6489799e-13,-3.0281622,-2.0585504,2.9780622,1.4118077,3.7581236,8.2623165e-14,1.9254448e-14,-1.7405899,-3.9018227e-14,-2.927846,-2.8082128,1.7541548,3.205594e-13,-1.7641362,1.9227206e-13,-4.157899e-14,1.6225233,-2.6678286,2.458551e-13,-3.5391967,1.9912643e-13,-4.7457903e-13,6.490952e-14,1.224418e-13,-2.777093,3.0309396,-5.621821e-13,-7.239616e-13,-1.0099228e-14,1.3222369,9.450407e-13,1.2730519e-12,8.7767575e-14,-4.2650388e-13,2.9466882
5.72943e-13,-4.665916e-13,-8.001626e-14,2.8687535e-14,-8.6837764e-13,-1.3527455,-1.1666304,-0.7078231,-0.34947354,1.8919038,-1.10598766e-13,3.9958065e-13,-0.5880533,-3.9907585e-14,-0.50336,-1.1623778,0.030084478,-2.1761633e-13,-0.12273261,8.2288104e-13,4.992498e-13,-0.71482456,-2.3194878,2.2812492e-13,-1.1795113,7.098338e-14,-8.581378e-13,3.6019798e-14,-1.5612693e-13,-0.52312833,-2.6718504,3.8219983e-14,-4.2458916e-13,-3.4623826e-13,-0.3217597,-1.42429e-13,7.8683235e-14,-1.554119e-13,-9.4547e-14,-1.0020257,-5.633956e-14,-4.5982765e-13,-5.1015523e-13,9.173435e-15,3.8950364e-13,-2.199437,-1.7487377,1.1764456,0.55298215,1.4494408,9.3196745e-14,4.3411748e-13,-1.2753778,1.5914464e-13,-1.3561805,-1.8706602,1.0161455,-2.899432e-13,-1.6651814,1.2789182e-13,-2.4757274e-13,1.2886018,2.551187,1.2815264e-12,-1.9189347,-5.478792e-14,8.0721454e-14,2.8402255e-14,1.8122412e-14,-0.8514689,2.6696765,1.8497243e-13,2.2643893e-13,-1.3950294e-13,0.42394334,-3.39731e-13,8.391523e-13,-6.3417826e-13,1.01040934e-13,1.7427942
1.890788e-13,-3.0725758e-13,-5.5381177e-13,-2.5782618e-13,-4.1056833e-13,2.111671,2.2474718,3.6286016,1.8257496,2.081395,-2.8165831e-14,1.8474886e-13,1.7075238,-1.3388665e-13,3.0890496,1.954176,1.3720485,8.797477e-14,2.2826953,1.5592952e-12,3.1031525e-13,2.0286324,2.5259876,7.911963e-14,4.7203197,2.197945e-13,-1.3068816e-13,-6.1997824e-13,4.8011904e-13,2.9785016,4.8118033,1.655552e-13,9.1358304e-14,2.0390916e-13,2.5041857,5.8375925e-14,-4.0868757e-13,-5.8188057e-13,1.0978058e-12,2.326417,-1.4048506e-13,2.2040907e-13,2.3445295e-13,3.9529746e-13,2.1177312e-13,-0.01837263,-0.26133895,0.4363689,0.39465475,0.04355375,1.4250287e-13,-1.469777e-12,-0.09250164,5.7415964e-13,-0.3437735,0.2094397,-0.091009304,6.2587923e-13,-0.33046198,9.460114e-13,-9.320832e-14,0.123923026,-0.17874461,-5.8336873e-14,0.21332608,-2.7931528e-14,-1.8781232e-13,2.4720956e-13,-9.564802e-13,-0.37878713,0.007866419,5.0532137e-13,9.3365216e-14,1.5813432e-13,0.42575368,4.3195666e-13,-3.043491e-14,3.159343e-13,1.0739665e-12,0.029047173
