3.732371e-08,-1.2176599e-08,-6.0000886e-08,-2.1595635e-07,-8.283195e-09,-0.44751003,0.26563495,-0.47516876,-0.49447885,-0.66101766,1.17852625e-08,-6.002996e-08,0.76590693,3.883216e-08,-0.35433385,0.32345074,-0.45557442,-5.0290513e-08,1.043975,1.128213e-07,-1.2495703e-07,-0.20349705,0.083886735,8.82162e-09,-0.019969229,6.209628e-08,-5.966986e-08,1.02567e-08,-1.0374e-08,-0.49160078,-0.21454154,4.5363702e-08,1.7155175e-08,3.8559794e-08,0.5171723,3.3760692e-08,-4.010697e-08,4.5910298e-10,-1.17162166e-07,0.8889445,6.715798e-08,-2.0302966e-08,1.7627553e-08,5.753742e-08,-1.0328933e-07,0.9683843,0.94506544,0.42732581,-0.61572593,0.6809919,-8.562502e-08,9.817665e-09,-0.6387261,1.5480786e-08,-0.8482792,-0.9085722,0.61681956,-1.4514596e-08,-0.70516115,-3.796321e-08,1.4498666e-07,0.8526021,1.079462,-1.1903934e-08,-0.055069778,1.1388088e-07,7.358294e-10,4.568162e-08,-9.913253e-08,0.41604504,-0.4324159,4.325898e-08,-8.069776e-08,-1.5422523e-07,0.6046817,1.873154e-08,1.3994169e-07,3.9446807e-08,6.695781e-08,0.72429895
-4.1154046e-08,9.37784e-08,-1.71881e-08,4.80407e-08,1.8359685e-08,-0.54700834,0.04619662,0.73537135,-0.4068876,-0.64054984,8.249319e-08,7.103685e-08,0.6920523,1.3297515e-07,-0.29390967,0.28182045,-0.43866277,-4.732494e-08,0.9785286,7.915466e-08,9.271996e-08,-0.18585564,-0.07064807,2.6164546e-09,-0.27150908,-2.0484276e-08,-3.225928e-08,6.165912e-10,6.3957915e-09,-0.5853271,-0.22823465,7.3406085e-08,-1.274472e-07,2.925443e-09,0.46114713,-3.6022811e-09,-3.8162334e-08,1.9452068e-07,-4.5004356e-09,0.83649325,-1.3299561e-07,-2.5242084e-08,5.726825e-08,2.1408113e-08,5.006836e-09,0.831692,0.87507516,0.6716764,-0.63620704,0.59133744,1.9022785e-08,-7.908959e-08,-0.610224,-1.4031185e-07,-0.8111252,-0.8960465,0.5694904,-1.3442015e-07,-0.6257784,3.4077928e-08,-1.6209821e-08,0.7886626,1.0408072,1.4915679e-07,-1.033029,3.389049e-10,2.0488311e-08,3.309004e-08,-2.6713199e-08,0.33926743,-0.79763675,8.858353e-08,1.0738333e-07,-1.2964922e-08,0.59092015,-8.722671e-09,-9.459014e-08,3.595165e-09,3.5333237e-08,0.70785385
-3.8540264e-09,1.4481589e-07,9.573566e-09,-1.9798923e-08,-4.0134733e-08,-0.04119684,0.08482587,0.003511048,-0.5342318,-0.45623732,-3.227278e-08,7.5634546e-08,0.6603849,-6.368661e-08,-0.4838826,-0.014653742,-0.47531125,8.2104435e-08,0.8721469,-6.6835895e-08,-1.4809798e-08,-0.027115384,0.22544555,6.385454e-08,-0.65604055,1.2174355e-08,-1.3752877e-07,-1.7521117e-08,-1.603583e-08,-0.1472821,0.24560171,3.5672123e-09,5.8426266e-08,6.337745e-08,0.57521296,-4.613643e-09,-3.444015e-08,5.6073304e-08,-4.2796856e-08,0.73857075,-1.0414341e-07,1.0874821e-07,5.0717915e-08,4.7334144e-08,1.7244382e-08,0.8717127,0.8158298,0.8912466,-0.19759789,0.53954005,3.883939e-08,-6.524605e-09,-0.36096913,-2.988718e-08,-0.27678365,-0.8382179,0.39119703,-4.8237027e-08,-0.33657,3.123227e-08,-4.801585e-08,0.75958264,0.93306625,6.5803536e-09,-0.43108943,-5.268781e-08,-4.3657263e-08,2.1112758e-08,-2.9113275e-08,0.5544997,-0.9161017,1.9907665e-08,-2.457482e-08,-1.00652684e-07,0.098637395,-8.548898e-09,-9.420975e-08,-1.5607373e-09,5.0476054e-08,0.4302496
-1.05689665e-07,3.5629693e-08,-3.8456808e-08,-7.4032286e-08,-7.419907e-08,-0.44506475,-0.1269497,-0.18040071,-0.8364154,-0.37932575,6.515307e-08,1.1176166e-08,0.97828776,3.0854586e-08,-0.89253944,0.40768522,-0.604568,1.3994914e-07,1.182903,-4.529441e-08,-1.6794207e-08,0.032310314,-0.48420915,1.0323767e-08,-0.86772966,7.5768405e-08,1.7550011e-08,-1.1602582e-08,-7.481095e-08,0.38023716,0.65086013,-6.0111056e-08,-1.7487244e-07,-1.2805833e-08,0.8749749,3.141406e-08,-2.816706e-09,3.17805e-08,-1.8526816e-09,1.1141557,-1.195066e-07,9.51451e-09,8.1242916e-08,7.265856e-08,-8.775519e-08,1.1256828,1.1053435,0.94068223,-0.14790106,0.9864383,-5.111781e-09,8.361595e-08,-0.26145002,-9.499396e-09,-0.018436663,-1.0926701,0.68417865,-2.7010604e-08,-0.03675607,6.457145e-08,2.7699212e-08,1.0258436,1.1265965,-8.6323055e-08,0.19679008,-1.055532e-07,4.774966e-08,1.4970617e-07,-4.3688395e-08,0.9296253,-0.8658944,-4.81025e-09,5.7339793e-08,1.14660395e-07,-0.06139853,-2.4781752e-08,1.0937592e-08,-3.5838404e-08,1.975128e-08,0.14660934
-2.7429696e-08,-1.019812e-07,8.897658e-08,4.5322388e-08,4.0544208e-08,-0.30520555,0.6143585,0.70467204,-0.54795164,-0.3646822,7.28961e-08,1.3168528e-08,0.7832126,1.4390087e-08,-0.7385642,0.11188476,-0.56612253,2.9991487e-08,1.0122253,-2.9724596e-09,5.965431e-09,-0.6065951,-0.1748661,-9.646375e-08,-0.7864323,-6.892769e-08,-5.788828e-08,9.170188e-08,-2.1167187e-08,0.8879419,1.6113194,-3.097353e-08,-7.731056e-08,6.770533e-08,0.5864143,-8.3031395e-08,-6.087734e-09,-2.5561722e-08,7.6173954e-08,0.91258526,-6.0623556e-08,6.5003505e-08,1.2540526e-07,1.871351e-07,-1.0191506e-08,0.89604396,0.8343873,0.68068314,-0.057092927,0.7148398,-5.297488e-09,-4.4769575e-08,-0.28398412,-8.082218e-08,0.6770113,-0.8125959,0.32633248,-7.749257e-08,-0.14641018,3.3484156e-08,6.838196e-09,0.7248837,0.913113,1.0921197e-07,0.19684169,-9.7010485e-08,-1.2175161e-07,-2.0245075e-08,-1.24962325e-08,0.5797346,-0.59151506,4.983285e-09,2.1630466e-08,7.5294516e-08,-0.051645733,1.5554501e-07,6.125542e-08,-5.2302043e-09,6.488924e-08,0.30755216
-6.9590754e-08,9.342157e-09,9.449808e-08,-3.973662e-08,-3.194957e-08,-0.29995766,0.71605563,0.8189555,-0.50060904,-0.4041546,1.6287583e-08,8.684047e-09,0.7238496,-1.6272487e-08,-0.6597031,0.025519097,-0.5268645,1.2347904e-08,0.9449243,1.4121397e-09,3.979985e-08,-0.71317494,-0.0995458,-3.206896e-09,-0.8650163,-7.03942e-08,-1.0085478e-07,2.6946278e-08,5.522622e-08,0.73759717,1.7426502,-1.0997509e-07,-8.203284e-08,-5.1435133e-08,0.5280613,1.8382049e-07,-5.8270004e-08,-4.1808836e-08,-8.933822e-08,0.8304422,7.466565e-08,6.4065073e-09,4.7509875e-08,-9.1497085e-09,-7.9112183e-10,0.8607199,0.84427166,0.78775823,-0.13592702,0.61867213,8.5982066e-08,6.946217e-08,-0.3351278,-1.4600961e-08,0.58727455,-0.8412985,0.33257318,-8.8472284e-08,-0.22413406,-1.256708e-07,3.0226204e-09,0.7218237,0.911417,2.1370774e-08,-0.24826212,-1.19091546e-08,-3.796092e-08,7.2159004e-08,-2.7654771e-08,0.51544374,-0.7787573,-3.9561275e-08,-1.2036514e-07,2.0974868e-08,0.054869086,-1.0879339e-07,-3.3632293e-08,2.8519741e-08,-4.523771e-08,0.42111388
8.677449e-08,3.6577e-09,1.06929534e-07,-4.5900894e-08,-6.6729555e-08,-0.44609475,0.7063229,0.74566936,-0.5509207,-0.5325491,-9.2927806e-08,-2.2326176e-08,0.80566263,9.802288e-08,-0.8125275,0.16589932,-0.61285925,-7.1161594e-08,1.0022823,-9.599206e-08,5.1478253e-08,-0.73642325,-0.1357058,2.5702159e-08,-1.0775212,-7.6761104e-08,3.1944875e-08,-3.062674e-08,-9.957134e-08,0.6197849,1.9606493,1.612058e-07,-9.520882e-08,4.876414e-08,0.54161435,2.687894e-08,1.2388503e-07,-3.075798e-08,-3.114913e-08,0.8749292,-5.950561e-09,3.2306655e-08,-6.248773e-08,9.848357e-09,1.3382807e-07,0.92546153,0.9375452,0.9943332,-0.05551406,0.6565121,-9.327204e-08,-3.1864495e-08,-0.38066286,4.0418406e-08,0.67922544,-0.9178801,0.38468337,-4.1846516e-08,-0.2822193,1.4598477e-08,2.3632081e-08,0.7736191,0.9933006,-1.2497276e-08,-0.04897952,9.262635e-09,-1.5721206e-08,1.1292588e-08,-1.0940592e-07,0.5851981,-0.8424166,1.4590017e-07,-8.899937e-08,-3.427619e-08,-0.013029927,1.1211399e-07,-1.3223078e-08,-3.2959303e-08,4.139813e-08,0.49738762
-8.564773e-08,4.5463437e-09,5.5946987e-08,9.783729e-08,3.534898e-08,-0.589943,0.3730631,1.0432874,-0.6100265,-0.5616736,-2.7503444e-09,9.0900066e-08,0.87263024,1.5025027e-08,-0.8186165,0.35486636,-0.63288474,-1.10869244e-07,1.0699968,-1.7577987e-08,-1.0936023e-07,-0.5257998,-0.3908215,3.005362e-08,-0.9432772,-7.123206e-08,-5.1677098e-08,4.0372754e-09,-3.782617e-08,0.35595176,1.3968894,2.7507024e-08,9.679975e-08,4.6740823e-08,0.606112,-1.1312508e-07,4.3235495e-09,2.9789668e-08,5.5973015e-08,0.9360101,1.7235873e-08,-8.5482e-08,2.0900455e-07,5.14594e-08,-2.2899935e-09,0.9683878,1.0016186,0.8572584,-0.2995203,0.74826294,3.165107e-08,1.4960133e-08,-0.4767275,-2.1382391e-08,0.35341525,-0.9591153,0.5128931,3.1466215e-08,-0.32638526,-1.4664587e-07,-9.708241e-08,0.85625577,1.0468462,9.697804e-08,-0.3863254,-1.22313875e-08,-1.382569e-07,-2.2535373e-08,1.4920207e-08,0.62864083,-0.8477034,1.6963438e-07,9.784647e-08,4.6625914e-08,0.22703546,-1.16310844e-07,5.1146294e-08,1.0520868e-07,-1.4210814e-08,0.5934984
-1.6334315e-08,3.3883314e-09,-8.954318e-08,1.116815e-08,1.1478622e-09,-0.2606764,0.34879923,0.6841919,-0.43662983,-0.35892949,-4.852735e-08,-7.21178e-08,0.73574156,1.3905499e-10,-0.85031146,0.121199116,-0.5109607,2.7775808e-08,0.95947236,-8.034601e-08,-1.93435e-08,-0.44231388,-0.29209524,-4.481876e-09,-0.8717645,1.0618656e-08,5.7633684e-08,-4.9535736e-09,-1.8408959e-07,1.0550702,1.5108706,3.2979408e-08,1.3433398e-08,-8.2062286e-08,0.4497573,1.5093079e-07,-7.5545714e-08,1.3700731e-08,-1.0146624e-07,0.8009168,-4.5447806e-09,3.6604572e-08,1.0610843e-07,1.2966547e-07,2.3808628e-08,0.85245514,0.8179987,0.7338633,0.09311588,0.5485807,-6.460416e-08,-2.0339589e-07,-0.14705859,-3.1250643e-08,1.0990747,-0.78933567,0.18540344,5.8811615e-08,-0.07109551,6.585843e-12,-3.8329436e-08,0.6440436,0.8636107,-6.038247e-08,0.27362186,-4.8982457e-08,7.343241e-08,-4.7975597e-08,1.0823754e-07,0.55871207,-0.67293453,1.7325597e-08,-6.11802e-08,-1.6254967e-07,-0.19180062,1.9240286e-08,-6.7549912e-09,-1.08417595e-08,-5.517396e-08,0.3065577
6.2631376e-09,3.2276148e-08,1.9995333e-08,-7.77683e-08,-9.655462e-08,-0.20484169,0.4852868,1.1199502,-0.4219829,-0.20087044,2.3137925e-08,-9.130591e-08,0.7412136,-2.5958684e-08,-0.73326355,0.03217297,-0.4559731,1.027196e-07,0.9479623,6.879244e-08,3.1478553e-08,-0.48761553,-0.19982845,7.603203e-08,-0.8235148,8.625422e-08,-1.195146e-08,8.562354e-08,5.1681514e-08,1.0742369,1.4836465,-2.5345356e-08,-1.2577206e-07,5.898986e-08,0.4060445,-2.3681324e-10,-2.7839903e-08,4.738468e-08,1.9816076e-07,0.86795485,2.3175387e-07,1.8916744e-09,-4.416405e-08,-1.6101312e-08,7.276836e-08,0.8183603,0.7915149,0.75989956,0.043592244,0.7058757,-5.621522e-08,2.0755198e-08,-0.21500072,-5.2709215e-08,0.9381176,-0.780512,0.21313639,-3.9576978e-08,-0.19777882,-8.95806e-08,1.3701555e-09,0.64842767,0.88131064,6.8005846e-08,-0.34914285,-8.067444e-08,-1.9703716e-08,2.31561e-08,1.0551847e-08,0.4993937,-0.7642937,5.3187117e-09,-5.225911e-08,2.6759755e-08,-0.054291554,9.1343e-08,-1.02062586e-07,4.1283865e-09,1.0309137e-08,0.27162364
-2.5184903e-09,-8.180025e-09,1.14933144e-07,2.3157458e-08,-7.934201e-08,0.04813395,0.3814403,0.075548396,-0.5098838,-0.19681472,8.148465e-08,4.036972e-08,0.66418236,1.156693e-07,-0.71178436,-0.20318529,-0.4931827,2.3837785e-08,0.8706077,-1.4700665e-07,-5.4493533e-08,-0.2456138,-0.005577863,-8.693216e-09,-0.79868716,-4.8020116e-08,-2.4652298e-08,4.509867e-08,-4.483466e-08,1.0179988,1.1306854,-6.713652e-10,-2.0941526e-08,-3.9378087e-08,0.5045696,-4.4779988e-08,-5.789859e-08,-4.1736058e-08,-1.9808372e-08,0.7684172,1.534101e-08,-6.454598e-08,6.813587e-08,9.204943e-08,3.6021973e-08,0.77402943,0.7562463,0.79410166,0.3978011,0.4622951,-2.0662975e-08,3.4872212e-09,-0.09631431,-1.5685337e-08,1.1650125,-0.7112055,0.00019211462,-7.014023e-09,-0.036655817,-4.4466265e-08,-1.0206151e-07,0.63907754,0.7749928,-1.0938217e-07,0.6591861,-8.852322e-08,-1.5781925e-08,1.4543641e-08,-3.3203097e-08,0.47665933,-0.7314393,2.4635598e-08,-1.9265407e-09,3.9829942e-08,-0.4466896,7.309213e-08,3.7807055e-08,1.2336668e-07,4.6610023e-08,0.11190482
8.221194e-08,-1.0036416e-09,-4.1287862e-11,3.1087364e-09,6.949434e-08,-0.07067093,0.20466366,0.31509838,-0.41456887,-0.21952717,-1.044093e-08,-3.2743507e-08,0.64956343,9.696606e-09,-0.6792109,-0.05759976,-0.50361973,-2.2192914e-11,0.9461568,-3.694488e-08,-9.2694506e-08,-0.015153756,-0.15640622,-3.4474347e-08,-0.5389679,1.1405462e-07,8.5419444e-08,6.789243e-08,1.5153557e-08,0.9676844,1.1389561,-1.3349922e-08,-2.3591403e-08,-1.226648e-07,0.4416208,6.96708e-08,1.7324801e-08,1.0594691e-08,1.0629697e-08,0.7746286,1.1827355e-08,6.614596e-08,-7.614067e-08,-1.6140254e-08,-6.953586e-08,0.76982015,0.7368084,0.47768188,0.2762236,0.4466695,-1.2887931e-09,-3.4414928e-08,-0.007756493,3.8510883e-08,1.0559877,-0.6639494,-0.0065138084,-7.075853e-08,0.08490486,-7.266942e-08,1.5222128e-08,0.60404795,0.72478616,2.4151873e-08,0.51621944,1.3508217e-08,6.580959e-08,-2.9759518e-08,-3.509119e-08,0.43633685,-0.4253436,6.802094e-08,-1.1999202e-07,4.1512962e-08,-0.39367944,1.0505005e-08,2.1836229e-08,1.2082268e-07,-1.441487e-07,0.061062448
4.1007326e-08,-3.9592326e-08,-8.651103e-09,-9.938727e-08,9.369255e-08,-0.24732436,0.3869615,-0.27730107,-0.24727267,-0.5745859,-8.284284e-08,-9.693285e-08,0.4991649,1.2710855e-07,-0.47807086,-0.15766649,-0.31072453,1.07340774e-07,0.667336,1.278186e-07,-7.9392805e-08,-0.39071032,0.33223942,-6.000293e-08,-0.85418695,-1.5176852e-08,-3.6721893e-08,1.3711119e-07,8.832647e-08,0.08436913,1.2778132,9.290366e-08,1.6782724e-07,-5.3227133e-08,0.2703227,5.0797706e-08,4.1772932e-08,-8.128117e-09,8.86897e-09,0.41348127,-7.076393e-08,-7.1436844e-08,-2.9146817e-08,-3.937676e-08,-6.6364606e-08,0.7606297,0.7196745,0.938155,-0.22581576,0.17782895,-1.3004485e-08,1.6619346e-08,-0.34503317,-1.3629737e-08,0.21666886,-0.81969666,0.33623418,1.7970324e-07,-0.2229792,-6.784613e-08,1.8437674e-08,0.5397637,0.8687283,-7.152926e-08,0.27604678,1.0428387e-07,1.7236992e-08,1.8645774e-07,-1.0564781e-07,0.3947897,-0.6826168,-6.736816e-09,2.7898304e-08,-4.744186e-08,0.10421007,6.6417485e-08,1.1174532e-07,4.8897515e-08,-7.098762e-08,0.5669643
4.4090044e-08,-9.6508074e-08,4.4347516e-08,4.5411763e-09,5.102791e-08,-0.040099636,0.24514169,-0.5001123,-0.16861713,-0.53704804,-6.0697275e-08,-9.8487746e-08,0.22514865,-6.584802e-08,-0.3583214,-0.22365887,-0.23312216,4.7569635e-08,0.23244989,9.314469e-08,-2.3132781e-08,-0.21127206,0.42781267,-3.1167787e-08,-0.6564203,8.1493905e-09,4.0070244e-08,3.6779713e-08,-7.319453e-08,0.047508173,0.834865,6.891458e-08,-2.4502734e-08,-1.212929e-08,0.19157858,4.5338545e-08,-4.668468e-08,-3.419673e-08,-5.5574656e-10,0.025454212,1.9514957e-08,3.918202e-08,-1.3228879e-07,-8.381921e-08,1.1440518e-07,0.54019797,0.40216982,0.6708248,-0.064419545,-0.030991908,2.494832e-08,1.0677468e-07,-0.16911328,1.4080523e-08,0.1770626,-0.58109885,0.1653702,4.4127052e-08,-0.16279481,9.1292804e-08,-1.46771395e-08,0.3066932,0.5336357,1.9786803e-08,0.4441919,5.3540546e-08,3.960266e-08,-3.2792776e-08,-1.099334e-09,0.35515547,-0.29332626,-5.1058585e-08,-2.725311e-08,-5.7648176e-08,-0.014654216,-1.1502702e-08,3.5049176e-08,4.3263448e-08,3.4228503e-08,0.39803252
-1.2809757e-07,4.477463e-08,-6.4504434e-08,-4.1346564e-08,3.760577e-08,0.15514778,0.5419889,-0.31322262,-0.35634404,-0.36361337,-2.1089704e-08,-2.418115e-08,0.44364625,1.8390434e-08,-0.45723706,-0.20933616,-0.4532735,1.0364265e-07,0.7277215,-1.6715492e-07,-2.0932958e-08,-0.52296257,0.42492038,2.1284855e-08,-0.85095555,1.2256936e-08,-6.8991506e-09,-1.8024894e-08,-4.7821832e-08,0.4614575,1.1868535,-3.6808014e-08,1.6421227e-07,-1.3265642e-08,0.3628121,-8.494544e-08,-4.5848303e-08,-3.3318408e-08,9.477644e-08,0.5911221,3.6509647e-08,-1.394606e-07,5.6475212e-08,-3.7007414e-08,3.5252036e-08,0.7569416,0.62553394,0.8960786,-0.19226275,0.3877485,8.63686e-08,-5.9991564e-08,-0.45928615,-2.0927017e-08,0.20159169,-0.6978495,0.16410992,4.85459e-08,-0.18126848,6.228153e-08,7.81849e-08,0.50515,0.76341456,-9.855182e-09,0.2570218,3.4170476e-08,1.02680296e-07,8.583877e-09,-4.733385e-08,0.45868862,-0.68200505,4.773884e-08,-2.7391318e-08,1.1275711e-07,0.22563188,-6.832913e-08,-6.256443e-08,2.919506e-08,1.7209986e-07,0.3125913
-4.7627545e-08,-1.1068266e-09,5.6531018e-08,-1.10914684e-07,6.6230605e-08,0.0101227155,0.35267946,-0.101027064,-0.51841015,-0.4674254,-7.6807865e-08,5.484361e-08,0.57895446,1.3627883e-08,-0.5113426,-0.06385793,-0.49797344,2.0245906e-08,0.7868389,-7.927905e-09,5.205319e-09,-0.30999944,0.2914361,1.6301342e-08,-0.9953163,9.7232125e-09,-2.6056243e-08,9.2258725e-09,1.3099317e-08,0.103930995,0.61519945,2.8778341e-08,-6.390289e-08,-5.7496063e-08,0.5182062,6.977975e-08,-8.86274e-08,-3.926341e-08,1.303228e-07,0.69970506,-2.7658047e-08,5.6197635e-08,7.8016996e-08,5.0085553e-09,-3.970608e-08,0.8659815,0.7624037,1.1355479,-0.16365646,0.4385661,8.944062e-08,-2.2962453e-08,-0.37743294,5.662858e-08,-0.051199082,-0.855342,0.25704145,2.1245775e-08,-0.141868,-3.7622016e-08,2.648635e-09,0.6793697,0.9360426,3.704347e-08,-0.2719427,-3.410852e-08,-6.750123e-08,3.5784193e-08,-1.6337232e-07,0.56451917,-1.0565987,8.860782e-08,1.6955855e-07,1.0695551e-08,0.18031727,-2.8092142e-08,1.2804306e-07,2.5654936e-08,-4.150661e-08,0.33655655
5.5156782e-08,-4.5270777e-08,-4.5763393e-08,-7.010671e-08,4.6912383e-08,-0.26815525,0.42026117,0.7093655,-0.46354952,-0.46090317,1.165167e-07,2.4838975e-10,0.59859806,-6.277412e-08,-0.40298155,0.16691747,-0.5606283,1.3304808e-07,0.95664144,8.801389e-08,-9.163458e-08,-0.5241789,0.107656345,-1.6109982e-07,-0.82705724,9.180385e-08,2.6893101e-08,-1.10403946e-07,-1.346646e-08,0.06267526,1.0282379,-4.961974e-09,-3.067527e-08,1.097434e-07,0.4632535,-4.094485e-08,-7.564472e-08,-5.6275464e-09,-3.0784983e-09,0.84193105,-1.0349833e-07,2.1441295e-08,-3.2139582e-07,1.9006405e-08,-3.7902424e-08,0.78377604,0.7789474,0.9357595,-0.3320421,0.56475866,-6.078007e-08,2.6046845e-09,-0.5803703,4.7588853e-09,-0.15070224,-0.78883135,0.31304505,-1.909444e-08,-0.38051602,5.6540582e-08,-9.52505e-08,0.67696357,0.939826,4.651342e-08,-0.78123796,5.4474384e-08,3.651199e-08,-4.4183814e-08,-1.305562e-08,0.40270925,-1.0473164,5.7686094e-08,-1.5461158e-07,3.055388e-08,0.45090362,-4.7517002e-08,3.884074e-08,-5.436356e-08,1.9063034e-08,0.47843066
3.6135347e-08,-3.3015986e-08,-3.745589e-08,1.098316e-07,-5.7104046e-09,-0.05577202,0.65123016,0.049551573,-0.30657542,-0.39360997,3.9163872e-08,-1.1221547e-07,0.43900234,-1.2444576e-07,-0.42012024,-0.07563548,-0.44869712,-4.634717e-08,0.70760435,6.7347614e-08,-5.641044e-08,-0.66457146,0.34213588,-9.043899e-08,-0.95669967,2.7013511e-08,-9.624625e-09,-3.2921808e-08,-6.7626953e-09,0.37907204,1.3254088,1.2712425e-07,9.207708e-08,5.2507644e-08,0.32753998,2.789778e-08,-2.209505e-08,-1.6890223e-07,1.7585495e-07,0.60945827,-9.160466e-08,7.3414725e-08,-4.838661e-09,5.4606367e-08,-1.3622427e-07,0.74950486,0.6288963,1.0121719,-0.32757103,0.41092172,6.237974e-08,7.236821e-08,-0.50134903,-1.45009516e-08,0.085960306,-0.70704055,0.18581401,-1.686705e-07,-0.31892648,2.9779496e-08,1.8234143e-08,0.5201526,0.8085001,-8.283652e-08,-0.056281403,3.6985327e-08,-1.1372341e-08,-5.0420304e-08,6.0388786e-08,0.411703,-0.8519241,2.9960425e-09,9.223196e-08,-1.8786066e-08,0.35497442,1.4297033e-08,3.709099e-08,6.9008415e-08,-7.074713e-08,0.41989613
3.918099e-08,-2.0854015e-08,2.1260686e-08,-5.673364e-08,-1.054307e-07,-0.04571185,0.8038049,-0.39704707,-0.40841353,-0.51729465,-8.2729535e-08,2.823569e-09,0.54373956,1.599988e-08,-0.61118764,-0.14732765,-0.5269892,-9.928381e-08,0.7910833,8.075126e-08,-1.2527937e-07,-0.81240624,0.45330438,-6.7934636e-08,-0.8310562,-3.205846e-08,9.966273e-08,-5.702907e-08,-1.1634239e-07,0.52486235,1.6499615,2.7616574e-08,-1.137331e-08,-6.940708e-08,0.41495168,-3.2511416e-09,-3.9990063e-08,-4.8782404e-08,-3.8347878e-08,0.62640756,3.2725467e-09,-2.3412415e-08,-2.971446e-08,6.7977325e-08,1.3852431e-07,0.82698846,0.72212505,0.82968354,-0.39704135,0.4365275,-7.328262e-08,-4.017597e-09,-0.5835228,-1.8482073e-07,0.22675991,-0.77715635,0.3069516,-7.282987e-08,-0.3192297,9.6584756e-08,1.5460674e-07,0.59814435,0.84261465,3.9792305e-08,0.42213616,3.421618e-08,-4.9337253e-08,9.533785e-09,2.0284013e-08,0.5719038,-0.57482916,7.249581e-08,8.5873964e-08,1.0594867e-07,0.4339592,-8.539889e-08,-2.6448319e-08,-1.465843e-07,1.2670368e-07,0.52429
-1.7972237e-08,3.8215546e-08,-1.3575979e-07,-3.2405975e-08,5.143424e-08,-0.40245298,0.4022842,-0.40398484,-0.16499324,-0.59372747,8.007271e-09,6.089888e-08,0.3224896,5.3296343e-08,-0.25469753,0.123556666,-0.2978735,-6.4603924e-08,0.48912868,-5.2197553e-08,1.0512753e-07,-0.5050297,0.27861676,2.36958e-09,0.010424087,-8.264799e-08,-2.1924954e-08,6.2494166e-08,7.3721594e-08,-0.29285315,1.1428725,-5.36041e-08,3.1379113e-08,-1.2369367e-07,0.14924845,-2.0513923e-08,6.239253e-08,-7.069809e-08,7.63715e-08,0.2695227,3.387587e-09,-3.2020452e-08,-1.4370966e-07,5.7662284e-09,-2.5094261e-08,0.52896327,0.43459642,0.057623547,-0.49599147,0.25567546,3.6037886e-08,-1.1104035e-08,-0.5832672,4.659468e-08,-0.4294456,-0.4986011,0.39832032,-5.1084413e-08,-0.5157739,-1.9576067e-08,-2.987517e-08,0.32773572,0.53201354,-1.5863346e-08,0.1426922,-1.8313919e-09,1.3323225e-07,1.622573e-07,2.3401903e-08,0.24716833,0.41533226,-7.097948e-08,-2.8322075e-08,3.7039314e-08,0.5169705,-3.9947942e-08,-5.8676548e-08,9.0493195e-09,2.0280291e-08,0.68616354
-4.9466205e-08,-7.33356e-08,-1.4047046e-08,-1.3030848e-07,1.7765515e-07,-0.29985422,0.041467067,0.12344326,-0.321239,-0.6350886,1.03898394e-07,-4.7928243e-08,0.4223314,-2.256563e-09,-0.15619215,0.110637866,-0.38025698,4.5034355e-08,0.70707405,-2.2622837e-08,2.923246e-08,-0.11841681,0.21257156,3.8437427e-08,-0.27531326,4.6729127e-09,-8.0564696e-08,-2.4122496e-08,-4.61557e-09,-0.666206,0.5462273,7.144834e-08,2.9984673e-08,1.1109496e-07,0.3183089,-1.7653546e-08,8.059799e-08,2.7283496e-08,8.478811e-08,0.47571528,-5.516484e-08,-3.847795e-08,-3.8747974e-08,-7.626047e-09,-9.164503e-08,0.60917175,0.58824444,0.48456088,-0.40789154,0.2611712,-1.7426292e-07,-8.509039e-08,-0.46888033,-1.1922181e-07,-0.62416613,-0.604838,0.33774045,4.612131e-09,-0.42927453,-3.2364795e-09,9.6830846e-08,0.50639415,0.718933,8.483781e-08,-0.53625894,-6.29791e-08,1.4203378e-08,-2.8625209e-08,-4.4796035e-08,0.2630776,-0.3746491,4.541481e-08,7.646077e-08,2.6979455e-08,0.43722302,-3.6509483e-08,-6.614239e-08,5.7232633e-08,-1.216763e-07,0.5788234
1.6912591e-07,-3.0550105e-08,-9.2955716e-08,-4.0889827e-08,3.0977994e-09,-0.61237216,-0.1382967,1.0373064,-0.47508824,-0.7362272,7.180677e-08,4.90607e-08,0.79637337,3.8692548e-08,-0.45020583,0.41650987,-0.5981786,-3.3169776e-08,1.0893016,-1.6803167e-08,8.883401e-08,0.038404085,-0.24184059,-1.40796566e-08,-0.35457173,3.1525538e-08,-2.1570296e-08,-1.6546917e-08,2.5470763e-08,-0.6378155,0.1688213,-8.047234e-08,1.0346746e-07,-1.088859e-08,0.52978086,-1.2969582e-07,4.8227875e-09,2.4973879e-08,-3.3499685e-08,0.9657083,2.3387328e-09,-2.3840382e-08,-7.119968e-08,-3.7278134e-08,5.3512007e-08,1.014038,0.99507856,0.7472686,-0.8184974,0.71260035,-9.15529e-08,-7.3669426e-08,-0.68429965,2.0722185e-08,-0.8653348,-0.9803146,0.6457277,-5.8323785e-08,-0.43308347,-3.8598436e-08,5.0412837e-08,0.9070395,1.131464,-1.8385501e-08,-1.3175536,6.29195e-08,2.7698885e-08,1.6508453e-08,-1.1768505e-07,0.49189863,-0.83572364,-2.4849962e-08,-2.084993e-08,1.0732315e-08,0.8215222,-1.1338312e-08,1.3438339e-09,-5.431535e-08,2.5569925e-08,0.6134782
3.4626623e-08,-7.6106176e-08,-9.392478e-08,-1.2220485e-07,1.6523325e-08,-0.3377369,0.011987797,0.38505724,-0.63102764,-0.4995452,-3.157501e-08,2.3774374e-09,0.75435364,1.3457427e-08,-0.620119,0.24269499,-0.63567597,-1.11131165e-07,1.0321709,5.6055995e-08,6.260518e-08,-0.11493355,-0.15500697,8.1555406e-08,-0.8670268,4.2084174e-08,-1.049656e-08,-1.0151966e-07,5.215733e-08,-0.02302583,0.25524974,1.2826057e-08,2.329707e-08,5.738687e-08,0.6554214,-1.0930355e-07,7.703326e-08,-1.2517294e-08,-2.596249e-08,0.8666571,-7.593445e-08,3.8131404e-08,1.179781e-07,3.0004212e-08,7.11685e-08,0.92021894,0.9342531,1.0454289,-0.3638908,0.7272886,3.0996006e-08,2.490152e-08,-0.5846978,-4.6657608e-08,-0.30798963,-0.9404534,0.48191673,3.4122236e-09,-0.37393647,1.15957995e-07,-3.0646547e-08,0.8475185,1.0284064,1.289782e-07,-0.42328635,-2.2712216e-08,3.0589987e-08,7.011725e-08,-2.7986353e-08,0.61672586,-1.0382519,-5.7938877e-08,3.056505e-08,-7.549081e-08,0.3845804,-2.519316e-08,-3.0091478e-08,1.8609196e-08,-3.6056342e-08,0.5067969
-3.736581e-08,6.0876644e-08,6.6595893e-09,-1.1967282e-07,5.18901e-08,-0.263974,0.265451,-0.030641796,-0.58776903,-0.4402371,-4.6384073e-08,-4.8397855e-08,0.67908716,1.6745676e-07,-0.52799386,0.16619594,-0.55690324,-6.0403202e-09,0.987781,-6.6378895e-08,1.6523747e-07,-0.3690979,0.0045304587,2.7339677e-08,-0.7875399,-3.88345e-09,2.9709053e-08,1.9908555e-09,7.725437e-08,-0.10003812,0.55729204,-1.2074149e-07,-9.787392e-08,-2.2719558e-08,0.5813178,3.5892008e-08,-1.7313991e-07,3.457173e-08,-2.7787515e-08,0.8385544,-2.8980896e-08,-6.641716e-08,-1.1612116e-07,-9.246005e-09,1.1929589e-07,0.88498646,0.8617675,0.8849845,-0.45752978,0.6491516,-1.6882038e-07,-1.566077e-08,-0.5824671,-3.4885183e-08,-0.43853584,-0.85363084,0.419226,2.6084159e-08,-0.27315277,-7.470609e-09,-9.443454e-08,0.75845176,0.95347804,-7.926675e-08,-0.023282435,-3.585956e-08,2.7421184e-08,-6.359886e-08,-6.160322e-08,0.6012525,-0.85094595,-8.660001e-08,8.276826e-08,-1.13162564e-07,0.5950471,6.568766e-08,6.778599e-08,-1.959659e-08,-1.223892e-07,0.44542316
-4.5406123e-09,-1.7850587e-07,-4.8591268e-08,-1.9730301e-08,3.1686348e-08,-0.43811256,0.09703838,-0.48191267,-0.38728833,-0.5960236,8.307894e-08,-4.8167808e-09,0.5616681,-1.5425865e-08,-0.2727184,0.25169283,-0.3965164,5.8621502e-08,0.8772877,7.1569115e-09,1.8843739e-08,-0.22686565,-0.094394855,1.5618893e-09,-0.07777376,-5.7444627e-09,3.094842e-08,-8.760244e-08,4.1169198e-08,-0.45579842,-0.37073144,2.4252955e-10,1.6154704e-07,1.04230786e-07,0.37974602,-2.5306525e-08,-1.6927252e-08,1.2667775e-07,5.964239e-08,0.6806152,-7.0684095e-08,5.3681923e-08,4.060228e-08,-1.3657777e-07,4.033258e-08,0.66966355,0.68046707,0.38535443,-0.49981806,0.41082087,-3.7475065e-08,1.380585e-07,-0.635279,5.7375296e-08,-0.5769408,-0.6511292,0.46258804,-4.2631108e-08,-0.49458614,5.281226e-08,-5.0102123e-08,0.58273304,0.7567488,-2.0113653e-09,0.43709165,1.0157139e-08,-2.4353092e-08,-9.724724e-09,7.920115e-08,0.20129001,-0.25784183,-2.7211126e-08,4.9292595e-08,1.2199396e-07,0.5157289,-3.0217848e-08,6.289639e-09,1.0119264e-07,3.1960873e-08,0.66649187
-6.2642016e-09,6.9991293e-09,-8.430135e-09,1.845255e-08,-3.6844263e-08,-0.52227604,0.770234,0.26026112,-0.19959076,-0.5188271,1.9370603e-09,-9.504792e-09,0.43287706,-4.9649945e-08,-0.4493429,0.19749346,-0.40546343,1.8825729e-08,0.7176337,-3.362894e-08,-7.7881076e-08,-1.0192161,0.060319092,1.7376735e-08,-0.33833826,5.936989e-08,3.634477e-08,1.07797824e-07,-1.4152885e-08,0.25584957,1.7850575,4.21881e-08,8.640432e-09,-1.1089645e-08,0.15794972,7.8411e-08,-8.259496e-09,-4.9906024e-08,-1.3925703e-07,0.5122507,-6.580117e-08,-3.283755e-08,-1.7010864e-09,3.1324717e-08,1.8361068e-07,0.6075369,0.59971595,0.3179231,-0.75575763,0.45353818,-7.336307e-08,-6.988548e-08,-0.7668424,-4.4095316e-08,-0.11040358,-0.60776067,0.40215337,1.180664e-09,-0.5210689,-6.378379e-08,-2.0891305e-08,0.38857013,0.73433334,1.2193524e-08,-0.014366235,-4.869511e-08,-1.2072435e-08,-9.401322e-09,-1.4914494e-07,0.3305149,-0.06942022,-2.0647448e-07,-4.654772e-08,-7.2475316e-08,0.9153808,5.5238917e-08,-1.1906625e-08,4.115396e-09,-4.3734815e-08,0.7378257
-7.681514e-09,1.9834263e-07,7.845507e-08,-3.421247e-08,-5.7379882e-08,-0.27737284,0.10839315,0.17029817,-0.5683666,-0.6547361,1.1453728e-07,-3.7190812e-08,0.7280021,3.5490284e-08,-0.6174794,0.16957875,-0.6217379,1.123365e-07,0.9649996,-1.3086446e-07,-4.1779643e-08,-0.20778354,-0.007946634,-8.4781874e-08,-0.7436358,2.3113486e-08,-1.5352833e-07,-4.0735628e-08,-7.5351245e-08,0.16500778,0.41318887,2.5506885e-10,-8.0061824e-08,1.5754951e-07,0.57736707,-6.0658e-08,1.0812402e-08,-7.0726685e-08,-1.37640175e-08,0.83817756,-5.2453814e-08,-5.6273358e-08,1.4361282e-07,-1.07793205e-07,7.575496e-08,0.92539483,0.8875663,0.9299937,-0.4258703,0.6102853,1.3779953e-07,-4.4409695e-08,-0.60697764,2.46693e-08,-0.10794571,-0.9027818,0.44215056,2.134021e-07,-0.4707147,1.20453425e-08,-8.967427e-08,0.80809176,0.99154335,-4.0808533e-08,-0.16886005,3.1436524e-09,2.1030699e-08,1.9278286e-08,1.2733119e-07,0.62208104,-0.86298436,-1.4762261e-07,-2.038616e-08,-5.3463268e-08,0.4027097,6.5733157e-09,1.7757101e-07,4.2596888e-08,6.3575534e-08,0.6017126
5.5816415e-08,6.870399e-08,4.0650665e-08,3.8202554e-08,1.5797196e-08,-0.11815902,0.5498542,0.37150654,-0.48693052,-0.51737314,-1.321016e-07,3.0739287e-08,0.68353325,-3.0668897e-08,-0.5151927,-0.032052368,-0.52870405,1.0628071e-07,0.98674905,-1.7399216e-08,-2.78704e-09,-0.5837693,0.26670232,-7.03945e-09,-0.998535,3.1060075e-08,8.202949e-08,2.642313e-08,7.2422985e-08,0.18280523,1.3083416,-9.5956764e-08,6.100152e-08,-2.040203e-08,0.48908353,-1.5624815e-07,-1.8791413e-08,8.521511e-08,3.2323754e-08,0.8235914,4.3450918e-08,1.5441085e-08,-8.396646e-08,-9.169629e-08,-6.025344e-08,0.9280578,0.88798016,1.1467203,-0.306186,0.553893,2.8875927e-08,-1.6446191e-07,-0.5653979,-1.2003072e-07,-0.05116145,-0.91245526,0.37935096,-5.6729824e-08,-0.33952507,3.3911114e-09,1.7187325e-08,0.77616274,1.0314866,-5.5666767e-08,-0.38882327,7.954212e-08,-8.3431104e-08,3.379687e-08,-1.3623614e-08,0.45556056,-1.0399901,3.2104307e-08,1.9744196e-08,-4.8581114e-08,0.33915788,1.2688778e-07,-4.321732e-08,-1.1750856e-07,-3.7063884e-08,0.5563416
-7.422063e-08,1.0018531e-07,-3.0396788e-07,1.1517004e-07,3.876306e-08,-0.4967903,0.27721617,1.5343918,-0.5583648,-0.5773333,8.767257e-08,-7.0166877e-09,0.84204626,4.6989307e-08,-0.675435,0.35979092,-0.6255696,-2.2622254e-08,1.0794654,4.6543043e-08,-6.021523e-08,-0.44524258,-0.37628728,6.352046e-08,-0.93839025,2.4925772e-08,-5.267611e-08,-1.9166028e-07,5.9371718e-08,0.29282683,1.4550833,-2.1947123e-08,3.0644387e-08,2.124827e-08,0.54759246,6.347559e-08,-5.006694e-08,-1.04185155e-07,1.0870667e-07,0.9384533,-2.801509e-08,2.4117188e-08,1.2665357e-07,9.088818e-08,2.6065079e-08,0.9495596,0.9605449,0.96875215,-0.34753287,0.7660099,-6.4161256e-08,-2.0526133e-07,-0.54162407,5.241468e-08,0.07379058,-0.9720347,0.49043596,-1.1986448e-07,-0.33387065,-3.2877367e-08,1.8486406e-07,0.8700582,1.023407,-5.368637e-08,-1.2147999,1.1276961e-07,7.1014824e-08,9.076305e-08,6.515721e-08,0.6007882,-1.038717,6.239252e-08,-5.638555e-08,5.9521696e-08,0.33568358,2.7497368e-08,9.849712e-09,1.8444787e-08,5.375057e-09,0.5929934
-6.290378e-08,2.0490331e-08,-1.07081615e-08,6.660437e-08,-4.1443293e-08,-0.3124934,0.25709665,0.70088273,-0.60979676,-0.5934224,-9.300682e-08,-2.8721384e-08,0.78768253,2.8671302e-08,-0.7246739,0.14521562,-0.6612255,1.6435688e-08,1.0377252,-1.5606336e-08,1.3294868e-07,-0.36433947,-0.05427362,-5.733451e-09,-1.115695,2.6838379e-08,5.6888076e-09,5.8843078e-08,-1.4455935e-07,0.21977825,1.0924917,-2.8258079e-08,-8.956377e-09,-5.884056e-09,0.6102383,7.852767e-08,9.402753e-09,-8.781066e-08,2.6754215e-08,0.91371167,5.448031e-08,-8.358655e-08,1.001532e-07,-4.1593587e-08,5.7502724e-08,0.9579493,0.9639449,1.1057243,-0.28636658,0.66418225,1.10438044e-07,2.4521107e-08,-0.52789,6.5768035e-08,0.14864415,-0.98296994,0.38285682,5.315857e-08,-0.38093638,-3.3002618e-08,2.3398767e-08,0.82892066,1.065077,-4.8791797e-08,-0.5100315,-3.3477554e-09,-2.5005953e-08,1.5187126e-08,-2.9600109e-08,0.6598984,-1.1072104,-2.9925292e-08,4.2845024e-08,1.10848475e-07,0.28062168,-3.2253666e-09,-2.741125e-08,2.9433687e-08,-5.2682548e-08,0.52601004
-6.578385e-08,3.876599e-08,-3.147754e-08,7.0545525e-08,-1.3240644e-07,-0.10482549,0.42333993,0.26624763,-0.4801179,-0.45063415,1.3673558e-07,2.5259208e-08,0.6224456,-1.943557e-08,-0.6021572,0.0027284783,-0.5389767,1.2412745e-07,0.8810514,-5.0331938e-08,-4.9894805e-08,-0.4793328,0.12336974,7.7191174e-08,-0.9891398,-1.9216184e-08,-2.676581e-08,-4.226152e-09,1.7284915e-08,0.40483952,1.1080993,-5.3011725e-08,5.882219e-08,-4.6018016e-08,0.48802003,-5.81813e-08,-8.784386e-08,-4.8328527e-08,-6.8157064e-08,0.75604534,3.5312492e-08,-1.3597092e-07,3.141112e-08,7.7106876e-08,-9.7712425e-09,0.86821544,0.79763055,1.0680072,-0.2298875,0.54410195,5.390461e-08,-1.2813427e-08,-0.48529577,9.8133675e-08,0.3093499,-0.8426035,0.2998181,4.476888e-08,-0.39158806,1.8521739e-07,-1.1479426e-07,0.6914046,0.91303515,1.891284e-07,-0.19610456,1.689838e-08,-3.6874276e-08,-4.0438857e-09,-3.8260453e-08,0.534154,-0.98192173,-6.964534e-08,-2.303015e-08,4.489968e-08,0.22976547,-1.0839168e-07,-6.345036e-08,-3.9127663e-08,-1.5389631e-08,0.46024007
1.4462511e-08,4.23151e-08,2.4680574e-08,4.221115e-08,8.760947e-09,0.15715243,0.18484595,-0.039754663,-0.24367137,-0.39681366,3.677092e-08,2.1809786e-08,0.18066601,-2.6655623e-08,-0.37067366,-0.16455156,-0.36296654,-4.1146915e-08,0.3626758,6.071061e-09,8.757558e-08,-0.1729248,0.3763595,-2.6166699e-08,-0.77447325,1.4749174e-08,1.7780902e-08,-2.9299404e-08,-1.2121666e-07,0.110980175,0.5548101,3.1624964e-08,2.6699727e-08,8.687333e-08,0.2685238,5.067975e-08,6.7061706e-08,1.7225778e-08,1.1601255e-08,0.20962104,-4.6229086e-08,9.911721e-09,-2.9172193e-07,-1.2157254e-08,8.322315e-08,0.51047117,0.37306204,0.71943855,-0.0714435,0.023280239,7.8053745e-08,8.604117e-08,-0.18930818,5.1086076e-08,0.1789265,-0.51572776,-0.026927738,1.4902514e-07,-0.083603755,-5.6372045e-08,5.465768e-08,0.31481916,0.52197015,-1.3832981e-08,0.005761289,6.667202e-09,6.8793724e-08,1.1671283e-08,-1.5104673e-07,0.3971599,-0.56436807,-5.1319795e-08,-2.7519105e-08,-2.5274975e-08,0.062474407,4.3091113e-08,1.4484729e-07,-1.0028694e-08,-5.671745e-09,0.21759269
-6.345689e-08,8.2651724e-08,2.6293932e-07,-1.5070958e-08,5.8957376e-08,0.023544297,0.22447939,-0.20564942,-0.36227357,-0.39141592,1.3628416e-07,-1.1285522e-08,0.41164643,-6.384372e-09,-0.37019986,-0.015672196,-0.39841002,7.3553252e-09,0.6994753,-6.959486e-08,-7.556137e-09,-0.22021756,0.1642972,-2.6365834e-08,-0.8574606,4.74677e-09,3.4597377e-08,-2.2803402e-08,-3.2310112e-08,0.32423043,1.0437847,-7.246177e-08,4.8458624e-09,-1.1633244e-07,0.35940903,-1.2570587e-07,1.674741e-07,1.331269e-08,-1.8751651e-08,0.57196945,6.466035e-08,-2.0424356e-08,6.64956e-08,9.6852396e-08,-5.8194935e-08,0.72178936,0.56811386,0.82299125,-0.015653607,0.32531396,1.2658633e-08,9.671159e-08,-0.28930488,2.6761041e-08,0.2721919,-0.67585653,0.12228851,-6.71871e-08,-0.024433387,3.936121e-08,1.6312306e-07,0.45243287,0.7353449,-1.6668977e-08,0.14463757,1.3308124e-07,5.692451e-08,-1.14099024e-07,-1.9022663e-07,0.40807626,-0.66133,-2.3625546e-11,-1.2327723e-07,-1.9701023e-09,0.005606844,-1.1605332e-08,-5.2739757e-08,6.916852e-08,-5.6868316e-08,0.19934955
-4.5387146e-08,3.4264623e-08,-8.364326e-09,4.951275e-09,4.8952167e-08,-0.049193986,0.51834965,-0.25781584,-0.33771145,-0.5470423,-4.588439e-08,1.794615e-08,0.4984175,1.13599285e-07,-0.6048757,-0.14572717,-0.4539913,5.5924538e-08,0.7269702,-2.613826e-08,4.3796206e-08,-0.56267154,0.2920457,5.463473e-08,-0.82534564,2.3804425e-08,6.344271e-08,2.407737e-08,3.6241666e-08,0.49692515,1.1001179,-1.3800921e-07,8.1600376e-08,-4.9782845e-09,0.30801305,8.750644e-08,5.7954914e-08,2.6222292e-08,1.5573109e-07,0.56275636,4.329582e-08,-5.6111777e-08,-1.2267299e-07,-4.730394e-10,2.2632314e-08,0.7854032,0.6889408,0.89974433,-0.17383048,0.28908825,-5.0910938e-08,-5.487396e-08,-0.4839072,3.943526e-08,0.5724288,-0.72852576,0.18428153,-1.6203119e-09,-0.46135154,-1.7085925e-07,-4.058296e-08,0.5332065,0.8238236,-8.382769e-08,0.61752975,2.2939282e-08,2.6198084e-08,2.7107868e-08,-6.203532e-08,0.44675776,-0.6536981,8.562697e-10,2.2220654e-08,9.767081e-08,0.18673363,-3.3481946e-08,-1.6217574e-07,-1.8881275e-07,3.515315e-08,0.52311236
-1.146199e-07,-3.216984e-09,-2.8164976e-08,-2.5000828e-08,-7.5014235e-09,-0.16472423,-0.09980429,0.03952113,-0.4187642,-0.45414108,-1.085621e-08,2.6885678e-08,0.5064134,9.933499e-09,-0.12861687,0.072195984,-0.34669825,6.0216905e-08,0.6793471,-4.1821533e-08,2.6177071e-08,0.12207106,0.26907948,7.870405e-08,-0.17414616,-9.28734e-08,6.271345e-08,-9.3875045e-08,5.4282125e-08,-0.77181983,-0.6270781,-4.709152e-09,-9.9647536e-08,-3.1649055e-08,0.42555228,5.262563e-08,-4.6124814e-08,-2.2627184e-08,-5.197853e-08,0.5796525,-8.758781e-08,5.0774002e-08,7.0844855e-08,-9.320315e-08,4.4767404e-08,0.6983348,0.6898995,0.6802146,-0.2758557,0.35050377,-3.8658516e-08,5.6243877e-08,-0.39958608,-3.1942808e-08,-0.7809166,-0.718196,0.3394036,-5.498122e-08,-0.57320744,4.967251e-08,8.980012e-08,0.6816224,0.82759696,-1.9140488e-07,-0.7553353,1.5450563e-08,1.5316273e-07,-6.39657e-08,-3.66806e-08,0.24852297,-0.84079015,2.2779307e-08,-3.6123133e-08,-1.7827917e-08,0.31494793,-5.5221776e-08,2.3012959e-08,6.4949e-08,-3.655422e-08,0.54344904
2.1313454e-08,-8.037631e-09,-6.3382444e-08,-1.0229584e-07,-1.1393567e-08,-0.83494884,0.08200255,-0.1554787,-0.06893017,-0.6528326,5.3570094e-08,-1.8950124e-07,0.3496624,-5.593417e-08,0.0068065347,0.5211356,-0.13376577,-5.2914455e-09,0.31321514,7.002504e-08,-1.3188043e-08,-0.30796215,-0.10114351,-2.1317132e-07,0.029811263,-1.3648633e-09,-8.2183746e-08,-1.64023e-08,6.419351e-08,-0.8377212,0.49531403,-3.7141877e-08,5.2169153e-08,-1.559511e-08,0.022430561,1.5780177e-08,7.500278e-08,8.0249265e-08,5.7461712e-08,0.26995224,-1.0919058e-07,3.7124106e-08,1.0435886e-07,-8.677323e-08,-8.343321e-09,0.4622224,0.45760766,0.31677067,-0.4127574,0.2692226,6.364632e-08,-5.6886726e-09,-0.5726058,-8.899208e-08,-0.7538501,-0.5709019,0.5229504,1.476511e-07,-0.7883058,-8.4708184e-08,6.01256e-08,0.28543618,0.6610316,1.7622422e-07,-0.26575777,-2.7285026e-08,-5.7964037e-08,1.0120502e-08,1.515896e-08,-0.11379392,-0.10615947,-9.733448e-09,1.0393631e-08,2.0977886e-08,0.390394,1.2640417e-07,7.8270084e-08,1.1216727e-08,6.797313e-08,0.8865363
2.2755668e-08,4.6350433e-08,-1.5196846e-08,-2.6304615e-08,7.165518e-09,-0.56702274,0.13834697,0.581995,-0.4053932,-0.6954832,-9.323682e-08,1.3209558e-09,0.68061924,-1.9380916e-08,-0.29728135,0.28914317,-0.35477334,-1.70409e-08,0.9065725,-1.2408073e-07,-9.454869e-09,-0.23781085,0.09694134,-6.315659e-08,-0.52448446,-1.0457151e-07,-8.769837e-08,9.2958544e-08,-3.0940317e-08,-0.71846294,0.7993373,-5.2882253e-08,-8.452481e-08,-1.3958179e-08,0.42748064,-6.294506e-08,8.275143e-08,-1.299254e-09,-6.4697705e-09,0.7398355,6.2701226e-08,-7.7228705e-08,5.1428618e-08,1.0424252e-08,8.2046945e-08,0.8537754,0.8672368,0.83152616,-0.55678874,0.45071438,4.570886e-08,-1.5875634e-07,-0.5693803,-3.115564e-08,-0.83671874,-0.8910305,0.60287535,-3.503791e-08,-0.51889217,2.6409369e-08,1.2068005e-08,0.77192646,1.0068991,-9.764001e-08,-1.1354321,1.28460975e-08,3.2442546e-08,-1.6668448e-08,2.7856274e-08,0.3674187,-0.79369134,-3.2175333e-08,1.299249e-07,-1.2461169e-07,0.5489476,-2.0402666e-08,1.1493442e-07,-1.2504547e-07,8.918099e-08,0.7119786
-4.9954494e-08,-8.648788e-08,9.41116e-09,5.378669e-08,-4.7641223e-08,-0.36765617,0.003974406,0.07818761,-0.1845164,-0.51767623,5.1002502e-08,1.335715e-07,0.4365134,-9.016569e-08,-0.22479223,0.084764466,-0.11330072,5.745413e-10,0.54714483,1.4201926e-07,-1.3908604e-07,-0.055912197,0.14709947,1.0026264e-07,-0.48180872,-4.9111257e-08,3.883777e-08,-4.4490513e-08,-7.357798e-09,-0.27663115,0.3410419,-3.8277975e-08,6.178449e-08,-1.5382682e-08,0.19881523,9.516988e-08,1.6244883e-08,6.8750474e-08,3.4048462e-09,0.3630031,-8.930565e-09,-2.6048658e-08,5.6252375e-08,-2.17233e-07,-5.6770496e-08,0.61287135,0.6118124,0.80172473,-0.25457153,0.1687066,2.7584328e-08,-1.1435934e-07,-0.2821435,6.2762574e-08,-0.26479915,-0.6890061,0.42340037,-4.3975874e-08,-0.3416039,-2.47065e-08,-9.769526e-09,0.4910999,0.74844503,-8.57701e-08,-0.42213237,-8.2170054e-08,2.7736549e-08,-4.78858e-08,8.877757e-08,0.22207333,-0.65246737,6.3366656e-08,1.1202072e-08,3.272417e-08,0.1903162,2.3258353e-08,8.556064e-08,8.34729e-08,1.04009054e-07,0.54238373
6.3542664e-09,2.4386006e-08,5.3800475e-09,-9.479625e-08,-1.3105595e-08,-0.28177705,0.1672751,0.78061855,-0.31986383,-0.57664984,5.152914e-08,3.0519644e-08,0.52279305,-5.866542e-08,-0.2919567,0.09527836,-0.42360258,-1.92207e-08,0.75196975,7.030904e-08,-7.169771e-08,-0.15366258,0.27228346,4.1751605e-08,-0.4209777,1.1940298e-07,-1.4885858e-08,7.832567e-09,-1.1612398e-07,-0.582974,0.5274848,1.13889456e-07,8.839727e-09,2.7594576e-08,0.37155434,-3.1798173e-08,6.521409e-09,5.3898632e-09,2.7527847e-09,0.60527325,1.9714816e-08,2.1699776e-08,1.0850691e-07,6.899474e-08,8.460919e-08,0.6995928,0.66850716,0.63727856,-0.4619518,0.36480248,-1.00965565e-07,-5.12623e-09,-0.504781,3.0605847e-09,-0.62268525,-0.70465213,0.3392847,-1.0404453e-08,-0.6420599,1.5575517e-07,1.4343491e-08,0.61089504,0.81134653,2.5319325e-08,-1.328965,2.9331783e-08,-3.2552805e-10,-1.1817562e-08,1.6147554e-07,0.2983639,-0.6792259,-1.310259e-07,4.7606942e-08,9.2784205e-08,0.47376025,-3.0188904e-08,8.292681e-08,-2.1904835e-08,-1.01246584e-08,0.7035121
9.7511524e-08,-3.9240433e-08,4.2031363e-08,-6.85216e-08,-3.1130156e-09,-0.3161385,0.14155476,0.23583189,-0.085112475,-0.59216,4.5607624e-08,-7.120441e-09,0.2557025,1.6432157e-08,-0.108624555,0.07590371,-0.2119316,-5.2481383e-08,0.3222016,-1.0619457e-07,4.000922e-09,-0.19636597,0.30595496,-1.3096393e-07,-0.15145661,5.14459e-08,4.0128985e-08,-2.2160176e-08,6.0699406e-08,-0.37224188,0.4691165,1.2539984e-07,2.7289307e-08,-1.0843513e-08,0.10638158,-1.9530443e-08,1.9820777e-07,1.5242765e-08,1.0530424e-07,0.16464482,1.9895374e-08,-9.4339285e-08,-3.7445993e-09,-6.903901e-08,-5.571061e-08,0.45804426,0.33802438,0.23330219,-0.38013318,0.14595246,-3.0823742e-08,1.3854102e-08,-0.42399758,-4.8794746e-09,-0.37571245,-0.5052815,0.23940854,-3.97812e-08,-0.6326817,-4.7617554e-08,-4.4081123e-08,0.2917293,0.5209575,4.1745245e-08,-0.5932264,-4.9270813e-08,6.729378e-08,-8.373112e-08,-1.07093335e-07,0.14155908,0.03725703,-1.2661965e-07,-6.148083e-08,2.8048666e-08,0.3987701,4.539601e-08,-4.3963674e-08,-2.183046e-08,1.9338696e-08,0.6949624
-1.5405917e-08,-8.05812e-08,6.698983e-08,-5.7245018e-08,-1.3771981e-08,-0.6307902,0.0787415,0.75520587,-0.32587656,-0.69421667,3.5255244e-08,-8.555346e-08,0.65818185,-2.388365e-08,-0.37235716,0.32152307,-0.38899893,-1.2020851e-07,0.8820358,6.10493e-08,-1.3934132e-07,-0.24110325,-0.11634928,5.65936e-08,-0.21541362,8.436427e-08,-3.2305314e-10,6.340285e-08,2.8411895e-08,-0.6645246,0.34284857,-3.707786e-09,4.3270383e-08,6.852252e-08,0.35978472,-5.2958676e-08,-1.4734734e-08,-1.1396814e-07,-2.041794e-08,0.68955636,-1.3367845e-07,7.971293e-08,1.2924701e-09,1.0222635e-08,2.1555692e-08,0.7921317,0.82886565,0.41150716,-0.7363511,0.48458812,-7.59453e-08,-6.81301e-08,-0.5532683,4.181203e-08,-0.6795634,-0.84096843,0.5299352,-9.57035e-09,-0.56651074,6.538925e-11,4.4725606e-08,0.72813666,0.9457431,-8.5933216e-08,-1.0442668,7.640537e-08,-1.4728084e-07,-6.5300156e-08,1.7328976e-08,0.37849593,-0.568696,5.4301157e-08,3.090627e-08,9.02522e-08,0.7217081,4.0998966e-08,-2.3187317e-08,7.413053e-08,2.506531e-08,0.77817345
-2.3275533e-08,1.9291644e-08,2.154296e-08,3.9900716e-08,6.561304e-08,-0.25264058,0.04258456,0.6622885,-0.30161512,-0.5372849,1.8919163e-08,8.932045e-08,0.44585884,-4.6397055e-08,-0.2025333,0.011156227,-0.32535738,-1.3109126e-07,0.6281764,2.5327564e-08,-2.0261349e-07,-0.01740889,0.17917185,8.1983046e-08,-0.5049496,-1.555611e-07,-7.365255e-10,-7.8828386e-08,7.423272e-08,-0.6366628,0.32574067,-9.895722e-08,8.8523606e-08,-4.9702917e-09,0.3164532,-1.5090538e-07,6.2029216e-08,9.488758e-08,-4.2604785e-08,0.48122016,-1.3947805e-08,-4.119435e-08,-4.2309082e-08,-4.257401e-08,-3.8236852e-08,0.63936377,0.63141453,0.7620592,-0.3054419,0.20270194,2.3695677e-09,-5.7551368e-08,-0.37101462,-5.6753613e-08,-0.57383204,-0.71135443,0.318585,3.8941643e-08,-0.36063102,8.201977e-09,-3.0195018e-08,0.5605053,0.77282757,1.9538009e-08,-1.0842217,-4.3069804e-08,7.37419e-10,-1.5385135e-08,-3.117982e-08,0.23306264,-0.89841783,6.7578696e-08,-9.883081e-08,-1.9812308e-08,0.30494657,2.8418441e-08,-1.5222227e-07,-9.719932e-08,-5.610373e-08,0.50920504
1.1273315e-07,-2.7994712e-08,3.3014814e-08,-1.075148e-07,7.1166752e-09,-0.676634,0.20601194,0.5055953,-0.33628768,-0.6551843,6.3509e-08,2.1109404e-08,0.5962909,-2.1549992e-08,-0.18643531,0.2976289,-0.24095382,1.231246e-08,0.72949547,4.3794643e-08,-3.8586318e-08,-0.26443154,0.028358819,-2.8376103e-08,-0.36924902,5.1308934e-08,-5.281577e-08,-1.6459501e-07,3.252574e-08,-0.81992286,0.7399117,4.6354586e-08,1.2905183e-07,7.240554e-08,0.32530972,1.5926496e-08,-8.594367e-09,-2.1035287e-08,-1.0214927e-07,0.59229887,-8.882459e-10,-3.3880553e-08,4.8635332e-08,3.0057784e-08,1.0386058e-07,0.71989495,0.7497495,0.65929073,-0.465063,0.38559964,2.1287322e-08,1.3232977e-08,-0.48012358,2.9830723e-08,-0.8521982,-0.78200364,0.66008794,-1.7639468e-07,-0.5183047,-8.648273e-08,3.150246e-08,0.6265653,0.83622277,6.205229e-08,-0.9285776,1.3570556e-07,-9.493851e-08,-1.7203353e-08,5.7341634e-09,0.24499397,-0.6674746,-7.590498e-08,4.1912784e-08,-2.1035843e-08,0.42978513,4.0527308e-08,1.9950019e-08,1.6928176e-08,9.0146585e-08,0.73152524
-7.304331e-08,4.2436007e-08,-3.2508712e-08,4.6372886e-08,-1.8030812e-07,-0.6775914,0.091562524,0.22182225,-0.20217797,-0.7147252,9.440061e-09,4.3644118e-08,0.46095663,8.814717e-09,0.053491056,0.31245375,-0.13687584,8.992065e-08,0.5832365,-1.3855114e-07,3.3496303e-08,-0.12826926,0.18353377,1.7464297e-09,-0.09882324,-3.6882852e-09,8.458059e-08,-3.2661518e-10,-1.3841468e-07,-1.0740775,0.38961485,1.3062984e-07,1.5195702e-09,3.2749078e-08,0.19768378,-3.437162e-08,-3.1893933e-08,-3.130568e-08,3.4685957e-08,0.40891486,-6.0616454e-09,6.470354e-08,-5.2690787e-08,3.362096e-08,8.2050505e-08,0.6183947,0.5942848,0.62970525,-0.44210184,0.25766495,-2.7880395e-08,-1.7780486e-07,-0.5548701,3.6971795e-08,-1.1386884,-0.71764874,0.6438879,-1.3859339e-08,-0.81375104,-9.361055e-08,-6.120855e-08,0.51226526,0.7788292,-1.2704879e-08,-0.99547213,4.2599044e-09,-2.2176177e-08,7.182113e-08,8.172264e-10,0.026281007,-0.5249523,2.883427e-08,5.3111822e-08,-6.320298e-08,0.39606634,1.978298e-08,-4.1220243e-08,1.5695777e-08,-2.7721683e-09,0.9028038
-2.0780297e-08,1.2597411e-07,5.1243603e-08,2.6907239e-08,5.9828096e-08,-0.56809473,0.46224484,0.38844892,0.03749968,-0.6359338,1.2153453e-08,-1.211262e-07,0.22245884,-4.3999833e-08,0.016165307,0.13868402,-0.094905555,2.0969027e-08,0.29921332,2.0403883e-07,-6.028927e-08,-0.5979698,0.2303137,-5.769122e-08,-0.27585962,-5.8469034e-09,-4.1593765e-08,-1.16340665e-07,-1.4927368e-08,-0.3440993,1.5287495,-2.0341808e-08,-1.6614106e-09,-8.000313e-09,-0.05890876,2.5346708e-08,1.5164026e-07,-8.226054e-08,-3.812751e-09,0.1282858,-6.1823535e-08,1.7304676e-07,-1.2506143e-07,-5.3105627e-08,1.02045796e-07,0.43550608,0.3877925,0.49642605,-0.43086106,0.09607055,7.601283e-09,1.8709448e-08,-0.57681304,-5.59905e-08,-0.40023336,-0.56442195,0.3846218,-4.896907e-08,-0.6313571,5.949039e-08,-9.6961244e-08,0.22486225,0.582979,4.8989378e-08,-0.56506044,-5.835639e-08,-3.694426e-08,-5.977148e-08,4.743842e-08,-0.04376984,-0.27493328,2.5498483e-08,-1.6515831e-07,-6.0394214e-08,0.43802214,6.6260895e-08,6.634993e-08,-9.484565e-08,-1.153294e-07,0.8013896
6.855021e-08,-8.4994895e-08,-1.0290112e-07,1.595798e-07,2.2487786e-08,-0.38541064,0.6791931,0.65798515,-0.35533708,-0.49489215,-4.2404487e-08,1.6338056e-08,0.66363,9.927619e-08,-0.36449593,0.05999946,-0.36172718,-8.925376e-08,0.99421895,-2.764139e-08,8.921604e-08,-0.7397014,0.19760273,-2.6006395e-08,-0.88112754,-1.4637823e-07,-7.854692e-08,-6.50261e-09,-2.8346413e-08,0.078717716,1.6566138,-5.9102156e-08,-1.956473e-08,-1.8542538e-07,0.37942967,-1.223666e-07,-5.3526687e-08,-4.3892385e-08,1.2994008e-08,0.81449145,4.082869e-09,-7.891617e-08,-3.2296225e-07,-8.7821945e-08,-1.2282905e-07,0.83531696,0.84041536,0.9579568,-0.5409249,0.5732057,-6.817284e-08,1.6338997e-07,-0.61824083,1.01666714e-07,-0.22121108,-0.8539042,0.49287534,-6.058493e-08,-0.43123272,8.2105174e-08,6.4445956e-08,0.71817744,0.9796251,-7.5190414e-08,-0.71644354,1.2655137e-08,1.3114582e-07,4.426309e-08,-6.8897094e-08,0.35164496,-1.018452,8.189996e-08,-5.97711e-08,-1.6801872e-07,0.6155448,-4.4805077e-08,-6.267996e-08,-8.3852115e-08,-4.632999e-08,0.60887975
6.637245e-08,4.9300994e-08,1.4827368e-08,5.3229673e-08,4.1703636e-09,-0.15079194,0.45656082,0.4920357,-0.5030798,-0.41520134,-3.993071e-08,-4.4161233e-08,0.61374253,-1.05625375e-07,-0.5111297,-0.040813208,-0.5198429,-1.6601803e-08,0.8323985,1.00274224e-08,-3.1387447e-08,-0.38769877,0.14330286,3.3099255e-08,-0.7801433,-1.3572307e-08,4.5813888e-08,-1.7259854e-08,-1.1660294e-08,0.1465844,1.093935,-2.1117293e-08,-1.8548025e-08,1.8406793e-07,0.52014226,3.0553267e-09,-1.9530678e-08,2.5040551e-08,-7.262632e-08,0.72347057,-4.2804196e-09,3.1368543e-08,4.6223306e-08,-6.2155564e-08,-5.9887235e-08,0.8060448,0.769729,0.9429309,-0.14987394,0.5196941,-6.997571e-08,2.557139e-08,-0.44748756,-9.550988e-08,0.010817919,-0.8014529,0.35026616,3.44371e-08,-0.33704114,-8.618913e-08,1.8238501e-07,0.6747025,0.8616604,3.4640248e-08,-0.6122355,-2.7260842e-08,4.6007926e-09,-1.345676e-07,-2.7034815e-08,0.4439574,-0.95718735,-7.06423e-08,-1.3542966e-07,-8.929564e-08,0.1429252,8.3374275e-08,4.5111957e-08,-1.4079642e-08,1.9515426e-08,0.44553933
5.9185766e-08,-2.6852984e-08,1.2912803e-08,-8.400457e-08,4.9929213e-08,-0.11623893,0.44320622,0.38687727,-0.45613965,-0.5345211,6.410674e-08,4.304772e-08,0.59652215,-1.4319997e-07,-0.5243702,-0.07531461,-0.48695514,9.636976e-08,0.84977555,-1.5431375e-08,-4.394859e-08,-0.3504296,0.15479478,8.2120515e-08,-0.7846884,-6.531343e-08,5.521553e-08,-4.7483503e-08,9.928612e-09,0.16619383,1.2629968,-5.02786e-08,5.6564282e-08,3.7704293e-09,0.46671748,-7.6232354e-10,-7.784881e-08,9.023971e-08,4.51125e-08,0.6922742,-5.7700078e-08,4.2443332e-08,-2.2308996e-08,6.527506e-08,3.6343714e-08,0.8447649,0.7801129,0.9003934,-0.25684652,0.4474172,-3.613438e-08,-8.625487e-08,-0.4785311,-1.2851719e-08,0.009954829,-0.8408321,0.30515316,6.2594346e-08,-0.2556843,8.182258e-08,1.5097882e-07,0.68538666,0.88908666,-5.5745017e-09,-0.48695177,-2.715215e-08,1.1939152e-07,-2.408065e-08,1.4532185e-08,0.53639793,-0.84557784,-1.3592601e-08,1.2155377e-07,-9.9384906e-08,0.2733516,4.4952976e-08,-1.3374532e-07,7.468817e-09,-4.910472e-09,0.44792023
3.1791345e-08,3.971281e-08,-5.1166246e-08,-6.80989e-08,-2.3724162e-08,-0.14470716,0.5441413,0.6096755,-0.29959306,-0.37312844,4.001484e-08,5.669704e-08,0.52447695,3.1259333e-08,-0.36653465,-0.06720651,-0.35726663,-4.605443e-09,0.81413054,7.191821e-08,-6.3538415e-08,-0.4516049,0.15949601,5.9692226e-08,-0.4389021,-1.4362591e-07,1.4450777e-08,1.9129992e-08,6.838172e-08,0.1855544,1.396936,-9.6849995e-09,-1.8243931e-09,3.0633252e-08,0.3051595,1.241792e-08,-3.9383888e-08,-8.156338e-10,-7.301866e-08,0.65687925,1.5582721e-08,4.694557e-08,3.7160213e-09,3.0657244e-08,7.5497795e-09,0.6938902,0.6610903,0.61658,-0.31222728,0.420612,-6.804045e-08,-8.38739e-08,-0.48673275,-1.01074534e-07,0.06530029,-0.6676243,0.2701281,-1.12677526e-07,-0.252428,3.5672826e-08,4.1445315e-08,0.5438825,0.7754657,-1.4615605e-08,-0.64447105,8.25167e-08,-3.891512e-08,-1.537842e-08,2.0495092e-08,0.2688829,-0.721959,3.247503e-08,-7.622761e-09,-1.2498094e-07,0.3360358,-1.5654304e-07,-3.2293315e-09,1.03536486e-07,2.3489894e-08,0.43934953
1.0222353e-08,4.5803816e-08,2.8759182e-08,2.4663311e-09,-1.1137649e-07,-0.29368544,0.57090896,0.23793505,-0.31466183,-0.5838785,-1.0495813e-07,-1.6451196e-08,0.5628826,-1.03769246e-07,-0.45910192,0.08151106,-0.38782126,1.24628485e-08,0.84395665,6.772517e-08,1.3484045e-07,-0.5710924,0.038567808,-4.349054e-08,-0.709882,1.3736542e-07,-1.17603935e-08,3.2881125e-08,1.9161276e-07,0.08632722,1.4946704,-3.4393683e-09,1.3090022e-07,-1.8869251e-08,0.3259261,1.5657315e-07,-9.43005e-09,-4.2699284e-08,7.761764e-08,0.6709226,4.4409024e-08,1.4655647e-07,-2.4117986e-07,6.4023965e-08,-1.35342475e-08,0.8600526,0.8026475,0.8780381,-0.43563765,0.42678657,-2.3297558e-08,5.2148286e-09,-0.5089731,-1.0151114e-07,-0.04526595,-0.835336,0.40562558,-1.3683899e-07,-0.22092302,-7.236691e-08,1.5465521e-07,0.61424714,0.91624975,-1.12069166e-07,-0.3878194,8.947509e-12,1.2866317e-07,-1.0697609e-08,8.10176e-08,0.36942625,-0.69458926,1.0612004e-07,6.563094e-08,-3.5645717e-09,0.3804491,7.054757e-08,-7.964217e-08,2.7308566e-08,6.429096e-08,0.52789205
-8.841871e-09,1.2349963e-07,4.7819572e-08,-3.4613933e-08,1.3832494e-08,-0.5107606,0.47978124,0.4849593,-0.5769268,-0.75413907,-3.7705554e-08,9.0194156e-08,0.8294308,-1.2367957e-07,-0.62602377,0.22744986,-0.63973564,-1.4344922e-08,1.0724882,-1.2104114e-08,1.3525611e-08,-0.5809123,0.041148406,-7.555556e-08,-0.7624654,5.361669e-08,1.710987e-08,1.2267093e-08,-3.6304733e-08,-0.2740354,1.0773861,2.0965029e-08,-5.854481e-08,1.4420478e-07,0.62597924,-2.669325e-08,3.7744712e-08,2.3850099e-08,-4.314355e-08,0.9322732,4.1413337e-08,2.8591547e-08,1.8541607e-07,-1.0018073e-07,6.326105e-08,1.034117,1.0163397,1.0069971,-0.65794826,0.7211046,4.193707e-08,-2.3599643e-08,-0.77416927,1.967505e-07,-0.48377606,-1.0354006,0.6487572,3.3668627e-08,-0.6499258,-1.556225e-07,-4.891782e-09,0.8985699,1.1118388,5.197994e-08,-0.4923779,5.313657e-08,3.9153605e-08,4.382141e-08,1.3214569e-08,0.58023196,-0.90655935,-7.526516e-09,-6.37997e-08,-4.454797e-08,0.5916607,2.8225223e-08,-9.813433e-08,2.3339824e-08,5.05214e-08,0.80663663
3.873227e-08,-8.57786e-09,-1.3765636e-08,-1.2257526e-07,-5.567389e-08,-0.33757758,0.47443506,0.41008323,0.053938776,-0.5403474,1.0325959e-07,3.9923965e-08,0.15496118,-4.617843e-09,-0.12815058,0.049744684,-0.13464089,-1.8295058e-08,0.1533475,-4.6382223e-08,4.6937625e-08,-0.56518537,0.33622587,2.9235105e-08,-0.10874346,-9.59583e-08,1.4994504e-07,8.490587e-08,-1.3707352e-08,-0.21506296,1.2018473,-4.2677456e-08,4.2286864e-08,-6.731145e-08,-0.04665433,-1.6466544e-07,1.679909e-07,-3.664632e-08,-9.7853594e-08,0.043444023,-1.6903048e-08,1.1524302e-09,-4.567532e-09,6.3622894e-09,-6.477627e-08,0.4074499,0.25794283,0.11779789,-0.38982904,0.12675191,1.1447166e-07,-1.0533846e-07,-0.46810168,7.2479764e-08,-0.3608197,-0.4390295,0.27545458,6.383568e-08,-0.5741552,-9.44398e-08,-1.37586795e-08,0.16615005,0.4170684,-8.688731e-08,-0.5351246,-4.4151125e-08,-1.7073557e-08,-1.13844024e-07,8.991526e-08,0.13183768,0.09458977,-8.979006e-08,-9.378385e-08,-2.1334431e-08,0.37251672,-1.765493e-07,-4.5883645e-08,8.992531e-09,-4.6912135e-08,0.6414252
8.552352e-08,2.2611736e-08,3.636505e-08,5.082482e-08,1.6470467e-07,-0.673686,0.08714176,1.206574,-0.31838983,-0.6571205,7.4233184e-09,-1.3655198e-08,0.6616326,-1.5390357e-07,-0.11478299,0.28967753,-0.24425866,8.965792e-09,0.8712366,-2.8329044e-08,8.6346766e-08,-0.21515311,0.02790578,2.9723632e-08,-0.14819232,-1.0333252e-07,3.3959317e-08,6.45397e-08,6.000815e-08,-1.0164329,0.45757347,-6.6048514e-08,-1.4501534e-08,-3.9789306e-08,0.3314148,-2.1632587e-08,-1.1692801e-07,-3.4499394e-08,4.0047432e-08,0.7026462,4.612592e-08,7.579331e-08,-2.5722713e-10,1.05721156e-07,-1.08559675e-07,0.8004481,0.84487057,0.61129427,-0.74416167,0.5584732,8.9583686e-08,8.457873e-08,-0.6183463,-5.0743516e-08,-1.2552315,-0.8867185,0.73076075,9.593148e-09,-0.67679185,-2.7175702e-09,-1.223653e-07,0.7680018,0.9834752,-5.8772418e-08,-1.7096895,-3.111051e-09,-1.01793155e-07,-3.9465558e-08,-1.0844481e-08,0.25920907,-0.78808486,-6.951127e-08,5.3968037e-08,-1.1381037e-08,0.743021,-5.6268433e-08,-1.2872368e-07,1.01144664e-07,8.0716624e-08,0.7611591
-7.6016626e-08,9.1730335e-08,1.1490213e-07,-4.0011727e-08,1.710319e-08,-0.36074752,0.3897089,0.9184387,-0.22758435,-0.48135772,3.3797633e-08,-4.495823e-08,0.42293936,1.1865815e-07,-0.22113259,-0.018449483,-0.18393724,7.574557e-08,0.6381064,-8.739684e-09,2.6639862e-08,-0.43939266,0.22205311,-1.0402971e-07,-0.26759565,-4.0213465e-08,-2.1451976e-08,1.3913222e-08,1.8096362e-08,-0.40117443,1.3333305,-2.2389546e-08,-4.8268596e-08,4.3060965e-08,0.24515647,-1.1028039e-08,6.425262e-08,-2.8031574e-08,3.899489e-08,0.4452006,1.3000454e-07,9.96656e-09,9.539987e-08,-8.573659e-08,-7.538032e-09,0.6014311,0.6183707,0.5064445,-0.48320433,0.2998995,-7.9616754e-08,4.0174815e-08,-0.44977668,-1.7023854e-08,-0.50837815,-0.6643765,0.46881467,-1.7888264e-07,-0.33725393,-3.966293e-08,1.4657882e-08,0.4974738,0.6935273,2.0349956e-08,-1.1716783,-1.731074e-08,-3.46998e-08,-1.178484e-08,-2.439046e-08,0.2644585,-0.49603492,-5.363409e-08,1.1762285e-07,-5.109529e-09,0.4823246,-1.7966183e-08,8.145424e-09,3.531019e-08,-1.4559433e-07,0.49666008
2.6496123e-08,-5.683382e-08,-3.918567e-08,1.01598644e-07,5.902824e-08,-0.19037007,0.2997876,0.19427942,-0.3167201,-0.42388323,-7.207613e-08,9.944824e-08,0.40061256,5.4617196e-08,-0.2867007,0.024289286,-0.34190065,2.3647923e-08,0.6086586,5.556135e-08,3.300666e-08,-0.34743488,0.21195075,-5.0633265e-08,-0.7250966,2.0035626e-09,1.2294642e-08,1.5533406e-08,1.9143727e-08,-0.2619272,0.8142129,-2.6818713e-08,-2.5789202e-08,7.51017e-09,0.30105516,1.9829276e-08,-1.6972741e-08,7.6251816e-08,-2.0348905e-07,0.522235,-1.5764464e-07,5.2501413e-08,5.5487895e-08,4.252837e-08,9.077341e-08,0.65776974,0.6212618,0.91910833,-0.29987654,0.33873153,6.853299e-08,-2.5970204e-08,-0.46426523,6.316915e-08,-0.27284178,-0.6871448,0.30346105,7.034261e-08,-0.38563535,7.815111e-08,7.84047e-08,0.5055651,0.76355445,-4.4369212e-08,-0.49780238,5.601327e-08,-1.0079061e-07,3.53952e-08,1.16960905e-07,0.29001322,-0.9051843,-5.8745666e-08,4.7057753e-09,-9.4868014e-08,0.3558984,4.777641e-08,-8.516023e-08,1.1766787e-08,4.775214e-08,0.4216395
-1.9809617e-08,3.8226876e-08,-1.70501e-08,1.2123704e-07,2.9984193e-10,-0.6533589,0.49042842,0.788172,-0.18751526,-0.5575701,-2.972314e-09,4.0192134e-09,0.58665407,4.1388365e-08,-0.3760078,0.18717918,-0.21555519,-7.310239e-08,0.7515734,9.009648e-08,-2.432814e-08,-0.682846,-0.055048987,5.3369213e-08,-0.7238553,4.7401713e-08,-6.306971e-08,-6.6527925e-08,1.4375681e-08,-0.017730935,1.6200761,1.3592978e-07,2.7572682e-09,-1.17185595e-08,0.15823972,-5.5375193e-09,-7.760865e-08,8.685768e-08,-1.602494e-07,0.5770113,5.9154708e-08,3.096703e-08,-1.2390383e-07,1.1978624e-07,6.942747e-08,0.70262104,0.7749159,0.854232,-0.3951946,0.38466293,4.072224e-08,4.511784e-08,-0.436031,-2.5252344e-08,0.011801669,-0.81050557,0.5313246,-9.586749e-10,-0.419235,-3.1216363e-08,4.7418705e-08,0.54253566,0.9466512,-3.654833e-08,-0.7783849,1.8042464e-08,3.445722e-09,-1.6374422e-08,2.997163e-08,0.234841,-0.7649008,-3.3326984e-08,-4.2738428e-08,-6.8173975e-08,0.357537,3.141447e-08,-1.1276148e-08,8.2827306e-08,-6.582408e-08,0.66523546
1.9547949e-08,3.511839e-08,-1.0591782e-08,4.115151e-08,9.210066e-08,-0.21390127,0.082251064,0.054035768,-0.31788504,-0.5686014,6.2607413e-09,-3.004473e-08,0.44048107,3.663877e-08,-0.2264174,0.04877199,-0.3905071,-2.3526535e-08,0.7557464,-2.1616458e-08,-6.885713e-08,-0.14087012,0.2068753,-3.9248178e-08,-0.051830236,4.6237023e-08,-9.483715e-08,-2.2801228e-08,-2.0571973e-08,-0.43235308,0.17580892,2.9034679e-08,2.7105415e-08,-6.6550054e-10,0.31991157,-3.864184e-08,-3.344361e-08,1.3130972e-08,1.1875452e-08,0.63645303,-3.180759e-08,-3.2250895e-09,4.2795847e-08,-8.806801e-09,-9.021072e-08,0.73539484,0.6618051,0.2977257,-0.5077658,0.3910394,5.3017864e-08,-4.4241432e-08,-0.58444476,-8.760139e-09,-0.7063946,-0.6845375,0.36747646,-4.777318e-08,-0.37243456,3.9374237e-09,-2.1076998e-08,0.5888258,0.76229876,1.2902369e-07,-0.46851358,-4.043673e-08,-3.591016e-08,-2.6789328e-08,1.1931475e-07,0.35512134,-0.09166546,7.336319e-08,-8.843542e-09,-2.733769e-08,0.57228625,1.1595036e-08,-1.3714285e-08,1.1452882e-07,6.019584e-08,0.4613026
-1.1390108e-07,5.6125614e-08,1.636127e-08,1.662436e-07,-1.3476293e-07,-0.8326533,0.1728372,0.42184284,-0.39005926,-0.8224615,2.5671758e-08,-3.652526e-08,0.64109236,-2.5612552e-08,-0.2687896,0.44019583,-0.43424237,3.8970995e-08,0.8570039,4.0183483e-08,-7.609523e-08,-0.45974424,-0.17027831,-4.32795e-08,-0.27429858,9.86418e-09,-4.6177275e-09,5.410215e-08,3.1382672e-08,-0.90725684,0.36874878,6.534978e-08,3.6323048e-08,-8.551629e-09,0.3812733,-3.2156574e-08,-5.5402133e-08,1.0657371e-08,4.7610147e-08,0.74096,-5.1145733e-08,1.0076704e-07,-9.2500954e-08,1.3791117e-08,-5.026581e-08,0.78524846,0.8512785,0.56585747,-0.80160916,0.5008617,9.000314e-08,-5.861712e-08,-0.8523137,1.6173956e-07,-0.9631127,-0.84241205,0.6572862,-1.2831247e-08,-0.82832384,-1.1348742e-07,3.6135564e-08,0.7042068,0.95148087,-1.09652696e-07,-0.6548426,-6.5449825e-08,-8.6637115e-08,2.2456895e-08,4.699647e-09,0.2166456,-0.55592424,4.482294e-08,9.551637e-08,5.311111e-08,0.84635794,1.00779275e-07,4.6514344e-08,-6.637773e-09,-4.6308344e-09,0.9658199
1.5725472e-07,3.3676294e-08,1.2925128e-09,-1.14723946e-07,-1.1683879e-07,-0.4898492,-0.060004253,-0.42146578,-0.123766296,-0.6673114,-1.3639018e-07,3.292868e-08,0.22215892,-4.869543e-08,-0.15566953,0.28011796,-0.20683736,1.0791031e-07,0.1382969,-8.772027e-08,2.2088157e-08,-0.19207071,-0.041234747,1.148021e-07,-0.2258859,-2.1605494e-08,-6.1817564e-09,-7.3023685e-08,1.767293e-08,-0.61525595,0.24218953,1.4739973e-07,8.97772e-08,2.5283985e-08,0.11832474,5.970399e-08,-8.376553e-08,2.5310978e-08,-7.132262e-08,0.000914071,4.1541668e-08,-3.082743e-08,1.7105505e-07,4.794344e-08,5.280537e-08,0.48054755,0.4081925,0.3840491,-0.38982984,0.031001376,2.4133344e-08,3.625582e-08,-0.51810366,3.3957793e-08,-0.55556774,-0.5588948,0.38717923,-1.6127462e-08,-0.72190607,2.9222178e-08,3.568353e-08,0.30126998,0.5559301,1.1358946e-07,-0.023469195,1.0451453e-07,1.8398912e-07,-1.638063e-07,7.266022e-08,0.103166394,-0.08284762,3.2998457e-08,3.810554e-08,-3.1866524e-08,0.3231877,9.350243e-08,-4.230964e-08,-1.8854038e-08,2.5340649e-08,0.83386564
1.0415533e-07,-1.9870635e-08,1.2240376e-07,8.153996e-08,-3.6928807e-08,-0.19556871,0.05885329,-0.44852453,-0.3421449,-0.7085365,3.573752e-08,-2.0012592e-08,0.3969617,6.8276776e-08,-0.4130498,0.10377995,-0.46519598,2.9257283e-08,0.5980248,-7.520491e-08,5.0985108e-08,-0.0898861,0.22322617,-6.2195973e-09,-0.17026272,2.5925448e-09,-1.7590244e-07,-1.6980974e-07,3.3611798e-08,-0.35704035,0.06623883,2.0161327e-08,-3.5141262e-08,-3.193818e-08,0.3738427,1.9783784e-08,-1.198888e-07,1.0430018e-08,-7.593616e-09,0.48222917,-2.0596348e-08,5.0595254e-08,2.6601626e-08,3.6787554e-08,3.558342e-08,0.70784503,0.5537965,0.22966117,-0.26857856,0.25962013,-4.430907e-09,-8.2414104e-08,-0.53535736,-1.3787854e-08,-0.34898734,-0.6157155,0.24300511,-9.791354e-08,-0.76045805,-2.4035028e-08,-3.4399875e-08,0.51255196,0.6788423,-1.7688656e-08,0.1791441,1.4787036e-08,-1.4395596e-10,-4.0349086e-08,1.5165735e-07,0.39359787,0.05229864,6.0379406e-08,1.658237e-08,-1.50727e-08,0.18320562,-4.205443e-08,-3.157764e-08,2.4067681e-08,-2.8199374e-08,0.68321663
-1.5881739e-08,5.2130495e-08,-7.21937e-08,2.4780709e-08,-2.8112591e-08,-0.19539209,-0.23984908,0.63379985,-0.38485456,-0.6335723,6.0581414e-08,2.4623612e-08,0.6024922,8.690433e-09,-0.22234945,0.0583952,-0.3321063,-3.123073e-08,0.7900275,-9.28388e-08,8.9878235e-08,0.25464755,0.12656353,-1.6208313e-07,-0.099773765,1.0424637e-07,2.0336685e-08,-1.2521195e-08,-9.755644e-08,-0.54832417,-0.8972114,-6.3615e-08,-2.5982294e-08,8.691751e-08,0.4332537,-1.0610898e-07,3.278116e-08,-7.843649e-08,5.9240598e-08,0.6851249,-2.0537389e-08,1.1378429e-08,-6.82889e-08,3.7434837e-08,5.235057e-09,0.8011098,0.68389595,0.61677,-0.36668807,0.42613867,-1.11232545e-07,2.228255e-08,-0.47197795,-2.5258617e-08,-0.71172035,-0.78297037,0.45615244,-3.5025252e-08,-0.78015155,2.4678187e-08,-2.5205498e-08,0.6936816,0.8849383,1.2653486e-07,-1.2819635,-8.591332e-08,6.8758226e-08,1.951582e-08,-6.296138e-08,0.35430595,-0.7320636,6.8523214e-08,4.2236994e-08,3.0114606e-08,0.29523253,-8.833674e-08,2.5862782e-08,-5.805031e-09,-6.5721196e-08,0.6725021
4.468236e-08,-2.4719222e-08,6.4138e-08,9.393948e-08,6.5290706e-08,-0.37053746,-0.18340214,0.4564545,-0.42712167,-0.6513884,4.0478906e-08,7.984018e-08,0.64637184,-1.3577925e-08,-0.17948581,0.07585645,-0.32017654,1.1806336e-07,0.84626645,-6.372902e-09,-1.3719237e-08,0.19598289,0.053636346,-2.073229e-08,-0.29019985,-3.139784e-08,-8.905495e-09,9.38461e-08,-2.3195597e-09,-0.612848,-0.83193284,9.506204e-08,-6.88328e-08,2.1730582e-08,0.47110716,8.817527e-08,1.4817537e-07,1.574307e-07,-6.663676e-08,0.7009853,1.0598915e-07,4.582384e-08,-1.2322943e-08,-6.884382e-08,-3.7230315e-08,0.7707533,0.7757762,0.78334606,-0.35177886,0.40959844,4.096028e-08,-5.1928772e-08,-0.43347606,-1.3947847e-09,-0.73544997,-0.85157925,0.52587503,-4.970527e-08,-0.62256235,-6.267193e-08,9.8730716e-08,0.7577492,0.9438858,8.825359e-08,-0.9539215,4.7076213e-08,6.411774e-08,1.2829223e-07,-7.7265994e-08,0.28883457,-0.96880746,6.1590896e-08,8.331884e-08,-3.7613773e-08,0.26475233,-7.306474e-09,4.1052473e-08,3.1168014e-08,5.3040136e-08,0.66685593
-9.591007e-08,-3.8677634e-08,-1.3840544e-07,5.574918e-08,-1.0408168e-07,-0.0455657,-0.24013191,-0.15943718,-0.3878567,-0.6532334,5.6254322e-08,1.3549591e-07,0.5505871,9.491636e-09,-0.3000756,-0.070866585,-0.37486443,-5.5654628e-09,0.7637611,-8.415686e-09,-2.4455908e-08,0.35796076,0.22562976,-9.676999e-09,-0.3823224,-8.139763e-08,1.1695066e-08,-1.0978667e-08,1.1335075e-08,-0.3304727,-0.71795225,9.987933e-08,4.81227e-08,2.9533668e-08,0.41195503,3.887154e-08,-4.609841e-08,-3.1509956e-08,-8.410422e-08,0.59246415,-6.506113e-08,-1.6681474e-07,-1.3927813e-07,4.532216e-08,5.107662e-08,0.8135716,0.66237396,0.7590852,-0.20997949,0.25981316,-1.6387121e-08,-5.247291e-08,-0.39490107,2.8519922e-08,-0.34058338,-0.77844054,0.35952663,1.3223523e-07,-0.54617494,1.1215563e-07,5.315226e-08,0.62588483,0.8366374,2.9201015e-09,-0.47371647,-2.7596517e-08,3.406833e-08,7.675615e-08,3.7889166e-08,0.33589053,-0.7148767,-1.0301555e-09,1.6054425e-07,3.4095226e-08,0.07737454,-1.8629901e-08,-1.2447613e-08,-1.7566446e-08,3.2204504e-08,0.6001077
9.83284e-09,7.452755e-09,-1.0554581e-07,8.450668e-08,-4.6977604e-08,-0.24588114,-0.03167987,0.5724838,-0.61492175,-0.46528208,8.5969134e-08,7.2063074e-08,0.76761794,7.7326966e-08,-0.61584455,0.2106802,-0.5548545,-5.9670924e-08,1.0380144,-1.2070326e-07,-8.349748e-08,0.028521672,-0.2040609,-2.3419437e-08,-0.8309248,2.5187248e-09,5.412255e-08,-8.020563e-08,1.0876166e-07,0.29356542,0.38740972,-5.7846634e-08,-6.013961e-09,3.5996965e-08,0.61902463,4.68185e-08,1.5588599e-08,-3.1109586e-08,3.5741582e-08,0.8777934,-1.2900429e-07,8.143092e-08,-2.0754874e-07,-2.3096057e-08,-8.417117e-08,0.94369763,0.9071266,0.97469735,-0.12133758,0.6966711,-2.4347912e-08,4.8618002e-08,-0.41314745,4.7120963e-08,-0.0020690719,-0.9223748,0.45824066,3.1060292e-08,-0.22222877,3.6282046e-08,3.358153e-08,0.8236438,1.0017918,5.1636622e-08,-0.6776033,-8.295798e-08,5.533837e-08,-3.9019072e-09,5.6470675e-08,0.58792937,-0.9054595,6.2185e-08,-5.7480044e-08,9.680419e-08,0.01986078,-4.450871e-08,7.92451e-08,-3.1730092e-08,5.4402673e-08,0.4393771
-9.379812e-09,-3.4112777e-08,-6.117126e-08,-3.1264918e-08,-1.0847263e-07,-0.13774087,0.14530426,-0.49068338,-0.36327788,-0.58615357,-5.2557684e-08,9.860149e-08,0.4880778,6.561039e-08,-0.38485765,-0.020018738,-0.33575714,7.298784e-09,0.66525316,2.5420075e-08,-1.0957285e-07,-0.1778224,0.29869416,-1.525856e-08,-0.4785535,-1.2096603e-08,1.1435973e-07,-1.0895427e-08,2.9083095e-08,-0.11628479,0.35784554,-7.182501e-08,4.6740052e-08,9.0159435e-09,0.35742843,-3.2453865e-08,-6.86228e-08,-8.966383e-08,-5.7080104e-08,0.5185766,-1.2933183e-08,2.2636804e-08,4.7883574e-08,-6.226153e-08,5.468317e-08,0.7255997,0.611523,0.6769463,-0.10826819,0.2758484,4.590926e-08,1.2349481e-09,-0.40046653,1.394507e-07,-0.05878161,-0.72794497,0.3575575,-2.2577805e-08,-0.4691497,5.4553595e-08,-5.626633e-08,0.51062196,0.7784275,3.6095066e-08,0.31924406,4.5744592e-08,1.0439299e-07,1.9519588e-08,8.545539e-09,0.3227251,-0.41392392,-4.9025008e-08,-1.3602707e-07,1.6882453e-08,0.057030186,-1.9723778e-07,7.019441e-08,4.476263e-09,-2.0477744e-08,0.5562772
-2.3087303e-08,-3.2545245e-08,1.7500364e-08,-1.1417684e-07,7.533076e-08,-0.1903583,0.47036517,0.09123317,-0.31607774,-0.41589037,-5.2515357e-08,1.4359227e-08,0.53639305,-9.661643e-08,-0.4134418,0.094480455,-0.39131606,-6.230804e-08,0.7808948,-4.8225672e-09,6.185547e-08,-0.5807356,0.16017884,8.548344e-08,-0.6533383,-2.544672e-09,2.5281892e-09,1.8981534e-07,6.514965e-08,0.3422087,1.5228485,7.5520916e-08,-5.1515865e-08,-9.578805e-08,0.31380728,-5.789698e-08,-8.168348e-08,1.9008439e-10,1.8560979e-08,0.660522,-4.3129905e-08,4.0175863e-08,-2.964986e-08,-5.724386e-08,1.2894265e-08,0.72440755,0.607375,0.70766944,-0.033993565,0.43611,5.1244136e-08,-1.0764619e-08,-0.35478747,2.5264374e-08,0.31202668,-0.6545018,0.24246559,-6.304542e-08,-0.3111175,2.6090143e-09,4.7588237e-08,0.46799895,0.77389956,-1.4640957e-08,0.0019747126,2.6933513e-08,2.1465318e-08,3.204716e-08,3.875516e-08,0.27590635,-0.39399642,2.1240403e-08,1.9015099e-08,1.1627911e-08,-0.0038404197,-1.02479945e-07,1.0845387e-09,6.3187926e-08,-5.1997468e-08,0.4544524
-1.8043938e-08,-6.7733595e-08,1.759142e-08,-3.183451e-08,-6.4317405e-08,-0.009125552,0.42883307,0.499171,-0.4094273,-0.22061288,-4.187953e-08,-1.8446997e-08,0.58061004,1.7915812e-07,-0.53991956,-0.045461666,-0.42642665,5.4137274e-08,0.80483174,-3.7668e-08,-2.6182965e-08,-0.38962394,0.13517703,5.1867303e-08,-0.8033762,2.087777e-08,1.5778355e-07,-4.1189928e-08,5.0700372e-08,0.66363466,1.3486872,-1.16905625e-07,1.4152977e-07,-1.2776741e-07,0.4221904,3.3240866e-08,1.0595434e-07,-9.307716e-08,5.7804424e-08,0.70789754,-1.5265549e-08,3.509915e-09,8.7254946e-08,4.730467e-08,-1.0895427e-08,0.76310915,0.7017253,0.83862096,-0.0023505324,0.5482153,-1.2453118e-07,-1.160868e-08,-0.2895353,-4.856515e-08,0.48021242,-0.710347,0.22397988,5.030875e-08,-0.21023835,9.579182e-08,9.585456e-08,0.5869902,0.8024628,3.099586e-08,-0.39365917,4.0879726e-09,1.02377406e-07,-1.484378e-07,-1.7404323e-08,0.41747817,-0.8946292,-4.3224237e-08,-6.855143e-08,1.6270105e-08,-0.059348304,1.7686384e-07,-6.799564e-08,-3.50523e-08,6.747075e-08,0.32465565
-4.2022467e-08,-2.1458767e-08,-1.9577504e-08,1.1864738e-07,-2.6252133e-08,0.008335987,0.58233774,0.34650895,-0.5082539,-0.3719801,4.3741583e-08,1.1610098e-07,0.66396135,9.740123e-08,-0.65381014,-0.08447049,-0.57839453,3.2799708e-08,0.90329015,9.671975e-09,-2.0770912e-08,-0.5952742,0.1967671,9.8287046e-08,-0.90485704,-2.1553614e-08,-7.947475e-08,5.603283e-09,-5.388684e-08,0.8086147,1.4359814,2.7555858e-08,-1.4944616e-08,1.6567422e-07,0.52691936,-1.3505588e-08,-5.089e-08,-4.112742e-08,-3.3308723e-08,0.8055421,-1.204489e-07,3.9362043e-08,-3.124299e-09,-7.782813e-08,1.6818191e-08,0.8752282,0.7717377,0.97496474,-0.10989654,0.62872916,5.3238082e-08,2.9802916e-08,-0.4609257,4.6433808e-08,0.5732032,-0.82549316,0.24331799,-1.7954116e-07,-0.3500481,-1.5783766e-07,-2.0987247e-08,0.6892942,0.91699016,-7.885187e-08,-0.1164784,6.603289e-08,-4.795613e-08,8.002509e-08,-7.014464e-08,0.5675058,-0.90674,2.8119644e-08,6.771581e-08,-1.3792905e-07,0.06792658,-4.6102663e-08,-4.9532478e-08,2.2542267e-08,-4.531971e-08,0.4306856
-7.233099e-08,-3.158991e-08,1.14154076e-07,-1.0036452e-07,-4.9249287e-08,0.034763694,0.29401278,0.16856897,-0.46239865,-0.29972044,-6.8330706e-08,1.5244487e-08,0.6034154,7.545115e-09,-0.60398644,-0.08233355,-0.44641495,1.2663816e-07,0.8132217,-4.448166e-08,1.5823397e-07,-0.24080536,0.1488453,6.6415033e-09,-0.7675978,-2.3618244e-07,-3.3231053e-08,-6.799431e-08,1.3496695e-08,0.6399504,1.0998521,2.6307244e-08,8.5806164e-08,-4.0850512e-08,0.4749118,-6.400123e-09,-7.0476695e-08,-4.6913033e-09,-3.3648337e-08,0.71021837,7.853041e-09,6.539061e-08,-8.994656e-08,5.3392004e-08,5.788632e-10,0.80747086,0.7225267,0.80760324,0.11270073,0.48727262,6.465162e-08,-5.517832e-08,-0.19111219,-1.1995884e-07,0.55175453,-0.73908573,0.18439695,4.7459295e-08,-0.09428814,8.904252e-08,2.5920873e-08,0.64031136,0.8127637,1.7400922e-08,-0.07540025,-4.41618e-08,-2.59957e-08,-1.1465973e-07,-5.3746664e-08,0.53910464,-0.72890216,2.6960429e-08,-2.679208e-08,-6.513158e-09,-0.16861954,-4.7979867e-08,8.817537e-08,8.11171e-09,-4.2551e-08,0.18974051
-4.7859956e-09,-6.335728e-08,-6.2009356e-08,-7.7346165e-08,1.9004512e-08,-0.05893773,0.4500685,-0.10548028,-0.5714734,-0.3549723,1.0923026e-07,-2.6624654e-08,0.7043077,-3.2687065e-08,-0.6691655,0.00034715308,-0.5638212,-4.049584e-08,1.0164653,3.783396e-08,-1.0795962e-07,-0.37969726,-0.020020809,8.1903195e-08,-0.75221306,-5.4157834e-08,-2.0869138e-09,-3.360258e-08,3.0342e-08,0.9381747,1.078398,-3.2222196e-08,-1.7741204e-08,-5.2212783e-08,0.5915863,5.98888e-08,-5.9984046e-08,1.2301632e-07,3.8167116e-08,0.9011738,4.6156046e-08,-6.1586455e-08,3.1131105e-08,4.896614e-08,-8.719347e-09,0.9005732,0.8237718,0.80910355,0.11213374,0.66787255,8.070823e-08,-4.2540616e-08,-0.3505894,5.7202953e-08,0.6425505,-0.8161451,0.27628085,-5.5590615e-08,-0.14727545,8.030817e-09,-1.9275386e-07,0.70344234,0.9143004,-5.2712497e-08,0.4556285,3.8624762e-08,2.0838776e-08,1.334947e-07,-7.093463e-08,0.54976994,-0.66524065,1.21019355e-08,5.8198246e-08,6.8898714e-08,-0.20340523,2.3102295e-08,5.0666365e-08,-6.161722e-08,-1.1242243e-09,0.25735128
-7.67029e-08,-1.4276154e-07,-6.103615e-08,4.199922e-08,-8.622267e-08,0.08915,0.61120087,0.025189739,-0.6224071,-0.3455867,-7.95128e-09,1.304591e-07,0.71874624,-9.301117e-08,-0.7401135,-0.17940317,-0.609612,-5.5477063e-09,1.0014173,1.0241307e-07,-2.334882e-08,-0.52903926,0.27784684,-2.0157842e-08,-0.9869173,-2.4294335e-08,1.5557193e-08,4.761641e-08,8.115879e-08,0.775846,1.3767581,5.904009e-08,6.559066e-08,7.953985e-08,0.6504393,1.0143848e-07,-1.389429e-07,1.2419636e-07,4.990037e-08,0.8748319,-7.1995583e-09,-4.1517136e-08,2.528145e-07,-9.2666895e-08,1.591842e-08,0.94219005,0.8614266,1.0733325,0.068949826,0.6013703,-4.6577355e-08,-2.2240414e-08,-0.35727668,5.1965728e-08,0.617531,-0.8814418,0.25242564,1.04470494e-07,-0.22642915,3.631761e-08,-8.538499e-09,0.752569,0.9482909,1.2231045e-07,0.19125004,-1.2210792e-07,-1.223072e-07,-2.2320346e-08,-2.1549234e-09,0.6266569,-1.0367639,-8.9431715e-09,6.031522e-08,-7.827559e-09,-0.09096437,1.0770502e-07,6.448051e-08,1.860913e-07,8.700586e-08,0.26783237
-3.6263202e-08,4.8032188e-08,-1.5296649e-07,-1.2278599e-07,-1.0246366e-07,-0.30454564,0.49095213,-0.22860894,-0.31325942,-0.36318558,7.819373e-09,7.216016e-08,0.53613997,1.4138776e-07,-0.55275357,0.07058508,-0.34802958,-5.5749814e-09,0.7212016,-1.0006462e-07,-4.4704315e-08,-0.6141037,0.030427206,1.2569035e-07,-0.7478069,6.6039325e-09,2.1851758e-08,-6.2670445e-08,-4.0988517e-08,0.67630225,1.484561,9.819879e-08,-5.3843547e-08,1.5906245e-08,0.26882657,-4.0866112e-08,6.301437e-08,-1.6579094e-09,8.695064e-08,0.6131636,-2.6035679e-08,6.8022004e-08,2.3667592e-08,-7.398367e-08,2.2138238e-08,0.68701196,0.6383007,0.75337064,-0.06362658,0.40108186,-1.15266964e-07,-8.0111256e-08,-0.39340013,-7.82478e-08,0.68866867,-0.67268026,0.29132143,5.8444805e-09,-0.31067622,-1.0009453e-08,-4.38906e-08,0.4732919,0.7473639,3.121002e-08,0.62717056,3.2414647e-08,1.6234345e-08,-1.12125434e-07,-3.659229e-08,0.3434037,-0.6049684,1.0669321e-08,2.6954368e-09,-5.83238e-08,0.08292106,-8.757338e-09,-4.8610644e-09,1.777667e-08,-2.1333904e-08,0.4454052
-2.3572369e-08,-1.373336e-07,6.147718e-08,-9.94029e-09,1.0481884e-07,-0.24982838,0.31714246,-0.73015606,-0.26344255,-0.5529765,-5.3321823e-08,4.1799304e-08,0.45483223,4.6365933e-10,-0.40916196,0.023741601,-0.32529208,2.5023798e-08,0.6078582,-1.0538177e-07,1.15765815e-07,-0.4118957,0.2648008,1.3530129e-07,-0.5168484,4.0344716e-08,7.5189625e-08,-2.3496598e-08,1.8346451e-07,0.05851385,1.2743012,-8.384605e-08,4.7180897e-08,1.1814114e-07,0.281476,1.1915166e-08,-1.1722034e-07,-8.423105e-08,-5.4990394e-09,0.40796798,-1.1628712e-07,-1.5254393e-08,2.0439012e-07,4.981287e-08,-2.9312184e-09,0.74880683,0.62599146,0.5984056,-0.064140305,0.21397202,-9.071111e-08,-6.953386e-08,-0.34749448,-5.7200133e-08,0.038968842,-0.72853273,0.33212617,-7.2420185e-08,-0.38527983,-1.1369905e-07,2.7266989e-08,0.5028575,0.7658015,-8.591548e-09,0.58017296,7.581025e-09,1.1518852e-07,1.7570216e-07,-5.154132e-08,0.3495467,-0.24804163,-1.1288609e-08,-1.5455038e-07,1.4070469e-09,-0.07404831,1.15661436e-07,-6.769868e-08,6.857433e-08,-3.897453e-08,0.59652734
-9.840249e-08,-5.4233578e-09,1.4152434e-07,1.0258453e-07,-2.0116385e-08,-0.41958675,-0.022573635,-1.124577,-0.13655144,-0.76047456,2.2925114e-08,1.9033048e-07,0.30661565,3.5306137e-08,-0.214848,0.08873878,-0.18583184,4.7395808e-08,0.32272473,1.5375137e-07,6.4121934e-08,-0.056976095,0.22380961,7.625735e-08,-0.17505346,1.917686e-08,-1.1381591e-07,1.938048e-09,-6.5111195e-08,-0.53584987,0.40517405,-4.9553716e-08,3.6232404e-09,-1.07142085e-07,0.15324846,1.9614316e-08,5.7867183e-08,3.5688934e-08,-5.818688e-08,0.052054536,1.9448622e-07,3.0083424e-08,-2.028304e-08,-8.6534495e-09,6.218629e-08,0.5948741,0.498466,0.41822132,-0.2146356,-0.03955859,-1.3998029e-08,-7.549458e-09,-0.38270748,-2.8088696e-08,-0.36771113,-0.676816,0.375942,-1.6389054e-08,-0.5330625,2.991551e-08,2.7345848e-08,0.4042902,0.6785712,5.641565e-09,0.85249096,1.2187601e-07,6.8179546e-08,-7.360679e-08,-4.5128736e-08,0.19054507,0.18581364,1.122807e-08,-2.2689758e-08,1.4842065e-09,0.047297638,4.874475e-08,1.273925e-08,-4.154728e-08,-6.971638e-08,0.7813257
4.7785598e-08,8.07515e-09,-2.0408642e-07,9.634782e-09,-1.2876306e-08,-0.11079581,0.16247752,-0.014301598,-0.4980955,-0.64997715,6.0763234e-09,-1.1565355e-08,0.72872686,-2.3657133e-08,-0.5619968,-0.040617675,-0.5158144,4.679582e-08,1.0282786,2.1470665e-08,-1.9443384e-08,-0.14796305,0.23591554,7.178217e-08,-0.95143735,-2.517141e-08,4.2472315e-08,7.3958155e-08,-2.5002151e-09,0.13826498,0.8330117,2.2789798e-08,4.8005813e-08,-8.1204306e-08,0.5219754,1.2569643e-08,-4.0196564e-08,8.7741014e-09,1.551353e-08,0.8285739,-9.101055e-08,8.7564395e-08,1.9446807e-07,8.918088e-08,-1.566918e-08,1.0359662,0.92975044,1.1998618,-0.26115742,0.56361026,6.3040375e-08,-1.6685798e-08,-0.54035825,-1.2412267e-08,-0.04943736,-0.9875142,0.47183084,-4.083516e-08,-0.39025605,-4.0995793e-09,-6.2120996e-08,0.8274156,1.1135149,-1.5628522e-07,-0.5353249,3.7361602e-08,3.4338644e-08,-8.963065e-08,-8.3521485e-08,0.5565134,-1.033694,9.73172e-08,5.145168e-08,1.3324986e-09,0.13103265,7.7229885e-09,-5.361236e-08,1.2394125e-07,-8.987964e-09,0.65112007
1.06911045e-07,-7.687174e-08,-3.9407894e-08,1.0036705e-10,7.992002e-09,0.1725334,-0.0072342525,-0.1022755,-0.5494512,-0.28304213,-6.914155e-08,5.48998e-08,0.68085337,7.5149e-08,-0.3956526,-0.10488311,-0.38352555,-3.6976814e-08,0.92163223,-2.7524328e-08,1.2653749e-07,0.18472634,0.271559,-4.425616e-08,-0.568378,3.6065465e-08,8.039322e-08,1.1417525e-08,2.8851408e-08,0.09475172,-0.14627597,-2.9696842e-08,1.05762076e-07,-1.4714561e-07,0.5973562,1.471388e-08,-4.0690544e-08,1.5642473e-07,-1.0838692e-07,0.79594105,-1.6567694e-07,7.390145e-08,1.7353543e-07,-5.7411977e-08,-4.043806e-08,0.8709478,0.7622175,0.94544303,-0.006432946,0.60611737,-2.4045478e-08,-1.0462591e-07,-0.20979737,-4.574622e-08,-0.118155204,-0.78391427,0.39025977,-5.5511116e-08,-0.110470496,1.8594156e-08,-1.6977549e-07,0.7508503,0.88902897,6.860882e-08,-0.45006797,3.281679e-08,4.168541e-09,3.7661454e-08,-4.509031e-08,0.4335262,-0.87883496,-2.3822366e-10,1.0964605e-08,3.952343e-08,-0.18087047,-1.0546911e-07,3.9076706e-08,-5.8541517e-08,6.8289225e-08,0.28705937
3.0971975e-08,-1.3742861e-07,4.0668777e-08,-1.7122983e-07,-2.785412e-08,0.047810256,0.5488623,0.21370359,-0.30672535,-0.3596233,-3.4801193e-09,3.7883375e-08,0.51325345,5.7004765e-08,-0.44013044,-0.2359688,-0.35686892,2.7064868e-08,0.78997093,7.527583e-08,-3.8126977e-09,-0.47620773,0.38253188,1.6727288e-08,-0.766491,-3.079827e-08,-3.4324415e-08,5.1810186e-08,5.2559404e-08,0.5997539,1.3596411,1.7069148e-08,4.2616026e-08,-7.368815e-08,0.3259703,7.136123e-08,-1.017578e-07,-6.484511e-08,-6.6877206e-08,0.6457162,3.733068e-08,-1.6749805e-08,6.3845796e-08,1.4887824e-08,-4.1651717e-08,0.7742181,0.66452456,0.96559834,-0.048717197,0.38625827,3.120567e-09,2.0259442e-07,-0.33690995,-1.5066199e-07,0.4675945,-0.7214285,0.22016084,-4.469878e-08,-0.32264003,6.7087896e-08,-3.0111885e-08,0.5322462,0.8372838,-9.8811785e-09,-0.3219917,2.1692145e-08,4.2122494e-08,-4.8265996e-08,1.3765181e-08,0.3326048,-0.8023431,-4.6280157e-08,4.463118e-08,2.3772078e-08,-0.030852918,-1.2002519e-07,-6.4608926e-08,5.6505794e-08,-1.432979e-07,0.4149743
-1.1641376e-08,2.3719362e-08,-7.975205e-08,-1.3328469e-07,5.452034e-08,0.0086763315,0.35683674,-0.04029862,-0.3764691,-0.5551983,-1.5439403e-07,2.282114e-08,0.5309398,4.0239655e-08,-0.47738537,-0.2395005,-0.448868,2.4688525e-08,0.7398337,7.850239e-09,4.247069e-08,-0.26257613,0.42957544,-7.560104e-08,-0.8505233,-5.3157414e-08,-7.309212e-08,-2.628272e-08,7.948216e-08,0.13374427,0.9040596,-6.543722e-09,-6.0676065e-08,-1.17531826e-07,0.40183872,6.191574e-08,-7.760575e-08,4.6744926e-08,2.140677e-08,0.58248925,-1.0094901e-08,9.353661e-08,-2.6202602e-07,-4.6297792e-09,1.06267585e-07,0.8339982,0.73021483,1.1096476,-0.09274977,0.28368613,-1.11745535e-07,-5.0688342e-08,-0.37723553,-1.0275466e-07,0.18445419,-0.81386936,0.276079,8.586492e-08,-0.42439738,-2.6477444e-08,4.3599623e-08,0.62803745,0.8753113,-1.5221309e-07,-0.37680095,-1.2977317e-07,-7.549284e-08,-1.1855288e-08,1.7408336e-08,0.39101505,-1.0316118,-8.23391e-08,-8.806555e-08,-2.7104619e-08,-0.044549424,1.01077646e-07,-8.332894e-08,-5.7201976e-10,-5.967485e-08,0.56861055
1.8674182e-09,-8.403862e-09,-5.7479006e-08,-2.289122e-08,-3.8203794e-08,-0.095372476,0.13277535,0.068369746,-0.44389945,-0.45082068,2.7874195e-08,7.500433e-08,0.593808,-1.7273372e-08,-0.4736306,-0.057219457,-0.41657636,-1.39576315e-08,0.80620927,2.0623665e-08,-3.0390837e-09,-0.017670697,0.15873165,7.302857e-08,-0.76110977,5.2839983e-08,1.2916887e-08,-3.512801e-08,-7.676045e-08,0.1864897,0.6632618,3.7021408e-09,-2.1930713e-08,3.150288e-08,0.46936977,-7.841852e-08,1.06442386e-07,-3.4607158e-08,-8.35952e-08,0.63501877,4.7849595e-09,-1.5787965e-08,1.9118147e-07,-3.52715e-08,-1.940329e-08,0.80725944,0.7604456,1.0532494,0.044393465,0.38306755,-1.0583614e-07,7.556186e-08,-0.25149855,4.1756827e-08,0.16920537,-0.7992417,0.3444712,-4.7716746e-08,-0.28605965,2.1777161e-08,-8.873256e-08,0.6598749,0.8755244,-3.3174324e-08,-0.4050212,7.70445e-09,1.5976035e-07,-3.367524e-08,-6.4074314e-08,0.40551144,-1.0420098,-4.6277144e-08,1.296535e-08,-5.8465828e-09,-0.20511273,4.821962e-08,-5.2502397e-08,1.0362549e-08,-1.215313e-07,0.46953854
-2.0666403e-07,1.838784e-08,-3.199929e-08,-2.1897009e-08,1.0657182e-08,-0.09111797,-0.03480649,-0.41354477,-0.43408766,-0.47850493,-1.3912061e-08,2.5677018e-08,0.5370557,-4.5027228e-08,-0.2971944,0.07212265,-0.3935103,1.0283483e-07,0.75814396,8.6215934e-08,1.1569646e-07,0.10920069,0.17195405,2.7411483e-08,-0.39659667,3.5893407e-08,-6.1176586e-08,2.3452435e-08,3.749118e-08,-0.26494366,-0.066855446,-3.899241e-08,-3.3780616e-08,-3.3504083e-08,0.42495605,6.2355255e-08,8.388582e-09,-1.0010493e-07,-5.3393908e-08,0.6954003,3.991908e-08,2.4584086e-08,9.702791e-08,-3.7754972e-08,-1.2179526e-09,0.7461171,0.6292709,0.7446899,-0.12069271,0.45075786,4.76042e-08,-7.729722e-08,-0.38290882,-1.6635727e-08,-0.32856226,-0.6759533,0.32345277,2.4529792e-08,-0.32986334,7.534878e-08,4.6728132e-09,0.56616783,0.77898836,6.299245e-08,-0.2126673,1.4999918e-07,-1.8417121e-07,-1.9789063e-08,-5.3590896e-09,0.3286807,-0.6287784,-6.8876265e-09,-3.840154e-08,4.704576e-08,0.05955632,8.224131e-08,4.924787e-08,2.1075028e-08,1.2781719e-08,0.3505736
5.4164303e-08,4.777214e-08,6.0072196e-08,2.8332511e-08,-9.603176e-08,0.45463324,0.25746962,-0.63890886,-0.44904584,-0.45459694,-9.052576e-08,1.3404046e-08,0.4470349,1.06559295e-08,-0.6560412,-0.37442946,-0.5781821,-4.0277026e-08,0.71603286,-3.7759474e-08,-2.3658071e-08,-0.13297857,0.5018336,1.03691306e-07,-0.85179263,-5.236211e-08,7.4393384e-08,1.9363886e-08,7.469882e-08,0.5941307,0.30148745,-6.774984e-09,-5.8766826e-08,5.3765778e-08,0.4844688,-2.2922018e-08,5.998761e-08,2.0210493e-08,-8.515072e-08,0.5770582,-5.0712934e-08,-1.1909693e-07,1.2414098e-07,-3.055465e-08,3.4684845e-08,0.8470014,0.61008537,0.9039497,0.03357864,0.23077075,3.3246156e-08,-2.1307503e-08,-0.27261323,-1.1549692e-07,0.6515934,-0.720748,-0.070296,3.1699752e-08,-0.12989774,-6.9819734e-08,4.9304706e-08,0.5638301,0.7563402,-3.404984e-08,0.5218974,1.08098895e-07,-1.3866433e-07,-2.304735e-08,5.827717e-09,0.64102894,-0.6933152,-1.0277997e-08,6.148073e-08,-1.649914e-07,-0.11129747,5.71359e-08,-8.629712e-08,-5.3952142e-08,-2.490372e-08,0.24722825
-3.2734526e-08,-5.737734e-08,1.5728632e-07,-6.683878e-08,-3.9011606e-08,0.07965582,0.28435874,-0.891383,-0.46447924,-0.682038,-5.4877063e-08,-4.65147e-08,0.5566975,-5.6162204e-09,-0.63813627,-0.21148956,-0.54849803,5.9722858e-09,0.8288239,-2.835349e-08,-6.622108e-08,-0.24337931,0.42875826,-1.894042e-07,-0.9454906,-1.2443278e-08,9.581801e-08,-1.0341182e-08,8.8873946e-08,0.13260905,0.71174484,-1.3819538e-08,4.4057465e-08,8.120362e-08,0.4714807,6.243594e-08,5.564349e-11,1.9190267e-09,-1.4720328e-07,0.6437606,1.1003227e-07,-3.0448717e-08,-8.17102e-08,-2.8488671e-08,-6.6204166e-08,0.8997086,0.76578087,1.0186405,-0.11017704,0.24098364,8.2731816e-08,-1.6097239e-08,-0.378438,-6.1095875e-08,0.31627098,-0.84234375,0.15441617,-2.1198662e-08,-0.2681301,6.7364425e-09,-4.1870535e-08,0.62974495,0.91751933,-6.0741925e-08,0.79361326,1.1988643e-08,9.2443386e-10,-3.2545113e-08,2.6163853e-09,0.5778035,-0.68416584,1.9856675e-08,-1.462139e-08,-1.14684795e-07,0.0851791,-7.847126e-08,8.5447134e-08,-2.8010687e-09,4.0270727e-08,0.47969165
-1.04120215e-08,-2.265461e-08,-3.4123966e-09,-7.2314194e-08,4.5673954e-10,0.030070413,0.17409597,-0.23288335,-0.41074693,-0.51722294,-6.824356e-08,2.0679494e-09,0.41646755,-2.5029523e-08,-0.40253046,-0.055084676,-0.4917967,2.9373934e-08,0.621659,-7.7588375e-08,7.5028495e-08,-0.11904251,0.27569112,-7.129789e-08,-0.6101051,1.8194964e-08,-6.2047704e-08,8.478107e-09,4.4993023e-09,-0.14165443,0.5086064,-5.123115e-08,-5.5716068e-08,5.443571e-08,0.422384,-1.2348993e-08,1.6324653e-07,-1.0290547e-07,1.5114338e-08,0.5042888,-3.0575126e-08,6.1421574e-08,-4.2805173e-09,-6.9797004e-08,-1.3745198e-07,0.6916324,0.5765334,0.7478488,-0.12920308,0.30522826,-5.292896e-09,-2.3755742e-08,-0.40371174,-1.17047136e-07,-0.06292255,-0.64559066,0.18657053,9.825407e-08,-0.3798188,-3.7825565e-09,3.2308115e-08,0.52978766,0.68267477,5.3165543e-08,-0.03866923,1.4470562e-08,-1.0266629e-08,-4.6102503e-08,7.4548026e-08,0.41413593,-0.6734371,-1.8344723e-08,-6.563421e-08,-7.482509e-08,0.07669297,1.0564711e-07,5.1296553e-08,5.612546e-08,8.65985e-09,0.50793105
-6.3083384e-08,4.7812055e-08,-7.9851816e-08,-1.8210751e-07,-4.4251745e-08,-0.11406068,0.47376525,-0.32116163,-0.33656064,-0.58941084,-6.065295e-08,1.7556653e-08,0.5793735,-9.5156025e-09,-0.4700248,-0.06522826,-0.46460372,-1.0589902e-07,0.8665258,-3.357445e-08,-8.812954e-08,-0.4309398,0.35168207,8.1938055e-08,-0.5480702,-1.7549743e-07,-1.45758925e-08,-5.549844e-08,-7.738095e-09,0.40428996,1.3950237,1.1588284e-07,-1.5542604e-08,-1.5295976e-08,0.33169252,1.110117e-07,-9.4964825e-08,1.1596248e-07,-3.3484675e-08,0.6881591,9.923784e-08,-1.5466209e-07,-1.8908665e-07,-2.0650955e-07,-1.8749578e-08,0.8643381,0.70970196,0.8068568,-0.17439671,0.41881406,4.0272095e-08,-7.805166e-09,-0.5491956,-1.6507654e-08,0.2580983,-0.78645974,0.30927607,2.9346445e-08,-0.44531378,-7.1481814e-08,-9.737221e-08,0.55342,0.88980544,2.3505796e-08,-0.10753986,-1.7077116e-07,2.6191366e-08,-1.20955885e-08,9.989964e-09,0.41452268,-0.533418,4.2673705e-08,3.8661227e-08,1.1547432e-07,0.072902806,1.04448496e-07,-1.4073837e-08,-3.8293763e-08,-5.070494e-09,0.62758344
-2.2722444e-08,7.485553e-08,-9.7450446e-08,5.4959457e-08,-1.6285576e-08,-0.3900378,0.38274568,0.32586864,-0.12228095,-0.47081718,2.1899421e-08,3.866888e-08,0.28050762,4.5691092e-08,-0.22916207,0.11111623,-0.20639701,-8.608016e-09,0.35254988,-7.5643555e-08,3.699716e-08,-0.49992096,0.13368647,-4.076322e-08,-0.30456468,-4.146255e-09,-5.7267744e-08,1.1796287e-07,3.1802138e-08,-0.020509517,1.2418036,-5.8700536e-08,-3.959771e-08,-6.991027e-08,0.1165811,-6.304947e-08,-6.183315e-08,2.293372e-08,-8.001392e-08,0.20532034,2.898975e-08,-6.2910104e-08,-1.5250521e-09,4.901755e-08,4.2715328e-08,0.43406335,0.3676724,0.32904446,-0.32108223,0.23885296,-3.2172593e-08,-3.010689e-08,-0.4615943,1.3069521e-08,-0.108529374,-0.4662432,0.3395695,1.3379936e-07,-0.5112781,-4.5109932e-08,4.2642885e-09,0.2569863,0.48799682,-7.68789e-09,-0.31078354,3.2094558e-08,2.8142141e-08,5.5810244e-08,2.9458787e-08,0.18976617,-0.11918551,2.4525466e-08,3.0362273e-08,2.1417751e-08,0.29307035,-1.1781384e-09,-3.8321094e-08,-1.2456421e-07,-4.5758718e-08,0.62468284
-9.390993e-08,9.185285e-08,2.5445196e-08,1.4502199e-07,2.6048879e-08,-0.4940776,0.64756215,1.239065,-0.62762874,-0.5735903,-1.0579006e-07,3.7427224e-08,0.8417587,5.7486673e-08,-0.7131655,0.14079478,-0.6450113,5.7991834e-11,1.0174339,-2.892332e-08,-1.2687998e-08,-0.7592395,-0.04200638,3.8602803e-08,-1.0442865,-3.1953803e-08,-1.4308216e-07,-2.8829703e-09,8.714178e-09,0.34633812,1.5053762,-1.0628604e-07,1.8103918e-10,-5.6390554e-09,0.63717926,1.7763575e-08,-3.8047972e-08,1.2262191e-07,3.388995e-08,0.92835754,5.9077834e-08,-8.349883e-09,3.7894785e-07,1.605458e-08,5.1571902e-08,0.92060244,0.950172,1.0684081,-0.26152876,0.7373539,2.5841686e-08,1.4080339e-08,-0.5897347,2.7552883e-08,0.24911425,-0.9629145,0.5088096,-6.3992886e-08,-0.56734914,-5.2028337e-08,1.0036106e-07,0.84255296,1.0569835,3.6837232e-08,-0.9341923,9.097068e-09,-7.135172e-08,1.909136e-08,8.6979846e-09,0.579879,-1.2009398,-7.774531e-08,2.752321e-08,3.758921e-08,0.234741,5.2396796e-08,-1.0290322e-07,1.3407263e-08,-1.2257364e-07,0.67634606
-1.3565412e-08,1.6200642e-07,-3.1334505e-08,-7.5750904e-08,5.4967558e-08,-0.4335357,0.7511531,0.83192074,-0.47134987,-0.5397682,9.491898e-08,1.2694682e-07,0.75654954,1.2407476e-08,-0.7456326,0.13815247,-0.57455605,1.7723348e-08,0.9810015,7.0760784e-09,-3.4611926e-08,-0.93750334,-0.11544721,4.6353286e-08,-1.0563015,-1.04884684e-07,-3.2482845e-08,-3.597303e-08,2.8747314e-08,0.6872239,1.5930644,-1.3386234e-07,-5.177854e-08,4.4009276e-08,0.47027418,1.8466963e-07,9.612098e-08,-6.8215e-08,3.190727e-08,0.8554854,-2.2895209e-07,8.580892e-08,4.988582e-08,8.423651e-09,-1.7168023e-08,0.8632593,0.9075639,0.98117596,-0.39730653,0.6532152,-1.2458186e-07,-5.923453e-08,-0.5433363,-1.3088711e-08,0.42793542,-0.9069513,0.41959623,6.260289e-08,-0.38493532,-6.629352e-08,2.7075036e-08,0.7152575,1.0144613,6.0622575e-08,-0.22249061,-1.3586934e-07,-7.898093e-08,-1.5774386e-08,4.0909505e-08,0.62140876,-0.9108815,4.0815873e-08,-2.1923512e-08,-2.0656186e-07,0.4692238,-8.658874e-08,3.9334054e-08,-2.9937915e-08,4.7995897e-08,0.5645468
8.057195e-08,-3.8586712e-08,7.172181e-08,-2.0326286e-08,6.7404805e-08,-0.2964087,0.54791147,0.4445443,-0.55855525,-0.63632035,9.130957e-08,1.3773658e-07,0.72481227,7.386601e-08,-0.63023037,0.06674425,-0.6302419,-1.4150667e-07,0.9407306,-2.5980224e-08,-2.0398092e-08,-0.63296205,0.09936106,8.029888e-08,-1.0513141,2.1019822e-08,2.0155757e-07,-7.797552e-08,-6.5899954e-08,0.25123194,1.16203,4.06497e-08,-1.0419303e-08,6.046751e-08,0.56759566,6.0872e-08,-9.1762104e-08,1.5830857e-07,4.775564e-08,0.8247566,4.576586e-08,-5.1619015e-08,-1.6379242e-07,-5.2329483e-09,1.4380284e-09,0.9407706,0.91320485,1.1200235,-0.46229994,0.6303944,-4.4042324e-08,-7.003735e-08,-0.6120548,5.03329e-08,-0.027108248,-0.96247023,0.47510242,3.9723467e-08,-0.3960177,-8.577585e-08,-7.183431e-08,0.77904236,1.0417676,-4.8000985e-08,-0.4003013,1.8146609e-07,-1.9016548e-07,8.2742275e-09,-2.5254032e-08,0.64080995,-1.0512899,-2.336865e-09,-3.7195086e-08,7.244586e-08,0.44827098,7.801076e-08,-6.198135e-08,-1.9707525e-09,4.497771e-09,0.652455
-8.274364e-09,-2.6405129e-08,5.8855296e-08,-2.5312099e-08,-3.8258285e-08,0.05347936,0.44493783,-0.35206285,-0.49836296,-0.279256,7.461864e-09,7.019146e-08,0.58794016,-3.6553146e-08,-0.6251483,-0.086856544,-0.48489746,-3.3442607e-08,0.86824983,1.5253585e-07,-8.270636e-09,-0.42611337,0.18167205,4.9871613e-08,-0.7973776,4.7542336e-08,-3.9970764e-08,4.9067236e-08,-4.741956e-08,0.6818683,0.6982978,-5.9811542e-09,-6.272499e-08,4.7752987e-08,0.50119734,-6.531887e-08,-7.778634e-08,-3.986583e-08,-1.2113221e-08,0.75296044,1.5054958e-08,1.6292199e-07,-1.0114687e-07,1.03829265e-07,-6.840458e-09,0.781814,0.72451085,0.8204693,0.052544285,0.5463376,1.7117374e-08,1.654516e-08,-0.3087422,-6.793793e-08,0.5418091,-0.70391166,0.2086979,1.305499e-08,-0.09553309,8.686702e-08,-1.3665851e-08,0.594601,0.8134685,-3.046278e-09,0.8715684,5.4792554e-08,6.756219e-08,-1.3030531e-07,1.0954622e-07,0.5293924,-0.63271624,-2.9159576e-08,7.35087e-08,-8.108015e-08,-0.056067016,5.850928e-09,-9.9724545e-08,1.2413224e-07,-5.4938464e-08,0.234561
-9.176821e-09,1.531684e-08,-2.7015272e-08,-1.563728e-08,1.5195031e-08,-0.04596273,0.5297561,-0.26534468,-0.37643433,-0.23216082,-1.1631322e-08,-9.90232e-08,0.455172,1.1158481e-07,-0.35938454,-0.063411795,-0.35989156,-1.037889e-07,0.70114744,-1.9196023e-10,1.196604e-07,-0.48394495,0.30082446,3.451361e-08,-0.55834156,2.1793372e-08,-3.951362e-09,-1.8272675e-07,1.7389488e-07,0.408504,1.1183064,-2.9975965e-08,3.2998873e-08,-5.83039e-08,0.35469663,-1.6181456e-08,-2.2342949e-08,-2.331333e-08,-1.0018204e-07,0.6242167,-7.0808404e-08,6.8963146e-10,5.642704e-09,-8.3571706e-08,1.2356114e-08,0.6027114,0.5120008,0.6530999,0.03855666,0.46109596,-1.092281e-07,-5.1529643e-08,-0.3102642,-2.2354305e-07,0.2601736,-0.54148775,0.20299491,5.870667e-08,-0.26394966,1.2770247e-09,-1.310541e-08,0.4168988,0.63444483,-1.3761663e-08,0.5484475,5.0349904e-08,-1.5584835e-07,-1.3443923e-07,-5.3844666e-08,0.29120243,-0.4377987,-5.037508e-08,7.584283e-08,-3.5630915e-08,-0.0032461542,-1.9358386e-07,9.956018e-10,-2.9482962e-08,-1.029542e-07,0.24304006
4.18518e-08,-2.2547653e-08,-1.4932404e-08,-5.3431364e-08,-1.2469218e-07,0.09355448,0.7889179,-0.5130866,-0.41014022,-0.4219086,6.929932e-08,-9.718413e-09,0.5579295,-4.392597e-08,-0.64008254,-0.20224279,-0.547137,1.4152721e-07,0.87526137,-1.2549797e-08,2.1892902e-08,-0.768727,0.36524293,-1.3143253e-07,-0.85720694,-4.3019625e-08,-4.416762e-08,2.0191575e-07,8.301054e-08,0.84230536,1.6460345,1.964805e-07,8.600367e-09,5.6284343e-08,0.40652785,1.9726691e-07,1.1303494e-07,-1.1543106e-08,-4.051914e-08,0.76991767,-7.186858e-08,4.226509e-09,3.411497e-08,9.494876e-10,4.464155e-08,0.8499757,0.7428162,0.90151995,-0.12004682,0.48886544,-5.908557e-08,2.5879188e-11,-0.5026663,-8.45934e-08,0.6306689,-0.7647022,0.11009594,7.494518e-09,-0.38130915,4.3871886e-08,5.81142e-08,0.5987272,0.88786674,-3.8894548e-08,0.8047508,1.3419499e-08,8.711926e-09,-4.6982684e-09,-6.605201e-08,0.51761526,-0.6628659,-1.2052067e-07,3.5164256e-08,1.312014e-08,0.14934583,2.7036169e-08,6.881553e-10,1.5213479e-07,-3.684697e-09,0.39605868
5.3572283e-08,-1.6341746e-08,-3.536718e-08,-3.0096345e-08,3.448223e-08,0.08787916,0.36597425,-0.57458687,-0.32077384,-0.31598845,-3.938283e-08,-5.311212e-08,0.3068208,-3.0294444e-08,-0.4948486,-0.11895644,-0.3808428,8.063957e-08,0.43998423,-4.0040376e-08,-4.989455e-08,-0.3264608,0.1949819,1.485883e-07,-0.4425487,-2.7041764e-09,2.086944e-08,3.5113025e-08,-8.593424e-09,0.36764702,0.7397298,5.3793602e-08,3.3855212e-08,1.3441472e-07,0.3380459,-6.932586e-09,2.3195135e-07,-2.393535e-08,-8.068422e-08,0.34032765,3.2982015e-08,-1.2450427e-09,1.2883865e-07,-5.9147837e-08,-8.191104e-09,0.5056967,0.39092755,0.4016844,0.065222286,0.15015414,7.9397736e-08,1.4353053e-07,-0.22758034,-9.3317325e-08,0.46319467,-0.43273476,0.0054941587,5.3563376e-09,-0.20971668,1.7032228e-08,-8.0132494e-08,0.32814246,0.46760717,1.40473e-07,0.8173383,5.1519734e-08,-8.163461e-08,-3.5864645e-11,-1.1451066e-07,0.38449237,-0.13461052,-3.728104e-08,3.929156e-08,-2.9476162e-08,-0.120795086,-2.8645978e-08,-3.0341836e-09,7.3822804e-08,3.0610057e-09,0.28660727
1.48310235e-08,8.796303e-08,-7.453983e-08,-3.172431e-08,-3.1873583e-08,-0.30535322,0.6116911,0.35636535,-0.6458329,-0.39699066,2.1211622e-07,5.94122e-08,0.8771646,-6.344834e-09,-0.9379965,0.123403884,-0.66437364,2.9094113e-07,1.1096786,2.2754602e-08,1.1959003e-07,-0.66499823,-0.22516845,-6.267384e-08,-1.1594609,-7.183091e-08,1.2472599e-07,6.5566725e-09,1.1378676e-08,1.0854723,1.7591385,1.15542385e-08,8.324844e-08,-3.0279935e-08,0.6289125,5.2560228e-08,-6.145905e-08,1.1029908e-07,-4.402141e-08,1.0160921,9.4927714e-08,-6.8455286e-08,-6.1670484e-08,-1.8245342e-07,3.260715e-08,0.9444604,0.99249583,0.9780142,-0.009291301,0.77609277,1.4845506e-07,-1.4958172e-08,-0.37621728,-6.86887e-08,0.8881971,-0.951791,0.32864887,1.5472227e-07,-0.105951905,-6.13808e-08,-1.233891e-07,0.84427315,1.0557431,-2.8178722e-08,0.66780317,-1.2417239e-08,-3.768945e-08,7.571332e-08,-2.5807658e-08,0.74117213,-0.84277415,-8.768086e-08,-8.741275e-08,-1.3759192e-08,-1.2316741e-05,-4.9910838e-08,-9.3248985e-08,3.3674453e-08,1.05311074e-07,0.28406298
1.823077e-07,-1.2509639e-08,5.5389243e-08,1.5381785e-07,4.2926484e-08,-0.33504507,0.2854522,0.2045507,-0.36778855,-0.5346815,-7.669382e-08,-4.326843e-08,0.46627477,9.0615664e-08,-0.49387053,0.23186108,-0.44731048,-1.7805498e-08,0.66977346,3.6797452e-08,2.3148697e-08,-0.3169962,-0.02019428,-8.582356e-08,-0.54012036,1.7846764e-08,-7.874972e-08,1.9460929e-08,4.304369e-08,0.05845479,0.86142814,1.8063123e-08,1.7279064e-07,4.2646047e-08,0.3565156,4.5550493e-08,5.2779747e-08,6.4166954e-08,9.166459e-08,0.5584049,4.4207894e-08,5.5389222e-08,-6.255959e-08,-1.2673061e-07,-4.8651895e-08,0.63283706,0.567072,0.4953557,-0.23990412,0.36756575,1.88429e-08,2.6515536e-09,-0.46421117,4.909348e-08,0.078123085,-0.588939,0.29792255,-4.1043105e-08,-0.31213275,7.701871e-09,-5.5130116e-08,0.48627928,0.64422107,-5.1537334e-08,0.0993186,-5.3765707e-08,-3.880557e-08,4.0474987e-08,-4.9109662e-08,0.41126314,-0.23784408,1.3979104e-08,-2.7420796e-08,-7.893238e-09,0.22038923,-1.6809274e-08,-7.277487e-08,-3.4485375e-09,1.678817e-08,0.43483794
5.5654784e-08,4.288248e-08,-3.2448987e-08,4.973149e-08,1.1515175e-07,-0.18696955,0.19759837,-0.46254528,-0.41802952,-0.60613126,-9.127848e-08,-4.324148e-08,0.6070502,3.357431e-08,-0.5639089,0.047236856,-0.44332984,-2.933928e-08,0.86360776,-1.07995916e-07,-1.0658124e-07,-0.19297294,0.1913563,8.61508e-08,-0.7878987,3.427616e-08,-1.0354457e-08,-8.10868e-09,3.31778e-08,0.23695293,0.8898328,2.1288584e-09,-2.1744462e-08,7.2310826e-08,0.42023227,2.9217645e-08,1.933569e-08,-4.644121e-08,-2.0152367e-08,0.6786879,-5.438528e-09,-3.2370345e-08,2.2106282e-07,-7.928183e-08,-9.627886e-09,0.8916704,0.78280175,0.9116988,-0.15141053,0.3833047,-1.0825146e-07,6.1887285e-08,-0.40294337,-3.189173e-08,0.1623672,-0.87444806,0.32397962,3.0507177e-08,-0.28330544,-1.01989016e-07,6.5130514e-08,0.66762364,0.964278,-9.303197e-08,0.20560956,-5.173304e-08,1.6678857e-08,5.5977992e-08,6.0541275e-08,0.54609394,-0.70517004,2.7921878e-08,-3.992584e-08,7.2328596e-08,0.140966,-9.2177416e-08,-5.8107965e-08,-7.645852e-08,-1.5927208e-08,0.4872077
9.554801e-08,-4.921259e-09,8.377843e-08,1.6102089e-07,8.110573e-08,-0.09620239,0.55778855,0.41988447,-0.4769708,-0.47328305,-4.9892623e-08,-4.742667e-09,0.6336573,3.859672e-08,-0.6333869,-0.04239921,-0.57730925,-8.755241e-08,0.87696797,-8.707943e-08,-1.0790586e-08,-0.57567513,0.20191346,2.1546075e-08,-1.1081272,-4.011369e-08,1.5199763e-08,4.2657227e-08,2.2680371e-08,0.6048268,1.5418973,-9.998211e-08,-4.711883e-08,5.439537e-09,0.49449757,-6.3430036e-08,-5.061124e-08,2.2163942e-08,5.7185936e-08,0.7757053,-5.4803692e-08,5.2233666e-08,6.777509e-08,2.8528113e-09,1.8210785e-07,0.8785635,0.79281193,1.1312762,-0.17879742,0.55962765,-1.5248251e-07,5.7397916e-08,-0.47175118,4.650985e-08,0.47301137,-0.84468275,0.27040118,-3.788424e-08,-0.38072568,1.1136216e-07,-3.5961193e-08,0.70034915,0.95388657,-1.3341467e-08,-0.33190742,1.0337312e-07,-4.1397428e-08,9.664363e-08,4.9576787e-08,0.5433931,-1.1018672,1.1022188e-07,1.6131589e-08,3.3611506e-08,0.14790025,1.820732e-07,-6.459797e-08,-8.648734e-09,-8.984512e-08,0.4899607
1.0032467e-07,7.410246e-08,-1.4655576e-08,3.384399e-08,-2.6387116e-08,-0.514457,0.44845325,1.0306238,-0.6334485,-0.58419144,-4.2075342e-08,-2.7026083e-08,0.90397316,-8.361374e-09,-0.7385933,0.25495613,-0.6841135,1.1051088e-07,1.1333362,-2.1598797e-08,-1.3219802e-07,-0.62379724,-0.1726524,1.9148686e-08,-0.9935275,3.65606e-08,3.9093088e-08,-2.7151813e-08,-7.728627e-08,0.33105808,1.1769551,3.0560763e-09,-6.5161494e-09,7.7292896e-08,0.6486446,3.47397e-08,-6.397268e-08,-1.8466977e-07,1.9795496e-07,1.0280831,1.4843968e-08,-2.485525e-08,-3.5451302e-07,3.5437004e-08,-2.2224652e-08,1.0174062,1.0119536,1.0973116,-0.43422484,0.8353835,-4.48348e-09,7.2176334e-08,-0.6124853,-2.6783372e-08,0.11417834,-1.0264343,0.5158478,2.7870346e-08,-0.4867122,1.4145948e-07,7.759571e-08,0.9171271,1.1461372,-4.4530125e-08,-0.74191135,1.3778376e-07,-1.6196083e-08,5.6837706e-08,3.575946e-08,0.63468426,-1.1771259,-3.291023e-08,-8.450038e-08,9.204875e-09,0.44108337,-1.31519915e-08,-9.8002e-09,1.5755178e-08,-6.349165e-08,0.6194267
