7.576284e-14,1.1310241e-13,-2.1291371e-13,2.6289393e-13,-1.489807e-14,-3.944121e-15,4.7115483e-14,1.5734053e-13,9.9118406e-14,6.757263e-15,-1.2127315e-13,-0.8114925,-1.7268922,-1.7308514e-13,-1.5500328e-13,-7.679887e-14,2.0200744e-13,-1.5281422e-13,-1.6795985,0.24970937,-2.9481547e-13,1.9390414e-15,4.2118673e-14,1.7534723e-13,-1.4930822e-13,-7.9274654e-14,-6.85066e-15,-1.4126416e-14,7.3899464e-14,1.871025e-13,-1.5354677e-13,-0.8564774,1.6619417e-13,1.8167263e-13,4.083173e-15,-8.449312e-14,-7.0746245e-14,-8.963636e-14,-2.5383675e-13,5.0365853e-14,1.1209065e-14,-1.0284657e-14,1.4152667e-13,2.8042298e-13,8.6052517e-14,9.686542e-14,-1.0347451e-13,1.5167339e-13,4.194602e-14,-3.926192e-14,2.3615519e-14,-9.5037964e-14,-1.606725e-13,-1.3622485e-13,-2.0024344e-13,-2.9846595e-13,-2.2033866e-14,1.3076831e-13,1.2928994e-13,7.020798e-14,1.097653e-13,-1.2036155,0.9561982,-1.0202689e-13,-7.078096e-14,-2.1603297e-14,9.4175895e-14,-7.511618e-14,-0.61918336,-1.0282972,1.2220795e-13,4.5926736e-14,-1.4075739e-13,-3.04888e-13,-8.995575e-14,-6.9283385e-14,-8.821007e-14,2.3356775e-13,4.338873e-13,-7.7541645e-14,-4.3078517e-14,1.6729221,-3.4290935e-13,1.41882e-13,-1.8525939e-14,1.7143004e-13,2.412894e-13,2.3821175e-15,-9.093149e-15,-5.980946e-14,8.576127e-14,-2.9315912e-14,7.993432e-14,-3.1604317e-13,-3.8931887e-15,-2.839802e-13,1.3921977e-13,1.5521731e-13,-2.3493843e-13,2.3297567e-14
1.1480784e-13,2.3382e-13,4.5735564e-14,-2.9746272e-15,-5.7380004e-14,7.979328e-14,2.5521195e-13,-1.8173363e-13,1.2567584e-13,1.7526653e-13,2.4038494e-13,-0.33163646,-1.4680201,-1.0305544e-13,5.780426e-14,1.6745886e-13,6.220137e-14,-5.5717407e-14,-1.0989332,0.44173402,2.6643073e-13,-7.553208e-15,-2.7931233e-13,3.3679243e-14,8.2641556e-14,-1.3020605e-13,2.3471164e-14,-1.9041759e-13,3.2175593e-14,-1.19336846e-14,-1.6675805e-13,-0.85704845,4.8348254e-14,1.1940847e-14,-1.406594e-13,-1.997218e-13,-2.2279808e-13,-1.7774261e-14,1.3836236e-13,-2.8824457e-14,-7.4839156e-14,5.728419e-14,1.1516249e-13,-3.7104282e-13,-2.4375204e-13,-2.5986449e-14,2.0728543e-14,-1.1417467e-13,-7.333367e-15,2.1114912e-14,-2.9405352e-14,6.724139e-14,-6.3384356e-14,-2.0436466e-14,5.247521e-14,8.5396344e-14,4.133056e-14,1.4442734e-13,-1.9390329e-14,-1.5277215e-13,7.54481e-14,-1.0621017,0.6147352,-1.6621653e-14,1.5759857e-13,2.3042297e-13,3.2245409e-13,8.686892e-15,-1.3820996,-1.0508068,-6.087007e-14,1.1769817e-13,1.4300372e-13,1.4035043e-13,-3.5647513e-13,1.1919811e-13,2.3191816e-13,3.6625196e-14,-9.3586854e-14,-2.0276501e-13,2.4323956e-13,1.9069277,-1.7637442e-13,-1.2978923e-14,8.144303e-14,-6.8720827e-14,1.08337886e-14,-3.552049e-14,-1.0111842e-14,1.5217051e-13,-2.3920502e-14,-2.3480092e-14,1.0948796e-13,4.9687258e-14,-3.400212e-14,7.899425e-14,1.549035e-13,-1.01784405e-13,4.1651703e-14,1.0443107e-13
8.763521e-14,-2.2023579e-13,2.0696837e-13,-5.7833756e-14,1.2865463e-13,-3.5005785e-14,9.5082904e-14,2.359389e-13,8.279213e-14,-2.4282166e-13,2.3143122e-13,0.25457284,-1.396539,-8.1150676e-14,-1.1590665e-13,2.6426387e-13,1.1329485e-13,3.3110315e-14,-1.3061967,-0.31977287,1.8157374e-14,2.8742286e-13,1.6399385e-13,-1.880216e-14,-1.6301309e-13,-1.4308398e-13,-6.253933e-14,3.17619e-14,9.836239e-14,8.16847e-14,-2.7855187e-13,-0.90168345,1.8949025e-14,-1.459976e-13,-1.3265319e-13,-1.641134e-15,9.2973785e-14,1.9296705e-14,7.6709486e-14,3.260492e-14,-6.533249e-14,-1.7614127e-13,3.4671945e-14,7.1589924e-14,8.043374e-15,-2.288322e-13,7.8099955e-14,3.269213e-14,6.2862435e-14,1.4921168e-13,-1.6604909e-13,-2.860786e-14,9.193588e-14,-1.4205733e-13,1.1879709e-13,-9.1806635e-14,1.548324e-13,5.826242e-14,2.4991505e-13,2.0890677e-13,-1.8877532e-13,-1.2743236,0.3480476,-1.452315e-13,-1.2206056e-13,-1.6296667e-13,5.8360875e-14,-1.8225706e-14,-0.07874856,-1.2808812,-8.505437e-15,-3.622475e-14,3.217309e-13,9.741846e-14,-2.2116266e-13,-5.047823e-14,1.1511499e-13,1.398553e-14,9.25573e-14,-4.8753258e-14,-3.3887205e-13,1.3085471,9.126902e-15,2.1597978e-14,-4.4355287e-14,3.416344e-14,3.409149e-14,-9.52154e-14,-5.1106797e-14,-5.065941e-14,7.732171e-15,-1.4746112e-14,-2.1159328e-13,8.761783e-14,-1.7284159e-13,2.3294688e-13,-1.1976004e-13,-2.3126255e-13,-1.4994825e-13,-9.392531e-14
1.2321342e-13,-2.0851406e-13,-1.5712461e-16,2.0722158e-13,-1.3014383e-13,5.5678823e-14,1.2194554e-14,-4.5632053e-13,-4.2884424e-14,1.1527612e-13,-8.6891675e-14,0.539629,-1.8332381,-1.9524063e-13,3.2921902e-13,-1.7828656e-13,-7.5917666e-15,-1.3355303e-13,-1.7661797,-0.34155762,5.328722e-14,1.0306561e-14,4.54926e-14,-1.9654726e-13,-5.1518878e-14,3.6656585e-13,6.059747e-14,-8.02202e-14,-1.12252215e-13,7.774841e-15,4.531656e-13,-1.6427909,2.802694e-13,-1.9624429e-14,1.9806539e-13,3.8067742e-13,-9.036691e-14,-4.5632494e-14,4.4293996e-14,-7.429081e-14,4.0753235e-14,-9.0087565e-14,2.1262038e-14,1.531516e-14,-3.100728e-14,-1.1577969e-13,5.2962666e-15,1.1404128e-13,1.2424667e-13,-3.3692943e-13,1.6452998e-13,-7.3697694e-14,5.6754636e-14,3.005937e-14,4.9963526e-14,-2.2361467e-14,-1.4435805e-13,4.5497094e-14,6.659115e-14,-1.1140308e-13,1.3280734e-13,-1.716463,-0.47100335,-3.5073108e-13,-3.5631478e-14,2.5604705e-14,3.7354172e-13,-7.921891e-14,-0.108836286,-1.7008293,-1.1148848e-13,-1.0780255e-13,1.02537865e-13,1.5782886e-13,1.5437177e-13,3.8208808e-13,5.4851028e-14,8.830149e-14,-7.2059336e-14,-8.1755796e-14,1.5142848e-13,-0.7196522,-1.0066311e-13,1.0788134e-13,-2.7890406e-14,1.5987397e-13,-3.2158995e-13,-5.3676817e-15,-7.663702e-14,-1.816441e-13,1.3279677e-13,-5.4824296e-14,-1.249791e-14,1.1796879e-13,-2.3721132e-13,1.9788083e-13,4.0113373e-14,-1.584159e-14,-1.30198e-13,-1.6369995e-13
7.617821e-14,-5.0508087e-14,2.4750278e-13,-7.15758e-14,3.0340917e-14,-1.3517846e-13,-2.8202595e-13,1.6436504e-13,-1.6484688e-13,-7.379219e-15,-2.277617e-13,1.2892687,-1.3845781,-2.52656e-13,1.9947261e-13,-3.7515462e-14,4.817041e-14,1.982474e-13,-1.4082284,-1.3585393,-8.4058526e-14,-4.9101883e-14,4.0309522e-14,-2.0689575e-13,-7.571174e-14,1.5429822e-13,1.9305388e-13,1.1036554e-13,-1.6466701e-13,9.551323e-14,-2.0184166e-13,-1.4664919,2.5200057e-14,-3.3922782e-14,-8.694122e-14,-1.8515572e-13,7.5208875e-14,-5.245621e-14,1.9514342e-13,-5.4696793e-14,-1.0005924e-13,8.354905e-14,-1.1407643e-14,1.2392398e-13,2.1815087e-13,-1.3244307e-13,2.8968904e-13,-2.631055e-13,6.5652047e-14,3.326809e-14,-2.5320593e-13,-1.5932957e-13,1.927928e-13,1.0791482e-13,1.3660676e-15,9.9876054e-14,1.03366846e-13,-2.6889542e-14,-1.00710185e-14,-2.250399e-13,-6.428228e-15,-1.1377444,0.27945027,-2.64955e-13,2.5225576e-14,2.5611515e-14,-7.499653e-14,-8.544618e-15,-0.32789585,-1.0588208,8.9924745e-14,-4.489748e-14,-1.7905144e-13,-2.5019693e-14,-8.265743e-14,-1.8528144e-13,-2.0978152e-13,4.7782022e-15,1.7961029e-15,2.2810445e-13,1.2034057e-13,-0.92672837,-4.839336e-13,-1.2207858e-13,7.69559e-14,-5.0638188e-14,-6.682209e-15,-2.6936075e-14,-5.0262664e-14,7.315078e-14,7.681491e-14,-2.9964976e-14,-1.1325154e-13,2.092626e-13,2.1701187e-13,-1.13164916e-13,-3.698669e-14,-8.542291e-14,-2.1108298e-13,-9.168999e-14
1.1375232e-14,9.633012e-14,1.2727291e-13,1.2022708e-13,1.5308577e-14,-8.624449e-15,4.3600767e-15,-1.3894724e-13,1.8849134e-13,-4.757393e-14,1.1692334e-13,1.6267328,-1.4366311,-3.3615734e-13,2.1053583e-13,-3.8582236e-14,-3.1979085e-15,1.0142549e-13,-1.4042828,-1.4441199,4.3282794e-14,1.6394301e-13,7.645974e-14,1.464553e-13,3.9252016e-13,-1.2914406e-14,1.920988e-13,2.4765936e-14,-7.860974e-15,1.1136851e-13,-7.7744086e-14,-1.3838824,3.653519e-13,-2.750011e-15,1.5377563e-13,-8.675017e-14,4.4930327e-14,-1.9854578e-13,-1.2844584e-13,-4.4083557e-13,1.7566076e-13,-1.2332808e-13,1.4062982e-13,2.6293966e-14,-2.0967421e-13,9.522312e-14,-1.2152898e-13,-4.7901407e-17,-5.5394633e-14,6.25408e-14,-9.500764e-14,-4.9489506e-14,-1.8389668e-13,-8.567351e-14,2.8985478e-13,-2.2138777e-13,-3.364437e-13,1.3329295e-13,-1.4323556e-13,1.6897556e-13,3.199416e-13,-1.2562447,0.59789467,-1.6193889e-13,1.841037e-13,4.143393e-14,-2.0953444e-13,-1.4958117e-13,-0.90684664,-1.214025,-9.687446e-15,-1.0365626e-13,1.6299074e-13,4.8358812e-14,-3.3241872e-13,-7.368234e-14,-1.1634736e-13,2.723223e-13,-5.494402e-14,5.2136423e-14,1.07893444e-13,-0.42519602,2.2004222e-14,-1.1773487e-15,1.6023368e-13,9.023899e-14,-9.918681e-14,8.151529e-14,-1.3319621e-14,6.103979e-14,1.7652137e-13,-1.0795841e-13,2.4645726e-13,-7.059939e-14,-1.8160122e-14,-7.0294722e-15,-3.6992487e-14,-1.5722235e-13,-1.2971487e-13,1.6657007e-13
-2.6068712e-13,-3.1789045e-15,-2.448818e-13,9.405012e-14,-2.3839705e-14,5.558163e-14,7.9139034e-14,-3.0565563e-14,-6.538898e-14,1.2106577e-13,2.868721e-13,1.4802505,-1.4915143,8.184441e-14,2.0783017e-13,5.1798897e-14,1.1292009e-13,-1.0954611e-13,-1.5265336,-1.5810672,3.3414542e-14,7.37001e-14,7.367273e-14,5.890091e-15,1.5791472e-14,1.8290836e-14,-2.9766687e-13,7.1918417e-14,-1.3664471e-15,1.7132748e-13,7.3608295e-14,-1.3923948,-1.7792175e-13,-1.12455076e-13,-2.3965636e-13,-1.0180566e-13,3.77029e-14,-1.7770057e-13,5.0904034e-14,-4.792131e-14,1.05297525e-13,8.0755715e-15,-6.19074e-15,-7.17541e-14,-2.955379e-14,-2.943876e-13,-2.7153147e-14,-2.3868738e-13,-5.5953526e-14,2.1769704e-13,2.0505613e-13,5.930246e-14,-9.156348e-14,1.0717486e-13,7.0514775e-14,2.5401523e-13,1.0199528e-13,2.4294832e-13,1.6493035e-13,-8.112771e-14,-1.1779479e-14,-1.2551365,0.6793712,2.0692278e-13,-5.6819885e-15,-4.059394e-14,1.1661516e-13,-2.628966e-13,-0.7033719,-1.2508274,1.6717357e-13,6.109478e-14,-5.826664e-14,1.172468e-13,-6.6578673e-14,-3.6982047e-13,3.1520325e-14,-9.841713e-14,-1.4531909e-13,-1.8592511e-13,-3.304188e-14,-0.41257697,-6.650265e-14,1.1982315e-13,-2.1205696e-13,-4.170087e-14,9.919501e-15,8.392941e-14,-1.1582005e-13,-9.1925985e-14,2.1164114e-14,4.2308697e-13,5.0475726e-13,1.0054972e-14,1.1374224e-13,1.6169219e-13,-1.3050996e-13,-7.514744e-15,-2.5817263e-14,4.0452688e-14
1.5598631e-13,-9.098126e-14,7.4424584e-14,-6.165001e-14,8.452501e-15,1.1325851e-13,-3.811024e-14,2.4101962e-14,-2.2603241e-13,-9.8056315e-14,1.7967575e-13,1.0847402,-1.6160116,-6.109685e-14,3.6535848e-14,8.5417316e-14,-2.6489183e-14,3.8052151e-13,-1.4317011,-1.211985,1.8778822e-14,-6.826317e-14,-1.4834222e-13,-1.481146e-13,-1.855682e-13,-3.2839813e-14,-9.6469396e-15,1.4515007e-13,-2.1657841e-13,-2.855891e-13,1.7250196e-13,-1.4464147,2.6367692e-14,-4.693046e-14,-5.6571582e-14,5.2635657e-14,2.4530394e-13,-3.925688e-14,2.9891093e-13,1.405587e-13,-1.4806228e-13,-8.056598e-15,1.7824818e-13,-6.8006615e-15,1.753687e-13,1.5705093e-13,9.4277545e-14,-7.823144e-14,-4.3056853e-15,9.600319e-15,1.0860364e-13,-8.3815896e-14,-2.4049667e-13,6.536668e-14,-1.8785079e-13,-1.6021052e-14,-3.1671755e-14,-2.4520923e-13,3.7174902e-13,6.7791855e-14,3.6475806e-13,-1.3708566,0.33917257,-4.6518202e-14,-3.209891e-13,-6.013873e-14,-2.4690216e-13,-2.0468233e-14,-1.2579089,-1.456027,-1.0266348e-13,2.0467623e-14,4.9983767e-14,1.4878496e-13,-8.646123e-14,2.712617e-13,2.270842e-13,-1.22932865e-14,1.5066781e-13,-6.1348055e-15,2.8620544e-13,0.010935146,1.5761584e-13,-1.9376411e-13,-2.0922553e-13,3.0528172e-14,-1.721307e-13,-5.1796722e-14,-3.699342e-14,-7.219717e-14,-7.046775e-14,-4.4958666e-14,1.3025384e-13,-1.108676e-14,-2.2718822e-13,-1.327083e-13,7.453472e-14,1.3013814e-15,-7.389353e-15,-4.707268e-14
-1.1441067e-14,3.3137962e-15,4.503584e-14,9.9017765e-14,-5.9243517e-15,-1.4080843e-13,1.9369333e-14,-4.133614e-14,1.401615e-13,8.481009e-15,6.6762087e-14,1.4539202,-1.1820041,-1.2435335e-13,3.2392028e-13,-1.747242e-14,-6.308174e-14,-7.059989e-14,-1.3507317,-1.7054539,6.434396e-14,-2.8689857e-13,-1.695268e-13,-5.631661e-14,-8.1017007e-16,7.222632e-14,3.9593556e-14,6.033402e-14,-1.01758906e-13,-9.682542e-15,-1.9909367e-14,-1.1873138,5.4547763e-14,-6.98986e-14,-7.559432e-14,-4.680338e-15,-1.2862759e-13,-2.5995834e-14,-2.326085e-14,7.4451486e-14,-4.632563e-14,1.1725015e-13,-2.7904518e-13,1.5916404e-13,-2.436329e-14,-1.9202855e-13,-1.11490305e-14,-3.9557143e-14,7.237937e-14,2.843699e-13,-5.835148e-14,7.027163e-14,-7.468012e-14,3.1701733e-15,-1.4145945e-14,-1.0066068e-13,-1.8990259e-13,-2.4818255e-14,9.850309e-14,2.455108e-15,-1.5547097e-13,-0.9188631,0.06347259,-3.3532546e-13,2.005985e-14,-2.7503787e-14,-2.8445128e-15,-1.8518797e-13,0.029770795,-0.9496662,4.917355e-14,-9.7792536e-14,5.3861605e-14,-6.784383e-14,-2.6258558e-13,-1.4019593e-13,-1.2347819e-13,-2.604439e-13,2.7435107e-13,-5.270472e-14,-4.5885872e-14,-1.131383,9.58945e-15,-4.16382e-14,-1.6832632e-14,-7.227946e-14,4.860689e-14,2.0498855e-14,1.3312188e-13,-1.8036947e-13,3.7114903e-14,2.1907064e-14,-1.1551595e-13,1.06512936e-13,1.1060674e-13,-2.7638357e-13,1.4366966e-15,-2.2830089e-13,1.014105e-14,-2.827428e-13
-1.2067647e-13,1.0873486e-13,1.9325944e-13,-1.6696543e-13,1.0099569e-14,-2.2279249e-13,5.743145e-14,-2.4875544e-13,8.945175e-14,-2.2012809e-13,4.1109341e-13,1.5869092,-1.3300576,3.0875666e-14,-1.7507548e-13,-1.393978e-13,6.481696e-14,5.5425994e-14,-1.2984269,-1.4888836,2.100209e-14,1.4363979e-13,-2.54051e-14,7.927081e-14,-1.8938127e-13,4.035963e-15,-1.08605656e-13,8.856841e-14,-8.3176755e-15,-2.0047097e-13,-4.6641293e-14,-1.3950713,-6.4813484e-14,-4.3739108e-14,-1.0131874e-13,-3.036459e-13,-3.041657e-13,-7.649792e-15,-5.105596e-14,1.3308931e-13,1.1555409e-13,3.9305988e-13,-2.532493e-16,-9.66436e-14,3.3595837e-14,7.864993e-14,7.696078e-14,4.0150785e-15,-3.1925664e-13,2.9602704e-14,4.768885e-15,-2.7968303e-14,-8.411403e-15,1.3092443e-13,9.336012e-14,1.9628133e-13,2.1905504e-13,2.9324267e-14,2.8819758e-13,-5.4159693e-15,-7.4816814e-14,-1.0931987,0.08456828,4.1071703e-13,-2.6687047e-14,1.968842e-13,4.828662e-14,1.89836e-13,-0.7723294,-1.1290929,-9.515702e-14,-1.477728e-13,8.0132203e-14,4.04836e-14,1.6560722e-13,1.0553766e-14,3.844881e-13,1.6663327e-13,2.6538873e-13,1.6873811e-13,-1.8897439e-13,-0.56288767,7.967209e-14,-3.363404e-14,-1.2016993e-13,1.069143e-13,-1.0553177e-13,-2.8379607e-13,-2.661573e-13,7.535717e-14,-1.42548e-13,-1.8122255e-13,-3.332557e-13,-1.1043342e-13,-5.675711e-14,-2.5931094e-14,-2.8902268e-13,6.2161376e-15,7.850803e-15,-5.3629905e-14
1.5655104e-13,1.5712827e-13,2.2056625e-13,1.6049498e-13,-3.8455293e-13,3.2838833e-13,-9.818839e-14,5.3327216e-14,-1.4410149e-13,2.361326e-13,6.3143785e-14,0.9373721,-1.3219999,-5.4508007e-14,1.06181347e-13,8.1089656e-14,2.29384e-13,6.458594e-14,-1.3526468,-1.0241312,-1.2368212e-13,1.435426e-13,-3.975488e-15,-6.283077e-14,-4.1913257e-15,2.4800631e-13,1.08223814e-13,2.2966313e-13,1.1690806e-13,-1.610492e-13,-5.2178226e-14,-1.4283769,-2.905539e-14,-3.9922953e-14,4.2072262e-13,-6.413695e-14,-1.6714149e-13,2.7006846e-14,-1.3946027e-13,2.1889025e-14,2.971547e-13,-1.5486199e-13,5.3154943e-15,-3.7284168e-14,-8.323783e-14,-1.2964327e-14,2.96458e-14,-9.485368e-14,-1.3225525e-13,1.1012895e-13,-2.2330662e-14,-2.7036641e-14,9.839822e-14,2.4706347e-14,4.3159327e-14,-7.84969e-14,-5.718406e-14,5.763393e-14,-4.1459227e-14,1.6585519e-13,-5.335529e-14,-1.089293,0.10917538,-1.6953176e-13,3.3215e-14,7.1003906e-14,-1.1935076e-13,-3.032091e-13,0.58635014,-1.0470223,2.1054866e-14,-1.3553637e-13,7.147622e-14,4.0610717e-14,1.09709046e-14,-3.7356863e-16,8.5801314e-14,-5.6750733e-15,-1.4195073e-14,6.0654986e-14,2.6569922e-13,-1.4007815,-1.3662221e-14,-1.1602687e-13,1.649529e-13,7.572359e-14,1.7839888e-13,-1.0055491e-14,1.6810754e-13,-6.584673e-14,-4.517592e-14,-2.317298e-13,7.434813e-15,-7.1155206e-14,-5.7257225e-14,-1.2885937e-13,4.2178053e-14,-3.8287177e-14,-1.1519182e-13,2.0999614e-14
-3.2383025e-14,-2.6287722e-14,1.2919977e-13,-1.0327199e-13,-7.405837e-14,-2.42099e-13,-1.727031e-13,-5.5542126e-14,4.1697243e-14,-8.786983e-14,-1.9935067e-13,1.1094422,-1.140723,-4.3149905e-14,5.1834242e-14,7.5516145e-14,-5.1892315e-14,1.408389e-13,-1.2484694,-1.07655,-3.3460192e-13,1.5886455e-13,1.8248058e-14,4.8824014e-13,1.3359562e-13,1.2466655e-13,-2.9248162e-13,3.45946e-14,8.222122e-14,-1.5342846e-13,-2.04431e-13,-1.1447401,3.6115073e-14,-6.163218e-14,-1.00068425e-13,6.186608e-14,-1.3274085e-13,-3.005188e-13,6.8964826e-14,3.073273e-13,-3.2620215e-14,7.2145625e-14,3.9033382e-14,1.3485036e-15,-8.1269965e-15,-2.314023e-13,-1.8417547e-13,9.451993e-15,2.6654358e-14,1.345952e-13,-4.8402698e-14,-1.3474661e-14,-3.6285363e-13,5.22599e-16,1.4924382e-13,-1.6104961e-13,3.699716e-14,-7.1113003e-14,2.9020094e-14,-8.5289314e-15,-8.0417755e-14,-0.74775773,-0.19166484,-9.7605016e-14,1.558924e-13,2.4660456e-14,-4.7529516e-14,1.1394978e-13,0.21789941,-0.7057345,-1.3066146e-13,-3.1483334e-15,-6.6702855e-14,8.8592125e-14,-1.5671656e-13,1.9770293e-14,3.555874e-14,-2.7788705e-14,-1.328413e-13,1.5611374e-13,-3.2455153e-13,-1.1325915,4.038804e-13,-8.358291e-14,1.2918688e-13,-4.126538e-14,2.5594525e-13,5.702737e-14,-4.359512e-13,1.0571242e-15,-5.722289e-14,-1.1594233e-13,-5.356721e-14,2.908063e-13,-6.162756e-14,-9.107964e-14,9.3816665e-14,-3.306432e-14,-4.2753951e-13,5.5896744e-14
-1.0491502e-13,1.9224173e-13,-2.7777978e-13,1.3219714e-13,-4.7921736e-14,-1.9871889e-13,-2.062803e-13,-2.23421e-13,5.4303638e-14,-6.4998815e-14,1.801295e-13,0.8110334,-1.2157481,4.9026707e-14,6.512076e-14,8.803613e-14,-2.7974495e-13,-2.1031716e-14,-1.4990798,-0.8716198,-1.4245285e-13,-1.1882333e-13,-3.8753865e-14,2.4989424e-13,1.5474628e-14,-7.009256e-14,-1.11182216e-13,-7.206946e-14,-1.6784385e-13,8.270159e-14,-5.2426244e-14,-0.96883464,-6.9899564e-14,1.4996854e-13,9.7842585e-14,-3.840768e-14,1.8139358e-14,-4.1155163e-15,1.8432982e-13,5.5356158e-14,1.7312005e-14,3.0827757e-14,5.306361e-14,4.246828e-14,1.1896013e-13,-6.881268e-14,4.2117223e-14,1.0527526e-13,-2.2435645e-13,-3.9310468e-13,-2.5368837e-14,-1.8743831e-13,-2.863268e-14,6.7758917e-15,-5.920341e-14,1.8414872e-13,-2.3745346e-14,8.391645e-14,9.056962e-14,-1.7572493e-13,-8.028829e-14,-1.0049015,0.8504611,9.735218e-14,-1.4902855e-13,6.7144424e-14,-2.9871976e-14,-2.2697637e-13,-0.11334034,-1.0624768,5.856482e-14,1.4055292e-13,3.7798212e-13,-1.9927602e-13,-2.7293838e-14,2.6478253e-13,-2.0893759e-13,8.061538e-14,9.156674e-14,-1.9585387e-14,-6.9268674e-14,0.1624027,-1.9317103e-13,-4.973513e-15,-4.7219573e-14,2.0774457e-13,2.2176887e-13,-1.00517956e-13,-8.143247e-14,-2.6736233e-13,2.6132682e-13,-6.496073e-14,8.336186e-14,-1.5223586e-13,-1.5926515e-13,-1.5468556e-14,1.2643253e-13,-4.1496364e-13,1.1307822e-14,1.3482501e-14
1.0177373e-13,9.812579e-14,5.8772594e-14,-2.376703e-13,-1.453627e-13,-1.9474803e-13,3.6674063e-14,2.281198e-14,-3.6971043e-14,9.260525e-14,-3.9778136e-13,0.45036042,-0.5042487,-1.2849548e-13,-6.634856e-14,-1.1925634e-14,2.3159637e-13,-4.5807474e-14,-1.2244397,-0.40548837,-1.1394919e-13,-2.847316e-13,-3.2864168e-13,-8.337921e-15,-4.855308e-14,2.4649194e-14,-7.729508e-15,2.5834033e-13,-7.2776895e-14,2.7013107e-14,2.0186561e-13,-0.4303157,6.176761e-14,1.9496059e-14,-1.6599007e-13,9.774823e-14,8.2154254e-14,1.7207527e-13,-2.712007e-14,5.025103e-14,6.392154e-14,3.977075e-14,6.8698885e-14,-1.5933905e-13,-3.1053526e-14,-2.4314884e-13,2.074043e-13,2.6910126e-13,-6.506113e-14,9.6707744e-14,5.656253e-14,5.5454603e-14,1.3360019e-13,-7.7033974e-14,2.7320082e-14,1.01427655e-13,1.2512405e-15,-9.115086e-14,-3.4606236e-14,2.7871206e-14,-1.4571296e-13,-0.5088841,0.68749464,-1.4957241e-13,-2.7628617e-14,-4.2461396e-14,2.1150814e-13,-2.8312693e-14,0.20930265,-0.6127739,-1.5259747e-13,-3.923506e-14,8.791368e-14,2.3704687e-13,-9.9906825e-14,-3.590771e-14,-7.40136e-14,6.076689e-14,1.3656146e-13,-4.2863824e-14,1.1195793e-13,0.27910426,3.5495627e-15,-1.714907e-13,1.1398197e-14,-3.5199067e-14,-1.5132347e-13,-7.2366544e-14,8.631659e-15,6.866164e-14,-1.6206081e-13,-2.235984e-13,3.168213e-14,-9.607377e-14,-2.9216575e-14,1.0474447e-14,-3.5151857e-14,2.850392e-13,-1.4332398e-13,-1.750036e-13
-3.3324705e-13,2.5033886e-14,-1.6967145e-13,-1.9122243e-14,-1.8987192e-13,2.1272235e-13,1.5013155e-13,-7.244659e-14,-7.797468e-14,-8.191974e-15,6.949033e-14,1.1023294,-1.0762519,1.760387e-14,2.9494885e-13,8.5189485e-14,-5.594351e-14,-1.7637893e-13,-1.2709994,-0.8724806,3.9226794e-14,1.7144692e-14,6.928015e-14,-1.4341799e-13,-1.3074895e-13,9.875015e-14,2.9418857e-14,6.8886554e-14,2.84575e-13,1.6655981e-14,-7.987495e-14,-1.0014178,-3.446415e-14,2.0741965e-14,1.470947e-13,-1.4837974e-13,1.3301339e-13,-2.9246337e-13,5.6671932e-14,7.632118e-14,-2.33782e-13,-1.169615e-13,1.4953043e-13,1.1948003e-13,2.0219903e-13,3.218796e-13,-1.1054894e-13,-1.9337508e-15,3.1593475e-13,-1.2476442e-13,-6.892231e-15,-2.029472e-13,-5.099393e-14,-4.756595e-14,2.3059625e-16,-3.846496e-14,-1.5217519e-13,1.36231375e-14,-5.0347937e-14,-7.8242195e-14,3.3165934e-14,-0.9460535,0.6260121,2.0908568e-15,-1.6317866e-14,-5.526618e-14,1.5907683e-13,5.9521425e-14,0.4374558,-0.89169776,1.554219e-13,9.320202e-15,-1.5869318e-14,7.217892e-14,-2.8064974e-13,1.5977994e-13,4.718729e-14,3.4762232e-18,2.596124e-13,2.8175192e-13,1.2631392e-13,0.18854547,1.514732e-14,-6.7353858e-15,-3.762722e-13,-1.9609535e-13,-5.7957924e-14,6.164664e-14,-8.630316e-14,-4.246301e-14,-1.02578184e-13,2.9417143e-13,1.4167088e-13,2.832042e-13,-1.9309627e-14,-1.1588506e-13,-1.65588e-13,-9.5892295e-15,-1.0248035e-14,1.6880365e-13
-1.0140882e-14,-2.1489207e-13,2.2813057e-14,3.8978237e-14,-7.4221635e-15,1.8365748e-14,-2.2329301e-13,-5.0342593e-14,1.9621178e-13,6.803561e-14,-1.0291366e-13,0.5629252,-1.3329124,-2.7947523e-13,3.1205314e-13,4.5080974e-15,-3.6264386e-13,-2.1542943e-13,-1.3535033,-0.37456825,1.0145334e-14,-9.6849646e-14,1.3470598e-13,-3.4153417e-13,-4.030228e-14,-2.4673064e-13,-6.4337255e-14,-8.915922e-14,7.0732564e-14,-8.192709e-14,-5.2297833e-14,-1.0253271,-2.303767e-14,-1.7188715e-13,-1.2562275e-13,2.7162051e-15,-8.76445e-14,5.6387166e-14,1.0469673e-13,-1.4702225e-14,2.417601e-13,1.9968566e-13,-1.9520578e-13,1.5852274e-14,1.5044227e-13,-2.2903004e-13,3.5176557e-13,-1.4102275e-13,-1.6040275e-13,-1.8952103e-13,-2.6166332e-14,2.7599813e-14,2.943513e-13,-1.1752139e-13,2.4667626e-14,4.3201553e-14,1.1751525e-14,-2.1723383e-14,-2.0164701e-13,-7.9174595e-14,-2.2929922e-13,-1.1997097,0.586961,-1.02910166e-13,4.56587e-14,-1.8872863e-13,2.1246426e-14,-3.620557e-15,-0.22346826,-1.252349,1.1273065e-13,9.0424684e-14,1.1282928e-13,1.1872399e-13,8.975288e-14,4.0875093e-14,-5.6970047e-15,-9.523031e-14,3.214184e-13,-2.5839804e-14,1.4236511e-13,1.1400702,-9.0371775e-15,5.876471e-14,8.02912e-15,4.1380517e-14,-3.0192914e-13,-3.162532e-13,-2.2112629e-14,-4.122516e-14,-1.0201388e-13,-1.5131849e-13,5.1028195e-14,1.1652932e-13,9.021912e-14,-2.5740833e-13,-1.2696079e-14,6.9951925e-14,1.32312035e-14,4.715761e-14
2.6015466e-13,1.85248e-14,1.5826424e-13,2.6227393e-13,6.846597e-14,1.017257e-13,-2.0167102e-13,1.4754936e-13,9.490915e-14,3.2503175e-13,6.605867e-14,0.72226346,-1.4123758,-1.158367e-13,-1.7766767e-13,2.0216297e-13,-7.503103e-14,-2.399867e-13,-1.0801084,-0.70532155,-1.7221934e-13,-2.2593223e-13,1.2922228e-13,1.3752596e-15,2.7071585e-13,-3.914154e-14,2.7526156e-13,1.4591064e-13,-1.1758637e-14,-8.102693e-14,8.710616e-16,-0.97102696,3.7348373e-14,2.1024128e-13,1.395625e-13,1.0385708e-13,-5.1051323e-14,6.034999e-14,-1.9227744e-13,1.5771252e-13,-4.3163996e-14,6.3990425e-14,-7.003127e-14,-4.8523265e-15,-1.4322313e-13,5.693254e-14,1.2325195e-13,1.4039978e-14,-1.2405482e-13,-4.0590673e-14,-1.7632872e-13,-1.0065681e-13,7.5842266e-14,-1.2691695e-13,8.909174e-15,-5.0211886e-14,-5.118799e-14,4.41574e-14,1.887676e-14,-3.7487282e-13,5.140082e-14,-1.1819559,0.7193133,-1.3802941e-13,1.7505555e-14,2.0307212e-14,5.6439567e-14,1.5544446e-13,-0.81554985,-1.219766,1.2643615e-13,-1.1472255e-13,-1.8767824e-13,7.762286e-14,-1.5797013e-13,8.501792e-14,-5.1143375e-15,-1.66184e-14,-8.4584954e-14,-2.773135e-15,-2.00838e-13,1.9631134,-5.080589e-14,-1.5307273e-13,-2.3991567e-13,-7.904725e-14,-2.5938046e-13,-1.08667754e-13,-2.0739184e-13,2.1724799e-13,2.6683293e-14,4.125948e-14,1.5839242e-13,-3.218267e-13,3.9558786e-13,1.9246836e-13,-2.942793e-14,-9.270803e-14,9.896292e-14,-4.8105427e-14
8.6273585e-14,2.446508e-13,9.610006e-14,-2.5179159e-14,1.5043294e-13,2.2631886e-13,4.934772e-15,-5.654592e-14,-7.419594e-14,1.3994861e-13,-3.6025436e-14,1.1203724,-1.2599621,-5.107878e-14,1.5074056e-14,-1.9821354e-13,6.710289e-14,-1.4725147e-13,-1.3607748,-0.87802094,-4.364052e-14,-9.405615e-14,-1.1379678e-13,-1.6967659e-14,1.01014933e-13,1.5893875e-14,-1.7275122e-14,5.118101e-14,4.5487797e-14,6.211603e-14,-7.96564e-15,-1.0520904,-2.5162028e-15,2.1344694e-13,-2.7879513e-14,3.4071536e-13,-1.1768257e-13,-9.813825e-16,1.7841509e-13,-8.598117e-14,-6.306476e-14,2.582489e-13,-5.1092485e-15,-6.604346e-14,-6.560735e-14,-4.306127e-14,-1.2944791e-14,-5.1251318e-14,2.8937226e-13,6.410173e-14,7.205406e-15,1.8803207e-13,1.4373085e-13,-1.4428668e-13,-1.856644e-14,6.92597e-14,2.3941576e-14,-7.2250826e-14,1.0011161e-13,-1.25843e-13,3.3106005e-14,-1.1103854,1.0524445,3.5915482e-13,-4.9015384e-14,2.9978007e-14,-2.1917784e-13,-5.2546594e-14,0.123404674,-1.1141671,-1.3980038e-13,-2.1634495e-14,6.988153e-14,-3.0622884e-15,-8.124281e-14,-6.682994e-14,1.1268637e-13,1.9000261e-13,-4.578536e-14,-3.2520377e-14,-8.0521385e-14,0.8501812,-1.13790914e-14,-1.5933327e-14,1.7338183e-13,-3.0319924e-14,1.4406609e-13,-1.0438372e-13,4.305919e-14,-1.3750473e-13,1.004508e-13,1.2522332e-14,1.1755869e-14,2.924407e-13,-1.3414412e-13,3.7829963e-13,-7.36712e-14,-6.293211e-15,-3.3407996e-16,3.213432e-13
2.5309906e-13,2.98249e-14,1.8320215e-13,-2.3539962e-13,-1.8206407e-13,-2.4220475e-13,-5.6062048e-14,4.9345632e-15,-7.993142e-14,-1.8441295e-13,7.519606e-15,1.3909957,-1.1776367,-3.4554286e-14,-5.1742207e-14,-1.0837463e-13,-2.1520936e-13,-3.9628416e-14,-1.2658097,-1.2357116,4.139572e-14,-3.1547288e-13,6.5072805e-14,3.805334e-14,1.2667363e-13,-4.3346145e-14,-6.344739e-14,1.1456423e-13,-1.7778849e-14,-9.978997e-15,1.1860388e-13,-0.84058523,3.3858956e-15,-5.2248136e-14,4.864914e-14,-8.766359e-14,1.4351239e-14,-2.1463485e-14,7.775907e-14,-3.4505175e-14,2.7393818e-14,4.6504684e-14,-3.1960237e-14,-1.9162715e-13,-1.535069e-14,1.3290564e-14,1.085853e-13,-5.0001344e-14,5.8098396e-14,1.285478e-13,-4.228858e-14,-4.2686747e-14,8.4624114e-14,3.6379187e-13,-1.36997e-13,-1.3586193e-13,-3.6246003e-14,-8.380869e-15,-2.4688468e-13,-4.5778502e-14,3.6897254e-13,-1.0620525,1.1186483,1.6717388e-14,-2.3392085e-13,-4.1286115e-13,-2.7267113e-13,-1.028236e-13,-0.10276922,-1.0091339,-1.2285238e-13,3.755282e-13,2.13618e-13,-1.5961482e-14,2.6537076e-13,2.7899615e-13,3.7969996e-13,6.7820315e-14,2.2353382e-13,2.8958335e-13,3.0025613e-13,1.1103057,1.6160246e-13,-1.6117751e-13,5.5646304e-15,8.095232e-14,-9.7585704e-14,-7.621487e-14,-1.8978413e-13,6.8876945e-14,-7.274915e-14,-1.9164324e-14,-1.3017591e-13,5.795625e-14,-8.129681e-14,-1.776741e-14,-9.868644e-14,-1.03420385e-14,-4.542053e-14,2.0007684e-14
5.489121e-14,-1.4031324e-14,2.1989622e-13,-1.671414e-13,-2.9329912e-14,1.4542855e-13,3.0203298e-15,2.1646414e-13,-1.9518362e-13,-6.464235e-14,4.5339885e-14,0.18242888,-0.62569183,2.6492567e-13,-5.7547344e-14,5.2765674e-14,-8.407822e-14,-1.2780095e-13,-1.0262679,-0.3271331,-1.9483001e-14,3.701223e-13,1.412758e-13,-1.2878668e-13,8.325922e-14,-3.110658e-14,-1.1219721e-13,1.06282665e-13,-5.07504e-14,-2.7952555e-14,-5.4819295e-15,-0.05604203,-1.147921e-13,-6.775345e-14,1.1822771e-13,7.742702e-14,-2.1835725e-13,-1.2892646e-13,8.0434235e-14,-8.52445e-14,5.419625e-14,-8.9173874e-14,-7.101051e-14,-9.857017e-15,3.3568414e-14,1.2686659e-13,-3.7328478e-14,-2.6438534e-14,-3.337841e-13,1.9453413e-14,-4.4508447e-14,-1.2074956e-14,1.2657957e-13,-1.4131487e-13,1.722696e-13,1.5256757e-16,-5.0311104e-14,2.9391997e-13,1.6962343e-13,-1.7694395e-14,7.34603e-14,-0.420151,1.0675737,1.7049472e-14,8.071164e-14,-1.4263954e-14,4.874676e-14,-6.36163e-14,-0.30510795,-0.3782814,-2.1674183e-13,3.328674e-13,-7.8590393e-14,-1.400255e-13,-9.811875e-14,1.2673832e-14,1.7891554e-13,-5.0961693e-14,-6.825739e-14,-2.063276e-13,1.1690526e-13,1.49234,2.3321595e-15,-9.6611955e-14,2.4062035e-13,-1.2868158e-14,-2.597822e-15,1.9404749e-14,-1.5822483e-13,5.2324932e-14,3.477355e-13,7.0044014e-14,4.6866868e-14,-9.931025e-14,7.4320934e-14,2.1481426e-14,3.2618175e-14,2.3112642e-13,-9.2143015e-14,1.4499193e-13
-1.9816268e-14,6.345593e-14,1.0264664e-13,-6.211825e-14,1.5399974e-14,-2.1144853e-13,-4.2148392e-13,-2.166914e-13,-4.1595843e-14,7.862106e-15,-3.3929736e-13,-0.24145389,-0.8915757,-7.0512376e-14,1.5728987e-13,1.5008317e-13,-1.1888377e-13,1.6001862e-14,-0.91572875,0.3170336,2.8497037e-13,-9.085882e-15,-6.4974474e-14,-2.0409142e-13,-1.2872461e-15,-1.0917794e-14,6.755448e-14,1.8224669e-13,-6.361545e-14,8.5267134e-14,6.520191e-14,-0.29790774,-4.8003163e-14,-1.6192397e-14,2.730292e-16,1.370453e-13,-1.6594033e-14,3.814074e-14,-1.344187e-13,-6.720161e-14,5.864017e-14,-5.617202e-14,9.212329e-14,-7.300275e-14,-1.9422692e-13,-2.689745e-13,2.8722248e-13,3.362287e-14,1.6090361e-13,7.6874e-16,-3.7759628e-14,7.0756165e-14,3.1159039e-15,1.7449864e-13,-2.397533e-13,-7.5283557e-14,8.693067e-15,5.301948e-14,7.456605e-14,-2.665007e-13,7.836463e-14,-0.70888776,0.8928353,-1.430168e-13,1.3787262e-13,2.4042834e-14,-2.708289e-14,6.2474324e-14,-0.4666464,-0.6644695,5.701263e-14,-1.7557158e-13,6.319679e-16,9.510296e-15,7.1018e-14,-3.8178526e-14,-8.6026455e-14,1.298695e-13,3.926506e-14,-9.180039e-14,5.292262e-14,1.5719444,6.1165286e-14,1.6733034e-14,2.3522701e-14,2.6569496e-14,-3.1586685e-13,-9.5729224e-14,1.3722564e-14,-8.2407815e-14,5.790133e-14,3.9172516e-14,3.9391423e-14,-2.0089774e-13,-2.586922e-13,6.541901e-14,3.8826073e-14,-3.9860354e-14,8.8422745e-14,-2.9544238e-13
-3.6862508e-14,2.0657965e-13,-9.562915e-14,2.3526957e-13,5.533551e-15,5.2377123e-14,-9.195146e-14,1.2927053e-15,-1.1646966e-13,-8.566925e-15,1.3356089e-13,-0.10672229,-1.649239,3.750477e-13,-8.141457e-15,-1.7476591e-13,-2.3655221e-14,-3.0979485e-14,-1.5096016,0.41156626,-1.1650343e-13,-5.52341e-14,-2.616767e-13,-8.8871666e-14,2.6312855e-14,1.4425673e-13,6.534622e-16,-4.4377117e-14,-2.2303326e-15,-1.0108891e-13,1.7078884e-13,-0.9291758,2.3746264e-15,8.366635e-15,6.840107e-14,-7.23596e-14,-1.2222864e-13,1.8884108e-13,-9.333374e-14,-7.272179e-14,-2.7779675e-14,-1.6749289e-14,-2.7853811e-14,7.279221e-14,1.8285783e-13,-7.8154626e-14,-2.0247564e-14,7.991089e-14,2.9743105e-13,-2.3558155e-13,-4.5925015e-14,-3.3951965e-13,5.1833714e-14,1.3628215e-13,6.9319306e-14,2.9152212e-13,7.337665e-14,-5.277586e-14,4.9531187e-14,-1.3172776e-13,-2.0340871e-13,-1.431534,0.10444111,4.6064633e-15,-1.3267284e-13,-1.29766e-13,7.6432885e-14,3.4453946e-14,-1.0727009,-1.4330158,-1.3506152e-13,3.125422e-14,3.3221944e-13,5.568724e-14,6.545235e-14,-5.9884653e-15,2.381111e-13,1.9887912e-13,-1.4063735e-14,1.4042965e-13,-4.2625375e-14,2.201687,1.13610415e-13,-1.164207e-13,3.2876473e-14,-2.7220896e-13,-1.3350303e-14,-1.355929e-14,-1.8557017e-13,-8.109595e-15,7.078241e-15,-4.856843e-14,-1.9335157e-13,6.37393e-14,6.385944e-14,3.5351913e-13,-4.343209e-14,-1.1579057e-13,-9.72238e-15,7.376756e-15
7.6684203e-14,-9.6645273e-14,-3.932473e-14,-6.118645e-14,-1.5675421e-13,-4.2449856e-14,8.387781e-15,1.7369638e-13,1.8097001e-14,2.3502803e-13,-6.002204e-14,0.23577075,-1.6579833,-2.4379384e-13,-1.9648259e-13,1.11219126e-13,3.4171742e-14,3.9752598e-14,-1.5132556,-0.022523463,-7.7831066e-14,-2.2278079e-13,-1.0531049e-14,-9.829153e-15,2.2268298e-13,-7.7503786e-14,-7.5657505e-14,-1.4518253e-14,-1.1977721e-13,-3.7384315e-13,6.940344e-15,-1.3480546,2.9507802e-14,9.932145e-14,-1.9643377e-13,-2.8066804e-13,1.280133e-13,-2.1071206e-13,2.4503742e-13,-1.638431e-13,4.5139456e-14,8.494152e-14,-1.7923088e-13,1.5310278e-13,2.0014784e-13,2.7209376e-13,-2.973188e-14,8.887409e-14,-4.130971e-14,-7.702423e-15,-8.2090164e-14,-1.187088e-13,-1.2083505e-13,-3.3929734e-14,1.2762987e-13,1.5438726e-13,1.389112e-14,-9.717133e-14,5.9470515e-14,-6.5281995e-14,3.1653188e-13,-1.5215648,0.28058732,-3.2417394e-14,-9.808109e-14,1.1078694e-13,5.1205744e-14,-6.929014e-15,-0.30755997,-1.4724584,-4.230725e-14,2.9015554e-13,5.5384577e-14,1.6336365e-13,-4.1493184e-13,-3.9636717e-14,-9.136206e-14,2.4993758e-13,1.2988529e-13,-5.381019e-15,-7.84027e-14,1.1951928,7.5548536e-14,6.624106e-14,1.7106776e-13,-1.2780657e-13,1.3923414e-13,-5.1272002e-14,1.4345721e-13,4.7217255e-14,-1.423803e-13,2.5901563e-13,-3.3394477e-14,-1.5387079e-13,-9.332017e-14,-1.7873845e-14,1.4979378e-13,-1.9879679e-13,4.1288075e-13,1.3893685e-13
2.1664215e-13,-3.5015003e-13,2.1208679e-13,8.216444e-14,2.0046448e-13,-1.5088918e-13,9.5660953e-14,-5.228839e-14,2.331238e-15,6.2226076e-14,6.329945e-15,0.47452408,-1.5542946,1.2268714e-13,1.6379086e-13,-3.4286132e-13,-1.496528e-14,-5.7345486e-15,-1.4638875,-0.35800293,-2.3997833e-14,-2.858079e-15,1.4788587e-13,8.975263e-14,6.361204e-15,6.9971704e-14,-9.209434e-14,-2.48711e-13,2.9669e-14,-9.276993e-14,1.1306081e-14,-1.1035279,1.5026993e-13,-6.324489e-14,-6.221812e-14,1.5001394e-13,-1.1928734e-13,-1.1415733e-13,-1.149643e-13,1.3779956e-15,2.619134e-13,1.0547248e-13,3.7487625e-14,-4.9631245e-14,2.300124e-13,6.058355e-14,-5.938528e-14,9.158964e-14,-2.3390824e-13,6.858325e-14,-4.3193266e-14,-1.9656399e-14,2.271024e-14,-3.3095427e-14,-1.9345917e-13,-1.1601973e-14,-2.4137939e-14,9.3201624e-14,1.670464e-13,-1.6824923e-13,5.9964756e-14,-1.4128389,0.7426856,1.253557e-13,-1.2500739e-13,4.5113923e-15,8.752531e-14,4.0719696e-14,-0.3100772,-1.3426257,-1.6818002e-13,-2.2649778e-14,-4.3189702e-14,1.694608e-13,-2.3151438e-13,3.044824e-14,-6.752693e-14,-6.741977e-14,1.6194226e-13,-6.862536e-14,-3.0484977e-14,1.4025693,4.6574523e-14,8.4680194e-14,1.4214182e-14,-4.4146137e-14,8.601809e-15,-1.6460302e-13,2.10578e-13,-3.1380015e-13,2.0719473e-14,-4.828062e-14,5.3607956e-14,-4.1004147e-14,-3.1997408e-14,1.3202281e-13,-4.7282148e-14,7.915875e-14,-2.1998659e-14,-4.5608713e-14
3.808712e-14,-1.2008658e-13,-5.956049e-14,-1.5693333e-14,6.9290514e-14,7.299593e-14,-1.6005577e-13,-1.783695e-13,4.6260034e-14,-6.581541e-14,1.1862808e-13,-0.3927598,-1.3506284,3.9101016e-14,6.8252966e-14,-4.2589606e-14,1.3013343e-13,-1.8116666e-14,-1.1861587,0.4395472,-1.4963585e-13,4.156142e-14,1.5935899e-13,-6.1295804e-14,6.665429e-14,1.0970366e-13,-1.1320357e-13,-7.0725937e-14,4.2259965e-15,1.5221236e-13,-3.2462575e-14,-0.8157071,4.1391532e-14,-1.9345989e-14,-2.7266175e-13,6.2492227e-15,6.8221524e-14,1.5215506e-13,2.1441289e-13,1.4731293e-13,1.884236e-14,-2.6047957e-13,2.0364153e-14,-6.947707e-14,-4.2112527e-14,-1.2563377e-13,4.783584e-14,7.78433e-14,1.6452114e-14,-1.6842203e-13,-7.256994e-14,-9.3465844e-14,4.3177884e-14,-4.8281014e-14,1.3518966e-13,-5.479263e-14,5.9912985e-14,-3.5733095e-14,4.386865e-15,2.5616317e-13,-2.4875224e-13,-0.82921517,0.6355229,-3.6346097e-13,1.12265164e-13,1.7518245e-13,-6.398983e-14,-2.0228089e-14,-0.21675885,-0.6775737,5.1517208e-14,-1.9307344e-13,-1.949901e-13,-4.7487123e-15,7.1038044e-14,1.4695813e-13,-5.1493186e-14,6.459848e-14,-4.398674e-14,6.667089e-14,4.1994843e-14,1.0913496,1.4376112e-13,-3.586942e-15,-3.0653967e-14,-1.1211295e-13,3.8990675e-14,5.2798667e-14,9.259916e-14,1.2606653e-13,1.5796454e-13,1.4593052e-13,9.634165e-15,1.02371474e-13,-4.456533e-14,4.748302e-14,-1.0694094e-13,-8.742364e-14,-7.826239e-14,-1.2044767e-14
2.1358619e-13,9.994665e-14,2.3072386e-13,-1.2652477e-13,-3.325973e-14,-1.9918523e-13,1.3171311e-14,-3.546852e-14,2.3547155e-13,-1.6563049e-13,1.9581484e-14,1.2420173,-0.93076104,1.0943779e-13,4.098053e-14,7.3698704e-14,5.996514e-15,2.0320136e-14,-0.9638805,-1.1442944,-1.3549851e-15,-8.932799e-15,-3.5160134e-13,-8.875969e-14,7.5853684e-14,4.757812e-14,4.0820114e-13,7.391243e-14,-1.3715576e-13,-3.845513e-14,2.860885e-13,-0.5296845,-3.965471e-14,-1.7603879e-14,-6.3531537e-15,-2.930182e-13,5.2424587e-14,-6.733172e-14,2.2028264e-14,1.4322164e-13,1.0205809e-13,-5.336817e-14,5.9382376e-14,4.636182e-14,9.221905e-14,-4.0248024e-14,1.3176054e-13,1.560845e-13,2.8085485e-13,1.199821e-13,-1.2134838e-13,4.8264825e-14,2.0678572e-13,-1.5397822e-14,-1.5322334e-13,1.4375911e-14,-2.926927e-13,3.067902e-14,-5.473077e-14,-2.0336553e-14,1.5389137e-13,-0.6882134,1.067184,-1.1662322e-14,1.4826199e-13,1.8233094e-14,-7.02278e-14,-6.8123865e-14,-0.8822543,-0.5975878,3.690059e-13,-1.7501574e-14,2.175815e-13,2.402512e-14,-1.6005487e-13,1.2635224e-13,1.6298665e-13,-5.6978375e-14,9.125272e-14,1.0322351e-13,-5.0029906e-14,1.2019233,1.529079e-13,1.3670053e-13,-4.5578707e-14,-6.3441365e-14,-6.896339e-14,-1.0499773e-14,-2.3496318e-14,-5.3340382e-14,-1.07101204e-13,-3.3059387e-13,-5.3691643e-14,-1.9491491e-13,2.1723626e-13,2.1751168e-13,-2.6502967e-13,1.3483323e-13,-1.188443e-13,2.3350201e-14
1.08828745e-13,9.6185795e-14,2.1077957e-14,1.6255397e-13,-4.4480377e-14,-5.5768707e-14,-2.0221608e-13,-8.0821885e-14,5.2806768e-14,-1.6068631e-13,-2.6468e-13,0.583644,-1.4932355,-3.9989442e-14,-2.2179006e-13,1.5652857e-14,-1.4347897e-13,-4.3288946e-13,-1.5304792,-0.37241846,7.5002816e-14,1.8174598e-14,-1.3904314e-13,-6.288034e-14,-1.4516383e-15,-3.0359892e-13,1.6232542e-13,-2.462782e-13,4.216688e-13,1.6021892e-14,-7.543828e-14,-1.057052,9.183992e-14,2.6058216e-13,-6.0466036e-14,-4.8852195e-14,2.1701e-13,2.64754e-13,6.195642e-14,-3.527282e-13,-3.3734747e-15,-5.431847e-14,6.592514e-14,-1.9203739e-13,-2.3388678e-13,-1.7993999e-13,-1.1389002e-13,-8.009157e-15,4.1993278e-14,1.9788841e-14,-3.9677273e-14,-2.5884663e-13,-3.0976385e-13,-1.040685e-15,-2.7084e-14,-3.1850287e-13,9.003928e-14,-1.5578345e-13,1.0656199e-13,2.3202709e-14,1.2249338e-13,-1.2899609,0.33663332,-9.4897235e-15,-1.1583346e-13,-4.862617e-14,-3.7399134e-14,-9.804738e-14,-0.25448745,-1.2647529,-1.6960329e-13,-3.9722172e-14,-3.4963804e-13,-4.1683108e-14,2.5066944e-13,1.5300841e-13,7.940216e-15,-1.3002758e-13,5.4672385e-15,1.5432879e-13,1.6240907e-13,1.0585325,-2.6064674e-14,-1.3817788e-13,1.9115222e-13,-1.1912251e-13,-4.8477037e-14,-6.460456e-14,-1.1888673e-13,-5.0784497e-14,-5.906915e-14,3.121998e-14,9.960654e-14,-2.5326442e-13,-1.4163977e-13,-5.6078324e-14,3.4651393e-14,-1.1611584e-13,-3.6985063e-14,-4.0555306e-13
-1.4264136e-14,-2.8729924e-14,-5.0241153e-14,-9.959681e-14,-5.7563925e-14,-1.6062015e-13,-4.1167482e-14,1.8869045e-13,7.743476e-14,-5.0884088e-14,8.088484e-14,1.0642703,-1.607549,9.2462056e-14,-2.2218928e-13,1.2260403e-13,-1.00995804e-13,-3.3127564e-13,-1.5290595,-0.93777555,3.223258e-14,-6.094006e-14,-1.6837763e-13,-1.1324373e-13,2.0011003e-14,-1.138844e-13,-1.3096677e-13,-5.2976544e-14,2.2788452e-14,-1.3741379e-13,-1.4648288e-13,-1.148405,-1.5612505e-13,-1.07200314e-13,-8.3385643e-14,-4.169462e-15,3.2337376e-13,-3.5228487e-14,-9.45696e-15,3.3862507e-14,-1.9845836e-14,-9.225448e-14,1.2626132e-13,3.5194693e-15,1.4844908e-13,7.719296e-15,-2.0622097e-13,-2.5942226e-13,-2.0441588e-13,-2.614746e-13,-4.0129677e-14,1.1338204e-13,-1.6475886e-13,-1.0921738e-13,2.2811565e-13,-1.8405741e-13,1.793825e-13,6.080682e-15,-3.5658935e-13,-2.6887523e-13,7.808562e-14,-1.3597902,0.7426525,2.143479e-13,1.08099856e-13,6.7336246e-14,-2.0969215e-14,-2.1055629e-13,-0.2696595,-1.3461368,2.4799124e-14,-1.834627e-14,-3.7244342e-13,2.594205e-13,-1.5547635e-13,-5.6017748e-14,1.5881899e-13,1.932318e-14,2.0702739e-15,1.1979283e-13,-2.0344047e-13,1.3869933,3.0502334e-14,-3.646547e-13,-5.6157525e-14,3.500203e-14,-1.1458502e-13,8.535044e-14,1.4285002e-13,-1.506385e-13,1.0696022e-13,-1.1213456e-14,-2.1299592e-13,-1.6429725e-14,2.3321205e-13,-1.1740596e-13,2.4803925e-13,-8.5506275e-14,-2.4562661e-14,-1.8410268e-13
-9.176457e-15,-2.4415555e-15,1.9089297e-14,-1.4786314e-13,1.2263645e-13,-1.9272272e-13,-3.7591322e-15,1.9395343e-13,-1.5574308e-13,9.586493e-14,-9.18224e-14,1.5399537,-1.6424376,1.9552285e-13,1.3969168e-13,-1.4054652e-13,-1.908159e-13,-2.1953912e-13,-1.4522293,-1.2392815,1.6722217e-13,-2.5990803e-13,-1.206796e-13,2.2202083e-13,4.5106605e-15,4.402388e-14,-1.6118733e-13,-1.4521211e-14,-6.2332324e-15,-4.1908e-13,1.21039585e-14,-1.4403034,2.1045177e-14,-3.8772405e-14,1.4832635e-13,1.9590162e-13,-5.4588468e-14,1.4996381e-13,-1.2949644e-13,8.974102e-14,-1.3393166e-13,-5.1888927e-14,1.0199591e-14,-3.5901458e-14,2.2856137e-14,1.01067544e-13,2.5581533e-13,3.9895272e-14,1.2827383e-13,-3.408311e-14,-9.610131e-14,6.048003e-14,-5.4307734e-14,-1.869407e-13,-4.9141575e-14,7.1444654e-14,1.6693068e-14,-3.5120984e-13,-2.6564477e-13,1.1297301e-13,-2.6937496e-13,-1.4875873,0.26860866,-3.3892846e-13,9.7895115e-14,5.3064453e-14,-6.881105e-14,3.4209392e-13,-1.2353667,-1.536662,-2.9449896e-14,-2.5874178e-14,8.1358714e-14,-9.959333e-14,6.932023e-14,-8.560218e-14,-1.2316569e-13,-2.4366427e-15,-2.9474632e-14,-2.7207473e-13,-3.139771e-13,0.8304708,3.3401371e-13,1.3692824e-13,2.6991308e-13,-2.525814e-13,-1.5621421e-13,3.1855562e-13,5.847848e-14,-2.8682907e-14,6.0617025e-14,-9.813356e-14,1.1295227e-13,-3.83027e-14,-1.3076809e-13,-1.7539739e-13,-3.4707554e-14,-5.4415118e-14,-2.7165181e-13,2.2617523e-13
-3.4092998e-13,-1.6800594e-15,1.6294132e-13,1.985738e-13,-3.96073e-13,1.9354245e-13,4.4068556e-14,9.342726e-14,-7.20638e-14,1.4042017e-13,1.74799e-13,1.1466151,-1.6522609,-9.341326e-14,1.7661796e-14,2.1387665e-13,-2.5474306e-13,-7.788109e-14,-1.5927109,-0.8963585,-1.2058293e-13,1.2371645e-13,2.366645e-13,-1.2382627e-13,-2.0420289e-13,1.1149588e-13,1.3907139e-13,-1.5090563e-13,-3.0768622e-13,4.2028806e-14,-2.5526442e-14,-1.3862679,-1.0689556e-14,-7.181619e-14,-1.904544e-14,-3.7152942e-14,-1.4108143e-13,-6.058073e-14,-3.172948e-13,-4.060234e-14,2.5705254e-14,-1.09226674e-13,-8.213873e-14,-1.370781e-13,-6.8385266e-14,8.673468e-14,1.1550866e-13,-6.8524525e-15,3.0084767e-13,-1.208832e-13,-2.386648e-14,3.326235e-14,2.7110603e-13,-2.3869165e-14,3.7553912e-13,-3.014897e-13,5.5359065e-14,3.3563175e-13,-1.0208298e-13,2.71242e-13,1.04471024e-13,-1.5217305,0.42431772,2.2167096e-13,-1.8832497e-14,-2.5796199e-14,8.7189126e-14,-2.5463659e-14,-0.4604092,-1.6046151,3.7498e-14,-1.70181e-13,2.9541257e-15,1.6697756e-13,1.1875264e-13,-9.794122e-14,-1.8437026e-13,9.210849e-14,-1.3169228e-14,1.6705666e-13,-4.3274743e-13,0.8157261,-6.050641e-14,-1.353592e-13,5.481932e-14,4.34286e-15,-7.842705e-15,1.3478862e-14,1.0604405e-14,6.1939135e-14,-1.0111356e-13,-5.826944e-14,2.6438622e-13,1.6496812e-13,-8.029909e-14,1.9689305e-13,8.743116e-14,-1.1730848e-13,5.7872137e-15,-1.2095725e-14
5.1859308e-14,-6.535772e-14,3.9618984e-15,2.4882798e-13,-5.686462e-14,1.393714e-13,1.8594201e-13,-1.8681908e-14,3.4706447e-14,-6.2244975e-14,1.5326943e-13,1.2578588,-1.3973857,2.3560892e-13,3.9822847e-14,1.4440472e-14,-3.4753626e-15,-1.270479e-13,-1.3361894,-1.0912077,1.7636654e-13,2.3098453e-13,9.40604e-14,1.2174268e-13,7.3735614e-14,-2.7527522e-13,-8.585168e-14,8.8634984e-14,2.8593152e-13,-3.775717e-14,4.518651e-14,-1.0823921,-1.7774867e-13,2.5028902e-14,2.7926825e-13,-9.871946e-14,1.4736592e-13,2.940541e-13,-3.05326e-13,7.010927e-14,-3.0527902e-13,1.2923728e-13,-2.0919514e-13,-2.0543178e-13,3.8843847e-15,1.9512068e-13,3.7530515e-14,1.6928655e-13,3.4928177e-13,-5.70666e-14,-1.7680203e-14,-7.5355026e-14,-1.2361187e-13,-1.2126411e-13,-3.607688e-14,2.2324146e-13,7.128476e-14,-7.4267496e-14,-1.0269247e-13,9.3592736e-14,-2.442633e-15,-1.2762059,0.7083416,1.9186028e-13,8.275291e-14,-1.3141364e-13,2.4542356e-14,-2.2539343e-15,-0.36086965,-1.2161565,-2.474395e-13,-9.672753e-14,-3.46839e-14,1.2190375e-13,1.7209137e-13,-1.2607934e-13,5.872604e-14,-3.0428812e-15,2.0794147e-13,5.2563748e-15,-8.9237354e-14,0.99650747,-3.0037672e-14,2.6507659e-15,-1.9863782e-13,-6.900615e-15,9.5690505e-14,1.2974837e-13,3.0888656e-14,2.2520763e-14,-1.7008977e-13,-9.631481e-14,1.00956014e-13,-1.2515146e-13,-1.3525636e-13,1.933145e-13,3.2342496e-14,-9.616407e-14,3.53588e-14,3.3541846e-13
-4.5508546e-14,-2.4626687e-13,2.5628322e-13,4.014842e-14,1.6244887e-13,2.5056519e-14,-1.2443032e-13,6.823645e-14,-2.5848694e-13,7.624114e-14,7.661268e-14,0.48474425,-0.55865747,-1.5676945e-13,-1.0911585e-13,2.3181977e-14,-1.35586665e-14,-3.115642e-14,-1.0410656,-0.47637632,2.2487215e-13,-1.2667871e-13,5.375056e-14,-2.1699884e-13,1.01785564e-13,-1.7669174e-13,2.390659e-13,4.1921964e-14,4.9238794e-14,7.055842e-15,5.894272e-15,-0.41681463,-4.2786812e-14,-1.5080641e-13,2.2257925e-13,-1.982314e-13,-7.496201e-14,1.577906e-13,9.779695e-14,-1.7566062e-13,2.4676303e-14,-3.4255032e-14,-2.9582342e-13,-3.6509074e-13,2.0714605e-13,9.0240254e-14,8.937152e-14,-1.2079639e-13,-1.1521961e-13,2.4900096e-13,2.705041e-13,-1.2777514e-13,3.4205918e-14,-3.8364118e-14,-5.0458867e-14,6.338667e-14,3.7613082e-13,9.52422e-14,-2.2607616e-13,-1.6375596e-13,5.861211e-14,-0.6760464,0.45099166,1.2441574e-13,-2.7740267e-13,-9.92522e-14,4.8494964e-14,1.0030263e-13,0.5720354,-0.7383096,1.4154351e-14,1.2842554e-14,4.8488855e-14,7.25921e-14,-1.1440619e-13,3.453187e-14,1.8921998e-14,-2.035183e-15,-1.6051247e-14,2.793043e-14,2.46351e-13,0.7408293,7.394022e-14,-1.0469536e-13,9.457813e-14,-2.1959168e-13,-1.8273511e-13,-2.976124e-13,1.5451071e-13,-8.2567864e-14,3.3558717e-14,1.4310905e-13,1.7632513e-13,-7.403574e-14,7.707275e-15,3.804526e-14,9.948379e-14,9.427534e-15,-5.4510446e-14,-3.1505502e-14
-7.0666095e-15,-3.2954867e-14,-1.4533198e-13,-2.4654728e-13,5.918314e-14,1.8997033e-13,-4.226182e-14,4.5825587e-14,-2.1798702e-13,-1.5971903e-13,-2.0949453e-13,1.071297,-1.0187466,3.315403e-14,-2.4314987e-13,1.6795209e-13,1.899117e-14,1.410144e-13,-1.2763543,-0.74283344,-1.6294325e-14,1.9154814e-13,3.3606893e-14,4.0811945e-15,9.053451e-14,1.8729297e-13,-4.4051182e-14,-4.309117e-13,1.5203774e-14,-1.6667216e-14,8.37053e-14,-0.9994873,-6.826208e-14,-7.073296e-14,2.096293e-13,2.0722866e-13,-1.2822486e-13,2.2300281e-13,-1.7784124e-14,4.7429415e-15,-3.025232e-13,-5.6471402e-14,-4.207922e-14,4.5683617e-14,-6.1338406e-14,2.4230287e-14,-7.233689e-14,-1.3853209e-13,1.9019614e-13,1.0978092e-13,9.426525e-14,6.162931e-14,5.341686e-14,-1.7272883e-13,1.05276675e-13,1.6220883e-13,3.6275833e-14,8.063656e-14,-8.8253074e-14,1.6689962e-13,6.0278605e-14,-0.9216124,0.36737415,-1.7836167e-13,-3.908642e-13,-6.18794e-14,-4.3526941e-13,9.82818e-14,0.08642133,-0.90373427,-1.3278895e-14,1.2890097e-13,-1.4021125e-13,1.1617893e-13,3.4708598e-14,-8.461178e-15,2.5838483e-14,7.996774e-14,-5.2787134e-14,-6.461913e-14,9.346862e-14,0.14226408,-2.461758e-13,1.3727799e-13,-1.3931066e-13,-1.2588517e-13,3.1024716e-14,-2.5459295e-13,-7.0911633e-15,4.401514e-14,1.2341067e-13,-1.7789492e-13,7.927863e-14,-1.231498e-13,-6.307148e-14,1.2178295e-13,8.40517e-14,1.7540553e-13,1.4173591e-13,-1.4525043e-14
5.0701495e-14,4.4063586e-14,5.8900476e-14,-9.04915e-14,2.7444765e-14,-2.4242029e-14,-9.6209634e-14,1.1999401e-14,-7.261499e-14,-3.12953e-14,-3.3635383e-13,0.8699064,-1.1697953,-1.146679e-13,-3.5454593e-13,1.622917e-13,6.201185e-14,1.2504521e-13,-1.5123711,-1.0035319,-9.68036e-14,1.846709e-13,-1.4056188e-13,-7.58571e-14,-8.4071435e-14,-2.1120858e-14,3.4862147e-13,1.5083845e-13,1.3512859e-13,-3.424151e-15,2.3392495e-14,-0.9965505,-2.0319158e-14,-3.293242e-14,2.2110953e-13,-1.7895996e-13,-1.8623362e-13,2.1847154e-13,-6.1336725e-14,1.8609636e-14,-9.144567e-14,-1.8454038e-13,-1.7328475e-13,-9.711808e-14,-7.8877185e-14,3.838022e-14,3.765095e-14,-1.1120714e-13,1.03804186e-13,3.8399744e-14,-1.2692972e-13,1.9799462e-13,2.1007084e-13,3.3612456e-14,4.632819e-14,-2.5649074e-13,-1.9868626e-13,1.1317756e-13,-6.0702074e-15,4.4139978e-14,-1.7752566e-13,-0.93825394,0.81036806,-2.7335014e-14,-1.9835869e-13,-6.027314e-14,2.1182364e-13,-2.7590026e-14,0.46508813,-0.91507524,4.01569e-14,1.0620357e-14,-5.178638e-14,-1.0178868e-13,6.983936e-14,-9.453938e-14,8.742475e-14,-2.8543215e-14,-3.651332e-15,9.2202965e-14,1.275633e-13,0.014785847,3.8277737e-14,-1.6220631e-13,-1.5291785e-13,-1.7627738e-14,-5.2871963e-14,-2.9307925e-13,1.1911225e-13,6.117848e-15,-2.0443486e-13,-1.3759982e-13,2.3439757e-13,7.503397e-15,-1.5493452e-13,1.1851089e-14,8.829871e-15,6.059278e-14,-3.8278893e-13,-4.3927694e-14
2.7060212e-13,-2.460488e-13,9.275682e-15,2.7790655e-14,-1.8138445e-14,-1.2147674e-14,-1.5991531e-14,1.740512e-13,3.3552378e-14,-4.1608223e-14,-1.5387141e-13,-0.72541606,-1.2078838,2.3985825e-14,-7.040689e-14,2.4454119e-14,2.197639e-14,1.9518389e-13,-0.8328723,0.60288495,-5.75969e-15,-8.0193515e-14,1.2820356e-13,1.0236688e-13,1.4558488e-13,3.1673373e-13,-1.3593568e-13,8.180601e-14,4.5360315e-14,1.6590053e-14,-2.8353926e-14,-0.5753094,-9.891998e-14,-6.380751e-14,-4.9287966e-14,6.8064925e-15,-2.9076168e-14,-5.2224592e-14,-2.546451e-13,9.914276e-14,-1.1447008e-13,3.220588e-14,6.342507e-14,-8.442741e-14,-4.00276e-13,-1.3795109e-13,5.786036e-14,-1.6502797e-13,1.3520761e-13,-2.2120471e-13,-9.054569e-15,2.0150295e-14,-1.1148113e-13,-1.6425812e-14,-1.6330114e-13,-1.4098721e-13,-1.7045489e-13,-8.127761e-14,-4.836878e-14,2.5765246e-13,-3.2822367e-14,-0.91837114,0.6205829,-1.0300873e-14,-9.861074e-14,-3.969665e-13,1.3593437e-13,3.865607e-14,-0.50732994,-0.93958384,2.9566093e-13,2.159291e-13,9.415293e-15,-1.3498022e-13,-1.646925e-13,1.05279494e-13,6.5053445e-14,6.8939585e-14,1.0183311e-14,2.1333979e-13,1.5125707e-13,1.6647463,3.6104773e-14,4.2440992e-14,-9.279576e-14,-5.5014597e-14,2.5059772e-13,-1.7466161e-13,-3.8289206e-14,-3.2521576e-14,4.4317397e-14,3.8872627e-13,-3.7305825e-14,-1.00734145e-13,1.01042845e-13,-2.857801e-15,8.6925604e-14,3.4271854e-14,-1.947591e-13,-3.065492e-13
9.741773e-14,-7.692307e-14,6.518552e-14,3.799421e-14,4.865293e-14,-2.1568493e-13,8.8947255e-14,-7.506666e-14,-1.22729585e-14,-3.7836558e-13,5.5369737e-14,-0.44238636,-0.59972084,1.934417e-14,-2.2124379e-13,-6.62253e-14,6.62831e-14,4.0007853e-14,-0.9083179,0.19133773,2.804975e-14,-2.4930532e-13,-9.317635e-14,7.482036e-14,2.099471e-13,1.6855424e-13,-3.0580698e-14,8.565854e-14,2.594062e-13,-2.8699326e-14,1.7017724e-13,-0.114764795,-5.43911e-14,2.1166894e-13,3.6862945e-14,-2.642593e-13,-8.8632904e-14,1.4894603e-13,-9.078072e-14,4.2554962e-13,1.609713e-14,2.2139628e-13,8.3699113e-14,2.1096894e-14,-8.170636e-14,1.0828848e-15,1.8715176e-14,9.115238e-14,-4.831734e-14,-8.183087e-14,-3.188222e-13,1.4421087e-13,-1.04551127e-13,-2.4065365e-14,3.0283333e-13,3.146775e-14,-1.04271856e-13,-1.0145819e-13,-2.380702e-13,1.1628304e-13,1.7227256e-13,-0.23770133,1.2633818,2.0142999e-14,-6.025233e-14,1.177685e-13,7.2151283e-16,-4.643377e-14,-1.202412,-0.39969558,-2.4853622e-13,-2.6045989e-14,-4.285145e-14,7.3330434e-14,2.3035e-13,1.3979574e-14,9.8067076e-14,-1.188001e-13,-3.4271934e-13,1.0962436e-13,1.7162556e-13,1.3679236,-1.7451222e-14,3.0918295e-14,2.4242827e-14,9.7989555e-14,-3.1902246e-14,1.9894135e-13,5.1837922e-14,-6.2594895e-14,-4.4290497e-15,-1.6483315e-14,-2.2051603e-13,1.973152e-13,3.8225892e-14,-2.7053829e-14,-1.6493206e-13,-1.7494033e-13,-2.2497985e-13,-2.2658427e-13
5.592426e-14,-1.222958e-13,-3.0732788e-14,2.6673184e-13,2.1247652e-14,-6.953708e-14,-1.9989093e-14,-2.4746616e-13,-8.3637036e-14,5.3076125e-14,-9.547724e-14,0.020727599,-1.3814507,3.3182474e-13,6.129461e-14,-1.6813807e-14,1.7132542e-13,-9.6894836e-14,-1.0814664,0.30588815,1.2477232e-13,1.9365857e-13,5.804734e-14,2.1375734e-13,-1.03163436e-13,-1.0629185e-13,-9.122676e-14,-2.4331863e-14,-3.2683844e-14,7.994252e-14,5.8242705e-15,-0.55440015,-3.573069e-14,-3.7929447e-13,-1.5369168e-13,4.972688e-13,-2.4579023e-13,-6.3270746e-14,-1.1486603e-13,1.831215e-13,7.2294574e-14,1.90326e-13,-1.9325179e-14,-1.7300046e-13,1.851435e-13,3.783066e-14,-3.6255496e-13,-1.4904762e-13,1.07098595e-13,1.04633573e-13,-1.5889498e-13,-3.3861686e-13,1.1461397e-13,1.08327653e-13,7.240328e-15,-3.657911e-13,7.159451e-15,-3.3905773e-14,1.6574673e-14,-2.2975323e-13,-9.946674e-15,-1.1421393,1.1501044,-1.885481e-13,-1.9936589e-13,-5.1277718e-14,-1.1146131e-13,-2.1375313e-13,-1.4618077,-1.2185804,2.3619033e-13,1.7992812e-13,7.53091e-14,-2.4528573e-13,1.214525e-14,5.6876297e-15,-5.921513e-14,1.4885386e-13,8.984618e-14,7.289441e-14,-9.9729923e-14,2.0939872,3.3071995e-15,2.1366047e-13,3.756072e-14,-2.398438e-13,2.5595905e-13,5.3151463e-14,-1.5501714e-13,8.745402e-15,6.762788e-14,4.2880223e-14,4.262644e-14,2.4724656e-13,6.4609817e-14,3.709779e-14,-1.06091175e-13,1.0652e-13,1.1372576e-13,-7.783164e-14
6.517967e-14,-6.7515987e-14,-5.7943444e-14,9.655945e-15,5.901809e-14,-4.2292467e-14,6.3627916e-14,-6.127136e-14,-2.1827758e-14,-8.6049366e-14,-2.8611266e-13,0.14518826,-1.0030634,-4.4806178e-13,-1.4842297e-13,1.208519e-13,-1.6923712e-14,8.699972e-14,-1.2101009,-0.08279749,-9.6627296e-14,3.8622724e-14,2.990479e-14,-1.662077e-13,-6.03424e-14,-7.357652e-14,1.12818493e-13,8.682408e-14,2.727639e-13,5.672593e-15,1.0089441e-13,-0.56265336,-7.8097115e-15,-1.3710223e-13,-1.179732e-13,-1.523917e-13,-7.062602e-14,1.1851525e-13,4.359737e-14,1.252211e-13,2.5260688e-13,-8.613817e-15,-4.3567272e-14,-1.8883244e-15,-2.017178e-13,3.959811e-14,-7.901445e-14,-2.792251e-13,-7.473365e-15,-1.9898379e-13,7.929943e-15,-8.9245926e-14,-2.4749614e-13,1.6044022e-13,-8.277003e-14,-2.480118e-13,-1.0290153e-13,4.7366564e-14,-4.7524532e-14,3.3158044e-13,2.1990404e-13,-0.83064675,0.7067028,1.03762525e-13,-9.379202e-14,-3.547366e-14,1.8359287e-13,-1.1828243e-13,-0.5260015,-0.9557082,8.2877403e-14,8.650881e-14,3.6960176e-13,-7.925855e-14,-2.4645782e-14,-7.650227e-14,-4.328802e-14,-2.9573403e-14,-1.2300195e-13,4.0284934e-14,2.2142024e-13,1.037874,-4.0093254e-15,-7.3978773e-14,4.521245e-14,5.002731e-14,7.287942e-14,9.244722e-14,2.960286e-14,1.4398309e-13,-1.2383543e-13,2.2248635e-14,-1.9266888e-13,-2.246864e-14,-6.279282e-14,-9.7403815e-14,2.2862108e-13,2.0104645e-14,7.787625e-14,-2.8346127e-13
5.8359215e-16,3.506787e-14,1.36618825e-14,6.759762e-14,6.522151e-14,-1.3935934e-13,1.6711568e-13,-1.4886155e-13,2.5799262e-14,8.872917e-14,-3.8307194e-14,0.22365373,-1.1867176,4.5144254e-14,1.2104781e-13,3.75851e-14,2.5359467e-13,3.2341198e-13,-0.8643768,-0.21987748,1.911187e-13,-1.6085039e-13,-8.31289e-14,-1.7090187e-14,-1.582775e-13,-5.4795517e-14,3.298383e-14,1.3797736e-14,7.0597025e-14,-1.058933e-13,3.6449782e-13,-0.59323096,-3.8211575e-13,-6.629711e-14,-2.5734867e-13,4.2856133e-14,2.2865282e-13,-3.1040396e-14,2.3577546e-13,-1.8975022e-13,7.398773e-14,-6.188343e-14,-4.9860926e-14,-2.2682863e-14,-1.148189e-13,2.115496e-14,1.2370713e-13,-5.0717433e-14,3.409174e-14,-1.5997852e-13,4.4870513e-14,4.2943656e-14,-5.4950548e-14,-9.778087e-15,2.5732319e-15,3.4196313e-14,-7.877994e-14,-2.4918284e-13,6.9949743e-15,2.1735741e-13,1.7110746e-13,-1.004595,0.928447,1.7459295e-13,-7.1191086e-14,3.0174767e-13,8.7037826e-14,8.118108e-14,-1.2477323,-0.98197234,-3.5236327e-14,2.6162554e-14,2.415958e-13,5.084406e-14,-1.0414661e-13,-8.246562e-15,-5.401019e-14,-4.982319e-14,1.5409806e-13,-9.037541e-14,-3.073406e-14,2.076978,-4.4017724e-14,4.5502752e-14,-8.346357e-14,-1.8466917e-13,8.5635966e-14,6.2335763e-14,-1.9767682e-14,6.2378617e-14,-1.5484846e-15,1.4676875e-13,-9.261397e-14,1.2958395e-13,-5.2819382e-15,-1.7267343e-14,1.04709833e-13,-1.2732035e-13,-7.10989e-14,2.261395e-14
-5.81966e-14,-7.804863e-15,-9.444546e-14,-5.213102e-14,-1.5524732e-14,-2.3886386e-13,-2.2630861e-13,9.80956e-14,1.0270846e-14,1.3965389e-13,1.0371776e-14,-0.0033463624,-0.4262617,-7.395781e-14,-7.322563e-14,1.11252966e-13,-9.607325e-14,-2.6012829e-14,-0.87112933,-0.154432,1.398881e-14,-3.4002537e-13,-1.11734664e-13,-6.7800786e-15,2.0475417e-13,-3.667358e-15,-1.9298731e-14,-2.9227844e-13,1.3412944e-13,2.1369574e-14,-6.208654e-14,0.048207413,7.5322534e-14,2.8902648e-13,5.8488906e-14,3.8927452e-14,5.6820237e-14,-5.5349524e-14,-2.2897675e-13,-1.03509276e-13,3.2772832e-13,1.0500483e-13,3.9681112e-14,3.936951e-14,2.4054754e-13,-2.4399512e-13,2.6380668e-14,-7.7213294e-14,1.1367873e-13,3.15105e-14,-1.0984292e-13,-4.224682e-15,-1.3677195e-13,3.9042713e-14,-1.3884942e-13,2.3696515e-13,8.0613217e-14,-1.2499118e-13,1.4795489e-13,-4.0831658e-13,-1.03254224e-13,-0.3523312,0.92308336,-2.6869606e-14,4.8953907e-14,2.550667e-14,4.6283025e-14,2.9174178e-13,-0.57005984,-0.40957943,8.1664154e-14,-3.871259e-14,5.711673e-14,2.5719058e-14,-3.7434957e-14,1.8826466e-13,3.4612507e-14,-6.2535155e-14,5.422484e-14,-5.7138606e-14,-1.0944337e-13,1.4791194,2.8254363e-14,3.0554931e-13,-2.1485296e-15,-1.38621245e-14,-2.6941757e-13,6.8324795e-15,-1.4261243e-13,2.5621587e-13,-8.950431e-14,1.9386055e-13,-4.59959e-14,1.5141303e-14,2.4036044e-14,8.108957e-14,-3.826724e-14,2.3133578e-14,-1.1828174e-13,-1.9842103e-13
-8.096726e-14,-3.3663531e-13,-8.2896506e-14,-9.1968e-14,-1.060434e-13,9.341987e-14,1.2211484e-13,2.6444732e-13,3.8605103e-13,1.3440936e-13,2.2846473e-14,-0.2329128,-1.2154155,-2.6221625e-13,-7.238704e-14,-2.671839e-13,8.8141164e-14,4.217448e-14,-1.0295835,-0.05904412,-4.3695963e-14,-4.316768e-14,1.9696259e-13,-1.9099147e-13,4.2574085e-14,2.0069493e-13,5.4041657e-14,1.03138804e-13,-7.5924794e-14,-1.08842724e-13,1.5640356e-13,-0.3958763,1.1198499e-13,1.3710584e-13,1.1805357e-13,-2.3513448e-14,-1.326569e-13,5.939073e-14,3.68727e-15,-2.358968e-13,-5.213981e-14,-1.13154684e-13,1.569564e-13,3.3033081e-13,-3.8086125e-14,9.510224e-14,2.7090958e-14,9.807791e-15,-3.8213085e-14,-1.0178738e-13,2.2789882e-14,-4.8142513e-14,-4.1627942e-16,2.0500854e-14,1.2338676e-13,2.9453658e-13,1.3704616e-13,7.670156e-14,-1.11520365e-13,7.334008e-14,1.3787672e-13,-1.001277,0.4966885,4.339288e-14,-2.0784664e-14,7.603554e-14,-2.305043e-14,-7.919577e-14,-1.430033,-1.0838484,1.0588427e-13,-2.6079358e-14,1.483442e-14,1.3811792e-13,-1.06745565e-14,1.3284558e-13,2.0093553e-14,-1.08002e-13,2.004351e-15,1.1879834e-14,2.1800159e-13,2.3624873,1.9332855e-13,9.656718e-15,1.957136e-14,1.8939287e-13,1.8566708e-14,-5.625122e-15,-1.3230401e-13,3.6071488e-14,-2.1433141e-13,7.9180484e-14,-4.142033e-14,-7.759247e-14,2.7053023e-13,-9.177987e-14,4.4511087e-14,1.3168199e-13,7.1664015e-14,-1.947388e-13
-1.2343799e-13,2.0441629e-13,-7.2340774e-14,-4.4117552e-14,2.9263384e-13,-2.66203e-13,2.6569014e-13,1.5807787e-13,-9.109441e-14,1.3985284e-13,7.511942e-15,0.15339226,-1.0157217,-1.3406768e-13,9.4871905e-14,-3.2882773e-13,-3.9570395e-13,-1.4804998e-13,-0.8636937,0.07860983,1.6219305e-14,1.9783922e-14,6.171518e-14,-1.3564082e-13,9.014272e-14,3.2488137e-13,-3.1445674e-13,1.8281107e-13,1.5896534e-13,-1.3627441e-13,5.84223e-14,-0.38097805,5.188747e-14,-3.9758134e-14,1.2712357e-13,-2.2611734e-13,1.4641501e-13,-1.2686351e-14,8.982658e-14,2.402379e-13,6.116788e-14,4.015431e-15,2.2224383e-14,3.795833e-14,8.92023e-14,-1.1712223e-13,4.0191998e-14,-2.2103308e-13,1.2407062e-13,-3.265334e-14,-3.2732345e-13,2.3448867e-13,-2.3657115e-14,-2.1553966e-14,-6.8501154e-14,-4.1303975e-13,-9.833105e-14,-1.9763418e-14,1.6693725e-13,1.0731177e-13,8.996124e-14,-0.94508,0.82796586,-1.7857521e-14,-3.4341158e-13,-1.5613484e-13,1.4028806e-13,1.6658329e-13,-0.8986056,-0.97959304,2.067329e-14,-1.0513156e-14,-4.998555e-14,1.525297e-13,2.1514637e-16,-2.4286524e-13,3.2476433e-13,-3.2268364e-15,1.7072751e-13,-1.1509556e-13,2.4708794e-13,1.7096314,-2.4569773e-14,-7.1188755e-14,-3.483015e-14,-1.4654018e-13,-1.6398697e-13,8.8549055e-14,-3.545913e-14,-3.051085e-13,-6.801546e-15,-1.3889214e-13,3.0443692e-14,-1.1040652e-13,4.015611e-14,1.8948875e-13,1.6097522e-13,1.384936e-13,1.1575174e-13,6.36941e-14
9.573762e-14,-1.2065815e-14,-1.3749388e-13,-5.126446e-14,-2.3880065e-13,1.259881e-13,5.3598788e-14,-4.547913e-14,4.948283e-14,-2.3369539e-14,-2.1594774e-13,-0.09417987,-1.1796314,-6.795301e-14,-1.8237437e-13,1.4971133e-13,1.8861816e-13,1.5609811e-14,-0.92849314,-0.026089963,-3.337466e-13,7.915335e-14,5.2075863e-14,-1.5260831e-13,-3.0814576e-13,9.027789e-14,-2.0182277e-13,9.34994e-14,-3.7144153e-14,-5.106373e-14,-3.7360536e-13,-0.58086395,-9.9808094e-14,-2.1942173e-13,2.8710402e-14,2.2927008e-13,-1.6702389e-13,-4.256322e-13,-1.0738746e-14,-2.2453029e-13,2.7902377e-14,2.6319856e-13,-4.861543e-14,-1.5288187e-14,3.4353136e-14,-2.1414577e-13,-3.4523708e-16,-2.984057e-14,3.6974614e-15,1.1754803e-13,-6.611851e-14,4.1901036e-14,3.683386e-13,-2.4488137e-13,-2.6133826e-13,1.12886575e-13,-9.641879e-14,-1.7406432e-13,3.0928026e-14,1.06691294e-13,1.4704472e-14,-0.9301852,1.0967283,6.0224666e-14,6.899626e-14,-8.4437096e-14,-2.6755735e-14,-1.949098e-14,-1.8184168,-0.97677034,-1.9894386e-13,-1.2813515e-13,7.1521436e-14,2.1503372e-13,-1.2252943e-13,3.1450713e-14,4.2200218e-14,-5.5798634e-14,1.3613478e-13,-7.503701e-14,1.2834751e-13,1.4290044,-1.9440943e-13,-1.9141215e-13,-1.9332713e-13,1.909591e-14,1.4253892e-13,-9.71178e-14,-6.470669e-14,-8.456198e-14,-1.6275186e-13,2.1114898e-14,2.9012911e-15,1.6539362e-14,4.1952895e-14,1.8519725e-14,2.36303e-13,1.1691144e-13,5.9605736e-14,-1.657327e-14
-4.4969125e-14,6.1074125e-14,2.078049e-13,-7.002504e-14,-7.3160275e-14,-1.05869056e-14,-9.65064e-14,4.5323835e-14,-4.1577002e-14,6.150786e-14,-1.6600293e-13,-0.5179734,-1.002955,-3.3019147e-14,7.87321e-14,6.329003e-15,-1.3987092e-13,-5.18456e-14,-1.0324832,0.3183592,-1.829094e-15,-1.3454415e-13,1.8244602e-14,-3.9765703e-14,9.805368e-14,1.6073582e-13,-3.1930022e-13,-4.0610324e-13,1.603921e-13,-3.65736e-13,-1.07228774e-13,-0.273158,-1.3260504e-14,-8.462736e-14,-3.9665997e-14,9.647669e-14,-4.4376144e-14,-6.5003294e-14,3.54811e-14,7.765896e-15,8.8963566e-14,-3.6238455e-13,-6.263592e-14,1.2929203e-13,1.0805693e-13,-6.049755e-14,-7.45271e-14,-8.220582e-15,-3.5130915e-14,7.169589e-14,-3.5531223e-14,-9.7859885e-15,-7.8304835e-14,1.170412e-13,2.388388e-13,-8.702007e-14,-9.635601e-14,4.997152e-14,1.13529656e-13,1.281817e-14,-3.0188571e-13,-0.60811126,1.1762029,1.2618975e-13,-8.662802e-14,-8.92458e-14,2.3396968e-14,8.33083e-14,-1.4253333,-0.68008876,-1.2200394e-13,6.619835e-14,-5.1849174e-15,-1.9667387e-14,-1.6731076e-14,-1.1075779e-13,-8.726513e-14,1.4526683e-13,2.5005537e-14,-3.147284e-14,-3.7426098e-13,1.9679333,4.42523e-14,-9.725327e-15,6.091579e-14,5.2145815e-14,7.002828e-14,-5.900397e-14,-2.370549e-13,1.2935196e-14,-1.5735929e-13,5.9267586e-14,3.3601814e-15,-2.9103876e-13,9.90766e-14,-4.8570214e-14,-7.9181555e-14,1.1135314e-13,-8.8503044e-14,2.090177e-14
-2.1271681e-13,4.2683257e-14,9.22665e-14,1.1244625e-13,1.9298227e-13,1.3894711e-13,3.7782298e-14,-1.1776623e-13,-1.3200275e-13,1.02405836e-13,1.812112e-13,0.5483179,-0.6112115,6.8889386e-14,-9.4028646e-14,-2.725612e-13,4.1508443e-15,1.491753e-13,-0.9770659,-0.53180957,1.6982523e-13,5.0661176e-15,2.092153e-13,-1.083547e-13,7.171533e-14,-4.9799378e-14,3.9052352e-15,9.135494e-15,5.771265e-14,1.0844096e-13,2.6274778e-13,-0.1277543,-5.766381e-14,2.8410986e-14,-6.2099645e-14,-7.211304e-14,1.8027578e-14,-1.096137e-13,-2.3109767e-13,1.6872898e-13,-9.933497e-14,-2.240941e-13,1.6601778e-13,-2.1816185e-13,-1.3312994e-13,3.6778675e-13,5.238476e-14,-2.563544e-13,-2.0249698e-14,1.2640992e-13,2.223725e-13,-1.1906697e-13,-7.2095555e-14,-2.6439202e-13,2.3052e-13,1.5791613e-13,1.4619093e-13,-9.386788e-14,-9.320435e-14,2.1570785e-14,1.7916094e-13,-0.38217524,1.5093273,2.1915233e-14,-3.8029008e-14,-6.358114e-14,1.314732e-13,1.896554e-14,-1.2393688,-0.5333214,-1.8795302e-14,-1.4104535e-13,-5.6821023e-14,6.2765894e-14,1.6448682e-14,8.5307236e-14,8.3993535e-14,9.013535e-14,-1.933318e-13,2.4748807e-13,7.4582254e-14,1.4037839,1.9817345e-14,-2.2389396e-13,-1.9675945e-13,-1.4859079e-13,5.240623e-14,1.0423082e-13,-1.08643116e-13,6.316802e-14,-1.3123999e-13,3.3094546e-14,3.0379724e-14,3.1442778e-14,2.618636e-14,5.563927e-14,-5.543321e-14,1.0301749e-13,2.308031e-14,-4.3639585e-14
1.06288323e-13,-1.11393194e-13,1.9632882e-13,-1.2852009e-13,-8.2452505e-14,-1.7186163e-13,4.8586596e-14,-1.4450495e-13,1.0564939e-13,8.0059196e-14,-2.2122747e-13,1.0717487,-1.5750691,-6.381648e-16,-1.1632885e-13,-5.854856e-14,-4.275361e-14,2.2367739e-13,-1.1957221,-0.90660167,2.154121e-13,-1.3227126e-13,8.349292e-15,3.043033e-13,-3.1808017e-13,1.03277704e-13,-6.939668e-14,1.22921e-13,-9.8985334e-14,-1.692074e-14,2.38551e-14,-1.0038745,-3.9923905e-14,-4.684774e-14,-2.45484e-13,-2.284726e-13,1.3252823e-13,-2.0052838e-14,-7.8441485e-15,1.9480049e-13,-2.3158633e-14,-2.9775715e-14,-9.640751e-14,8.484629e-14,-2.4971175e-14,5.3092276e-14,-7.816855e-14,3.530384e-14,-1.917051e-13,-3.6734796e-14,2.5899606e-13,1.23524644e-14,1.8593647e-14,-4.4929074e-14,-1.0588522e-13,-5.2185808e-14,1.5990955e-13,-3.8488594e-13,3.9529063e-14,-2.7422717e-13,-1.743175e-13,-1.340163,1.0626405,-1.5017494e-13,-1.4035314e-13,5.0355858e-14,-3.4359324e-13,-1.06399305e-13,-1.1374583,-1.2838379,-4.6612887e-14,8.189296e-14,2.915045e-14,1.7239281e-13,5.6390155e-14,5.5100828e-14,-1.8424628e-13,-3.8703053e-14,-9.035207e-14,-2.9135564e-13,5.0469198e-14,1.4935249,-2.3913727e-13,-2.519984e-14,3.2233347e-13,-1.1445977e-13,-5.549505e-14,-3.0955414e-13,-1.3785517e-13,1.9626932e-13,4.2736224e-14,1.1853249e-13,-8.451502e-14,-2.9705242e-15,-5.4104013e-14,2.0109149e-13,-6.9004535e-14,-1.2624179e-17,-1.4056483e-13,-9.822253e-14
-6.6282524e-14,1.5860678e-13,2.889664e-13,-9.200551e-14,1.5611617e-13,-8.5902477e-14,1.2944513e-13,2.6038677e-14,-8.156319e-14,3.9008706e-14,-7.674242e-14,1.1413525,-1.2817824,-3.9239895e-13,2.8256518e-14,8.50173e-14,-5.4726185e-14,-2.5646274e-13,-1.0821918,-0.7308647,-8.6722635e-14,-3.721797e-14,6.3021996e-14,1.8228184e-13,5.4519987e-14,-1.1522319e-13,1.4171205e-13,-4.356619e-14,1.0885221e-13,1.8502055e-13,2.4176435e-14,-1.0572503,-1.6855144e-13,-2.0299799e-13,1.5376104e-13,-2.0545555e-13,6.344499e-14,1.3800452e-13,-1.1351697e-13,-1.1412183e-14,-3.1736896e-13,4.339076e-14,-3.5858218e-14,1.2411713e-13,4.049641e-13,-1.2600081e-13,-1.6498933e-13,-1.7628616e-13,6.0649294e-14,-1.04160604e-13,-2.636063e-13,-4.102298e-13,-1.3742852e-14,-1.4066866e-13,4.9726967e-14,-2.8538024e-14,2.561837e-14,2.7129975e-13,-2.2073314e-13,-2.0373827e-13,-1.5835615e-14,-1.1059071,0.77176404,2.3210638e-13,-3.5668225e-14,-9.760074e-14,3.08172e-14,2.0121242e-13,-0.9110733,-1.0735372,4.811791e-14,-2.5791804e-13,2.117765e-13,7.712956e-14,-1.4968658e-14,1.6666795e-13,-1.2328243e-13,5.4149366e-14,8.219096e-14,1.4545431e-13,2.1046683e-13,0.7819203,-3.345447e-13,2.1335378e-14,-2.5401567e-13,-2.4215086e-14,-1.1091858e-13,-2.6588817e-13,5.0320892e-14,-2.1228569e-13,-1.2747325e-13,3.273188e-14,5.9357426e-14,1.3544057e-13,-1.209954e-13,-2.0622477e-13,1.7932596e-13,-1.2079442e-13,-9.3695884e-14,-2.956595e-13
-7.876278e-15,9.5249865e-14,1.9274748e-13,1.1026031e-13,2.6542844e-13,-3.7116564e-13,1.4782302e-13,2.1892985e-13,-2.1065047e-13,1.3818117e-13,2.8468107e-14,1.0061821,-1.2887826,1.0313319e-13,3.533928e-14,2.880148e-13,-9.63439e-14,1.1358539e-14,-1.2243701,-0.48339954,3.4787914e-14,-3.531035e-14,1.9131303e-14,-1.5707021e-13,7.770576e-14,-7.369049e-14,-7.649397e-14,-6.455882e-15,-1.082041e-13,6.358179e-14,2.3090349e-14,-0.9964429,-6.788e-14,1.0802876e-13,1.1315933e-13,8.9807935e-14,-1.3389947e-13,-1.0303817e-14,-3.1807747e-14,2.2884282e-13,4.8463468e-14,-2.7623764e-13,-5.33611e-14,-1.9694423e-13,-3.351316e-13,-2.177415e-14,-2.7608674e-13,3.5442046e-13,-9.683256e-14,2.7243283e-14,-4.330115e-13,1.5043107e-13,-3.4810284e-13,-3.0546983e-14,-1.6096316e-14,2.23601e-13,1.05740625e-13,1.0893172e-13,4.066952e-14,2.8233702e-14,1.271473e-14,-1.1176857,0.9054011,1.5433321e-13,7.397408e-14,-5.0408537e-14,-2.1736207e-14,2.960383e-14,-0.5350852,-1.0635874,-7.857319e-14,-4.1220428e-14,1.7293354e-13,-1.8865294e-13,8.513577e-14,2.1568832e-13,5.5858835e-14,5.6713572e-14,6.865992e-14,-9.210135e-14,-1.8033345e-14,0.8387081,-4.0602694e-14,7.722287e-14,1.1899328e-13,-2.4057027e-14,6.7006e-14,1.3495918e-14,-3.6335786e-13,-9.022823e-14,-6.403604e-14,1.9726229e-13,1.9798547e-13,3.427134e-14,-6.748411e-14,7.452716e-14,-1.1915528e-13,-1.3250574e-13,-1.0873271e-13,9.9217414e-14
-5.703705e-14,1.6561158e-14,1.0897881e-13,-1.5606414e-13,4.7428668e-14,-4.3863893e-14,4.360393e-14,1.4617932e-14,-7.314841e-15,-5.288065e-14,3.3002144e-13,1.2199042,-1.2476442,-9.0523455e-14,2.2489036e-14,9.876038e-15,1.803775e-13,-1.0249298e-13,-0.80922997,-0.58628666,-6.561875e-14,-7.685848e-14,9.131108e-14,2.638373e-13,2.5444433e-13,-9.560095e-14,-7.9410294e-14,7.693023e-14,-1.7806394e-15,1.3980307e-13,7.717821e-14,-0.7339048,-8.4077385e-14,-6.913304e-14,2.3614753e-13,-2.7596274e-14,-1.6034429e-14,1.2026605e-13,5.434577e-14,-1.9611576e-13,3.9934236e-14,-2.8385877e-14,-1.9799329e-13,-7.0162693e-14,8.915935e-14,-1.2576832e-13,1.5355086e-13,1.602176e-13,2.1052245e-14,-3.763372e-14,-6.2708695e-14,-3.6804636e-13,2.5597967e-13,7.716024e-14,-2.861156e-13,-1.9408676e-15,-3.8605573e-14,-2.5389283e-13,9.654289e-14,-1.3578399e-14,3.0511086e-14,-0.96932554,1.0940752,2.7210628e-13,-9.0633264e-14,-1.7326196e-13,5.724913e-14,-1.1504895e-13,-1.0518239,-0.84557897,-1.699985e-13,3.713656e-14,1.3780325e-13,-1.4680402e-13,3.1089382e-14,-1.409366e-13,4.8328285e-14,3.6000808e-13,9.355934e-14,1.6686968e-13,3.5431425e-14,1.0917876,1.9851979e-14,1.8731981e-14,-1.7669565e-14,7.689392e-14,-7.935781e-14,1.6832515e-13,3.0988303e-13,-4.1033522e-14,-4.285362e-14,-4.5195645e-15,-4.5725806e-14,7.990563e-15,2.5543478e-13,1.01406154e-13,-9.795589e-14,1.252476e-13,-2.2380464e-13,1.1872874e-14
2.5867348e-13,5.3601356e-14,-1.4970669e-13,1.5366211e-14,3.3001813e-13,9.661807e-15,-3.1281797e-14,4.3547807e-14,4.056447e-14,3.084224e-13,3.5676152e-13,1.1262764,-1.2592648,-9.37188e-14,-1.8091469e-13,-3.1055135e-14,-2.1791626e-13,8.5460854e-14,-1.2043878,-0.54634935,3.3044544e-14,7.082029e-14,1.34408365e-14,-1.5495905e-14,1.8144382e-13,2.48493e-13,8.7800555e-15,1.0512437e-13,-5.1039393e-14,6.302303e-14,1.1607964e-13,-0.6807984,-2.2751592e-13,5.3870062e-14,-9.22868e-14,1.6237126e-13,-5.050533e-14,1.9429447e-14,2.39278e-14,8.3063154e-14,3.5199647e-14,2.3458835e-14,7.034821e-14,1.0498254e-13,-9.23504e-14,3.401918e-14,3.0270998e-13,3.220113e-13,-1.3021752e-13,-1.1793527e-13,1.6012037e-13,5.36041e-14,-2.1319798e-13,-7.917621e-14,1.6124099e-13,2.9329902e-13,-1.4688324e-13,3.582753e-14,-1.1874036e-14,-3.1574644e-14,-2.9146385e-13,-1.0652307,1.061028,9.542923e-14,-1.9848557e-13,-1.7863131e-13,-2.2129271e-14,-7.562792e-14,-1.0268837,-1.0133061,-1.279073e-13,2.6074742e-13,1.3664097e-13,-8.342411e-14,4.178317e-14,-8.4455094e-14,-1.8456709e-14,8.0922316e-14,-7.562517e-14,-7.710046e-15,-1.577831e-13,1.01704,-5.796876e-14,-4.361008e-14,-9.468519e-14,3.3238494e-14,3.7766685e-14,-1.7295986e-13,-5.2225985e-14,5.1919864e-14,-3.2898665e-14,3.2989686e-13,-1.6243036e-14,-7.550984e-14,1.5505528e-13,-1.2004556e-13,-4.3291176e-15,9.55792e-14,1.465583e-13,-3.445189e-14
1.5099681e-13,-3.083867e-13,7.945096e-14,8.0453466e-14,7.443785e-14,1.5678658e-13,8.0909265e-15,1.0320692e-13,-2.1103888e-13,-2.487452e-14,1.9189796e-13,0.47840604,-1.5843307,8.78281e-14,1.5934851e-14,8.3458346e-14,7.425886e-14,-8.9686844e-14,-1.436569,-0.32816765,1.2319841e-13,-2.632949e-13,-2.2568346e-14,-5.5591145e-14,-2.1085122e-13,8.863086e-14,1.1066116e-13,-5.718831e-14,8.591062e-14,-4.3520024e-14,-1.482734e-13,-1.0912553,2.5297364e-14,-2.4623427e-13,1.8726622e-13,1.4952972e-13,2.5199201e-14,8.8546656e-14,-1.4344652e-13,3.4210276e-13,-8.744689e-14,2.4054245e-14,-2.458778e-13,-9.264291e-15,6.2346375e-14,8.696038e-14,3.1848086e-13,-1.8014236e-14,-1.8398973e-13,-4.9197313e-14,1.8041744e-13,6.254734e-14,-1.8208986e-13,1.1158084e-13,2.8323494e-14,1.836468e-13,-3.84478e-14,7.526818e-14,5.914457e-14,-2.5563522e-13,2.3517533e-15,-1.3048544,1.3150194,-9.39979e-14,4.5800444e-14,1.8577208e-14,-2.214504e-14,-3.2419412e-13,-1.13651,-1.294039,6.779271e-14,7.385552e-14,-1.0122922e-13,-4.3576355e-14,1.1796449e-13,4.9272984e-14,4.4125544e-14,4.3635797e-14,4.1311647e-14,6.4050185e-14,2.894475e-13,1.1636574,9.673913e-14,1.4077186e-14,-1.6842835e-13,8.3149294e-14,3.054306e-13,-7.9516065e-15,-9.603748e-15,6.814075e-14,1.9892714e-14,-1.3016177e-15,-1.7308762e-13,2.6081229e-15,-6.802027e-15,1.8647476e-13,1.5772431e-13,5.1878928e-14,7.500579e-14,-4.005092e-14
5.2371437e-15,-6.2234574e-14,6.928967e-14,1.9502588e-13,-7.375407e-14,-7.347004e-14,-9.8031094e-14,-9.13143e-14,6.407899e-15,8.4163586e-14,-2.8818625e-13,0.47177902,-0.2475521,-1.9265236e-13,-1.7627398e-13,7.545783e-14,3.89443e-15,-7.112337e-14,-0.73984504,-0.24894176,6.5612426e-14,3.9424874e-14,2.8623574e-14,-2.7732435e-15,-6.5456524e-14,-8.477546e-14,1.11436935e-13,-3.8619627e-14,1.7784014e-13,-1.0661822e-13,-1.6873815e-13,0.07709599,-1.4518142e-13,8.799487e-14,-5.8976126e-14,7.1748177e-14,6.149767e-14,1.3721462e-13,-2.2142315e-14,1.26979455e-14,1.5136132e-13,4.919162e-14,-6.849854e-15,-7.513413e-15,-3.998835e-14,-2.9414608e-15,2.2759203e-13,8.339186e-14,-1.6044498e-14,-6.807628e-14,9.2599404e-14,8.015233e-14,-1.9196721e-14,-8.709363e-14,9.724609e-15,-1.1144621e-13,1.4964736e-13,-1.3679048e-13,-6.5074316e-14,-7.950999e-14,2.6740939e-14,-0.29672706,1.2251401,1.8015368e-14,1.0201529e-14,-3.3346524e-13,-3.246972e-13,1.9035721e-13,-0.81708276,-0.35406467,-1.3382805e-13,-4.658931e-14,-2.3292072e-13,3.4304417e-13,3.8047422e-14,-4.5783527e-14,-4.7285296e-14,4.2435365e-14,-4.9360127e-14,-1.2134129e-13,-1.7305722e-13,1.1427507,-1.031862e-13,3.240097e-14,1.0877998e-13,2.0028448e-13,-2.0573406e-13,-1.9626502e-14,3.3625422e-14,3.2095805e-13,-2.0882872e-13,1.2570297e-13,1.9374912e-13,5.1621508e-14,-9.3467036e-14,-3.0052092e-13,-1.05365905e-13,8.323388e-14,1.781685e-14,1.5631786e-14
4.204077e-14,-8.8210757e-14,3.1472438e-14,2.8292695e-13,4.2802093e-14,9.265014e-14,2.0239195e-13,-8.9902546e-14,-5.5031107e-14,1.2055523e-13,1.0364175e-13,-0.3163937,-1.3188686,-2.0105947e-13,2.5528997e-14,-3.456993e-14,1.533663e-13,1.2486668e-14,-0.934981,0.7132201,1.9847344e-14,2.635648e-14,-6.4542e-14,-1.7274231e-13,6.6004805e-15,-9.298009e-15,-3.5878866e-14,-1.3453186e-13,-5.072051e-14,1.5992603e-13,2.6698907e-13,-0.47276384,-7.0513345e-14,7.691886e-15,1.4175721e-13,1.9218337e-14,-1.3570484e-15,2.7225248e-14,8.4822455e-14,2.2586833e-13,-2.4422647e-14,1.7983512e-13,3.6984284e-14,-7.417658e-14,-6.507663e-14,-4.672435e-14,-2.2405092e-14,3.32239e-14,1.1755817e-13,-3.5009295e-15,-1.913418e-13,-5.6931856e-14,1.05453535e-13,-8.208798e-14,3.9482857e-13,-4.282388e-14,-3.020106e-14,9.626135e-14,4.1786148e-14,1.0290468e-15,-6.984931e-14,-1.0352001,0.83455753,-1.1320623e-13,8.978353e-14,-6.865099e-14,9.7149305e-14,5.951421e-14,-1.8064722,-1.0596868,-1.2375317e-13,1.2702244e-13,-1.4774821e-13,-1.3424288e-13,-1.1921571e-13,1.9859465e-14,5.0760936e-14,1.0332966e-13,-9.300338e-14,1.3992288e-14,-1.2375581e-13,2.376525,5.0826564e-14,-1.6695345e-14,-1.7040528e-14,-4.753206e-14,-3.9164722e-13,-6.190157e-14,-6.289347e-14,-7.396488e-14,3.6536942e-14,-9.172467e-14,1.0446501e-13,8.7946143e-14,1.11439056e-13,-4.673557e-14,4.068333e-14,3.082921e-13,3.2297098e-13,-8.8154364e-14
-6.996531e-14,9.559542e-14,-1.3874795e-13,-6.351477e-14,1.0937196e-13,-1.1248483e-14,-3.4505837e-13,-7.499862e-14,-1.0895873e-13,1.0316521e-13,-2.741662e-14,0.7883026,-1.0382318,2.2744843e-13,1.1062119e-13,-2.1007398e-13,1.3236154e-13,3.505883e-14,-0.7944891,-0.13907932,-4.7527005e-14,-1.2988058e-14,1.4982044e-13,-1.2119185e-13,-1.0711797e-13,-9.3564194e-14,-1.3062241e-13,3.2471663e-13,-4.4893248e-14,-2.2644264e-14,-1.7336553e-13,-0.5562145,-1.13361774e-13,1.6641026e-13,-4.4588282e-14,1.4934514e-13,8.128234e-14,1.4775561e-14,5.2229868e-14,9.950663e-14,-3.3255955e-13,-3.9587122e-13,5.1243474e-14,2.1258939e-13,-3.1923354e-13,9.495876e-15,1.5087888e-13,3.24567e-13,-1.4590897e-13,1.4639377e-13,-3.462874e-15,-7.7948065e-14,-1.4115927e-13,4.4852427e-15,2.1209922e-13,2.2417482e-13,3.290968e-14,1.9667734e-13,1.397207e-13,1.3829132e-13,-1.8963424e-13,-0.93415403,1.1076437,3.7923725e-14,1.0187218e-14,-8.466535e-15,5.9653806e-14,1.2207271e-13,-1.498095,-0.93893814,7.6314694e-14,-7.234125e-14,-5.74999e-14,9.716982e-14,-4.6793627e-14,-7.413014e-14,3.2056267e-15,-1.079494e-13,3.8566196e-14,8.149914e-14,-1.2338424e-13,1.1603329,6.795747e-14,3.6190513e-14,4.469156e-15,-1.0788365e-13,-1.2806031e-13,-2.2359692e-13,1.9319079e-13,3.5118155e-14,4.8419927e-14,-1.0818854e-13,1.5052612e-13,3.6129438e-14,-1.3960553e-13,6.7956464e-14,2.2624905e-13,3.913665e-14,-1.5536086e-13,2.2594994e-13
2.4318451e-13,7.336555e-14,-1.2763362e-14,8.7348775e-14,-1.4346654e-13,-3.153328e-14,2.8888887e-13,-1.9770746e-13,-7.067407e-14,-1.2793499e-13,-1.7546365e-13,0.656729,-1.0814596,-1.7626077e-13,-2.3195305e-13,-3.6407712e-15,2.3886887e-13,3.5657024e-13,-1.0344276,-0.51148117,1.7644133e-13,4.5565704e-14,-2.7245152e-13,1.1018597e-13,2.4241122e-14,-6.2179415e-14,-2.2621449e-13,-9.0867275e-14,7.932438e-14,1.8554272e-13,-3.6001963e-14,-0.7471103,1.8902448e-14,3.3330874e-13,2.4455413e-13,9.933267e-15,-8.0709914e-14,6.876642e-14,2.8547135e-13,-3.8490593e-14,-1.155982e-13,1.2763238e-14,-6.182407e-14,1.4172984e-13,1.6753072e-13,1.1096279e-13,5.847868e-14,9.827433e-14,-2.2259336e-13,-2.8046166e-13,3.0764176e-14,-6.5501803e-15,6.4642424e-14,-1.5964094e-13,-1.7177142e-13,5.1031282e-14,-2.5858764e-13,-1.796313e-13,2.5513242e-14,-1.8171398e-15,-1.0495246e-13,-0.9765155,0.76474,1.348937e-13,3.3309312e-13,4.1389456e-13,-2.0900435e-14,1.1594661e-13,-0.73242927,-0.9973213,9.13513e-14,-1.10829904e-13,-2.5372169e-13,2.1603075e-13,4.8962604e-14,-9.4471624e-14,-3.0777518e-13,-2.2314903e-14,-1.4404003e-13,-1.1510895e-14,-5.3930562e-15,0.82346,5.7081984e-14,2.785374e-13,1.081098e-13,-5.86172e-14,-4.5044514e-14,-4.409882e-14,4.729494e-14,-2.2083184e-13,2.3720717e-13,-1.6778125e-13,-4.1639674e-15,1.1589435e-13,3.6670626e-13,2.4037304e-15,1.8459015e-13,-1.2453165e-13,-3.172537e-14,-1.1712853e-14
-4.8495045e-14,1.7652805e-13,-6.7371605e-14,-8.2294164e-14,2.1518465e-13,2.0573194e-13,-5.677052e-14,1.5242396e-13,-1.4517113e-13,-9.184129e-14,4.7591834e-14,1.0516297,-1.1663659,8.882199e-14,-1.9489092e-13,-3.607604e-14,2.814634e-13,1.08978954e-13,-1.2122344,-0.50866896,-1.9101633e-14,1.7238751e-13,1.06551825e-13,-4.1086516e-14,5.5849395e-14,1.045903e-13,5.1778413e-14,5.1323407e-14,1.8013856e-13,-3.37483e-14,-1.939274e-13,-0.8124531,8.51983e-16,-3.564785e-14,-9.8966205e-14,-6.6902044e-14,-2.6393377e-14,-4.6535675e-14,-7.547935e-14,-8.376766e-14,-1.6706204e-13,-1.1492244e-13,3.0644764e-14,1.9456328e-13,2.582944e-14,2.0921825e-13,2.208139e-14,-1.6843492e-14,2.881892e-14,1.26070215e-14,-8.0373195e-15,-5.0345165e-14,1.4854373e-13,1.4888716e-13,1.4144976e-15,-4.816755e-14,9.0382e-14,2.2963172e-14,6.197487e-14,8.606498e-14,-5.917599e-15,-0.85269755,1.3846443,5.556516e-15,-2.0087605e-13,1.8502432e-14,1.9422953e-14,7.175313e-14,-1.7634608,-0.9693757,5.862246e-14,1.0982445e-13,-8.209371e-14,-5.6076237e-14,2.6120783e-13,4.7325113e-14,4.5335785e-14,-6.1952694e-14,1.222571e-13,7.279317e-14,1.303575e-13,0.58841157,-1.02255864e-13,8.1826256e-14,9.068741e-14,5.8335085e-14,1.5547699e-13,1.8123753e-13,-6.140355e-14,-2.4653822e-13,5.3955945e-14,-7.779476e-14,1.6036143e-14,-3.344978e-14,7.938612e-14,6.77497e-14,4.586344e-14,-1.525898e-13,-1.1940184e-13,6.9075706e-15
-1.12586786e-13,2.5225622e-13,-1.8269098e-13,-1.8492189e-13,-1.031903e-15,4.164024e-14,2.9737795e-13,1.157152e-14,-6.2051296e-14,-3.927735e-14,-1.1680144e-15,0.06355253,-1.0783979,3.0900448e-13,-2.9420303e-13,9.007301e-15,4.0500304e-15,5.0538834e-14,-1.0247346,0.19326258,-3.9413114e-14,1.0924903e-13,-1.2838134e-13,9.178575e-14,6.461899e-15,6.880964e-14,7.07015e-15,1.2433293e-13,2.3184832e-14,-3.2568037e-14,2.8744165e-13,-0.3014165,-1.2117632e-13,3.8450613e-14,8.194777e-14,1.3000638e-13,3.6496714e-13,-5.235466e-14,-9.526952e-16,1.5118863e-13,-3.6092067e-14,-5.123533e-17,-7.119362e-14,-1.4938147e-13,-6.1367523e-14,5.0487094e-14,-1.5413628e-13,1.7357566e-13,-2.6409807e-13,-2.669769e-13,7.0148355e-14,-3.6871337e-14,1.81283e-14,-1.493954e-13,1.9222216e-13,5.3347707e-14,-1.4616255e-14,6.623184e-14,-1.8898606e-14,-2.3387915e-14,-1.0864817e-14,-0.8676891,0.52637076,-1.1346798e-13,-4.958757e-14,1.6548426e-13,-4.179979e-14,6.423426e-14,-0.72212255,-0.73812443,2.98702e-13,-7.4603836e-14,-9.12608e-14,-1.3591176e-13,1.0326755e-14,-5.355677e-14,2.3055825e-13,3.6848007e-13,-2.3593904e-13,-6.2831495e-14,1.06130586e-13,1.774739,8.5726334e-14,2.6545354e-13,1.0734127e-13,4.448161e-14,-1.9817794e-13,-8.762119e-14,-1.6804598e-14,5.6518145e-14,6.127183e-14,-7.624757e-14,-8.0810894e-14,-2.3753357e-13,-5.764992e-14,9.562888e-14,-2.7155394e-13,-7.586935e-14,-8.040295e-14,-1.6391524e-13
-1.2220766e-13,-1.8257376e-13,-3.0237775e-13,-2.4975757e-13,-2.3611977e-13,1.04022686e-13,7.3447806e-14,3.7587073e-14,2.1595498e-14,3.3278498e-14,1.656971e-13,-0.08407516,-1.3157113,-2.5879906e-16,2.9521955e-13,-9.7753274e-14,1.2304274e-13,1.9451687e-13,-1.02428,0.15365902,3.1709475e-15,1.628807e-13,-3.08717e-14,4.929946e-14,-9.2397525e-14,-2.0247747e-14,-2.991508e-14,3.4126505e-13,8.6992134e-14,1.3452732e-13,6.084749e-14,-0.6945164,-1.7452229e-13,6.6584406e-14,-5.860463e-14,-2.6370274e-13,-2.2607383e-13,-9.1920666e-14,-1.3543398e-13,-2.3905866e-13,1.3651569e-14,1.0469204e-13,-2.3004507e-13,5.4286043e-14,-1.3075633e-13,-1.1717566e-13,7.211969e-14,-3.033839e-13,9.353689e-14,2.7567036e-14,-2.9725046e-14,-9.567381e-14,-1.2672602e-13,1.4535091e-13,5.117117e-14,-1.7634311e-14,-2.931428e-14,1.8240707e-14,5.7926686e-15,-2.6612623e-14,6.2019854e-14,-0.92787033,1.0487,-6.110029e-14,-4.7573097e-14,6.881645e-14,-8.615893e-14,1.738548e-14,-1.8801584,-0.9001492,-2.0377343e-13,8.844432e-14,4.603441e-14,1.7726109e-13,1.9875025e-13,-2.801919e-13,6.839099e-14,-2.5511806e-13,-2.3035657e-14,2.7090672e-13,3.343416e-13,1.455541,8.697463e-15,9.220636e-14,-6.5168614e-14,9.6400366e-14,-9.6430114e-14,4.42097e-16,-3.515474e-13,1.0700917e-13,-2.5967786e-13,4.724817e-14,4.5878283e-14,2.3060964e-13,-1.504878e-13,4.1790846e-13,-1.0423268e-13,-1.9852693e-13,3.30172e-14,-3.779482e-14
-3.8602072e-13,7.345103e-14,2.6651739e-13,6.188146e-14,3.9873422e-14,-5.6746898e-14,-3.1921826e-15,5.333837e-14,2.3177073e-14,-4.031366e-14,-3.783764e-14,-0.2374938,-0.4492098,7.08455e-14,4.049441e-14,3.891005e-15,9.124934e-14,5.4648404e-14,-0.8797423,0.015669376,8.740223e-14,-1.1766109e-13,-6.0702325e-14,8.6019936e-14,-1.027638e-14,5.881851e-14,4.075547e-14,5.1735905e-14,-1.7197425e-14,2.0696304e-13,-2.1436124e-14,-0.06119202,2.761567e-13,2.6664651e-14,2.29286e-13,2.7099997e-13,-1.1625003e-13,-2.3599208e-13,1.1766605e-13,6.572826e-14,-7.975409e-14,3.794808e-14,1.4251913e-13,2.2490679e-13,-8.8203845e-14,-1.08294755e-13,8.067927e-14,-4.8648883e-14,1.5114822e-14,-1.1873883e-13,1.5735456e-13,-1.2490502e-13,-1.6092974e-14,-1.0075228e-13,1.924948e-13,7.176819e-14,6.000501e-14,6.063946e-14,-6.83612e-14,-2.4625056e-13,1.1788457e-13,-0.3242303,1.0930644,-1.2132526e-13,-1.7556776e-13,1.6654545e-14,2.022632e-14,-2.3513851e-13,-0.65608287,-0.4856584,3.2388182e-14,-6.762223e-15,-1.3524812e-15,3.035736e-13,3.180902e-13,5.478588e-14,-4.432321e-14,-7.8548604e-14,5.2504177e-14,-1.5017081e-13,2.4899175e-13,1.1041667,-4.1057273e-14,3.9950953e-15,1.3794636e-14,-6.053036e-14,3.2338915e-14,-1.1634567e-13,-2.2314449e-13,5.766709e-14,3.68312e-14,1.1877722e-13,3.5955878e-14,6.932588e-14,4.462053e-14,1.7611704e-13,-9.046256e-14,2.8421764e-14,1.2289665e-13,-1.5605762e-13
1.09219986e-14,-2.9910834e-15,-2.1930984e-14,-6.9648124e-14,-7.176939e-14,-2.715345e-13,2.437217e-13,1.931811e-15,1.7539355e-13,9.714447e-14,1.201159e-13,-0.4931147,-0.80522764,7.808803e-14,2.4004792e-13,-1.136251e-14,-1.1670597e-13,5.4439085e-14,-1.1439508,0.12320004,1.7377164e-13,6.372995e-14,-1.2798105e-13,-5.0848147e-14,-1.8932313e-13,-2.1213154e-14,9.048072e-14,-3.9043402e-13,4.6706386e-14,1.4567544e-13,1.1357741e-13,-0.2634067,-4.8805673e-14,-3.130537e-13,4.3578666e-14,-3.612922e-13,-3.7127826e-14,-6.098087e-14,-1.5900896e-13,-7.67301e-14,9.483373e-14,1.8280296e-13,7.472147e-14,1.471926e-14,5.2549043e-15,1.3929305e-14,1.5983044e-14,-1.4408749e-13,-2.2267426e-13,-2.6053571e-14,4.2831353e-14,-1.9571612e-13,7.0370006e-14,9.6844604e-14,9.31934e-14,1.342233e-13,-7.139712e-14,-1.8413767e-13,-4.7100358e-14,-1.420997e-13,-5.109073e-14,-0.55793875,0.8593648,-1.683107e-13,3.655179e-14,6.951807e-14,2.537726e-13,6.252945e-14,0.02016105,-0.5637588,-2.643293e-14,8.713786e-14,-4.693161e-14,-8.943949e-14,-4.1903398e-15,2.1906438e-13,-1.4880085e-14,-5.010369e-14,9.272874e-14,7.3858197e-14,-4.675371e-14,1.1112407,-7.017009e-14,-3.5665302e-13,-2.454439e-13,3.2875056e-14,1.5227874e-13,-2.9990377e-13,-4.9943333e-14,-1.530962e-13,1.4535495e-13,-4.1252586e-13,-3.5063383e-14,-2.058531e-14,-1.2449772e-13,-3.297629e-13,-1.0900906e-13,2.9454566e-13,2.337525e-14,-2.1100954e-13
3.7503735e-13,-1.8103554e-14,1.2805695e-13,-4.9852585e-14,-2.0233401e-14,5.607045e-14,5.041278e-14,-5.1351078e-14,-3.826897e-13,-3.0596727e-13,1.4930773e-13,-0.8344758,-1.3030636,-2.7149783e-13,-3.610225e-14,-3.8154396e-14,7.0431264e-14,-7.27359e-14,-1.0905327,0.87345135,4.54954e-14,3.705952e-14,-7.34943e-14,2.0110748e-14,-1.3797211e-14,1.016164e-13,-1.2341487e-13,5.3171943e-16,5.703704e-14,1.2491809e-13,4.387207e-14,-0.8022706,8.376765e-14,1.549886e-14,1.6981882e-13,-1.7107355e-13,-1.3322476e-13,-1.1403439e-13,1.9686916e-13,-3.3830415e-13,3.2625576e-13,3.6972072e-13,-8.2899026e-14,2.0985928e-13,-1.8339476e-14,-2.0296685e-14,4.8734664e-14,-1.4299804e-13,-2.8690324e-14,3.7395282e-13,-6.33808e-15,2.2242154e-13,-2.5988554e-13,-5.5044182e-14,1.2198722e-13,-5.854224e-14,-3.7764185e-15,-7.9771666e-14,-1.8723423e-13,1.5605453e-13,-3.0442332e-13,-1.0236772,0.14193483,2.6825696e-13,2.0510609e-13,-1.2242998e-13,-1.5882288e-14,5.744711e-14,-0.58850217,-1.0489061,-2.2461002e-13,4.7302447e-14,-4.9671164e-14,1.6410714e-13,-1.6606538e-13,9.562809e-14,1.0307191e-13,4.484858e-14,-8.427894e-14,1.6945577e-14,2.3972723e-14,1.872469,1.6251269e-13,-3.556974e-13,4.0339646e-14,-2.3704048e-14,4.98673e-14,-1.6111556e-14,2.0035592e-14,1.0501663e-14,3.7756e-14,1.61974e-13,-3.3661503e-14,1.2481628e-13,-1.682654e-13,-1.1065855e-13,-4.031327e-13,3.7835752e-14,2.8611086e-14,2.274515e-14
1.7589893e-13,-9.0445555e-14,-1.6956072e-13,1.0778774e-13,-1.4843534e-14,5.801984e-14,-1.1973335e-13,-1.7162324e-13,-8.431039e-14,-1.706211e-14,1.4936915e-13,-0.89692706,-1.3529633,2.1417411e-13,2.0972856e-13,4.2659835e-13,6.650221e-14,1.1912621e-13,-1.1055883,1.0386914,8.5575474e-14,2.5528895e-16,-9.5909764e-14,-1.3377286e-14,-2.5465927e-14,-1.6954439e-13,-1.1718342e-13,-1.2143552e-13,2.319005e-13,7.815295e-15,2.2070734e-13,-0.85299516,-4.195359e-14,-2.5867126e-13,-1.28930375e-14,-2.089165e-13,2.3074743e-14,-9.5468826e-14,2.6210238e-13,6.998995e-14,2.9438268e-14,-7.218923e-15,7.203294e-14,1.311087e-13,6.952334e-14,1.116808e-13,-1.3312996e-13,1.12663486e-13,-4.2427735e-14,-3.442354e-14,-1.0373828e-13,3.9791832e-14,-1.3596698e-13,-2.0712564e-14,-3.468644e-14,2.0328043e-13,6.0920026e-14,2.9018752e-13,3.121959e-13,-3.0425227e-14,-9.372616e-14,-0.9878743,0.44273034,-3.2576302e-13,1.5810158e-15,1.1360352e-13,-4.540221e-14,1.0445544e-13,-0.91044354,-0.9766696,-3.9183977e-13,3.1761418e-14,-3.7674135e-14,-1.5529436e-13,-9.986693e-14,-1.08531734e-13,-1.12337575e-13,-2.3893536e-13,4.0854852e-13,-2.1772453e-14,7.187565e-14,1.4391143,-3.352231e-13,5.012714e-14,1.3446995e-13,1.7581505e-13,4.3849364e-14,-9.003286e-15,1.3753042e-13,2.662583e-14,-1.0585061e-13,-1.5517588e-13,-8.062848e-14,-7.0705865e-14,-1.5134343e-13,1.06919146e-13,1.9182052e-13,1.3524709e-13,2.0911178e-14,-1.153746e-13
3.2691227e-13,-1.1255522e-13,2.2377624e-13,1.1689335e-13,1.00847614e-13,5.7556905e-14,-1.1262153e-13,4.747987e-14,8.463637e-14,7.570052e-14,-1.3431636e-13,-0.7308138,-1.2447296,1.0731095e-13,-1.5439361e-13,3.983361e-13,2.2072879e-13,-5.1572922e-15,-1.2482156,0.7763356,1.5783013e-13,-3.988182e-14,-1.01743416e-13,-1.0434057e-13,3.2150587e-13,-1.1421541e-14,-1.987084e-13,-5.959192e-15,-9.206412e-14,-1.6839836e-13,1.6369325e-13,-0.8243606,3.357328e-13,7.475015e-14,1.1855637e-13,-7.0618885e-14,-6.3576436e-14,1.9474114e-14,3.3898987e-14,-3.1952308e-13,5.734535e-14,-4.8801464e-15,-8.5415385e-14,4.278356e-14,3.7831402e-14,1.0570341e-14,-1.3653766e-13,9.680655e-14,-5.0055222e-14,1.235942e-14,-2.845928e-14,1.11197435e-13,1.2416417e-13,-1.2215351e-13,-8.675921e-15,-4.8368847e-14,-6.703164e-14,-1.7730758e-14,-3.042343e-14,-1.1538303e-14,1.5132584e-13,-0.8902828,0.22904126,-1.00929586e-13,-1.210439e-13,6.0580725e-14,-7.347123e-15,-3.485037e-14,0.065315396,-0.84358114,-1.8066833e-13,1.2631558e-14,-9.595667e-14,-1.4573117e-14,-9.2415076e-14,-5.1265578e-14,1.1963657e-13,-7.269805e-14,-4.1546966e-14,1.2453702e-14,-1.229649e-13,1.255527,-9.248043e-14,-1.0785769e-13,-7.171911e-14,-3.0115914e-14,-1.9587949e-14,-6.452021e-14,9.210048e-14,6.528741e-14,-2.704122e-13,1.7494028e-13,-2.072746e-13,-4.5144186e-14,-6.082478e-14,-3.7215246e-14,-1.5634634e-13,8.216042e-14,-5.0409723e-14,-3.9320045e-14
4.719683e-14,1.3401042e-13,-5.6198336e-14,1.0201422e-13,-2.8976987e-14,-4.7878212e-14,-5.509818e-14,-2.1054637e-13,-1.517314e-13,-1.9156442e-13,-1.7590101e-13,0.6182837,-1.5846554,1.0449302e-13,2.9632702e-15,7.929821e-15,9.057467e-15,-6.072179e-14,-1.5037689,-0.40096354,2.891106e-13,-7.6934444e-14,1.1543148e-13,-3.6675043e-14,-2.7341405e-13,-3.29419e-13,-2.2593947e-14,1.6772968e-13,2.3311626e-13,-1.3343601e-14,7.9972e-14,-1.3834122,-5.855986e-15,8.9222846e-14,-8.699557e-14,3.7222273e-14,1.0667231e-13,1.8943343e-13,-8.3310535e-15,-2.862422e-13,-1.9902752e-13,1.334725e-13,9.108091e-14,9.700753e-15,-1.3640503e-13,1.2067773e-13,1.6120854e-13,-1.4889284e-14,3.7015448e-13,-2.215805e-14,1.5598296e-13,-2.4208175e-14,-2.7850999e-14,6.8193904e-14,4.199046e-14,-8.9448367e-14,2.355673e-13,-2.2520093e-13,-9.8395975e-14,6.826479e-14,4.5746962e-14,-1.3558769,-0.39055476,-2.0851395e-13,-2.6652773e-14,-1.0432623e-13,-1.0411811e-13,1.9877375e-13,-0.27237985,-1.3263898,1.4126534e-13,1.0682185e-13,1.00143154e-13,-2.7333008e-13,7.8234775e-14,-1.5645907e-13,-3.2383794e-14,-1.6012423e-14,3.2634076e-13,-9.2178875e-14,3.1840666e-14,0.07711635,1.9717374e-13,2.6679746e-13,-1.8903827e-14,-1.8645182e-13,-1.7382803e-13,1.9961328e-14,8.449474e-14,-3.0185896e-14,-3.627304e-14,-3.3317722e-14,-1.08756415e-13,7.1237294e-14,-1.5928886e-13,2.5629488e-13,1.58931e-14,-2.1160986e-13,-6.019732e-14,-2.710721e-13
-2.430535e-13,-1.4705795e-14,2.2301266e-13,-1.9353342e-13,2.7375258e-14,-3.0001248e-13,-2.7225963e-14,-1.265749e-13,4.6795165e-14,-7.565386e-14,-2.0473398e-13,0.048277244,-1.0438629,-3.2175102e-14,-7.752211e-14,1.0686311e-13,8.85134e-14,-3.0655146e-14,-1.3656884,-0.32324678,6.4251596e-14,1.8300324e-13,2.627054e-13,4.2257315e-14,1.5027687e-13,-2.1431966e-16,-8.971414e-15,7.8209296e-14,1.1430569e-13,1.2179695e-13,1.3492431e-13,-0.70067686,1.8105886e-13,-1.0770413e-13,-2.5695619e-13,-1.9268415e-13,8.2412565e-14,1.152089e-13,-1.4952369e-13,8.795414e-14,2.2615412e-13,-4.1354737e-14,1.765431e-13,-2.1130999e-15,-1.1514441e-13,-9.30011e-14,-3.470539e-13,1.2094306e-13,-2.0153585e-14,1.7551295e-13,-1.8787783e-13,4.9928936e-14,8.181439e-14,-2.7461627e-13,1.12310714e-13,2.4653592e-13,2.312439e-15,3.7730026e-14,-1.2292606e-13,-2.964828e-13,1.311899e-13,-0.7403529,0.42946833,2.2663905e-14,1.6345733e-13,-1.6157221e-13,-2.4139336e-13,-4.1195346e-15,0.18496343,-0.739048,2.9997104e-13,-4.3036467e-14,2.552402e-13,1.5651375e-13,1.0955175e-13,-4.8314617e-14,3.1395252e-14,-7.783123e-14,2.3628079e-14,3.0539636e-13,9.380144e-14,0.4130296,-2.3087196e-13,-1.853655e-14,1.1543782e-14,8.4587014e-14,-4.1971906e-15,9.1560094e-14,8.6488074e-14,-7.068055e-14,3.2817624e-14,-2.7568883e-14,2.0390002e-13,4.670987e-14,-1.058715e-13,3.7893568e-13,-3.7095855e-13,1.8450409e-13,-1.0527888e-14,-3.104577e-14
3.586973e-14,1.1597365e-14,-7.150698e-14,4.0092482e-14,-1.5747126e-13,-2.1793153e-13,-1.7436474e-13,-1.8783084e-13,6.9949404e-14,-5.0719052e-14,7.595644e-14,1.1161962,-1.0777401,-1.7129974e-14,2.4564132e-13,2.5445276e-13,-3.0389225e-14,-3.604559e-14,-1.2557389,-1.3092781,1.2399912e-13,-6.0857725e-14,-1.606316e-13,2.6675954e-13,1.260788e-13,-1.8634007e-13,-1.9983905e-13,-3.5602817e-13,1.4665352e-14,2.1036605e-14,-6.09545e-14,-0.87155014,-1.2008241e-13,8.669255e-14,1.9295194e-13,-3.0211746e-13,-4.2369164e-14,1.579849e-14,2.1675563e-14,-3.564537e-14,3.5367583e-14,-3.9437046e-13,1.06456714e-13,-8.900683e-14,2.1292424e-13,-9.161767e-14,-3.8027822e-14,1.3616346e-13,-4.153134e-14,-1.3931166e-13,-1.7324558e-14,2.891946e-14,1.5516959e-13,-2.4357285e-13,3.9836637e-13,-4.019609e-14,-7.928798e-15,1.06618504e-13,9.533997e-14,7.041751e-14,6.3712477e-14,-0.8004876,0.69979167,1.3015768e-13,-1.1626794e-14,-4.5394867e-15,-2.1279025e-13,-2.432818e-13,-0.52358073,-0.78172517,-3.1827825e-13,-1.0734429e-13,-3.4662448e-13,3.0460396e-14,2.2784547e-13,-1.2683856e-13,8.609753e-14,2.0975782e-14,2.9095595e-14,2.2028698e-14,-1.4660323e-14,0.49453196,1.1714113e-13,1.0013634e-13,1.0568998e-13,6.464613e-14,4.328339e-14,4.4271742e-14,-4.1730342e-14,-6.638262e-14,-2.585421e-14,-2.7694288e-13,1.7697265e-13,2.6503962e-13,1.1381275e-13,-1.2794393e-13,-4.3544724e-14,-7.688473e-14,4.0559177e-14,6.256787e-14
-5.910652e-14,1.1513796e-13,-1.07958144e-13,8.228078e-14,-3.4933682e-13,-2.0027724e-13,-2.6617841e-14,1.0618329e-13,-2.4257906e-14,2.6836175e-13,-6.463261e-15,1.30146,-1.2468464,-2.372454e-13,5.5389985e-14,1.229857e-13,6.361644e-14,-2.5939044e-13,-1.0766574,-1.03735,-8.996193e-14,2.4779907e-13,-1.7346001e-14,1.0273129e-13,-1.7176285e-13,3.4821763e-13,-2.3090679e-14,3.6941817e-14,-3.6951477e-14,-7.824335e-14,9.6729984e-14,-1.2195323,-3.313906e-14,1.3794517e-13,-1.4787028e-13,8.411647e-14,7.656516e-14,-1.9951848e-14,2.6436122e-14,5.6600483e-14,-1.4507967e-14,5.894001e-14,-6.7075875e-14,-1.8496631e-13,-2.3426462e-13,-2.4838372e-13,-1.4666053e-13,2.699086e-14,-4.199374e-14,1.376454e-13,4.1346206e-14,-5.796449e-14,6.956909e-14,6.3359515e-14,1.3240285e-13,8.722539e-14,2.2323316e-15,-4.224217e-14,8.5899387e-14,6.7660314e-16,-8.42276e-15,-1.0695041,0.09650261,-2.6825547e-14,-8.73108e-14,-1.9750037e-13,-6.994668e-14,2.6654443e-14,-0.3407153,-1.0271336,-4.6468648e-14,1.7728408e-13,-1.3133152e-13,6.615806e-14,2.3879244e-13,-3.06425e-13,1.1158598e-13,2.837381e-13,1.3311113e-13,-2.2833328e-14,7.363002e-14,-0.2520249,3.0438496e-13,-1.6506185e-13,-1.3179968e-13,-2.0201325e-13,1.4025239e-14,1.6135918e-13,-2.02963e-13,-4.2434643e-14,8.71043e-14,-2.3154018e-15,2.5477615e-13,1.2343556e-13,-1.8192388e-13,1.499087e-13,3.8817297e-13,9.682087e-14,-1.5993522e-13,-1.6851571e-13
3.800959e-13,1.08404056e-13,1.4582308e-13,-2.913556e-14,1.8617336e-13,-1.7337181e-13,-1.06027356e-13,-8.553703e-14,-2.244637e-13,-1.3843226e-13,-1.7307824e-14,1.4549463,-1.4488562,-2.6682958e-13,7.464032e-14,-3.3395135e-14,-2.4824766e-13,-7.8930704e-14,-1.3822695,-1.3299787,-2.1168438e-14,1.09769934e-13,1.4105997e-13,-9.126566e-14,-1.5332207e-13,5.1526566e-14,-6.766709e-16,1.1520953e-13,-8.769793e-15,8.542753e-14,-7.2513705e-14,-1.3000208,-7.495949e-14,-1.1779128e-15,-1.3631957e-13,9.7267334e-14,-2.4796613e-14,1.9360463e-13,-7.3797115e-14,-2.9271988e-14,1.150203e-13,7.0605034e-14,-1.866562e-14,-1.676518e-13,-1.8005562e-14,-1.12391175e-14,7.0523326e-14,-1.910828e-13,5.471526e-14,-2.3798693e-13,1.279506e-14,-5.0307184e-14,4.178376e-13,-1.0262239e-13,-1.0668102e-14,1.0771311e-13,-4.5451178e-14,-9.715796e-14,-1.3523194e-13,-6.46228e-14,-6.884023e-15,-1.2988049,0.44024983,-1.1609e-14,-1.5841546e-13,-1.7661754e-13,-9.3935934e-14,1.8929246e-13,-0.1600542,-1.2109264,7.434098e-14,-1.2241651e-13,-6.29264e-14,1.3773454e-13,-7.236351e-14,7.800196e-14,6.826498e-14,-1.6830814e-13,-1.9249631e-13,-2.3213422e-13,-4.9617564e-14,0.31335923,6.147349e-14,-3.1177724e-15,-8.734209e-14,2.0494422e-13,-1.6648995e-13,1.7025548e-13,8.3826975e-14,3.2134356e-14,4.7592477e-14,-2.8691703e-14,2.5656545e-14,1.401497e-14,-3.0747574e-14,1.5280474e-13,3.7756453e-14,9.1441835e-14,1.3137703e-13,-5.85512e-14
2.2471371e-13,-2.9591015e-14,8.550055e-14,-4.153336e-14,2.0749997e-14,-3.4220558e-14,-9.357295e-14,2.5748503e-13,4.0293472e-14,-2.110484e-13,-3.9445633e-13,1.1576682,-1.3386296,-4.03507e-14,-1.00625454e-13,8.098288e-14,-6.1586044e-14,7.310834e-14,-1.4350106,-1.0330801,8.8078674e-14,-1.2172469e-13,3.5168208e-14,2.0655686e-13,1.7381204e-14,1.9581132e-14,-2.4768073e-13,2.7216802e-14,-5.4462345e-14,-2.2223083e-13,-2.9765296e-13,-1.1471528,-1.236841e-13,1.1316991e-13,-4.8980002e-14,5.866912e-14,-2.3255527e-14,1.243239e-13,-5.630116e-15,-1.3792434e-13,-2.255563e-13,-4.7350497e-14,2.8240902e-13,-1.8538773e-14,-1.4376936e-13,9.5616345e-14,-8.1294495e-14,7.88706e-14,-2.38338e-13,1.5497193e-14,-1.1595469e-13,7.268177e-14,6.751702e-14,-1.6166281e-14,-2.5528909e-14,-7.9669046e-14,-3.219335e-15,-6.2309546e-14,-4.176304e-14,4.8635934e-14,-3.0619444e-13,-1.2339759,0.1986095,5.1464922e-14,-3.5637135e-13,-1.9820076e-14,3.577414e-14,-1.3586642e-13,0.18171638,-1.2154876,1.360106e-13,-1.2732594e-13,-4.0999546e-14,1.4161553e-13,-1.3052736e-13,-9.743711e-14,-6.246417e-14,-7.421129e-14,-1.155123e-13,-3.5751187e-14,-7.795847e-14,0.1386315,-2.1572174e-14,-4.6231316e-14,1.1318262e-13,1.05957445e-13,-2.1331407e-14,-1.2126408e-13,2.8943064e-13,-5.568272e-14,1.4857795e-13,1.8799784e-13,-1.7596162e-13,1.03956835e-13,9.37176e-14,1.7891114e-13,2.8021795e-14,2.5355602e-13,1.5605152e-14,1.8062364e-14
-6.1620454e-14,-4.9765473e-14,-1.6072149e-13,-1.1992455e-14,-6.2281824e-14,1.4925596e-13,6.34469e-14,-3.4777785e-13,-8.841589e-14,-1.1508008e-13,-2.4027113e-13,1.3681011,-1.3910437,-1.5049032e-13,3.920588e-13,-3.3600908e-13,-2.1336714e-13,-2.8775546e-14,-1.3882118,-1.1252533,2.727613e-13,1.7004474e-13,-3.232436e-13,3.5011582e-14,1.1790165e-13,-2.5512584e-13,-9.564631e-14,8.3487145e-14,1.9761146e-13,-3.7896674e-13,2.3067358e-15,-1.245386,-2.8304038e-13,-2.1051418e-14,-4.0951726e-14,1.2065427e-13,-1.8660572e-13,2.56189e-13,1.01452545e-13,-1.585094e-14,-1.3354575e-13,-6.721233e-14,1.2184742e-13,-1.1809707e-13,-6.468628e-14,-1.2529867e-13,1.726825e-13,-1.9963722e-13,-5.525801e-14,4.4754775e-14,2.1419215e-14,3.5574726e-14,-1.8197927e-14,4.1270017e-13,1.7805515e-13,-1.3024488e-13,1.0749983e-14,-1.7842578e-14,8.3187716e-15,3.369943e-14,1.308908e-13,-1.1620061,0.22143692,7.066086e-14,1.1599852e-13,6.514444e-14,-9.067475e-14,5.4689363e-14,0.14340615,-0.9837488,-9.2820256e-14,3.0206013e-13,5.102296e-14,-1.3326944e-13,-1.310092e-13,1.3329092e-13,1.3031453e-13,6.552922e-14,-3.183873e-13,-4.8615212e-14,2.3780237e-13,-0.40275624,5.5548312e-14,3.2574448e-15,-3.995136e-14,1.0008907e-14,1.2608301e-13,-3.5684753e-14,4.8025948e-14,-2.2057395e-14,-7.501076e-14,-1.9103507e-15,-1.0953047e-13,-1.2415561e-13,2.145159e-13,8.347798e-14,7.7815765e-15,-1.0444648e-14,-2.0675983e-14,1.1708231e-13
-1.7143137e-14,3.541639e-13,1.482086e-13,9.637841e-14,-2.3359157e-13,9.524923e-14,-1.3377332e-13,-5.7316355e-14,3.9253946e-14,-8.7469826e-14,-3.4107367e-14,1.3263006,-1.3727088,9.685466e-14,-4.7771967e-14,1.9764453e-13,2.7092857e-13,8.0107944e-14,-1.3561963,-1.1873058,7.881537e-14,2.4066616e-13,-9.604424e-14,3.7463956e-14,-5.6194134e-14,3.6267612e-13,-2.6816158e-13,1.6873459e-13,-5.6539683e-14,-9.266137e-14,1.1646885e-13,-1.2769433,-7.938966e-14,6.799597e-14,1.3844068e-13,-3.5318712e-14,6.229465e-14,6.762746e-14,-8.077311e-14,3.3965411e-15,7.8584817e-14,-7.351819e-15,2.0724123e-13,3.4566066e-14,2.9945837e-14,-1.7445542e-13,5.017616e-14,-7.274962e-14,-4.411363e-15,1.4531304e-14,3.7238228e-14,-5.2821473e-14,-1.474647e-13,-8.1479616e-14,2.3191593e-14,-1.4935617e-14,1.4792636e-13,-2.587744e-14,-3.057773e-14,-2.7715409e-13,8.3894216e-14,-1.1980925,0.43353212,1.9609978e-13,1.5067071e-13,1.8253738e-15,-1.4995969e-13,-5.129715e-14,0.27530494,-1.1125643,5.2257027e-14,-4.5371896e-14,1.8900594e-13,1.8447043e-14,3.9325368e-14,-7.6664e-14,2.511916e-13,3.700113e-14,4.7443145e-14,-2.2389673e-14,3.859797e-14,-0.23354687,3.0775356e-14,-3.635884e-13,2.6739753e-14,-6.1014704e-14,3.5168188e-14,2.854443e-13,-6.7838598e-15,-7.7031683e-14,1.9447863e-14,-8.268169e-14,-1.1938248e-13,4.8147934e-14,-2.0124557e-13,-1.158959e-13,1.9440409e-13,-2.4453341e-15,3.5023027e-14,1.3512878e-13
4.1701167e-14,-3.7654958e-14,-8.7278844e-14,7.8029556e-14,-7.222514e-15,4.6079724e-14,-4.0622697e-14,3.725716e-13,1.0408571e-13,-9.307316e-14,-1.6091482e-13,1.3339045,-0.9997766,-9.548463e-14,3.9075426e-14,-4.023219e-14,-3.5072867e-13,2.4902256e-13,-1.2664511,-1.4939963,1.4200456e-13,-1.3351734e-13,-2.1192734e-14,1.080128e-13,3.8546477e-14,1.9613244e-14,-1.8338609e-14,2.0689432e-13,5.628046e-15,-2.957538e-13,-5.2174018e-14,-0.91067463,-1.7218769e-13,1.968612e-13,-5.2825928e-14,2.3338566e-13,1.8265622e-14,2.1293292e-13,1.6617149e-13,-6.5049217e-15,3.2141079e-13,2.5207638e-13,3.1768547e-14,1.4840432e-13,1.13277545e-13,2.6829372e-14,2.5945178e-15,9.880131e-14,-8.972067e-14,1.006916e-13,2.2696837e-14,-1.2544376e-13,-1.3052303e-13,2.2344599e-13,-1.2799158e-13,-1.00380716e-13,1.7544801e-13,1.0804154e-13,1.2275695e-13,1.1286184e-13,-2.9852172e-14,-0.724965,0.8351105,1.9489704e-13,2.6994393e-14,-1.0685773e-13,-3.882423e-13,1.9108214e-13,-0.35934097,-0.71384764,7.600294e-14,-1.8870683e-14,6.4816445e-14,-3.326694e-14,-2.1710301e-13,-1.2315897e-13,2.0880468e-13,4.930225e-14,-3.3301236e-14,8.415116e-14,-3.3081248e-14,-0.19712505,1.1485367e-14,-4.3945635e-14,1.1204121e-13,1.13052715e-13,-2.3838218e-13,-3.383761e-14,-1.5755162e-13,2.4374572e-13,1.7597321e-13,1.486143e-13,-5.440685e-14,-6.0636764e-14,-1.7962447e-14,4.1647697e-13,7.195451e-15,5.8689503e-14,1.9759005e-13,1.8714159e-13
