-2.3405063e-13,-2.0037696e-13,5.7141596e-12,-2.3356935e-13,-1.7175606e-13,-3.012274,-2.5472531,3.0895865,-1.9790572,-2.1239774,6.8450107e-13,-2.680831e-13,-1.9407706,4.590273e-13,-3.4296346,-3.0388467,-2.3302965,-1.231877e-12,-2.1096501,2.5334167e-13,9.89611e-14,-2.2457628,-3.0493803,-1.6966544e-13,4.0538054,-5.019488e-13,-8.954687e-14,-1.2954935e-13,-4.606695e-13,-4.167363,4.87858,1.454272e-13,-1.359894e-13,3.0103028e-13,-1.9944402,4.4032247e-13,-9.882299e-13,1.0540637e-13,1.450484e-13,-2.0093784,-2.8126964e-13,-1.7315371e-13,-5.3938156e-12,6.4558276e-15,-6.206667e-13,2.3059552,2.6560638,-3.649769,-4.8422937,-2.8031383,8.09493e-14,-1.8168306e-13,3.124746,1.6753742e-13,2.7355385,2.3154619,-2.353954,7.2436015e-14,3.933417,-4.7550126e-14,1.8458882e-13,-3.0301275,2.4224207,-3.1514258e-13,4.6444263,2.748564e-13,-7.496898e-14,2.892776e-14,4.121138e-14,2.9538376,-3.2467308,-2.0773015e-14,5.800742e-14,5.399467e-13,-4.947061,4.1434876e-13,-4.346129e-14,-2.0022465e-14,-1.9113655e-13,-3.7734997
-2.5802014e-13,1.4106453e-12,-9.940974e-14,3.714655e-13,-1.6236498e-13,-1.8391819,-2.0149024,-1.8193462,-0.9838503,-1.3672599,5.085189e-13,2.921193e-13,-1.0891384,9.212652e-13,-1.4826332,-1.6655586,-1.237544,1.4955756e-14,-0.9581871,2.644317e-13,3.826413e-13,-1.2161347,-1.6773559,7.6056925e-14,-2.1564534,-6.6103454e-14,-2.3164959e-14,2.4285646e-13,2.0936107e-13,-1.755483,-1.8254843,-3.213645e-13,-2.4957749e-13,-1.4742485e-13,-0.93098277,2.6916685e-13,-5.597372e-14,3.1136806e-13,-1.8613652e-13,-1.424242,1.4114753e-12,2.95299e-13,1.4932454e-12,-4.2169786e-14,-1.6701394e-13,-2.793527,-2.0293562,2.933703,1.502929,3.2176948,7.1941436e-14,1.6301691e-14,-1.6866299,-4.5193057e-14,-2.9038045,-2.6907318,1.7109511,3.0852558e-13,-1.7043554,1.871206e-13,-7.989145e-14,1.6430678,-2.6168244,2.4499917e-13,-3.7372253,1.9956253e-13,-4.664512e-13,-9.237538e-14,1.435723e-13,-2.8882973,2.861159,-5.619193e-13,-7.232072e-13,-1.85268e-14,1.3728858,9.464355e-13,1.2750027e-12,8.902953e-14,-4.5898506e-13,2.7633047
5.7476176e-13,-4.5037978e-13,-4.4296096e-14,1.6703707e-14,-8.6836094e-13,-1.2832044,-0.75450474,-0.82675195,-0.30612695,1.459006,-1.1074688e-13,3.8959775e-13,-0.30859035,-3.8432257e-14,-0.3153834,-1.1344028,0.008655027,-2.1915136e-13,-0.24324892,8.2341816e-13,4.9961294e-13,-0.40496555,-2.2741623,2.345827e-13,-1.5736678,7.8816524e-14,-8.595081e-13,4.2562694e-14,-1.8726604e-13,-0.6603479,-2.8416674,3.875856e-14,-4.290379e-13,-3.3666288e-13,-0.33828506,-1.4698148e-13,-9.2753835e-15,-1.5987621e-13,-7.464233e-14,-0.93161243,-3.3187618e-14,-4.601998e-13,-5.147436e-13,1.1566845e-14,3.906851e-13,-2.2537549,-1.6953859,1.1775132,0.8414894,1.4804481,8.920519e-14,4.3752084e-13,-1.3143997,1.5057415e-13,-1.5995934,-2.0814924,1.04006,-2.925376e-13,-1.6969461,1.2874967e-13,-2.472201e-13,1.2575874,2.8606594,1.2865784e-12,-1.8681582,-9.4164944e-14,7.666599e-14,3.1783702e-14,2.2705924e-14,-1.29468,2.9044979,1.78253e-13,2.2731293e-13,-1.5006677e-13,0.7592855,-3.428919e-13,8.396004e-13,-6.371958e-13,1.1097941e-13,1.8467414
1.8386262e-13,-3.0586137e-13,-5.043919e-13,-2.5809907e-13,-4.0834466e-13,1.7710588,1.8940476,3.220403,1.6517909,1.6129614,-3.540444e-14,1.8939567e-13,1.422768,-1.4302051e-13,3.1867683,1.723705,1.0404398,7.8406994e-14,1.8301705,1.5593328e-12,3.107995e-13,1.7040755,2.3236277,8.547921e-14,4.981379,2.2659331e-13,-1.5073198e-13,-6.2275207e-13,4.837684e-13,3.2531374,5.0703983,1.6562964e-13,7.997095e-14,1.9729434e-13,1.8814129,6.1906846e-14,-3.9517925e-13,-5.810398e-13,1.0975346e-12,1.891608,-1.4171387e-13,2.1849986e-13,2.2792152e-13,3.8521066e-13,2.0117135e-13,0.04887814,-0.17421848,0.38519976,0.3412316,0.016227959,1.4719622e-13,-1.4753034e-12,-0.08676586,5.778031e-13,-0.17606771,0.1190239,-0.056388997,6.167928e-13,-0.2264515,9.459835e-13,-9.5001196e-14,0.11434509,-0.15869716,-1.00326214e-13,0.10816394,-4.966039e-14,-1.79715e-13,2.5870403e-13,-9.591807e-13,-0.24262343,-0.016994067,5.0351303e-13,9.5282425e-14,1.5480011e-13,0.36881545,4.3228843e-13,-2.024139e-14,3.1961052e-13,1.070972e-12,0.03503246
